solver_type L2R_L2LOSS_SVC_DUAL
nr_class 2
label 1 -1
nr_feature 38525
bias -1
platt's -8.114675477290756 -1.970821930334129
w
-0.0249826662902188 
-0.04279210390794794 
0.08532065896321329 
-0.4132879850099233 
-0.6397909904733173 
-1.830311388810879 
-12.29990395547987 
-2.11201723616959 
-0.7181970124252036 
-0.003568952327174114 
-0.05645378042683662 
-0.04558844215363209 
-0.405608519881784 
-0.4790723561132215 
-0.5501070051631056 
0.06062897669604214 
-0.223834841262886 
-0.4109890676057378 
-0.06283805136103648 
-0.5642114456577767 
-0.09066813666289039 
-0.5948192085818513 
-0.0291923081271645 
-1.144045692446291 
-1.110392123393268 
-0.1654743706603113 
-1.320952459582554 
-0.08400003587688179 
-0.1189721530079974 
-0.1016815175661059 
0.1349060378857472 
-1.924991926101503 
-1.498675542138146 
-3.569660897740708 
-1.697097150511031 
-0.1670471834749863 
-0.2192690033059707 
-2.110024750104086 
-0.1943878072502865 
-1.844944536522243 
-1.186117796289287 
-1.213812772727576 
-0.03575246880007864 
0.01798315173987623 
-1.073745967351605 
-2.732003470745721 
-0.2003724693907873 
-0.7591385906112064 
-1.197427891056303 
-0.360229862166058 
-1.650130895837945 
-0.5621049698178693 
-0.9368698807170943 
-0.2053566014606566 
-0.6678512864445921 
-0.9589589393609179 
-0.8990117186240965 
-0.0502184602209149 
0.2612162357059911 
0.1221656504773064 
-0.2997249399612417 
-0.003568952327174114 
0.7702130851077268 
-0.4964404659492465 
-0.2697378702382809 
-0.003568952327174114 
-0.4648172321530873 
0.05696330169255995 
-0.02137008495611696 
-0.15279383155591 
0.0003205197456976038 
-0.763279552531873 
-1.491834368440196 
-0.6538640330683901 
-1.372221698058905 
-1.648837479940786 
-2.156320920162314 
-0.1009831732565279 
-0.5475065331515214 
-0.3918634849569079 
-2.11426407328396 
-0.2717687801659148 
-0.8540733081621784 
-1.51663652890665 
-1.89595115645279 
-0.8430988160435091 
-0.07232754344685913 
-0.009000457475999629 
0.003970736046188845 
-1.403669885389282 
-0.007658640424071656 
-0.0619475013041114 
-0.3944968726269399 
-0.5262067386437024 
-0.3655269075884582 
-1.770089684655337 
-1.158182880718267 
-0.04348241354252252 
-0.003568952327174114 
-0.1078731721620581 
-0.08962165280086654 
-2.512240399385543 
-0.2632712741257136 
-0.009364975596823272 
-0.4314784274020526 
-0.451414158832493 
-0.003568952327174114 
-0.003568952327174114 
-0.2989210280762422 
-1.947944303269995 
-0.3084814645463207 
-0.04221250030033256 
-0.3362344682131119 
-0.003568952327174114 
-0.180910953725447 
0 
-0.004914194938055449 
-0.42949492024897 
-3.176452749895302 
-0.731725175628252 
-0.008701569627552797 
-5.695130620778674 
-0.4536504718321541 
0 
-0.0001201980779419796 
-0.7818629895903842 
-0.07840766861677684 
-0.06905006011794011 
-0.03563806579462062 
-7.072260696929067 
-2.287505122927054 
-1.098978521272734 
-0.2807999542397809 
-0.2669721606932894 
-1.958091359572839 
-0.03816418947460545 
-2.012818338258255 
-1.7614159208736 
-0.2578244257420933 
-0.06131272620932313 
-0.8072104351555509 
-0.03900445894064597 
-1.410317862219097 
-0.2348957477490662 
-0.007200679710119109 
-0.2607593335431438 
-0.0003335527864102577 
0.9632908339810886 
-0.1441545273348322 
-0.3006265472849241 
-1.487888257318088 
-0.3853111738515427 
-0.004788740132048031 
-0.03275873887107831 
-0.324657734431895 
0.04086128790465667 
-0.2290688854218042 
-1.24408284930542 
-0.7645660114167002 
-1.613277778396334 
-1.127921908932099 
-2.73369525448693 
-0.5203694857151414 
-1.228552246475328 
-0.9639552336889726 
-0.1244302738125024 
-0.1572170379868734 
-0.4496208179075516 
-0.5018230088575361 
-0.2432792884349623 
-1.076708399412697 
-0.1634189861984167 
-1.301067476469997 
-0.5780487711369702 
-3.010207136047391 
-0.7694420670528833 
-1.667489326620208 
-0.5662082536589383 
-0.7875943967352791 
-1.050654339365547 
-0.6793662793244505 
-0.572605892782511 
-0.005703550012175662 
-0.008555325018263497 
-0.005697531556737665 
0.1276655088418411 
-0.5912208436081701 
-1.000982592278898 
-1.103687395092458 
-0.001671913433548323 
-0.06356783116150345 
0 
-0.07815658330392246 
-2.761151817853971 
-1.063954040134362 
-0.9456968849328631 
-1.019022320475066 
-0.8314275436318731 
-0.1355702465723382 
0 
-0.1000339555852322 
-1.046709802245645 
-0.2328214723466859 
-0.5123859222795067 
-1.01137126763958 
-0.02199728453506283 
-0.04976453004522696 
-0.0282001889101483 
-0.04886860259863784 
-0.01191772417293801 
-0.1219000620683171 
-0.3009617721788972 
0.01091315339700498 
-0.1374028273641293 
-0.0012359980480695 
-1.037725404820715 
-2.486503285842961 
-2.701594888934314 
-0.004571633866513962 
-0.4162036038521931 
-1.18724554789047 
0.2151083817033153 
-0.07617699902945219 
-1.160428002791841 
-0.3595351938088105 
-0.2037285780274748 
-0.05142206200057076 
-0.1802876066082459 
-1.032751691699147 
0.02149263934187732 
-0.6059412052258464 
-0.9394070016869839 
-1.248951175457207 
-3.921588969581206 
-1.0270080528128 
-0.2906372724973828 
-1.000358912619716 
-0.3666489340947719 
-2.008931604963492 
-0.008155561283237141 
-0.06880000976423256 
-0.008232174495751053 
-0.8747164678169302 
-0.9164875685305957 
-0.01864258792834415 
-0.5925415460374444 
-0.689465202142195 
-0.8007084077139137 
-0.8581627048735766 
-1.09557635415257 
-0.5156483576996934 
-0.003710263742717065 
-0.8407873457742585 
-0.3526726243703139 
-0.800682083004606 
-1.194902369635745 
-0.7530461564433519 
-0.1244854318272295 
0.5807626456505405 
-0.4216331601794981 
-1.615571988428478 
-0.3795503462926234 
-0.01016235181354933 
-0.2978172876727297 
-0.003026967779454502 
-1.093886800666057 
-0.1242933390780838 
-0.02044430000253265 
-0.1267398646031045 
-0.2801145205888747 
-0.175138827650746 
-0.08920250988975373 
-0.2658310485350381 
-0.06996017481621949 
-0.271459693129121 
-0.9505955500462425 
-0.2711720747091117 
-0.879803794043432 
-0.1480482734939816 
-0.00660814583274187 
-0.364364060710218 
-1.835060955428693 
-0.4009836247474741 
-0.6198249694678762 
-0.001031451246935426 
-0.001031451246935426 
-0.004563383550080148 
-0.1027959737656653 
-0.002062902493870851 
-0.1623418861852137 
-2.484760762648077 
-0.006605165305402482 
-0.2590116343468843 
-1.200304326807255 
-0.01636889894421737 
0.6640431252994992 
-0.008255146396223673 
-0.7291223207668894 
0.1398464785747401 
-1.385723107161734 
-0.7939605902887903 
-1.101717740688475 
-0.08039077216248733 
-1.084564639790116 
-0.9654180185600433 
-0.01623374053034607 
-0.1992039110501593 
-0.9946480739051994 
-0.002170436151854829 
-0.9730399967671257 
-0.5838974136676136 
-0.1870085979450343 
-2.14538745314138 
-0.04178397525649454 
-1.207269601551594 
-0.5712078915616386 
0.4506538112044934 
-0.3773358453724876 
-1.31907605938303 
-0.5464962620723817 
-0.002853658141241411 
-1.356919986716819 
0 
-0.03709612267113672 
-0.03709612267113672 
0 
-0.5773538723028864 
-0.000380358705060606 
-0.4711110427186034 
-0.05791515450002473 
-0.8667113904959078 
-0.6058872276806053 
-0.8585353910419421 
-0.06423104370835681 
-0.5947095684849805 
-0.6115077207328932 
-0.08888431668388898 
-0.1162850684871169 
-0.4425804185638201 
-0.04701018234269932 
-0.000532692125615215 
-0.002681972029454245 
-0.1070250213857575 
-0.1864357785806994 
-0.4310986624641241 
-1.059974644681045 
-0.1394839324766185 
0.1251744566931662 
-0.05622740587349947 
-0.6772406882909889 
-0.2461213922576997 
-0.4614014061703515 
-1.442543927991837 
-0.6724666174373408 
-0.02995294665440333 
-1.868691176109878 
-0.2357664325912976 
-0.6770322427983408 
-1.651516445261441 
-0.01538388228755275 
-0.1411218169301694 
-0.4118726958961215 
-0.003159947875345346 
-1.21461642283219 
-0.6157515528432986 
-0.004539171880005852 
-0.0632168614350706 
-0.009890030865057915 
-1.066687755190622 
-0.08205032027109825 
-0.2096571844004875 
-0.9652166922026646 
-1.028947767512514 
-0.8901022173580908 
-0.02394043174847903 
-0.6062873572552769 
-0.1063497894684826 
-0.01370315748040793 
-0.0608415057470686 
-0.5151911173563468 
-0.1043143521024201 
-0.370700809886137 
-0.05408282538860215 
-0.2442014058573502 
-0.07845666141657386 
-1.860905333968459 
0.02127693539933914 
-0.03560506389197188 
-0.3638743065734541 
-0.001041485228867346 
-0.4974915671879924 
-1.51850395689184 
-1.399409776071139 
-0.008137426660621172 
-0.04819245889932455 
-0.7939509369437993 
-0.006111272254417603 
-0.01099695057194408 
-0.03022562389533338 
0.05832349187516796 
-0.4578164312443198 
-2.070615679367694 
-0.2042652372397811 
-0.2020172671055561 
-0.002227593672818888 
-0.01048357179464008 
-0.2044138296856889 
-0.3720976457108472 
-0.05576560063463503 
-1.943372654634453 
-0.3686968569921719 
-0.9951789404659749 
-0.4358785572264586 
-0.2184687816696431 
-0.02747747298342139 
-1.041690634388056 
-1.032530140218525 
0.2966759693801166 
-0.02256447467099749 
-0.04309036828539313 
0.2095673298302713 
-0.00707936092832438 
0.9792909189708949 
-0.5816601926614375 
-1.884433035054472 
-0.04355460565359439 
-0.6202125558600957 
-0.6841419298118029 
-0.3107110683034852 
-0.04793760345040331 
-0.8681306382116544 
-0.4847079577340044 
0.08857187349117421 
0.06734702363802512 
-0.3127175023723157 
0.05533889232514875 
-0.5680180703214426 
-1.194009700061951 
-0.1748931585545601 
0.1462201346106149 
-0.1601419366008387 
0.06524946619753379 
-0.008438430194741844 
-0.02026956003061619 
-0.07647633149449715 
-0.5004338028736743 
-0.04290510684388175 
-0.4540114269101626 
-0.8746812830729654 
-0.0005854988877900313 
-0.150969392717318 
-1.633712015581804 
-0.3453275945678817 
-0.457350542230337 
-0.07570530405529494 
-0.6872443255472406 
-0.09175185630415711 
-0.07704918145131866 
-0.5770320121623639 
-0.3344181570192383 
-0.437566800224596 
-0.5356942490281944 
-0.2367056700640094 
-1.079485925309416 
-0.6574376541882919 
-0.4420989088570941 
-0.435105598907838 
-0.1099006320051514 
-0.6799929172230912 
-0.0005854988877900313 
-0.0104944299597671 
-0.001636560754955185 
-0.002066369125449563 
-1.719160034711022 
-0.05380678482080711 
-0.002067512009247744 
-0.001014604266703082 
-0.03579138861589375 
-0.323664756705594 
-0.01045393182994688 
-0.1245475031894265 
-0.573717879663071 
-0.01045393182994688 
-0.5792341042337678 
0.3465069757798309 
-0.3948160390980092 
-0.07305803906208662 
-0.4255440399492186 
-0.662113895042719 
-0.01741171370593112 
-0.05312292225682017 
-0.635072912634948 
-0.2023736694844198 
-0.4671702658557917 
-0.2831559814573903 
-0.6738267995383578 
-0.1128096064596008 
-0.02422260283947645 
-2.03195857967404 
-0.9287044271021002 
-0.007967213405182305 
-0.9078179594313204 
-0.1601449175610799 
-0.6180212496437947 
0.01324154256344023 
-0.006761394317962684 
-1.655954015540702 
-0.06937343367437225 
-0.987999041537448 
-0.4820517271422248 
-2.255417720537888 
-0.1219912790783335 
-2.923910648669133 
-0.9616365456797419 
-0.0512709919797838 
-0.003850145563068833 
-0.2324598411878159 
-0.06559823299686524 
-0.04907713093261456 
-0.02230636617192708 
-0.003918202873841302 
-0.04047512460053532 
-1.799037505215299 
-0.01172325652286543 
-0.06676473978684193 
-1.699010540392418 
-0.1284335361292075 
0.08572026175878873 
-1.600400822019612 
-0.001925072781534417 
-0.7666245882439977 
-0.09001795712455382 
-0.06479182046873937 
-1.37663189901192 
-0.3550700268222051 
-0.02550854062499287 
-0.2569212071549529 
-0.9932293634948955 
-0.699448530831834 
-0.2245614553728573 
-0.1507795567672161 
-1.315657740768252 
-0.8812801061022086 
-0.8641163566833155 
-0.2827178838399864 
-0.2217866967548951 
-1.115453669242082 
0.02069781831873678 
-0.4992367685496944 
-0.328287063503768 
-0.530922540180546 
-0.1317973228860816 
-0.3141424515068264 
-0.006516554708781007 
-0.3623675906976641 
-0.3199242712835472 
-0.6609866386986989 
-1.033491087285336 
-0.48623617417793 
-0.1051904034342268 
-0.8116691083664378 
-0.9331455417409286 
-0.9875491910309292 
-0.1278323093792223 
-0.002023920095665941 
-1.204651916491074 
-0.2286125052858899 
-0.3364475757370809 
0.9016317035824398 
-0.01007668328894957 
-0.01358539205502754 
-0.07986995732932152 
-0.02021588920186958 
-0.1918468001008048 
-0.3198701249684875 
-0.08472948877308127 
-0.04889984751334329 
-1.259656575707682 
-0.3164854377052332 
-0.221535383539278 
-0.4559044553775779 
-0.9753096456073018 
-0.4012602932910021 
-0.2742162003314955 
-0.2363616304762424 
-0.1310406647151849 
-1.336171050034789 
-0.5039351949500829 
-0.008238781692596122 
-0.194869670143278 
-2.325489244146164 
-0.1650049263073854 
-0.107853956681982 
-0.2186753714984387 
-1.305483367217082 
-0.06089966186897455 
-1.112225335886991 
-0.9812396543303995 
-0.002755373056461304 
-0.03057181425285014 
-0.09554619971972009 
-0.1740064372903778 
-0.5458000624071151 
0.1109690728443989 
-0.8157557055513751 
-0.6841555444565559 
-0.003210963031922056 
-0.02403363693242237 
-0.02755456975765455 
-0.5277478460037912 
-0.3542408288562413 
-0.1814455961270368 
-0.0007117022480104222 
-0.1807421245446716 
-0.2901117781939841 
-0.04760648713875206 
-0.1213219337649784 
-2.427841529374164 
-0.7705930980234798 
-0.1370910470271969 
-0.8650969084651876 
-2.324375705481874 
-0.001747386860785363 
-0.4084744806394153 
-0.3649029178012596 
-0.00226282534153643 
-0.00226282534153643 
-0.06933785934170107 
-0.005642091013035139 
-0.1084303958410198 
-0.7994878438395543 
-0.2725830124250135 
-0.5653894859320046 
-0.06579450632478627 
-0.04675614355317078 
-0.2940549624066692 
-1.34615298152342 
0.02350481693621692 
-1.721888677207962 
-0.3479404650730465 
-0.3645366308457072 
-0.2049991624806366 
-0.417470188981979 
0.1374854353971198 
-0.6338624091851551 
-0.01387750918195013 
-0.08693592014562457 
-0.5230349031230016 
-1.942805794149931 
-0.05143062775986033 
-0.577212196615895 
-1.52927158907152 
-0.1099993307503188 
-0.7641054243976489 
-0.4139237737407898 
-0.04193894264228041 
-1.331151621698213 
-0.0829439848542351 
-0.03626285562178217 
-1.19407986045023 
-0.1933724680314418 
-0.01936321281110571 
-0.03150483137446207 
-0.03204447511746421 
-0.0969517552606896 
-0.1554968066235992 
0.06813058425126883 
-0.1628322408000104 
-0.2028254614725875 
-0.01783446413992679 
-1.538572986577702 
-0.3558766914253856 
-0.5419842340155041 
-0.0008105850915345894 
-0.03626294259403109 
-0.06569188614569454 
-0.8572251320874203 
-0.7781060755424871 
-0.2406558215882071 
-0.01547804895521376 
-2.874234761951892 
-0.2147978125214796 
-0.1125834462798347 
-1.170616056885341 
-0.7233934119231971 
-0.5247767329146599 
-1.508029079367257 
-0.01879223345249225 
-0.2343273050437761 
-0.1725344401786973 
-0.5675243932005066 
-0.001151297746685981 
-0.05983918059822756 
-1.130135527079607 
-0.1502562119151625 
0.09467740433063493 
-0.1960096722837271 
-0.7324141110154507 
-0.2208180529095594 
-0.07902706008779108 
-2.010168633335029 
-0.3939383111836658 
-0.4144413491162492 
-0.2794778069452742 
-1.885743922672813 
-1.023220966690918 
-0.07996763157950836 
-0.001200737244559809 
-0.4286482617464745 
-0.04296899425839737 
-0.3040004874113665 
-0.101823462680615 
-0.6987419479939391 
-1.316761149637943 
-0.7237451209774055 
-0.01576597554056865 
0.03971752451001559 
0.3053118289897452 
-0.08887516486408586 
-0.4133931352531692 
-1.335494493954356 
-0.2626954956004138 
-0.1192188710389526 
-0.008588396036458312 
-0.3068638229982721 
0.3760211400955028 
-0.5381738125089309 
-0.7689304022168812 
-0.1183250831273334 
0.22851345403584 
-0.06516211490052613 
-0.1791831368982004 
0.3007958146666844 
-0.4343621788471332 
-0.2403742643954923 
-0.02867415732576226 
-0.02068990757255747 
-0.09767848717443073 
-0.2670272630138835 
0.1722353806944083 
-0.04233603899656989 
-0.02094442656289921 
-0.04859478958514494 
0.03699946101835094 
-0.02395274925961436 
-0.7967733315617795 
-0.09318466025379023 
-0.4867721700369577 
-0.04301928365347243 
-0.01511703289568186 
-0.01082731883430776 
-0.1537889450588108 
-0.02830529288872674 
-0.3548059965977007 
-0.2296573183140028 
-0.1933426662211716 
-1.070079169734222 
-0.2064497134923328 
-0.1333234904981606 
-0.5049101372834898 
-0.007984249753204786 
-0.1328950741074506 
-0.2127089219403966 
-0.1704236849435011 
0.09150626526335337 
-0.784215240881439 
0.06908916685812681 
-0.7605975073569073 
-0.4273229113072031 
0.02965658169217647 
-0.3315879322413619 
-0.1293834026162179 
-0.02670511429888583 
-0.1349949426928019 
-0.1326913971567729 
-0.1099854528288179 
-0.9140826441201804 
-0.008968678266037207 
-0.5526837173604471 
-0.01221755273914774 
-0.1443006800579353 
-0.1049179943202351 
-0.1330227829635168 
0 
-0.01681847880824371 
-0.1576880023960188 
-0.2726373259714889 
0.1396413799753171 
-0.0005905988981578534 
-0.1430315379867356 
-0.02618861203489387 
-0.06425068916258719 
-0.9673389317342406 
-0.003237571655406953 
-0.2604261638530518 
-3.063887716553434 
-0.5838276528827214 
-0.2743329710366108 
-0.6349317674564863 
-1.453677398336473 
-0.6735351532012512 
-0.2488713391918639 
-0.007435494780073187 
-0.1796062641136248 
-0.08302175834540909 
-0.1091208102031976 
-0.1496871689263221 
-0.9538506779231772 
-0.6550161203095031 
-0.1648292170877174 
-0.0001202732030278362 
-0.4600776840525206 
-0.2053968966339441 
-0.2411960105935302 
-0.002426718673645925 
-0.02468631305291681 
0.03524705851417868 
-0.2938842761559698 
-0.004500685200494308 
-1.717490389813279 
-0.6982825722131691 
-0.00589700911645573 
-0.07561606277197787 
-0.0208578711748616 
-0.3506425808608772 
-0.5919124364604756 
-0.7580883367910165 
0.1025747420335442 
-0.3982273388147981 
-0.00774546501378641 
-0.2640866689223768 
-0.00632715920424891 
-1.237859944240204 
-0.0485649520267199 
-0.1509055235899373 
-0.26973455432405 
-0.981116422658317 
-1.097082815009378 
-0.269088732521569 
-0.2339531710797748 
-0.0659325391054647 
-0.1204894154568312 
-0.09362778428746737 
-0.3653638447042654 
-0.0649989875767369 
-0.02281343558672415 
-0.3343038398162167 
-0.04838300632359162 
-0.3006044854338348 
-0.6457132587949284 
-0.5734597666576224 
-0.03277688216852448 
-0.05347224949357778 
-0.4721731973076179 
-0.04491868772357298 
-1.049570538377653 
-0.6903684757001489 
-0.2801381958802316 
-0.01800536949593749 
-0.3562947046297744 
-1.135661682785722 
0.04732946504781995 
-0.1145529761395463 
-0.08276471660467076 
-0.14702709522353 
-0.1290927029509468 
-0.8647549514519938 
-0.3592261354385326 
-0.6085670531654901 
-0.2899997760577734 
-0.5140750429663586 
-0.02760547373283161 
0.06098104812884392 
-0.3674965264572031 
-0.6554984703411714 
-0.3523340456703269 
-0.1392118929027664 
-1.302374087605909 
-0.4596092958095523 
-1.023529930143926 
-0.9465653630981156 
-0.04273845220207996 
-0.08704910405743874 
-0.4327344901755907 
-0.6372539343751987 
-0.0210289656036161 
-0.02578212433394489 
0.09697015141944414 
-0.3143889728989972 
-0.09314474210609315 
-0.09134692045518075 
-0.4350779729539125 
-0.9189641713664694 
-0.5563476911575926 
-0.01159248188345122 
0.2166876928297068 
-0.4820948507217435 
0 
-0.2097094658861555 
-1.595217601463276 
-8.685068335622445e-05 
-0.0812678037258298 
1.245742377648362 
-0.1221883772788897 
-0.9891183253007488 
-0.4420189626546864 
-0.11244369678686 
-0.8739937942073205 
-0.2067383313975722 
-0.4615683465276701 
-0.1610756795355023 
-0.04360524248905411 
-0.00133460187818363 
-0.1808996463575614 
-0.0007548807536498853 
-0.8772368359218669 
-0.2903419260377738 
-0.4908280544856019 
-0.002784974783799384 
-0.02566054750392277 
-0.7037591242519365 
-0.2918702515707371 
0.06629572864784111 
-1.155234991447965 
-0.06652693953643767 
-0.01210907169003676 
-0.05795681885814006 
-0.4464824350892653 
-0.3645509844620326 
-1.263607321076329 
0.03465936293314562 
-0.4726318162598435 
0.2375163124622759 
-0.01632835574213995 
-0.2515584030705564 
-1.013769957531692 
-0.2236496615845696 
-0.004789515839765366 
-0.02936916367476892 
-0.09015777841716528 
-0.4745293639000638 
-0.00360801757128503 
-0.1764580676207722 
-0.514935461347631 
-0.08783405027746047 
-0.2941935458188389 
-0.2168471179182911 
-0.08772663431245581 
0 
-0.2855517650369081 
-0.5179855010930844 
-0.1274400929974894 
-2.556078617559337 
-0.1464296383477599 
0.02940223759909272 
-0.04536406443165111 
-0.001254016350005765 
-0.04976634930471066 
-0.01252171095092893 
-0.0711436103380348 
-0.05654217513280319 
-0.0351519838781964 
-0.2191721450443803 
-0.6166417592848207 
-0.1741624190529694 
-0.4534913169650947 
-1.278514249233716 
1.035953056674999 
-4.392035293479745e-05 
0.002802656930844868 
-0.08052153353918538 
-0.493355329494878 
0 
-0.007673790198707202 
-0.6875620579264916 
-0.4513896594916668 
-1.67081804164406 
0.01905623959294931 
-0.8040821949938682 
-0.8489280480615033 
0.01731201531806997 
0.0116891234985234 
-0.4284165566712986 
-0.01388952667376695 
-0.3793704344226311 
-0.5017673114424209 
-0.02831084504597957 
0.06016741761082227 
-0.3016966278352389 
-0.009698483603562348 
-0.00792511022705549 
-0.03189000841398145 
-1.5160145162854 
-1.044361035727028 
-0.2819626433554401 
-0.08631912747917818 
-0.01070347695099956 
-0.4029201137828344 
-0.02755883014466658 
-0.07617879529608901 
-0.0002763851045027873 
-0.03183956330120842 
-1.08684536228066 
-0.1364481285608795 
-0.1606366539617504 
-0.08263658133391012 
-0.2245972726317619 
-0.1104201495269678 
0 
-3.1805432321124 
-0.6803412303299214 
-0.5919073897326667 
-0.004677052908147477 
-0.07384375889709044 
-0.272182488174741 
-0.3080212151659363 
-0.3689770851106376 
-0.1094086691697415 
-0.002313867278314304 
-0.7422998954391911 
-0.001919562754356706 
-0.07580118247203431 
-0.140856191418156 
-0.2533300760649028 
-0.3121216679381073 
-1.285219287571633 
-0.8507387844595592 
-0.02285879140186035 
-0.01793553040546244 
-0.01468317226793144 
-0.2018081461576125 
-0.07284926497176221 
-0.04349147503357673 
-0.4409713309034489 
-0.1759149882794092 
-0.07845931652758847 
-0.1134066971944707 
-0.07366086445006297 
-0.06282767741174473 
-0.5458043459190149 
-0.005615811730980974 
0.3970693017803332 
-0.1955030804913732 
-0.07259104250811883 
-0.5534255861413667 
-0.2674503572969351 
-0.001597845732591055 
-0.07745410098527603 
-0.0101672307136503 
-0.1962946124356753 
-0.9281500837933825 
-0.9973394797287303 
-0.0213636413012807 
-0.3002004999542287 
-0.2347561257374716 
-0.2134376517814917 
-1.155830648433751 
-0.510599626518683 
-0.2164611919108076 
-0.007741133590098761 
-0.8079819699339296 
-1.394873597442016 
0.1189578298252682 
-0.3697481057539878 
-1.449988894835757 
-0.5653851665248709 
-0.6693537851505375 
-0.2138400844995117 
-0.09706956513720441 
-0.3268470801280405 
-0.02628302427617603 
-1.218732269083735 
-0.2373920266780763 
-0.05805600316676901 
-0.1799292114510732 
-0.1088699554980655 
-0.4691571834733089 
-0.003507755488227818 
-0.02175483169054043 
-0.764625740185864 
0.04441859846820961 
-0.5824767741411609 
-0.146973825280372 
-0.1741276633737742 
-0.1036311787460113 
-1.1972267597249 
-0.464104392691259 
-0.3011920530846414 
-0.5852817296045356 
-0.678736829525479 
-0.1145167643478191 
-0.1414989046931091 
-0.1335039333963613 
-0.1500929267838438 
-0.4453652514876018 
-0.5593447343717901 
-0.02561118333558738 
-0.4591251546625177 
-0.9136100403012568 
-0.4093389886825052 
-0.1758234943424881 
-1.088057808077175 
-1.264291363712591 
0.1078938661499664 
-0.2347811266982721 
-0.6201758087861569 
-0.2741160816994869 
-0.05788901825479083 
-0.1029942282481444 
-0.0166691111867845 
-0.5117770732903246 
-0.02567966443127093 
-0.1261507422247282 
-0.2547455080696815 
-0.06265444958209 
-0.07380292115017036 
-1.437415439673457 
-0.1315939901600138 
-0.08641126918845349 
-0.2918387073149006 
-0.1023101150032403 
-0.6392997270045183 
-0.1001026430344475 
-0.2889832028077808 
-1.301198867066691 
-0.4149475403744834 
-0.5011369253508803 
-0.01977653883111862 
-0.04213711711223463 
-0.7173052974733319 
-0.02388250098530675 
-0.3706834828412878 
-0.09586743440021407 
-0.2745018032271245 
-0.7276192865667762 
-1.422652931933532 
0.9668282102508701 
-0.7373001049315728 
-0.1524796772062904 
-0.0397285252332271 
-0.3350590220732995 
0 
-0.0004597799924515253 
-0.09591087112058201 
0.3255204184729788 
-0.0004597799924515253 
-0.3553226975423759 
-0.2536434108523155 
-0.8648675123209307 
-0.662006482923936 
-0.7781428716576091 
-0.3612566455767233 
0.03477648634380501 
-1.308947780085807 
-1.12775659836772 
-0.005861922145268252 
-0.06674936077599235 
-0.5061345739612676 
-0.07567340395296458 
-0.1105092315660884 
-0.1790858995655081 
-0.1280703989382104 
-0.2886684060597158 
-0.1403374897143218 
-0.1730617534013155 
-0.3642875185330541 
-0.05726815408308359 
0.01124115991219236 
-0.06830121086469301 
-0.08156945678205849 
-0.06172320021322732 
-0.4842869994738602 
-0.2007110800938535 
-0.05704281105817664 
-0.3696710078968534 
-0.1124006949056473 
-0.001988205295115758 
-0.4138220263584357 
-0.1346815405732827 
-0.1446093182444138 
-0.08521657322739543 
-0.5823909687853611 
-0.6124797281744406 
-0.02751373788167474 
-0.1304125232973563 
-0.04810928004821494 
-0.1671862264771884 
-0.05400701088082801 
-1.092875313904993 
-0.7429179692521933 
-0.4308109097625628 
-0.05075946866077877 
-0.05075946866077877 
-0.07350213197316223 
-0.06120919555650739 
-0.4734949941760438 
-0.3648489479160194 
-0.3382808524882186 
-0.3914756077397548 
-0.06058076157510298 
-0.0573644467480225 
-0.6333659168950528 
-0.3550051256724654 
-0.3487605039381748 
-0.1569575456053982 
-0.7629592650300299 
-0.04492635737684281 
-2.76474778618786 
-0.1377809395003443 
-0.01592655742815859 
-0.119287390925216 
-1.838741288810404 
-0.06937168912475215 
-0.5648264682952641 
-0.04532017297105782 
-0.003901131344946089 
-0.008396723766510626 
-0.233949696458846 
-0.03030965827758856 
-0.3809501267123089 
-0.3471122713933749 
-0.04155395603461629 
-0.2147149797500469 
-0.2384397166227513 
-0.07279635724112893 
-0.04081648071807445 
-0.09109751555366873 
-0.3747720190490024 
-0.002387817745056194 
-0.1052832218042797 
-0.002298899962257627 
-0.1395775703447774 
-0.05007261872255424 
-1.061023534962346 
-0.01311560598962997 
-0.2365979448112245 
-0.1011745637613134 
-0.2723532432660286 
-0.8159287903797666 
-0.09384360930834418 
-0.2485541553750523 
-0.4385555486352396 
-0.501061415311975 
-0.09481864966600351 
-0.0009195599849030506 
-0.001639306471487308 
-0.2609122170644695 
-0.5932371304283862 
-0.04711129115723324 
0.0357366086139062 
-0.9062644790994904 
-0.1486929450562496 
-0.06058215677856321 
-0.7286763518236808 
-0.2542206542567703 
-0.09051721713278142 
0.1581239591618873 
-0.1695179441414285 
-0.0733797903337306 
-0.2583072559555367 
-0.1716411714734184 
0 
-0.007293338723480752 
-0.1084358424586213 
-0.2706253020993685 
-0.02657602493587405 
-0.1422031961450038 
-0.3385058171894604 
-0.1182879312426995 
-0.01132993015304561 
0.006459331891059924 
-0.03414127165192731 
-0.9563291444533055 
-1.423490044428638 
-0.01116008214121938 
-0.02388665105261244 
-0.6964514858167036 
-0.1688774639847827 
-0.06850523562291264 
-0.5756688335900626 
-0.5485575971609035 
-0.008065149303604892 
-0.4402404295194381 
-0.02495357398719543 
-0.6705509730474108 
0.1260659615110029 
-1.157441075663292 
-0.7053332912990427 
-0.3857432377297731 
0 
-0.06900398045219089 
-0.06900398045219089 
-0.2384091670078523 
-0.3574915259552475 
-1.60159389366569 
-0.9242680622355234 
-0.005970480882413157 
-0.485510942086989 
0.06159467704482803 
-0.0166409846653474 
-0.4330014851162575 
-0.2418020185501183 
-0.5088240279176619 
-0.4830878298110641 
0 
-0.007426635358778083 
-0.007426635358778083 
0.9806751421680312 
-0.1568591725073818 
-2.24474516519452 
-0.1263031533504068 
-0.1827210719021186 
-0.2405433287853384 
-0.6277104748320012 
0.1874508431129733 
-0.2961487023956299 
-0.008905378780758999 
0.08684586851968998 
-0.0003558511240052111 
-0.2657503007090504 
-0.735837181497495 
-0.001652475271053923 
-0.5775848195790926 
-0.1518568756998288 
-0.1720969277198479 
-0.02456922893301179 
-0.01804005866324308 
-0.2098685026991451 
-0.4452160567079264 
-0.009787893880702888 
-0.5701447136453953 
-0.3897606707994757 
-0.1542815424667379 
-0.02486398924837278 
-0.3324036939780965 
-0.2349443613682347 
-0.01727081200505102 
-0.01551157931277891 
-0.2156383858239946 
-0.0368645143350055 
-0.07577663498649694 
0.3399212591689686 
-0.07959154904810813 
-0.2568731267867906 
-0.03794800424003909 
0.2622058882988318 
-0.04134688864154883 
-0.01031403984145728 
0 
-0.05638878504807197 
-0.3993021668420299 
-0.6616156343985259 
-0.006821174922401236 
-0.009372873919293917 
-0.02830561630021609 
-0.007440957828697362 
-0.007440957828697362 
-0.003577125647504249 
-0.09297767214087403 
-0.8189701089646638 
-0.2940342531362023 
-0.08937580849588155 
-0.3852280251114338 
-0.01620884231532899 
-0.04864120315257738 
-0.1131977280578411 
-0.003684448883774762 
0 
-0.1506223006846555 
-0.2337619653376925 
-0.559585341535999 
0 
0.3399974608091122 
0.4613986202376487 
0.3314515833916424 
-0.4362585458754064 
-0.009451267672442497 
0 
0 
-1.089368152142056 
-0.2273007031653215 
-0.9104502577491089 
-0.04741013376453865 
-0.130109367793705 
0.07260975034188281 
-0.005450380679753524 
0.002777939889811177 
-0.3788624702318956 
-0.007688066827355806 
-0.2217463759866354 
0 
-0.4111220378410593 
-0.003162052878042792 
-0.01576715300675518 
-0.01435227278488546 
-0.347304241300798 
0 
-0.3167276393678351 
-0.007040900610085545 
-0.8041614393499124 
-0.0001533679651612132 
0 
0 
-0.6319068203925424 
0 
0 
-0.06141011435601327 
-0.4501658753220847 
-0.009568181613177356 
-0.2977026468951355 
0 
-0.3063797238094993 
-0.05710053579074197 
-0.7832913198506369 
-0.0007283999967550773 
-0.4483620549669226 
-1.554901309803894 
-0.5063005298175139 
-0.9208672123338911 
-0.2282012548664296 
-0.1577590344423648 
-0.7358239837887555 
-0.03029794172468456 
-0.3004254132987745 
-0.01076598924663598 
-0.2344809682109831 
-0.4475994759166589 
-0.4992308564720051 
-0.4639163279230061 
-0.007612314611625681 
0.1400947166331201 
-0.03849273893356446 
-0.3617016220297895 
-0.4391605841525633 
-0.1005034390034761 
-0.02913777642668334 
-0.1955852683083428 
-0.392149025449046 
-0.3049401396261957 
0.1563863803112867 
0.0009773639382200012 
-0.6690066823325461 
-0.06552665518059528 
-0.03160539816466034 
-0.07630912891650085 
-0.06089159509555912 
-0.2128689003480961 
0.07715024854669728 
0.05237676319029744 
-0.8151156152971269 
-0.3140274908703093 
0.0311082280963914 
-0.1202954114605302 
-0.3460018757398386 
-0.2124724581545765 
-0.3987749318279266 
-0.1947000586386871 
-1.810594515248419 
0.1528931100248087 
-0.5756640907993376 
-0.4296581400863223 
-0.1001246672191198 
-0.006474187129852883 
-0.1018524228332976 
-0.2006001454256766 
-0.4685094382370214 
-0.2557894510105689 
-0.007710845249363286 
0.04859722444611939 
-0.3093201220854209 
-0.2909696127586504 
-0.6879012080903625 
-0.03966820607048046 
-0.4913304142920444 
0.00272163333683682 
-0.1499373645794861 
-0.05244463060024335 
-0.02807477515523841 
-0.0197686567648674 
-1.560172346939978 
-0.2062653218196897 
-0.009163294505731957 
-0.6581465543605692 
-0.0142109102653828 
-0.03836081457924154 
-0.01879836299379175 
-0.6059878646733289 
-1.265741455153754 
-0.1932002559909434 
-0.2244793419090623 
-0.1818268155010837 
-0.01070695062497546 
-0.1506324341567708 
-0.06592822710800833 
-0.01703541913702795 
-1.094545547923204 
-0.04927155465961142 
-0.6091943804494095 
-0.3589030712398867 
0 
-0.03124628015341477 
-0.09858496496883189 
-0.582598524066452 
-0.3247873295170148 
-0.01871176126354341 
-0.02505699989402456 
-0.08344875657880123 
-0.1900842668073183 
-0.004380747561304987 
-0.01552513916251202 
-0.1970008412158642 
-0.009116664136034049 
-0.009116664136034049 
-0.0103364133566033 
-0.02441523941237969 
-0.01531377158589643 
-0.1201757925274373 
-0.0868856164521937 
-0.7994911332053706 
-0.1958170988687962 
-0.4870848202001673 
-0.1021045226967933 
-0.01249366967151319 
-0.1326733741139508 
0.1502606516611004 
-0.2247426329531783 
-0.2418528834859318 
-0.04592452280317626 
-0.004150235769058922 
-0.6147193931903144 
-0.1857766414255849 
-0.003000218775389646 
-0.01799944110109188 
-1.033618945312991 
0 
-0.1933331948349142 
-1.103610768581616 
0.3735669360615026 
0.09407232887772357 
-0.4536483289428683 
-0.288178999969242 
-0.1362450753803171 
-0.5028438634383959 
-0.09567704374000745 
-0.7510090202610812 
-0.8780172597522631 
-1.056129253010481 
-0.02081286205839364 
-0.05060231737322157 
-0.001495105220278275 
-0.007246089415161343 
-1.217576172831122 
-0.05175695733960303 
-0.001502169336772967 
-0.1547529499186824 
-0.2205115241775414 
-0.176048122782174 
-0.3123443393259276 
-0.7683002338618418 
-0.001502169336772967 
-0.7537618186266031 
-0.01038975608020503 
-0.01151502542971673 
0.1535323598209187 
-0.0670931971111724 
-0.1381487967989462 
-0.04386861091184537 
-0.01340819873223671 
-0.03868885222470845 
-1.088838083711621 
-0.3338731835215268 
-0.2080405259080615 
0 
-0.03494114682687009 
-0.1338827630857339 
-0.2550342379920091 
-1.027528700491096 
-0.007313275562038611 
-0.2488291552432664 
-0.66022935065073 
-0.5027756030127378 
-0.03844766145630301 
-0.7151061719487658 
-0.1315338190804099 
-1.023555198954269 
-1.066713787619352 
-0.04878486788267761 
-1.466138324591274 
-0.7399604442102049 
-0.01702575385904732 
-0.4215942830985204 
-0.2533334991068695 
-0.0278637882697443 
-0.04713758785032052 
0 
-0.07396617146882524 
-1.034837394124598 
-0.2741248538016917 
-0.02514987003557229 
-0.4335975832681263 
-0.02202107083410358 
-0.1580720832645423 
-0.003294839613514788 
-0.230364889529372 
-0.001095687372277985 
-0.03804756801611031 
-0.001095687372277985 
-0.107019029014664 
-0.01632725771661615 
0.05863067268444815 
0.04078239066622062 
-0.003806628394109114 
-0.3340971691129033 
0.1071425455701372 
-0.1556677871533532 
0.0108095574891748 
-0.521281122145356 
-0.6698339245584519 
-0.183075087872418 
0.1429389856870578 
-1.163940824713416 
-0.3578055362250796 
-0.6459335755480571 
-1.059219694263023 
-0.01768927734491023 
-0.1402749468551253 
0 
-0.03530191453160274 
0.933991358463157 
-0.643687864110172 
-0.02773549323363834 
-0.3873474386251848 
-0.06064651822094605 
-0.1857846155351024 
-0.0001533679651612132 
-0.0008054201965147611 
-0.06252394306637145 
-0.009738686147475188 
-0.01829367514277892 
0.06435376959631636 
-0.07032149289327616 
-0.7221285612095538 
-0.01700099771486386 
-0.4450309040794158 
0.06367814744841017 
-0.1065292068084279 
-0.01746285468661031 
-0.008416621523739775 
-0.001885827592066011 
-0.1248076140435956 
-0.1084723586611386 
-0.9653630452348946 
-0.001885827592066011 
-0.009352744887702239 
-0.07026875423665736 
-0.04863112065370622 
-0.0002075750687317219 
-0.06016527427267076 
-0.5671022326840784 
-0.4702823828430951 
-0.09172547283199886 
-0.01739148472611157 
-0.2072709289655041 
-0.02806402142250315 
-0.02265658190921679 
-0.2161046798962017 
-0.0680094368957284 
-0.006416397078959681 
-0.0155224919935585 
-0.2374005024224285 
0.04582992033320393 
0.004047229284868482 
-1.137135413508247 
-0.02750728987548192 
-0.009929089445710856 
-0.09835616696340377 
-0.00384697244634839 
0.05747120246899763 
-0.2432684655288467 
-0.06519521832639551 
-0.1384561683857518 
-1.309265060167498 
-0.02114303791074976 
0.1564361301262238 
-0.1359939104442758 
-0.138662297880335 
-0.1979482848999433 
-0.3864169905681562 
0.03398340382508642 
-0.04107480082076936 
-0.1975362843946929 
-0.180151847037412 
-0.6397533591736111 
0.08939821725742002 
-0.4021286688926337 
-0.138363068309794 
-0.2709292473182404 
-0.3833441910252752 
-0.265511799996358 
-0.09601658901922895 
-0.8393039021258173 
-0.1268032063466615 
-0.5226191669398221 
-0.1256662139529015 
-0.1073930547668704 
-0.5630169060488006 
-0.1468142211884312 
-0.507630388073987 
-0.08009310739357203 
0.05619337065378658 
0.03490726132936589 
-0.1267785843289778 
-0.08098899346139643 
-1.156646535362132 
-0.06746196387468774 
-0.01682864140261346 
-0.02929974513130571 
-0.008311463892880681 
-0.04478717576309412 
-0.3119297915945836 
-0.04008279502244474 
-0.09868299948462322 
-0.0007158571494156421 
-0.1934131707153433 
-0.01325660402386251 
-0.01061055117877155 
-0.3487529294927147 
-0.009366046226682854 
-0.1377243789949066 
-0.02946366460700446 
-0.340506690430132 
-0.5178186857253662 
-0.001502169336772967 
-0.07573024817744121 
-0.1994554761942496 
-0.1258520029565373 
-0.01086180848420885 
-0.1093916801389621 
-1.459432906428273 
-1.087553032643331 
-0.5569079171454717 
0.09129895226063472 
-0.1162083209887048 
-1.817834032261216 
-0.2893978070982612 
-0.3381355613730763 
-0.04276269963697459 
-1.298426235283119 
-0.07963901457575606 
-0.01897315073512125 
-0.003162191789186875 
-0.0280292992095582 
-0.3670870531804451 
-0.003162191789186875 
-0.6364728240191402 
-0.04185879635221453 
-0.1406486164056125 
0.02159453073874755 
-0.190379165642217 
-0.1401462624515849 
0.4447434742542459 
0.02703043577128875 
-0.003162191789186875 
-0.003162191789186875 
-0.02576191550264851 
-0.02698561772741662 
0.5946311369651835 
-1.421612145122512 
-0.06339163139196322 
0.01285402453119849 
-0.3825331582544504 
-0.004593007963596398 
-0.1981953156885744 
-0.1505224705755584 
-0.03394387478950803 
-0.4043239456419398 
-0.004538281559743081 
-0.09563395642037258 
-0.06875546394454871 
-0.4327112295311968 
-0.04850144617551333 
-0.01811620257785591 
-0.06600564087746706 
-0.1244257281783344 
-0.1740313062379697 
-0.01471552360065705 
-0.9247527628372824 
-0.2472279570289592 
-0.1779205348108346 
-0.03257748676999265 
-0.1936601601310526 
-0.111734371421053 
-0.4206831695379625 
0.5778423871895676 
-0.2372947099729114 
-0.007426635358778083 
-0.349617857747089 
0.07416999829568216 
-0.007426635358778083 
-0.4987227566957383 
-0.2101646234017035 
-0.6460653512462304 
-0.05799501653099656 
-0.002153823857420395 
0.2058260997524063 
-0.2056815450668912 
-0.3092317671576592 
-0.4957955203190065 
-0.08378377252978933 
-1.054377334004894 
-0.07559526466583441 
-0.2525368063893828 
-0.009165956413791452 
-1.037677577891516 
-0.009005299939004306 
-0.03056075533728301 
-0.01527314604779519 
-0.0008054201965147611 
0.5225171380639646 
-0.001610840393029522 
-0.08553464336863123 
-0.02890921599356364 
-0.09572527507972547 
-0.4662571463560766 
-0.919044252423736 
-0.3969145692718228 
-0.3432688531425468 
-1.239669151913279 
-0.2528547856500726 
-0.06911266083261294 
-0.1870474771989991 
-0.04076025484424423 
-0.0775915340410997 
-0.1080279084408706 
-0.03604711002263153 
-0.1894463373676821 
-0.245752441882799 
-0.3977196759060442 
-1.483021195338593 
-0.4680099107200467 
-0.1391152583768365 
-0.01142404464522512 
-0.00921116268595659 
-0.2257460008135887 
-0.004458188208837205 
-0.004458188208837205 
-0.004458188208837205 
-0.04243868792319823 
-0.673396715119156 
-0.002369087960278902 
-8.78407058695949e-05 
-0.3815744199433656 
-8.78407058695949e-05 
-0.01934245333309264 
-0.4366192297418031 
-0.02010144561795527 
-0.07331105285801755 
-0.001757298877984545 
-0.03219671284778387 
-0.01455795754211773 
0.008169948351735427 
-0.1876328468018363 
-0.4536761409278653 
-0.4115077835743067 
-0.315472984618828 
-0.006241142654632361 
-0.01176351975978672 
-0.05197728252199597 
-0.7917271376885957 
-0.0005651397956694017 
-4.392035293479745e-05 
-0.251404336084484 
-0.4362142005400795 
-0.0200265191845897 
-0.04096496119333969 
-1.422067698831335 
-0.09389275539138454 
-0.007096671993311911 
-0.1691783753865398 
-0.0160327999824803 
-0.3226144202378097 
-0.005493056674207687 
-0.8920397456153601 
-0.05142345248457244 
-0.004738175920557803 
-0.09308141689199977 
-0.02129128859121909 
-0.2329410146428091 
0.03431855724537606 
-0.3132079492601857 
-0.003356505046668579 
-0.1041650957389003 
-0.1041650957389003 
0.2270633393943576 
-0.1033759399749848 
-0.05289412348834128 
-0.01754768634637014 
-0.08123695502554491 
-0.1547122888978841 
-0.1362932418938257 
-0.1458576975945468 
-0.01321096420751222 
-0.1327894430372711 
-0.04278741799084435 
0.1537251990508277 
-0.2080717680214952 
-0.01146896372462497 
-0.0006743217587369208 
-0.1064933434791953 
-0.016863855089592 
0.08529414051630854 
-0.2063990450890422 
-0.09786237735502566 
-0.0008493878076514903 
-0.4964286763474727 
-0.01078978272993405 
-0.005993390637810417 
-0.4287870912879292 
-0.03691600868868151 
0.6505047592832355 
-0.09044299899466787 
-0.002602048339067955 
-0.029416505557762 
-0.002496394452219182 
-0.01404135505168488 
-0.06750932696342421 
-0.09316573660672547 
-0.4008469084155425 
-1.593498406611922 
-0.2255525947527194 
-0.03249064975299277 
-0.5186672652355937 
-0.1567496040757811 
-0.05654409267382208 
-0.02075095310845202 
-0.3120686915552486 
-0.00287497766881404 
0.01242569288536454 
-0.04841603459317539 
-0.008380628300878426 
-0.4305473731611682 
-1.130065866292486 
-0.03488140434176467 
-0.1944446563940202 
-0.002002177378019473 
-0.01719827599832737 
-0.06124393617282863 
-0.05916595525458043 
-0.1088272885602199 
-0.07609708528042544 
-0.7518370606994167 
-0.206578584349116 
-0.1914014384190545 
-0.3314991020708308 
-0.1793173118720878 
-0.02258992537467867 
-0.2602361400519309 
-0.0616176955991668 
-1.305792574504934 
-0.02998760651831638 
-0.1642790659198391 
-0.0001533679651612132 
-0.0001201980779419796 
-0.4301217455233287 
-0.4828139578871547 
-0.006432890773867845 
-0.03779206473034194 
-0.1723903295136249 
-0.4957089227138369 
-0.1996873468337837 
-0.1431322247571439 
-0.004047551337971617 
-0.02865752331830806 
-0.008638902527239064 
-0.001303300622943813 
-0.02630210944829511 
-0.003949910636903402 
-0.04030106732730921 
-0.3000260446182328 
0.1242510413054063 
-0.005938728866844701 
-0.1572023761110223 
-0.06252272886261713 
-0.1274607732039424 
-0.4986750075102453 
-0.02218055708408045 
-0.2518636127148923 
-0.04010631193126614 
-0.1523597300307753 
-0.2023120951145417 
-0.328309518747971 
-0.03346638559863966 
-0.1396153613144176 
-0.2775426018144902 
-0.01985962803756326 
-0.008835047295623625 
0.0006255164652015106 
-0.1654203628336497 
-0.05721768182628507 
-0.5328916957670586 
-0.5885401395615032 
-0.05163496883966397 
-0.281210363490165 
-0.3767425636319363 
-0.002198478416769006 
-0.5839353912362948 
-0.04198770684254181 
-0.02946551479362674 
-0.002747933387926396 
-0.1633162056876655 
-0.1500761309961117 
-0.02216837311583377 
-0.1231489334923516 
-0.03470793390935288 
-0.418068180731638 
-0.4526519063579222 
-0.4652042432617565 
-0.3131194795175246 
-0.1253310324188118 
-0.3423795298220254 
-0.08151205484385624 
-0.03938410626762497 
-0.01697192519215719 
-0.01014687200448279 
0 
0 
0.0168950936211104 
-0.2475671388888203 
-0.1414418289377175 
-0.06197174719120335 
-0.282595716674608 
-0.03159897995601196 
-0.7775017162338929 
-0.1976217470156538 
0 
-0.5107778861842115 
-0.09904398199891772 
-0.003957200438405227 
-0.1130494119590729 
-0.03774829489361786 
-0.0009893001096013068 
-0.5481315571963696 
5.624534407204422 
0 
-0.108403607993176 
-0.05716158168008061 
-0.0482435384663886 
-0.001838622548175528 
-0.0344325691520881 
-0.1510057939736182 
-0.6406995978835286 
-0.1355635861997499 
-0.01403739120941329 
-0.07817040269446313 
0.0001303090121486968 
-0.1347437078356449 
-0.03063320358619338 
-0.07498722889661205 
-0.002913893178915393 
-0.1090822731094398 
-0.04503018088423848 
-1.313253709885308 
0 
-2.788979450219874 
-0.4833040846769019 
-0.2465147408072264 
-0.1075840593470119 
-0.9150174619905668 
-0.4316392428481795 
-0.113667471962605 
-0.4407202143869749 
-0.05585650710382042 
-0.01075879134255652 
0.05626633945955881 
-0.2246524965993345 
-0.003814768667378512 
-0.005487472141804217 
-0.7437826686240768 
-0.1091650732131227 
-0.2714133592104737 
-0.05690356504127656 
-0.6741433936632963 
-0.02109628475737176 
-0.1375252920041103 
0.006680105117210364 
-0.002797774306165087 
-0.05735272749783317 
-0.01341682331562113 
-0.007070902756654574 
-0.04518497524320132 
-0.02440908651991978 
-0.007244168372495878 
-0.01745900543092364 
0.1513823669597556 
-0.003789833098808239 
-0.009045330647383899 
-0.568027084522793 
-0.2624321309349819 
-0.1129994201039154 
-0.003045553432234662 
-0.04758352542789833 
0 
0.03352061509408273 
-0.2125105571347468 
-0.2398987908308952 
-0.2253890291994593 
-0.009782118884509531 
-1.057847451574578 
-0.0005384559643550988 
-0.2183677506107597 
-0.6388432450951919 
-0.0903899708957132 
-0.0001533679651612132 
-0.008719483039151574 
-0.6705494401242402 
-0.904312904282216 
-0.1172075388609463 
-1.009330743615783 
-0.1117351613206886 
-0.07123158590879108 
-0.3141749828588903 
-0.260495675829092 
-0.03315758265581768 
-0.505422401183288 
-0.2587323921443599 
0.04194786473582263 
-0.04892324249166428 
-0.07223546203540392 
-0.2721832833450483 
-0.00190638426694609 
-0.00190638426694609 
-0.00190638426694609 
-0.00400303154137273 
-0.00190638426694609 
-0.00190638426694609 
-0.6247671087652653 
-0.04387062030737349 
-0.2032857931705923 
-0.6268790691499174 
-0.02193531015368675 
-0.344993351160456 
-0.001345993897494152 
-0.1518943691304214 
-0.2239522284915054 
-0.1154957662418649 
-0.1725918169219553 
-0.3079283035644623 
-0.8958375040271207 
-0.2092908760610473 
-0.2466241865053443 
-0.5064088124523047 
-0.395491952662927 
-0.5454509953625705 
-0.4982162963591715 
-0.05749530687690546 
0.4386528592005979 
-0.3569859828966809 
-0.06738826944317772 
-0.009565854347070871 
-0.001345993897494152 
-0.5444262716279599 
-0.1221302272111556 
-0.007270389089319639 
-0.6248823781642798 
-0.003089389549362272 
-0.4502568642013867 
-0.02291528821685321 
-0.396420522236052 
-0.01776290072604052 
-0.07442928865667434 
-0.1722152533881395 
-0.0176095327608793 
-0.07826089842798195 
0.08263715184334126 
0.005234936390476759 
0.00430417731496181 
-0.008957914822978861 
0.2367824672817588 
-0.1600914537484178 
-0.2424196756298808 
-0.06057222378850292 
-0.6454674091103274 
-0.0156811743231427 
-0.04012413379691635 
-0.4423022408014634 
-0.04730526506698081 
0.02854913120362819 
-0.3469960131944554 
-0.0697598316524104 
-0.4554359928069233 
-0.07421863496626922 
-0.04999384060953869 
-0.1405072689676569 
-0.02817483452598446 
0.2721364103936488 
-0.03445867515041261 
-0.1464040394864123 
-0.5690483462294706 
-0.1201822038541394 
-0.2074126795546059 
-0.2966790096112894 
-0.01864625212132902 
-0.1861852576431259 
-0.1404483894298036 
-0.5287768285756421 
-0.00870323871482195 
-0.3732628044139916 
-0.1292053124395433 
-0.2261535039946979 
-0.007200066911424157 
-0.01665923716851177 
0.009418062882713308 
-0.001037875343658609 
-0.21130008836793 
-0.03279178570317399 
-0.1729529555763631 
-0.1223789910694866 
-0.9795096361434373 
-0.006410468496508909 
-0.09094189617389661 
-0.282317768587775 
-0.2919419629539696 
-0.4259139587789164 
-0.1357934745436834 
-0.1434644139036255 
-1.071517507256158 
0.1900004568912356 
-0.2475974309088622 
-0.6256576941657984 
-0.05922456455115348 
-0.9813527203697965 
-0.330709711286173 
-0.1778285803011029 
-0.1757469717475849 
-0.1449298763020931 
-0.09776901090602276 
-0.02914225345194757 
-0.3180230939135772 
-0.8425165106441634 
-0.1403334636962261 
-0.1163859369690076 
-0.1372371349869488 
-0.5655265503471608 
-0.4856391792091132 
-0.3073866344097847 
-0.4773479014375943 
-0.0373407846416882 
0.01364339097507234 
0.007874165469771982 
-0.1010730618896414 
-0.005490584504099719 
-0.07702475374692577 
-0.5021077098595491 
-0.1545639709106003 
-0.1849370912819323 
-0.1090624544400786 
-0.01798868517088869 
-0.1368888696958136 
-0.002283325756048941 
-0.1912201976627388 
-0.6921177075666914 
-0.2670934133400385 
-0.1891484563224707 
-0.3689613250262225 
-0.2901831014927279 
-0.2258913193498553 
-0.3089592463782799 
-0.2899813844233994 
-0.2371613784287285 
-0.6605333019529476 
-0.01921927566088082 
-0.02164227882121105 
-0.01129747193313756 
-0.0002075750687317219 
-0.01738255503398075 
-0.9598790782223086 
-0.4193026989309616 
-1.542952067225271 
-0.4041257222814543 
-0.2097304729085654 
-0.07012439161522806 
0.07320574790636503 
-0.005001733493368778 
-0.7470857652901135 
-0.05722804635509323 
-0.4169145245728686 
-0.07806691771010663 
-0.3678346282895998 
-0.1669837190361718 
-0.1190694564113345 
-0.1768847168516101 
-0.3393453469559048 
-0.02998870705538373 
-0.06271883244289901 
-0.04752902898351412 
-0.174599180227757 
-0.2799721178023726 
0.01081327745635907 
-0.01345591449762246 
-0.9605338442373982 
-0.1890010489645816 
-0.2265978741803498 
-0.1660308561870499 
-0.002788412023967003 
-0.02857111820031701 
-0.10715111325044 
-0.1360690657647211 
-0.02555981167661029 
-0.1111606032167266 
-0.3754635127537967 
-0.1055540580270763 
-0.04122403772197696 
-0.2603840438248143 
-0.1870181863993406 
-0.00359889321894687 
-1.16089776513502 
-1.303770483462418 
-0.01515205743488812 
-0.3919960550352785 
-0.07766863793078287 
-0.2337960779390845 
-0.004401030823132679 
-0.4508335777855483 
-0.0465990147642827 
-0.4831245587817792 
-0.7220684603564722 
-0.1977973126847426 
-0.04258893182444377 
-0.004140078503269177 
-0.1319967501492066 
-0.5905684256113739 
-0.1026138795084306 
-0.01667514917269531 
-0.01945770818913287 
-0.2055909380063618 
-0.06677260747193128 
-0.3907269832040348 
-0.02265092530773101 
-0.1752237140342094 
0.02065404302862101 
-0.03054920977427063 
-0.005821343413765129 
-0.2304369561516669 
-0.006126365582191637 
-0.09548312017726246 
-0.5254457668587151 
-0.004883624033155406 
-0.1310796089706599 
-0.1288982278526208 
-0.2590754882212865 
-0.648103537335878 
-0.4538370606688993 
-0.1463274291391234 
0.0628531813606585 
-0.05303711342025776 
-0.3119307262793288 
-0.3302602494686532 
-0.5709609744017676 
-0.0775420886456113 
-0.5352868595934055 
-0.05964036891472618 
-0.1893858988401507 
-1.269412835128125 
-0.07736646798120332 
-0.03808635664170326 
-0.1749941273371224 
-0.1334904046680036 
0.18031382711345 
-0.01822189934422776 
-0.04425933704396644 
-0.01712215153418397 
0.12237278736518 
-0.0347314717173886 
-0.4738722516816495 
-0.1419612626842067 
-0.0162586343550186 
-0.2066212335672007 
-0.1827057723160359 
0.51222268435858 
-0.09718873593116666 
0.5956773504738736 
-0.154285534239317 
-0.002483992393206342 
-0.1542313312500725 
0.04066954607343124 
-0.02447983631257154 
0.90263640325162 
-0.1831137890260985 
-0.2387998933342966 
-0.08610348659008675 
-0.5939101774121214 
-0.7376239433421953 
-0.03252815582109978 
-0.0001953579666268271 
-0.0005905988981578534 
-0.1001993488197817 
0.01584808952139292 
-0.0009893001096013068 
-0.00296790032880392 
0 
0.04498121930045444 
-0.0005647687285927451 
-0.2809764737310289 
3.937864188001472e-05 
-0.3244364262873143 
-0.04347602828505335 
-0.1948735343727762 
-0.4327704373182091 
-0.05837969272631409 
-0.03269267278258231 
-0.1069526674450687 
-0.07396441004694504 
-0.6423103290881127 
-0.0009994507368596944 
-0.1022814466997726 
-0.00807058098478017 
-0.1604118715404696 
-0.00443508649202355 
-0.02165592620508116 
-0.2406586342592194 
-0.03717986519017567 
-0.04928268401563406 
0.009706188119404094 
-1.645496581180182 
-0.594525570224825 
-0.2624826339256539 
-0.000935042445533411 
-0.281484858596303 
-2.122332204266383 
-0.09679663166859546 
-0.2731578082418998 
-0.04356852293903115 
-0.1222992524066567 
-0.007493256267977417 
-0.007819429167844361 
-0.01895201064635296 
-0.04302506964668006 
-0.007493256267977417 
0 
-0.3847586939168471 
-1.040193056988162 
-0.1150970706118253 
-0.3896863783091016 
-0.6544738497681286 
0.02315045726175976 
-0.1078489451221534 
-0.004010118287528603 
-0.5621280530727764 
0.04894168394243811 
0.0786473445199464 
-0.8096094562233271 
0 
-0.03095902559262009 
-0.2363155790115636 
-0.474088956160807 
-0.2411212378584867 
-0.06954611972672953 
-0.2409321599304949 
-0.6397885078454985 
-0.1974647808781625 
-0.3900277686666957 
-0.4889126554771946 
-0.2255365932483798 
-0.1338044285025597 
-0.001463708394433319 
0.01142345688450259 
-0.7576121399177277 
-0.03027111890161678 
-0.4122790780778949 
-0.625658118735989 
-0.7102519780452781 
-0.07142637832970007 
-0.3329382043336722 
-0.03651001017915778 
-0.01825500508957889 
-0.3096961828819909 
-0.6889710032484261 
-0.6231610120014119 
-0.1012695286434828 
-0.01061824875002717 
-0.01061824875002717 
-0.007636756339551726 
-0.00864867521232936 
-0.2553324328590268 
-0.2734612873663581 
-0.2655476463705422 
-0.1376923008480229 
-0.04335939155862337 
-0.08990040665668021 
-0.07952055412242311 
-0.01821756304029727 
-0.3803350911857543 
-0.0876921749074453 
-0.3276093003303132 
0.002195473375301528 
-0.009923417666468372 
-0.3404311424557367 
-0.06677298212782007 
-0.004468260692413844 
-0.02520821260454012 
0.2221109503729021 
-0.009167055425899075 
-0.2404934181370836 
-0.02944129802180183 
-0.01547697192865558 
-0.005959243506876441 
-0.06068702526282552 
-0.01191848701375288 
-0.00732161384061549 
-0.0006393703694066549 
-0.03141538915309459 
0 
-0.301048368070671 
-0.009043658309592155 
-0.009783235355887536 
-0.01808731661918431 
0.002568278466141908 
-0.009043658309592155 
-0.009043658309592155 
-0.04866955882959978 
-0.03320200343375564 
-0.06060819598075475 
-0.1405351667247625 
-0.07635513468664733 
-0.05694674726175168 
-0.0005527702090055745 
-0.5359769363175196 
-0.1163778410135872 
-0.1010863874798015 
-0.0841808213549961 
-0.002336699637385613 
-0.0365023059644257 
-0.2332950680975227 
-0.2722835644853244 
-0.04965247276574618 
-0.01362258080168424 
-0.1849055605724008 
-0.08179984950334092 
0 
-0.3059293987379054 
-0.0004302850472493109 
-0.1620357347786451 
-0.02168914320505556 
-0.02786961993081223 
-0.1986405133378657 
0.1071268935440142 
-0.01587670743153758 
-0.03885064272312961 
-0.1040356922555164 
-0.05814682997058432 
-0.05695645493304953 
-0.002304793201407767 
-0.1474331789609137 
-0.0938967955664739 
-0.03479926742568026 
-0.1320220790314559 
-0.1358204102305194 
-0.08331549969298463 
0.1425080052737897 
-0.01657395960445401 
-0.0175572958715231 
-0.5170476083868664 
-0.04418642781696282 
-0.2455964928715964 
-0.3033883919516318 
-0.2150076729647042 
-0.2827942863130907 
-0.03197510675638937 
-0.0538822780514135 
-0.0463180347865868 
-0.2564910523606284 
-0.02415903611012139 
-1.25090062542402 
0.1234216665256531 
-0.3350706299163717 
-0.1195763287487963 
-0.1563094783713241 
-0.0457370608145766 
-0.1381280509132447 
-0.09994285340667559 
-0.4474288581033645 
-0.01940567654542205 
-0.1369791582405571 
-0.04034489225112387 
-0.02153583437302429 
-0.1310964241058512 
-0.04868538448518026 
-0.3233233963327533 
-0.04204983052470949 
-0.2585800703030047 
-0.4057893573755173 
-0.0139741836683697 
-0.0007283999967550773 
-0.06734544213020216 
-0.01506831229860021 
-0.0005905988981578534 
-0.0425654832878958 
-0.0007283999967550773 
-0.07829907027723386 
0.05123373812105193 
-0.05054882529297935 
-0.01773776541851057 
-0.0860565136482732 
-0.03309603375525087 
-0.6033966270783524 
-0.03001141679971055 
-0.004639022363354299 
-0.09759444488832261 
-0.001196998545686781 
-0.1441846739723967 
-0.07730143414487785 
-0.04529092024491186 
-0.05092182223104992 
-0.03894906113540661 
-0.2747490457407834 
-0.01961964508494488 
-0.08337854929818364 
-0.1141599367141501 
-0.03593441667174855 
-0.3653878894313166 
-0.01733701501957083 
-0.1434324848381526 
-0.1316097356169766 
-0.02808416935832422 
-0.4025644542149931 
-0.03460051742220886 
-0.1416484050250444 
-0.01720410417125216 
-0.05885121912618823 
-0.02787068688005793 
-0.07904014395300374 
-0.06289037119939578 
-0.004271558286237663 
-0.06038303849207904 
-0.2539579448928979 
-0.06625122782722104 
-0.1717343297397935 
-0.2124594124456137 
-0.181448262924154 
-0.02097940411178667 
-0.0001533679651612132 
-0.02255390565432444 
-0.05026156704885733 
-0.02399742673296584 
-0.02433472801699252 
-0.1284580891127484 
-0.3113098197754233 
-0.1189230621875273 
-0.002116559531929818 
-0.01890566135349293 
-0.01686165819980264 
-0.04029815353487873 
-0.04415603574774345 
-0.0009081339082822676 
-0.0005858626220238081 
-0.02774849365017347 
-0.07137884876312177 
-0.04026017742413128 
-0.4022109024093938 
-0.3649931629809042 
-0.01179012443151845 
-0.02739867200523068 
-0.02483147102234689 
-0.03367214451330128 
-0.1052864451372017 
-0.1051986128182547 
-0.0325179080898407 
-0.02445417827334816 
-0.08696151479516734 
-0.1843141145562616 
-0.1037445377244592 
-0.2311039506895113 
-0.09644179359678202 
-0.08924964941499267 
-0.06068850549786357 
-0.1271953969052126 
0 
-0.1727124248488333 
-0.005040933540023434 
-0.1083774873700969 
-0.01175836880753245 
-0.1517285017841359 
-0.1996394386283962 
-0.3139775682752805 
-0.2523609124435903 
-0.0202184215743916 
-0.05307487890926005 
-0.1418038948439814 
-0.01465441063122212 
-0.01366424615590185 
-0.02478003327527339 
-0.05046626826872155 
-0.04102851481588788 
-6.68836943827174e-05 
-0.01894806650746973 
0.4481750636561663 
-0.05666961350844172 
-0.04766882199715862 
-0.02536409317108478 
-0.01192509075463798 
-0.05378405628243321 
-0.04853622432263781 
-0.3861670503144167 
-0.1422072633414726 
-0.03695081925289218 
-0.02258897335314121 
-0.00220191458088017 
-0.008678549261928558 
-0.0452095409203673 
-0.4064329623385304 
-0.0007518672380046035 
-0.4823410415334015 
-0.1415207700243606 
-0.003876901901486527 
-0.01864060680504638 
-0.07341478570235847 
-0.01247036152635853 
-0.1849532320645361 
-0.0254201581133036 
-0.007411038156701634 
-0.08756341429192768 
-0.0005950024638130579 
-0.03934311920492643 
0 
-0.7774732145544272 
-0.1983148999869258 
-0.004712023578228654 
0.04061611736108998 
-0.01170708729160505 
-0.001165630929751717 
-0.02350713627104157 
-0.08941473406425686 
-0.08743564372328393 
-0.01247464227759938 
-0.07085843317946762 
-0.1739949664129247 
-0.2033428410166266 
-0.1243426570379208 
-0.05612163262521144 
-0.2896696856424811 
-0.2635972134531804 
-0.3067585183215283 
-0.005598333916912925 
-0.01812638940324848 
-0.2339679245283128 
-0.04560533432617798 
-0.006261440717216001 
-0.04930993514899205 
-0.02757789522187369 
-0.007558177527916061 
-0.004344323795935845 
-0.1140073690301283 
-0.04606666036442889 
-0.08670239397947996 
-0.2126152641871935 
-0.0001533679651612132 
-0.02729915405226103 
-0.03129130449795396 
-0.004605021429466631 
-0.02119675525489869 
-0.007486746806085211 
-0.0337262144080248 
-0.01520635411154462 
-0.009929154360821615 
-0.2168023505875839 
-0.05626504243679328 
-0.03828842568849738 
-0.01914294822455236 
-0.004670994510724925 
-0.1058372314400196 
-0.0008817679619162904 
-0.05144437368923552 
-0.0007214276593217053 
0 
-0.04278540972088125 
-0.5407179963312712 
-0.07187736240619802 
-0.0407130354506792 
-0.1925012548887043 
-0.0007439668633190665 
-0.06994602062907014 
0.226825662447803 
-0.07560413692936721 
-0.1899016617339216 
-0.02807108183984281 
-0.01754488312614996 
0 
-0.01244446785131428 
-0.007886405799394635 
-0.0001202732030278362 
-0.1144769881353807 
-0.07478831045882525 
-0.02804766957306934 
-0.0005905988981578534 
-0.1789775450484342 
-0.2330321860159383 
-0.01740859758802812 
-0.06709518795401326 
-0.04907466753265666 
-0.08639566324498046 
-0.02368475884037408 
-0.2788231464801934 
-0.4811723544814567 
-0.1355055186824208 
-0.03793163854721153 
-0.06175584834132498 
-0.1525091873971205 
-0.2074071629202788 
-0.04233975357121452 
-0.03031135756188834 
-0.06102533546020283 
-0.001613061906384029 
-0.01974038757417076 
-0.0001208946761841976 
-0.1351124079646809 
-0.01760218840569398 
-0.05472216716070447 
-0.01814318234919827 
-0.04354928419944079 
-0.3331204342631067 
-0.08407541987955355 
-0.0597673535046526 
-0.01908105468698644 
-0.02359850223133397 
-0.0004372309329966402 
-0.09747674929795366 
-0.07902591481404557 
-0.02395620950207829 
-0.09221398373167111 
-0.05709903886875736 
-0.147548547799329 
-0.2216789499333989 
-0.06422975294571867 
0.1417567617446121 
-0.07117991698133833 
-0.02223537470987772 
-0.001984524659696335 
-0.1254767527024362 
-0.05408308408494081 
0.06464468928470732 
-0.07823452463631181 
-0.01427687863999972 
-0.08134917533977534 
-0.156808770160705 
-0.01876731474645382 
0 
-0.02707380070674204 
-0.02729711123881059 
-0.1306095342515903 
-0.07862875587264079 
-0.02128430951563067 
-0.03956946904674086 
-0.1194071858995234 
-0.06523737104401128 
-0.0005905988981578534 
-1.182879853114032 
-0.06201615381864217 
-0.03537486862158033 
-0.09042706886596433 
-0.03191842391560812 
-0.07311357007522683 
-0.01991487093039936 
-0.03110283912522534 
-0.0004372309329966402 
-0.1441046235308778 
-0.01330474330131598 
-0.1482016623153664 
-0.0197579979614394 
-0.1907519004642779 
-0.03985382407856262 
-0.04890514168474611 
-0.002888506002473629 
-0.07730512663739554 
-0.1732324810341926 
-0.0004302850472493109 
-0.02547145244226105 
-0.03896935772565328 
-0.1083653137899808 
-0.1839253789095455 
0 
-0.1659974808295254 
-0.006828033476516049 
-0.09889424098660134 
-0.1152276393623017 
-0.07236123373260267 
-0.002690227181404096 
-0.01102142142130242 
-0.02273594698952042 
-0.1751749718647455 
0 
-0.006228876592461236 
-0.1385529400618246 
-0.06279358381204161 
-0.0007399960764619247 
-0.05876863320961068 
-0.001170281123711236 
-0.02800747550771355 
-0.1162858225921513 
-0.06693592591104731 
-0.1137319611580565 
-0.0544881501662016 
-0.02460213211040488 
-0.05652553188889345 
-0.08094496047430108 
-0.2593612006003289 
-0.01867693535099696 
-0.266739396824216 
-0.002766984684634924 
-0.1917520952922528 
-0.03609318777915518 
-0.07498194370280314 
-0.01548465182722119 
-0.01820794693168336 
0 
-0.02496664124957978 
-0.04830222162072983 
-0.2518302746240459 
-0.08798524047294094 
-0.004221120140604081 
-0.0005836530124105241 
-0.08334668120308628 
-0.003413108027805331 
-0.1107371640841154 
-3.229375693662164e-05 
0 
-0.02119871143135725 
-0.02522911046837982 
-0.1129651336624023 
-0.02531132656736662 
-0.2208993600546371 
-0.03480473850810892 
-0.2290238815821999 
-0.0007399960764619247 
-0.05511594480736055 
-0.01501036479545529 
-0.0102200825225949 
-0.08677292259304603 
-0.0001533679651612132 
0 
-0.4782918299648266 
-0.01540465347925008 
-0.1369519822764987 
-0.007586480147748824 
-0.09867001041332392 
-0.01595860026706579 
-0.4466852129457802 
-0.0283136336659144 
-0.03225201841652233 
-0.0007668398258060657 
-0.0004302850472493109 
-0.09449529084731283 
0.2589366079520324 
-0.7324832490045755 
-0.3370298861097463 
-0.0001533679651612132 
-0.2011124036434704 
-0.04140868138818204 
-0.08458132629977448 
0 
-0.09670405557982123 
-0.03945702399843947 
-0.05869045844412853 
-0.04691750842034565 
-0.4846367324543605 
-0.01216146083026925 
-0.009468319881797251 
-0.2145861224624036 
-0.03252176106893803 
-0.001326899269598468 
-0.05995411867165124 
-0.1680207775045912 
-0.1033072014016603 
-0.02290882528640898 
-0.01466669463790371 
-0.0008933640416231377 
-0.06085167797727106 
-0.002403389669160886 
-0.02957741160787779 
-0.03779720096828924 
-0.03409058668952043 
-0.128817349160132 
-0.1069742830266234 
-0.002490067602546826 
-5.887922592460651e-05 
-0.0535052597932693 
-0.09233309368408382 
-0.106328079971942 
0.1376636973709307 
-0.002262648153528625 
-0.0003067359303224264 
-0.0002763851045027873 
-0.007849292944702792 
-0.07168160256549526 
-0.04463176778076029 
0 
-0.0007283999967550773 
-0.03046310841443534 
-0.1231567076599293 
-0.03544495394857908 
-0.03951788019656244 
-0.01542284579375611 
0 
-0.4916941300247261 
-0.1534418378398511 
-0.002435114491262863 
-0.00555968301989225 
-0.1586128155323099 
-0.006245766573236471 
-0.2423640534539254 
-0.03177296072001765 
-0.06716635516526825 
-0.001766788478254414 
-0.2257296927291061 
-0.1939230674599354 
-0.01956196612485977 
-0.02957197903692689 
-0.03182633373548477 
-0.04695379495447739 
-0.1136807077053571 
-0.1752542155794552 
-0.1657235266040608 
-0.04314449035828941 
0 
-0.0412903733535171 
-0.7151964324875697 
-0.0004372309329966402 
-0.006209348259616576 
-0.01982809041983674 
-0.01579628625736115 
-0.1547170460594478 
-0.0425153427954948 
-0.003970884676203256 
-0.0007518672380046035 
-0.0349219258745069 
-0.3708289686764186 
-0.02139535615977729 
0 
-0.08188319694574915 
-0.8939096157993993 
-0.02579541151268978 
-0.006846794209848936 
0.2028220431355934 
-0.001020883945407164 
-0.04170718753183086 
-0.06948511584903584 
-0.008734553400568869 
-0.0007399960764619247 
-0.1313457922050011 
-0.004841184531657745 
-0.001600566170960547 
-0.001010586207722289 
-0.04670281437586581 
-0.04999064039188412 
-0.07952998507628163 
-0.003033849575343575 
-0.001156854106797032 
-0.0008675159802459512 
-0.001211780187726066 
-0.04860721418344457 
-0.09547152915491863 
-0.3357607183802439 
-0.03818828334282955 
-0.03720522469065057 
-0.005695845484218506 
-0.3373467026806471 
-0.2815819314342203 
-0.01685665159613186 
-4.029822539473253e-05 
-0.203642711612237 
-0.0008675159802459512 
-0.03358041351225169 
-0.0001380021066324509 
-0.07618037221963905 
-0.08572702025148271 
-0.0008601941544039043 
-0.1566138033119118 
-0.1489678068781364 
-0.3162079118249334 
-0.03161295779602727 
-0.1329599238700068 
-0.001028784320092702 
-0.01673387758447671 
-0.02469216901520929 
-0.001936541010028917 
-0.1273081611182756 
-0.1020192997253086 
-0.0005511397328518951 
-0.0005905988981578534 
-0.02242630585324495 
-0.4247067268777862 
-0.0001202732030278362 
-0.001077485914698036 
0.06849472786746331 
-0.002344704105843724 
-0.007762577820556499 
-0.00100133490544518 
-0.2068909270311795 
-0.01805188579211085 
-0.5447025927724174 
-8.514793178453626e-05 
-0.0261550475569266 
-0.02686377808133218 
-0.4498871028107601 
-0.1135573361277519 
-0.02013810985458502 
-0.01757757455524806 
-0.04546763302205224 
-0.03153812043128064 
-0.002714426218055416 
-0.00718989802796501 
-0.002251446851248913 
-0.03385406867817334 
-0.0005836530124105241 
-0.3343030777315277 
-0.06940914034958162 
-0.0008975233157409117 
0.08469935244964602 
-0.003350136234217001 
-0.007776843210970631 
-0.0001797339115271907 
-0.009815330032130962 
-0.0004601038954836395 
-0.002075511525044289 
-0.003565978182587852 
-0.02336639921056814 
-0.0001533679651612132 
-0.1706623358761838 
0.02459505807374572 
-0.0189998403311464 
-0.02808025747775157 
-0.1094235083423137 
-0.3028477083975072 
-0.02890148359558909 
-0.001020883945407164 
-0.02412532948875391 
-0.0006574825925405708 
-0.001181197796315707 
-0.05349651511105474 
-0.09551508493348221 
-0.001326899269598468 
-0.1551529175882579 
-0.02847165195047256 
-0.0007518672380046035 
-0.02422771343915386 
-0.03026286427330201 
-0.1827217477534865 
-0.1541514845428941 
-0.2136740384852905 
-0.08331463045664475 
-0.002199065443803937 
-0.2695724257336597 
-0.007434716560430872 
0.004875607324979298 
-0.06416671675926773 
-0.001627283592936092 
-0.002172623103664223 
-0.0006913483383151241 
-0.03803294206416202 
-0.001046732006784351 
-0.004477643579096649 
-0.09031639976387149 
-0.2320367214673127 
-0.001028784320092702 
-0.009923749888621032 
-0.01782298906593644 
0.02495029671978379 
-0.3402310084000402 
-0.04666341045453969 
-0.0004302850472493109 
-0.005687247090259343 
-0.005079681254480417 
-0.0001533679651612132 
-0.1430435814908043 
-0.1344691857407602 
-0.0004382895157074218 
-0.01552376758643602 
-0.01804074670405512 
-0.02267152103658467 
-0.02678098886006021 
-0.0001670595046491038 
-0.04875425139231996 
0.006215487282533468 
-0.0007283999967550773 
-0.0001533679651612132 
-0.0007399960764619247 
-0.0007518672380046035 
-0.000426934008264406 
-0.0280030589718923 
-0.005810165917246249 
-0.05539014815966606 
-0.0442342990104109 
-0.0003067359303224264 
-0.2665473220817763 
-0.0004372309329966402 
-0.01021258023679963 
-0.1056615237862603 
-0.0315996007450261 
-0.04830041555645497 
-0.002943615940360189 
-0.008141939815008785 
-0.1115643538932786 
-0.00468615487959523 
-0.001882690820734225 
-0.0005836530124105241 
-0.0441419115275767 
-0.048162348463942 
-0.01003841159976768 
-0.007926580894920428 
-0.1181045311976665 
-0.006383739573038051 
-0.2281056049088096 
-0.1358369699577762 
-0.001027505666863257 
-0.128477596995296 
-0.0001533679651612132 
-0.01548942558294069 
-0.0432306586967505 
-0.2475681683887525 
-0.008425270311097403 
-0.06479407538693974 
-0.009336870833133485 
-0.03128834580334881 
-0.001020883945407164 
-0.0005984992728433903 
-0.0007283999967550773 
-0.002017606708582704 
-0.001158685044004388 
-0.3912079464655183 
-0.0001533679651612132 
-0.00486321458138337 
-0.07254367835395356 
-0.001958788033545507 
0.01016401475334142 
-0.0005319578790586474 
-0.01529880338726716 
-0.1209936217405004 
-0.002008450330566562 
-0.0001533679651612132 
-0.06923381453288203 
-0.001028784320092702 
-0.0005950024638130579 
-0.007761043105160496 
-0.02504674505767766 
-0.1286635606299547 
-0.002754584863357156 
-0.04399485822028456 
-0.0001533679651612132 
-0.01348424125498893 
-0.009702228855577519 
-0.02197553476998185 
0.02164206172839649 
-0.0007439668633190665 
-0.040310187100185 
-0.1750009449764943 
-0.005233719092664081 
-0.155443468069997 
-0.0951130312795614 
0 
-0.0196445901466484 
-0.04041394083458925 
0 
-0.05633996094473104 
-0.04847684255508576 
-0.003765559018231229 
0 
0 
-0.02615442471550273 
-0.007435832262006215 
-0.08765904424272619 
-0.0005905988981578534 
-0.05025305264606237 
-0.01998080782074302 
-0.0007399960764619247 
0 
-0.003159800128516655 
-0.0005984992728433903 
0 
-0.0003067359303224264 
-0.002879245856340318 
-0.001231619369136152 
-0.06368491279662604 
-0.009163114107808977 
-0.002773930570382253 
-0.0001544378602556448 
-0.2430383509717997 
-0.5556262419701622 
-0.1561501650522555 
-0.02217113249285444 
-0.1616274621584639 
-0.06810722736378234 
-0.03525109792029294 
-0.001035730205840031 
-0.005252584937154699 
-0.01137744144019533 
-0.02712564288425285 
-0.08725700331309198 
-0.0004372309329966402 
-0.0004302850472493109 
-0.1909775835164986 
-0.04672948967852596 
-0.1462090480995883 
-0.0008744618659932804 
-0.0005905988981578534 
-0.03944385043432885 
0 
-0.008808279700017012 
0.04358843983295849 
-0.05947214266866043 
-0.001690994829729035 
-0.004587586940198111 
-0.2428893501369018 
-0.0007399960764619247 
-0.484944227852627 
0 
-0.01341694339260893 
-0.02051779909440524 
-0.001416022329612669 
-0.04496124567231446 
-0.01574292116749618 
-0.001255632774510485 
-0.002336699637385613 
-0.0003067359303224264 
-0.8377614240237778 
-0.06569362524154568 
-0.0004372309329966402 
-0.01160624936357052 
-0.005132835932436467 
-0.0009246040363592347 
0 
0 
-0.002394019126264014 
-0.1877258911513473 
-0.06812690775102544 
-0.03602880248257299 
-0.003635905848638275 
-0.0005836530124105241 
-0.0005836530124105241 
-0.0004372309329966402 
-0.001553345567406745 
-0.005678857945915715 
-0.01449747527764217 
-0.0005905988981578534 
-0.0007370209775717372 
-0.269317518869964 
-0.004141203407219738 
-0.004006280845159021 
-0.03466061193320818 
-0.05381317301151951 
-0.01516051618047687 
-0.000680818669758128 
-0.1154379502444554 
-0.001727358067417129 
-0.1607910176245836 
-0.0004302850472493109 
-0.0001208546856025842 
-0.01093472902142995 
-0.0007395770462953788 
0.1980912706739532 
-0.01562786925384483 
-0.005868263512676103 
-0.005471487956159727 
-0.03190346436835416 
-0.007852867387961249 
0.01320435107941404 
-0.01449919484387014 
-0.003182345719213055 
-0.01938889080804163 
-0.008682716571689049 
-0.1628064935116458 
-0.01881858747740147 
-0.2762083395489565 
-0.006115279059755555 
-0.002342981302650808 
-0.08106401568198912 
-0.0001533679651612132 
-0.001043734674298141 
-0.1129489168028838 
-0.008201278640086199 
-0.002753995114628757 
-0.1393087311657097 
-0.0004302850472493109 
-0.004641369462967579 
-0.01164727699066742 
-0.0005836530124105241 
-0.3457062898601175 
-0.0001533679651612132 
-0.0006027874096491616 
-0.0006573784987679968 
0 
0 
-0.009755673243319643 
-0.8909280235644292 
-0.0007203285779671942 
-0.0001533679651612132 
-0.0004382895157074218 
-0.002850542978163649 
-0.06287878669258715 
-0.004155088217597444 
0 
-0.01124681308662318 
-0.003739697782418829 
0 
-0.03891307300391412 
0 
-0.0001194826684818616 
-0.01423102760854498 
-0.08415809113404182 
-0.001668748384527908 
-0.0003067359303224264 
-9.986589106163101e-05 
-0.0005836530124105241 
-0.006515481563957498 
-0.2698300544228528 
-0.001652475271053923 
-0.001021958400893612 
-0.001170281123711236 
-0.0001201980779419796 
0.08928735158602423 
-0.006388012812339799 
-0.217027736503439 
-0.0009701451904463747 
-0.0004916232926742275 
-0.0007399960764619247 
-0.0006494781240824598 
0 
-0.0005836530124105241 
-0.003726139023573372 
-0.0007977573387618034 
-0.4965136364874487 
-0.003196322177229416 
-0.05973458632182056 
-0.03031504398486694 
-0.003268042271033441 
-0.03772248673104755 
-0.0001533679651612132 
-0.0002742226507637974 
-0.0004674740931364036 
-0.006947742739412037 
-0.007751473887827141 
-0.0001531484425392058 
-0.0008817679619162904 
-6.458751387324327e-05 
-0.002559151755376201 
0 
-0.02511456793062381 
-0.0004629355914446448 
-0.0003384049098542566 
-0.002329359464994644 
0.08342977334368223 
-0.0007890522195528423 
-0.01124453125026763 
-0.001758505695080915 
-0.01714097600024563 
-0.0003067359303224264 
-0.0003067359303224264 
-0.000419446334145701 
0 
-0.01106544884964932 
-0.0004275906159250106 
-0.001046732006784351 
-0.0001533679651612132 
-0.0004891642731739173 
-0.002935198910229004 
-0.005049517463034483 
-0.01018332047363766 
0 
-0.0007399960764619247 
-0.0008933640416231377 
-0.000863449531800928 
-0.0001533679651612132 
-0.01282378831861118 
-0.0006449912578354406 
-0.008124189504576527 
-0.003978021774690009 
0 
-0.0005836530124105241 
-0.0001194826684818616 
-0.009840009624438529 
-0.0231074554488592 
-0.007159866723348038 
-0.01661358973244908 
-0.004623821728304924 
-0.08859643020317069 
0 
-0.01703261183109382 
-0.001855886646094486 
0.9673549094312508 
-0.001090122565517618 
-0.000812171139500491 
-0.0004302850472493109 
-0.0001533679651612132 
-0.0001533679651612132 
-0.0008817679619162904 
-0.0009338126284500985 
-0.1008808061179619 
-0.004266576657624234 
-0.0001533679651612132 
-0.001035730205840031 
-0.01479925930833309 
-0.001414402355691713 
-0.2513066546068429 
-0.003975580054485246 
-0.0001533679651612132 
-0.03139703015002455 
-0.003787011616789081 
-0.007687963570275015 
0.02018045039293649 
-0.001382264034019507 
-0.007071006668566559 
-0.01217860915930063 
-0.01260729666743138 
-0.02339952857742167 
-0.01270440043281516 
-0.009234462554452229 
-0.001457360260370749 
-0.0005951521431828579 
-0.03682882800703068 
-0.001731527398416332 
-0.009921560561101841 
-0.001689684652407837 
-0.0511954433394043 
-0.009467715783189777 
0.02294437533677482 
-0.17497516500128 
-0.135388707431662 
-2.401340537433268e-05 
-0.002499287422361722 
-0.006677128068215168 
-0.02824234289260455 
-0.2043609003520813 
-0.02740530335584925 
-0.09162877096481511 
-0.003715930145386344 
-0.003660348726258062 
-0.002381185223009622 
-0.2692892419250759 
0.1418097142679958 
0 
-0.004068115604624724 
-0.006529488257105311 
-0.0004372309329966402 
-0.008888571845997072 
-0.002625893857250886 
-0.001124954779074149 
-0.002313917293925325 
0.1377364289510905 
-0.01104140862151809 
-0.001170281123711236 
-0.3982308078768901 
-0.02872367755846922 
-0.005883161701244496 
-0.004153349572166847 
-0.01678979130101677 
-0.003209019140783911 
-0.01057611896282803 
-0.3161974814674244 
-0.002576775938677053 
-0.01071453068875503 
-0.0005836530124105241 
-0.006127935539358125 
-0.008541582729850665 
-0.003320101798899326 
-0.002218114343040795 
-0.002136839061151976 
-0.03011351315829025 
-0.001013938059659835 
-0.01612746268434905 
-0.0009800527629804834 
-0.002044742989704515 
-0.0004302850472493109 
-0.00698500415034385 
-0.01397542725877701 
-0.04312345231138222 
-0.1212220253458522 
-0.01424699043402526 
-0.001499246952705335 
-0.0008903889427329505 
-0.0005836530124105241 
-0.01234288866199119 
-0.06074206415018204 
-0.001312053009165601 
-0.002848973434800269 
-0.002063645165334374 
-0.006739321911868074 
-0.001607512056707876 
-0.09147331932671453 
-0.003928310337940439 
-0.01382442323672206 
-0.00199317091916775 
-0.0004302850472493109 
-0.001028784320092702 
-0.02711677939214445 
-0.0100701568397904 
-0.07073828133904454 
-0.001964387872710312 
-0.001525525474839999 
-0.0008605700944986219 
-0.009037013170727096 
-0.009616618589743343 
-0.000548043499098524 
-0.0008675159802459512 
-0.05684953198749054 
-0.02280501001338526 
-0.007597060225351027 
-0.001013938059659835 
-0.0006692503842130341 
-0.00952592011526153 
-0.0005836530124105241 
-0.1590253218899348 
-0.001922148361715839 
-0.01450134724795782 
-0.06901419607393067 
-0.0007370209775717372 
-0.001607512056707876 
-0.001896300300338653 
-0.005489512462014668 
-0.0007370209775717372 
-0.02284322493441458 
-0.001146142196664953 
-0.002920352649796137 
-0.001323649088872449 
-0.001364684721877979 
-0.003543599189975349 
-0.001466922009714214 
-0.0006417017466409695 
-0.001028784320092702 
-0.0005836530124105241 
-0.0007370209775717372 
-0.04138471255040909 
-0.001297801027495262 
-0.007957461516587896 
-0.0004302850472493109 
-0.0004302850472493109 
-0.001210319723052082 
-0.04457273813633868 
-0.0004302850472493109 
-0.1412783019095617 
-0.003204215617631564 
-0.0005497677157311724 
-0.04977148508034934 
-0.004812281107486622 
-0.01426459419012885 
0.04493563844388897 
-0.009838678642392136 
-0.001755188543204846 
-0.001749283942162242 
-0.0004302850472493109 
-0.001013938059659835 
0.1605434787338806 
-0.006011635661893021 
-0.0008903889427329505 
-0.06051017818658656 
-0.06969802559893443 
-0.01435339531529758 
-0.0004302850472493109 
-0.008642613318832659 
-0.0009883706658485353 
-0.2624704217571385 
-0.000548043499098524 
-0.06389538779769664 
-0.004396673419817788 
-0.00146500576525654 
-0.02433931430723436 
-0.1620823943809578 
-0.01893073623147212 
-0.00388258998627245 
-0.0034199093010639 
-0.0005836530124105241 
-0.0007959002034963437 
-0.003752762161200367 
-0.0004302850472493109 
-0.009397644715050868 
-0.001170281123711236 
-0.001376503263720364 
-0.01362153168848061 
-0.0009691888120552877 
-0.0007370209775717372 
-0.001386409415768088 
-0.01099429261932955 
-0.1894330689191215 
-0.003742099268727284 
-0.008240001485268484 
-0.004546209309776702 
-0.0006705036957667485 
-0.0005359933969451401 
-0.0005154329790338471 
-0.02499513711807399 
-0.001451168992656475 
-0.01126804625274438 
-0.004413573322797491 
-0.005516594088520469 
-0.3519333387257113 
-0.001020883945407164 
-0.02905530120504349 
-0.03341346513638175 
-0.06536627390561713 
-0.001323649088872449 
-0.007154239877029659 
-0.001033858561882778 
0.01695354694831875 
-0.04947491504194189 
-0.001013938059659835 
-0.3227843551537903 
-0.1585194994747543 
-0.001013938059659835 
-0.001025287511062369 
-0.0005836530124105241 
-0.03756144655918591 
0.207216913546751 
-0.02582504135706173 
-0.2259937901891834 
-0.004601969755787447 
-0.0004891642731739173 
-0.0007370209775717372 
-0.00191027720017316 
-0.004901359828190608 
-0.002698133761231495 
-0.01234185932104386 
-0.0008675159802459512 
-0.3268992981339459 
-0.001312053009165601 
-0.001466015253089342 
-0.03361129313950376 
-0.0116506892464776 
-0.00060398641396176 
-0.0008292619311458271 
-0.01528316007435673 
-0.0007370209775717372 
-0.001323649088872449 
-0.0008605700944986219 
0.01992464077634312 
-0.02102397739351398 
-0.05368344615268154 
-0.03678029499876386 
-0.001607512056707876 
-0.0008159030828483215 
-0.001898681120466313 
-0.06053071399853523 
-0.0004302850472493109 
-0.00380707374223217 
-0.0005359933969451401 
-0.001253580644346915 
-0.01920315100033046 
-0.002419686549519141 
-0.02509177060603569 
-0.004104762865602282 
-0.0007370209775717373 
-0.0008605700944986219 
-0.06385503891045179 
-0.01124281279620339 
-0.07024054101135678 
-0.02032137634102891 
-0.01178938071384674 
-0.001638752051443972 
-0.001020883945407164 
-0.0004302850472493109 
-0.001020883945407164 
-0.002680756945831479 
-0.004736060898620025 
-0.4670658188821584 
-0.000984957668967109 
-0.003419197554099065 
-0.004329241470616565 
-0.01904420800301765 
-0.2606100839890158 
-0.08818182230320921 
-0.001020883945407164 
-0.001170281123711236 
-0.01074508781971319 
-0.0004625788041859325 
-0.0007887330526948958 
-0.0007370209775717372 
-0.01134794428630768 
-0.02783154679088853 
-0.001686677349952003 
-0.003970224320751617 
-0.001158685044004388 
-0.004560368186217337 
-0.03553336560559166 
-0.02815240316105704 
-0.001028784320092702 
-0.02020906845870067 
-0.0008998097371825727 
-0.3179609913071691 
-0.0008675159802459512 
-0.03894784315887232 
-0.004032949970542318 
-0.001600566170960547 
-0.01551795201713338 
-0.002334912910133925 
-0.003922888450544336 
-0.01043287052708642 
-0.000591657480868635 
-0.0006893613621063532 
-0.1398590188120412 
-0.04898289077300429 
-0.003345468086690659 
-0.005461194401738052 
-0.03622139335185274 
-0.003898262226533093 
-0.0004302850472493109 
-0.001431619952694491 
-0.04104151060662869 
-0.004584236257018357 
-0.0004302850472493109 
-0.0004302850472493109 
-0.02004488075366888 
-0.02910204912119076 
-0.002063645165334374 
-0.001028784320092702 
-0.002878371713903479 
-0.003424302927817826 
-0.000591657480868635 
-0.01663964258319769 
-0.0007045076980131083 
-0.01526042236940508 
-0.001170281123711236 
-0.002791825505669748 
-0.008279577991952104 
-0.003741529848406759 
-0.001740237903853139 
-0.001174251910568377 
-0.0007041271792783437 
-0.0004302850472493109 
-0.007201348618287687 
-0.006538750621822429 
-0.02488905865685168 
-0.004397352452664447 
0.5726267077995093 
-0.001020883945407164 
-0.0008747823087729277 
-0.0008675159802459512 
-0.0005836530124105241 
-0.00306431205021803 
-0.00539598664046337 
-0.002118787669469236 
-0.1393337302386748 
-0.09420046849753137 
-0.001223135298559151 
-0.01282627571038714 
-0.0005836530124105241 
-0.0004302850472493109 
-0.0004302850472493109 
-0.0007370209775717372 
-0.002291630099113278 
-0.01545610013720938 
0.003981091085292908 
-0.06211035912355072 
-0.001182152285253915 
-0.001297801027495262 
-0.02646535209849514 
-0.001182152285253915 
-0.008485423784339589 
-0.03062199770671247 
-0.03947969491147587 
-0.0005836530124105241 
-0.007775483680910127 
-0.03295728609038565 
-0.03402182576364919 
-0.0004302850472493109 
-0.003664713909196537 
-0.003224697823575445 
-0.006536796728863543 
-0.08005035977191888 
-0.003889472517343241 
-0.0004302850472493109 
-0.006062839538108698 
-0.0007571423502390155 
-0.04287560741936394 
-0.0005836530124105241 
-0.04081138895139736 
-0.001338418955531579 
-0.002600934488804571 
-0.001155413160864816 
-0.01056947328971737 
-0.01432284492672982 
-0.0007039262154383603 
-0.000548043499098524 
-0.0652138370413987 
-0.0004302850472493109 
-0.001887857724209025 
-0.01852198051917464 
-0.004377748022094495 
-0.001770497172446281 
-0.002107359808543494 
-0.000548043499098524 
-0.001607512056707876 
-0.001459069367342012 
-0.02810331682848059 
-0.004739739206714412 
-0.01925855149231693 
-0.001323649088872449 
-0.0006425322383351305 
-0.002544458432873729 
-0.001312053009165601 
-0.005780367430041177 
-0.008287642173156057 
-0.03267015919687026 
-0.1522858518124064 
-0.004258130830763497 
-0.001020883945407164 
-0.005534471949297664 
-0.2777760638366495 
-0.003000689870173774 
-0.0174688124290596 
-0.001895706021576125 
-0.001555899159310247 
-0.001323649088872449 
-0.0005836530124105241 
-0.0005836530124105241 
-0.000521458030110539 
-0.001240813044374376 
-0.05111982478390106 
-0.01539706647432616 
-0.002319639461840634 
-0.03633064061927502 
-0.001182152285253915 
-0.0004302850472493109 
-0.0008605700944986219 
-0.000591657480868635 
-0.008975884797909606 
-0.00537503723356784 
-0.0008259012318207284 
-0.01165159121088177 
-0.001304746913242591 
-0.001750829553315214 
-1.294663333359176 
-0.004459585804203086 
-0.004387283063535912 
-0.0004302850472493109 
-0.001075276305084752 
-0.001182256379026488 
-0.007274440499781992 
-0.0130574612022244 
-0.06925587367865021 
-0.00101614766927312 
-0.0008755204487040622 
-0.008255792437023459 
-0.005135855250503334 
-0.003568008827243608 
-0.001728086074744573 
-0.001155422380324371 
-0.0879394745964048 
-0.006821065632443496 
-0.001313554044553001 
-0.02400219386759471 
0.100897648600837 
-0.001013938059659835 
-0.01529272782445368 
-0.001158685044004388 
-0.009184992826437104 
-0.00907799445621048 
-0.0005836530124105241 
-0.01019553844880694 
-0.09659288634355226 
-0.06892213189961864 
-0.002151425236246555 
-0.04688435975961359 
-0.003548538255759938 
-0.000548043499098524 
0.1865745063040548 
-0.001588970091253699 
-0.001020883945407164 
-0.01128906574620725 
-0.0175868463825548 
-0.001182152285253915 
-0.01296614210240488 
-0.007397580855721418 
-0.01079880024647693 
-0.0402797322435073 
-0.002347783215005631 
-0.002207914405705978 
-0.01667371325235645 
-0.02187620209377715 
-0.003863131077325615 
-0.001382528314797055 
-0.03770509526970112 
-0.7210447283537418 
-0.07260417850609704 
-0.0007370209775717372 
-0.0058986233550208 
-0.02268910572703459 
-0.002618576736123078 
-0.001302204593150467 
-0.001253134015844962 
-0.02171242629266552 
-0.0008755204487040622 
-0.0006100189587765016 
-0.006948855443489358 
-0.002015034289293839 
-0.09404402733197055 
-0.001595915977001028 
-0.0004302850472493112 
-0.01456775680233455 
-0.0004302850472493109 
-0.009806500539911446 
-0.00191027720017316 
-0.01135388095693435 
-0.01464675566176009 
-0.0007432702057318338 
-0.01087480453983408 
-0.0005836530124105241 
0.02759085504172281 
-0.006678197209929766 
-0.001910552282008992 
-0.0008552304929813134 
-0.01372449769039922 
-0.001166689512462499 
-0.001607512056707876 
-0.001182152285253915 
-0.00181584507596824 
-0.002398961057936662 
-0.0203603189118522 
-0.0005836530124105241 
-0.0004302850472493109 
-0.0004891642731739173 
-0.009750755737526992 
-0.004331546377838042 
-0.1834315566182015 
-0.0005359933969451401 
-0.001595915977001028 
-0.000556047967556635 
-0.0006159467693471457 
-0.0005836530124105241 
-0.004198881149075538 
-0.03206476728042999 
-0.0004302850472493109 
-0.01168784744739068 
-0.1524374019796645 
-0.001947827337104509 
-0.003332016188981478 
-0.001330594974619778 
-0.00131169279898992 
-0.003193314839830392 
-0.001260079901592291 
-0.0008744618659932804 
-0.001787597443844634 
-0.001165630929751717 
-0.0004372309329966402 
-0.07092807211293049 
-0.003648392436375533 
-0.005793742728976302 
-0.00293566558112684 
-0.0007439668633190665 
-0.0065793006188538 
-0.001436997281862972 
-0.0006789403042018085 
0.07355042531228914 
-0.009222132586690225 
-0.002863340872842605 
-0.08859100424344435 
-0.2953297996054083 
-0.004097510870809036 
-0.0007249687986648762 
-0.01542617946723764 
-0.0004372309329966402 
-0.002927298535543466 
0.002408983713740445 
-0.01087649276082884 
-0.002040092795744997 
-0.001305348275004526 
-0.001027829831154494 
-0.001330594974619778 
-0.005394664056098331 
-0.001634229478683421 
-0.001853935485253704 
-0.0007439668633190665 
-0.0004372309329966402 
-0.001298081695061149 
-0.001189098171001244 
-0.01323090377837295 
-0.0008744618659932804 
-0.002838518084255497 
-0.002475095955633365 
-0.003372429843225644 
-0.05524768372716037 
-0.003211161503378894 
-0.001602861862748358 
-0.02064523689069604 
-0.003955023940996653 
-0.186640663955266 
-0.00131169279898992 
-0.01305750597832833 
-0.03807171256692541 
-0.08414706153526806 
-0.0004372309329966402 
-0.001209520766395186 
-0.002850155685629662 
0.05221543789071044 
-0.002826784745230167 
-0.03787700288877442 
-0.02149282253971418 
-0.02903762712825071 
-0.001027829831154494 
-0.07228358096173512 
-0.004422436611623864 
-0.01189472429547268 
-0.001035730205840031 
-0.03001643725936645 
-0.0004372309329966402 
-0.6249381748706656 
-0.21239413726819 
-0.009510146009241849 
-0.0004372309329966402 
-0.001181197796315707 
-0.0004372309329966402 
-0.0005905988981578534 
-0.07664513906477979 
-0.005795085291542528 
-0.001336508867216552 
-0.02141093985901807 
-0.26413435964458 
-0.0009067556229299021 
-0.0640207045365262 
-0.02738216913193436 
-0.0068120823133449 
-0.0007439668633190665 
-0.0007439668633190665 
-0.0004372309329966402 
-0.001189098171001244 
-0.06626855929214756 
-0.005007352955788709 
-0.0005905988981578534 
-0.0005905988981578534 
-0.001269102682974467 
-0.001894030926506795 
-0.001027829831154494 
-0.008635640749962165 
-0.0189754591545117 
-0.001316096364645125 
-0.1445222403385237 
0.4028600874360989 
-0.007893214510137279 
-0.002927298535543466 
-0.0342016112054899 
-0.04684618220108755 
-0.0008744618659932804 
-0.008553545558080206 
-0.00125145233508423 
-0.007718346537238527 
-0.004852419864229782 
-0.001614457942455205 
2.735456076280723 
-0.008162247614351302 
-0.0004372309329966402 
-0.003364529468540107 
-0.001938878982802052 
-0.005855960696066433 
-0.004732588977762207 
-0.00866659983162904 
-0.0005905988981578534 
-0.1728614493615931 
-0.09359302896915692 
-0.002014339419753752 
-0.01911110519485406 
-0.03912015329978158 
-0.01041837696436712 
-0.008814323739156648 
-0.02175996958908282 
-0.001177227009458565 
-0.001480009000559503 
-0.001359622010916134 
-0.004457855801807509 
-0.002490534425707251 
-0.04309960702223606 
-0.009625926260820632 
-0.0274572332896119 
-0.001330594974619778 
-0.02796366368983048 
-0.001926324683443417 
-0.001002982957684426 
-0.004302092309110806 
-0.001347918152187466 
-0.0004372309329966402 
-0.003511162423025112 
-0.003482117783860471 
-0.001181197796315706 
-0.2472717021295981 
-0.0004372309329966402 
-0.00308468160840772 
-0.04067751615256512 
-0.2415775239730349 
-0.02960968695143319 
-0.04163058572967301 
-0.09471550430069503 
-0.0004372309329966402 
-0.02235964668085801 
-0.00131899889491293 
-0.003182839638567846 
-0.008250577070339599 
-0.003917842220094794 
-0.005966022481263426 
-0.4740756368000396 
-0.2091615156641701 
-0.004692145804381264 
-0.01679367969899951 
-0.03990536028129999 
-0.01117981248929568 
-0.00131899889491293 
-0.005061052661301564 
-0.03427745403245101 
-0.0004372309329966402 
-0.004227265648451502 
-0.01185490713462392 
-0.00239888771790266 
-0.008902721128643275 
-0.000453239869912862 
-0.007248805840081275 
-0.0279462265207224 
-0.01272124102334412 
-0.003784199859830252 
-0.0006574825925405708 
-0.05740582071196479 
-0.0005905988981578534 
-0.0005905988981578534 
-0.001305942904787059 
-0.005816689438869861 
-0.09279789324682576 
-0.0005905988981578534 
-0.003895326884150693 
-0.09664787938303163 
-0.001660327380813226 
-0.00627148101791773 
-0.01986845768130925 
-0.0197967008102016 
-0.001165630929751717 
-0.002894785255984837 
-0.00131169279898992 
-0.02131553207766812 
-0.01391235699752835 
-0.04073222087219448 
-0.01307891745824442 
-0.001032233396809698 
-0.003415055152928434 
-0.0439169300620526 
-0.0008372165040677614 
-0.08295047064303084 
-0.03565535070492502 
-0.000770332809685044 
-0.0004372309329966402 
-0.001483962939780991 
-0.00131899889491293 
-0.001441497883698138 
-0.002504126279057032 
-0.03882602466135764 
-0.001762134428952175 
-0.0004961101589212467 
-0.0004372309329966402 
-0.00265357951449544 
-0.00152252038804873 
-0.0004418154322542858 
-0.00131169279898992 
-0.0005905988981578534 
-0.01676265805620325 
-0.001189098171001244 
-0.1392157549881476 
-0.0004372309329966386 
-0.01001043383109138 
0.003064747993566477 
-0.0004372309329966402 
-0.0007439668633190665 
-0.001602861862748358 
0.07872432114392909 
-0.02037351528994032 
-0.02934056152435052 
-0.0004372309329966402 
-0.001323468071508267 
-0.003130053791853632 
-0.0004695246899332618 
-0.2585604889794317 
-0.01451882137016079 
-0.0004372309329966402 
-0.0005905988981578534 
-0.003255417558839513 
-0.003513926646844178 
-0.0006138686107704595 
-0.001110499870697852 
-0.01374766910511005 
-0.001451449660222362 
-0.0005580856185992244 
-0.003083048764244119 
-0.000999720117251069 
-0.04773632618417615 
-0.05348595380193655 
-0.01201486879686762 
-0.004402941966451796 
-0.01531044426076607 
-0.0004372309329966402 
-0.0007439668633190665 
-0.01216963179756376 
-0.01515985810121813 
-0.00350233056713733 
-0.0004980895763026657 
-0.03763308958123663 
-0.003331878320791809 
-0.002068682022707093 
-0.001483962939780991 
-0.02247515582755955 
-0.005500301143891542 
-0.03484289052102817 
-0.0004372309329966402 
-0.0009607802339338679 
-0.06555511477602491 
-0.0004372309329966402 
-0.009768912762708722 
-0.01012813650020699 
-0.002135425280834015 
-0.0004452354014547511 
-0.0007439668633190665 
-0.02300483456587057 
-0.001817032400867637 
-0.0007114535837604377 
-0.002224761221360237 
-0.1386696804672563 
-0.001893233604814135 
-0.0007439668633190665 
-0.001177227009458565 
-0.0004372309329966402 
-0.01101868545345669 
-0.04400269993841152 
-0.0004372309329966402 
-0.05984907562398925 
-0.02447208602628177 
-0.002746251737394576 
-0.03577657765698188 
0.5148708849364059 
-0.0008496752130148957 
-0.001997857710613009 
-0.00171597167180995 
-0.01447667337887547 
-0.0004372309329966402 
-0.0005905988981578534 
-0.001094609431764637 
-0.004194352000844185 
-0.04769229834218951 
-0.001177227009458565 
-0.005729277534829881 
-0.0004372309329966402 
-0.006114768210027914 
-0.004782354095690142 
-0.001477364704491876 
-0.0004372309329966402 
-0.001165630929751717 
-0.001015544343889856 
-0.03029171087372321 
-0.0244279816096649 
-0.003017589393906883 
-0.004774172408165527 
-0.001483962939780991 
-0.002431548275464102 
-0.0150290385457247 
-0.01341007256138936 
-0.007223499940498189 
-0.000643453073005768 
-0.00642231783071414 
-0.009625925787405079 
-0.0466751033014533 
-0.004779148393491896 
-0.0005341122038065052 
-0.03401842350865759 
-0.03336774779898195 
-0.003506012301942084 
-0.04982105590167486 
-0.0007439668633190665 
-0.0004372309329966402 
-0.0005905988981578534 
-0.02071560741793275 
-0.00131899889491293 
-0.0004372309329966402 
0.007224873481670297 
-0.01321308839785651 
-0.01175516164091727 
-0.0008221353760462498 
-0.001392425522402568 
-0.008917048826771662 
-0.0004372309329966403 
-0.0004372309329966402 
-0.0005210203653443368 
-0.4556367328195606 
-0.02372137051144213 
-0.001035730205840031 
-0.0005905988981578534 
-0.0009900011420022148 
-0.002655038202487997 
-0.005520506166679012 
-0.001330594974619778 
-0.01156324662912812 
-0.0008708877404297115 
-0.0191214665507639 
-0.008545922370453377 
-0.02546909953821488 
-0.006223130959676905 
-0.003933991973959099 
-0.001175380359804398 
-0.0005986033666159644 
-0.01096344643948814 
-0.006662596588069243 
-0.04054119330360172 
-0.0526785651048836 
-0.001859485931060554 
-0.03875647875550697 
-0.04189319057199192 
-0.0007439668633190665 
-0.002927298535543466 
-0.004744039799136159 
-0.03326914267921247 
-0.06778847029779438 
-0.002047398891668007 
-0.003190972365563343 
-0.001775726282301955 
-0.0009089779947049544 
-0.004095815071463217 
-0.002773930570382253 
-0.05029619515456275 
-0.07094037700997068 
-0.001574539015825837 
-0.005348389559447307 
-0.01081916016091665 
-0.01557019284107649 
-0.001905627006213642 
-0.001027829831154494 
-0.002939594818720182 
-0.3924925984971385 
-0.001165630929751717 
-0.0004372309329966458 
-0.008737423526711779 
-0.003658663321954527 
-0.001309952856603828 
-0.007695922109855547 
-0.001881434631997785 
-0.004979592841509873 
-0.001032233396809698 
-0.00131899889491293 
-0.0005905988981578534 
-0.0004372309329966402 
-0.01826045959601418 
-0.0152088783111415 
-0.08027076089957291 
-0.0005223788647811763 
-0.004429702318502271 
-0.01391382999855515 
-0.003369391023670617 
-0.02285789701066066 
-0.0006664525645064148 
0.0797992579426884 
-0.06156853742602199 
-0.00131899889491293 
-0.002568550084056322 
0.1885555177707197 
-0.01095040141600625 
-0.001775726282301955 
-0.004392817669936083 
-0.008481765392413658 
-0.006300465690502603 
-0.0008744618659932804 
0.02534028181825365 
-0.002927298535543466 
-0.008012297505095585 
-0.004468285051021459 
-0.007448934675467935 
-0.01807743937427132 
-0.0005429392826924694 
-0.01995710411522051 
-0.0005905988981578534 
-0.008441810255509169 
-0.0161595167668187 
-0.0007439668633190665 
-0.001865627036158513 
-0.001177227009458565 
-0.0005905988981578534 
-0.002101591942198667 
-0.08247414444211484 
-0.01155823109130594 
-0.003667294612005391 
-0.004161927908080594 
-0.07611561430843426 
-0.00436799587875636 
-0.001165630929751717 
-0.00132049993030033 
-0.2228343602700845 
-0.04623284904628389 
-0.07393899209744834 
-0.008016760709640313 
-0.0126275460950955 
-0.2017418660206462 
-0.07935945175272838 
-0.009605091728121641 
-0.2891381596846102 
-0.07714394778715195 
-0.02992056352495344 
-0.1971475176270385 
-0.2774687688699952 
-0.01080490146201771 
-0.4580882254306 
-0.1278001502734742 
-0.5804677262229663 
-0.02329493280221311 
-0.1278354953586208 
-0.0551290968520732 
-0.7079744980738913 
-0.2181305995910105 
-0.5853463208650804 
-0.3912386432596852 
-0.02135875220138218 
-0.4155655647722256 
-0.06232215267709166 
-0.279903000554093 
-0.004610785385455191 
-0.02130090969719835 
-0.1005392496191087 
-0.009690466639935608 
-0.1010365230869362 
-0.2844650827396869 
-0.01329988643661405 
-0.0604484403834679 
-0.03312306217254219 
-0.1401806971854501 
-0.002067211638193036 
-0.02250778521904131 
-0.03089688098113741 
-0.2021947451617904 
-1.002279433416364 
-0.1495386834017617 
0.06241523985558207 
-0.09058049270385655 
-0.009485988397261105 
-0.6488784838184608 
-0.0160270964547725 
-0.3137805479333984 
-0.3006423399597997 
-0.0203157059943159 
-0.02224996413935781 
-0.03985446248476736 
-0.04797298129190542 
-0.109060091017255 
-0.008721737494910347 
-0.01443221110501196 
0.004087491367318015 
-0.03001421699800173 
-0.1209032985539591 
0.02092587710581219 
-0.7557507604761139 
-0.02475234541713892 
-0.008925702129079088 
-0.01066295138144765 
-0.2646783779827258 
-0.1879350756197357 
-0.01169419397010686 
-0.1934451723574637 
-0.5126129822980864 
-0.2438424673809915 
-0.1196706426752063 
-0.3954460539273266 
-0.236085168738815 
0.1865814839809389 
-0.0442244589349171 
-0.1918617879076221 
-1.056642785192104 
-0.4017575710095886 
-0.2746835089324217 
0.07398209187858076 
-0.01144887977921752 
-0.0469457204605989 
-0.5581566326599563 
-0.01034119357232019 
-0.2318687311019605 
-0.2012480101176678 
-0.3126331858583029 
-0.007658501650395722 
-0.002601082838730636 
-0.07668069545226835 
-0.003898064656702286 
0.04730040926859897 
-0.04347962511557923 
-0.003898064656702286 
-1.261297611421534 
-0.01089494455364 
-0.01212126139085161 
-0.003898064656702286 
-0.2726883115820015 
-0.003898064656702286 
-0.0711529728882673 
0.3321746189462888 
-0.01441960377698548 
-0.04507506486518822 
-0.002663897372498879 
-0.006588582052083865 
-0.01066193103258913 
-0.1884219814049392 
-0.02052378746483237 
-0.04937185725616934 
-0.2698391336895016 
-0.0008564750063003451 
0.03411278648013565 
-0.1417826895253816 
-0.006880344906359987 
-0.1173728569998768 
-0.007894699419522831 
-0.008286089778691072 
-0.2670476230266225 
-0.1380132632317229 
0.2525709317007623 
-0.003411775977119762 
0.02621989248496603 
-0.001061838833312051 
0 
-0.09126345432530339 
-0.003621438857432764 
-0.4035171400270527 
-0.006898605538843131 
0.01751344619558704 
-0.1552545495675415 
-0.1592396995616159 
-0.03989401030757139 
-0.04359126986542047 
-0.09876451153720589 
-0.2940787479935643 
-0.2522855155275475 
-0.02844415587390118 
-0.1000087195589412 
-0.04810994055892213 
-0.09404042033100797 
-0.006463334094800975 
-0.0006768098197085132 
-0.417675661770671 
-0.00281620361815501 
-0.1476431583590056 
-0.06217174734958185 
-0.2471868058906285 
-1.106582314462806 
-0.0842448147414127 
-0.2283175494777916 
-0.02791316463584315 
0.02103522166161328 
-0.1530287656350137 
-0.3805858691656472 
-0.0181906403272927 
-0.9295483372055465 
-0.03210221902941984 
-0.1481833689751655 
-0.03502310569080073 
-0.2959960569120413 
-0.04473768212104416 
0.05911119295481042 
-0.005040427658344069 
0.01195074991908391 
0.3394536668581586 
-0.03993658232446483 
-0.5652457914018686 
-0.1469738471503921 
-0.01184138989492331 
-0.2079666499196588 
0.004176196333811603 
-0.0001876612010583724 
-0.04395669420826057 
-0.02851143398494697 
-0.07894144383450405 
-0.005050514388370464 
