solver_type L2R_L2LOSS_SVC_DUAL
nr_class 2
label 1 -1
nr_feature 38532
bias -1
platt's -5.000454943562875 -1.107522570979564
w
0 
-0.04576882633433593 
-0.04647388883399603 
-0.08225527582113494 
0.03514139912904467 
0.5451434669247104 
0.335244448122631 
-0.08384809253542505 
0.08292181074655436 
0 
-0.002093491858979675 
-0.0003077881639076774 
-0.009202511503573948 
-0.002201113182034204 
0.02985858522110944 
0.2942724766509517 
-0.03196474320985375 
0.06231269741074302 
0 
-0.01368343467340385 
-0.006297582432234298 
0.01160166467085456 
-0.004824810236339783 
-0.1997830241006727 
0.377274170313501 
0.2051496075626499 
-0.1935502050309936 
0 
-0.005192508693426572 
0.125938222737792 
-0.002345969799098575 
-0.06097347972861413 
0.08266678702864481 
-0.2154184902206797 
0.326566852965452 
-0.02152311056625513 
-0.03204473118515927 
-0.05853693009342816 
0.06575315752168788 
-0.1867787083142689 
-0.02456157314645959 
0.0005935315138036969 
0.01929513210676363 
0.03242256876597146 
-0.2008767929744983 
-0.369095223592578 
-0.05136634850507699 
-0.07191735469537304 
0.2705265235722571 
0.2802826814998725 
0.08424063408958997 
0.003346909474294342 
-0.1047713875286314 
0.01510246775310104 
0.1577781234439241 
-0.108892458914654 
-0.1536741106097118 
-0.05994424887882112 
0.2407060021049844 
-0.01180360087177365 
0.04539621008223357 
0 
0.1869872963288172 
-0.04962888746439661 
-0.05581541055173991 
0 
0.2111322766984536 
0.000157822133291873 
0 
0.008372311495968541 
-0.042865570704259 
-0.1016768016521951 
-0.0396311608135446 
-0.0001088584193915818 
-0.0597545768287813 
-0.6273192166410124 
-0.09091051815591195 
0.05169379077328406 
-0.3290664490135116 
-0.03270924376887666 
-0.2942267353403381 
-0.01565397251201947 
-0.09276635706218569 
-0.03233329345105433 
0.7335373841254101 
-0.007729627994752988 
-0.005575474313144315 
0 
0.00822130195409821 
-0.1774214732409209 
-0.0001483616274569117 
0.00975395784727613 
-0.0591867026044321 
0.05352025944589818 
-0.05066453527282491 
0.1180577256123759 
0.230383259033105 
-0.0126563371245296 
0 
-0.01976111720277642 
0.05206903140799969 
-0.2191552065584433 
-0.09801617071617014 
0 
0.4097768750634057 
0.3181016168582119 
0 
0 
-0.124055591871672 
-0.1180046896616319 
0.02173691920780513 
0.02508466686540081 
-0.008871693060726566 
0 
0.04024493843829755 
0 
0 
-0.2708182063307781 
0.533530788705368 
-0.0477741159928771 
0 
1.533686305581179 
-0.04303672087373803 
0 
0 
-0.2767148493536423 
-0.0128146437486963 
0.1442729027489671 
-0.0006978306196598916 
1.437532188831787 
-0.103432057068795 
0.1243662077895584 
0.1874744634066023 
-0.02442337697616604 
-0.1690189111630815 
-5.509704780696987e-05 
0.09415509596756912 
-0.3163174493615697 
-0.04385211055796785 
-0.001261861132340575 
-0.05576808024699805 
0 
-0.03424018093053872 
-0.05225388247627771 
-0.000330467975056552 
-0.0911965928962815 
0 
0.08007838424989829 
-0.009265943384394983 
-0.03677171803816903 
-0.4906495409371557 
-0.3577974990920745 
0 
0 
1.084542679563306 
0 
0.1845753755152147 
-0.01899362495465027 
0.1476280395431596 
-0.1716947717701176 
-0.008800320346016969 
-0.07829287916006604 
0 
0.04283651165003272 
-0.2924225725820765 
0 
0 
0.08861793014249243 
-0.001348827277244566 
0 
0.3972453954318328 
0.1226194995844854 
0.08641095096767756 
0.02644776252082313 
0.454594461265431 
0.06085877082139778 
-0.09820908164922224 
0.04653845325712932 
-0.0003489153098299458 
-0.02952225291520817 
-0.1148407020887515 
-0.1099069219597733 
0 
0 
-0.003917015361916831 
-0.1002816225660711 
-0.2017188415229926 
0.04905308536803681 
0.02355682043388384 
0 
0 
0 
0.02025093098066753 
0.2472245182084891 
-0.1050127773020151 
0.1039040915087598 
-0.01355697087455193 
-0.07578876966251119 
0 
0 
-0.02412868805367564 
0.0403984083775397 
0.01565681740403045 
0.06834199218383495 
-0.01999767910062276 
-0.002481711054585329 
0.05727735065327295 
-0.04494048693893792 
0.2001873958972284 
-3.615940000097652e-06 
0 
-0.001362154872178653 
0.01409914381968535 
-3.388131789017201e-21 
-0.05772928946393701 
-0.1307057680686461 
-0.6285410679417273 
-0.03485461564433649 
0 
0.07765914508519396 
-0.01042720289172626 
0.1068881838042988 
-0.01890316937000081 
-0.03014518467126772 
-0.0006793507644961784 
-0.02673898199923683 
-0.009010375514414391 
0 
-0.2343414687688138 
0.0803270263074211 
-0.1293518995008223 
-0.04585706512206664 
-0.1813678486871687 
0.06423287064787159 
0.4454242307818859 
-0.05413988678134626 
-0.1924687809403262 
-0.07937465379502338 
0.1527886348506323 
0 
-0.003316677584569408 
0 
-0.03837114306806709 
-0.1615599578297286 
0 
-0.02648555874693328 
-0.01249334693945133 
0.03550096107597228 
-0.006639624646034022 
0.05780371749914552 
0.05884825508407484 
-0.0003489153098299458 
-0.04366026809307662 
-0.03741406086023543 
0.06945261060048628 
0.1352856643422619 
0.008076597600621597 
0 
-0.1139710669388394 
-0.0494897481658222 
-0.09262630816981635 
0.07038486139836449 
0 
-0.03600457210313773 
0 
-0.336089814058351 
-0.01249636876620566 
0 
0 
-0.004426972045621438 
0 
0 
0.03908488464118045 
0.03092826784136099 
-0.06502970296172465 
-0.2803355023049752 
-0.03250770552397954 
-0.0304536183171564 
-0.02168582635087906 
0 
-0.03013536238230193 
-0.1301870867323992 
0.08004813265444929 
-0.07049246259000734 
0 
0 
0 
-0.05121055032716949 
0 
0 
0.7191216227417276 
0.09783796467292508 
0.1483410355230649 
0.0163905220715137 
0 
0.3613613661480488 
-0.0003171541754098247 
-0.1204490780661789 
0.411673664958925 
-0.1805987457117651 
-0.1631085136002423 
-0.1348582376199171 
-0.01489526901903931 
-0.01338681587025054 
-0.08005072733834979 
-0.002042064728562965 
0.07521864285673273 
0.2398322641288301 
0 
0.1482911430411342 
-0.09967810686461931 
-0.0004113855516535504 
-0.5087481072418916 
-0.002664158847483136 
-0.03302834049980199 
0.1086574086300913 
0.3640284852143181 
0.002868622202770673 
-0.00451790799507912 
-0.08680088321534575 
0 
-0.5505861982739855 
0 
0 
0 
0 
0.5289304808860508 
0 
-0.04718832508391278 
0.08634873060739157 
0.1008428825859308 
0.1003483420706832 
-0.02192345803656022 
-0.0003470202478021083 
-0.004082382651158821 
-0.01629546946732233 
0 
-0.01146700571661223 
-0.1232974940401565 
0 
-0.001695507983174639 
0 
-0.01553485047477239 
-0.002048762507159305 
-0.02950209904491429 
0.1475405004153094 
-0.03340156690195428 
-0.01029986466975544 
0.1093553853957648 
0.02918368358718432 
0 
-0.00796961492132457 
-0.09822055457668658 
0.07577826449238091 
0 
-0.3603949427825398 
-0.001697550301346014 
-0.222173928232096 
0.5253842069076232 
-0.001887368976065418 
0.01552214778969746 
0.1052361692303841 
0 
-0.1280583597650583 
0.009417049024879789 
0 
-0.004137680420499831 
-0.005461845108062448 
0.04375276056053148 
-0.0239617353486766 
-0.001657660601531104 
0.1403878480615419 
0.009347311031941828 
-0.09707603082352503 
0 
0.4861403599264714 
-0.0116173861539353 
0.05020004825301621 
-0.0101226230324329 
-0.2020211242503158 
-0.05675349832753462 
-0.0170894418402164 
0 
-0.08690597568303401 
-0.004705195384901035 
0.009490369878763939 
0 
0 
-0.1037000883036265 
0 
-0.1123965623893306 
-0.1334329319374031 
-0.06132478394721074 
0 
0.02764246736925441 
0.3391418291735583 
-0.003097981309293671 
0 
0 
-0.007230844536538062 
-0.1273604395454274 
-0.248459344107954 
-0.04994349154247178 
0.1608448012414141 
0 
0 
0.002451465571431466 
-0.1165403926554582 
-0.02463147679868323 
-0.3355760784934437 
-0.0009188286835930009 
-0.06712693600975717 
-0.01382156105755288 
-0.02216130080756084 
-0.001344423923772792 
-0.06397298629886894 
-0.07573902662164107 
-0.1291225389431763 
0 
0 
-0.05678524541347606 
0 
0.3015231422857903 
0.1530578562089364 
-0.06518103295574026 
0 
0.02301953838810607 
0.04261272523394753 
-0.02454317882948207 
-0.002035620046104641 
0.4258614727831674 
-0.02071848714959486 
0.1239154542543764 
0.03914177804310053 
-0.01566235078517111 
0.02262741291955659 
0.3427718182805081 
0.01995520588376039 
0 
0.07927386576983966 
-0.01710214688160555 
-0.01710214688160555 
-0.006425824844286683 
0 
0.02044894617634289 
-0.0008612558573590513 
-0.09478521827222205 
-0.01588503616453138 
-0.141463310295959 
0 
0 
-0.7872091956667567 
-0.03837770756452408 
-0.01664836342688132 
-0.04992152241329198 
0.01693076104248871 
0 
-0.003041627670979068 
0.07883000511543578 
0 
-0.07589960922050083 
0.01217143465069565 
-0.002171940548359419 
-0.1641141291064006 
0.1038228409781138 
0.02600712650684707 
-0.07213427662473265 
0 
0.1024168985299988 
0 
0 
0 
-0.07567605277252336 
0.5612408507730936 
-0.2085990813396914 
0 
0 
-0.01798268240422466 
-0.08374819885612506 
0 
-0.02172497333090053 
-0.05718623471380839 
0 
0.01013905967487119 
-0.2408017050391747 
0.0005398887406625375 
-0.03903963541956459 
-0.09465273768960006 
0.04869463811313091 
0 
-0.001733392627979177 
-0.20660368214727 
-0.06336246331133356 
0.126547677981287 
-0.1692816437475171 
0.05050330296278228 
0.3340856072733847 
-0.0007320436371251357 
-0.2560302959215465 
0.03783499413265292 
0 
-0.05699371026153813 
-0.04131135819571678 
0.01630903045348942 
-0.03878772273752701 
0 
0.05138697139627912 
-0.002490905716935632 
-0.1455983531414328 
0.127895521371859 
0.05030499402877468 
-0.06936788273805658 
-0.3268678057685616 
0.5809977088782916 
-0.002848459914725928 
0 
-0.03033629499267715 
0 
0 
0.1037954095500636 
-0.0003489153098299458 
-0.002530307532585791 
0.4440335900411316 
0 
-0.001265153766292896 
0.8424344105683819 
-0.1500828138973345 
0 
-0.2260534515788229 
0 
-0.0004016351760559562 
0 
0 
0.4329914668207469 
-0.05920681743397919 
-0.02089930321440245 
-0.1434117842263903 
0.02648735491095139 
-0.01819076846352105 
0.02254098245051007 
-0.00200396798318289 
-0.05992445869578377 
-0.003119708949294312 
-0.004057101360815864 
-0.0367654130655027 
0.0461916693097748 
-0.01894500306347542 
0.4541663732722475 
0.08371568875313266 
-0.2251907497708151 
0.07945373925848616 
0.01570364854875723 
-0.01564631863758337 
0 
0.03355118954920523 
-0.005252429628755294 
0.3492573121300958 
-0.2487913242628424 
0.07449565435998014 
0.02130175661034477 
-0.08281696683086466 
0.0271585184009756 
-0.2279570134023009 
-3.121256924139114e-05 
0 
0.006059313016298484 
-0.06791912474281961 
-0.01656300560252831 
-0.06509246162286331 
-0.01043567554128123 
0.02108635770193924 
-0.01102726168174561 
0 
0.1046769457030391 
0.07347410063368055 
-3.388131789017201e-21 
0.01181447385971811 
-0.2086863884504751 
0.2523825527846367 
-0.008852909084082483 
-0.1062308820238773 
-0.1441676016344907 
-0.2630705797970592 
-0.1091436651571385 
0.1400057359273429 
-0.0005754628313220208 
0.0285275524526262 
-0.02140027702546511 
0 
-0.0001026140190737779 
0.2022174810285265 
-0.005040739444149593 
-0.005080462071234262 
0.1834084790660956 
-0.1071604711134691 
-0.02521423288119395 
-0.1276163268833392 
-0.2108224716573333 
0 
-0.0006161850603644398 
-0.01210138679836013 
0.1067715668979224 
0.27481206622146 
0.2504518259362943 
0.3289377785983072 
-0.2061492059219461 
0 
0.07047360583846565 
-0.03215642564683151 
-0.02326427577682862 
-0.06541844356792362 
-0.01064570452037982 
0 
0 
-0.05338182780949353 
0 
0.252241934305292 
0.00702768909488766 
0.1282886440822642 
0 
0.7472078383642589 
-0.05182395030314173 
0 
0.00131539300160921 
0.001144472191379589 
0 
0 
-0.001657660601531104 
-0.001124655033070694 
0.005783244645786026 
-0.09512030157381043 
0.22236891539307 
-0.03958951571721932 
0 
0.0241953441629672 
0.002524492606928827 
-0.1999531853806076 
-8.673617379884035e-19 
0.4401585748683066 
-0.00397013386400523 
0.02434223430875471 
-0.03195581463784907 
-0.0816650607606364 
0.1113837413316282 
0.00829135672549557 
-0.001357967950609308 
-0.00557349466312531 
0.1198356093882917 
-0.1542428910014938 
0 
-0.01642499816251282 
-0.0695184129968508 
-0.01802075102882878 
0.1378930639933363 
-0.06862110559207196 
0 
0.02121359808341713 
-0.002442407168809621 
-0.02091484303871363 
-0.08906587880678726 
0.03017877036127807 
0 
-0.03291553923507543 
-0.03291553923507543 
-0.003288248315408913 
0.02638567364820562 
0.02316227457906941 
-0.009631588968882976 
-0.04950898788982232 
-3.615940000097652e-06 
0.9376070696756281 
0.06910302859937748 
-0.01169999468118736 
0 
0 
-0.05941113747439884 
0.1242520483313169 
-0.08559126448272412 
-0.00705911756380968 
0.01003168552368413 
-0.6322163782480169 
0.01135337235920676 
0 
0.04015956711754155 
0.4051317863938147 
-0.001490429893911684 
0.03777674297886457 
0 
-0.001163673587007451 
-0.004522492264198237 
-0.1650357802906621 
0 
0.04734666972599504 
-0.3620791027407845 
-0.001213024553551362 
0.3181252201465576 
-0.00714239662249385 
0.462786808793562 
-0.03119981255703779 
0 
0.1999980642830263 
-0.03431949010042226 
-0.01436798222074719 
-0.04646295965650439 
-0.03355018922410077 
-0.1081275548225426 
-0.01246708558359885 
0 
0.1426767065898686 
-0.007845226445552406 
-0.04295128482303293 
-0.0153064654597538 
0.1817353383884302 
0.3985931151829236 
-0.1262548583482594 
-0.005709491254688259 
0.004902056715508247 
-0.1354521679413985 
-0.00133591261333203 
-0.02595014872529083 
-0.03189076181918689 
0.02316151801351346 
0.004672901939814145 
0 
0.01665662500783531 
-0.004363870217277005 
-0.02054675079234533 
0.02074661768365637 
-0.0802142830783847 
0 
-0.004036181450823295 
0.1918768934694725 
0.01792872929335788 
-0.2746377048660314 
0.008647498157658596 
0 
0 
0.007462415692902094 
-0.1218351110631716 
0.1206485985890677 
-0.0006978306196598916 
-0.002330503129268912 
0 
-0.01194401451522417 
0 
-0.03433258278409373 
0.01393514572444093 
0.5923776537681188 
-0.0003489153098299458 
0 
0 
0.001744163089112426 
0 
-0.03093505869895735 
0.03445381587446215 
0.01621755870777971 
-0.1533618735000507 
0.001692365004580802 
-0.002970742363278382 
-0.02838382756810531 
0 
0 
-0.004263493008039885 
0.0009137001735425776 
-0.0003489153098299458 
-0.03860573651995003 
-0.04216033753080167 
-0.1468135766817557 
0.6845558665582632 
0.1571321173852452 
0 
0 
0.01072391790649674 
-0.01508862439115657 
0.05546285647604218 
-0.02199589420883467 
0.5690850270867124 
0 
0.1400881688335072 
0 
-0.02071241246740221 
-0.01924883025129589 
0.05881649730117078 
0 
-0.006783284974759774 
-0.1060388363925865 
0.09151313365572235 
-0.004207508457598274 
0 
-0.1101671504504795 
0 
0 
-0.0925093118963248 
0 
0.05267425319382658 
0.0691626479753667 
0.006080239122414919 
0.001094122907920021 
-0.01006016318887474 
-0.1094298301816302 
-0.04636574312064005 
0.02894209305149048 
-0.0006610039890294726 
-0.01969441810866558 
-0.07439325169058573 
0.01671535117284885 
-0.008079881054086724 
-0.04431058550146347 
-0.07445501750702951 
-0.00821344316879059 
0 
0.0687254496396814 
-0.06619912078518929 
-0.08928264403895764 
0 
-0.01447590441164703 
0.2654881540033474 
0.04872363515023075 
-0.005691733571700775 
1.409261807996609 
0.510565779241501 
0 
-0.07065605341476267 
0.0160853949785785 
0.002823656221762344 
0.03361471677254643 
-0.3107493530298869 
0.04673137957098058 
0.1752603737716303 
0 
-0.02570859680026304 
0 
-0.05506951684815076 
-0.002862525071963984 
0 
0 
0.02811881574153276 
-0.009701544949933043 
0.5885602807321667 
-0.003208645072119815 
0 
-0.008733349534900516 
0.02628501442311955 
-0.01878547845517373 
0 
0 
0 
-0.005532962271994623 
-0.09049187965925308 
-0.06495453039770051 
-0.02509865535500206 
-0.01593065977793868 
0 
0.1203769018287925 
0.01396302509093284 
-0.4306848013133543 
1.144263210460388 
0.01497948184303866 
0 
0.002790582690390957 
0.2581100859054807 
0.0684016670693547 
-0.1138272912191898 
0.04725320029953387 
-0.02126804188281658 
0.1540244424629188 
0.4397089448023454 
0.03562479281633427 
0.1100899803085628 
0.2845447702628216 
0.1352932206780739 
-0.02611324911271687 
-0.1126736303923423 
0.004024007473719339 
0.2177005794510747 
-0.03000951008463298 
-0.02339728957827469 
0.1807431870073387 
-0.2567516910005844 
0.05598891186811689 
0.1981050834807817 
-0.006918631656457292 
-0.01117512074160269 
-0.08451045703070807 
0.06484458677683948 
-5.421010862427522e-20 
-0.04475800766073728 
0.04953430948437641 
-0.04214013309993032 
0.193609285630111 
0 
-0.151846725563724 
0.001091132416880246 
-0.06904420549465885 
0 
-0.1459701331120244 
-0.5267709493989908 
0 
-0.02554409084435165 
0.02723955350174587 
0 
0 
0.20801801906 
0.01199053853361566 
0.2419036759057314 
0.01978508672289521 
-7.231880000195303e-06 
-0.001355983060272053 
-0.001113868987429436 
0.7230062841864039 
0.01178624872558186 
0 
-0.00152683935309821 
0 
-0.001352367120271955 
0.06769551192001871 
-0.0007122943796602824 
0.3153096479360468 
0 
-0.00652208439106964 
0.0498650064273532 
0.005336025273290095 
-0.0112053952033854 
-0.1822446499189798 
-0.0331928403972142 
0 
-0.02315310090046429 
-0.01871091434793511 
-0.05941772781895303 
-0.08737808400977115 
-0.0002248455639142466 
0.1604092181177901 
0.01077607656696584 
0 
-0.0307570189712947 
-0.3426982359317817 
-0.230493509907367 
0 
-0.003814389808989095 
-0.003412003194049464 
-0.06880992657818621 
0 
-0.02946792898665534 
-0.2058958333306671 
0 
0.0006301996326807355 
0.08079211097535557 
0.01120051094090703 
0 
0 
0.02193994774625975 
0 
0.278751990080933 
-0.003154172868415293 
0 
0 
-0.001489579158800661 
-0.03440733151339301 
-0.01627090955434059 
-0.02536913806878196 
-0.06248441874763818 
0.07574008738237893 
-0.01085780268720891 
-0.1195464889668331 
0.2083437199843257 
-0.04506414010822141 
-0.3559082934955084 
0.02240004345947879 
0 
0 
0.01220074099472556 
0.01063686514876167 
0 
0 
0.008104270089057 
-0.02418607385983966 
-0.3066441410413555 
-0.01355934842433882 
0.1362474927525925 
-0.005830200403828156 
-0.004461832872374989 
0 
0.138073208017086 
0.03694321548126088 
-0.00259667799264176 
-0.2277928354331138 
-0.0001850784772802679 
0.08811262807696855 
0.102045278588879 
0 
-0.01418802974738174 
-0.01776756029292952 
-0.09169598295761947 
0.09509963693090559 
-0.1021366053177523 
0 
-0.01725661173597118 
-0.1490158363618631 
-0.001046745929489838 
-0.1471844736500938 
0 
-0.0005506429990440907 
-0.1059209338800588 
-0.002910948158313129 
-0.01730455557968118 
-0.01447149350279549 
-0.0374153004959889 
0.006259683266849291 
0 
-0.1332897267283584 
0.06382201593012705 
-0.03898932077489502 
0 
0.03018751150934979 
0.01066962385911067 
-0.02813186541017396 
-0.1182529707493298 
0.11093475281903 
0 
-0.06721141782611292 
0 
-0.03000696507716616 
-0.08080573661806682 
-0.09147170878853325 
0.04951746893593349 
-0.002432308349350081 
-0.05896917631263869 
0 
0 
0 
0.05332478205766785 
0.03171039808969716 
-0.008470647914480683 
-0.3869030920748456 
0.0456362718169746 
-0.004323710450219754 
0.09744300984991229 
0 
0 
-0.03530175244861535 
0 
-0.01839210606152855 
-0.006414054905955837 
-0.009315563475497345 
0.0876889995401731 
0.003759944540388163 
0 
0 
0 
0 
-0.09638759543891488 
0.4333878873440197 
0 
0.2208039711058038 
0.004751941023949671 
-0.01600464879390176 
-0.02749078092143944 
-0.1323870875707977 
-0.1201198718847306 
-0.003151722127103022 
-0.05203370590529137 
0.6367402897649668 
-0.02148364024583749 
0.229034078870856 
-0.119375554666844 
0.1052878456839966 
-0.04870061334380183 
-0.1627305122545386 
-0.005134049094495087 
0.05994339043895452 
0 
-0.2387781691210192 
0.08431407087992367 
-7.998316282640193e-05 
-0.01017025033190871 
-0.08354981678983917 
0.01645228160013963 
0 
0 
0.4825802805770582 
0.2700886511236424 
0.7812975757881776 
-0.005036733492714152 
-0.06668888424746613 
0 
0.1459165894870989 
-0.009327110800118882 
-0.04968170981776484 
0.06790826714293212 
-0.07066523761105589 
-0.05514054580883132 
0.01384183969836151 
0 
-0.01818703310148488 
-0.0961420805781291 
-0.08785242150253279 
-0.003090772020231107 
0.006834452313984317 
-0.03669428390256026 
0.2524663104364992 
-0.02031698601808474 
0.1858726265017671 
-0.05956348325094717 
0.005400343760898073 
-0.2878104430791043 
-0.008474832610149049 
0.05161032097885292 
0.07654715877408179 
-0.01531393970263831 
0 
0.2640085577127379 
0 
-0.06134172402339901 
0.1145670545227654 
0.07311865652980333 
0.1659941463095465 
0.01856194199311614 
0.003775942994854822 
-0.004392689864859752 
-0.034424720593385 
-0.001046745929489838 
0.07677274397570925 
-0.2902064609770908 
0.004868469215579748 
0.3146260250382059 
-0.05928737780510297 
0.0101692008932823 
-0.01039896839637269 
0 
-0.1741411264822927 
-0.005337896111118246 
0.07078171893877017 
0 
0.05094044866340638 
-0.0009316366577149477 
0.1273285802737334 
0.09129680477456149 
-0.01250117857102608 
-0.02215557631913076 
0 
-0.0217231551066343 
0 
0 
0.506755309870351 
0.08039623886745663 
0 
0 
0 
-0.01162182938517401 
0.04999234498570643 
-0.0006015215318689318 
-0.09993369907070139 
-0.01660811512834633 
0.7301427256281513 
-0.1175621489483535 
0 
-0.08530512313552681 
-0.258056487548199 
0.01953640789065714 
-0.006073430140015689 
0.07381172743821844 
-0.0197083628686952 
0 
0.2753450832848564 
-0.1109417070752266 
0.09168777972355384 
-0.006008327957143747 
-0.004831714341498055 
0 
0 
-0.02849691277716193 
-0.1544295336729103 
-0.04362024458354728 
-0.006273253341331404 
-0.005345797425674821 
0.01549500072284056 
-0.007349662191668852 
-0.0101970203731646 
-0.003206452965259747 
0.116330304724434 
0.1034787782394981 
0.05578574390409318 
-0.1103216428552643 
0.01190713042142557 
-0.04343907635264786 
-0.003520851928792897 
0.02290837319527515 
-0.006506920876149653 
1.11406692196197 
0.3721850670199542 
0.1520069597425917 
0 
0 
-0.007250294172170839 
0 
-0.01252089556443597 
-0.02578086977545018 
-0.1257492583612037 
-0.003954113718543005 
-0.01459597973498221 
0 
-0.002241878322012245 
0.02900380790090248 
-0.0004035566391194875 
-0.06512377217108167 
-0.04261095579579226 
0 
0.1234349406677039 
-0.004253540198480161 
0 
-0.008137335816269292 
1.880702302564575 
0 
0.2565764756700291 
0 
0 
0 
-0.01731498871008687 
-0.196565573449031 
-0.09302075148111473 
-0.0005981128550449479 
0 
-0.002123676179125504 
0.05345616811517699 
-0.01822485174940488 
-0.01058788723225704 
-0.006733953708217197 
0.169358822094623 
0 
-0.04287571418294717 
0 
-0.04948874928733956 
0 
0.3815930056092212 
0 
-0.01698354521862474 
0 
-0.120794295286514 
0.1860782830246268 
-0.0006978306196598916 
-0.187648780506075 
-0.02612774597745963 
0.1826331467229547 
-0.003977651675308046 
0 
0 
-0.04255869402790938 
0.0032883317562679 
0 
-0.0002306451642269358 
-0.3449362761666839 
-0.022067610960034 
0 
0.1074955678723918 
0 
-0.0247819269530458 
-0.04709704618982949 
-6.993507318440907e-05 
0.02966786561083961 
0.1214884013412367 
0.04630879333959748 
0 
0 
0 
0.01373295120929505 
0 
-0.04934419148131582 
-0.01830298406062546 
-0.003227949109503551 
0.004172697761264588 
-0.000357496591014416 
-0.003239392850064336 
-0.06872571633644778 
0.2900688462540085 
-4.336808689942018e-19 
-7.231880000195303e-06 
-0.005692482806239849 
0.07144978700443662 
0 
0.001221067113647428 
0.1744772731398954 
0 
0.2331140683950902 
0 
-0.0791381813546429 
-0.02165859225811742 
-0.1702733813702276 
0.05179084068420726 
-0.09434393962787269 
0 
-0.02627893140454237 
-0.02627893140454237 
0.02351059601440036 
-0.03365853624907702 
0.05181016648151802 
0.1227684922793779 
-0.004693174637375991 
-0.03683955282227121 
-0.01588950906443411 
0 
-0.2540658621678239 
-0.2094081669032116 
-0.2547300714142688 
-0.1498962567860696 
0 
0 
0 
0.2219117118344204 
-0.02305773268123502 
0.03448513387696196 
0.04999742458803913 
-0.0317240762739389 
-0.009106811207532567 
-0.02292841523484107 
0.2987631666347431 
0.1038878643509019 
0 
0.1516425503638981 
0 
0.0230324361787077 
0.01611795445547216 
0 
0.1198616533073475 
0.02493775187459105 
0.1024235228236717 
0 
0 
-0.002374972572663824 
0.03907281578131429 
0 
-0.1864075832790385 
-0.04260291860979264 
0.04339891343943857 
0.01792383853268352 
-0.02102873909892771 
-0.006966970566482832 
0 
-0.002006575911361052 
0.02138462761089737 
0.003926348023619422 
0.004788307720070043 
0.05145208967470833 
-0.05563599052581181 
0.1750920452686525 
0.03258176859369472 
0 
0.1230394519597114 
0 
0 
0.1710098559207204 
-0.01194063369478924 
-0.05677872940647029 
0 
0 
-0.03747297399679921 
0 
0 
0 
-0.01903555632972445 
0.1486862227761261 
-0.03732566561944638 
-0.0006978306196598916 
-0.09763766727056326 
0 
-0.01534797771060452 
0.07211094395570357 
0 
0 
-0.09942886207121669 
0.01510152859404718 
0.1253143883833094 
0 
0 
0.143055977161402 
0 
-0.002058056554063583 
0 
0 
0 
0.1009311616710721 
-9.179986339767117e-05 
-0.01003372425429397 
0 
0.009526511268535339 
-0.03259560088208763 
0 
0.003499097645072653 
-0.004051248176845145 
0.03099657641941184 
-0.0998499449893724 
0 
0.0315899622994584 
0 
-0.01001739878465282 
0 
-0.03126278487860221 
0 
0.04721439233359434 
0 
-0.08150691301628772 
0 
0 
0 
-0.1062127472120369 
0 
0 
-0.002247862134718754 
0.02613509671760747 
-0.00305367870619642 
-0.00152683935309821 
0 
0.02025093098066753 
-0.005626319644168145 
-0.1548394709191474 
0 
0 
0.002724181209247742 
-0.03510478796388812 
-0.01861818483703792 
0 
0 
0.009749319792450941 
0 
-0.005700131160438575 
0 
0.09873339952544165 
0.02362323176290469 
0.03511257178596605 
0.09632533921337551 
0 
-0.01952243013088226 
0.02007323340296612 
-0.08375636524866707 
-0.3406416913470964 
0 
0.05434895247590512 
0.1242236761421571 
0.1852372921877826 
0.05157303488996706 
-0.002810558659724299 
0.1326753597311187 
-0.01972495712958076 
0 
0 
-0.3913250452559999 
0 
-0.024431109882615 
-0.002395405069301984 
0 
-0.05108272076938129 
-0.09273159751504867 
-0.0008590867698212137 
0.009384437512789952 
0.00790922600741983 
-0.005130526854376889 
0.03731220859644421 
0 
-0.7251856256847079 
0.02083644141385177 
0.08660280769262622 
0.1348883599376126 
0 
0 
-0.2198341857993263 
0.003853620473287487 
0.04067800985969988 
-0.03717797517480822 
0 
0.00856804651000226 
-0.01452346056131366 
-0.01485548437464974 
-0.1420380935365576 
0 
-0.0759285018359572 
-0.01615083882883134 
-0.009014681609737986 
0 
0 
-0.0003402343008669499 
0.06809361461369316 
-0.02879398935567686 
0 
0.05595099013412311 
0 
-3.388131789017201e-21 
0 
0.03967001904506445 
0.3912861874974331 
-0.0009991292552817841 
-0.02173780159441911 
0.01332236883156101 
-0.008085938715798551 
0.05744637866689724 
-0.0005385117131425351 
0 
0.02739424005840209 
0.02972195301176616 
-0.03813581867794905 
-7.231880000195303e-06 
0 
-0.008066673262288037 
-0.04117878980443965 
-0.07889039292074604 
0.4009572838207277 
0 
0.07928255698572344 
-0.01062638063575915 
0.1618250204274539 
0 
0 
0.02421679821009659 
0.02421679821009659 
0.02421679821009659 
0.02421679821009659 
0.02421679821009659 
-0.02166811274195024 
-0.02905312753206008 
0 
0.1720736337285115 
-0.01653805873519882 
-0.0637023065718532 
-0.00146843223911204 
0 
-0.004626161204368526 
0.07322253524508737 
0.02295684526410955 
0.05765824892326719 
0.005822793403315252 
-0.005198243644984776 
-0.1262533208731067 
-0.04291822492358783 
0 
-0.004851528177350301 
-0.005928454388293503 
0 
0.005002208522517741 
0.3323966382979437 
0.4516695248868902 
0.05538392785568716 
0.1778152587505619 
0.4461758390591186 
-0.005243674101673482 
0.0002225433997601351 
-0.01960218340134246 
-0.1951828541844132 
-0.1890392353742753 
-0.1173826521381918 
0 
-0.01804648084231436 
0 
0 
0.07743030950571837 
-0.01058562970768025 
0 
-0.001470872993437415 
-0.2067543533049455 
-0.4057314735070576 
-0.02602566253555446 
0.07482820300971113 
0 
0.03003700332487031 
0.001239208362120319 
0 
-0.1119113922301828 
0.01264297716908515 
-0.01876444063120496 
-0.009608460602819434 
0 
-0.03120689165467121 
-0.1905408868505391 
-0.06678818306901378 
0 
0 
0.4124048620472958 
0.07245085877959107 
0.3975445905331704 
0.2499290520860437 
0 
-0.1481824392577795 
-0.008470647914480683 
-0.2629659739685277 
-0.01349890287859747 
-0.04249276039396748 
0.04879930412696946 
-0.1726672329496229 
-0.07489973609088496 
0.008785860085094254 
-0.2448022628278673 
-0.0521960213122972 
0.0152581999959857 
0.04983314433432789 
0.008728137074802843 
0 
-0.04085961443852249 
0 
0.01590084031360594 
-0.52210970780925 
0.02931212183475671 
-0.002530486142140445 
-0.01822613854393073 
-0.05266630123704739 
-0.0007371294598848355 
-0.004354044490762737 
-0.0371115126114657 
0 
0 
0 
-0.02790936110925665 
0 
0.5197877763757686 
0.4214036822623833 
0 
-0.03171279704199575 
0.01755983518461353 
0.0008617397688084288 
0 
-0.08663563554823712 
-0.0115821560986602 
-0.001269810603340931 
0.144090811089695 
0.7658908656887899 
-0.08054407501763744 
0.3041408551644505 
-0.02833268223878765 
0 
-0.06058320186707356 
0 
0 
0 
-0.423129504763875 
0 
0.04365428197401033 
-0.0383840230038627 
0.1195286829920434 
0 
0 
0.1316612165053721 
0 
0 
-0.2279564438901279 
0 
0.2791537692257872 
-0.009429864330532878 
0.01451210279128656 
0.01332647907690507 
0.08715608197096722 
0 
0 
0 
-0.07815114893822156 
-0.01704539231227579 
2.105287245829544 
0 
0 
0.06920247338139481 
0 
0 
0 
0.04374233488811342 
0.124315083131498 
0.0445140631627915 
0 
0.000699462884791262 
-0.001534430812778695 
-0.0006911710623195845 
0.03131839025957227 
-0.06853974283155455 
0 
0 
-0.04721993269495874 
0.1310461973233182 
0.003691866463554277 
1.235786195951942 
0.1611036016393864 
0 
0 
0 
0 
-0.05689895206001921 
0.0003720945859047714 
-0.01372250924895014 
-0.1906675048713516 
-0.07754500437238161 
-0.0009841999300074468 
0 
-0.0003301500612367707 
-0.3124781670864793 
-0.02466163832484832 
-0.09287171594623528 
0 
-0.005152159834229804 
-0.1285938263548488 
-0.2097358890646694 
0 
0.4198463898262023 
-0.02357608791342477 
-0.02916492343111813 
-0.01527457985149787 
-0.05436392186589676 
-0.01230944868348903 
0.002666839033567923 
-0.001352367120271955 
0.4454744966399853 
0 
0 
0.210865362156451 
0.05586569724554194 
-0.004833581910756449 
0 
0.002932373664085562 
-0.03039770419265921 
-0.008216509412245256 
0.03266722607028948 
0.153676563540592 
-0.03173933933383948 
0 
0 
0 
-0.0006493642918329227 
-0.05030701317526655 
0.006100351325049067 
0 
0 
-0.02685211480207133 
-0.03222321574197066 
-0.0005656376546678448 
-0.03428678344349201 
0 
-0.003322430673083773 
0 
0.3898396858402542 
-0.006017544217026667 
0 
-0.0035017902578151 
-0.0483820820094067 
0.003814146823794451 
0 
0.05084572004967849 
-0.0139559453906147 
-0.1429815849914331 
-0.002467121356553339 
-0.02244570564443059 
0.05377570975690793 
0.2035672175417905 
-0.1619613555794468 
-0.009290799626630278 
-0.001657660601531104 
0.0109987380904336 
0.01866336857079948 
0 
0 
0 
0.003156364865852637 
0 
0.04084351080894196 
-0.01614444757204006 
-0.01028058296032479 
-0.003375132470538478 
-0.03109270869646555 
0.02615687817629161 
-0.03889489203406472 
0.07226078754855025 
0 
0 
-0.002870825793870184 
-0.00943182806600597 
0.07724358145239045 
0.08564272653721387 
-0.01065771794309745 
0.154597470819734 
0.3654109691054567 
-0.0003489153098299458 
0.002478931850661443 
-0.06170582668046146 
-0.004051248176845145 
-0.05395778165647773 
-3.615940000097652e-06 
0.06879749421306125 
-0.01467683694636515 
0.2933691443084435 
0 
0 
0.01699896297608531 
-0.00972422360356663 
0.02113172550046682 
0 
-0.1453622768277199 
0.03805129244009516 
0.03578072779601184 
-3.116446390358258e-05 
-0.01803614156918648 
0.001402773319466591 
0.04435252760309053 
-0.02597873696207606 
0.03000712802969973 
0 
0 
0.1948853919787275 
0 
-0.07336755177016338 
-0.01156279722977153 
0.07760408679756865 
1.355252715606881e-20 
0 
0.2012096388418814 
0.0315964125719422 
0.03218819245606139 
-0.05497962198228889 
0.003463050081990806 
-0.04984322207851722 
0.002508060646212601 
-0.2301243607697369 
-0.001816643214134342 
-0.2922314810751658 
-0.07744282601452797 
0 
0 
0 
-0.0001818981446882501 
0 
-0.0006978306196598916 
-0.0003701754079633489 
-0.02575247715622524 
0.1694295313706288 
-0.4888966076398287 
0.005735807231473763 
-0.1972794602921411 
-0.2571035268784955 
-0.1424042738530078 
-0.00702346635602937 
0 
0 
-0.0006978306196598916 
-0.04057680047872497 
0 
0 
-0.02551149438667956 
-1.084782000029295e-05 
-0.02043986444005882 
-0.0006911710623195845 
-0.05972576241005009 
0 
0 
-0.05570299728265499 
0 
0 
0 
-0.003171954288362403 
0.5343491135322501 
0 
0 
-0.09761139373498862 
0 
0 
-0.002894463452433174 
0.02881617969224457 
0.1091943581747755 
0 
0 
-0.00349961053369815 
0.09405120354761805 
-0.04506642769807336 
0.05387099958431897 
0.01154843061892409 
0.09145720802827603 
0 
-0.003085888423070698 
0 
0.01102165747324325 
0 
0 
-0.02991611466109188 
-0.0006978306196598916 
0.06761245757679274 
-0.02082660910311254 
-0.2039267416496497 
0.01343559324152404 
0 
-0.03033662073765397 
-4.756958594778199e-05 
-0.07424788107267422 
-0.001352367120271955 
0.009717993226337533 
0.008025300624308255 
0 
0.01605060124861651 
0.008025300624308255 
0.1748293451039916 
0.1294375861636581 
-0.0309177650694295 
0 
-0.03400884229353846 
-0.03400884229353846 
-0.07238956562191527 
-0.001994196422326653 
-0.006344688316971396 
-0.007834030723833662 
-0.01564005909978081 
-0.01111855080385979 
-0.02207594763612195 
-0.001046745929489838 
-0.008066673262288037 
0.06827480489010071 
-0.001986654798686783 
-0.0386781696437635 
-0.002444531050019466 
0 
0.04120546138152807 
0.2202522530810894 
0 
0 
-0.006834350376296832 
0.3435297905560193 
0 
0.2056015576529054 
0 
0 
0.06535573399460633 
-0.0001963391753096648 
0.007279605125241008 
-0.0181733729902969 
0 
0.005929132837220348 
-0.0003489153098299458 
0 
-0.01205715267734283 
0 
0.01510329058517096 
-0.03214472643949939 
0.03055172428989788 
-0.05944634524859239 
0.3259544449169073 
-0.005073830800152531 
0 
-0.001355776531702594 
0.1555438105007311 
0 
0.04136134047927535 
0 
0 
-0.00319435100660987 
-0.157430241585346 
0 
-0.0003489153098299458 
0 
0 
-0.01557897242180508 
0 
0 
-0.007156937866556886 
-0.01829802323026109 
-0.004833308158352017 
0 
0.01947352293744663 
-0.004403058307845088 
-0.0007688670169131908 
0.02753623572611106 
-0.001124655033070694 
-0.1601620874171951 
-0.01534373321525689 
0.1355033950552776 
0 
0 
0.0257385624283679 
0.0355691540430028 
0.005580211799500679 
0 
0.1340728721353774 
-0.001485526117870885 
-0.06260680659399874 
-0.02063264843636544 
0 
0 
0 
0 
0 
0 
0 
-0.03484000304337731 
0.2006058843604374 
-0.009326910712178881 
-0.01400254222777798 
-0.01259524945303394 
-0.003530419848803273 
-0.2711039864880939 
0.02390188360633205 
0.1257011535827106 
-0.005597534414334129 
0.05068204577013721 
-0.001744576549149729 
0 
0 
0.01392367122926705 
-0.036711023648545 
0 
0 
-0.008538739488906818 
0.01611101776724404 
-0.05761159100135459 
0.09757528022855508 
-0.04970449937527086 
0.03723048341622193 
0.04329899211872966 
0.1042365493117667 
0 
0.2902302792672297 
-0.01161374960745527 
-0.003621185221357836 
-0.001324164687562618 
-0.00155781603738505 
-0.0006978306196598916 
0 
0.1357212595813656 
0 
0.08840447491480513 
-0.07385692562351769 
0.3402750561903815 
0.008790649914567902 
-0.0001232706019574162 
-0.006074306367353657 
-0.0996714441723929 
-0.05024407379668544 
0 
0 
0 
0 
0 
-0.007670214654858364 
0 
0 
0.02263777836591964 
0 
0.05921873781956673 
-0.01730866181839267 
0 
-0.004943588961033996 
0 
0 
0 
-3.615940000097652e-06 
0 
-0.0127517002354838 
1.939435541457726 
0 
-0.01768576541310434 
0 
0 
0 
0.02541497423565461 
-0.01012797897934474 
-0.006004249197264501 
-0.01238508125515536 
0 
0 
0.003871208597494573 
-0.02841091983957916 
-0.002571598189751881 
-0.003707431589952718 
0 
-0.008615958097010452 
0 
0.7477092237633796 
0 
0.1499853270781032 
0.3205176074308637 
-0.04151713946531563 
0 
0.1110763499846352 
-0.054693596575201 
0.0222056937250064 
-0.01277701639336675 
-0.03336369082674041 
0 
0.006236486715239035 
0.07801879271396191 
0 
0 
0.02176540141408721 
0.02123590908614494 
-0.01787636045404884 
-0.001623871665015567 
0 
0.006104592358580007 
-0.01184121626014724 
0.003014803904591538 
0 
-0.002425061803385176 
-0.00181437725867515 
0 
0 
0.3163021181433232 
0 
0 
-0.0642077085108337 
0 
-0.01138515089036774 
-0.2997006883930092 
0.05086628807056159 
-0.0354033761860769 
-0.0003489153098299458 
0.06579323145356847 
0 
0.0641451663356036 
0.04625616744260186 
-0.03703963871274599 
-0.0004113855516535504 
0 
-0.2860335045725049 
0 
0.01537641678804401 
-0.08356160744556997 
-0.04942306872831295 
0 
0 
0.08784124991731103 
-0.02841777776032758 
0.003688533911369682 
-0.1457158172778076 
-0.05593528300761622 
0 
-0.005074566266850326 
-0.0059144802863188 
-0.01578628582175015 
0.4351275088008722 
-0.009982759835403816 
0 
-0.002750463155983285 
-0.005203047522362596 
-0.03108797813496548 
0 
0 
0 
-0.001049932470939981 
0 
0 
-0.0117116712606426 
0 
-0.01308767142115061 
0.4126862788286062 
0 
-0.07110394084949502 
0 
-0.09090063257442697 
0.1007848352523379 
-0.02334685762021569 
-0.1110347371628471 
0.09526771654006287 
0.01076390114262669 
0.03032318901707574 
-0.01646132463127228 
0 
0 
-0.003381233728289316 
-0.008044974921834125 
-0.002678298898883071 
0.08216543073398032 
-0.04239097872723949 
0.06868752003712701 
0 
0 
-0.004746646459223831 
0 
0 
-0.01342128145207039 
0 
0.09267695795738691 
0 
-0.04545534116884409 
0 
-0.02474520808146505 
0.03798932904324585 
0 
0.02071800582282393 
0.04658453021009753 
0 
-0.003621667962186118 
0 
0.08777185916535502 
-0.02998754442330508 
0.2302344458568485 
0.0001699686398624839 
0.2085688226978935 
0 
0.07508568833857339 
0.5549717994040118 
0 
-0.002295154727815271 
0.02236794335826753 
0 
-0.1187477124623159 
0 
0 
-0.002166574162191168 
-5.839370327470095e-05 
0.003233091351531587 
4.336808689942018e-19 
-0.001319290786420161 
-0.1013894804954205 
-0.001352367120271955 
0 
0.03127282943451042 
-0.006548652023825371 
-0.03243835917951603 
0 
-0.1261761425183456 
-3.142505116214485e-06 
0 
-0.0363582225749888 
-0.1553409977085723 
-0.0009783413051990546 
0 
-0.00192260937637393 
0 
0 
0 
-0.06892181923615344 
0.02426422809516659 
-0.03334367571018615 
0 
-0.006879752090297244 
-0.09370769478696234 
0.09819214033418024 
0.03005704010787536 
0.1242787241520609 
0.05118071837860148 
-0.1148694364573838 
-0.01024773007501658 
-0.109588550065741 
-0.09050960781652706 
-0.0008256504300422669 
-0.1028991330949178 
0.004886194591563241 
0.06731320336522864 
0 
0.0377170746660988 
0 
0.09056739630330489 
0.08224875538188879 
0.03804860050438094 
0.1146233619157864 
0.02249250545041061 
-0.03629634696168257 
-0.01743636967545677 
-0.197033983672231 
0.01371514699104038 
0.005906313369572555 
0 
-0.02283099575077842 
-0.06899148119881969 
0 
0 
0 
-0.01319390826429516 
-0.01274432394897702 
-0.01193906919458461 
0.1812571251016473 
0.09436983256024346 
-0.002860724133985281 
0 
-0.008070120151394243 
-0.327808905086538 
-0.01025965490300768 
0.003057210989916622 
0.1334284517563809 
-0.01735028118129299 
-0.1504458048513253 
-0.01667679601014599 
-0.009898535570669439 
-0.1937447986364422 
-0.01074350046320422 
0 
0 
0 
0 
0.0538803828348292 
0.1429018105523175 
0.1189343932294033 
-0.1539345904685442 
0 
0.0005231495489120827 
0 
0.03134639131663316 
0 
0.0002451726646354828 
0.01279003986026138 
-0.06173493542741901 
0 
0.2759904846745752 
0.07146968699937777 
-0.001395661239319783 
-0.002755771737376859 
-0.05915982374790478 
-0.004304041385758925 
0 
0 
-0.00362195527006742 
-0.01169743481789332 
-0.002695006575822719 
0 
-0.2091920830156485 
0.1148791697461717 
0.09321408494862277 
-0.01176339632257462 
-0.0001800215967560695 
-2.754852390348493e-05 
-0.001971445201816554 
0.04321804681178569 
0 
0.03036205341277487 
-0.1266915849527938 
0.01741595935565396 
-0.05458973006881816 
-0.114571171439064 
0.008108489560736233 
0 
0.05479922037657475 
-0.09581342915741477 
-0.01020105061415146 
0.03470372524665401 
-0.01028219395932309 
0.07976429017870126 
0 
-0.08436485446787126 
0.04778232041213585 
-0.06470496225344237 
-0.05338477574066152 
-0.04200531810112534 
0 
0 
-0.02865296089380347 
0.01896963110670955 
-0.004396802848544983 
-0.009218139263059724 
-0.000521709239561867 
0.1241135267833817 
-0.01244392964549641 
0.07385612084134976 
-0.004979503931028354 
0.008242393193485334 
-0.006198940746733337 
-0.001617902614652187 
-7.651653751590414e-05 
0.2194318350086726 
-0.001657660601531104 
-0.02082304398289024 
-0.06207422855639068 
-0.001563657682813356 
-0.05333646045423247 
0.005150607194945804 
0.0361243083747003 
-0.05854526209769379 
0.2327975158921079 
-0.04122855822446807 
-0.139899830114107 
-0.04429119052490497 
0.005622262646608298 
-0.03187576577502277 
0.3535129470675394 
-0.1562753407319913 
-0.1225428060351542 
0.002089491703466667 
-0.04523850014102757 
-0.6159296014378594 
-0.03261612358306792 
-0.009647825439812182 
-0.005597850963999934 
-0.02668067288775463 
-0.1254967592802386 
-0.01205931638915889 
-0.004237880188982694 
0 
-0.1010893228978328 
-0.08173724671418475 
-0.2756219939370751 
-0.1198627672316674 
0 
-0.03546771380386574 
-0.03546771380386574 
-0.01239645659438188 
0.06643412548490939 
0.008880543831680396 
-0.006324593827443391 
0 
-0.04423462017410065 
-0.08146085047155445 
0 
0.3320158272795848 
-0.001046745929489838 
0.03543993077923174 
-0.05337633258779981 
-0.06636428658468621 
-0.07440697020666062 
0.01590084031360594 
0 
0 
0.02971319374175123 
-0.02303973087075941 
0 
0 
0 
-0.0004372957888412973 
0 
-0.03763070454138424 
0 
-0.01167209209125263 
0.02750273534370262 
0.1165562349818247 
0.02609205767556638 
0.06462462420563087 
0.00361213538092463 
0.08410703941460321 
0 
-0.06813918067639739 
0 
0 
0 
0.01654628950924529 
0 
0 
0.2334170330182733 
-0.0006989532240865173 
0 
0 
0.01038945071164851 
-0.009133000499175856 
0.01663607509377659 
0 
-0.09374914376914345 
0.2241323430827024 
0.05698733198909088 
-0.04874433203704706 
0.04837344184875738 
0.2016133502911802 
0 
0 
-0.003658449455411199 
0 
0 
0 
0.09549456900108035 
-0.03749087379280121 
0.00117313788038667 
-0.03718249718196413 
0.1562509836046992 
0.09795562261277366 
-0.1086457085404586 
0 
0.1146273457326534 
-0.02991659711047987 
0.04334517724455629 
0.04269949081943975 
0 
0 
0 
-0.185202196313438 
-0.06577934988915426 
-0.0005626110959082681 
-0.02967299213505012 
-0.1161555048626892 
-0.009443211794368238 
0.2628643551864135 
-0.06486469403836075 
0.007908435713921273 
0.03230925477259548 
-0.0005270418445581775 
0.01054389630974066 
0.01299418878164995 
-0.05810749766595689 
-0.09415287220518287 
-0.3545411471841001 
-0.01892373493505657 
-0.01903880252888858 
-0.01151892687166153 
0 
0 
-0.01166847615125253 
0.1472679034603015 
0.01859494355314893 
-0.09179415985679842 
0 
0 
0 
0 
-0.05622156174005491 
0.3435051402814088 
-0.05101798702551141 
0 
-0.08298997039521806 
-0.09405664348769711 
-0.001483017823683798 
-3.615940000097652e-06 
0.02397219774408915 
0.01007774487898309 
0.2987752316860368 
-0.05515014897922851 
0 
0.05086596671755911 
-0.03598562730865102 
0 
0 
0.005383208191779017 
0 
0.06705512252860503 
-0.0007708907051859725 
0 
0 
-0.02425544150219765 
0 
0 
0 
0 
0 
0.1055273133998642 
0 
0 
0 
0.03887613662664346 
0 
0 
-0.002093491858979675 
0.03745667177870195 
-0.02818546940986168 
0.1906484266334308 
-0.0006978306196598916 
-0.0006978306196598916 
0 
0.007350123077641034 
0.05893520451782831 
0.09795234317954318 
-0.03318932456731617 
0 
-0.001744576549149729 
0.03350437517903067 
-0.001744576549149729 
-0.0006978306196598916 
-0.0006978306196598916 
-0.02032543432965776 
0.02746218569609314 
0 
-0.01178519445989062 
0 
-0.001046745929489838 
0.01968998993317841 
-0.001498275258393561 
0.0113599475572541 
0.01237837802411226 
-0.009070816547759236 
0 
0.00683627899531515 
-0.09524068054171067 
-0.0006978306196598916 
0 
0.01340926292899928 
-0.00425959149267317 
-0.007474396767547301 
-0.001904461337528288 
-0.01369624588384127 
0.0593871630766794 
0.09183471833412618 
-0.001395661239319783 
-0.001596309392475746 
-0.1268932401608667 
-0.0003489153098299458 
-0.218792984690823 
-0.1232833794772665 
-0.08775567970065419 
0.05420192883297881 
-0.0003489153098299458 
-0.001074294453393323 
-0.001744576549149729 
0.1317624591280635 
-0.0006978306196598916 
0.7309794669746524 
0.02521901503340434 
0.002891714701093417 
-0.06387754132614333 
0.2025216433757817 
-0.001046745929489838 
-0.06004074258513768 
-0.004841227673747164 
0.02012749009738928 
0 
-0.05786159484069171 
-0.0003489153098299458 
-0.001046745929489838 
-0.0003489153098299458 
-0.009462334501607819 
-0.1255900540594899 
-0.001046745929489838 
0.002302974940215134 
-0.001395661239319783 
-0.0003489153098299458 
0 
-0.001744576549149729 
-0.001046745929489838 
0 
-0.0009051867673231974 
-0.00972361178818909 
0 
-7.23188000019531e-06 
-0.0006978306196598916 
-0.001046745929489838 
-0.0003489153098299458 
-0.002826175418637404 
-0.2020100147463231 
-0.008298438561804901 
0 
0.02254472819626937 
0 
-0.001046745929489838 
-0.003636650247592169 
-0.001395661239319783 
-0.002153434820659179 
-0.001869517032796938 
0.2836561144664609 
-0.002500800872084322 
-0.003406170724885238 
-0.001080954138638084 
-0.0007190907177932947 
-0.05396081212729049 
-0.001744576549149729 
-0.05000703743777476 
-0.05227455797127076 
-0.001395661239319783 
0.01071021295309487 
0.00401753885084972 
-0.05339957157346534 
-0.001395661239319783 
-0.0006978306196598916 
-0.001046745929489838 
-0.001849745492136359 
-0.0003489153098299458 
0 
-0.0006978306196598916 
-0.008151705086307396 
-0.004370271082664622 
-0.009033612904462848 
0.008010149058167089 
-0.03051978851258634 
-0.0006978306196598916 
-0.002121941627880053 
0 
-0.0006978306196598916 
0 
-0.0006978306196598916 
0.06067978106697804 
-0.03968038484712881 
-0.001747763090599873 
-0.0003402343008669499 
-0.0003489153098299458 
-0.001395661239319783 
-0.0003489153098299458 
0 
0 
0 
-0.0006978306196598916 
0.01457972425150459 
-0.001395661239319783 
-0.00620338115591811 
0.04276927843070473 
-0.0006978306196598916 
0 
-0.001046745929489838 
-0.01770112664631707 
-0.002442407168809621 
0.0009164207498510848 
-0.002181203180013714 
-0.0003489153098299458 
-0.04142625186753311 
0.02188082375496244 
0.0401320317501381 
-0.0003964848957777279 
-0.009302195234665037 
-0.002916962986812687 
-0.04427641536966347 
0.002158909734223307 
0 
-0.01983548209336469 
0 
-0.007421790139883384 
0 
-0.004186983717959351 
0.008308113428628409 
0.2263661859147817 
-0.01006364305959763 
-0.001395661239319783 
-0.001744576549149729 
-0.01587837500268848 
0 
-0.0006978306196598916 
-0.0003489153098299458 
-0.001046745929489838 
-0.001659923811516118 
0 
-0.001395661239319783 
-0.00561115701290573 
-0.009204715650343595 
-0.03561347810605301 
-0.0006978306196598916 
0 
-0.001046745929489838 
-0.0006978306196598916 
-0.008295881458440837 
-0.004309029981348943 
-0.003177726038580291 
-0.04125179230120071 
0 
-0.002602142812049744 
-0.03073486363723931 
0.04558666593430422 
0 
-0.02442725432512523 
-0.03125561995214444 
0 
-0.00227336376996743 
-0.01244588281835167 
0 
-0.1226125426798385 
-0.009379172546576171 
0 
-0.005891161099144714 
0 
-0.00212104038288316 
0 
-0.04760955809220932 
-0.0006978306196598916 
0 
-0.0006978306196598916 
0 
0 
-0.0006978306196598916 
-0.002387210408391145 
-0.001395661239319783 
-0.001395661239319783 
-0.04114895958402562 
0.02200803039456182 
-0.09836272193470558 
0.3452943862685645 
-0.002093491858979675 
0.0027018521924819 
0.01521612688005461 
-0.00550549751520482 
-0.0001292553380696169 
-0.002093491858979675 
-0.007940223397827692 
0.005239515337244187 
0 
-0.0003489153098299458 
-0.002371014599365331 
0 
0 
0.01351344675743114 
0.04449367956609396 
-0.06160848251971421 
-0.001351411072591808 
0 
-0.003294671351940874 
-0.001744576549149729 
0 
-0.0006978306196598916 
0 
-0.0100751227911084 
-0.0924410498973539 
-0.02280877549527586 
-0.001744576549149729 
-0.007912701996773805 
-0.001046745929489838 
-0.001046745929489838 
-0.0003489153098299458 
0.09121255625866016 
0 
-0.02242770435484507 
0 
0 
-0.0003489153098299458 
0.4386549608187438 
-0.0003489153098299458 
-0.001046745929489838 
-0.02222862801735827 
0 
-0.003641869345784288 
-0.003435600875932625 
-0.01296004158045548 
0.1248543392318965 
-0.0107440722327962 
0 
0 
0 
0 
0 
0.01936004933933589 
-0.00459880486296861 
-0.001395661239319783 
0 
-0.02115183735881834 
-0.07763019599002784 
-0.0003489153098299458 
0.01698593685052668 
-0.01421907810794893 
-0.02620539001212377 
-0.001423209763223269 
-0.06952350414737354 
0.02960888663038617 
-0.001395661239319783 
-0.001046745929489838 
-0.0006978306196598916 
-0.04963248577773595 
0.006798706313433474 
-0.0006978306196598916 
0 
0 
0 
-0.0003489153098299458 
0 
-0.0009386274009884319 
-0.005807377110201506 
-0.0003489153098299458 
-0.001046745929489838 
0.008359064367997038 
-0.0003489153098299458 
-0.009130954084180871 
0.07329360297750158 
0 
0 
0 
-0.01694846432624241 
-0.004481549662390482 
0.004734762464995107 
-0.001046745929489838 
-0.0173299110874623 
-0.003140237788469513 
-0.1345463267894173 
0.008010149058167089 
-0.0006978306196598916 
-0.009257087736276941 
-0.009811249811437767 
0 
-0.0003489153098299458 
0.02258160830410065 
-0.001046745929489838 
-0.001398803744435996 
-0.001395661239319783 
-0.02870761884836314 
-0.001046745929489838 
0 
0 
0.08855714249892564 
-0.02662244992257844 
-0.01074714919579425 
-0.006181043794851339 
-0.0006978306196598916 
-0.001046745929489838 
-0.003838068408129404 
-0.01964115235426248 
0 
-0.04093670603618033 
-0.003922116380877544 
0.02587584018830993 
0.04994559203347401 
-0.001744576549149729 
-0.001416483293237726 
0 
-0.004711654492539704 
0 
-0.01204160384130674 
0 
-0.001046745929489838 
-0.0006978306196598916 
0.004660388217927532 
-0.0006978306196598916 
-0.004211519463157799 
-0.001582765030307732 
-0.001921242966674753 
-0.02461317490136624 
0 
-0.0006978306196598916 
-0.01232773846805959 
-0.01380767392065758 
0.05408194802448772 
0 
-0.01817012831842423 
0 
-0.03687785952002408 
-0.01051275289381974 
-0.0006978306196598916 
0 
-0.001395661239319783 
-0.0006978306196598916 
0.07192143080930022 
0 
0 
0.03393131364858445 
-0.015213415255021 
-0.0003489153098299458 
0.06131478734657293 
-0.0003489153098299458 
-0.001046745929489838 
-0.001395661239319784 
0.01524891089499537 
-0.01624702457022767 
-0.001744576549149729 
-0.006094979737845633 
-0.01794063832422153 
0 
0.005526429120820544 
-0.001046745929489838 
-0.09736394017924299 
0 
-0.001969276315053207 
0 
-0.01121512192713415 
0 
-0.0003489153098299458 
0 
0 
-0.01069494565901019 
-0.001603017386983088 
-0.0006978306196598916 
0 
0 
0.05178412027077078 
0 
0 
0 
0 
-0.0006978306196598916 
-0.0006978306196598916 
-0.003764397048238339 
-0.003407519569991577 
-0.03240458348351907 
-0.007090914130641071 
-0.003198383476658393 
-0.0003489153098299458 
-0.0006978306196598916 
-0.0003489153098299458 
-0.03200222770617846 
-0.009264567463989177 
0 
0 
-0.1173617951823255 
-0.02283960991582747 
-0.02510065706588807 
0 
0 
-0.001395661239319783 
-0.1082655013281738 
-0.003659715636366467 
-0.001046745929489838 
0 
0 
-0.0003489153098299458 
0.1273667778630727 
-0.09491119123450004 
-0.05788235486104488 
0 
-0.0266786746652122 
-0.002555388676858842 
-0.01044162351613958 
0 
-0.02105739074528965 
-0.001395661239319783 
-0.00170774991851931 
-0.001744576549149729 
-0.01113015330371414 
-0.001046745929489838 
0 
0.06068968329180253 
-0.002093491858979675 
0 
0 
-0.06603747972107918 
-0.0521878874222964 
-0.001046745929489838 
0 
-0.0003489153098299458 
-0.002881018593293902 
0 
-0.0119498686917349 
-0.01362279616707059 
-0.0100462416131363 
-0.01335209386080593 
-0.001046745929489838 
0 
0 
0.02580547829634123 
-0.01398204458551101 
-0.0006978306196598916 
-0.01416401587490008 
0 
0 
0 
-0.00639197383187843 
-0.0006978306196598916 
-0.01343726508062652 
0 
0 
-0.0103732572994077 
0.1192081197421666 
-0.001395661239319783 
0.02720113953566101 
-0.005000973861843219 
0 
0.06763228422480251 
-0.03862292928516394 
-0.001395661239319783 
0 
-0.01597003998904981 
0 
0.05199957332347238 
0 
-0.0006978306196598916 
-0.0003953010676533803 
-0.01182397032482371 
-0.01488060861032417 
-0.0003489153098299458 
-0.001046745929489838 
-0.002222682879921936 
-0.002600643270087598 
-0.1182631594140831 
-0.03309186038782767 
-0.007902850252105489 
-0.0003489153098299458 
0 
0.02855023559566353 
-0.2092714134689288 
0 
0 
-0.001046745929489838 
0 
-0.009670477419795803 
-0.01479652148467512 
-0.001778779517613007 
0 
-0.01138191002726918 
-0.04176840744543886 
-0.001772125073053214 
0 
0.0142876297935785 
0.01762017259797323 
0 
0 
0.01172281981336438 
0 
0.003349320753940987 
-0.005602559789402278 
-0.007337514187615886 
-0.0003489153098299458 
-0.001395661239319783 
0 
-0.0003489153098299458 
-0.0003489153098299458 
0.004152027979469621 
-0.004373973287408996 
-0.0382860140790636 
-0.002401827877259095 
0 
0 
0 
-0.001046745929489838 
-0.06332408282265151 
-0.001226767526245907 
-0.0006978306196598916 
-0.0006978306196598916 
0 
-0.002834545186976333 
0.04844610301874492 
-0.003923677359261479 
0 
-0.004866307361936075 
0 
0.09508279837705147 
0 
-0.01112027721438463 
-0.001046745929489838 
-0.0003489153098299458 
0.1357212595813656 
-0.0003489153098299458 
-0.0001674143535017863 
-0.001458131481143388 
0.02685428821097007 
0 
0 
-0.0003489153098299458 
-0.01042244659472474 
-0.0006978306196598916 
0 
0 
0 
0 
-0.02702385034353279 
0 
0 
0 
0 
0 
0 
-0.01592463061355802 
-0.001046745929489838 
0.1529529917537888 
0 
-0.005405845604668062 
-0.002196626335590538 
-0.07360915342118174 
-0.01172969490661476 
-0.002093491858979675 
-0.03940517644270582 
-0.003576864419333498 
-0.002923127684225455 
-0.0003489153098299458 
-0.0003489153098299458 
0 
-0.0002972174469626719 
0 
-0.0703282180139639 
-0.09307833702334901 
-0.0001124227819571233 
0 
-0.0003489153098299458 
0 
0 
-0.006121926807418341 
0 
0 
0 
-0.001046745929489838 
0 
0.005851867252537907 
0.1779628739478323 
-0.003635561083314267 
-0.006619579487073959 
-0.01254477483645474 
0.0007367014228113239 
-0.002093491858979675 
0 
0 
0 
0 
-0.09470152889361938 
-0.004979069234067384 
0 
0.005696999431285737 
-0.002457959183354284 
0 
-0.00183314389551772 
-0.0006978306196598916 
-0.03672486496205061 
-0.002864683724929788 
-0.001395661239319783 
-0.04130975300156423 
-0.0003489153098299458 
0.3276967349181149 
0 
-0.004999399806588261 
-0.0038088893585278 
0 
0 
0 
-0.0176894798955851 
-0.0003489153098299458 
0 
0.1016125381931073 
-0.03420453163547997 
0 
0 
0 
-0.008645418942221135 
-0.0006978306196598916 
-0.005323093308357048 
0 
0 
-0.02026228722775238 
0 
-0.00801588834269619 
-0.003140237788469513 
0 
-0.00369441403256218 
-0.001028266074326124 
0 
-0.0008797287643481415 
0 
0 
0 
0 
0 
-0.0003489153098299458 
0 
0 
-0.001046745929489838 
-0.0003489153098299458 
-1.524659305057741e-19 
-0.002478784270642559 
0 
0.3705867672475834 
0 
0 
0 
0 
-0.008549494014113522 
0 
0 
0 
-0.008263665592580859 
0 
0 
-0.0101211396047393 
-0.03620454147768925 
0 
-0.003194388141566301 
0.06545410831773273 
-0.07834718050145156 
-0.01712358956126435 
0.09100319824898249 
0 
-0.01200103121341558 
0 
-0.001686661499614485 
0 
-0.001744576549149729 
0 
0 
0 
-0.02237761933975979 
0 
0 
0 
-0.002009048555073507 
0 
0.1369292071315789 
0 
0 
-0.02402313312249404 
0 
0 
0 
0 
-0.1016729513194325 
0 
0 
0.04929577803252082 
0 
0 
0 
0.1417276441295551 
-0.1108869290008548 
-0.01447590441164703 
0 
0 
-0.0003489153098299458 
0 
0 
0 
0 
-0.08745083515391787 
-0.0003764638337334307 
0 
0.07256785514050816 
-0.008483186608850954 
0 
-0.0003489153098299458 
0 
0 
-0.001455719099170176 
-0.001395661239319783 
0 
0 
0 
-0.01359416527620145 
0 
-0.01922010314716405 
0 
0 
-0.001395661239319783 
-0.0003489153098299458 
0 
0 
0 
0 
0 
0 
-0.0003489153098299458 
0 
0 
0 
0 
-0.007876089679160059 
0.1582612236941006 
-0.009057137938345812 
0 
-0.01532820249317656 
0 
-0.006973170571239618 
0 
-0.0004743199195744608 
0 
-0.0003489153098299458 
-0.02990774943714494 
0 
0 
-0.02737901993442134 
-0.001656294039885672 
-0.01823353025991543 
0 
0 
0 
0 
0 
0 
0 
0 
0 
-0.1123317981388746 
-0.0003489153098299458 
0.03944076241547111 
0 
0 
-0.0006978306196598916 
0 
-0.001046745929489838 
0 
-0.0003489153098299458 
0 
0 
0.3184716550842806 
-0.008690852667765966 
0 
0 
-0.009932416483478153 
0 
0 
0 
0 
0.007664478622898927 
-0.0006978306196598916 
0 
-0.009494696389857246 
0 
0 
0 
0.004493474935611159 
-0.003928999973198071 
0 
0 
0 
0 
0 
0 
0.06937145023247027 
-0.004267355661681679 
0 
0 
0.1291479178222174 
-0.0003489153098299458 
-0.05363797998381745 
0 
0 
-0.002109043873524339 
0 
-0.1277381081103671 
0 
0 
0 
-0.0003489153098299458 
0 
-0.01792279772230441 
0 
0 
-0.001832287870183769 
-0.0004133166244629671 
-0.04235709451349054 
0 
0.04843359642019319 
-0.00561476508496609 
-0.001260751333238129 
0 
0 
0 
-0.09337188432981672 
0 
0 
-0.01369122464968397 
0 
0 
0.000780800033722402 
0 
0.05036899159774383 
0 
0 
0 
0 
0 
0 
0.2821955266347643 
0 
0 
0 
0 
-0.001952753975652145 
0 
0 
0 
0 
0 
0.0179590090053693 
0 
0 
0 
-0.001046745929489838 
0 
0 
-3.615940000097652e-06 
0 
0 
-0.006893793238247233 
0 
0 
-0.0003489153098299458 
0 
0 
-0.004362739182709759 
0.0813601236446507 
0 
0 
-0.0003489153098299458 
0 
0 
0 
0 
0 
-0.007028564311350162 
-0.003752422734586035 
-0.00235397379069283 
0 
0 
0 
0 
0 
0 
0 
0 
0 
0 
0 
0 
0 
-0.0003489153098299458 
0 
0 
0 
-0.004363978134960345 
0 
0 
0 
0 
0 
0 
0.03429081435204477 
0 
0.01237837802411226 
0 
-0.0003489153098299458 
0 
0 
0 
-0.004013823872879813 
0 
0 
-0.0003489153098299458 
-0.0003489153098299458 
0 
0 
0.1536475789103136 
0 
-0.0003489153098299458 
0 
0 
0 
0 
0 
0 
0 
0 
0 
-0.004881665030074036 
0 
0 
0 
-0.0509679844155746 
0 
0 
0 
0.02156137292637976 
0 
0 
0 
-0.02882788514590785 
0 
0 
0 
0 
0 
-0.0006989532240865173 
0 
0 
0 
0 
0 
0.005220322263690164 
0 
-0.0003489153098299458 
-0.004527984535476546 
-0.06256476959858363 
-0.006979277226166299 
-0.000944334852679721 
0 
0 
0 
0 
0 
-0.06762990165390112 
0 
0 
0 
0 
-0.09904523206226157 
0 
0 
-0.0003489153098299458 
0 
0 
-0.01504336301674659 
0 
-0.0002144868043563883 
0 
-0.0003489153098299458 
0 
-0.01015915132127856 
-0.0009686504742146203 
0 
-0.009819460687814372 
0 
0 
-0.0003489153098299458 
0 
0 
0 
-0.009451229542493346 
-0.05873745066333155 
-0.0003489153098299458 
-0.1162095465167768 
0 
0 
-0.0003489153098299458 
0 
0 
-0.008151585413748597 
0 
0 
0 
0 
-0.00705692090620287 
0 
0 
0 
0 
0 
0 
0 
0 
-0.0003489153098299458 
0 
0 
-0.001832287870183769 
0 
-0.001423209763223269 
0 
0 
0 
0 
-0.004051248176845145 
-0.03684260140603675 
0 
0 
-0.0006978306196598916 
-0.003159850555996142 
-0.0003489153098299458 
0.0178254798037953 
0 
0 
0 
0 
0 
0 
0 
0.1656013399273984 
0 
0 
0 
0 
-0.003007989634076082 
0 
0 
-0.004229885160861775 
0 
0 
0 
0 
-0.00101378409914423 
0 
0.03498053283630306 
-0.0003489153098299458 
0 
0 
0 
-0.0003489153098299458 
0 
0 
0 
0 
0 
0 
-0.0003489153098299458 
0 
0 
0 
0 
0 
0 
0 
0 
0 
0 
0 
0 
0 
0 
0 
0 
0 
0 
0 
-0.0003489153098299458 
0 
0 
0 
0 
0 
0 
0 
0 
0 
0 
-0.0311148628472564 
-0.008809197704349563 
0 
0 
0 
0 
-0.1053405479284755 
0 
0 
0 
-0.0004037097124320087 
0 
0 
0 
0 
0 
0 
0 
0 
0 
0 
-0.0003489153098299458 
-0.0003489153098299458 
-0.0003489153098299458 
0 
0 
0 
-0.0003489153098299458 
0 
0 
0 
0 
0 
0 
0 
0 
0 
0 
0 
0 
-0.009274924452401157 
0 
0 
-0.01310960892736067 
0 
-0.0003489153098299458 
-0.0003489153098299458 
0 
0 
0 
0 
-0.02186086383506644 
-0.002610183142739536 
0 
0 
0 
0 
0 
-0.01369236254969227 
-0.02628523191494613 
0 
0 
0 
-0.0006978306196598916 
0 
0 
0 
0 
0.03030094123050497 
0 
0 
0 
0 
0 
0 
0 
0 
-0.0003489153098299458 
0 
0 
-0.0003489153098299458 
-0.002315179202563085 
-0.006186270065393336 
-0.0003489153098299458 
0 
-0.0003489153098299458 
-0.08188127288332765 
0 
0 
0 
0 
0 
0 
0 
-0.001152692712624153 
0 
0 
0.01741595935565396 
0 
-0.04730435827300433 
0 
-0.003269499972400977 
0 
0 
0 
0 
0 
0 
-0.0381351637070334 
0 
0 
0 
-0.004405192695844046 
-0.03507038675697087 
-0.01503092269852561 
0 
-0.0003489153098299458 
-0.0003489153098299458 
0 
0 
0 
-0.004083299627101741 
-0.008581399563104495 
0 
0 
0 
0 
0.01101543805034879 
-0.002484999818036187 
0 
0 
0 
-0.06756406842282627 
0 
-0.02263638061118359 
0 
-0.0003489153098299458 
-0.004919476962611522 
0 
0.000780800033722402 
0 
0 
0 
-0.1473001145646672 
-0.0001072532009096749 
0 
0 
-0.01969621967835229 
-0.008373113381299846 
0 
0 
0 
0 
0 
0 
0 
-0.01139322674528556 
-0.0006978306196598916 
0 
0 
0 
0 
0 
0 
0 
-0.0003489153098299458 
0 
-0.00639197383187843 
0 
0 
0 
0 
0 
0 
-0.02026228722775238 
0 
0 
0 
0 
0 
0 
0 
-0.0003489153098299458 
-0.009824902615692443 
0 
-0.1440613451698957 
-0.02414465596486482 
-0.0003489153098299458 
0 
0 
0 
0 
0 
-0.00286642180016536 
-0.06190339269697251 
0 
0 
0 
0 
-0.002583682165227142 
0 
0 
0 
-0.003626007901965224 
0 
0 
0 
0 
0 
0 
0 
0 
0 
0 
0 
0 
0 
0 
0 
0 
0 
0 
0 
0 
0 
0 
0 
0 
0 
0 
0 
0 
0 
-0.0001494196001554421 
0 
-0.0003489153098299458 
0 
0 
0 
-0.02435515457089424 
-0.0003489153098299458 
0 
0 
0 
0 
0 
-0.005112796689143385 
-0.05436284371550894 
-0.001152692712624153 
0 
0 
0.07388431091006498 
0 
0 
0 
-0.0003489153098299458 
-0.0003489153098299458 
0 
0 
0 
0 
-0.007007102944919957 
0 
0 
0 
0 
0 
-0.01607465986301286 
0 
0 
0 
0 
-0.002996574605778759 
0 
0 
0.06583623686357819 
0 
0 
0 
0 
0 
0 
-0.00149317239843054 
0 
0 
0 
0 
0 
0 
0 
0 
-0.007607628253686217 
-0.006617835147541347 
0 
0.02469553079176279 
0 
0 
-0.0003489153098299458 
0 
0 
0 
0 
-0.008736122958947257 
-0.008514811456004428 
0 
0 
0 
0 
0 
0 
0 
0 
0 
-0.0003489153098299458 
0 
-0.0006404176141668749 
0 
-0.001919117577615361 
0 
0 
0 
-0.005446896528271493 
0 
0 
-0.0003489153098299458 
0 
0.0867229467349252 
0.4469459693210717 
0 
0 
0 
-0.001864216455167729 
0 
0 
0 
0 
0 
0 
0 
0.002554854457942705 
0 
0 
0 
0 
0 
-0.0006978306196598916 
0 
0 
0 
-0.0003489153098299458 
0 
-0.004944021772119084 
-0.003200116414655221 
0 
0 
-0.003051400672503009 
0 
-0.0003489153098299458 
0 
0 
-0.0008180011884454502 
0.02043807100336663 
0 
0 
0 
0 
0 
0 
0 
0 
0 
0 
0 
0 
-0.01305104288191635 
0 
0 
0.03944535681926723 
0 
0 
-0.0003489153098299458 
0 
0 
0 
0 
0 
0 
0 
-0.004772674216336589 
0 
0 
0 
0 
0 
0 
0 
0.09995827149227746 
0 
-0.0003489153098299458 
0 
0.06938173105523121 
0 
0 
-0.008721507713134399 
0 
0 
-0.004751408905000384 
0 
0 
0 
0 
-0.0003489153098299458 
-0.004399773228933113 
0 
0 
0 
0 
-0.0003489153098299458 
0 
0 
0 
0 
-0.002069813259839366 
0 
-0.02341011794009499 
0 
0 
0 
0 
0.04312225898598252 
0 
-0.003760920966055089 
0 
-0.0003489153098299458 
0 
-0.0003489153098299458 
0 
0 
0 
0 
0 
0.009841498809374166 
0 
0 
0 
0 
0 
0 
0 
-0.09931453401686212 
0 
0 
0 
0 
0 
0 
0 
0 
0 
0 
0.02101642413153352 
0 
0.03570997948563626 
0 
-0.0003489153098299458 
0 
0 
0 
0 
-0.007711492626998011 
-0.0004822366619833153 
0 
0 
0 
0 
0 
0 
-0.009086626361015112 
0 
-0.003254843642159542 
0 
0 
0 
0 
0 
0 
0 
0 
0 
0 
-0.0003489153098299458 
-0.008151585413748597 
0 
0 
0 
0 
0 
0 
0.01130209935638692 
0 
-0.1010231005623288 
0 
-0.0003489153098299458 
-0.0009470363834945273 
0 
-0.01064417922168946 
0 
0 
-0.0003489153098299458 
0 
-4.756958594778199e-05 
0 
0 
0.02202003334452175 
0 
-0.02512177097806244 
-0.0003489153098299458 
-0.005193727112254925 
0 
0 
0 
0 
0 
-0.0003489153098299458 
0 
0 
-0.03837843420602588 
0 
0 
-0.004051248176845145 
0.2972973747229184 
-0.03055241000855153 
0 
0 
0 
0 
0 
0 
0 
0 
0 
-0.02604507927970697 
0.3424507759896958 
0 
0.04754139918852573 
0 
-0.0003489153098299458 
0 
0 
-0.02381704203510844 
0 
0 
0 
0 
0 
0 
0 
0.01880330136223918 
0 
0 
0 
0 
0 
0 
0 
0 
0 
0 
0 
0.2320296084246189 
0 
0 
-0.03332239707626371 
-1.084202172485504e-19 
0 
0 
0 
-0.0003489153098299458 
-0.001087305039272961 
0 
0 
0 
0 
0 
0 
-0.0009686504742146203 
0 
0 
0 
-0.0003489153098299458 
0 
-0.0003489153098299458 
-0.0003489153098299458 
0.08591602597990942 
0 
0 
0 
0 
0 
-0.009010375514414391 
0 
0 
0 
0 
-0.02612866040691308 
0 
0 
0 
0 
0 
0 
0 
-0.02304491917054004 
0 
0 
-0.1653643122225036 
0 
0 
-0.0376771661026871 
0 
0 
0 
0 
-0.0003489153098299458 
0 
0 
-0.01483206531635725 
-0.0003489153098299458 
0 
0 
0 
0 
-0.003002362020190439 
0 
0 
0 
0 
0 
-0.001396582969956394 
-0.0006989532240865173 
0 
0 
0 
0.004088043034617963 
0 
-0.0003489153098299458 
0.02043807100336663 
-0.0003489153098299458 
-0.002219132367152795 
0 
0 
0.05135412198012749 
0 
0 
0 
0 
0 
0 
-0.03838805050070042 
-0.0002066583122314833 
0 
0 
-0.0004211510832458487 
0 
0 
-0.0003489153098299458 
0 
0 
-0.01302787645892846 
0 
0 
0 
0 
0 
0 
0 
0 
0 
-0.001028319463932023 
0 
0 
0 
0 
-0.006073946562925201 
-0.0003489153098299458 
0 
0 
0 
0 
0 
0 
0 
0 
0 
0 
0 
-0.01437924107510282 
-0.0003489153098299458 
0 
-0.005917235165268275 
-0.02891715026736914 
0.01072391790649674 
0 
0 
0 
0.01948105114881903 
0 
0 
-0.0003489153098299458 
0.03283460093618712 
0 
0 
0 
0 
0 
0 
0 
0 
0 
-0.002369482564154182 
0 
0 
0 
0 
0 
0 
0 
-0.08957885262135637 
0 
0 
0 
0 
0 
0 
-0.0003489153098299458 
-0.009072560936516833 
0 
-0.01606237498500243 
0 
0.07552435450031697 
0 
0 
0 
0 
0 
-0.0003489153098299458 
0 
0 
0 
0 
0.02811226128082662 
0 
0 
0 
0.03678848008602958 
-0.04644084787406054 
0 
-0.0003489153098299458 
-0.0003489153098299458 
0 
0 
0 
0 
-0.002518727357672977 
0 
-0.01306845254610251 
0 
-0.00305718800482143 
-0.0003489153098299458 
0 
0 
-0.02067426181434121 
0 
0 
0 
0 
0 
-0.0003489153098299458 
-0.0003489153098299458 
0 
0 
0 
0 
0 
-0.0004175814331450529 
0 
0 
0 
0 
0 
0 
0 
0 
0 
0 
0 
0 
-0.002353513129785523 
0 
-0.0003489153098299458 
0 
-0.006123492709720396 
-0.0003489153098299458 
0 
-0.007328192535996245 
0 
0 
0 
0 
0 
0 
0.01694331615710308 
0 
0 
0 
0 
0 
-0.0003489153098299458 
0 
0 
0.0005997719894119761 
0 
-0.0003489153098299458 
0 
0 
0 
0 
0 
-0.007518251047889795 
-0.1472644363513735 
-0.0003804654354096108 
0 
0 
-0.005312354453916398 
0.02658218974176063 
0 
-0.1598049735440344 
0.0007828907975755572 
0.1688930501168816 
-0.005199865875232542 
-0.04403234597975353 
0 
0.01581292828174431 
0.01990599301282527 
-0.1720257618708992 
0.001889141002828056 
0 
0 
0.159749395037723 
0.009717549116956348 
-0.03924031928660075 
-0.1130683603092766 
-0.000521690293122984 
0.2407148661724917 
0.01060116117517193 
-0.003291605011624945 
0 
0 
0.01074081951072024 
-0.02026228722775238 
0 
-0.08240073530572045 
0.005405852902593236 
-0.02642176989627672 
-3.388131789017201e-21 
0.04667168489712718 
0 
0 
-0.0003489153098299458 
-0.005639169632345444 
0.2595212218936166 
-0.1379546236331605 
0.2192323557036676 
-0.01071499336532257 
0 
0.07864615308870648 
0 
0.0828097990402568 
0.2499049083204214 
3.388131789017201e-21 
-0.01416332958441736 
0 
0 
0.02486970997561074 
-0.03383116641515702 
0 
0.01134653691786386 
-0.01115894233338103 
-0.04045291449030649 
-0.01410979674101096 
1.044413479081162 
0 
-0.0001167874065494019 
0 
0 
-0.01727449150287089 
0 
0.404416821346355 
-0.02959490259023935 
0.02785041118815925 
-0.1323808135784198 
0.008266562474457428 
0.03871867291214256 
-0.01908984229052058 
0 
-0.02272615398322238 
0.02355005756237687 
-0.03150503110384478 
0 
-0.01938819943263361 
-0.001794257592006382 
-0.001430699457247345 
0.01802192234534619 
0.01021659054911152 
-0.07650775493872485 
-0.01526513759788222 
0.08571412563163644 
-0.02479832880520191 
0 
-0.00484950074698551 
0 
0.07204088871642886 
0 
0 
-0.02303799821823149 
0 
0 
0 
-0.234137797963454 
0 
-0.02006530613395045 
-0.01867183141963487 
0 
-0.02510539213446605 
0 
0 
-0.01979831063894682 
-0.007281087634379511 
-0.001727810814144755 
-0.004576246603943126 
-0.04623043406399412 
0 
0 
-0.0003468181471013445 
0 
0.09753643052973264 
-0.0002207112156006998 
0 
0.0775821134990838 
-0.005732510368371623 
-0.008907519140409329 
0 
0 
0 
0 
0 
0 
-0.1339219689158144 
0 
-0.01529067172138497 
-0.1541762369014922 
-0.03535764810917103 
-0.007496003417197065 
-0.006986108673874558 
-0.1320153216994925 
0.03421943902801 
0.09977419204928978 
0 
0.01492739594260998 
-0.003493054336937279 
-0.01680385891516919 
0 
0 
-0.3395388635686543 
0 
-0.04667276894219097 
0.01987222112992058 
0.08887113074208539 
-0.3147617069847328 
0 
1.355252715606881e-20 
-0.002652949511256169 
-0.0003981866369138228 
-0.01666502512420558 
-0.06295345858997455 
-3.615940000097652e-06 
-0.0727078400367368 
-0.03006635550470917 
-0.06232119728533667 
-0.0006793507644961784 
-0.04190113233689211 
-0.002882262666232589 
0 
0.01005210557308643 
0 
-0.01833997541128259 
0 
-0.009917064872770082 
-0.02309410565289515 
0.00976418837877201 
-0.1001572796585085 
-0.01661101048809395 
0 
-0.01351431585057859 
-0.007048484999894841 
-0.0007854835992785688 
0 
0.07426256815949145 
0 
0.04246830407180266 
-0.05484369626273403 
0 
0.1142629398680383 
0 
0 
0.1017758885141199 
-0.06591991117115421 
0 
-0.003021443072769951 
0 
-0.03769413709187368 
0.04795711566736284 
-0.005680381876291429 
0 
0.05498216581319335 
0.03124835371199588 
-0.02889430421399314 
-0.001357593633036386 
0 
-0.02858748845384936 
-0.01495272139923651 
-0.001256239448201152 
0 
-0.1384877501597037 
-0.2014589767236163 
-0.06967984595509245 
0.004133582549552182 
0 
0 
0 
0 
0 
0 
0 
-0.01039952085309348 
0 
0.002178321347877545 
-0.07508595475595257 
0.2386542090263575 
0 
0.00196465933073168 
0 
-3.375162125359336e-05 
-0.006818325073208368 
0 
-0.0385388483320967 
-0.09722408024519327 
0 
-0.0004160276545130506 
-0.003438320939551822 
-0.004013823872879813 
0 
0 
0 
0 
0 
0 
0 
0 
0 
-0.02862826139030881 
0.1590351760287119 
0.05547565536134299 
0 
0.005157801273751797 
0 
0.1660151981392601 
0.09254727904635428 
-0.2413790916165136 
-0.1270442323852461 
-0.0008443677881112627 
-0.004856289190813069 
-0.004739282359699049 
0.04028897170622242 
0.01021454140382733 
-0.1090119046439768 
0 
0.02505407489732323 
0 
0.1549033513551833 
0.04100163160333439 
-0.01609928262134076 
0 
-0.03989408370619534 
0.01708632525394932 
0.1574576151391859 
-0.03854211331729814 
0.08277575077198444 
0 
-0.05910316537545771 
-0.0003593304665882257 
-0.09544933017869367 
0 
0 
-0.01125413635910566 
-0.01125413635910566 
0 
-0.00819666713444564 
0 
-0.01331791028686756 
-0.07839153744603226 
-0.007576706096630771 
-0.009824902615692443 
1.115482503917421 
0 
0 
0 
0 
0 
-0.001262468141750925 
0 
-3.726944967918921e-20 
0 
-0.0008122738073197884 
0.291021157407156 
-0.049403245745432 
-0.0002792983062466753 
-0.0003489153098299458 
-0.009411460933411733 
1.095259242117166 
-0.008172619323546029 
0.001094369570698585 
-0.004872892543236239 
0 
0.1877594691720817 
0 
0.007600839712840083 
0 
0.1340408168886149 
0.007850786755953956 
0 
-0.006548652023825371 
-0.113769847020338 
-0.0011894974938096 
0 
-0.01150328745006919 
0.06547389552190487 
-0.0591333985703901 
-0.02155966610985727 
-0.02097171167517396 
-0.1105023950796711 
-0.005210764234962986 
-0.0008826277466587768 
0 
0.02850893162558298 
0.009810203880957319 
0.08984736938709735 
-0.0220807790243163 
-0.02592665830770763 
-0.02680372250435193 
0.02843770287573324 
-0.02589358452172876 
0 
0.08185462744939814 
0.02663045978911085 
-0.01754464963127501 
-0.06362470268200976 
0 
-0.06582014545707111 
0.2345711316242169 
0.117752233003701 
0 
0 
0 
0 
-0.002742019471556159 
0.01832175594007878 
-0.03008764712298002 
0.005639089541027962 
-0.001815280762106327 
-0.08784572452694872 
0 
0 
0.0006249946433562719 
-0.00412825214545834 
-0.1570813870755796 
-0.01030427663178941 
0.2365836908510098 
0 
0 
-0.02738361339623519 
0 
-0.08636689342079931 
-0.0006890812031084813 
0.06931949511780715 
0 
0 
0 
0 
0.1032805297550777 
0 
0 
0 
0.6685075557283457 
0 
-0.05170438363538669 
0 
0 
0 
0 
0.03634806605397051 
0 
0 
0.04026111138684887 
0.03911454972317176 
0 
-0.03336170420712656 
0.01308517551571848 
-0.02137659130362333 
0.00044290251096125 
0.03231021999755569 
0 
-0.003284620684893662 
-0.002596807372603129 
-0.005744855260975101 
-0.0004016292244044795 
0 
0.008995800823496504 
0.01672504039809256 
0.06338477028242941 
-0.06685837609157255 
0 
-0.03536544065083179 
0 
0 
0 
0 
0.06352856177063576 
-0.0005021782622891717 
0 
0.0372811752543096 
-0.2039410549528353 
0.1730012061148769 
0.0007683464105637508 
0 
-0.1731975010771559 
0.03315958633856229 
0.008789298441434674 
-0.02151404419695765 
-0.01211757653770056 
0.002382499076352398 
0.07478215471763192 
0 
-0.002909070008244257 
-0.0004031763995577858 
0.09820544885536855 
-0.1786692903537229 
-0.002193248737024006 
0 
0 
0 
-0.0003064954804919566 
0 
-0.007058640126439579 
0.01768371252399972 
0 
0 
-0.3706455021225564 
-0.0003691766294682255 
0 
-0.01594512353793906 
0.05503626336824544 
0.1213136315167444 
0 
-0.1908243521340617 
0 
0.01139015765011004 
-0.01829007693475083 
2.286988957586611e-19 
0.03623420984738297 
0.0220461801000012 
0 
0 
0 
-0.0003935646866337709 
0.0567635911386627 
-0.01989641729640831 
-0.01992525664163842 
-0.002035144353542282 
0.03542451386388135 
-0.001343361196164445 
0 
0.3127364994236687 
-0.02436766702445251 
0 
0.1418955599946004 
0 
0 
0 
0 
0 
-0.02525467812440466 
0.00485827543043357 
0 
0 
-0.05928542933527563 
0.05953395280171326 
-0.4250816624975187 
0 
-0.02312195805699219 
0 
0 
0 
0 
0 
0 
0 
0.003425494189213959 
0.6807160644751306 
0 
0 
0.01589304577046578 
0.00203104410966625 
0 
0 
-0.0007688670169131908 
-0.0003489153098299458 
0 
-0.01236967813311261 
0 
-0.09487001491492883 
0 
0 
0 
0.003177310189982065 
0 
0 
0 
0 
0 
0 
0 
0 
-0.00275436945839688 
0 
0 
-0.008647420900439509 
0 
-0.05563353925571239 
0 
0.2469221893625363 
0.01409577831393145 
0 
0 
-0.1633082412192228 
0 
0 
0 
-0.008690612707199306 
-0.01318282153353951 
0 
0 
0 
0 
-0.8580528540964607 
0.0009620087203063084 
0 
0 
-0.1205751233116355 
-0.003583191160918982 
0 
0 
0 
0 
0 
-0.6701290444171273 
-0.0001770250135507699 
0.1539918953677383 
0.01316746031748153 
0.003871208597494573 
-0.03217985052516631 
0 
0 
-0.02111229007126011 
0.02870851366547357 
-0.03301116778431389 
0.003873533855329786 
0 
-0.02707513440673232 
-0.001920789405461842 
0 
0 
0 
0 
-0.0380929470861723 
0 
-5.376959266770329e-05 
0 
-0.004849579280223957 
0 
-0.0007251199120744615 
-0.006280799779998473 
0 
0.005405852902593236 
-0.1061783086846247 
-0.04004766136381738 
0 
0 
0 
-0.005142764236397582 
0.2460789039194227 
0.03343329704708101 
0.008173624912286494 
0 
-0.02277032874001916 
0 
0 
-0.0008649350122633529 
0.004814855639331189 
0.04144828806517312 
-0.05917667599825661 
-0.0002552214814376961 
0 
-0.003658449455411199 
-0.0005377625958388924 
-0.03246026984168846 
-0.01811517639541883 
0 
-0.06619754738371735 
-0.003359097449426838 
-0.0005943802076293418 
-0.01566263034269254 
0 
-0.003954180786926616 
0 
-0.04245223019991612 
0.06075886460580075 
0 
-0.00879881915438694 
-0.07559515424501144 
0 
0 
-0.0003489153098299458 
0.0456466021834314 
-0.2825919339200973 
-0.08657500115420018 
0 
0 
0 
0 
-0.01257474620443386 
0 
0 
0 
0 
0.05965826290323026 
-0.0288920969783607 
0.05099265421320683 
0.06550168822894396 
-0.03826922163130954 
-0.007480632524443862 
0.02907857487040027 
-8.818392339757348e-05 
0 
0 
0.03403724295100558 
-0.0297909336416777 
0 
0.05355378962730812 
0.001153930112170518 
-0.01404904571712747 
-0.0435721595061451 
-0.0005133376084713579 
0 
0 
-0.0023430290809882 
-0.0008521949057226378 
0 
0 
-0.0023789949876192 
0.006173399646152472 
0 
0 
0.02389393751089821 
-0.02524719641452893 
0.0004089452357858428 
-0.0595211048310063 
-0.03430950284907829 
-0.1075646397672911 
0.04309739179095213 
0.1187830759476478 
0.0298510685279499 
0 
0 
-0.05500189848504185 
0 
0.06395025027840011 
-0.04980402142279767 
-0.02758628516400183 
0 
-0.02385205329720151 
0.01846774193147502 
0 
-0.02180445123471603 
-0.3045256897631174 
0.02234653806630492 
0 
0 
0 
0 
0.1394870363495334 
-0.0003489153098299458 
0.004493474935611159 
0 
0 
-0.02087292368060248 
-0.08864584676572802 
0 
-0.01755522091725843 
0 
-0.05890121907931627 
0.01922466848195057 
-0.001982015239226098 
0.01520603406402973 
0 
0.00856804651000226 
0 
-8.818392339757348e-05 
0 
0 
0.001815126170122889 
0 
0.009341382892630925 
0.004044253910146779 
0 
0.01988522432080171 
0 
0 
0 
0.1554325666012761 
-0.07080513239998749 
-0.0006880341828539041 
0.04561748678735925 
0.0389266972616332 
0 
0 
0 
0.05248069018080238 
0.004265343286151552 
0 
0 
-0.004136887890765517 
0 
-0.04221354907228755 
0.124213303127307 
0.04913576822321888 
0.1057515271136417 
0 
-0.01987139990621564 
0 
-0.00669518421605987 
0 
-0.009394586707417454 
0 
-0.01153258864494419 
-0.01654963236095204 
0 
-0.04663000810683114 
0.04648316794826982 
0.01779256050431947 
0.08452067985437861 
-0.003770210881180122 
-0.02263728478887698 
-0.02931129070646671 
0.004493474935611159 
0 
0.02716663172027653 
0.003978255309487567 
0 
0.03346306796358749 
-0.008022874811802404 
-0.3742753209974429 
-0.04250932049798573 
-0.0005937635692349171 
-0.06904245850103553 
0 
0.01525744438892411 
0 
0 
0 
-0.01723040499935303 
0.1050158689837596 
0 
-0.007395021052611833 
0 
0.01821606557088696 
0 
-0.003136691991778501 
0 
0.0115097980716946 
0 
-0.1010398470454473 
0 
-0.04034702404697792 
0 
0 
-0.00854065327591955 
-0.001260751333238129 
0.06749606186228366 
-0.001041060743406325 
0 
0 
0 
-0.001336513363136221 
0.0540183046618008 
-0.01414993622893037 
0 
-0.2305151208406538 
-0.003843384902523891 
0 
0 
0.04889826548870316 
0 
-0.02691971488950995 
-0.04492484675595118 
0 
-0.05887801914882055 
0 
-0.06324532709989848 
-0.00362071956092127 
0 
-0.06225110967674677 
0 
0 
0.03517047007264845 
0.0235517400464033 
0 
0 
-0.04071512690052177 
-0.01211476346887881 
0 
-0.03732256619006421 
-0.05893005777425793 
0 
0 
-0.0003489153098299458 
0 
0.009034960538188957 
0.2245536583991108 
0 
0.05372648375475743 
0 
0 
-0.002840549430870729 
0 
0.02221214079219984 
-0.001736422272942569 
0.05698005722849261 
-0.00824271075756583 
0 
0 
0 
0 
0 
0 
0 
0 
0 
-0.01231898971265536 
0.08915722459618321 
0 
0.0002269535032565531 
0 
-0.1358103277372325 
0 
-0.04661996211590974 
0 
-0.006415774712874921 
-0.003951229864617883 
-0.002543486329546371 
0 
-0.001745714093904494 
-0.00351232546827883 
0 
0 
0.03132682205085432 
0 
0 
0 
0 
-0.1205739042514657 
0 
-0.01782269752439497 
0.3644197313301807 
0.0001716886902759064 
0 
0.177675133121381 
0 
0.001002955960546875 
0 
-0.0442064158941458 
0 
0 
0 
0 
0 
0 
0.004088043034617963 
0.009170391379122322 
0 
-0.003124817115751814 
0.003292965150503762 
-0.004024241245222023 
0.04903924948312886 
0 
0 
0.07660077376172347 
0 
-0.00567825783916549 
-0.01410166734497305 
0 
0 
-0.02678803258239076 
0.6461343316661624 
0 
0 
-0.001489280795555798 
0 
-0.04183861361733195 
-0.002377021354803225 
0 
-0.02911200399630347 
0.0305840632972844 
0.4237970419077189 
0 
-0.01202565651116139 
-0.07165620202014261 
0.02045646341668052 
-0.001458204256997386 
0 
0 
-0.01200768581772001 
-0.001938418719970469 
0.02056319475590804 
-0.001673183979705439 
0 
-0.006414771162897181 
0 
-0.2539422498266089 
-0.009391400591381591 
0 
0 
0 
-0.01104752131322857 
0 
0 
0.005434250360645508 
0 
0 
0 
0 
0 
0 
-0.01028749410352178 
-0.01762669306288791 
-0.0001208131035534269 
0 
0 
0 
0 
0 
0 
0 
-0.004057477587069053 
0.8514999642775379 
-0.02595739291264754 
0 
0 
0.02533915375325554 
0.06564218644265081 
0 
0 
-0.008632918325608864 
-0.02876617700355793 
0 
0.01900575493485914 
-0.02483412398802117 
-0.05442494142423557 
0 
0.003573291972666399 
-0.004229198906886433 
0 
0.05896960389281009 
0.07890298791047531 
-0.001114609082626916 
0 
0.03915937564273477 
0 
-0.009696224527634878 
-0.005250946332945139 
0 
-0.007014100551349774 
-0.1090728190461042 
0 
0 
0.01822239632177061 
0.1768301415676947 
-0.005794097513212746 
0 
0 
-3.615940000097652e-06 
0 
-0.04696222170511852 
0 
-0.002219132367152795 
0 
-0.004665736465971926 
0 
0 
-0.01982620529917246 
0 
0.102130015948451 
0 
0 
-0.00945217004186439 
0 
0 
0 
-0.005235302928034291 
0 
-0.01963892137562874 
0.08869910105656001 
0 
0 
0 
0 
0 
0 
0 
0 
-0.0007872257417790375 
0.022839042131538 
0 
-0.003402160611948282 
0 
0 
0 
-0.02929217572727111 
0.0136393105428955 
0 
-0.01140500796575845 
0.04488682960128823 
0.1214570489048297 
-0.01610617225265779 
0.05958652019204587 
-0.0003489153098299458 
-0.02679877902352161 
-0.007574145384840166 
0.03217885440601499 
0 
0 
0 
-0.002727653227906988 
0 
0.05392910572708067 
-0.003815744507503058 
-0.005413629883320352 
-0.07146419549968901 
-0.0006623815545072716 
0.00030012156866048 
-0.05667215663176684 
-0.1738949467942913 
0 
0 
-0.005074084637817826 
0.007382879741018616 
-0.333430531580895 
-0.06023602915149193 
0.2401175293843631 
-0.001109728426246734 
0 
0.00743379687377504 
-0.02541825837493416 
-0.0006028968285779736 
-0.2846235586231969 
-0.07222184858453271 
0.0001816955128707489 
-0.001079962987652324 
-0.0005311326637972503 
0 
-0.01049411316087546 
-0.06268319927805875 
-0.01762988138690735 
0.009737297412217098 
0.006032130135610033 
-0.004052641427901549 
-0.002801209310907718 
-0.02803283918118505 
0 
-0.00819896831525537 
0.0003317046708641694 
0.01605060124861651 
0 
-0.004786041823360366 
-0.009748848927985365 
-0.02385536936755796 
0.0160853949785785 
0 
-0.01712847376406478 
0.04774583315165327 
0.1311611376085634 
-0.07179658542939395 
1.957481132831584 
0.005405852902593236 
-0.1453745695145607 
0.03522308228542469 
0 
0.05032974845637345 
0 
-0.002868128344204603 
0 
-0.03567662622197048 
-0.02653461357925238 
-0.01192332362931112 
0 
0.0237063563054382 
0.01041397006387725 
0.07309037721885941 
0.007005168058924794 
0.2878396942091333 
-0.05127258960643256 
0 
-0.05358389506147335 
0 
0 
-0.4867313910603006 
0.04246164177630341 
-0.0009422235122899878 
-0.04088331583529142 
-0.004972981804593314 
0.0817400103967964 
0.02493417238982648 
0 
-0.0004226877965671863 
-0.003974623315327096 
0 
-0.01337837319064195 
-0.09855129231314086 
-0.08804734531290848 
-0.003335843040120956 
-0.01204596336972241 
0.03091539031086884 
0 
-0.01047951100511041 
0 
0 
0 
0 
-0.004152311643500187 
0 
0.02286550093523549 
-0.02780914975953668 
0 
0.4280792109048939 
0 
-8.818392339757348e-05 
0 
-0.01445137332928584 
0.1942933070495305 
0 
-0.0007518027025620886 
0 
-0.003287113904409652 
-0.003539102370140483 
0 
0 
0.02499834958694279 
-0.02894439041053407 
-0.07978625813124275 
0 
0 
0 
0.009705132393949165 
-0.006603578481556817 
0 
-0.02493241793340319 
0 
0.02066695434696742 
0.1105341210071809 
0 
0 
0 
-0.1981013775548693 
-0.05236045965153258 
-0.2226445606500583 
-0.002327127737718168 
0 
0 
0 
-0.002505489194425724 
0 
-0.1506601452583425 
0 
0 
-0.07065846181815895 
0 
0 
-0.1039289621350676 
-0.0003691766294682255 
-0.005439836603676492 
-0.02007697207784149 
-0.1666018055346421 
0 
-0.04911898696322865 
0 
0.01402510789245786 
0 
0 
0 
-0.0005437036433069615 
0.004285001777016932 
0 
0 
0 
0 
0 
0 
0 
0 
0 
-0.01020351982316024 
0 
0 
0 
0 
0 
0 
0 
0 
-0.003881423154249949 
0 
0 
0 
0 
0 
0 
0 
0 
0 
0 
0 
0 
-0.00972361178818909 
-0.000946593710451714 
0 
-0.001262468141750925 
0 
0 
-0.0003489153098299458 
0 
0 
0 
0 
0 
0 
0 
0 
0 
-0.001810373534646395 
0 
0 
0 
0 
0 
0 
0 
0 
0 
0 
0 
0 
-0.0003489153098299458 
-0.004791036407848273 
0 
0 
0 
0 
0 
0 
0 
0 
0 
0 
0 
-0.003760920966055089 
0 
0 
0 
0 
0 
0 
0 
0 
0 
0 
0 
0 
0 
0 
0 
0 
-0.01182563011747682 
0 
0 
0 
0 
0 
0 
0 
0 
0 
0 
0 
0 
0 
0 
0 
0 
0 
-0.0003489153098299458 
0 
0 
0 
0 
0 
-0.006270664177244014 
0 
0 
0 
0 
0 
0 
0 
0 
0 
0 
0 
-0.001046217575678622 
0 
0 
-3.388131789017201e-21 
0 
0 
0 
0 
-0.003920946654811077 
0 
0 
0 
-0.0003489153098299458 
0 
0 
0 
0 
0 
0 
0 
-0.00403224120666386 
0 
0 
0 
0 
0 
0 
0 
0 
0 
-0.01340086024535534 
0.05601097334212051 
0 
0 
0 
0 
-0.004434334980745882 
0 
0 
-0.003007989634076082 
0 
-0.04182843383803098 
0 
0 
0 
0 
0 
0 
0 
0 
0 
-0.01213214739577799 
-0.01785193946065379 
0 
0 
0 
0 
0 
-0.01509131585545658 
0 
0 
0 
0 
0 
0 
0 
-5.839370327470095e-05 
0 
0 
0 
0 
0 
0 
0 
0 
0 
0 
0 
-0.0003489153098299458 
0 
0 
0 
0 
-0.0003489153098299458 
0 
0 
0 
-0.0003489153098299458 
0 
0 
0 
0 
0 
0 
0 
0 
-0.0001026140190737779 
0 
-0.006998057921177468 
0 
0 
0 
0 
0 
0 
0 
-0.03327231864742306 
0 
-0.0002111425847275733 
0 
0 
0.01641105460955514 
0 
-0.008374925803016648 
0 
0.06443683528619677 
0 
-0.1436168078507548 
0 
0.006829285457284478 
-0.007005613116409054 
-0.08265083973699168 
-0.003073580606517248 
-0.004488541354696392 
0 
0 
-0.01020753170526603 
-0.0002237530698633185 
-0.08260483898306299 
0 
0 
-0.02197110668615451 
0 
0 
-0.0101099205412505 
0.02434260791688355 
0 
-0.07247123427973533 
-0.0006162079404054668 
0 
0 
0 
-0.003934197037479558 
0.04085550314606898 
-0.02690921323940983 
0 
0 
0.01527488593118671 
0.04648682234867904 
-0.00364525058405233 
-0.0244535803769898 
0.02207882248286659 
0.03738728735967189 
0 
0 
0 
0.6362980215754167 
0 
-0.001255656092872749 
-0.03941552166423171 
0 
-0.08537808289076529 
0.07643421196888696 
0 
0 
0.008785368983507203 
0 
0.03789366040620031 
-0.02309096809924221 
0 
0 
0 
0 
0 
-0.04155581672251223 
0 
-0.006956526065535476 
0 
-0.001647335675970437 
-0.004028044442247386 
-0.008636090233449341 
0 
0 
0 
-0.05479362777002852 
0 
0 
-0.0004743199195744608 
0 
0 
0 
0 
-0.003416697563389456 
0 
0 
-0.2651486227489904 
0 
0.001319019287870944 
0.07142209292095043 
0 
0 
0.003477794412486473 
-0.04694960920290198 
0.00590238318899916 
0.02454591878443433 
-0.001157167519159962 
0.009611776161923751 
0.05244903259715522 
-0.05365282428514796 
-0.00225317819077253 
0 
-0.001496472252403368 
0.03754402834211763 
0.03745004536818886 
0.02869432291783698 
0.2162139225869241 
0 
-0.01340716298968543 
0.02548024978951786 
0.004473031025625661 
0 
-0.05036697607749945 
-0.005246519812455237 
0 
-0.0001902327177048054 
0 
-0.1065288880208494 
-0.07082945228718157 
-0.0009003696444695357 
0 
0 
0.04699934019631762 
0.003881865868839182 
-0.05464319603730079 
-0.01261061235390291 
0.007113842562484368 
-0.04188123742328834 
-0.0284715985937381 
0.003391729845456237 
-0.07865709581284497 
-0.02140290603184549 
0.0279467340310981 
0 
0 
-0.04714550132438942 
-0.0001124227819571233 
0 
-0.007982906677995871 
0.07187769979639368 
-0.100840509539309 
0 
-4.95189500222555e-05 
0 
0 
0 
0 
0 
-0.01210094292583442 
-0.07706915858795317 
0.01210716264573435 
0 
-3.615940000097652e-06 
-0.02525496113002093 
0 
0.001291058577635008 
0.06725400526383848 
0 
0 
0.01063591286102352 
0 
0 
-0.004504259854790763 
0.02329110615801364 
0.02914111520963506 
-0.002382994115413371 
-0.006734157742577072 
-0.02463086166397056 
0.001811882122964423 
0.01162637389518673 
0.00976418837877201 
-0.007483605958176443 
-0.01031771824528946 
0 
0.05739828022416203 
0 
-0.005845338030952796 
0.004947534994582464 
0 
0.1620924712155867 
0 
-0.06479159349422664 
-0.003376243235597954 
-0.001360884709092275 
-0.08040605216423609 
-0.3297628079318157 
-0.1224000307508814 
0 
0.08532159321235647 
-0.1116477005782822 
0.0304893113533925 
0 
0 
0 
0 
-0.09495759643862821 
0 
0 
0 
0.2185087185581522 
0 
-0.009981235972686023 
0.001019567672594089 
-0.008827130980577491 
0 
-0.002876193689103634 
-0.05550843244396218 
0.01392076805862219 
-0.001575533150307537 
0 
-0.004714600419971416 
-0.1024830453879194 
0.00458693130827523 
0 
-0.01914139204341913 
0.6172868801225369 
-0.001665705715826481 
-0.0005819372429527383 
0 
0 
0 
0.1379326052568536 
-0.02700485463015603 
0 
0.005413506144080415 
-0.002049872591311941 
0 
-0.0006607199395045309 
0.08387763792563808 
0.02431440163809213 
0 
-0.04303936608793224 
0 
0.008778517420551551 
0.3252551780635221 
0.009518010090847703 
-0.003657330277562337 
-0.002893398382896337 
-0.03830804866965569 
-0.002553164082029387 
-0.01504922600905061 
-0.01284524928146445 
-0.06639145068720873 
0 
-0.009280020299338942 
0 
0 
-0.04389013054371362 
-0.3364160947764093 
0 
0.08495448126393618 
0 
-0.02720762788587396 
0 
-0.004585284294794925 
0 
0.001014478061840652 
0 
-0.02504652852876654 
-0.01042666835487815 
0 
0 
0 
-0.001307160905863834 
-0.02717419182428533 
-0.1884584593921823 
-0.002843351772306472 
0 
-0.0001818981446882501 
0 
0 
0 
0.02592143599989444 
0.2513442792503752 
0 
0.01426582413714524 
0 
0 
-5.839370327470095e-05 
-0.07123706301331588 
0.1116907978651104 
0 
-0.03702421747982601 
-0.04766809211515077 
-0.001965984111998065 
0 
0 
-0.05304288808478082 
0.0558614965725738 
-0.01248395013728608 
0.04467442987480828 
-0.3280095691587473 
0 
0.02958863824257747 
0 
-0.1240368136533275 
0 
0 
0 
0 
0 
0.0008720036594999756 
0 
-0.04768399378522161 
-0.007799633988934749 
-0.0139585544523326 
0 
0 
0 
0 
0.02686324187737871 
0 
-0.0003171541754098247 
-0.006156060874567095 
0 
0 
0 
0 
0 
0.1940534865230371 
0 
0 
-0.00221897958796122 
0 
0 
-0.01301108906493728 
0 
-0.0006623815545072716 
-0.0006031803968038445 
0 
0 
-0.0001036040440286204 
0.01464659543919954 
-0.03859156061712302 
0 
-0.006556607147911343 
0.003864891301362612 
-0.03177937204923398 
-0.04321137969019338 
-0.04688201622741495 
0 
-0.004994450558852086 
0 
0 
0 
0 
0 
0 
0.03777349053229691 
0 
-0.01894254674640554 
-0.01954145858817379 
-0.04736138894135491 
-0.0005506429990440907 
-0.01158046344093877 
0.02639008072969174 
0.005298775961646624 
-0.04612740719791711 
0 
0 
0 
0 
-0.001229386740099 
-0.002959136981714985 
0.02205935181245933 
-0.05619352655392099 
0 
0 
0.1378193429528022 
0 
0 
0 
-0.02870821628739336 
-0.04381887484126861 
-0.0003833480294682809 
-0.02226862778785274 
0.01865122823601181 
0.04149183825533972 
-0.004152311643500187 
0 
0 
0 
0 
0 
-0.03332970646834534 
-0.005058943118006189 
-0.008752911061640872 
0 
0 
0.0670098523561896 
-0.02005835400893313 
0.03215725074438851 
-0.0345448741833455 
0.05909445993882644 
-0.001363877578524686 
0 
-0.0003489153098299458 
-0.01013246145877135 
0 
0.04416396462822222 
-0.01793381269709891 
-0.05513620703098983 
0 
-0.07063405790153962 
0.05319957325649389 
0.7175137058407655 
0 
-0.01163825547909935 
0 
0 
0 
-0.01377393318340913 
-0.0004499060717125329 
-0.003325143809485907 
-0.008485912919921615 
-0.04418759760030908 
0 
0 
0.04064479901354047 
0 
0 
-0.002255323292104291 
0 
-0.1451360910309301 
0 
0.01386069792644073 
-0.04799754823490253 
-0.005777304826998505 
0 
-0.008685086872388923 
-0.00234883166385069 
-0.03009042753882147 
0 
-0.03389962534215447 
0 
0 
0 
-0.004132971788860324 
0 
-0.06019857086465361 
-0.02171483039416779 
0 
-0.02026228722775238 
0 
0 
0.594056432381911 
0.04802752787924131 
0 
0 
-0.0003866590841123937 
0 
-0.006281000018085195 
0 
-0.02086257804860637 
-0.06190339269697251 
0 
0 
0 
-1.084782000029295e-05 
0 
0 
0 
0.3492115050262353 
0.05561887062729331 
-0.0005210695897942071 
0 
0 
-0.005074971193348128 
0 
0.5801126909674116 
-0.04559855060743637 
-0.02371409910325878 
0 
0 
0 
0 
0 
-0.01876444063120496 
0 
0 
-0.01971837396748317 
0.004326305474144617 
-0.001430699457247345 
-0.04739641787519287 
0.00417414777775378 
0.01173059602095155 
0 
-0.02036192013959158 
0 
0 
0 
-7.64734032751893e-05 
0 
-0.005147024305749061 
0 
0 
0 
-0.02234879140291731 
0 
0 
0 
-0.2225286526147298 
0 
-0.01813376434987211 
0 
-0.0005714426878654105 
0 
0 
0 
-0.01785386435705693 
-0.2871864639528677 
-0.0006793507644961784 
0 
-0.08789590651009824 
-0.03369986551127247 
0 
0.03942277571035021 
-0.04216491255209683 
-0.04216491255209683 
0.0426152845863451 
0 
0.03752556803124475 
-0.05368209576701358 
0.07919284515203369 
0 
-0.009819460687814372 
-0.007759369378161145 
0 
0 
0 
-0.04700368476101478 
-0.07206521446008525 
-0.002662363860961771 
-0.005325500593106586 
0 
0.2141332495091742 
0 
0 
0.1318913520207557 
-0.000354216931812079 
0 
0 
-0.2047595411107769 
0 
0.009133582245191722 
0 
0 
0 
0 
0 
0 
-0.01254411090163906 
-0.006989286912632381 
0 
0 
-0.04796475983637467 
0.01733485216035661 
-0.01455465421165431 
-0.002653017487971499 
0 
0 
-0.042464388096654 
0 
-0.005822385059533731 
0.002523838165789984 
0.08676631540397486 
0 
-0.03043032202248068 
-1.498965509596245e-05 
0.1150666635457677 
0.04730195116041502 
0.01776184243001486 
0 
0.08850932526981919 
0 
0 
0.01583341603549839 
0.003644383483085704 
0.01720033860261875 
-0.3356525377409172 
-0.01435597060660352 
-0.7653832094049284 
-0.03543123341029356 
0 
-0.026327380954463 
-0.1062063773046719 
-2.754852390348493e-05 
0 
0 
0 
0.03239705435956173 
0.05653963249252493 
-0.01411098085892534 
0 
0 
-0.02663234670822366 
0.01450416455185978 
-0.006508656340463022 
0 
-0.03643306224654017 
-0.03012914709333473 
0 
0 
0 
0 
-0.001293033406461032 
0.002791753413130469 
-0.0003312029213128442 
0 
-0.01144098755594043 
0 
0 
-0.02237814374522801 
-0.07765581049592912 
0.1013837592537705 
0 
0.1174466023296182 
0 
-0.001920789405461842 
0.09493621733879577 
0.07296774073730269 
-0.01785573757177548 
-3.861319087260893e-05 
-0.01547814872692346 
-0.002841967673556838 
0 
0 
-0.02516879975380752 
-0.006919539571778978 
0 
-0.0006978306196598916 
-2.754852390348493e-05 
0 
0 
-0.0003489153098299458 
0 
0 
0 
0 
-0.001060658668386321 
0 
0 
0 
0 
0 
0 
0 
0 
-0.0005424093560019767 
0 
0 
0 
0.1197010130767989 
-0.0006854852388048296 
0 
0 
0 
0 
-0.005662106928196255 
0 
0 
0 
-0.0003489153098299458 
0 
0 
0 
-5.839370327470095e-05 
0 
0 
0 
0 
0 
0 
0 
0 
-0.0758162667720315 
-0.0003489153098299458 
0 
0 
0 
-0.0003489153098299458 
0 
0 
-0.0006978306196598916 
0 
0 
0 
-0.0003489153098299458 
0 
-0.01541675892272886 
0 
0 
0 
0.04250046082011953 
0 
0 
0 
-0.01088942298499371 
0 
0 
0 
-0.0003489153098299458 
0 
-0.002817559785130489 
0 
0 
0 
0 
0 
0 
0 
0 
-0.006474125105305643 
0 
0 
0 
0 
0 
0 
0 
0 
-0.06437634950280513 
0 
0 
0 
0 
-0.0003489153098299458 
0.06977487220063246 
0 
0 
-0.01010562713579949 
0 
0 
0 
-0.03825724928253367 
-0.03789070473345212 
0 
0 
0 
0 
0 
-0.0003489153098299458 
0 
0 
0.01581323495330601 
0 
0 
0 
0.04822550795826498 
0 
0 
-0.0006978306196598916 
0 
-0.0003489153098299458 
0 
0 
0 
-0.0006316531564691258 
0 
-0.01721399799227324 
-0.004304041385758925 
0 
0 
-0.0008649350122633529 
0 
-0.0003489153098299458 
0 
0 
0 
0 
0 
0 
0 
-0.01480900188531745 
0.2194029993352165 
-0.0843034185503773 
0 
0 
-0.0003489153098299458 
-0.1538264727779201 
0 
0 
0 
0 
0 
0 
-0.01020873167816403 
-0.001035940538390896 
0 
0 
0 
0.1120803429042246 
0 
-0.01612266703454914 
0 
-0.03461361395195554 
0.06377429918514653 
0.003871208597494573 
0 
-0.0001486087234813359 
-0.002109043873524339 
-0.05555959129185001 
0 
0.03215792173128443 
0 
0.06061442969671118 
0 
-0.0001026140190737779 
-0.0204004922292576 
-0.0008582113209142594 
0 
-0.000359688628392189 
-0.02150593634768649 
0 
0 
-0.03783567369826605 
0.02323200213914386 
0 
0.125744229001674 
0 
0 
-0.0139089577298623 
-0.01701761995957046 
0.03207001729282458 
-0.01103152620168742 
-0.3153320283350105 
-0.02365633605521874 
-0.05839180874507061 
0 
0 
0 
0 
-0.006004365453277216 
0 
0 
0 
-0.005187508249254972 
-0.0006911710623195845 
-0.007519361253309916 
0 
-0.0001400500048458367 
-0.03849845743048703 
0 
0 
-0.0006281197241005758 
0 
-0.07629458992251224 
-0.04064582569014982 
0.000312497321678136 
0 
0.001886089370892999 
0 
-0.002415790996042705 
0.021131614212584 
-0.08257718245261375 
0 
0 
0 
0.02377863745575797 
0 
0.00612722690213055 
0 
0.03483721139169475 
0.000787085388393616 
-7.231880000195303e-06 
0 
0.01674589840335854 
0.02725766054915786 
0.0894776100759143 
0 
0 
0 
-0.07038780963464235 
0 
0 
-0.08165784459424451 
0 
0 
0 
0 
-3.615940000097652e-06 
0.0336115515229078 
0 
0 
-0.001490826426935349 
0 
0 
0 
0 
0 
0.5677108563352062 
0.007065630347169442 
0.07773646181257213 
0 
0 
0 
-0.01948297706519296 
-0.016355882807514 
0 
0.01546174353675129 
0 
-0.0274576567732016 
0.001101811914794058 
-0.01972760556852697 
0 
-0.0005828369759469579 
0 
0 
0.7328038196727863 
0 
0 
0 
-0.00633012025924033 
-0.01012159989133796 
-0.05474428591216436 
-0.001616093226387972 
0 
0.003480085741232228 
0 
0 
0.033868836271481 
-0.008847600284758179 
0 
0 
0 
0 
0 
0 
0 
0.009817047859214573 
-0.02074948861109692 
-0.02047309590403456 
-0.008332426617086334 
-8.138687336612905e-05 
0.1052704041100169 
-0.000131613585322874 
-0.0006610039890294726 
-0.00974855525286121 
0 
-0.01588845933263318 
0 
0.09511225977169757 
-0.0003531913244134535 
-0.0007827253718054982 
0 
0 
0 
-0.003658449455411199 
0 
0 
0 
-0.0109319388511547 
0 
-0.06870416053872089 
-0.1984584838110532 
0.4134675583386924 
0 
0 
-0.03293404735254226 
0.02577612112459511 
0.002946741075336845 
-0.01829915890925133 
0 
-0.01064873017306725 
-0.01251904391670431 
0.02232455171997516 
0 
0 
0 
-0.02910908774713436 
0 
-0.02809287000002884 
0 
-0.0357510011798791 
-0.009533472657217289 
0 
0 
-0.02383679611141529 
0 
0 
0 
0.09544289846641339 
0 
0 
0.05996670629439254 
0 
0 
0 
0 
-0.1102446910174983 
-0.2772529894321381 
-0.009061370944689057 
0 
0.02265316861168464 
0 
-0.002739748653710261 
0.02067057143854683 
0 
0 
0 
0 
0 
-0.005597734703690313 
-0.05043138620127825 
0.01268317486075096 
0.0007611145305635555 
-0.006337161395716812 
0 
-0.001231132734302429 
0 
-0.4293555453954739 
0.5118038060351024 
-0.03302606572612943 
-0.2042028122194242 
-0.003705667012234192 
0 
0 
-0.0006864507582212718 
-0.02020779202618413 
-0.004608380643242392 
0 
-0.1060706024325877 
0 
0.02381585264666894 
0 
0 
-0.05148595301215934 
-0.09608734591602326 
0 
-0.002518272685156517 
-0.00715873636395818 
-0.0661246124454489 
-0.06253574653580177 
0 
0 
0 
0 
-0.008010878435565564 
-0.01505941374072287 
0 
0 
0 
-0.02031592435960309 
0 
0 
0 
0 
-0.08378885004525859 
-0.004013823872879813 
0 
0 
0 
0 
0 
0 
-0.0003489153098299458 
0.03887613662664346 
0 
0 
0 
0 
-0.05457494311255344 
0 
0 
0 
0 
-0.0002018548562160043 
0.03253479254690439 
0 
0 
0.004074803218321054 
0.02033510663826377 
-0.06852392140499944 
-0.002250875539280123 
-0.001461376246208606 
0.001793537199753048 
0 
0 
0 
0 
0 
0.010764526282072 
-0.0001494196001554421 
-0.02361456511033919 
-0.05077071297646379 
0 
0 
0.01188931872787898 
0 
-0.04192660736064759 
-0.007254227101084927 
-0.0003489153098299458 
-0.04966511275940776 
0.0002322294938677856 
0 
0.02574227672125264 
0 
0 
0 
0.09553202689428811 
-0.001255656092872749 
0.03369135513927211 
-0.01320452078623304 
-0.009776612768992813 
0.007042822156566595 
-0.0471624333035084 
-0.06379186538332582 
0 
-0.03448021936206325 
0 
0 
0.01810218382876138 
0 
-0.09020436973323134 
-0.0001818981446882501 
-0.0426922147347388 
0 
0.02946920361030306 
0.2063087669183622 
-0.01886815287432425 
0.001291058577635008 
0 
-0.004643594325626662 
-0.03361159058514842 
0.0213207885986859 
0.03658887359420668 
0 
0 
0 
-0.01120791493036873 
0 
0.0007332185309840322 
0 
-0.04278635443332487 
0 
0 
0.06792103147797961 
-0.0003461712590512822 
-0.05888570429674485 
-0.08172645881792497 
0 
0 
0 
-0.002265886904340485 
-0.0005133376084713579 
0.04641813439173138 
0 
0.07980067538453259 
0.07980067538453259 
0.07980067538453259 
-0.0361512633052556 
0 
0 
-0.004965355337686988 
0.03990033769226629 
0.04422044938412924 
0.08636773966866713 
-0.002289884648729884 
0.02816689612498948 
0 
0 
0 
-0.02720064258572044 
-0.003898240506902875 
-3.388131789017201e-21 
-0.001737886225076237 
0 
-0.00446545922265346 
0.01892428226578136 
0 
0 
0 
-0.03498559329736232 
0 
0 
0 
0 
0 
-0.0101862844211234 
0.055294120007615 
0 
0 
0 
0.01550813222214486 
-0.1098597478347962 
-0.03970105701142967 
-0.004051248176845145 
0.08901143210842993 
0 
0 
0 
0 
-0.2334813448256868 
0 
0.008513239813953292 
0.00510100882240228 
0.00119059196943428 
-0.01053498686609771 
-0.0003489153098299458 
