solver_type L2R_L2LOSS_SVC_DUAL
nr_class 2
label 1 -1
nr_feature 38532
bias -1
platt's -7.441183674781624 -1.900224779424249
w
-0.02326814237579208 
0.08710038780710268 
0.07426313490808606 
0.3213883696962961 
0.07320115424123803 
0.5144939627587579 
-0.9714386751154915 
-0.6490748427523574 
0.1793573839388449 
-0.003324020339398868 
0.07914312661079591 
0.05637698027591474 
-0.001009597934206698 
-0.0453626182885996 
0.3473438339400907 
0.535022258392877 
0.03651963514949653 
-0.05374051139076772 
0.04188818373385191 
-0.169287826506914 
0.07459815376343953 
1.736900550493559 
0.07459815376343953 
0.1760660277762545 
-0.394186127200123 
-0.09240160682117875 
0.3053453823716407 
0.03856416339445306 
-0.0650360088297047 
-0.005494184995506493 
0.02227222871123665 
-0.202390828290326 
0.8830193035691419 
-1.556931032302394 
-0.6208087276777644 
0.07484665707719129 
0.002867334758583371 
-0.2549276762206454 
0.06535854463209996 
1.977461954218808 
-0.09412900951457338 
-1.296831704335261 
-0.01109034407088758 
0.5347027964798852 
0.1057129615620406 
-1.242826260683822 
0.1961909063663232 
0.2904775684871417 
-0.03130906671918612 
0.007413559318003894 
-0.1934041793169959 
0.08625321581798397 
0.05079920626655429 
0.006227575130508058 
0.003212795445513991 
0.2199032387665951 
-0.113839501528098 
-0.07517582397354779 
0.009248159026067954 
0.01188610519639965 
0.04471717508540525 
-0.003324020339398868 
-0.1258806798930857 
0.2725721960874731 
0.03538884617671975 
-0.003324020339398868 
0.1793556203264561 
-0.009775700094999699 
0.03572863726246601 
0.003904729704791956 
0.07835835936537176 
3.6507205579256e-05 
1.970174136978119 
-0.5157692435341135 
-0.6786253471118203 
0.1858798453420068 
-0.58276207047463 
-0.04017395922279982 
0.09529081088854714 
-0.1093923962735159 
0.6516510775793324 
0.1748782153959212 
0.4194447796640377 
0.2873408195953173 
2.08475275191094 
0.2017604850657911 
0.002052475795955757 
-0.003324020339398868 
0.04217159269678562 
-0.04021169827547764 
-0.003502308189454959 
-0.00376674595440406 
-0.434010131383437 
-0.07160626159597969 
-0.08045337231290314 
-1.110455578900784 
0.5390970059355655 
0.01787833079265785 
-0.003324020339398868 
-0.0007124714536540285 
-0.02410416708493312 
0.5516581418798042 
0.3235475861743786 
-0.03019817190713504 
0.2319955032050419 
1.168008365881159 
-0.003324020339398868 
-0.003324020339398868 
-0.1712279841326839 
-0.8758125797516612 
0.05537375688481093 
-0.008149729455022112 
-0.007662445979641758 
-0.003324020339398868 
0.0695154186476603 
-0.08819983434231154 
-0.06614987575673367 
0.06474012586982625 
-0.3654681361210927 
-0.1410864065976921 
-0.07697505890300296 
-0.8720396105394761 
0.08334538249945328 
0.04398225519346058 
0.003263203381020924 
1.073670298435238 
0.09518594242458554 
-0.1544817483746792 
-0.02283135804160273 
-1.048462544114376 
2.351079270764371 
0.01215963416514045 
-1.399710538262385 
-0.3129799884786793 
-0.4122904987467662 
-0.04224688805081324 
-0.2900824561373149 
-0.2138588763729199 
0.04344821276935985 
0.06548354652552828 
-0.202730813283878 
-0.2092964824445408 
9.296068131220787 
0.005863750083092762 
-0.02440299750216803 
-0.158964714564921 
-0.007957052880643908 
-0.0375564511370638 
-0.02808403692348715 
-0.19326976001235 
-0.0615714381170406 
-0.09124044310347854 
-0.03057477061086108 
0.01800685127479492 
-0.1619142682386902 
-0.01295861212435051 
-0.9293246624115096 
0.188587060262525 
0.1258815503608427 
-0.7497033282844621 
0.2455546985796803 
-3.857116797462499 
1.530827970839743 
0.01634079493549217 
0.17135098675202 
-0.3137307296041688 
0.7595095177151819 
-0.1330752912703739 
-0.5865031421403404 
0.1434002870609328 
0.3321760589822087 
-0.07052022994373545 
2.217517236787617 
1.164251937767819 
0.3343365195126698 
0.07932140933238019 
-1.504864018622524 
-0.9734863030656159 
-0.5658887046740115 
-0.9821787162572522 
-0.5002756693693968 
-0.3033525244281071 
-0.04967626324664203 
-0.05455728815671585 
-0.04940199179477241 
0.1278028472845745 
0.2769754415630822 
0.08746740067689809 
-0.01068628011320092 
-0.2384847954943229 
-0.04295756772724903 
-0.04937321275023494 
-0.02629594391396077 
-0.3694900516962136 
-0.1655235048703228 
-0.6205989052826054 
-1.468815585172654 
-0.08251816321601937 
-0.4674683108921951 
-0.1268134905187211 
-0.0975898857489035 
1.343667381171173 
-0.3183849310723293 
-0.06221567730646256 
-0.9990630347096924 
-0.08026278241409748 
0.08194335102216799 
-0.02897218132068404 
0.1176427146900269 
-0.001489693700513595 
-0.02540081992770462 
-0.6096948629682672 
-0.1320709568395838 
-0.3073282781258648 
0.175277511802475 
-0.5471554080135794 
-1.611082766972801 
-0.6535141203084764 
-0.006111396347624238 
-0.6246882963348076 
-1.69156313853396 
-0.006547529340870412 
-0.03532737566915582 
-2.37509330753476 
-0.1725925595164054 
0.1780987651649069 
-0.03187189732381258 
-0.694514580121751 
-0.4384488630568475 
-0.0117557450367486 
-0.04787118534121599 
-0.1266751861168612 
0.09495800133162627 
-0.5750180892850768 
-0.1924950868927373 
-0.0004017990050998302 
-0.2228016371775115 
0.1010368392289893 
-0.7208625731080855 
-0.06557954828164686 
-0.03769776918746344 
-0.01884888459373172 
0.01271622536374173 
-0.2265559844107214 
-0.01884888459373172 
-0.06677690335211549 
0.02377951080240638 
2.127427551552079 
1.306996516617325 
0.0577061903376961 
-0.08194221113599663 
-0.06970398291898522 
3.015454098363741 
-0.01799858622315783 
-0.3174622191225833 
0.6938241351676981 
-0.7322830928912809 
-0.8658078479035223 
-0.1799376889738742 
0.3598103469278876 
-1.348269951339239 
-0.05828235987860102 
-0.03433273298266148 
0.3943984217369954 
-0.01884888459373172 
-0.1045223266482264 
-0.1297079105750457 
-0.07526619049435379 
-0.2762019843328181 
-0.3681563807371653 
-0.5051626851009772 
-0.062094785827427 
0.02313527039354459 
-0.1268041885672015 
0.1335278050923993 
-0.2248772215031817 
0.1398465217259132 
-0.09530490735547729 
-0.02077429105808675 
-0.0509552400465243 
0.0008283803850740386 
-0.7279137801924424 
0.2111701174120282 
-0.04097719771945291 
-0.02303858573948902 
-0.02303858573948902 
-0.04737143606315904 
-0.07660156817668819 
-0.04607717147897804 
-0.464495003721591 
-0.3063028746314834 
-0.007072665640172549 
-0.125449890992741 
-1.274326771030757 
0.02678659118159423 
0.09964795158361121 
-0.01665377317975889 
-0.2145765984654106 
0.525864618808047 
0.0270251510326019 
-0.5682305875353487 
0.09175771617121684 
-0.09011900849260329 
-0.1267932945139144 
0.2027584014872132 
0.008035221468486684 
-0.4564470607034777 
-0.8256122752617843 
-0.007072665640172549 
0.09425819602779045 
-0.3025152656501994 
-0.08479100770386402 
-0.1527718949156197 
-0.02303858573948902 
-0.5060709782721986 
0.4412574466106635 
0.02836883935990307 
0.1576230935093791 
-0.174277160909818 
-0.1447051850493009 
-0.02303858573948902 
-0.5132678979742312 
-0.04615445678723412 
-0.07585803113788467 
-0.0771366368053204 
-0.04615445678723412 
-0.3864402136117525 
-0.03522118298247143 
-0.1990647078678306 
-0.05537520537975322 
-0.7424947142522084 
0.4139607494670196 
-0.0643233754783763 
0.04994522383503846 
-0.9088046806251525 
0.8757329075836696 
0 
-0.1237368906450265 
-0.01208768022190109 
0 
0 
0 
-0.1486598567210249 
-0.06470205280701367 
-0.7730722301841249 
-0.1664016904710898 
-0.04098858546137579 
-0.05239076230621181 
0.05375648063482551 
-0.06726052665002577 
-0.111479870050784 
0.06272266808139966 
-0.1423375906169837 
-0.3248041461431487 
-0.03732419638305833 
-0.4565917100071897 
-0.1172871119310041 
0.3103015791482627 
-0.8593582723499066 
0.03632772665741162 
-0.07483449093626476 
-0.1721639821096495 
-0.003326433503925247 
0.3693747004443252 
-0.2239280346667394 
-0.006191546374040115 
0 
-0.01134276599026064 
-0.2752596967764734 
0.06440501804704007 
0.2262448970090494 
0.02945823150196427 
-0.1057218614340301 
-0.5101164242114365 
-0.01122044074062005 
-0.2175845769753446 
-0.013248196796374 
-0.01548008091722211 
0 
-0.5265760188768321 
0.009170881309717925 
0.00828322641198863 
-0.07259405100386231 
-0.006670276298706879 
-0.1882266166287503 
-0.4061621609988324 
-0.1514378826905687 
-0.05516250990552611 
-0.1914037422481739 
-0.003557187379559623 
-0.1412889136692088 
-1.102693786754562 
0.2234614309486078 
-0.04800085075715756 
-0.1054130812554459 
-0.361449595194642 
-0.0472500063690454 
-0.02498647131194515 
0.06533457361522792 
0.1406551512552995 
-0.1561915584214693 
-0.4997035625610157 
-0.14175914556481 
-0.0416567050821686 
-0.09304405249585955 
-0.1171741190664103 
0.7239282377491821 
0.1200652713317537 
-0.07065293038062744 
-1.015689006746176 
-0.2588155455206824 
-0.183756924233596 
-0.1006350456742824 
0.03860589863479387 
0.01624116148079181 
-0.2565176255758096 
0.2140798468249057 
0.07051857291788258 
-0.1578087161466753 
-0.00535611544211496 
0.2440345730314382 
0.04639732591125775 
0.1720658851122658 
-0.4885567284175581 
0.708751526215404 
-0.1640399029329318 
-0.1529812579204942 
-0.4191991337017359 
-0.08116702684842142 
-0.03914231340102731 
-0.02290015213987855 
-0.214506552403764 
-0.07874883982781009 
-0.01940639128930735 
-0.0128943441358277 
-0.01781470445025663 
0.2738740095895858 
0.146579386891513 
-0.2551954258451098 
-0.06041681448634623 
0.1099232307636616 
0.0614994675873097 
-0.003442867651708148 
0.001029147184867701 
0.0774466963718384 
1.062164947785609 
-0.02840854160440313 
-0.3795931403554564 
0.4789833628633954 
-0.003679197952255547 
-0.06173374698319693 
0.1132567813150493 
-0.07702021812681023 
-0.1456876874471136 
0.2047122583782535 
0.1058098079102997 
-0.1430738948594568 
-0.03534758086695042 
0.01767828728933913 
-0.2769026552113515 
-0.2334515265698979 
0.009848191412149078 
-0.220858656939286 
-0.7177969976543598 
-0.3485061717917929 
-0.2866334733419729 
-0.162641036238828 
-0.105859790506701 
-0.09488738145193615 
-0.003442867651708148 
0.03753930681135624 
-0.01363901716140292 
-0.0191875152356224 
-0.2816851040958562 
-0.1057952565299792 
-0.01517751210141889 
-0.001548042397959029 
-0.01136336308432593 
-0.1170967745653936 
-0.02373389813547477 
-0.06147475570786951 
0.1976936323798751 
-0.02373389813547477 
0.1286128755558849 
-0.01415636854520406 
-0.2829830409214206 
-0.0278804997616768 
-0.1007329231779761 
-0.09855183018996383 
-0.04760234419747302 
-0.03016401843719109 
0.159109741424492 
0.04621693929535458 
-0.01088984516089262 
-0.07425114426708826 
-0.6057036281891878 
0.09502336445994872 
-0.01614242680952126 
-1.191827286170412 
-0.4427615382599127 
0.008542588522700574 
0.1687413645034004 
-0.3663276024691951 
-0.1682304525836357 
0.004078084414751328 
-0.001538494940015972 
0.07485046869648411 
-0.001682099737324147 
0.1599542630736436 
-0.1597139641018538 
-1.93595194944332 
0.04757319555130695 
-0.7967377578397276 
-0.02251976637296448 
0.03586455653076076 
-0.003637491023222584 
-0.05820575479357446 
0.01695037085479933 
-0.010684872680435 
-0.1434105971704536 
-0.001846741033378943 
-0.04164009271544879 
-0.3585893222093736 
-0.005670231843532928 
-0.02551525497326284 
0.6514372398146798 
0.06733038341400945 
-0.04039690563214812 
0.6660687272632304 
-0.01864282039633107 
-0.5957501920919508 
-0.1196888214507077 
0.00500914013918469 
0.3755183053468097 
0.6022354282821644 
-0.005231465344315222 
-0.08877727904224259 
-0.9651197009469711 
0.3655808753837331 
-0.2146096705410969 
-0.1853160973876729 
0.1206860743583957 
0.7582555114007449 
-0.8385304149310799 
1.238240421161565 
-0.001396148313825261 
-0.396013059929829 
-0.2315134415736889 
-0.08898859534127769 
-0.05134647625560781 
-0.1878329669312151 
0.006886963098958299 
0.1880221917175672 
-0.01970553262007983 
0.2326556424635596 
0.6005020788889516 
0.06916186969557568 
-0.4159799298522161 
-0.6952081138096962 
-0.05729176653629123 
-0.05849444549834191 
0.04254974285583212 
2.359944393800577 
0.2620196476460795 
0.03089245435107453 
-0.06325579408086597 
-0.1656740376669754 
0.08719351399171049 
0.6403089164383569 
-0.00955528940640195 
-0.007214461368024797 
-0.001818745511611292 
-0.005505502002942704 
-0.218840846709247 
-0.1118593069213455 
-0.1591242035011835 
-0.2403936082954981 
0.1596388940870594 
0.1481234928230845 
-0.01832161002585965 
-0.04673169169434362 
-0.07477017595542933 
-0.1241855526106926 
-0.04010652958249976 
-0.2284900721269092 
0.1490255971925284 
-1.196002240862606 
-0.4663612621701267 
-0.008873427393172434 
0.2371330260266919 
-1.369772753561478 
0.2451353607491079 
-0.1357634526004005 
-0.09085555106933163 
-0.8402104139156893 
-0.03779530814845694 
0.06904854674867261 
-0.02770660116485335 
-0.004282735874475995 
-0.07266711905543875 
-0.01505855414383076 
-0.365238111276329 
-0.143294823312508 
-0.0998491109995589 
-0.230867040639399 
-0.5408991925707483 
-0.05774501085596635 
0.04402175443947535 
-0.026559059548448 
-0.2557624548144755 
-0.4229140082531072 
0.1234481111972189 
-0.01483144721395797 
-0.1110074663916818 
-0.02889088078968182 
0.1562162828446277 
0.2763813282985286 
-0.2356460997073643 
-0.07130786358626845 
-0.1591887678892833 
-0.4343954176497482 
-2.306249493548823 
-0.04085864226060089 
0.4369550649520947 
0.2060197189255735 
-0.008834283097627132 
-0.008834283097627132 
-0.05217595374812787 
-0.008834283097627132 
-0.01332298436532407 
0.3526932140297454 
-0.4905902161415972 
-0.5085178672403546 
0.243739761950492 
-0.08609312856779651 
-0.1806614009499274 
-0.1530096781668101 
-0.008209907819059019 
-0.4831855415474557 
-0.01592839694339319 
-0.3129525829756728 
-0.02335136406366842 
-0.1228015647581582 
-0.02723951269318304 
-0.009744681699808468 
0.0004084396854852528 
-0.007299062389205796 
-0.1502764277665229 
0.1068463002278165 
-0.1523387427481805 
0.06653520131225454 
-0.4484326349725961 
-0.1785670439343524 
0.1359753838690631 
-0.132351522581365 
-0.006701300317147729 
-0.6301439141603149 
-0.07997656260557688 
-0.02745772523630172 
-0.6285551063677094 
0 
-0.00794747701594652 
0.05497012449578471 
0.0528539004042532 
-0.05417637635788766 
-0.098104419065809 
0.03864700259592895 
-0.05978474710341975 
-0.05237413310968866 
0.01747270467369225 
-0.3966847356737109 
-0.04236306899161867 
-0.1404643491656427 
-0.03482688713827466 
-0.4648610068994318 
-0.02872806973788219 
0.435032775613668 
-0.6565196083975633 
-0.4099187329918633 
-0.02287242501613888 
-0.5573243274693486 
-0.04107474721164023 
0.06781239584239507 
-0.1250600059781289 
-0.1405747471375863 
0.2910951720286755 
-0.6857817057841195 
-0.02422073707608264 
0.04933355740447819 
-0.1134785031163281 
0.3051294859476155 
-0.01484673435143617 
-0.004067599267056196 
-0.01160991777373101 
-0.001575541377557882 
0.1424042729277576 
-0.01704923747560849 
0.02573144937768026 
0.7175178991447778 
-0.1467936323659 
1.914449178430958 
-0.02269684241557409 
-0.06289737614308022 
-0.03094388217353185 
-0.150921528772844 
-0.640403007393791 
0.01494483704691867 
0 
0.2737855789248708 
-0.007601349803055863 
-0.07991763263359569 
0.09022829486716448 
0.325869281275439 
0.7931601246804498 
-0.08301782285288554 
-0.01769472239142909 
-0.01701451346939586 
-0.3455833991034594 
-0.01762620541501196 
-0.07586734540642094 
-0.3707940781181253 
-0.005871664944752215 
-0.1582584759419992 
-0.02483868074731146 
-0.2697157335194518 
-0.02904270712273598 
0.1389566019187902 
0.1444676631393488 
-0.008834283097627132 
-0.008834283097627132 
-0.1021892589241109 
0.6547812050451085 
-0.1406091278054718 
-0.1248243091435672 
0.1098394609664698 
-0.0433552397874189 
-0.03165148809010161 
-0.04353471292281087 
-0.1872497510549082 
-0.7325045436108047 
-0.02039374091846978 
-0.05262557144295808 
-0.137086141152549 
0.5047012733868596 
-0.03511125509195186 
-0.3838803685707149 
-0.08127161430982389 
-0.3468928868143475 
0.01964054862685144 
-0.04370960277623445 
-0.01659151212063016 
-0.3003588809009484 
-0.0376052603931445 
-0.2097745354618034 
-0.1921868463425898 
-0.1721960989321261 
-0.1849945107404389 
-0.1231619652278396 
0.355872152755405 
0.3147887530678616 
-0.02391247027154047 
-0.1724699053621674 
-0.2682811137295867 
-0.08585684252307027 
-0.01081844627992554 
-0.1103707121178852 
-0.08556002414641642 
-0.2606288003973276 
-0.2862876273560928 
-0.1872244060518997 
-0.2373806201281015 
0.01602597583184659 
-0.004852165120658081 
-0.1086468496164795 
-0.1831635197386649 
0.01466667202115409 
-0.3200824347986691 
-0.02849581809118134 
-0.07629841393578499 
-0.01108444988353108 
0.02479850487433408 
-0.01189054076848845 
-0.2000260213422478 
0 
-0.08215578765530265 
0.5436756853149286 
0.1775966793350559 
-0.08063379562383879 
-1.554681025993633e-05 
0.4005713114721061 
0.1034572841046194 
0.02456331718089207 
-0.08863630588300295 
-0.0371147309337137 
0.008759484690420226 
0.2688046854609255 
-0.1501154154227932 
0.06390851681130871 
-0.007458265771207616 
0.05010329370251302 
-0.07805839626053937 
0.2321408222662791 
0 
-0.2839898531744581 
-0.09241204024592799 
-0.02364720018693104 
-0.09280497470346208 
-0.6320850011585742 
0.01944829441916766 
0.06042206943803104 
0.0004994110559155573 
-0.01811385989325979 
0.3491496845924088 
0.05176025484444952 
-0.1561844051633715 
-0.1961615638353634 
-0.4428530704809235 
-0.1378432434424585 
-0.01121844010240928 
-0.631932856977659 
0.7176377095170507 
0 
-0.07022126153601389 
-0.03201650141023262 
-0.1156603219408091 
-0.112024119059968 
-0.2221723041810953 
-0.08380982186757767 
-0.06135026739160121 
-0.02029874841763574 
-0.1339407543379982 
-0.09962180972514056 
0.607969957860831 
-0.1121385893666624 
-0.4818376959186049 
0.07254639744560772 
-0.01857054496544812 
0.3975309491027249 
0.05545526025495559 
-0.002896019174091919 
-0.0307831001447382 
-0.0188401715491023 
-0.1180845040945639 
-0.01440454551657637 
0.2477168403029738 
-0.05908128308429608 
-0.00408503463890502 
0.002852606331329802 
-0.003089538454434289 
-0.08636856487724462 
-0.2047845810360386 
-0.02870740403596618 
0.00893347088424656 
-0.02199854982868567 
0.4147875534262414 
0.1419140650978769 
-0.3970692723067186 
0.01901665299444091 
-0.101795286963839 
0.1015627718809539 
-0.3883522588071379 
0.07208911888357039 
0.3946334520799952 
-0.02294457556953974 
-0.1616110008283891 
-0.01360711857273147 
-0.02019284657371306 
0.08059316479785159 
0.25996708527445 
-0.09127551257518585 
0.03588727317274746 
-0.03154310819387141 
0.2290857079024303 
0.004459171620264938 
-0.1677155404408176 
-0.03247234630072779 
-0.03147750892403679 
-0.7156010824129307 
0.06657344346623097 
-0.08769416699090397 
0.1494227983212034 
1.598503515254138e-06 
-0.02506157658887625 
-0.1131009676756777 
0.002383751431720201 
0.01949746830638876 
-0.06470504152039092 
0.05270679139494613 
0.00863257807803897 
-0.01967037331079248 
-0.1498287627189193 
-0.04959173482213557 
0.3309799511359157 
-0.1705231438164849 
0 
-0.08481940527781053 
-0.5851237527828197 
0 
0 
0.4978029789827366 
-0.0001339977400351197 
0.2346457089462353 
0.008228886026133817 
0.351176409636447 
-0.1416547260904566 
0.02726075498609929 
-0.2624633252104576 
-0.5471501088120033 
0.04950631263375462 
0.1527480429332478 
0.01455818709063776 
-0.02838857456491894 
-0.0001339977400351197 
-0.1716033789693741 
0 
0.09753262176485858 
-0.05020984476336356 
0.03721307837527706 
-0.00884739240805466 
0.07887883699383572 
-0.2774065843227304 
-0.1140497811565892 
-0.03499141527937467 
0.1643027163664394 
-0.002686393376666771 
-0.01709252909563708 
0.4187383059184768 
-0.5766176866682481 
-0.1789523533253129 
0.04323265786770875 
-0.1419930227976257 
-0.4182923113291998 
-0.07384362215034979 
-0.04054696717141333 
0.1688122331430341 
-0.2685796483727819 
0.2589010372967487 
-0.01562163975534181 
0.05694543263098593 
0.03861970465818621 
0.0261362492659474 
0 
-0.06464901304136424 
-0.2004997912163885 
0.175918575109579 
-0.01460195260598588 
-0.2648618829705756 
-0.02617459703633461 
0 
0.1194841850937813 
0.3454813947937094 
0.2057443065289322 
0.0006077705580629856 
-0.1416424956462212 
0.1423240341262261 
0.004192097678936108 
0 
-0.001431233040997426 
0 
-0.02518470560105171 
0 
-0.003616625326910279 
0.4405863115668815 
-0.2026382059994154 
0.04351415296412803 
0.3007481757951234 
-0.09013039118610075 
0.1939198114977074 
-0.01359897588837498 
-1.084202172485504e-19 
-0.1024067265940934 
0.1441314481897571 
0 
-3.099956860573803e-05 
-0.04506422923901318 
-0.06415634961147282 
-0.2536437558725588 
0.01779888298974063 
0.1106579743004377 
0.4140219517733994 
-5.421010862427522e-20 
-0.001181728052407979 
0.1677618289963964 
-0.02194132308530035 
-0.1578115319973765 
-0.3027724673994843 
-0.03540642917115147 
0.4899705591005544 
0.8487722205128663 
-0.005926400889679033 
-0.01061188604798895 
-0.01115241615801235 
-0.02371740023857282 
0.3294944187935329 
-0.4948416755625454 
-0.3371129306619501 
-0.0002416634726869922 
0.2526784716147672 
-0.003573034765290799 
0.05452698830128761 
-0.0004788860646514904 
-0.01742927706055648 
-0.2904468405105298 
-0.04408987761248612 
0.08812177707750464 
0.2905293173807929 
-0.002681072592963393 
0.01870344825171948 
0 
0.2327949779141835 
-0.1879622891520571 
-0.3054428838949845 
0.01709845359141224 
0.001498233167746671 
-0.02682937217181452 
-0.0945706361061658 
0.0424147963516748 
-0.05756239712369064 
-0.00436337788224679 
-0.09831784397209142 
-0.03935755853274896 
0.0147169509532687 
0.01917412902491177 
0.0404187080115397 
-0.2251796787405836 
-0.4373924797891741 
2.230550697015584 
-0.109382897286129 
-0.004584825370611302 
-0.01311918617758298 
0.1123556716194772 
-0.07384724211320665 
-0.03786087304418065 
-0.2861497928015258 
-0.1697397658332052 
-0.04882214980940442 
-0.04730067905014945 
-0.02603134430519833 
-0.07427523892301235 
0.1769489790321933 
0.02050127222817886 
-0.02656142319777709 
-0.01736240027149924 
0.01141132013276417 
0.01464560349738026 
0.2973261186890944 
-0.002406360128335668 
0.02421012607619862 
-0.01137503530365685 
-0.3831227583571989 
-0.1950330921000818 
-0.2732474313550572 
-0.03203686000848906 
-0.05837304461057238 
-0.03338437063330254 
0.06863127463278874 
-0.2140606805922191 
-0.4884039586438616 
-0.1481795328630621 
-0.04016646478824447 
-0.3870708464636966 
-0.2016938453582496 
-0.01424177271457932 
-0.09774627902608152 
-0.01518864738488867 
0.1307418851631271 
-0.1281389505832167 
-0.0746475707987275 
-0.01155247953889509 
-0.2110699422874107 
-0.02305970227500844 
-0.2205322031670828 
-0.03118618464972606 
-0.04945024198069595 
-0.4799538574278879 
-0.03048720877544419 
0.09419767316596571 
-0.01591410576128781 
-0.01769753093489846 
-0.126041780595347 
-0.03460084988403507 
-0.1063619621800709 
0.03000333695408559 
0.03797189662652432 
-0.09266131017374744 
-0.2870229539822063 
-0.08807214703348379 
0.295615803218186 
-0.065392554513677 
-0.2245140111225938 
0.07320096465764127 
-0.03668940710422047 
0.3345601087309966 
0.2266994833790093 
-0.4807059986541517 
-0.1853955887750936 
-0.1065498068117088 
0.03714486724676856 
-0.1105104711685605 
-0.02466381602992939 
0.122479629228592 
0.2871468343312388 
0.3467840677915184 
5.829575126156377e-06 
-0.01772814275295962 
-0.9055165573552748 
0.03905181647069488 
-0.008307167494022402 
-0.07664348429253941 
-0.01931497540114681 
-0.1271782417902758 
0.03341134975266523 
-0.05597694997955082 
0.001552734016870404 
0.06272633516542178 
-0.02581979189487661 
-0.07298655861474428 
-0.01797825590657387 
0.003575665341588308 
-0.0191582225800792 
-0.1273603016710548 
-0.1869100994809836 
-0.3374661435448958 
-0.1889274415967982 
-0.01811948525133917 
0.1136231938417961 
-0.7536964832792094 
-0.01131292960291769 
-0.01130885886510859 
-0.09700377402738451 
-0.00580477819072582 
0.0006381398520817576 
-0.1535977756016851 
-0.01754934391185658 
1.047632864235237 
-1.224145592532362 
-0.473286965126349 
-1.146830256118843 
-0.008684188288267109 
0.4158681206904116 
0.4918406935385907 
1.734723475976807e-18 
-0.07678722955944878 
-0.08886392743834456 
-0.2775207095079912 
-0.07678722955944878 
-0.5212618808556895 
-0.5246103276448922 
-0.526827411829479 
-0.3410348418144291 
-1.473913773456222 
-0.02057321820437758 
0.02296163567778208 
-0.4136648999456108 
-1.041369207517362 
0 
-0.01658351811356783 
-0.2297153762185771 
-0.211234806547942 
0.01783314498023934 
0.5513540932499299 
-0.005698056244994234 
-0.4492879205476689 
-0.08187916026403327 
0.02423930101235854 
-0.0007805919789607295 
-0.00275990656532463 
-0.09750514553394653 
-0.2980237458286341 
0.08012992064211671 
-0.02121423527566555 
-0.07375659647736413 
-0.003524815925287141 
-0.02140965153482633 
-0.1993156129803513 
-0.01693751634820747 
0.05580215515987819 
-0.2591958229389438 
-0.1422266322400663 
-0.103346629876483 
0.02798370303169845 
0.6582248916905334 
-0.231064617219404 
-0.06388648334749937 
-0.01822066278440338 
-0.089071898285827 
-0.03783226023135694 
-0.0002213628075025961 
-0.01875771728090408 
-0.2046346941104756 
-0.07228129261481762 
-0.07603878202806592 
-0.1330118603798975 
-0.1281574797774582 
-0.1552618801991155 
-0.3283551673441475 
-0.1350145811422908 
-0.0766743232349939 
-0.0835540915764964 
-0.09013896001073511 
-0.09187736796848255 
-0.0705122557103849 
-0.02917313388199396 
-0.06833522178220747 
-0.03904569506423833 
-0.08081189427187697 
-0.02230690542890772 
0.04834153775714858 
-0.05460006031895852 
-0.02806706501825116 
0.0919993822355131 
-0.4706775086219964 
-0.2681535108913597 
0.3484471547119884 
-0.1983807050418724 
-0.03195194763411436 
-0.08690465307238412 
-0.03398364085953238 
-0.2578639871383818 
-0.1160116354214228 
-0.1534426693819081 
0.1763144975472063 
-0.1183140997780286 
-0.1254513332899861 
-0.0261285440767337 
-0.03172333359359709 
-0.03677054169770157 
0.1397220013216536 
-0.02806706501825116 
-0.02806706501825116 
-0.03544397583718412 
0.0534644569595916 
-0.004095999455650646 
0.6214843006699853 
0 
-0.1131867445244404 
-0.04660458172764295 
-0.1041733739825706 
-0.4604006021659867 
0.7619370261880866 
-0.2040319654792247 
-0.03677086486898918 
0.1021018391135227 
0.05382137864990044 
0 
0 
0.05389424367362976 
0.3580759733212553 
-0.07545145250431629 
0.05614187457878202 
-0.2195219241020707 
-0.005301185331131884 
-0.1405613758500921 
0.0867028161098671 
-0.5503624455146526 
0.1025117457497874 
-0.1804002334317954 
-0.1866062560249474 
0.1325101876067196 
0.280605156098817 
-0.004412745580220535 
-0.03166145009636803 
-0.007056499007497159 
0.001958033579150543 
-0.08289251317605448 
0 
-0.001662671396931736 
0.2751016778002259 
0.0399318062435662 
0 
0.01301242725446165 
-0.04160865514862237 
0.3166723143713112 
-0.1674966326093055 
0 
0 
-0.05893750417772523 
-0.4895270299605204 
0 
-0.3401373694361899 
-0.1599888339190098 
0 
0.1843277302828467 
-0.04456859964630203 
-0.3709717915706739 
-0.0704826953004757 
0.286938421991614 
-0.10295564088504 
-0.3686145161283285 
0 
-0.03511094496112713 
-0.03511094496112713 
0.0151384907667231 
-0.2252144425943803 
-0.2743443281055696 
-0.6469249228895965 
-0.03511094496112713 
-0.1841752264966925 
-0.0405613924421814 
0.04939918665552848 
-0.1838410835285738 
-0.2753849596553167 
-0.3626069561426911 
-0.1349340286256146 
0 
-0.01205389108819506 
-0.01205389108819506 
1.187527058886694 
-0.1149176049017054 
-0.1119066689829263 
0.03155419153537259 
-0.06198808733221384 
0.0243136739870637 
0.1083079654333944 
-0.04710007124899045 
-0.01350157206942607 
0 
0.01457603181537539 
-7.754091466201817e-05 
-0.1433516124207041 
0.5223646250924279 
-0.00111947229964787 
-0.1726588026978597 
0.03035476805649868 
-0.2409000115980712 
0.05589785908856333 
0.1731999054512846 
-0.03290550398538907 
-0.4089040881715993 
0.05625024260023837 
0.8604444303428127 
-0.05912996909040714 
-0.0226898840697465 
-0.0883279798954158 
-0.3868245694013411 
0.113221290606613 
0.338874776974636 
-0.02392779568762338 
0.003788988387328599 
0.0229606708093371 
0.002378860399952061 
-0.1544820428635117 
0.02577156981775034 
-0.07235663749849112 
-0.06121592652039722 
-0.1510437383702787 
-0.1283021430142908 
-0.2958071844035803 
-0.05034791279009289 
-0.1519038714005427 
-0.06177272797795411 
-1.040822549929062 
-0.05398260757007104 
-0.04204200168343377 
0.01291557999894726 
-0.03535712744786344 
-0.03535712744786344 
-0.02198737897672279 
0.02741636137498485 
0.0109336600986853 
-0.0283309978646403 
0.1070828756549746 
-0.08870209468941385 
-0.01336974847114067 
-0.06519285717907371 
0.07163570112971684 
-0.01446709665149383 
0 
0 
0.02615241507464011 
-0.2287261380181374 
-0.07823016742253489 
0 
-0.2140977659651588 
-0.07823016742253489 
-0.2863744156536894 
-0.07823016742253489 
-0.07823016742253489 
0 
-0.413162822351998 
-0.6779567885694242 
-0.1996582878163772 
0.07561005897194284 
-0.3072596799823122 
-0.1281709160531554 
-0.02007148697256374 
-0.07086325636092178 
-0.1861070382545443 
-0.02061096254488204 
-0.2082332846609374 
0 
-0.08736760497275332 
-1.147607245083139e-05 
-0.06241516577291835 
-0.03888480354830631 
-0.2585176738004549 
0 
0.01983721301267629 
-0.03694371785984801 
0.1509719704118243 
-4.070737809104942e-06 
0 
0 
-0.3719680258138275 
0 
0 
-0.04713871338761123 
-0.1575750415591648 
0.06762774093937181 
-0.2494978472541995 
0.1290159217889491 
0.1633684087879917 
0.06070548534122718 
-0.5153234913988275 
-0.00108336426324241 
-0.06393465439207315 
-0.7876050163414067 
-0.1894689426434048 
-0.7299035880405833 
0.005339533349783774 
1.828123099926128 
-0.1106072480809196 
0.2209981413392717 
-0.009793935801121723 
-0.02483628766355672 
-0.1525265745932924 
0.02410732718404464 
0.02872918094918297 
-0.004588743690466976 
-0.1789888160005713 
0.03761255473279605 
-0.0551386441292661 
-0.3807194394280036 
-0.03273669463178941 
0.1641913523746545 
-0.06494837766491847 
-0.1334389762703402 
-0.4072304304914739 
-0.6657793003753465 
-0.0816425193878232 
-0.07507770240531478 
0.1055492038830039 
0.006825484132806914 
-0.03315552501471153 
-0.06933549868885849 
-8.001724986943016e-05 
-0.3469506051088247 
-0.09255583671829984 
-0.01145200550699588 
0.823342107508241 
0.199061029806863 
-0.01616091888507909 
0.6936627389071822 
0.05222052624103082 
-0.04849274587176037 
-0.03480597765788523 
0.2837807453594707 
-0.3263275720301572 
-0.2355914265696126 
-1.173251525498735 
0.1072270921671032 
0.3687564437691627 
-0.08948214396284387 
-0.04660021991193722 
0.638585198182847 
-0.1922628255770003 
0.5976326264335815 
-0.02281839310875322 
0.07967376846342829 
-0.1415765130661528 
-0.05957774687150349 
-0.02958314841071842 
-0.1898412683919262 
-0.09479019177074383 
-0.1150666168746505 
-0.04610726540625272 
-0.1343953460311794 
-0.009322635717138865 
-0.03484245474474334 
0.05227171483049193 
0.04726759202823017 
0.001551397492612861 
-0.09436569784650564 
-0.05051062486217479 
-0.05051062486217479 
-0.05051062486217479 
0.0316896161129121 
0.2012484303823953 
-0.06294349484480738 
-0.1617532379172187 
0.1261407644795359 
0 
0.1069163576839459 
-0.05513162779661278 
0.08111587888002253 
1.057580860182273 
-0.01970704305803147 
1.753827322109658 
0.1149145595530996 
-0.09698571402244915 
-0.05555721742389181 
-0.1107631665315347 
-0.1982133618485435 
-0.05576824439945727 
-0.1997305700412489 
-0.1176338863751909 
0.05691715362948164 
0.1651623663119756 
-0.01854590178865814 
-0.02211995903443188 
-0.2023704858030385 
-0.01854590178865814 
-0.01854590178865814 
-0.033723036419601 
-0.01854590178865814 
0.00559027047537791 
-0.03665608325985537 
-0.1255599803237293 
-0.2758323624908 
-0.07400079041136841 
-0.1177081984576759 
-0.0766044673483917 
-0.03260617378938696 
-0.002134793244219329 
-0.05795968026064338 
0.06744748113214109 
0.1949604720634707 
-0.01854590178865814 
-0.06460858150423422 
0.1145185244018648 
-0.08500090792454017 
-0.01854590178865814 
-0.01854590178865814 
-0.04115018800665567 
-0.04481620741885343 
-0.08497021519049289 
-0.1749703003430625 
-0.02847514965179099 
-0.346963339795797 
0.1248600001196549 
-0.7962534595962392 
0.3151034983818436 
-0.1267525986693103 
0.02077723956425991 
-0.6534432666694286 
0.1927237198808021 
0.6954816993447561 
-0.008389292539841713 
-0.04292291490086565 
-0.01639799712366448 
-0.0547368801136142 
-0.3606306844161258 
-0.01493873580628448 
-0.001652270313245334 
-0.04580129206203088 
-0.1598122615395022 
0.1374701503808918 
1.065605726800153 
-0.2530117679731063 
-0.001652270313245334 
0.04017293082609392 
-0.00684691050075691 
-0.05123155752926833 
0.01318806529746442 
0.07874028303535838 
0.01792407772514469 
-0.1362477689977363 
-0.0572014856797811 
-0.04293575906515987 
0.1463383100120029 
0.2190521471534179 
-0.05466715666921491 
0 
-0.01066603101094718 
-0.006408324380872251 
0.002311000339096447 
-0.3375993936952376 
0.1015266660074915 
0.1453462945890225 
-0.4186864745556564 
-0.3037466543340823 
0.1224397822516416 
-0.08552109320135061 
0.07520045153418126 
-0.08307697108643064 
-0.0448736521799966 
-0.07250607667626729 
-0.0911015293097254 
-0.1435549394166986 
-0.001657009673497278 
-0.1282852407477844 
-0.04853717623195137 
-0.02047384690300099 
-0.006130767443264214 
-0.03166145009636803 
-0.1252890937362243 
-0.8545993215354141 
0.1991737430314855 
-0.06373930391906117 
-0.05732172746107821 
-0.02460495108887088 
-0.05904558849989181 
0.00403773399550434 
0.01330511445787542 
-0.02347526268588413 
0.07503773915112379 
-0.04029933757060393 
0.08617113408446583 
-0.1268854297035516 
-0.1836993973866063 
-0.2171632808657708 
-0.004659190737798989 
-0.0956979255979877 
-0.03506000357043254 
-0.03448400057004164 
0 
0.6845365764164405 
1.240854025311538 
-0.05590194274842571 
-0.09061101178858118 
-0.3359237927195317 
-0.1617685390081735 
-0.04420237471855688 
-0.1498757056486336 
-0.0317213574258879 
0.05827569397399531 
-0.006193511301192944 
-0.04664148830828638 
-0.06205188935255322 
0.01299366368987435 
-0.01142959510160452 
-0.157879088942596 
-0.02964704300465548 
-0.01294541061381697 
-4.070737809104942e-06 
-0.00901060676367707 
-0.008709402150004606 
0.07154030822517198 
-0.09437146107451787 
-0.4177802731686126 
-0.07235572246566312 
-0.1970914679685584 
-0.01364195872818659 
-0.3446081764679665 
-0.004235290209443376 
-0.03902944512284409 
-0.0660472158265641 
-0.02394627716455059 
-0.001505001101788219 
-0.2038443469700695 
0.01960925352952024 
-0.0890140237652642 
-0.001505001101788219 
-0.07263119308583928 
-0.1153494923982172 
-0.1332838246650116 
-0.001799901940356917 
0.1451550050772764 
-0.2599597136603069 
-0.6121175186474433 
-0.09020815848753044 
-0.1353122377312957 
-0.01673812546123692 
-0.0673429646211923 
-0.04510407924376522 
-0.05000926175619513 
-0.04518362342505511 
-0.01488798268307865 
-0.03368232874407803 
-0.1781567785148475 
-0.0253325761317909 
-0.008572086647516337 
1.058730586956518 
0.2043085560496008 
-0.02078896441134516 
-0.04801324393980854 
-0.01048220824924234 
-0.0109816193051579 
0.2018348618723001 
-0.0109816193051579 
0.002416783585839073 
-0.07871045835791524 
-0.02200091306693403 
0.1122759186410876 
-0.06266913932856528 
-0.0789005245268094 
0.1302470787852674 
-0.05532347918112261 
-0.0008638327633637827 
-0.004470407538039325 
-0.2553466795078702 
0.1038074310838577 
0.1857458715410821 
-0.01398888451194871 
-0.00638386314611884 
-0.01020743473350051 
-0.2172352412415334 
-0.1625478300894651 
0.0479534800053129 
-0.1938627484945063 
0.5232345406736831 
-0.06289377944793983 
-0.2406843938365651 
-0.1670839979777611 
-0.004960166130715335 
-0.07373455873605944 
0.01953703824238504 
-0.2856765866287905 
-0.1327607375423558 
-0.01356555695400173 
0.002464832830701465 
-0.1526323448985737 
-0.03461564685928492 
-0.1353065622804444 
-0.02713930048098498 
0.1083156989103921 
-0.006504732677233856 
-0.05175334003351439 
0.01788324073776437 
0.1268440485676972 
-0.03878005748119239 
0.1392522439569233 
-7.658167811838481e-05 
-0.01612292560078369 
-0.02255200629464304 
0 
-0.3385132627517463 
-0.05525440483877895 
0.02125389422827125 
-0.06340769567357302 
0.08426446774629594 
0.01591090252721657 
-0.006337755471555249 
0.003326049440127795 
0.1007141482964244 
-0.07809139565368982 
-0.0233226238917635 
0.06707421382273407 
-0.05047677814761307 
-0.2122413675125461 
-0.03081178508738194 
0.06379973115439233 
-0.1282771763265108 
-0.1233903224667719 
-0.04792760444060516 
0.1564117036000048 
-0.02737525588150973 
0.1407222127727575 
-0.3706814883642933 
-0.02394681822653505 
-0.003991136371089173 
-0.132403989783159 
-0.6270613532055717 
-0.003991136371089173 
-0.4093109515524007 
0.00115963057361635 
-0.01830065102456321 
-0.06586344895460743 
0.2133952896689759 
-0.09767645658087565 
-0.03150109890127852 
-0.001249392671757963 
-0.003991136371089173 
-0.003991136371089173 
-0.01046273852417246 
-0.003991136371089173 
0.2735737776160285 
-0.1395542444910756 
-0.01740265993673052 
-0.04861882660414017 
-0.1435991843158319 
-0.01274782979436188 
0.03684294619511277 
-0.03790922446195254 
-0.008783798457787716 
0.07149864796121864 
-0.01377834029657593 
-0.009994595600611618 
0.01790567508398231 
-0.1739209518016144 
0.06430144075224514 
-0.03911524067814563 
-0.04594675167506144 
-0.01470395311357212 
0.003097965000954885 
0 
-0.4027368339618945 
-0.03986742082081701 
-0.1279785541530811 
-0.03946508450325425 
-0.1204889156908449 
-0.0464098613855688 
-0.0470817071653352 
0.07501135881981487 
-0.01031443406546805 
-0.01205389108819506 
0.03573868901859636 
0.02887105993053766 
-0.01205389108819506 
-0.3240032077592273 
-0.1550218956695856 
0.2182675822670345 
0.2923233635208163 
-0.004680209770370698 
0.1284633419668984 
-0.01115327853439345 
0.1527767855077506 
-0.1759024953843686 
-0.04790428066466476 
0.03681563188138893 
-0.01625036344238084 
-0.02969014490525756 
-0.01205389108819506 
-0.2518250730101443 
0.01302878831575881 
-0.07538594217414075 
-0.04966596697868977 
-0.01477937891486481 
-0.1035842076479395 
-0.02219201671994777 
0.200638877559466 
0.0164210590592237 
-0.07827726964814896 
0.6561486075800048 
-0.2791034566084981 
-0.05436718852308803 
-0.01334734424249621 
-0.1245549973508639 
-0.2411117369974784 
0.01942476860595198 
-0.5070780401841236 
-0.06376218249184726 
-0.1125321322665409 
-0.2378557197764311 
-0.1029800553312397 
-0.1592380545871178 
-0.01848089246048499 
0.3541801045774279 
6.32080369278147 
-0.1311749601416507 
0.2106080683903496 
-0.0389396547575673 
0 
-0.1827762773691413 
-0.07787706699714066 
-0.07787706699714066 
-0.07787706699714066 
-0.07356626607121711 
-0.2336753345211627 
-0.0073916005499001 
-0.02719795177674996 
-0.03319773897370949 
-0.02719795177674996 
-0.03171046219172058 
-0.1031484348142186 
0 
0.003032569092303178 
-0.0001616647206190023 
-0.1030966723482614 
-0.02307425428242025 
-0.06330799045527523 
-0.2476944681188228 
-0.10633016897709 
0.003562839429603764 
-0.07215422653160629 
-0.005838842199141892 
-0.01359897588837498 
-0.04381013675586842 
0.06255662419357931 
-0.01413950599839838 
-0.01359897588837498 
0.02028965851131403 
-0.6363593736385483 
-0.09416829966554191 
0.06012783038941157 
0.0663821016726647 
-0.0007279440820223779 
-0.0271979693459266 
-0.06364204156567045 
0.03518947972240319 
-0.02592467521690846 
-0.006056445335306622 
-0.1185348194722439 
-0.001876187282157395 
-0.006056445335306622 
-0.06252212557573909 
-0.003028222667653311 
-0.2774996145629782 
-0.01273334967225108 
-0.1046469719310855 
-0.002567276588571245 
0.1345759469172302 
0.1345759469172302 
0.07472369302307631 
-0.2038004164247886 
0.008628688691125146 
-0.008766132935066423 
0.01610315077681507 
-0.05964676241419237 
-0.0542770387864062 
-0.06927725464908027 
-0.006250362842132562 
0.01036219688171289 
0.221903835082347 
-0.08322725502900918 
-0.2320792037006029 
-0.01822977025723964 
-0.04214028769745674 
0.4479626287665442 
-0.02504215337649934 
0.003535242243979139 
-0.1545404432332416 
0.3556705994178933 
-0.02376556428904824 
0.1796030549003681 
-0.0136247662385194 
-0.01491299191958478 
-0.1979958285210243 
-0.03072363891415067 
-0.006812383119259701 
-0.2325588669394746 
-0.001427332674188035 
-0.02313015897770924 
-0.008890217581387048 
0.05548405390712481 
-0.0204196487019204 
-0.112023169090704 
-0.1813040130952692 
-0.4194494454751443 
-0.01836697151447105 
-0.005276233429275073 
-0.03121625813247233 
-0.05456780122097737 
0 
-0.002612026626109011 
0.1340068418648478 
-0.01418371630375572 
0.01573746790568525 
0 
-0.02034224983037226 
-0.01668717385539663 
-0.09557147911532586 
0.04837714856194763 
-0.1047270039599153 
-0.006669397041465298 
-0.01380284534911944 
-0.0161520356481804 
-0.05880525828512607 
-0.04844902847839855 
-0.06529701771258195 
-0.8329269844860535 
0.2302944496171895 
0.2530291394928513 
-0.08118809724975451 
0.05897014474131233 
-0.08622061900316473 
-0.2117353341971028 
-0.0600116495284047 
0.4742334645665121 
-0.03106954123194653 
0.04425935278944375 
-0.06106221119513644 
-0.05243178582408936 
-0.102977592303629 
0.02726212802578157 
-0.001006626895757436 
-0.07312847030162253 
-0.1816592711793197 
-0.4198262978615187 
0.06641365205908817 
-0.1783887959052122 
-0.01462569406032451 
-0.03669419233770291 
-0.01065486599127522 
-0.01113924843613806 
-0.01868025050061504 
-0.006437385671662322 
0.01300659485170534 
-0.05117486439617838 
-0.06190183583449235 
-0.01440613571897031 
0.05867722505006587 
-0.003691448343610655 
0.02304163669735183 
0.2629484275394163 
0 
0.1444359729570346 
-0.180214026576203 
-0.2327402238735299 
-0.2879889592312384 
-0.1960889650338608 
-0.1802029838470202 
0.1070406377491862 
-0.06436652097152179 
-0.01065486599127522 
-0.01166541019770551 
-0.01065486599127522 
-0.0988861340024902 
-0.01880815682606928 
0.06690523068475786 
-0.03313741244676172 
-0.07589224123796441 
-0.04612329137731249 
-0.33163251620415 
-0.01753027336710315 
0.4260481251089422 
0.4442221094740238 
-0.05932638809621083 
9.103669113167595e-05 
-0.03980939904963567 
-0.2669325946826303 
-0.04147024184432236 
-0.04473395836165616 
-0.08380564570086282 
-0.1116165483232183 
-0.1423125892617456 
0.2163689277783373 
-0.06640922040223562 
-0.0338936540867634 
-0.06653325992349018 
-0.06942382635731008 
-0.07229336532943725 
-0.01400824787234739 
-0.02223059006647175 
0 
0 
-0.4264828131790697 
-0.03256852905888722 
0.1826216240274982 
0.3035274267061359 
-0.1059090616489429 
0.06996891495492739 
1.41704213081303 
-0.02809986389830892 
0 
2.801120113720137 
0.2833720023173398 
-0.04533271131469642 
0.5600997959948247 
-0.05616109744938595 
-0.04933462406279732 
0.1758422301386306 
-0.154139503230496 
0 
0.02695883103061942 
0 
0 
-0.03354409771633275 
0.1526297123625966 
0.2841894814571186 
0.5234813855558746 
-0.1966819346817666 
-0.03354409771633275 
-0.01677204885816638 
-0.02566847489031023 
-0.03991794664454677 
0.009424016562757605 
-0.05268083229496177 
-0.02226955949136475 
-0.02445159154757173 
-0.04024642042780088 
-0.4005669517695333 
0 
-0.1984842636434501 
0.006420919399373845 
-0.4716381322112776 
0.2239641060824044 
-0.1294176591789555 
0.01931324832873778 
0.1091816269444569 
-0.7013069163462203 
0 
-0.01562545351168298 
-0.003406952322005189 
0.2244899382998676 
0.002333196711873751 
-0.00799101460589758 
-1.430414250111643 
-0.06328089130943437 
-0.05451249825748153 
-0.0503505789346997 
-1.455398394577701 
0.04408634627896803 
-0.15754696968059 
0.07105808074458816 
-0.004084651227976837 
0.03118373642398311 
-0.003911840098054698 
-0.02865688027237004 
-0.05524162096281041 
0.1178260239691749 
-0.05254127049780633 
-0.03129731689222753 
-0.06393383778754143 
-0.02390090967475313 
-0.0238843902254363 
-0.02438496463712954 
0.09240907929873345 
-0.05243531095766929 
-0.003172702162656797 
-0.0127237132848243 
-0.003096755650596472 
-0.03493935635981299 
-0.1161888281386965 
-0.004242498051004711 
-0.2250832186946797 
-0.007682264294177029 
0.2025916330582433 
-0.001170052442592675 
0.004172588939113784 
-0.5785193525844199 
-0.1979054624920687 
-4.070737809104942e-06 
-0.1138539079725184 
0.9714060429641626 
-0.3267343263729829 
-0.2682739929000774 
-0.1978417778707651 
-0.05565745293968304 
-0.4609724884019872 
0.0543974278641082 
-0.1449670786348229 
-0.008382110558299939 
-0.01070941548168791 
0.004246221690663111 
-0.01364535434727353 
-0.1192843686531391 
-0.05087108189137726 
0.05881819205168095 
-0.02091424115299041 
-0.02091424115299041 
-0.02091424115299041 
-0.02091424115299041 
-0.02091424115299041 
-0.02091424115299041 
-0.9516607484923786 
-0.06266401538478039 
-0.2568431946041806 
0.004087087268475846 
-0.1173080185748312 
-0.1525097307026933 
-0.009205563820401009 
0.03299915785864001 
0.1830875577988117 
-0.01830995393450464 
-0.2026397058735034 
-0.0901686865801065 
0.2003371093106949 
-0.07908527743575774 
-0.0539676790734358 
-1.035744090696763 
-1.071002436849712 
-0.9183428191093196 
-0.4251725084996945 
-0.03587345286643544 
-0.04716260105487356 
-0.4359478463756561 
-0.008054165379984397 
-0.01438131984545798 
-0.03589081268884784 
-0.3760351837787135 
-0.08573833159304424 
-0.05390973550814687 
-0.2483697780744175 
-0.09942379109253727 
0.04841744984746733 
-0.05739381736001627 
0.2846936662338878 
0.2210444602663631 
-0.1631690126367573 
-0.003812360751615485 
0.1574812260396239 
0.02076513616694037 
-0.005416071360497744 
-0.08974692756288953 
-0.01205389108819506 
-0.01370373942688014 
0.06051943944482673 
0.122590339102932 
-0.155622210800056 
-0.05106094047001485 
0.1178784465041136 
-0.03874912212660019 
0.0284751347447385 
-0.21134820005985 
-0.04049153320525883 
0.02468744543107747 
-0.04749280408197674 
0.07946227776016632 
0.2187061853806115 
-0.2146176796527332 
-0.09342258442919506 
-0.07507880804756265 
0.03607440421450985 
-0.01267188191729022 
-0.02577986191644752 
0.4196520439737041 
0.1997126210644319 
-0.1955715497929829 
-0.3158199205305898 
-0.2865387812232913 
-0.001060036777131427 
-0.08079104837272515 
-0.002154688532821864 
-0.1845273640933739 
-0.0004250459698796365 
-0.1093559495943623 
-0.04474176916733715 
-0.04384628364497492 
-0.001328176845015577 
-0.007414379116468832 
-0.0002213628075025961 
-0.00110681403751298 
-0.1278750691305313 
-0.03919362935228744 
-0.04394910637845851 
0.1532398101425475 
-0.2559220438766882 
-0.1552620056577733 
0.02404125500386185 
-0.1041823247210738 
-0.05088323654793028 
0.04190609394947901 
0.03869685289387474 
-0.0002213628075025961 
-0.1410638566243437 
-0.008143312193574581 
0.2188846953643135 
0.01855925447679482 
0.03915950965254649 
0.04118727649740759 
0.2437086430259498 
-0.01987801191446655 
0.1383761488099599 
0.04061300186984885 
-0.04946852649494431 
-0.02281248966300503 
0.1563522047186956 
-0.1300340762002388 
-0.07684222866066846 
-0.01945241580731977 
-0.0004427256150051921 
-0.0681139272269828 
-0.3852592605425352 
-0.0650931792762225 
0.2174757851202996 
-0.01982293544381119 
-0.008910564921881555 
0.06048286927003725 
-0.0002213628075025961 
-0.07922938068333907 
-0.08383859192005201 
-0.334375346982638 
-0.04026728310955128 
-0.003246078520209918 
0.05632532658519961 
0.02468421970009134 
-0.340031412039412 
-0.002434990882528556 
-0.1475027482828157 
-0.08165530782069665 
-0.1559507734101994 
0.1335189613713339 
-0.1268206521147965 
-0.01831256646781433 
-0.04552016374863248 
-0.1278568711039518 
-0.005464404020157909 
0.0131205119299789 
-0.0811312567507656 
-0.0406091801805586 
-0.01828286488383474 
-0.0008854512300103842 
-0.0002213628075025961 
-0.0002213628075025961 
0.1388730123681182 
-0.01165966813995964 
-0.2216060354320961 
-0.606811135277567 
-0.09826548029760293 
0.2506721219698556 
0.1143562273790904 
-0.0719827230897755 
-0.4252521385424036 
-0.008949818390178541 
-0.002160299618963546 
-0.2010641453767753 
-0.1355815379702224 
-0.1157286729471546 
-0.0260561388528237 
-0.1093840669878506 
-0.15234405801014 
-0.1055760789006256 
-0.07267149103456122 
-0.08531089841554519 
-0.3521600585410373 
-0.03111993545674032 
-0.001799901940356917 
-0.0002213628075025961 
-0.005666461997390248 
0.02781580964019974 
-0.0221054318326217 
-0.2779616899587291 
-0.006856112312680553 
-0.05046565614707532 
-0.02526255511480694 
0.03563219895534387 
-0.06721046009162263 
-0.0004598353404305311 
0.1760483977608593 
-0.1732134014042433 
-0.0002213628075025961 
-0.263027247467074 
0.01814210661213844 
-0.004647619221791331 
-0.06704431060387546 
-0.1532055862040648 
-0.01863393257676831 
1.443281742728201 
-0.007762792852661808 
-0.21722334711255 
0.01498635089294409 
-0.02454567053197195 
-0.0002213628075025961 
0.0008226944156227278 
-0.226442208821205 
-0.1091818068765775 
-0.04853367644938974 
-0.00853247626324307 
0.02673172817543038 
0.6373689679630319 
0.08868777792193783 
0.004782050904728546 
-0.009259507341431746 
-0.02771890979792937 
0.01875392597228419 
-0.03752433643035277 
-0.003228237843363689 
-0.04158516637442491 
-0.006320668590206937 
0.08781073393955882 
-0.0007618929175259923 
-0.2641682564995156 
-0.0002213628075025961 
-0.0002213628075025961 
-0.09425393372764028 
0.01795878049020454 
-0.08161941519092555 
-0.05429356550711778 
-0.06095689971774436 
-0.05019416129067369 
0.2779016506208187 
0.01785314949731521 
-0.03793859083051011 
-0.03529593680623624 
-0.0002213628075025961 
0.03595943984977822 
-0.02196488074301156 
-0.003770381319912335 
-0.3083665215043379 
-0.0002213628075025961 
-0.02839450045387509 
-0.01937346738957955 
-0.01315848406776168 
0.007056571800589494 
-0.0488081282983422 
-0.05293760419439945 
0.1469132931621853 
-0.4245939247499078 
-0.04431965224201861 
0.0529717461949326 
-0.1035590052442245 
-0.08055853321522183 
0.0009390321777507403 
-0.01016830784476623 
-0.02816965008975214 
-0.139252261266923 
0.1436578512659035 
-0.007359614430845359 
-0.103243368691327 
-0.332463425367363 
-0.3886418325562923 
-0.02011468082404884 
-0.0319566387534341 
-0.02292380733216489 
-0.08446918849682564 
-0.05921265705139392 
-0.1254709837095207 
-0.1737381768100545 
0.05172672320007779 
-0.3165593195099496 
0.04585898795621533 
-0.04133759960513476 
-0.0003790783310330443 
-1.554681025993633e-05 
-0.02242802982038259 
-0.03639975987272081 
-0.003387264708105578 
-0.0260536203654538 
0 
0.03563983930354141 
-0.00483077535314134 
0.01647754114538646 
0 
0 
0.002439469735862415 
-0.06112852666446112 
-0.07985748308175193 
-0.01043690953015352 
-0.003850529168485305 
-0.153791377217783 
0.01283382209775089 
-0.3302350601650081 
-0.04146364315776589 
-0.02540988834356004 
-0.08502529666015951 
0.6731327100941339 
-0.02542136441601088 
-0.1275417730861807 
0.04583731011283136 
-0.01436475610445635 
0.3328408769688083 
-0.01270494417178002 
0.07124871135615378 
0.08222064801988443 
-0.04539754388325878 
-0.01290315061402311 
-0.3133315673050924 
-0.004708441981265968 
-0.06171824911402524 
0.04011481413574189 
0.01871948309863445 
-0.04402743076023847 
0 
0 
0 
0.09872545617001 
0 
0 
-0.05258876916349181 
-0.02690351714370587 
-0.03627375426511691 
-0.1298096887614284 
-0.05721698125943546 
-0.0912168339588625 
0.1028449064610247 
-0.005438867533694845 
-0.6829447220740971 
-0.07048208273800097 
0.009177537883041674 
0.2047710968014163 
0 
-0.06187101688361297 
-0.2538924329165689 
-0.02316193768104464 
-0.05945373670004935 
-0.02004565715073662 
-0.03631982832388535 
-0.1572173799255588 
-0.02795205278705508 
0.07369256726451578 
0.2933894262562238 
0.0277714607967276 
-0.00910862462139179 
0 
4.065758146820642e-20 
0.08234259398604801 
-0.01087916482450841 
-0.02356257002518744 
0.1102863372121134 
0.1447784604551549 
0.04894680650535788 
-0.08317686438422776 
-0.0585448786545903 
-0.02927243932729515 
-0.1937624632483524 
-0.1409138397697242 
-0.1557726302480609 
-0.2195147753940154 
-0.01250713211695511 
-0.01250713211695511 
-0.01237837000097764 
-0.01285531506683351 
0.01308895296976333 
-0.08683472733024342 
-0.04689285883205876 
-0.2914394604207503 
-0.005140631812512195 
0.03759987765265935 
0.3529096313383465 
0.07581279284450342 
0.1172664853721132 
0.1104935761149133 
0.006162814546531221 
-0.01285176505720526 
-0.007578727200403464 
-0.0144779572614788 
-0.1392161823151257 
-0.04099305343159228 
-0.2264454683414998 
-0.0430883906211216 
-0.01938900006119487 
-0.1183821561598491 
-0.03824569036899591 
-0.03153509658958744 
-0.01576754829479372 
-0.04213052880355793 
-0.01932637801536427 
-0.03110556176047162 
-0.01220871857422318 
-0.01934556222016534 
-0.01220871857422318 
-0.17753080105213 
-0.02317933529017163 
-0.08303595295230537 
-0.04635867058034326 
-0.04635867058034326 
-0.02317933529017163 
-0.02317933529017163 
-0.004123949310711429 
-0.006008317244051428 
-0.02263327980081294 
0.03962597760034443 
0.01654474462492666 
0.03157707858313902 
-0.0009577721293029807 
0.05040054867777069 
0.08425536643765213 
-0.03330117106204011 
0.07837826705832981 
0 
0.0412959015441737 
-0.1270411403334782 
0.5906764070417686 
-0.02025482576529339 
-0.0006538291158196876 
-0.3442344327104044 
0.01665293149619955 
0 
-0.1992002518484851 
-0.01806974293140337 
-0.00208582176627837 
-0.0007981721117780042 
-0.07576406116861049 
0.004523448182772206 
0 
-0.0006027525003403005 
-0.02380050170584889 
0.03413553812718862 
-0.2077704316869041 
0.1695954718537411 
-3.145433847886811e-05 
-0.02547614445775897 
-0.1092519228468649 
-0.001226636152182408 
-0.1425098351900734 
-0.0008812214385447278 
-0.09137812967680339 
-0.128294328246581 
-0.0006489346999143194 
-0.01529870545788846 
0.3184232869114634 
-0.006658602355453774 
-0.05809612629479168 
-0.04360091338299914 
-0.196579767948226 
-0.002799370283428572 
-0.01749425089817574 
0.07337093990263301 
0.08189647114101729 
-0.05576117662152923 
-0.0006669749989891497 
-0.03020126863143419 
-0.05159922589429776 
0.2219427466428129 
-7.991841276858891e-05 
0.03554132949129261 
-0.0007295388727021565 
-0.05464823266248752 
-0.1530725127072696 
-0.05203197916891489 
-0.0005128459526094601 
0.02293321051128407 
-0.01029896135832836 
-0.008478710009705716 
0.0120062306422898 
-0.01833703586641492 
0.1844093009441379 
-0.0002390962352563582 
-0.1244607644132203 
0.7892191207253295 
-0.0302123384101164 
-7.594651206032521e-05 
-0.04850206811749299 
-0.0005312076327567651 
-1.554681025993633e-05 
-0.008872481026024377 
-7.594651206032521e-05 
0.04483552606575295 
0 
-0.001815764051788654 
-0.009853621752298 
-0.003429786014178746 
-0.03258540723078933 
-0.02550301336060753 
0.02928858733597125 
-0.02824879663378468 
-0.05641737711757042 
-5.755808907495968e-05 
-0.0004191576510545526 
-0.01259033576004377 
0.03407248442292731 
-0.05021733400850386 
-0.02404969457488153 
-0.2453148225489463 
-0.0007690334007304989 
0.1336900215091349 
-0.02244998542464184 
-0.01408262037361468 
-0.03171477872715921 
-0.0006137209632141389 
0.3044918843151114 
-0.03657643886890614 
-0.01443154456021364 
5.230456228151016e-05 
-0.02625752378823345 
0.03789188878321809 
-0.0004393452537492482 
-0.2922993106315802 
-0.004754004024047845 
-0.2226096052455096 
-0.02599346189106188 
0 
0.4435391638080345 
-0.02961117309095567 
0.1296033691726987 
-0.001329164796519972 
-0.0008781740442919803 
0.02689682494428491 
-0.02196658232419369 
-4.070737809104942e-06 
-0.00226627876956031 
0.05341228770637182 
-0.03203951551834994 
-0.001735532748653739 
-0.03727754250574383 
-0.0281413203756923 
0.001457239303525703 
-4.380322261449005e-05 
-0.0008228005079829879 
-0.0007523349077354896 
-0.02743295760663254 
-0.031696903907954 
-0.0001552175687926589 
0.0005645416202971272 
-0.02962408173760799 
0.03813554748243243 
0.05361334218062577 
0.02644627430238856 
0.09966071318128171 
0.0607099361633143 
-0.0005019849956955141 
-0.00444459261507339 
0.03342548066558725 
-0.01056682930596383 
-0.02372858003745966 
-0.009515903695048882 
-0.001466058558195556 
0.1950922237771473 
-0.001676232831513797 
-0.1010656520530872 
-0.01524928398906233 
-0.2281471950942175 
-0.005663012131905571 
0.02798759062564155 
-0.0719773489290019 
0 
0.009518971935173563 
0 
-0.03335466919915133 
0.2098871323839774 
-0.002496586827261428 
-0.08860402077753321 
-0.07499685660445839 
-0.1759960642807304 
-0.01070695174836311 
-0.1040593084626631 
0.01813461276403483 
1.01643953670516e-20 
-0.1106259056791771 
-0.03733946340331375 
-0.08874922755133331 
0.04755176500629062 
-3.177984878953108e-05 
-0.0007585372083995496 
-0.01232009687683003 
-0.0557557852085113 
-0.001090341029515114 
-0.001102928757106189 
-6.589770883328047e-05 
-0.000788903387269988 
-0.01913408780220477 
0.2960686027612279 
0.01324186033790733 
-0.02142396383293568 
-0.01014008976447975 
-0.00259476807201489 
0 
-0.01382372362603266 
0.5393181054438598 
-3.284978234658478e-05 
-0.1701323748475228 
-0.1618857360093665 
-3.651371333612706e-05 
-0.008315056787902984 
-0.01269666738136324 
-0.04015980093655855 
-0.1617653043380212 
-0.0005482778392333924 
-0.0002794663019040866 
-0.1020224553761653 
-2.54423098872757e-05 
-0.04561194489140016 
-0.2246195151113274 
-0.5967443515943243 
-0.04163406371864802 
0 
0.1241845732714706 
-0.02242930612737245 
-8.742258451115662e-05 
-0.01361799216583034 
-0.01784378906133837 
-0.01468687386877334 
-0.0006192089723208069 
0.02455909358988219 
0.02563036317370293 
-0.004059198616374542 
-0.03641674818797903 
-0.0006172687240688272 
-0.1258006744563628 
-0.3635193133266484 
-0.01997787109349462 
-0.01481221220255916 
-0.0007262568783234603 
0.03719100942339636 
-0.007480567415094496 
-0.0002269073638189824 
-0.007024133663908848 
-0.002193274954531627 
0 
-8.231420829026072e-05 
-0.01118690879702073 
0.005277729609112328 
0.02519188780256343 
-0.4570343649502931 
-4.070737809104942e-06 
-9.547457943057571e-06 
-0.002033975324710099 
-0.01498456878524106 
-0.002622275052264232 
-0.004930290378289707 
-0.05965313449236746 
0.04002856550489497 
-0.02972954494055012 
-0.06518580032262829 
-0.0004932880112231683 
-0.01278097233375709 
-0.003319149264738079 
-0.01030447056552644 
-0.001136620340993391 
-8.001724986943016e-05 
0.5110127609579714 
0 
0 
-0.001734843295118927 
1.058663460636647 
-0.01326862111367821 
0.008861977404134596 
0.04376018165520053 
-1.961754806904126e-05 
-0.01264843572174712 
-0.2173613468162634 
0.0419655562314212 
0.3618963928833921 
-0.0250079257292023 
-0.01474197506896863 
0 
0 
-0.003516344998047435 
0.0004994110559155573 
-0.08833451716267687 
-0.0006024980411800375 
0.1371173133688652 
-1.554681025993633e-05 
-0.02059107981564284 
-0.1537539428197998 
-0.001454797930114232 
-0.000632632449184366 
-0.0009062749701306789 
0.04381106421891237 
-0.01103345043180163 
0.00289842889271172 
0.01369970698395546 
0.06891369044446174 
-0.0005467505860199056 
-0.06823159694827328 
0.02582073823267891 
0.2443587733223991 
-0.004410238241850673 
-0.008437082358917321 
-0.06430956678509357 
-5.635025089022298e-05 
0.01465574073257598 
-5.637090463878812e-05 
-0.05310562214907448 
-0.005896020701177535 
-0.01818624910305908 
-0.00075397248820825 
-0.05794762146458234 
-0.6282915413271885 
-0.1095201190267177 
-0.01021398789838477 
-0.0001374636528898636 
-0.02766625015554587 
-1.147607245083139e-05 
0.138556344461548 
-0.06555413985710282 
3.542423446111939e-05 
-0.086403728474354 
-0.1705204832412118 
-0.004538855373910466 
-0.03809275784111682 
0.03755129838800442 
-0.0005167870319062059 
-0.04361626744514936 
0.02325160557846391 
-0.0001925783231375536 
-0.08469206000229049 
-0.0738721680648646 
-0.000818871803129031 
-0.02347104628642106 
-0.0008455492907478522 
0.02281084784342782 
-0.03299290280606111 
0 
0 
0.04736124855943379 
0.05080294570840426 
-0.02126656216229161 
0.016179853593797 
-0.02538664300592824 
0.1535653348580515 
-0.05312416306946156 
-0.1691611239278146 
-1.554681025993633e-05 
-0.5088246302055012 
-0.0006091961584998053 
-0.002163800184648705 
-0.09645372072290039 
-0.02804799244640696 
-0.002058372736184871 
-0.007027207031113836 
-0.03635604154684004 
-1.147607245083139e-05 
-0.04020804569154053 
0 
0.05785964001318848 
-0.001503468419435793 
-0.06042828468572969 
-0.01688597697158855 
0.04101447425164981 
0 
-0.00527030994014078 
0.1925032308548048 
-5.476720133952631e-06 
-0.08689793424067087 
-0.01954941506124092 
-0.03671932680000429 
-0.07450269662446971 
0.02371321191520843 
0.08281388782768223 
-0.01891247476750158 
0.08341612332833455 
-0.1423148889488211 
0.009501695540074302 
-4.070737809104942e-06 
-0.0003250311830958904 
0.03694204789745612 
0.2121702638406435 
0 
-4.070737809104942e-06 
0.05243324780466371 
-0.008069451383316315 
0 
-0.03770367727008019 
-5.476720133952631e-06 
-0.003660217782819117 
0.2441440388514453 
-0.01394102343352495 
-0.03508699099507895 
0.0527851569393362 
0.04130369631674671 
-0.00031936472710404 
-1.695279258478402e-05 
0.8409890820879411 
-0.0008073057410302876 
-0.0707826166887094 
-5.476720133952631e-06 
-0.1006678994944769 
0 
-0.04429393877739642 
0 
-0.0006720048855013038 
0 
-0.0008070537282616947 
-0.07898818286353883 
-0.003168330291404592 
-0.001219471910430007 
0 
-9.547457943057571e-06 
0.02161406384529277 
0.07307804948446743 
0.02413727387599654 
-1.514214125795632e-05 
0 
-0.0007509842278418278 
-0.006500773445644197 
0.04704667640557463 
-0.015196600918067 
-0.06679738448175376 
-0.01332539049148409 
0.0442887826737326 
0 
-0.009433969939892768 
-0.0002542347326851515 
-3.028428251591265e-05 
0.02981577376507096 
-4.070737809104942e-06 
0 
-0.04319729773695216 
0.05639989625398013 
-0.004775962701062568 
0.02826904963670586 
-1.554681025993633e-05 
-0.0002442244097312958 
-0.07776811484968207 
-0.006444802441891073 
-0.007966067522313072 
-2.035368904552472e-05 
-5.476720133952631e-06 
0.02849521697938471 
-0.1081514898253932 
0.00405098041772804 
-0.5897293706297289 
-4.070737809104942e-06 
0.09602693969796894 
-0.00649973796773666 
-0.02689885627199386 
-0.0420177793164546 
-0.01502523861664148 
-0.001412042014893378 
0.0224672236562247 
-0.0199590510367759 
-0.135156588275863 
-0.0004304420496325591 
-7.594651206032521e-05 
-0.09424899884655964 
-0.02488887058198781 
-0.000104725556597805 
0.04765106770767006 
0.03485150902896991 
-0.03084050757310245 
-0.001987182601152233 
0 
-4.070737809104942e-06 
-0.001222801080796071 
0 
-0.004839888360890767 
-7.886652161785384e-05 
-0.01001507949621784 
0.04661881047571936 
-0.02846459661443762 
-4.070737809104942e-06 
-2.813168850122468e-05 
-0.002463621309467757 
-0.2070431827875379 
-0.06583502195125183 
0.4131356638538854 
-0.0001250940492647389 
-8.141475618209885e-06 
-0.0004788860646514904 
0 
-0.007585098208816528 
-0.000655857088418006 
0 
-7.594651206032521e-05 
0.04696771066103003 
-0.01023785365196429 
-0.01376068204064324 
-0.01297146269297108 
0.01530117776219356 
-8.470329472543003e-22 
-0.166646228306186 
0.208219231225762 
-0.0600257638440833 
0.08170836083770511 
-0.181653862967262 
-5.938235688081344e-05 
-0.2441938963783339 
0.000400298209867043 
0.0547369463166522 
0 
-0.06566335087657288 
-0.01249110590859828 
-0.007417897782315496 
0.005631637686405616 
-0.0006155795003090455 
-0.04997698554658042 
0.3669076113458867 
0.09877613720770731 
0.009698408400655943 
-0.001242922875682523 
0 
-0.03798289455290293 
0.3622723920962455 
-0.01618206265653731 
-0.0003906470564158938 
-0.0007757992031921345 
0 
-0.03419164330083196 
0.002044400082904975 
-1.695279258478402e-05 
-3.284978234658478e-05 
-0.01710428809040843 
-0.2142430639119678 
-0.001154995066571893 
0 
-0.0006310101337402434 
0.2624011216206572 
0.03529951346518317 
0.0006577137276921408 
-0.04381634744279056 
-2.102353039388896e-05 
0.005103737368700383 
0 
0 
0 
0.3377585726912256 
0.0008128086331614007 
-1.095344026790526e-05 
-0.0001205845106199673 
0.1252057158376303 
-5.778527845706802e-05 
0.01946791215318543 
0 
-3.312818754860031e-05 
-1.695279258478402e-05 
-0.001444775834409117 
0.00544781795640003 
-0.02783271214224292 
-0.04875618839648801 
-0.1101957608537953 
-0.007396833183127792 
-0.03141241816455176 
0.03997332918306649 
-0.04781613086682561 
-0.001056427213416703 
-1.87903015462627e-05 
-0.1740415917468646 
-1.695279258478402e-05 
-1.695279258478402e-05 
-6.317957848793483e-05 
-0.00105169774558418 
-0.04356466226744368 
-0.0001982064422430879 
-0.167125136815692 
-0.002243856322011706 
0.3963169347597225 
-0.02507676093469811 
-0.01714711175440673 
-3.425576467143245e-05 
0 
0 
0 
-0.3165064755205833 
-0.02706267081419958 
-5.661608836506169e-05 
-1.554681025993633e-05 
-0.0008617205676826101 
0.2022359055843451 
0.0004994110559155573 
0.0005645416202971272 
-0.006002729539823795 
-3.648160288306382e-06 
-0.0002876652285319524 
-9.73472001539379e-06 
-0.08626327016274814 
0.001276895295416211 
-0.04312919965847751 
-3.916085987294559e-05 
-0.002061966072910459 
-0.01288912360387246 
-0.2085143344651488 
-0.02760837872163142 
-0.001104203874497852 
-0.03571750094512548 
0.05116059500218367 
-0.006998109297296647 
-0.01058380319679405 
-0.01089999751596705 
-0.008732254832718252 
-0.02990275346719594 
-9.547457943057571e-06 
-0.05417085669653034 
0.1866843107598212 
-5.476720133952631e-06 
-1.147607245083139e-05 
-0.01931516140607688 
-0.000368051772563015 
-7.927105673233376e-05 
-0.006641752504088194 
-1.221221342731483e-05 
-4.364421586388196e-05 
0.03992926438935591 
-0.003902717692237406 
-4.070737809104942e-06 
-0.09931798496310387 
-0.1285729401638918 
0 
-0.0007384567828765755 
-0.02133088973489378 
0.004273121688884688 
-0.02615482069248152 
-2.102353039388896e-05 
-3.020016703120113e-05 
-4.732665904946741e-05 
-3.109362051987267e-05 
0.2243528664263373 
0.1515231244107383 
-0.000104725556597805 
-0.01960666009272538 
0.09962705281203947 
-3.284978234658478e-05 
-0.01481933376284462 
-0.0009530650840374937 
0.07773983753209492 
-0.08037074935200315 
-0.0006981691328643828 
0.04394531499758778 
-3.973248480538511e-05 
-0.001541304293906228 
-0.02651775279730937 
-0.0155673023429126 
0.02954712062464184 
-6.303480920891229e-05 
-9.644741027128807e-05 
-0.0001272984688286953 
-1.147607245083139e-05 
-8.141475618209885e-06 
0 
-0.004461350763262126 
0.03657709521986191 
-3.425576467143245e-05 
-0.02465321204990385 
0 
0.003368574029463514 
-0.1951459486557235 
0.1017666968471062 
-5.476720133952631e-06 
0 
0 
-4.070737809104942e-06 
-0.0710754826727555 
-0.2019497808441116 
-9.124880422259016e-06 
-0.0004577902248088458 
-0.0006383425979088603 
-0.02812323367233732 
-0.0004980659629709089 
0 
-0.05889504786118342 
-0.005270438820736582 
-7.594651206032521e-05 
-4.070737809104942e-06 
0 
-3.284978234658478e-05 
-0.0002063479178612978 
-0.008274070097573208 
-0.007897952706565433 
-0.006682949272729864 
-0.01025412133522457 
-8.141475618209885e-06 
-0.009666441078997154 
-1.147607245083139e-05 
0.004675998439381317 
0.249075942296207 
0.0004994110559155573 
-0.01043850976155825 
-4.070737809104942e-06 
0 
0.001580384184387228 
-0.0002096825146939193 
0 
-9.547457943057571e-06 
-0.004275519503141839 
0.03132808212663363 
-5.476720133952631e-06 
0 
-0.03711393401828082 
-1.147607245083139e-05 
0.07506804348375481 
0.1480513585933328 
0 
-2.877904453747984e-05 
-4.070737809104942e-06 
-0.00311980533580125 
0 
-0.06446654909195894 
-0.01995842162074991 
-0.06172068753871485 
-9.73472001539379e-06 
-0.06305948947596353 
-2.102353039388896e-05 
-2.877904453747984e-05 
-7.594651206032521e-05 
0 
-8.142323219427781e-05 
-0.009769574973485889 
-4.070737809104942e-06 
-0.005457985978146978 
-0.003342103672390311 
-5.476720133952631e-06 
-8.408798767853509e-05 
-0.0001392922127355099 
0 
0.08601635817536565 
-6.350792178091031e-05 
-4.070737809104942e-06 
-0.002680766613246002 
-3.425576467143245e-05 
-2.54423098872757e-05 
-7.594651206032521e-05 
-1.147607245083139e-05 
0.0004084396854852528 
-4.070737809104942e-06 
-0.0413279260528593 
-4.070737809104942e-06 
0 
-4.070737809104942e-06 
-0.02963280511149189 
0 
-1.961754806904126e-05 
0.03390070339304948 
-0.1529621319229581 
0.1523899430096216 
-0.1382087312591393 
-0.1528455621881047 
0 
-0.01119841235849821 
-0.10516921473808 
0 
-0.04135461028681001 
0.08879473480307974 
-0.0003275868176001863 
0 
0 
-0.01750990714218919 
-0.002381866238257418 
-0.0247716077542415 
-1.554681025993633e-05 
-0.005769923702609808 
0.05257746562401396 
0 
0 
-0.0001338154926015572 
-2.877904453747984e-05 
0.06157182893748646 
-8.141475618209885e-06 
-3.737050949558019e-05 
0 
-0.0002676309852031143 
-0.0001925308920590078 
-1.147607245083139e-05 
0 
-0.2828680744009526 
0.02703111925523881 
-0.2678912640058334 
-0.001235689950578215 
0.1370364511877331 
-0.08758404679598822 
0.01858302044953722 
-4.025511698831124e-05 
-5.476720133952631e-06 
-0.05308558788736914 
-0.02394581547463927 
-0.02888029926095351 
-0.08953016147045426 
-5.476720133952631e-06 
0.05256632876374831 
-0.007411052598728148 
-0.09359987900856277 
-2.295214490166278e-05 
-1.554681025993633e-05 
0 
0 
0.07291435048355438 
-0.03943908515362429 
-0.2277778449594039 
-5.279776315246909e-05 
-0.02620011288794542 
-0.05624273594383982 
0 
0.07730596961215178 
0 
0.4620805424056801 
-0.00428241751452108 
-0.0001270858802914343 
-0.009617231729115501 
0 
-1.094448086491915e-05 
0 
-8.141475618209885e-06 
-0.04294645776744311 
0.0006093364563842407 
-1.147607245083139e-05 
-0.0002766156523562527 
0 
-2.615619617483846e-05 
0 
0 
-4.070737809104942e-06 
0.02709166649429255 
-0.01413269513733463 
0 
0 
-9.547457943057571e-06 
-0.0070182946189224 
0.05470989365235743 
-5.476720133952631e-06 
0 
-0.1335281812360911 
-1.554681025993633e-05 
-1.361819575216252e-05 
-0.4431082327520138 
0 
-8.742258451115662e-05 
-0.0004843180989580584 
-0.005901853665191185 
-8.001724986943016e-05 
-2.813168850122468e-05 
-0.01298777181866574 
-8.426836927228259e-05 
-0.103408876372631 
-5.476720133952631e-06 
-5.113936823110908e-05 
-0.00889177417056923 
0.002429902748975518 
0.2287998424263466 
-0.004589913220581638 
0 
-0.02893483677184968 
-0.007138051692674191 
-0.0002048910008445132 
0.1008145018417486 
-0.0355367642474699 
-0.0003820588893802248 
0 
0 
-0.04504122098386959 
-1.147607245083139e-05 
-0.03234649214389891 
0 
0 
-0.0002063479178612978 
-4.070737809104942e-06 
-4.390327727661762e-05 
-4.070737809104942e-06 
-0.0001241615969082124 
0.0008168793709705057 
0.1209124959703856 
-5.476720133952631e-06 
-1.147607245083139e-05 
0 
-9.547457943057571e-06 
0.3351060220278541 
-4.070737809104942e-06 
-9.130124185554255e-05 
-5.691073303870453e-05 
-0.005007200890180792 
0 
-0.005710460373069441 
-0.1596751463958077 
0 
-4.070737809104942e-06 
-9.124880422259016e-06 
-6.204711236507072e-05 
-0.02782771223166356 
-0.03384805254835208 
0 
0 
-5.46267780261431e-05 
0 
-0.0110605777543014 
0 
0.0004084396854852528 
0.09870457824258203 
-0.02706014494352876 
-2.742500147397466e-05 
-8.141475618209885e-06 
0 
-9.547457943057571e-06 
-0.0008356083354027303 
0.06582146981902667 
-0.00111947229964787 
-0.01704821238531505 
-5.476720133952631e-06 
0.04645859903534987 
-4.070737809104942e-06 
-2.877904453747984e-05 
-0.01199258525119893 
-1.17763073777435e-05 
0 
0 
-4.367849876116105e-05 
0 
-9.547457943057571e-06 
0 
-0.0001676669938869266 
-0.3731805273009174 
0.02512174887663476 
-0.008828857116373524 
0.1858163175791634 
-4.070737809104942e-06 
-4.070737809104942e-06 
-4.070737809104942e-06 
-5.521010604021401e-05 
0 
-2.877904453747984e-05 
0 
-6.628150948906538e-05 
-8.001724986943016e-05 
-3.028428251591265e-05 
0 
0 
0 
0 
0 
-4.053816793180863e-05 
0.01300882524973976 
-0.0001716877457703675 
-0.001707768272477575 
-5.476720133951331e-06 
-0.009068110080360852 
-8.141475618209885e-06 
-8.141475618209885e-06 
0 
-0.0031811810463726 
-4.070737809104942e-06 
-5.928084384931897e-05 
-8.141475618209885e-06 
-4.070737809104942e-06 
-3.360840863517731e-05 
-2.877904453747984e-05 
0 
0.05934813640219542 
0 
0 
-4.070737809104942e-06 
0.0003888221374162116 
-4.070737809104942e-06 
0.07763645199185998 
-0.0004605028491281158 
0.2505774733334971 
0 
0 
-9.547457943057571e-06 
0.0004084396854852528 
-0.01853321010170302 
0 
-0.007912197437922625 
0 
-0.02671538398877946 
-0.401644558058208 
0 
0 
-8.504495340067713e-05 
-0.03559495107236838 
-2.877904453747984e-05 
-4.070737809104942e-06 
-5.476720133952631e-06 
-4.070737809104942e-06 
-4.070737809104942e-06 
-8.001724986943016e-05 
-0.0001109366984434024 
-0.006575958355639128 
-0.0003085176196247529 
-4.070737809104942e-06 
-4.025511698831124e-05 
0 
-4.529849385429924e-05 
0.001162925738024803 
-2.877904453747984e-05 
-4.070737809104942e-06 
-0.02126997369330954 
-5.322999159802312e-05 
0 
-0.0368337495672077 
0 
0 
0.4113216062320639 
-1.147607245083139e-05 
0 
-0.008080716330719729 
-0.0066591656280227 
0.06918005985497505 
-0.0002567078800406503 
-5.476720133952631e-06 
-7.405024977003629e-05 
0 
-1.486347511742318e-05 
-0.00088834876076068 
0 
0 
-0.0001392922127355099 
-0.004869198433765859 
-1.094448086491915e-05 
-2.137157207817076e-05 
-1.360710673388145e-05 
0.03853942950426122 
0.02335638458382284 
-0.08659322666791969 
-0.004179233413504115 
-0.0001782878500560918 
-9.547457943057571e-06 
-0.0001436047973081761 
0.04905633128930918 
-0.01560400978783515 
0 
-1.660482755286078e-05 
-0.001123543037456976 
-1.147607245083139e-05 
-0.0003322041822782075 
-1.50241780770102e-05 
0 
0 
-4.070737809104942e-06 
0 
-5.476720133952631e-06 
-0.01184396651569133 
-0.06024575549357768 
-0.007184284113495172 
-4.724240653668547e-05 
-3.360840863517731e-05 
-9.547457943057571e-06 
0.000553588180029222 
-0.634747351674869 
-0.0001012069506803236 
-8.142323219427781e-05 
-9.547457943057571e-06 
-2.426702168021534e-05 
-8.549397000338277e-05 
-6.265664673362891e-05 
-0.006061562282461489 
0.03653354802209977 
-0.03907281943551721 
-1.50241780770102e-05 
-3.425576467143245e-05 
0.0003974862452173475 
-2.842886503561538e-05 
-5.476720133952631e-06 
-5.476720133952631e-06 
-5.476720133952631e-06 
-0.003284585449900135 
0.01785664557196186 
-0.001141521644692264 
-0.0001401697578572084 
-1.768893356126746e-05 
-9.547457943057571e-06 
-9.547457943057571e-06 
-2.79062328526893e-05 
-8.549397000338277e-05 
0.00479715165141629 
-9.547457943057571e-06 
-5.476720133952631e-06 
-1.695279258478402e-05 
0.05009313693590914 
0.02504603221470326 
-1.361819575216252e-05 
-0.00189681270024948 
-5.476720133952631e-06 
-3.425576467143245e-05 
-0.00208288250169816 
-0.06435868708351693 
-0.01249553978313217 
-0.01094008862381289 
-1.50241780770102e-05 
-1.095344026790526e-05 
-9.547457943057571e-06 
-3.425576467143245e-05 
-6.174009713640201e-05 
-1.695279258478402e-05 
0.08921567942569007 
-0.03062932211779052 
-5.476720133952631e-06 
-1.50241780770102e-05 
0.0008114026508365529 
-0.007287803508917101 
-9.547457943057571e-06 
0.0005174892113333906 
-3.83265024805374e-05 
-0.001530162373650314 
-0.06426967994465138 
-1.361819575216252e-05 
-1.695279258478402e-05 
-5.120855725621647e-05 
-1.695279258478402e-05 
-1.361819575216252e-05 
-9.547457943057571e-06 
-8.20583982523374e-05 
-9.547457943057571e-06 
-9.547457943057571e-06 
-5.420936150826773e-05 
-5.476720133952631e-06 
-5.229060209939901e-05 
-0.0001015515945939096 
-0.001251250229009203 
-9.547457943057571e-06 
-1.361819575216252e-05 
-1.095344026790526e-05 
-2.242951271873666e-05 
-5.476720133952631e-06 
-5.476720133952631e-06 
-5.476720133952631e-06 
0.003111161115383832 
-9.547457943057571e-06 
-5.476720133952631e-06 
-0.003596160726293601 
-1.695279258478402e-05 
0.0004029629653513001 
-0.0362158253452376 
-0.0003852092804355786 
-9.547457943057571e-06 
-5.476720133952631e-06 
-5.476720133952631e-06 
-6.95914363684649e-05 
-9.697004245421416e-05 
-5.476720133952631e-06 
-1.50241780770102e-05 
-3.425576467143245e-05 
-5.476720133952631e-06 
-1.768893356126746e-05 
-5.476720133952631e-06 
0.0007706432335674307 
-0.02237258696279124 
-5.476720133952631e-06 
-0.0369835996413523 
-6.809216081589311e-05 
-0.009780685829363329 
-6.174009713640201e-05 
-0.02001527091692588 
-5.476720133952631e-06 
-5.476720133952631e-06 
-0.03376508740881879 
0.09205848050202314 
0.231191600312446 
0.01872461258502393 
-5.476720133952631e-06 
-9.547457943057571e-06 
-4.174988425338719e-05 
-0.01975059239230712 
-5.476720133952631e-06 
-0.03872185640209497 
-5.476720133952631e-06 
-3.356617655804682e-05 
0.0222487363734037 
-0.0001507682851863412 
-1.361819575216252e-05 
-5.476720133952631e-06 
-5.229060209939901e-05 
-8.142323219427781e-05 
-0.01562617255811937 
-0.0006064831021587331 
0.05613639785864806 
-0.0001435451979781773 
-5.351415736393111e-05 
-4.463758000689819e-05 
-9.547457943057571e-06 
-2.650025052784157e-05 
0.004602664821849718 
-5.476720133952631e-06 
-0.0001051700119580145 
-0.007954196998978305 
-2.102353039388896e-05 
0.153467375530097 
-9.547457943057571e-06 
-5.476720133952631e-06 
-9.547457943057571e-06 
-5.476720133952631e-06 
-5.087446964183696e-05 
-5.476720133952631e-06 
-0.01221894209935463 
-1.50241780770102e-05 
-5.476720133952631e-06 
0.2584457227028982 
-1.50241780770102e-05 
-3.091903002122835e-05 
-9.547457943057571e-06 
-0.022742966276091 
-5.476720133952631e-06 
-5.476720133952631e-06 
0.05573195545798615 
-0.007465633350718558 
-3.360840863517731e-05 
-1.361819575216252e-05 
-5.476720133952631e-06 
-5.476720133952631e-06 
-8.142323219427781e-05 
0.02508454597925614 
-1.695279258478402e-05 
-0.2338179489469555 
-8.549397000338277e-05 
-4.573183712226381e-05 
-5.476720133952631e-06 
-6.809216081589311e-05 
-0.0002734722002041921 
-4.463758000689819e-05 
-8.142323219427781e-05 
-1.361819575216252e-05 
-9.547457943057571e-06 
-1.095344026790526e-05 
-4.508448108600869e-05 
-5.476720133952631e-06 
0.01325978240300256 
-5.476720133952631e-06 
-1.695279258478402e-05 
-1.651944931681939e-05 
-8.142323219427781e-05 
-6.581083494550695e-05 
-5.476720133952631e-06 
-4.948234498965243e-05 
-5.351415736393111e-05 
-9.547457943057571e-06 
-1.768893356126746e-05 
-9.547457943057571e-06 
-0.05137274427222583 
-5.476720133952631e-06 
-0.02329569385421381 
-1.095344026790526e-05 
0.000993345391697162 
0.118540961566762 
-7.592287627429867e-05 
0.1153343517895506 
-4.301977649701951e-05 
-3.903825095051752e-05 
-2.102353039388896e-05 
-5.476720133952631e-06 
-2.102353039388896e-05 
-0.0002233062756718099 
-0.0002077539001861455 
-0.04020760928876081 
-7.125579371568592e-05 
-1.361819575216252e-05 
-3.425576467143245e-05 
-5.476720133952631e-06 
-0.002685465920830586 
-0.01401956476450587 
-2.102353039388896e-05 
-5.476720133952631e-06 
-0.01061805896146548 
-2.061886139190896e-05 
0.001219842336321805 
-1.361819575216252e-05 
-5.476720133952631e-06 
-0.04749662253180471 
-0.004186869447135075 
-0.007496692446602682 
-8.142323219427781e-05 
-9.547457943057571e-06 
-0.005634788364865874 
-0.0002220207583456413 
-3.425576467143245e-05 
-0.01675147131624681 
-3.209493384274032e-05 
-0.1058090152958396 
-1.695279258478402e-05 
-8.142323219427781e-05 
-2.68482922121234e-05 
-1.095344026790526e-05 
-5.476720133952631e-06 
0.01279087681618709 
-5.476720133952631e-06 
0.2053724547757972 
-1.319561823136396e-05 
-5.758489517303604e-05 
0.08602818442731837 
0.0159236092706504 
-5.476720133952631e-06 
-5.476720133952631e-06 
-5.476720133952631e-06 
-2.949543874894187e-05 
-5.476720133952631e-06 
-1.521144014934643e-05 
-0.1117178119317676 
-9.547457943057571e-06 
-5.476720133952631e-06 
-5.476720133952631e-06 
0.02996440760851252 
-0.02108739527159098 
-9.547457943057571e-06 
-3.425576467143245e-05 
-4.618438924376099e-05 
-9.547457943057571e-06 
-1.319561823136396e-05 
-5.476720133952631e-06 
-6.068682617416662e-05 
-0.02603093748117599 
-5.476720133952631e-06 
-0.0001164053183339115 
-5.476720133952631e-06 
-5.476720133952631e-06 
-0.0001009419431624778 
-2.509426820299389e-05 
0.02274991857935355 
-5.476720133952631e-06 
-8.142323219427781e-05 
-3.973248480538511e-05 
-9.547457943057571e-06 
-0.005715937093203392 
-9.547457943057571e-06 
-2.102353039388896e-05 
-4.465113781804406e-05 
-1.695279258478402e-05 
-9.547457943057571e-06 
-0.0001688458167054344 
-5.476720133952631e-06 
0.003114303324763297 
-5.476720133952631e-06 
-5.476720133952631e-06 
-2.949543874894187e-05 
-0.03514579751108221 
-9.547457943057571e-06 
-5.476720133952631e-06 
-5.476720133952631e-06 
-1.361819575216252e-05 
-1.695279258478402e-05 
-5.476720133952631e-06 
-5.476720133952631e-06 
-0.006845805273417655 
-3.83265024805374e-05 
-2.242951271873666e-05 
-0.1438963247667079 
-3.83265024805374e-05 
0.0005705409726140059 
-0.05417623406193769 
0.05272200228724323 
-9.547457943057571e-06 
-5.476720133952631e-06 
-9.547457943057571e-06 
-0.008414675249431765 
-5.476720133952631e-06 
-5.476720133952631e-06 
-6.807149651887729e-05 
-0.001476162301752171 
0.01982065103598984 
-0.01559956514959266 
-5.476720133952631e-06 
-1.695279258478402e-05 
-0.0001469163164691165 
0.625629670813032 
-9.547457943057571e-06 
-0.03637120028033854 
-0.0001606942889266115 
-9.547457943057571e-06 
-0.0003123129295206072 
-5.476720133952631e-06 
-5.476720133952631e-06 
0.0004898635979724995 
-6.174009713640201e-05 
0.0888739336241041 
-5.476720133952631e-06 
-2.68482922121234e-05 
0.03003012826432448 
-5.476720133952631e-06 
-0.0002122357766264386 
-0.000157369744254603 
-6.174009713640201e-05 
-1.695279258478402e-05 
-3.973248480538511e-05 
0.1579147287190706 
-5.476720133952631e-06 
0.07965826494325559 
-9.547457943057571e-06 
-3.767914644428225e-05 
-0.02651254471588826 
-8.549397000338277e-05 
-2.424911316139678e-05 
-1.095344026790526e-05 
-9.547457943057571e-06 
-9.547457943057571e-06 
-9.547457943057571e-06 
-2.102353039388896e-05 
-0.0008412610837637371 
-0.0775573122476369 
-0.005930049109353635 
-5.476720133952631e-06 
-9.504142794644033e-05 
-1.651944931681939e-05 
-9.547457943057571e-06 
-9.547457943057571e-06 
-9.547457943057571e-06 
-4.875054989313362e-05 
-1.671780040743666e-05 
0.06471363857771213 
-0.04673125529030488 
-5.068592507329038e-05 
-0.06495974744564111 
-3.83265024805374e-05 
-5.476720133952631e-06 
-1.095344026790526e-05 
-1.319561823136396e-05 
0.0003741839208138204 
-5.476720133952631e-06 
-5.476720133952631e-06 
-0.01879930604149901 
-2.842886503561538e-05 
-1.008268504731703e-05 
0.3701137482158868 
-0.006079781515912197 
-0.005741972003170491 
-5.476720133952631e-06 
-9.547457943057571e-06 
-2.874242849130029e-05 
-0.01052928420399216 
-0.004431733134422688 
0.2466162606995509 
0.0005590649001631744 
-2.060095287309042e-05 
-5.476720133952631e-06 
-0.02831641349765703 
-0.0008366819598351014 
-2.79062328526893e-05 
-0.0001598531321800439 
-0.04172694354524769 
-5.476720133952631e-06 
-4.821986429029411e-05 
0.0228288567542568 
-3.360840863517731e-05 
-1.50241780770102e-05 
-0.00540135329696901 
-8.142323219427781e-05 
0.06203505560428425 
-5.476720133952631e-06 
-9.547457943057571e-06 
-3.425576467143245e-05 
-0.03621884885540017 
0.9468018286521763 
-2.738360066976317e-05 
-1.695279258478402e-05 
0.003108826604629343 
-6.174009713640201e-05 
-0.03729269654134549 
-8.689995232823043e-05 
-2.102353039388896e-05 
-5.476720133952631e-06 
-1.695279258478402e-05 
-3.83265024805374e-05 
-1.095344026790526e-05 
-9.547457943057571e-06 
-5.476720133952631e-06 
-3.425576467143245e-05 
-0.0001257490869916939 
-0.0006334157112917303 
-5.476720133952631e-06 
0.1781299144094971 
-3.83265024805374e-05 
-3.767914644428225e-05 
-0.07828937026311307 
-0.144500044265305 
-5.476720133952631e-06 
-1.361819575216252e-05 
-9.547457943057571e-06 
-0.02346378663841566 
-5.47672013395252e-06 
-3.232501234607602e-05 
-2.799552176765078e-05 
-5.476720133952631e-06 
-2.060095287309042e-05 
-8.474777686628638e-05 
-0.04680134993893282 
-9.547457943057571e-06 
0.004857780108955038 
-9.289930464510922e-05 
0.0937595772922548 
-9.289930464510922e-05 
-5.476720133952631e-06 
-1.361819575216252e-05 
-5.476720133952631e-06 
-5.476720133952631e-06 
-5.476720133952631e-06 
-1.008268504731703e-05 
-1.695279258478402e-05 
-9.547457943057571e-06 
-5.476720133952631e-06 
-1.695279258478402e-05 
-0.0001142730145408626 
-0.01401731173565499 
-1.695279258478402e-05 
-8.507139248258421e-05 
-1.695279258478402e-05 
-3.83265024805374e-05 
-8.859357465865692e-05 
-1.695279258478402e-05 
-1.695279258478402e-05 
-9.547457943057571e-06 
-5.476720133952633e-06 
-3.360840863517731e-05 
-0.03173760004353766 
-0.0169040469495526 
-0.124598513267632 
-5.351415736393111e-05 
-9.289930464510922e-05 
-6.53882574247084e-05 
-2.46895992010139e-05 
-9.547457943057571e-06 
-6.325474359930115e-05 
-5.476720133952631e-06 
-5.476720133952631e-06 
-0.05449539514525553 
-0.06477200619080316 
-0.0001675406822522577 
-7.40915131327719e-05 
-1.554681025993633e-05 
-3.442821735249415e-05 
-2.70228827107677e-05 
-3.39948740845295e-05 
-2.295214490166278e-05 
-7.310489933489613e-05 
-8.742258451115662e-05 
-1.147607245083139e-05 
-0.006378047105270025 
-3.442821735249415e-05 
-0.00014735250419447 
-0.0001304542183432866 
-1.961754806904126e-05 
-0.002395747366767089 
0.003096827899995587 
-0.0001137548089130495 
-5.173118943914263e-05 
-1.147607245083139e-05 
0.01471826285555334 
0.09711732755812479 
-0.08069509096364826 
-9.149332232026156e-05 
-1.554681025993633e-05 
0.03762609663709366 
-1.147607245083139e-05 
-1.554681025993633e-05 
-1.147607245083139e-05 
-0.02827941257544498 
-0.0001103747294128193 
-7.898795459043394e-05 
-2.70228827107677e-05 
-1.554681025993633e-05 
-9.889865696198798e-05 
-6.903416152579115e-05 
-2.658953944280306e-05 
-1.961754806904126e-05 
-1.147607245083139e-05 
-6.261544068194051e-05 
-4.432585479741617e-05 
-1.554681025993633e-05 
-2.295214490166278e-05 
-4.176035496674403e-05 
-1.554681025993633e-05 
-4.025511698831124e-05 
-0.002652355660349982 
-2.295214490166278e-05 
-9.889865696198798e-05 
-0.04623941677698621 
-0.0003513990392522253 
0.4198941251699911 
-3.442821735249415e-05 
-1.147607245083139e-05 
-1.147607245083139e-05 
-1.147607245083139e-05 
-1.147607245083139e-05 
-2.661821370878773e-05 
-1.147607245083139e-05 
-3.442821735249415e-05 
-3.549479106582064e-05 
-0.01000918992737327 
-1.147607245083139e-05 
-1.147607245083139e-05 
-2.70228827107677e-05 
0.06692308287485277 
-1.554681025993633e-05 
-0.004322068430884141 
-0.01619745993413413 
0.01277414658179724 
-1.147607245083139e-05 
0.210557565166444 
-0.0705915511971407 
-0.0001441841048358537 
-1.147607245083139e-05 
-3.109362051987267e-05 
-1.147607245083139e-05 
-1.554681025993633e-05 
-1.554681025993633e-05 
-0.01860054790612354 
-6.151553718378568e-05 
-1.147607245083139e-05 
-0.01492498185584998 
-3.809428615961912e-05 
0.1461300945360398 
-0.003999126539147574 
-0.0550310990908188 
-1.961754806904126e-05 
-1.961754806904126e-05 
-1.147607245083139e-05 
-4.432585479741617e-05 
0.02607571368661909 
-2.838113493060427e-05 
-1.554681025993633e-05 
-1.554681025993633e-05 
-0.002662548869331841 
-0.0001633690965714817 
-2.70228827107677e-05 
-1.554681025993633e-05 
-1.554681025993633e-05 
-4.432371697983353e-05 
0.001319472848687541 
-1.961754806904126e-05 
-1.147607245083139e-05 
-1.554681025993633e-05 
0.04623514567365856 
-0.07417830334306719 
-2.295214490166278e-05 
-4.025511698831124e-05 
-0.002037592749051583 
-1.147607245083139e-05 
-2.295214490166278e-05 
-2.295214490166278e-05 
-1.147607245083139e-05 
-0.0001810949314943187 
-1.147607245083139e-05 
-2.70228827107677e-05 
-0.01826612391650651 
-5.173118943914263e-05 
-9.119846657728194e-05 
-1.147607245083139e-05 
-1.554681025993633e-05 
0.04654727256163207 
-0.008092192403170566 
-0.003004170653534796 
-1.147607245083139e-05 
-0.1408757277160663 
-1.147607245083139e-05 
-1.147607245083139e-05 
-1.147607245083139e-05 
-1.147607245083139e-05 
-2.968914409807726e-05 
-0.00632137456726747 
-2.295214490166278e-05 
-0.0001515373007456688 
-1.147607245083148e-05 
-1.147607245083139e-05 
0.005570172975095847 
-1.554681025993633e-05 
-8.742258451115662e-05 
-0.0001785112378294381 
-1.147607245083139e-05 
-1.554681025993633e-05 
-1.554681025993633e-05 
-1.147607245083139e-05 
-0.0001782454701324407 
-1.554681025993633e-05 
-3.109362051987267e-05 
0.08393947556280096 
-1.147607245083139e-05 
-1.147607245083139e-05 
0.2039682990586452 
-0.0231213810389947 
0.09216998006830397 
-0.0001155120409352508 
-0.01587537924195908 
-1.147607245083139e-05 
-0.03169443862321077 
-9.149332232026156e-05 
-0.01561853500715674 
-1.147607245083139e-05 
-5.98768742136839e-05 
-2.295214490166278e-05 
-0.1170986277759355 
-0.1472925035894845 
-1.554681025993633e-05 
-1.147607245083139e-05 
-1.961754806904126e-05 
-0.001536161725967193 
-9.149332232026156e-05 
-0.0267268600612303 
-1.147607245083139e-05 
-1.147607245083139e-05 
-2.70228827107677e-05 
-0.09951397404442662 
0.006945835280546536 
0.05124000248002596 
-1.877239302744415e-05 
-2.295214490166278e-05 
0.1021953106052354 
-1.147607245083139e-05 
-0.005769403940652182 
-4.732665904946741e-05 
0.2107482693692713 
-1.554681025993633e-05 
-1.554681025993633e-05 
-0.0003994163175358412 
-7.495113733731889e-05 
-0.002622396659706401 
-1.554681025993633e-05 
-1.147607245083139e-05 
-3.284764452900213e-05 
-0.0887971709841151 
-1.554681025993648e-05 
-1.554681025993633e-05 
-1.147607245083139e-05 
-0.06730795704946856 
-6.261544068194051e-05 
-3.442821735249415e-05 
-0.008829734444504848 
-1.147607245083139e-05 
-0.08727516309346425 
0.0530190432407436 
-3.691838233810706e-05 
-1.554681025993633e-05 
0.04780967404816526 
-0.0001265977157818011 
-0.05657477881927359 
0.3177610577467348 
-9.481786699227014e-05 
-1.147607245083139e-05 
-1.961754806904126e-05 
-9.149332232026156e-05 
-0.0001315696655257777 
-0.0001162016290486364 
-0.001261202676179764 
-7.559078868534374e-05 
-3.96077609520561e-05 
-1.147607245083139e-05 
-1.147607245083139e-05 
-0.00949539754470252 
-1.147607245083139e-05 
-3.442821735249415e-05 
-1.554681025993633e-05 
-1.147607245083139e-05 
-4.432585479741617e-05 
-0.02083325694346148 
-0.0006584553569813458 
-3.284764452900213e-05 
-2.70228827107677e-05 
-1.147607245083139e-05 
-1.961754806904126e-05 
-9.889865696198798e-05 
-4.432585479741617e-05 
-1.147607245083139e-05 
-1.554681025993633e-05 
-1.147607245083139e-05 
-4.432585479741617e-05 
-1.147607245083139e-05 
-2.661821370878773e-05 
-1.554681025993633e-05 
-1.554681025993633e-05 
-1.147607245083139e-05 
-1.554681025993633e-05 
-8.742258451115662e-05 
-1.147607245083139e-05 
-9.587113795450545e-05 
0.0003969636130344215 
-1.147607245083139e-05 
-6.668617849104542e-05 
-6.261544068194051e-05 
-0.000100764892986218 
-8.398701276011129e-05 
-0.09741269789388998 
0.000487934983464726 
-1.554681025993633e-05 
0.02266889371356975 
-0.02134296939361466 
-1.147607245083139e-05 
-1.961754806904126e-05 
-0.005263455490517362 
-1.147607245083139e-05 
-8.742258451115662e-05 
-3.914295135412704e-05 
-0.01406157876211465 
-1.147607245083139e-05 
0.07486990812035205 
-1.961754806904126e-05 
-0.006231981801576247 
-1.147607245083139e-05 
-0.00381994495111367 
-1.147607245083139e-05 
-1.147607245083139e-05 
-1.554681025993633e-05 
-1.147607245083139e-05 
-0.008691233557416765 
-0.09028001006388613 
0.009113214783822163 
-1.512423273913778e-05 
-1.961754806904126e-05 
-1.147607245083139e-05 
-0.0001288969501710059 
-6.668617849104542e-05 
0.005302160083192471 
-1.147607245083139e-05 
-0.0001927693478593619 
-1.961754806904126e-05 
-1.147607245083139e-05 
0.06156035286503563 
-0.007117272116294865 
-0.007974288070238473 
-1.147607245083139e-05 
-0.187061922194996 
-0.04313142450303347 
-0.0001154125624056903 
-1.147607245083139e-05 
-0.05416527125047031 
-6.765498529901981e-05 
-5.539725824626754e-05 
-1.147607245083139e-05 
0.102396532096198 
-1.147607245083139e-05 
-1.554681025993633e-05 
-6.838680548953593e-05 
-0.02183058642184365 
-1.147607245083139e-05 
-1.147607245083139e-05 
-9.149332232026156e-05 
-1.147607245083139e-05 
-1.147607245083139e-05 
-1.147607245083139e-05 
-6.162668906648205e-05 
-1.147607245083139e-05 
-8.742258451115662e-05 
-0.002392465798641665 
-1.147607245083139e-05 
-0.1064886604254643 
0.01202447601556043 
-1.147607245083139e-05 
-1.961754806904126e-05 
-0.009859077387771802 
-1.147607245083139e-05 
-1.147607245083139e-05 
-1.554681025993633e-05 
-3.956552887492559e-05 
-0.01015248205932615 
-1.147607245083139e-05 
0.02451452662419694 
-4.025511698831124e-05 
-5.690249622470035e-05 
-1.961754806904126e-05 
0.06440699307093475 
-1.147607245083139e-05 
-0.08092467057836986 
-1.961754806904126e-05 
-1.147607245083139e-05 
-1.554681025993633e-05 
-1.147607245083139e-05 
-9.149332232026156e-05 
-1.147607245083139e-05 
-0.03697230534552085 
-0.02572440751399011 
-4.025511698831124e-05 
-1.147607245083139e-05 
-1.147607245083139e-05 
-0.1033102449054948 
-1.147607245083193e-05 
-1.147607245083139e-05 
-0.002714823157851837 
-0.003256820613124661 
-0.05736310505343436 
-4.025511698831124e-05 
-1.554681025993633e-05 
-0.0009692482017538119 
-1.512423273913778e-05 
-1.147607245083139e-05 
-1.554681025993633e-05 
0.03441518475846518 
-1.554681025993633e-05 
-1.147607245083139e-05 
-1.147607245083139e-05 
-1.554681025993633e-05 
-0.0003264198999400906 
-1.147607245083112e-05 
-0.0009524035805335709 
-1.919497054824273e-05 
-1.147607245083139e-05 
-0.00335280263382112 
-0.003564374094372846 
-0.05318818450562609 
-6.933268359914469e-05 
0.2085743999747869 
-4.025511698831124e-05 
-1.961754806904126e-05 
-1.554681025993633e-05 
-0.01103515318611352 
-1.147607245083139e-05 
-1.147607245083139e-05 
-0.0001674398343805866 
-0.0008419460603091432 
-4.025511698831124e-05 
-0.0002244026067356475 
-6.21292495822454e-05 
-1.147607245083139e-05 
-1.147607245083203e-05 
0.3089515495605938 
-1.147607245083139e-05 
-0.0001084554047678981 
-0.02877935331490336 
-1.147607245083139e-05 
-8.742258451115662e-05 
-2.70228827107677e-05 
-5.69033575658402e-05 
-0.2689284033997821 
-8.742258451115662e-05 
0.1447697184058753 
-0.01507936210473173 
-1.147607245083139e-05 
-9.546522302852524e-05 
-0.01336190205818179 
-8.829255421828979e-05 
-1.147607245083139e-05 
-3.691838233810706e-05 
-9.149332232026156e-05 
-1.554681025993633e-05 
-1.147607245083139e-05 
-0.006085780868229078 
-1.147607245083139e-05 
-0.1218690726549849 
-5.063693232377699e-05 
-0.06500436864868867 
-1.554681025993633e-05 
-0.003809509421224998 
-0.0296689894906711 
-1.147607245083139e-05 
-1.877239302744415e-05 
-1.147607245083139e-05 
-9.149332232026156e-05 
-4.771111964642531e-05 
-0.06869192959214127 
-1.147607245083139e-05 
-4.025511698831124e-05 
-9.852958865360651e-05 
-0.002100356004395124 
-1.554681025993633e-05 
-2.295214490166278e-05 
0.1245864495967803 
-1.554681025993633e-05 
-1.147607245083139e-05 
-1.147607245083139e-05 
-1.147607245083139e-05 
-0.01297014807448688 
-5.95135096808099e-05 
-0.01149169313231601 
-1.554681025993633e-05 
-1.147607245083139e-05 
-1.147607245083139e-05 
-1.961754806904126e-05 
-4.073187328094404e-05 
-1.147607245083139e-05 
-1.554681025993633e-05 
-0.0002856290267542445 
-0.002535157654292628 
-1.554681025993633e-05 
-1.554681025993633e-05 
-1.554681025993633e-05 
-0.03209948267508449 
-1.147607245083139e-05 
-8.742258451115662e-05 
-5.421921660717293e-05 
-0.004761593737179706 
-0.01569703641087216 
-0.0194776164335035 
0.03993900002715468 
0.02206226008840085 
-0.02755709205622872 
-0.03601728968752353 
-0.0244195200917451 
0.05794774572510705 
-0.06857362418121607 
-0.008976110069821967 
-0.01135798047070562 
-0.1284831164803451 
-0.008938369969376919 
-0.1912848243107839 
-0.01110106300677365 
-0.07111967385140465 
0.002267041578589462 
-0.23376718350901 
0.07036882852195282 
-0.06879347417512778 
0.04850486989558533 
0.2761076276389176 
-0.04937970610869848 
-0.008938369969376919 
-0.1868070798283678 
-0.009334782853863096 
-0.01618461902705711 
-0.03463163347196588 
0.4136017688944248 
-0.0079539125911437 
-0.01787673993875384 
-0.06672283597734575 
0.3315239515068816 
-0.009711868259056977 
-0.009861699180272738 
-0.00157853913285432 
-0.07391553289434094 
-0.0762330496000094 
-0.1161440823584001 
-0.1161522238340184 
-0.0647759565306555 
-0.1177508157836891 
-0.1124356637151484 
0.09713053975601632 
0.02177318167408682 
-0.07573363854409389 
2.117732731573912 
-0.02760569069823889 
-0.1344417113284709 
-0.1233713310506187 
-0.04140853604735832 
-0.1655828025052908 
-0.0126377101637185 
-0.03062384539765656 
-0.0499375854716585 
0.009263640065244178 
-0.02561750396151415 
-0.05700110866230125 
0.018593951244317 
-0.02813965905943703 
-0.02628544888332899 
-0.06878222090404494 
-0.1671832213659938 
-0.06629727085364956 
-0.04339372355595352 
0.763164354343737 
-0.1564188381663871 
-0.04344499389323988 
-0.1065440740350652 
0.6536789043187948 
-0.06660873152468504 
-0.003690663726474858 
0.1334211690387519 
-0.4597065346476317 
-0.01901686750410638 
-0.07561839328493893 
0.05775881857563483 
-0.2656453041968405 
-0.2566849891301204 
-0.003556848233873301 
-0.09903150443394587 
-0.003556848233873301 
-0.00537851292704657 
0.2777133708126502 
0.01298679336605208 
-0.1332765179632109 
-0.1516452724638201 
-0.09832970973328427 
0.01461274778955999 
-0.009249790428612164 
0.1256165322323869 
-0.00710586674628304 
-0.00710586674628304 
-0.00710586674628304 
-0.00710586674628304 
0.2613902125987636 
-0.00710586674628304 
-0.03192209599541839 
-0.00710586674628304 
0.1649091482699779 
-0.00710586674628304 
-0.02918979116591541 
0.2279775716484727 
0.008543661806921425 
-0.02444966582334642 
-0.001340131441498596 
-0.02287537817629516 
0.3228985431335866 
-0.1043715663232687 
-0.02057807243344693 
0.004611603724591492 
0.1220288262444632 
-0.002371670379936021 
-0.02623375513264836 
-0.2613777771034689 
0.01507098214658387 
-0.01825798505335453 
-0.003239136158698241 
-0.04643160317044195 
-0.3311378709060164 
-0.07733325886874894 
-0.05645774831544957 
-3.066595789805811e-05 
0.01008405604858383 
-0.007613224239817736 
-0.001216994464337771 
0.5124778375087038 
-0.02607372762237805 
0.051094515174804 
-0.03844779354515695 
-0.02366876038719111 
0.2145820289755493 
0.01310959764198816 
-0.01161184514015879 
-0.01684525543824593 
-0.01697925317828104 
0.03188665259583554 
0.01106467142849772 
0.1403272993139514 
-0.1781779946176499 
-0.03159937840956555 
0.06682462179666065 
0.05773479908863927 
0 
-0.04505382520783472 
-0.01106369682719537 
0.05086448250141888 
0.01029031638406363 
-0.01452658264377688 
-0.5238270994907885 
-0.1285797974797895 
0.01130070335014102 
-0.01045875490083701 
-0.02574798831571701 
0.053699845029991 
1.315320409880138 
-0.02091750980167402 
0.02934315869528685 
-0.01401594228039663 
-0.001321938072175868 
-0.03825872591255044 
-0.1652738717074813 
-0.02811751746728532 
-0.01890933098874165 
-0.2049410043883492 
-0.005395876576835059 
-0.4653957589855773 
0.2615505062032671 
-0.2573934542152018 
-0.02212204644969034 
0 
-0.06231189907198249 
-0.05595399820822326 
0.1325211327029933 
0.05741997385598661 
0.09348701542065148 
0.1242951993061254 
0.06626056635149663 
0.1418145547839769 
-0.004477202898834516 
-0.0720375498430899 
0.07987772001814415 
-0.06174848331968152 
0.03159826995382346 
-0.00758483852866017 
0.01154619490277651 
0.2148282486563749 
-0.02298441882529051 
-0.008564909311263821 
-0.007745077049974951 
-0.003792419264330085 
-0.1516625818068966 
-0.05891838699024744 
0.1404929503401745 
0.0823206972304235 
-0.03366546452362936 
-0.02376705583732846 
-0.2688702524795303 
-0.07400077553928951 
-0.03386411921899884 
-0.2851569341658816 
-0.1626442050731202 
-0.06129301316957414 
-0.02395417647282747 
-0.422623403100445 
-0.004593370408594726 
0.0132636197450502 
-0.09825897861587821 
-0.07901388879762683 
-0.01000911285209043 
-0.1069913850831559 
-0.1069913850831559 
-0.06473453049282424 
-1.379074821837577 
-0.005004556426045215 
-0.1508614486477255 
-0.04323613636820121 
-0.01441204545606707 
-0.06074494712838709 
-0.0913224672175498 
-0.01441204545606707 
-0.09181621129346727 
-0.01565310700819172 
-0.05271426757646681 
-0.01441204545606707 
0 
-0.004214539137977448 
0.02939597275678835 
0 
0.2948751206948206 
-0.1023382146167423 
-0.03203219166593434 
-0.03203219166593434 
-0.09561285499659188 
-0.1728386580775406 
-0.1381994001477241 
-0.05949390290808576 
-0.2918680217913135 
-0.05823684818123217 
-1.385975823109352 
-0.1587784874178711 
-0.04737081485322431 
-0.381191090382524 
0.02094473500533907 
-0.08018401767419353 
