solver_type L2R_L2LOSS_SVC_DUAL
nr_class 2
label 1 -1
nr_feature 38532
bias -1
platt's -12.42533966807844 -0.8548763227227049
w
0 
-0.2888471664765155 
-0.2888471664765155 
-0.4319644358159008 
-0.6315493403439774 
0.008604160934781578 
0.3231972145635981 
-0.1914377509724737 
0.1148246449449889 
0 
-0.05825296009037535 
0 
0.005616398541782554 
0.03566823679291684 
-0.0151862006690962 
0.0209337589855935 
0.2158774678159416 
0.002113001918738502 
-0.1564021200669156 
0.7315805996018333 
0 
-0.1589529056749225 
0 
-0.01318968777596637 
0.8856331138698087 
0.07112514720812402 
-0.10300546511856 
-0.03512869107285042 
-0.0603516426116953 
0.005910125475892636 
-0.06048567418834638 
-3.19660473077115 
-0.05814127629938955 
-0.6466808237605637 
0.2660611865095248 
-0.002931905995179792 
-0.09970365111811158 
0.1500139668319982 
-0.1880467933986883 
0.008656538076103117 
0.07172817203858503 
-0.1368546966916379 
-0.0280001748227687 
-0.0005536339834285226 
-0.2838770597047504 
-1.114695847460998 
-0.04055544442233328 
-0.07508385225680311 
-0.1927525785261232 
0.1295935508201587 
-0.6622720790936854 
0.2231136554238755 
0.2344033488426163 
0.2250021198062219 
-0.04781703360984717 
0.03127092103835293 
0.2794883030425752 
0.002957943862096822 
-0.06332491869766715 
0.1954758289742965 
-0.03538502360587732 
0 
-0.0642638323570207 
0.01299036979220536 
0.02841899844506331 
0 
-0.03333944271045298 
0.01035186859982204 
0.006634667430403045 
0.04911816256505475 
-0.0203599223753419 
-0.08108707990359212 
-0.1192543733761441 
-0.1923842988235593 
-0.05964059608553868 
1.030933825714588 
-0.05778280891328971 
0.1237124620905927 
0.2622894559388607 
0.02071937637324913 
-0.06337721950246174 
0.009322534817948733 
0.2968334747229807 
-0.7337616115415303 
0.4448640862911021 
-0.2297889378815282 
0.1078049197892333 
0 
-0.02452197510345201 
1.272928723880535 
0 
-0.0001782514057570129 
0.1362220819222575 
-0.2096134286909353 
-0.1281032584042797 
0.07509245406738892 
-1.517628615550424 
-0.05041286036915802 
0 
0.02043345961265849 
-0.0066799316375219 
0.1593772623633654 
0.05029310663450534 
0 
-0.0157031394246651 
-0.327142412151056 
0 
0 
-0.4054085348404513 
0.1134047353410584 
-0.09532849583922515 
0.005783177113430004 
0.01047713626981086 
0 
-0.01075038462247061 
0 
0 
0.41817287476875 
1.616982015947645 
-0.003931747059211387 
0 
-1.555514330822619 
-0.161406003259999 
0 
0 
-1.813069242881917 
0 
-0.02341677574032339 
-0.02623161006838123 
-1.416131661461837 
0.01195484145064635 
0.5176224331360039 
-0.0520462701776677 
0.05343310988542136 
0.1343894828286817 
-0.08483505133469642 
-0.7432903241904028 
0.5244838610235314 
-0.01700740145871993 
0.1304396357972817 
0.2164798153128388 
0 
0.07864944632021134 
-0.2096445842030751 
0 
-0.08407809548601203 
0 
0.04709449404446033 
0.1248033485391744 
-0.04751288990544085 
0.4958051541273494 
0.3216498349070789 
0 
-0.04183747758014178 
0.08523586530538729 
0.0001416195574727698 
-0.667511305673012 
-0.03173777642605667 
-0.2285493702355113 
0.3777269511591837 
0.3429775833358414 
-0.365893701349952 
0 
-1.406453380781935 
0.3151126387136908 
0 
0 
-0.2509164858673632 
-0.05442570268812041 
-0.03610652070361424 
-0.6843261309380904 
0.02791119407605952 
-0.04271545926032801 
-0.07538415983014961 
-0.3206618104835591 
-0.6599476351174887 
-1.185733807099495 
-0.2487091775051262 
0 
-0.13328278906857 
0.07524391898371122 
0.4114899232420889 
0 
0 
0 
-0.1255299285748966 
-0.255061218271367 
-0.2059827074095811 
0 
0 
0.02918195310472322 
0 
0.001808134926420048 
-1.727094722431928 
0.8957263897163668 
-0.4356788924096145 
-0.07631611662227815 
-0.2004009754029612 
-0.03476628478988714 
0 
-0.04300479433300584 
-0.1375659377661845 
0.05727272316274273 
0.4002714346312994 
-0.5958446328145273 
0.0528253229406527 
0.03554850453284785 
-0.09648285343646273 
0.03456879473771204 
-0.003058007602321708 
-0.3432784366902248 
0 
-0.009403017393395524 
-0.0692589226838395 
-0.1116149197150283 
0.1145164156731462 
-0.922711130075993 
1.523739506844003 
0 
0.03238283817872049 
0.655904362726719 
0.002148956463187296 
-0.03033520243326051 
-0.013368544695945 
-0.2899237600285808 
0 
-0.1659694139484441 
0 
-0.08141019219246379 
0.003346574087574416 
-0.2365310081290539 
-0.7559708297167512 
-0.3477694489967364 
0.3639676504546427 
0.9950961916856563 
0.346737634467541 
0.5656322904374788 
-0.1954603044505199 
-0.8783359437513014 
0 
-0.2563650180394591 
0 
-0.3337227722093839 
-1.06408040530157 
0 
0.4134722207113516 
-0.01982870672419543 
0.05814367814672859 
0.1662348667567833 
-0.5995705420995566 
-0.07296660306509675 
-0.0778540272684575 
0.04448052421988585 
-0.05954873181787652 
-0.2882862623052636 
-0.1130881848439991 
-0.0439577522618716 
0 
0.08949693112978967 
0.4916843725014384 
3.176244281014101 
0.07399864401371568 
0 
-0.02146293658591854 
0 
0.3237561494847689 
0.3833682881171696 
0 
-0.006976534284357736 
0 
0 
0 
0.05028223719639399 
0.005899631692941668 
-0.2178800150328457 
-0.468540516378303 
-0.07174777883889766 
-0.1373203001390017 
0.03734823225029311 
-0.01217526710708197 
-0.07913283804143199 
-0.5128105095793378 
-0.002281308583385939 
1.044747370400548 
0 
0 
0.005999698550120973 
-0.08400635779819568 
0 
0 
0.591701013358598 
-0.01406920750319139 
0.1554921228081478 
-0.3835129132813546 
0 
-0.5544208858501535 
0.0115481371606904 
0.2667508156350623 
-0.1002933382380161 
-0.913668919452659 
-0.5367828359089836 
-0.07373207688640755 
0.01722517950991952 
-0.2998676465718524 
-0.919989930206922 
-0.01260442397115019 
-0.1225113977342494 
-0.4102023894274774 
-0.07093801948692492 
0.17602286801799 
-0.2715681222781828 
-0.0005251793818425772 
0.4997453701303977 
0.005678807593651446 
-0.2212413162317021 
-0.1654402542394867 
0.02938258574461796 
0.1083227567018083 
0.5364430501654703 
0.7202210298821334 
0.005999698550120973 
-0.2874168953734771 
0 
-0.04174221033266841 
-0.04174221033266841 
0 
0.2811471883720893 
0 
-0.04247714645640543 
-0.0988540694134827 
0.07945373205652449 
-0.4883910589154921 
-0.434911216731506 
-0.0950560797474469 
-0.08621683226954761 
0.05169135321971917 
0 
-0.03891739612663488 
-0.3417856805088723 
0 
0 
0.04194616725811494 
-0.1086277106311292 
-0.0296336247515469 
0 
-0.2859646494098062 
-0.03827993129065314 
-0.2787047860334038 
0 
0.1513528686510179 
0 
-0.1245729331297491 
-0.6786299212175754 
-0.4842625258203098 
0 
-0.1283235283334844 
-0.01522964452749882 
-0.3105524027598456 
0.3187381642467147 
0 
0.09252561103271829 
-0.1536256743302744 
0 
-0.1621608864907351 
-0.1042190366627614 
0 
-0.0490845342421392 
7.080977873638489e-05 
0.04148563738591489 
0.1384605290340216 
-0.003693933243756354 
0.04869069591115869 
-0.2311962477161014 
-0.4787545577701873 
0 
0.06392166244431435 
-0.06781584977365965 
0.0420715231288375 
-0.02073181944160158 
-0.497094989101294 
-0.06535756375188241 
0.336397303349987 
0 
0.02535597121688094 
0.1418072215149918 
1.472914822564559 
0.38705567493766 
0.01190003688197292 
0.2034029234099614 
0 
0.09977329349400998 
-2.281003519504041 
-0.06835280741043448 
0 
0.05384869098203961 
-0.2271471981027038 
0 
0 
-0.002558134651966583 
-0.003940590531714424 
-0.2096684505002573 
-0.3719361198864449 
0.2040455193780638 
-0.1606570957175801 
0 
0 
-0.07066571571168205 
-0.2208994594157752 
-0.05719917259597069 
-0.442461665400819 
-0.175550950555614 
-0.1315162453758045 
0.2160002084043001 
0.009120236091354712 
-0.03498063728519502 
0.2525039082322947 
0.3293281869859779 
-0.001059788336817529 
0 
-0.02498799189104604 
0.1420065366964677 
0 
-0.2277262162581653 
-0.2745360479060046 
0.2685530978698543 
0 
1.65632519046047 
-0.1440829995739045 
-0.09875948971293169 
0 
0.1248544568252164 
-0.4101204496916238 
-0.05511148728795999 
0 
0.01821680191953229 
-0.006745671292169855 
-0.3012841699486912 
-0.2217511089833131 
0 
-0.00835092921473643 
-0.07860188713462396 
0 
0 
0 
-0.04116239238944217 
-0.02431352575911251 
0.05361562345895505 
-0.2617015372719568 
-0.2801437249502371 
0 
0.4701001971006453 
0.4674002160225277 
0.2888824937551523 
-0.1283506206103689 
-0.01663439649583185 
-0.4988895846198289 
0 
0 
-0.9267766843787897 
0 
0.4504535603786295 
0.354638300953738 
-0.04288457005440701 
0.4028922803665104 
-0.2348572097142494 
0.2219842482289765 
-0.005891289208469753 
7.080977873638489e-05 
0.4794880503806084 
0 
0 
0 
0 
0.4520248119260126 
0.6817665778518784 
0 
0 
0.1014515577884527 
0.3412330174974531 
0 
-0.02777998160349001 
-0.1169840549129625 
0 
-0.09220609927543855 
0.03668105693817736 
-0.1599741391200803 
0.009835320857007966 
0.001284251107856491 
-0.5832898188355097 
7.080977873638489e-05 
-0.01261381840302751 
0.1765984010131209 
0.03781305818689328 
-0.2692956250458481 
-0.05490212158784888 
-0.3769480755748135 
-0.03897732669615943 
-0.06977378455546979 
-0.7062478895029284 
-0.03760642882394784 
0.0006703359310442524 
0.03519382781382979 
0.03883153028351768 
-0.1556367991719204 
-0.03920603837633779 
-0.04434932007788003 
0.7085667398238027 
0 
-0.6058688421866476 
-0.1561479986643992 
0.03852271958845063 
0 
0.6614023575042492 
0.2295485700229626 
0.02518972455105558 
0 
0.06738829909814609 
0 
0 
-0.06365688499433855 
0 
-0.08317139264134922 
-1.411813892999299 
-0.01005828805823471 
0.162330622939306 
-0.5753775982181365 
-0.06064297626333623 
0 
-1.91699737798495 
0 
-1.017837513865968 
-0.03533861815526694 
-0.03768823169408176 
-0.8099439401958779 
0.1382753709560686 
0 
0.04161694074721069 
-0.6743927414418928 
-0.8466349883084495 
-0.004562097615039183 
0.01596096111136725 
-0.7149397231555192 
0.1054092142266992 
0 
0.007527568092656934 
-0.2175942781556198 
-0.5112302828117448 
-0.1198501153185619 
-0.2070014268126213 
-0.04572251137260781 
-0.04779151814447494 
-0.04106501988463428 
-0.07057890898816889 
0 
0 
0.05247476095876722 
0.04694593683369733 
-1.062224366529313 
-1.127825332519464 
0.005273860496795154 
-0.2823730416293607 
0.6159433476581803 
-1.036065465540311 
-0.0344470359755581 
0 
-0.389389272519234 
-0.1082945873341565 
-0.03050992737121113 
0.01667765383945786 
-0.008675759052951029 
0 
0.09369820567844737 
0 
-0.02720339466636875 
-0.03483644708143886 
-0.02538507842043508 
0.05066621568589885 
-0.4697138189864692 
-0.2155462536982465 
-0.02771556031827342 
-0.07166733194297729 
0.3356737377852093 
-0.1063467392640161 
-0.0824466585064578 
0.04596188107627913 
0.02644926559960241 
-0.07134337979716071 
0.06632842279640574 
0 
0 
-0.1941894289137013 
-0.05942927571849348 
-0.136801968826263 
0.143388785875903 
0.05270434957287964 
0 
-1.901860728486176 
0.8691515248278339 
0 
-0.01017978991531323 
-0.002134577264377927 
-0.1143222598207749 
0.06381043188059535 
-0.5546248210471317 
-0.5389791113827679 
0.2933821044395741 
0 
-0.005484216024584251 
-0.04091060803491559 
0.1978913445983241 
0.1142341255672961 
-0.05698878201365059 
-0.006898142324874654 
-0.2209453585590601 
-0.0587038543381895 
0 
0.1511725640582551 
-0.01592346598093256 
-0.5248695287795921 
0 
-0.01940921600911471 
-3.245909355088025 
0 
-0.1238965626617201 
-0.03401919597855806 
0 
0 
0.2650170814178857 
-0.01565574559597424 
0.02813178729870662 
-0.4050340656378167 
-0.1927847782794488 
0.03257837376984687 
0 
0 
0.0711830579161077 
0.5996210458108132 
-0.07705293286808503 
-0.3826490914654709 
0.5497277127576811 
-0.1490819589870185 
0.01770897379093372 
0.3453416005879578 
0.03242723565575824 
-0.2313268805328861 
-0.02617553923998113 
-0.4732057261407871 
-0.2324008100934491 
0.08714924030405842 
0 
-0.1638862634972189 
-0.4583982264664225 
0 
0.2531369396455991 
0.0694965397958211 
0.05414662921340754 
0.808705511187998 
0 
-0.04535732893657656 
0.5177118479133813 
0.3257478696284825 
0 
0.03834444597630778 
0.03834444597630778 
-0.06288615563669728 
0.05195527783469027 
-0.03437844597439769 
0.0989740790764375 
0.2097301703985813 
-0.007454376785514646 
0.4393638139345319 
-0.05861013832673456 
-0.1848405781954136 
0 
0 
0.005231952603543187 
-0.9108030666394411 
-0.2094181758544889 
-0.08592685006106524 
0.04238641885657598 
-0.8889248705152071 
0.1647819126430948 
0.02376432079216306 
0.1271118822856417 
-0.07569567164424126 
0.05238609343273917 
-1.574261423427172 
-0.01905851224858884 
0 
0 
-0.2512508723031605 
0 
-0.06238808153428963 
0.8011116233165744 
0 
-0.08216439622075461 
0.1118352890928545 
0.0690524375554783 
-0.2045960500736883 
-0.00650166737605515 
-0.480712290000205 
-0.3838840157726739 
0.02061630216340335 
-0.04574000240477133 
0.5803231751079981 
-0.4010811782528536 
0.0337319862602601 
0.003052865816219354 
-0.2503046732554016 
0 
-0.08069115286223066 
-2.491338362129299e-05 
-0.1162736412621025 
-0.05828172290465725 
-0.05680703658837834 
-0.04050044330016341 
0 
0.2696647135734841 
0.05878139490999168 
-0.1249578812320297 
0.1803833914653591 
0.02568393663023909 
-0.08647604957871902 
0 
-0.239294253484989 
-0.03928592002756627 
0.3936095554666402 
-0.09187097785067877 
0.01446195604529962 
0 
0.03061846044199663 
-0.07856196830832794 
-0.01250903078490302 
0.2461773120048011 
-0.1306931195756162 
0 
0 
-0.01209513879779473 
0.1097479222050512 
-0.07118081218583137 
-0.03275402452848192 
0.002139801902711791 
0 
0 
0 
0.5925313793929063 
-0.2063787108548915 
-0.1844117786920168 
0 
0 
0 
-0.07985633955322674 
0 
0.2604359903421399 
-0.1002747907963533 
-0.03554443223998492 
-0.7259545095698293 
-0.04468318832912983 
0.004995558662665761 
0.07251339897408023 
0 
0 
0.004151743410614809 
-0.05265395164822784 
0 
0.04525406280345229 
0 
-0.3930204523115976 
-0.1083112259036724 
-0.07219449364017561 
0.374344967135244 
0 
0.009633920738019502 
-0.1080173524776445 
-0.0927107333918339 
-0.1208927827634716 
0.01302818072098513 
0 
-1.75401302963807 
0 
0.006927659150691691 
0.06359814297870793 
0.2266961411416235 
0 
-0.02928386988160976 
0.03986645023060584 
0.2509088547924137 
-0.05055584656888641 
0 
-0.02785547222223119 
-0.06796344116011872 
0 
0.1249147161976392 
0 
0.1765487785711296 
7.379670010527199 
-0.4385866201898776 
0.006063464828506597 
-0.007328502934807181 
-0.1937285977909668 
-0.2428327147234189 
-0.1301052588545954 
0 
-0.09444320665584023 
-0.02285278353872283 
0.004523338621946211 
-0.03084370927478065 
-0.05578219931199157 
-0.1721347237601035 
-0.01034196061747569 
0 
-0.1560158941465372 
-0.04901062906804909 
-0.07046252673156532 
0 
0 
-0.01311090492637315 
-0.01537934653815303 
-0.05935632921152403 
-0.3337749591473286 
0.04065815570710159 
-0.003461727827762181 
-0.044405991989755 
0 
-0.03345885708307281 
0.221594709036964 
-0.1626383626971692 
-0.004055845864360744 
-0.008159801878978778 
0 
-0.2159894012346267 
0 
-0.1116127109506803 
-0.03191182985927683 
0 
0.05149908862905769 
0.8742082346321325 
-0.07564377090295053 
0.05780261856788365 
-0.1291510004439974 
-0.07359924955392966 
0.1033050615892319 
0.175606247365859 
0.1403177247548455 
0 
0 
0 
-0.02795902386992775 
-0.1248941121659112 
0.02944404856162032 
-0.3122634843171198 
0 
0.04458761608758087 
0.03515856929859939 
0.007657931131533614 
0.3976004929867254 
0.2942736648480449 
-0.1513275723440555 
0.01127680145421682 
-0.1765714867250709 
-0.4217646779258882 
-0.02277101524992274 
0.01382045943594016 
-0.000372783835704644 
0.1063831385216921 
0.0009129842915867005 
-0.2339051336722585 
0.008643963314994044 
-0.001456465635570552 
-0.09571796625529283 
0.07992925674201283 
0.04844715236024297 
-0.2037073067482132 
-0.7753870181757698 
-0.3520454196937917 
-0.09592791651686562 
-0.03008954067949424 
0.1154933742388135 
0.06322032939256508 
-0.408193785629199 
0.1333172107199707 
-0.008536795206217416 
0.1637498614084006 
0.1062671196251176 
-0.8283459569919024 
0 
0 
0.09714437118746605 
0.005873019375448109 
-0.09826904220363444 
-0.002100717527370309 
0.3660586642666911 
1.069161456156525 
0.2615198770011151 
0 
-0.127457970790534 
-0.07990496461995626 
0 
-0.3314632830734766 
-0.2343963315908186 
0 
0 
0.07437955734164914 
-0.0003208909564695282 
-0.5777481101048955 
-0.296553384805027 
0 
-0.0005251793818425772 
-0.09597477161426111 
0.110809865863803 
0.06129544082718252 
-0.01071176934088776 
0 
-0.03738123199623748 
0 
0.5755011005362922 
0.2929949172482937 
-0.1608101329891868 
0 
0 
-0.04473384847334873 
-0.04796050742242311 
-0.0103954521496947 
0.2823256630832567 
-0.04959106515913262 
0 
0 
0.08442801865793109 
-0.2364474833280632 
-0.3511161928000732 
0 
-0.3722024411025371 
0 
0 
0.1172775007076848 
-0.3182027562927934 
0.317464589849271 
0 
0.02790285486971326 
-0.1369995354432327 
-0.23409049747026 
0.01020272670509992 
-0.05741595282045447 
-0.004020273212888205 
-0.01081147889830246 
-0.254982345457328 
0.05890724793098234 
0 
0 
0.02658921896394443 
-0.09734861393003107 
0.01730231705469239 
0.02857461679516584 
0.01200021401991302 
0.209140995464693 
0 
0 
0 
0 
0.02058471309928154 
0 
-0.02911268916589429 
0.009171337788658276 
0.452334107531417 
0.0001048096840426735 
-0.07535676755092333 
-0.3225532464329701 
-0.3073042636603033 
0 
-0.01455634458294714 
0.05670725056788291 
-0.01240294881362699 
0 
0 
-0.233650074005127 
-0.05765806895146188 
0.3285581074951637 
-0.02022170992170167 
0.1082768689143055 
-0.1091314438713241 
0.008425571832228317 
0 
-0.06163724587632837 
0 
0.08498626429065401 
-0.2402269985833544 
-0.01134448696692196 
-0.1984676368337049 
0.5033660442384306 
-0.1522974751767667 
0 
0 
-0.1598667649195849 
-0.2777131967421175 
-0.03109105291416552 
0 
-0.02647592871506342 
0.7230675321917197 
0 
-0.008574709670732599 
0 
0.07647222537011818 
0.002792137631276545 
0.02781337662780192 
0.1053376490841278 
-0.133879010868919 
-0.1306566049473794 
-0.2031603488437196 
0 
2.862961176978047 
-0.1231826522759963 
-0.3831684692511841 
0 
-0.07929786163796741 
-0.02095505452380589 
-0.2999704630814776 
0.1252640689561777 
0.08764426809915367 
0 
-0.09606765901872248 
0 
0.06342044547359366 
0.1057797987466851 
-0.007206020171657796 
0.1822379657496002 
-0.1147117254764572 
-0.0361499149858605 
0 
0 
0 
0.07059197811822672 
-0.1466849973352106 
-0.04225022836184122 
0.08050411064314181 
0.01710859276841253 
0 
-0.003205294345408319 
-0.05356369142986999 
0 
0.2661788955292378 
0.005129591674260172 
-0.1382609517562642 
-0.1625945902118852 
-0.04199145514529552 
0.3210640146952077 
0.01768035862264531 
0 
-0.1024497568057101 
0 
0 
0.2079233798545577 
-0.1038868385065576 
0 
0 
-0.001573383951933082 
-0.08368548711477232 
-0.9464069945654455 
-0.0276625892124805 
-0.1298978898609016 
-0.03676550889770312 
0.01683957937231497 
-1.205593871964616 
-0.01206476775691467 
-0.1372968540675419 
0.3415775168015377 
0.06186797810131974 
0.2044367935909531 
-0.06326194362744486 
-0.01149162518762135 
-0.01590774743961974 
0 
0.3444191189855467 
0.009954760041600379 
0.03624607136673264 
0.1936293920388591 
0.2036366791879303 
0.2570011288118867 
0 
0.01265362092744502 
-0.7939178382825774 
-0.0314592959025365 
-0.03448847893136064 
-0.07559803735761389 
-0.07042401415082405 
-0.264101205162283 
-0.4253883312850854 
0.0557689674484414 
-0.0438785023545875 
-0.1722739015275792 
-0.008950430824469743 
-0.0161819491412651 
-0.01296964254030598 
-0.002941837470721401 
0.004809244749968105 
0.4055439157601363 
-0.3984749343718536 
-0.1103224946970465 
-0.2261191905315544 
2.296208413395066 
-0.0126762205302765 
-0.03092175053445883 
-0.2188371330677904 
-0.1963833444130687 
-0.01191141532441789 
-0.3400606681934906 
-0.4839322567067212 
-0.0478219344269952 
-0.01079162927825171 
-0.02614187956275384 
0 
0.1776762851734662 
0.0569408842270888 
0.0224273384174536 
-0.2114654761817884 
0.008213801961706828 
-0.1441945530876602 
0.1226744890783927 
0 
-0.02224618706440826 
-0.05224422835657957 
0.01293500063434002 
0.07581816225153 
0.01851522150556559 
-0.1429360434710235 
-0.3612893891955422 
-0.3389944835931074 
-0.2363188405393918 
0 
-1.084202172485504e-19 
0.3722248558135028 
0.006311740501406056 
0.152357886639262 
0.00810887026287809 
-0.1307721064173988 
0.1340832350167364 
-0.06754939104759362 
0.05384377762778407 
-1.863472483959461e-20 
0.05194952563010904 
-0.1712367579336437 
-0.326716141963053 
0 
0 
-0.007841418418620238 
0.5962794245640435 
0 
-0.08124838527290924 
0 
-0.2402050841801943 
0.4859592513196991 
0 
-0.004692461145890466 
-0.003137493351248986 
-0.1877882704127839 
0.09890652845315261 
0.008731076120888607 
-0.130358264863088 
0.5746604654452124 
-0.3393724118840205 
-0.009790798432905919 
0.08225542761805835 
0.03475009138683787 
0 
-0.1547128555796452 
-0.07770337117205652 
-0.09211971632318063 
-0.009399751830095915 
0.0004365730264044303 
0 
0.007686945020190768 
0.001338410882106637 
-0.1669133352535207 
-0.1115691320785426 
0.001176430138861457 
-0.09226139405714338 
-0.03347110823269078 
0 
0.006661782290800474 
0.02614560426425332 
0.1093576037986061 
0.02795648364499952 
-0.439605602891246 
0.02223521229432613 
-0.03854808331954381 
0.07904831418631761 
-0.01725368664861932 
0.004608312766578255 
-0.1070485917657788 
-0.08596802896556589 
-0.2229334733426613 
-0.1074118599451076 
-0.05022001599057502 
-0.05022001599057502 
-0.03034784693738735 
0 
-0.0196233773280193 
0.1158699066329126 
0.007303988294489448 
0.2880147382722964 
-0.07620964509550136 
-0.03134014476849931 
0.1572988623140684 
-0.08861775095715191 
-0.2797292254407187 
-0.1962791143529484 
-0.5451416294707075 
-0.1394432088639277 
-9.119941555719121 
-0.06846220844040667 
0 
-0.1570867418473874 
0.2953920323572844 
0 
-0.2089093357884534 
0 
0 
0 
-0.1230119221547282 
-0.6243726871857297 
0.07408267064745848 
-0.3302280965986014 
0 
0 
-0.1478241047064247 
-0.08540563783286109 
-0.03627323243765567 
-0.0980059466372968 
-0.02453513400876365 
0.02888679798375999 
0.05286350410731511 
0 
-0.01054108291301224 
0 
-0.3393925131012678 
0 
0.01075020503285046 
0 
0.06617394024124261 
-0.8429730282308174 
0.01899564861561957 
-0.1980237554520226 
-0.1653942130937092 
0.1752106085920626 
-0.05231232674807913 
0 
0 
0.4084871912798175 
-0.09853826430645549 
0 
-0.001387508627136574 
-0.9412850488541337 
-0.07058936659465435 
0 
1.056047490855765 
0 
-0.01881057572047332 
0.06104204770370101 
-0.143102493505629 
-0.01106745492023438 
-0.1006497703762365 
0.01778618823441472 
0 
-0.0258885891905746 
0 
-0.04888647576824094 
0.000812089650067047 
-0.03291221895040921 
-0.1601329137410811 
0.09140803388396776 
0.005882329275968234 
0 
-0.01565612279794605 
0.09943054422280106 
-0.1958851770023085 
-0.03213933210162861 
-0.02783566711842077 
0.1130019923093232 
-0.2147475505715831 
0 
-0.1922970429429101 
-0.177277549912723 
0 
-0.2074469397857689 
-0.004685088331804143 
-0.5033385665157291 
-0.1280348929615699 
0.2320017229379466 
0.5447495180565887 
-0.005193498262291636 
0 
0 
0 
0.1173672003663864 
-0.03206338550172069 
0.8709921533905917 
-0.1293771894289583 
0 
-0.1490796244601523 
0.03905961824583751 
0 
-0.8396510188350998 
0.780884323376717 
1.100256858538477 
-0.09931413738121431 
0 
0 
0 
-0.03619266442889271 
-0.01285040336208461 
0.8685882993669974 
-0.1167526792649378 
0.05478189069301985 
-0.04698196338026785 
0.273990751615417 
-0.062003816938904 
-0.01422565750794693 
-0.03206256366060042 
-0.05605061207778357 
0 
0.3191794813568868 
-0.00111127490774874 
0 
0.08023207291340727 
-0.05228334150535018 
-0.1385951421268297 
0 
0 
-0.009101952444843048 
0.1291705098251354 
0 
-0.1549633714506499 
-0.328157937187762 
-0.08505473839164235 
-0.07846900845105942 
-0.3692805872436311 
-0.09745398731856882 
0 
-0.03537023881151513 
-0.1581196493992794 
-0.1181106666395366 
0.0155427751736004 
0.1814294801113659 
-0.01017037042942164 
-0.01119515587145632 
0.006807296901489735 
0.09046084548529075 
0 
0 
0 
-0.04490743421995032 
0.0901730514109778 
-0.08728237857810593 
0 
0 
-0.27832003228049 
0 
0 
0 
0.01791966134584312 
0.08441596688304417 
0.05786000431924285 
0 
0.04468811444905028 
-0.01481607719152165 
-0.003058007602321707 
-0.1038593969619838 
0 
0.01370991140211058 
0 
0.07761165035037941 
0.0598751399325702 
-3.469446951953614e-18 
0.02811170596418756 
0.1953276969607953 
0.04408091910682627 
-0.3403004106013429 
-3.469446951953614e-18 
-3.469446951953614e-18 
0 
-0.06035243419741339 
0.03101152330430718 
-0.283255034808862 
-0.03390874498317684 
-0.007844118508071781 
0.006747876560764217 
0 
0.06462160404603755 
-0.08450968822676669 
0 
-0.04222571420286279 
0 
-0.1395910774011135 
0 
0 
0 
-0.03917120954625287 
0 
-0.07659557622170496 
-0.003932031323779921 
-0.3135226138643559 
0 
0 
0 
-0.04521816283744345 
0 
0 
0.05273423786687199 
0.1316720535661766 
0 
-0.02502527888294252 
0 
-0.8958470361151334 
-0.02111610201949192 
-0.04378858994181718 
0 
0 
0.02852419758588882 
-0.0001129403888496801 
-0.5956091569362072 
-0.1209291549340034 
0 
-0.1395322228074927 
0 
-0.04524804347767588 
0 
0.5378700770653777 
0.08104337028985058 
0.1468969146339037 
-0.1169542360335525 
0 
0.04583663648776449 
0 
0.1942125243136106 
-0.2567865117877526 
0 
0.0243459455328328 
-0.009757358118384463 
0.07312279080803252 
-0.0241546245020179 
0.06422684745633378 
-0.04917686849254319 
-0.3119484644271509 
0 
0 
-0.1396834954130597 
0 
0.0684168702943253 
0.01236057767061129 
0 
0.1483017565111375 
-0.005505974616613749 
0.0004612220242686542 
0.02035231876385955 
-0.1018154234688023 
-0.0431944756820727 
-0.1606783115935062 
0.01917222298815389 
0.2037445426096762 
0.02671522626351288 
0 
0.007038132957358028 
0 
0.1228166913754692 
0.5633320658449025 
0.06243460798409724 
0.07557020511720138 
0.2976505134940704 
0 
-0.127437463402317 
0.1353502384301562 
0.03757935764303276 
0.003664837209991998 
0 
0.04112562643749101 
0.05272899102663691 
0.3705150565666938 
0 
0.06164524502994979 
-0.005510420227888726 
-0.1461393422071148 
0.005846363396022936 
-0.02331259099978616 
-0.3824548916557408 
0.009887655686648296 
-0.1450996854310035 
0.02576445752238395 
0.2513626661755361 
0.1582870248218316 
0.2910796611568842 
0.008588152507461318 
0.06948449804054241 
-0.0105163707006736 
0.03776614850981046 
0 
0 
-0.621773392541484 
-0.2145554889143906 
0.05115828848895845 
7.080977873638489e-05 
0 
-0.00544806387103034 
0.009329014848197597 
-0.1711973178315991 
-0.2463951960315899 
0 
-0.2035136940127627 
0.02777865831349898 
-0.2315416851446847 
0 
-0.002202099296916105 
-0.004404817485064453 
0 
0 
0 
0.1431343929867473 
0 
0.04793331620465152 
0 
-0.1972477494976611 
0.01228007355595542 
-0.1340507061673135 
-0.1256095363493157 
0 
-0.2079358871737364 
0.05712080153310511 
-0.0911287646454664 
-0.02093662360787166 
0 
-1.863472483959461e-20 
-0.01878584799711477 
-0.2431048425361838 
0 
0 
0.4833856979036548 
0 
0.2532271915320826 
1.247977743317649 
-0.0695212516436494 
0 
-0.08385695730533839 
-0.02235124675692443 
0 
-0.0698086392592719 
0.04126550368276411 
0.5863676543187417 
0.06161420922674025 
-0.4303659589020001 
0.01327842167271809 
-0.006203948255129176 
0 
0 
0.1741036557377786 
-0.0005251793818425772 
0 
-0.1601400290209083 
0.4241787815014711 
1.479581341833126 
-0.09292337900635933 
0.3655978548528818 
0 
0.5633549201675838 
0.02608625988780784 
0 
-0.02864749102904346 
0.541722613920295 
0.5485508890291483 
0.3089004503439522 
0 
-0.02847049556009106 
-1.729542864659735 
-0.9532503710945679 
0.6924966971068311 
0 
-0.04803329836121863 
-0.03326030096015121 
0.1384827592653875 
-0.3738975035278425 
0 
-0.00939525385310824 
0.03099587015253116 
-0.2208524307684225 
-0.04916842243846802 
0.1383486226974183 
0.1615834473157234 
-0.3860874143107361 
0.1406363085567409 
0.00552542707618279 
-0.08452455550863604 
-0.4064686977438376 
-0.01316657053943174 
0.05488102659173863 
0.07776291129751475 
0 
0 
0 
0.0003301425272293941 
-1.186530780659278 
-0.7722308661862453 
0.01063681161572488 
-0.02666290322751992 
0.07852289930915006 
0.2425502754896704 
-0.018512416525942 
-0.1903511679713576 
0 
-0.01151638152702488 
0 
0.07150963737659792 
0 
-0.3371703648048909 
-0.1701649611221877 
0 
-0.758273243856448 
-0.1336548815994929 
-0.07543479939901523 
0 
-0.04943832215892824 
-0.01440360899041947 
0.05614308836708421 
0.1000486385520424 
0.1723964797953545 
-0.1374183334091231 
-1.946267178267264 
-0.2630543541336303 
-0.03666296277027623 
-0.09536176875361504 
0 
0.0458525078889228 
0.009010304717200896 
-0.6555036220424137 
0 
-0.1293241711094977 
-0.01109741891579627 
-0.01533733855842592 
0 
0 
-0.02571351766317855 
0 
0 
-0.1583437833192055 
0.1279135951704305 
-0.1128666807382898 
-0.0247730086492872 
0.06270002054818563 
0.1314008457323017 
0.08025131660269125 
0 
0 
0 
0.4994135377829823 
-0.01995219705169712 
0.1464528537140454 
0 
0 
0 
0.00584847373493187 
0 
0.2027429793818588 
0.02819191452811194 
-0.3489979818691043 
0 
-0.04249777219355094 
0.009700330662830449 
0.08245910316242636 
0 
-0.6176623992964203 
-0.1072878684840454 
0 
0 
0.1893639002154256 
0.001813894178634042 
0 
0.07658604167025336 
0.0250095558562928 
0 
0 
0 
-0.04618384495269206 
-0.4126073263636948 
0 
-0.007475314602876953 
0.2995122823635396 
0.1061326958150501 
-0.02826235727867211 
0 
0.1218879394888646 
-0.009429161963594659 
-0.02239753168047698 
-0.09570499738116847 
-0.01119753658836403 
-0.001067393965117896 
0.03886197181189779 
0.1872070916209557 
0 
0.69612684968691 
-0.07932483176566513 
0.02481077347814496 
-0.3190652686194029 
-0.2023084165905606 
-0.1357073130693199 
-0.1093924299212143 
0.07168732330270947 
-0.5699217390602737 
-0.0194397792559731 
0 
-0.09367470467987921 
0.0237520315210656 
-0.01408374202671682 
0.02718694510134367 
0.01291861009132144 
0.005623285703583555 
-0.007548294381282512 
-0.525283874180593 
0.07758315002292987 
0.1713985337833754 
-0.01773634414499743 
-0.05821577712871461 
0 
-0.01397023506453189 
-0.03047388469280848 
0.0159137584943718 
-0.001305896044322226 
0 
0.01094266074784031 
-0.03232242792544649 
0.003658694297043271 
-0.003699059581057102 
0 
-0.3164211520881681 
0.2199633292598467 
-0.5430816751127726 
1.263187927513749 
0 
0.1192879471706118 
-0.05509446988871433 
-0.03292785373958709 
0 
-0.2347661228944968 
-5.251729593718649 
-0.1496633786268579 
-0.2281482392853047 
0.02443067183011818 
0.009162514813779579 
-0.342936948357437 
-0.04452223231717366 
-0.6653531747989874 
0 
-0.4207870580010078 
-0.04737669505380105 
0 
0 
0 
0.01904328437874059 
0 
0.7901559355429104 
-0.06138500085250193 
0.01978950392863723 
0 
0.01818321717540364 
-0.1420016428568424 
0.02793548798474248 
-0.01455634458294714 
0 
0 
0.009018064693110108 
0.01128067567032596 
-0.3134502960014958 
0.8915676696617809 
0.006169458096091558 
0.06795657357165825 
0.2570787755630008 
0 
-0.03256422086630265 
0.1922522664672945 
0.01506688653603101 
-0.1587620790016799 
0 
-0.001833751531115164 
0.03726387408140569 
-0.0357991777694274 
-0.03025949488912527 
0 
-0.06577680177120786 
-0.003886413844019073 
0.01740072814415417 
0.0007027355282870673 
-0.4200800465809652 
-0.1259085794729329 
0.3374911167821625 
0.03310404052015222 
-0.03613716096203372 
0.009109529484925145 
0.4536954897144793 
0.2585914044504558 
0.05303621801306861 
0 
-0.2774688804674117 
-0.07275170076861655 
0 
-0.5839640139952174 
-0.1814779926399031 
-0.08832565884789073 
0.04886842797879286 
0 
0.0483957920773788 
0.2284826082538142 
-0.2086417928085392 
-0.4089628762433675 
-0.06807194238108798 
1.070939267830807 
0.04717841821024538 
-0.07690464760298324 
0 
-0.2278321393579949 
-0.02128402737487731 
0 
0.05762461930161107 
0 
0.03468435077935583 
0 
0.01868231445367691 
0.03503284872625479 
-0.01559657982464647 
0.09440670576120405 
-0.08756896490320251 
-0.001387508627136574 
-0.04492805993221896 
-0.5772234717180054 
0.2877191822407877 
-0.01144955213871938 
-0.347582380764567 
0 
0 
0.1959383906755197 
0 
-0.02581507115914321 
-0.09755921661209831 
0.0006051879272914675 
0.001258983533089772 
-0.1497418846779065 
0.1781704712564942 
0 
0.002742856273968821 
0.2733941863685551 
0 
0 
0 
-0.4458281422434441 
0.2080059398875048 
0 
0 
-0.3665111566985596 
0 
0 
0.01823480284016839 
0 
0 
0 
0.01556932762123875 
-0.07152847556639438 
0 
-0.01236117170942418 
-0.1598728909402006 
-0.3567431921107864 
-0.04810401588168777 
0.01647242208247971 
0 
-0.1338243719219669 
-0.1473400547820737 
0 
0 
0.05166811647571688 
-0.08605270657467627 
-0.0819734950988775 
0 
1.034776517729068 
-0.06347371703946743 
0 
-0.0637154538656096 
0.03347722658950988 
-0.0481236324401625 
0 
-0.07300913630198494 
-0.0340710160895602 
0 
0.01262348100281211 
0 
-0.1709252324030746 
0.136728837527107 
0.4969707306911789 
0 
0 
0 
0.01105769998035273 
0 
-0.04131124477955901 
0.004640895097285843 
-0.03550615106335379 
0.02861859502003134 
-0.3023796314358254 
0.1063349691640575 
0.008588152507461318 
-0.2499974625179123 
0 
0.1229461197818411 
0.189563980663408 
0 
0.1062674318129054 
0.006166611415224489 
0 
-0.02553558741900383 
-0.1069988004980086 
-0.4578337461681937 
0 
-0.4680708761256584 
0 
0 
-0.2458817630145309 
0 
-0.04574288543132782 
0.2023107337982638 
0 
0.007399429802931421 
0 
-0.001050358763685154 
0.0665619626877075 
-0.02934620282329206 
-0.08725658758393266 
-0.936611366730845 
0.2904655069229158 
0.1498240786591439 
-0.01528357859959699 
0.02131807921360445 
-0.02006215633156692 
0 
-0.06745357911946344 
0 
-0.06028297732207219 
0.2660148130685505 
0 
-1.1215532947668 
-0.3276016769654246 
0 
-0.07333667036015756 
0 
0 
-0.02583764250655833 
0 
0 
-0.0001453368626217395 
-0.1295203745843983 
-0.04109214795963307 
0 
-0.0832113136382643 
-0.012450029295979 
0 
-0.2833208610837357 
0.01648871127994352 
-0.02708719379690752 
-0.03390874498317684 
0.09360013189489493 
0 
0 
-0.1947136459901864 
0.2704047175529764 
0.1347157800441452 
0.02884886864417737 
0.2566269997658416 
-0.1050659917539019 
0.0160365373457425 
-0.1333469037713413 
0 
0.2286877986873833 
0 
0 
0 
0 
0.0162912638325054 
0.4751119633743099 
0.05768803244137118 
0 
0.06655902147153302 
-0.02655765431537533 
8.868158918799719e-05 
0.1270126640914111 
-0.08058018520216916 
-0.08816633745506089 
0 
0.00730082810480995 
-0.002986874230548777 
-0.02519182854961907 
0 
0.02618961890239227 
0.3160000807804862 
0 
0 
0.02825034828017013 
-0.006715053414106364 
-0.01274242758081735 
-0.4798001148596317 
-0.04795577579644628 
-0.09277674380101848 
-0.07775106485151959 
0.3671273659802948 
0 
-0.002400606779843227 
-0.01327589905792583 
-0.008883708730432545 
7.080977873638489e-05 
-0.06054076439229179 
-0.1792295105026716 
0 
0 
0 
-0.2529011923246962 
0.09012381175660275 
-0.06535132925374937 
-0.04603380535822472 
-0.1037379155343581 
0.03045219685665285 
-0.01136091994020458 
0.05555392548776516 
0.112370169575153 
0 
0 
0 
0.1436622858870467 
-0.1536342897049947 
-0.1669121382358583 
0 
-0.220853775030774 
0 
-0.302735150828924 
-0.06035841995593293 
0 
0.6149196900713153 
0 
0 
0 
-0.01848874315011755 
0 
-0.6559644267479073 
-0.07023329156162725 
0 
-0.04243677609641095 
-0.2382906333665518 
0.03655303369271135 
0 
0 
0.2977419002630325 
0.9344920373596303 
-0.05501126598748562 
0.004368390170141533 
-0.06557145512794881 
-0.01694283640119483 
0.3332091964035105 
0 
-0.02650592844914769 
7.080977873638489e-05 
0.0001416195574727698 
-0.009474321071168251 
-0.122331571397423 
0 
-0.1222913836428262 
0.0176923317507632 
-0.06914023290256062 
0.01807987118047323 
0.02560902904160707 
0.009230703745523395 
-0.04891166219273765 
-0.01758933728432466 
0 
0 
0 
-0.02614886726139156 
0 
0 
0 
0.3472047375354373 
-0.03541317532097586 
-0.008237061948505884 
-0.001050358763685154 
0 
-0.09196904860105462 
-0.01630111998499146 
0 
-0.01026813343064384 
0.005899631692941668 
0 
0 
0 
0 
0 
-0.07465637495506301 
0 
0 
0.0003981072964959619 
-0.139379854955441 
-0.02268286899841307 
0 
-0.07505344661047317 
0 
-0.006154216092876319 
0.05223082690378806 
0.02956442994907087 
0 
0 
-0.1336337032984753 
0 
0.07811860870214411 
0.6978906737275453 
0.1300113945339022 
0 
0 
0.2295827281739031 
0.5106515213085522 
0.005042780234515648 
-1.310409553072119 
-0.01141401799138335 
0 
-0.05488887571920362 
-0.1623188644166389 
-0.06036344123446086 
-0.001618165144863952 
-0.02286472907726112 
0.1404767903737707 
0.1686514810346714 
0.1170075973002225 
-0.1827179805537929 
0 
0 
0 
0 
0 
0 
0.03957900785727447 
0 
-0.1474191277511576 
0.4105728251726101 
0 
0.2028199643273564 
0 
-0.001353314402223621 
0.1869904042660155 
0.06720828408993851 
-0.2917261737262806 
-0.06482401063621947 
0.5087929497439191 
0.2563583651182019 
-0.02807422232510026 
0 
0 
0 
-0.5719324356430947 
0.007424801330000955 
-0.09187546146723084 
-0.09250233800716361 
0.004525772335012505 
0.001199825154734582 
0 
0.008404719272688875 
0 
0 
0.1190689152951356 
0 
0.149865004557654 
0 
-0.4689062129728671 
0 
-0.1095644905285002 
0.05056235255904214 
0 
0.05480813293208053 
0.05698119353868974 
0.02701284951579468 
-0.01280693615781175 
0 
0.02717669847040272 
-0.1107474507377296 
-0.1709728422057112 
0 
0.06980272123072805 
-0.0001208148203880538 
-0.04441155456423986 
0.2421628910440029 
-0.01626541736064024 
0.0007580329105711191 
-0.0004079249655837828 
0.05110741579570949 
0.276209117729144 
0 
0.1273909055095827 
7.080977873638489e-05 
0 
0 
0 
-0.008393507621120063 
-0.0359576546380032 
0 
0 
-0.06624986796902702 
0 
-0.05155588218014537 
0.02579263416711886 
-0.02580676771574702 
-0.07064853113562272 
-0.04294709199197534 
-0.1017634095254095 
-0.005619068233008764 
0 
0 
-0.0004607130913211365 
0 
-0.004471659502766934 
0 
0 
-0.007853962296371083 
-0.02653689510340824 
0 
-0.03539635936514355 
0.9052976495839057 
-0.4157253593681462 
0.6665633888223704 
-0.04427271801518388 
-0.008576351347581156 
-1.218204520025532 
-0.1068610007308416 
-0.2388175439337397 
0.008938758436536113 
-0.01144119767532412 
-0.1022681523695732 
0.1922836483912913 
0.03005385796686153 
0.0146436819599366 
0.03445680494536985 
0 
-0.03513405319589027 
0.3231930471991398 
-0.02470505711542861 
0.03308026165171594 
-0.02890153531895169 
-0.005164570126349873 
-0.4328907428298905 
0.02142544539782332 
-0.318995401070557 
0.01946226649807456 
0 
-0.1136617553553597 
-0.01699453542573762 
-0.3448322131579567 
0 
0 
0 
-0.209332784522281 
-0.152018292217674 
0.2163076272306413 
0.03253612313664274 
0.001494334702182692 
0 
0.04656843452308071 
0.007280888502108828 
-0.1470960965298948 
-0.02992723399854098 
-0.6632414956542604 
-0.1484463369038699 
0.06940212249881968 
-0.2399342758248556 
-0.06985857940915695 
-0.09576979159997862 
-0.01807620942483528 
0 
0 
0 
0 
0 
0.6404418475185979 
0.8321147993012735 
-0.536831461071845 
-0.01900802707684621 
-0.06473581300652283 
0.01745112476578126 
-0.002837520823870199 
0 
-0.07424553907879897 
-0.01658798836847115 
-0.2853794984776589 
-0.01635053565364559 
0.1519109239556553 
-0.2863611765182534 
-0.2851130968427014 
-0.1019802003830242 
-0.1692253307870989 
0 
-0.06585058981711699 
0 
0 
-0.09523481513827181 
0 
-0.02074466758376366 
1.272765631260129 
-0.4716835121827593 
-0.02129647543162847 
-0.01739105586970958 
0 
0 
-0.5418684112086156 
-0.1178927538351747 
-0.005382246585242514 
0 
0.02428481954978403 
-0.4636621049216287 
-0.03006084969303844 
0.1110458215917673 
0.1850272047596843 
0 
-0.9273661246966495 
0.02243528026150906 
0.02072234873194071 
-0.0135669130163137 
-0.005546164420525177 
-0.06577637731471765 
0 
0.03648602415546937 
-0.0122465557190378 
0.03845931642707844 
-0.4317173847671146 
-0.1870235699274256 
0 
0 
-0.02597465126646484 
-0.2085770899272149 
-0.07853812868242914 
0.01966842666554468 
0 
0.01416552421965085 
0.01180360479229756 
-0.1020629713251033 
-0.02171773981206001 
0.001125058450023917 
-0.01498119266606785 
-0.02781393367507944 
-0.01259488355420315 
-0.06603342446027029 
1.084202172485504e-19 
-0.01501262132244091 
-0.04055185618016045 
0 
-0.08708491149804352 
0.03752760407305753 
0.05443789224286595 
0.7785171223894803 
-0.1556260886052562 
-0.01470200445134935 
-0.003583177679341444 
-0.03256912674789839 
0.1898903446136365 
-0.1074544824024311 
0.162837919450189 
0.009626769996401283 
0.1062545826662899 
0 
0.01788784632250185 
0.03043461236147029 
0.04005504940092769 
-0.002558134651966583 
-0.1007506478411897 
0 
-0.04714581151676426 
0.02138778701315264 
-0.03412800458128205 
0 
-0.01895672860660496 
-0.0246611788227091 
-0.07281254974944322 
-0.03144155638445686 
0 
0.0856091397886046 
0.03243380794501023 
0.357121157445491 
0.002184195085070767 
-0.01542685535399006 
-0.04281011240732172 
0 
-0.01885597391146336 
0.05394715907544997 
0 
-0.5179012376234151 
-0.02502527888294252 
-0.1167461395418176 
-0.01875552209002775 
0.7486057426181917 
0.04930392353692849 
0.07796753037314966 
0 
0 
-0.0397297859140656 
-0.1062049150081921 
0 
0 
0 
-0.0282116963921788 
0 
-0.1830269112896792 
0.0009639698564189221 
-0.186650440881971 
-0.08129283554185862 
0.02305517826959389 
-0.02953850176560505 
-0.06083848658807745 
-0.01419615755070635 
-0.05699021472369183 
0.1578578320586365 
0.5236521503145706 
0 
-0.014834123534521 
-0.007560073206283375 
0.001060301092269192 
0.01019842127820736 
0.1496603279985432 
-0.005347081772412337 
-0.02195448804898787 
7.080977873638489e-05 
0.01442409780696186 
4.894130652818936 
0.4973000997641686 
0.06845076426688354 
0 
-0.07480355276043932 
4.206731157833611 
0.0507861910081411 
0.3110735631875348 
0.01959033564422033 
0.09415012812201494 
-0.03372672871614009 
-0.1889439093918932 
-0.2226706381080332 
-0.04819044276474096 
-0.03372672871614009 
0 
-0.07807044298716674 
0 
0.02615369522398997 
0.02101612858820687 
-0.1421813721822295 
-0.1210837499918325 
-0.09651818484345949 
-0.005485113901909036 
-0.8903137798778114 
-0.05066970737920044 
0.03640498410917079 
-0.01552126867864693 
0 
0.06244761312061091 
0.0007230411633942575 
0.2850934749881087 
-0.08149526558842091 
0.0114653404774994 
0.1058621014240835 
-0.07268514757097488 
-0.261345793329229 
0.1748889115936632 
0.113064961836641 
0.0207778592421497 
-0.06760810929748816 
0 
0.00372043721476581 
-0.1538695518838523 
0 
0.03161623981018106 
0.2338403865180535 
-0.1180047444301657 
-0.01605933144977972 
0.4712824915649673 
0 
0 
-0.06377690427530758 
-0.507329141239388 
-0.3138395797331115 
-0.05567980300289397 
0 
0 
0 
0 
-0.02866937805626152 
-0.08734071823885463 
0.002322870986643925 
0 
0 
-0.03187442592257386 
0.02284353651837708 
0.06399650294882496 
-0.1199565322097885 
-0.01240194892781861 
-0.2787506379985265 
0.03991416800313383 
0 
-0.06303447322759496 
-1.031292736776497 
0 
-0.006764997501408495 
0 
0 
-0.08599957776398703 
0 
0.0001416195574727698 
0 
-0.0898399866581714 
0 
0 
0 
0.03276310268374327 
0 
0.2800730479687435 
0 
0 
0 
0 
0 
0 
0 
-0.006981614945172884 
0 
-0.009922044985985742 
0.03852787294099495 
0.04778908247517704 
0 
0.118220663583891 
-0.1612623841443767 
0.007308728781061155 
0.01540660394225855 
0 
0 
0.1608070711321731 
-0.07708765318573689 
0 
0 
-0.03733002886212409 
0 
0 
-0.02556024621786311 
0 
-0.5033331775036876 
0 
0.02451676744984276 
0.1175793712506707 
0 
0 
0 
-0.03420095079502718 
-0.2255422770963791 
0.006698819001734036 
0 
0.009808874944078791 
0.02873299297829047 
0 
0.04196060180888461 
0.03579113936725414 
0.02557963618772044 
-0.08016382755036632 
0 
-0.03733002886212409 
-0.0239659985790122 
0 
0.1060721153627793 
-0.02721777799598012 
0.08614000259704915 
0.3546430069077429 
0 
0.1073602940042467 
0 
0.006419058053870072 
0 
-0.001373896671813337 
0.04731949037182149 
-0.08276106608875042 
0 
0.02745383227096938 
0 
-0.03549816716395534 
-0.05798334571290015 
-0.8056802158814356 
0 
-0.03548987519316077 
0.007247735424796694 
0 
-0.3298828500401544 
0 
-0.1588048495459213 
-0.0589205380333599 
-0.09222183022726993 
-0.07596268309798342 
-0.004730699571633175 
0 
0 
0 
0 
0.0006566188440921408 
0 
0 
0.1695062938513184 
0 
0 
0 
-0.05245782420992719 
0.435128444751063 
0 
0 
0.1145951263925791 
0 
-0.6621515389014279 
0.00396279172093634 
0 
0 
-0.02625826159892304 
0.1984006262857712 
0 
0 
-0.03445269265745565 
0.003266216710039813 
-0.05507306867685617 
0 
0 
0.02485478427960118 
-0.01117405614866996 
-0.04511580791137449 
0.02335410775501062 
0 
-0.003531142835861473 
0 
0 
-0.1867570165650263 
-0.01717500890816729 
0 
-0.001571895826786845 
-0.1472283127652018 
0.007044799084836761 
0.2229050330093314 
0.06439389822034787 
0 
-0.003601823742451239 
0 
0 
0.0449726455120475 
0 
0 
0.005014084516045001 
0.06551231612043441 
-0.01555192555720035 
0 
0 
0 
-0.01362315093947158 
0 
0 
0 
0 
0 
0.002604581629554879 
-0.6252204549552595 
-0.04989761336844525 
0 
0 
0 
-0.02003577878574904 
-0.2324995582971984 
-0.04830236288575569 
-0.01172966323890616 
0 
-0.01577798497813206 
0.2757168169874421 
0.00597869852293369 
0 
-0.1062178366071192 
0.02718544082283225 
0.0352747871526205 
-0.05773681751310676 
0 
-0.01351346886587183 
-0.009474321071168251 
-0.03017481807474374 
0 
-0.4145967079155081 
0 
0.009236215570543289 
-0.0924535080719566 
0.003036900923750882 
0 
0.02783145190856848 
0 
0 
0 
0.0640352447431848 
0 
0 
0 
0 
0 
-0.02599884970711616 
0 
0.001634305787463174 
-0.02169467463428925 
0 
0.04179699333408168 
-0.2951138916987538 
-0.02243696498329699 
0 
0 
0 
0 
0.02242505981187592 
0 
-0.07964299754576591 
0.3174085607249562 
0.00621119507031975 
0 
0 
0.06278847793512085 
-0.07297179325014834 
0 
0 
0.04461153931302769 
0 
0.005899631692941668 
0 
-0.06429333879992413 
0 
0 
-0.01249359071956345 
0 
0 
0.01758520641821176 
-0.01925159763955496 
-0.02475116182734863 
0 
0.008910380970913588 
0.09144315896590169 
-0.08218251337118986 
0.08609541666677993 
-0.08554480752329277 
-0.04712501093155026 
-0.3176850494881645 
-0.1036623167452415 
0 
0 
0 
0.001671375896330921 
0 
0 
0 
-0.0195402590779475 
0 
0.03325544702039389 
-0.03864013257944642 
0.09124271695629738 
0 
0 
0.104892904235973 
0 
0 
0 
0 
-0.007692503812555232 
0 
0 
-0.07476852325824604 
0.01254054867006993 
-0.005175037123857855 
-0.01709666199237729 
0 
-0.3188642678673047 
0 
0.07807559721508947 
0.02385026071247254 
0 
-0.01834099231372281 
-0.2004157061251137 
0 
0 
0.2498663587209673 
0 
-0.01984218807699045 
-0.04186912521449492 
0.09203256281949583 
-0.007796300279145855 
-0.005222200531760898 
0 
0 
0 
-0.01211694587644291 
0 
-0.07388252523697274 
-0.06591080980892725 
0 
0 
0.04352134273999397 
0.1795339376410217 
-0.01291790439349529 
-0.1044110412926578 
0 
-0.01407150073215697 
0 
0.02443786808233643 
-0.0904175619080779 
0.2272448711860197 
0 
0 
0.02341554041847973 
0.05164608166786437 
0 
-0.1044110412926578 
0.01159995796036998 
0 
-0.006632224099784943 
0 
0.05476992611134834 
0.02922251654060716 
0.04460252792198825 
0 
-0.0003208909564695267 
-0.07564753671361002 
-0.01000987079793718 
-0.03731498555978646 
-0.0004118630683223831 
0 
0 
-0.1130022396108192 
0 
0.009845957790138853 
-0.05081305403545499 
0 
0 
-0.01148988687926767 
0 
-0.03793457806532611 
0.04507765968400632 
0 
0 
0.003761856221373512 
0 
0.006554021202262198 
0.0002124293362091546 
0 
-0.005094621363131008 
-0.002441065935779871 
0 
0 
-0.04031806594321363 
-0.03717558793221228 
0.003617045224159576 
0.03861209437723374 
0 
0.02297884235356302 
-0.005175037123857855 
-0.04282768747122855 
0 
-0.002340957292439344 
-0.1909561973254007 
0 
-0.0218095079716499 
0 
0.04267765592754594 
0 
0 
0 
0.02911942806337349 
-0.0405650270826902 
0.008643835944162041 
0 
-0.2097702966854221 
0 
0.1031142492716965 
0.004067074757773037 
-0.04005013749108383 
0.02317352423176341 
0 
0 
0.01590967629647889 
0.09690984198537286 
0.01542973910111035 
0 
-0.06777711758093911 
0 
-0.09431062019446668 
0.0006298114993454806 
-0.08877869465963881 
0 
0 
-0.007206945515577909 
0.1506094781319681 
0 
0 
0.4138789542615084 
0.005899631692941668 
0 
-0.005881982124052262 
0 
0 
0.01179926338588334 
0 
-0.01106745492023438 
0 
0 
-0.0197220855653936 
-0.3687381954241115 
-0.02827580526113212 
0 
0 
0 
-0.1134112361321137 
0 
0.174203525063393 
0 
0 
0 
0.0007580329105711191 
0.1367562387692216 
-0.3243096197104542 
0.00254678465683683 
0 
0 
-0.03024470648240995 
0 
-0.1232143531402101 
0 
0 
0 
0 
0.1704319526194473 
0.001311777890285297 
-0.03319316413242674 
-0.01834099231372281 
-0.009780494658106563 
0 
0 
0 
0 
0 
0 
0 
-0.01431779721829313 
0.006311740501406056 
-0.1491277569821892 
0.0145002425435437 
0 
0 
0.1515198450633599 
-0.006700909777871999 
-0.04097829155960299 
0 
0 
-0.02316734994184597 
-0.04654683746724439 
0.6069636075728179 
-0.02994852139932147 
0 
0.2873791708838573 
-0.009632361728912032 
-0.2095335204906829 
0 
-0.01098031260194068 
0 
-0.02165746571726021 
-0.001050358763685154 
-0.03404030049541402 
0 
0.008944547281050319 
-0.01731698600036775 
0 
0 
0.02392822762147871 
-0.1121864055617564 
-0.3156407522602507 
0.005931893453024906 
0 
0 
-0.02121590204393079 
-0.00668884484874236 
0 
-0.008364245006116253 
0 
0 
0.01100865782674603 
0 
0 
0 
0.1903090290168745 
-0.161380085216947 
-0.00654394316885454 
0 
0 
0 
0 
-0.007994705066791443 
0.02899228402022247 
0 
0 
-0.002100717527370309 
0.01284830647523112 
0.07085766658341139 
-0.03387085061455301 
-0.01971256437117345 
0 
0.1920578771620103 
-0.01209672014617542 
-0.01106534461720263 
0 
-0.02095907465109878 
0 
-0.1401534466356556 
-0.005693578463764291 
-0.04214917324524119 
0.0001521580144109152 
-0.1717986900803145 
-0.04461142148922246 
-0.01415508001231011 
0 
0.01819153834487898 
-0.02302314062277181 
0.07243838310405314 
0 
-0.1800334000460419 
0.00232935903302836 
0 
0.004805148722995706 
-0.9877592690656785 
0 
0 
0 
0.1281772517882746 
0.009833852879110027 
0.03321829992182991 
0 
0 
0 
-0.1143940209479288 
0.05645068654441887 
0 
-0.02951856337999179 
0.4380440256134825 
0 
0 
0.1748577412872187 
0 
-0.0001794624614291245 
0.08316298459912043 
0 
0 
0.01460859881480697 
0 
0 
0 
-0.03540861943732918 
0.01632415454644687 
0.02713339097535112 
0 
0 
0 
0 
0 
0.002379418282321101 
-0.1742200339490832 
0.006372485751523495 
-0.0747711676101947 
0 
-0.2055137993397598 
-0.01543359752416925 
0 
0 
-0.1808231797579621 
0 
0 
0 
-0.01573455648297822 
-0.4148214825352211 
0 
0.08915435775618119 
-0.02233869470688035 
0.01500440586960666 
0.01320666534806626 
0.01807737332482466 
0 
0 
0 
0 
0 
0.09415809377341268 
0 
0 
-0.008202137410947961 
-0.9307602680962173 
0 
0 
0 
0 
0 
0 
0.4905998265039477 
-0.01884073766393436 
-0.1744158414308732 
0 
-0.01519918539554027 
-0.02320616212771495 
0.08619936946679993 
-0.005558424000232945 
0 
-0.09503803467700234 
-0.0233804540308932 
-0.02175737757091849 
0 
0 
0 
-0.0198497280050855 
0 
-0.2312647024417079 
0.1926149953274135 
0 
0 
0 
0 
0 
0 
0 
0 
0 
0 
0 
-0.06279295025880796 
0.5857942084475304 
0 
0 
-0.008543040853758057 
-0.01513842657891075 
0 
0 
0 
0 
0 
0.002604581629554879 
-0.04789633349118032 
0 
0.007612756002034765 
0 
0 
0 
0 
-0.04435748489300534 
0.1691277612106291 
-0.001951654826224967 
-0.03873380567952923 
0 
-0.05526914939938892 
0 
0 
-0.01157781607265776 
0 
0 
0 
0 
0 
0.0002936339253746698 
-0.02231677851323076 
0.01568875973847828 
0 
0 
0 
-0.147549753586568 
0 
0.06966913903467996 
0 
-0.01336910628812896 
0 
0.02619963125480619 
0.01179926338588334 
-0.04025621609622591 
0 
0 
0 
0.02931123597979145 
-0.04411876343631302 
-0.05374506042487322 
-0.03118296901714164 
0 
0 
0 
0 
0 
0 
0 
0 
-0.02894293734727455 
0 
0 
-0.3936561554503389 
0 
0 
0.1877471795309353 
-0.1085744973160924 
-0.006632224099784943 
0 
0 
0.1099332362054932 
0 
-0.02393564450946108 
0 
0 
0 
0 
0 
0.01603774692773494 
0 
0.08395255171005532 
0 
0 
0.1790753030419532 
0 
0 
0.09707650057345256 
0.4170155285707555 
0.004914120614372611 
0 
0 
-0.0132854109175897 
0 
0 
0 
0 
0 
0.1003330379538968 
0 
0 
0.0594158441799742 
-0.002986874230548777 
0 
0 
0 
0 
0 
0 
0.005899631692941668 
0 
0 
0 
-0.01082885301994272 
0.05094349186719607 
0 
-0.04639001302788272 
0 
0 
0 
0 
0 
0 
0 
0 
0 
0.08488534441060536 
0.1347209404835589 
0 
0 
0 
0 
0.007159846812245621 
0 
0 
-0.01465444235675212 
0 
0 
-0.007994705066791443 
0.06017011886845463 
0 
0 
0.003957364137158072 
0 
0 
0.02385026071247254 
0 
0 
0 
0 
0 
0.0595616658344098 
0 
0 
0 
0.07274365986247765 
-0.1169652877907204 
0 
0 
0.0776394068097755 
-0.00185596780124691 
0.01745112476578126 
0 
0 
0 
0 
0.1244850582228766 
0 
0 
0.03584273071899403 
0.03565990571417058 
-0.04298215845539801 
0 
0 
-0.1362546888814472 
0 
0 
0 
0 
-0.04678847940261638 
0 
0.08339814463325231 
0 
-0.9403382239297211 
0 
0 
0 
0 
0.06754771837913111 
0 
0 
0 
0 
-0.09890792161026138 
-0.005291340562451415 
0 
0 
0 
0 
0 
0 
0 
0.7179268218718319 
0 
0.02436478589351931 
0 
0 
0 
0 
0 
0 
0 
0 
0 
0 
0 
0 
-0.0136137052104176 
-0.01151933824915225 
-0.08092944333837904 
0 
-0.2857573091592057 
0 
-0.1998475255469347 
0 
0 
0 
0 
0.4615106950063914 
0 
0.04567533791838599 
0 
0 
0 
-0.02394676829941363 
0 
0 
0.07388642225798908 
-0.01333245055278103 
0.001813894178634042 
-0.0694965144960742 
0.04536954867572357 
-0.0988293644152098 
-0.005864106828483735 
0 
0 
0 
0.01115784591783063 
0 
0 
0.001442547212281673 
0 
0 
-0.02895824826010258 
0 
0.04212983717808119 
0 
0 
0 
0 
0 
0 
0.8928814806920008 
0 
0 
0 
0 
0.00310294427264284 
0 
0 
0 
0 
0 
0.03010546145588866 
0 
0 
0 
-0.375943581992974 
0 
0 
0 
0 
0 
-0.3369225750818515 
0 
0 
0 
0 
0 
0 
-0.0004543696031061921 
0 
0 
0 
0 
-0.00607213000561174 
0 
0 
0 
-0.06152071198209926 
0 
-0.005524123111676026 
-0.06925742876823382 
0 
-0.167912283498334 
0 
0 
0 
-0.01657226834104292 
-0.01761601316465499 
0 
0 
0 
-0.03642073158420801 
0.03010546145588866 
0 
-0.02497200787763849 
0 
0 
-0.0688388419621236 
0 
0 
0.005372973702393402 
0.03310404052015222 
0 
0 
0 
0 
0 
0 
0 
0 
0 
0 
0 
0 
0 
0 
0 
0 
0 
0 
0 
0 
0 
0 
0 
0 
0 
0 
0.005899631692941668 
0.0556887268579894 
0 
-0.2880324904609079 
0 
0.005424404779260144 
0 
-0.1255680677475108 
0 
0 
0 
0 
0 
0 
0 
0 
0 
0 
0 
0 
0 
0.07415158342609737 
0.01008816438637123 
0 
0 
0 
0.01179926338588334 
0.03258376863881914 
0.00310294427264284 
-0.03006844913440583 
0 
0 
0 
0 
0 
-0.004816180864456016 
0 
0 
0 
0.05096172669285038 
0 
0 
0 
0 
0 
0.3951945951199924 
0 
0 
0.005899631692941668 
0.00291035870696287 
0.6083187741291806 
0 
0.005981872294074926 
-0.009121347558866318 
0 
0 
-0.09118702805183583 
0 
0 
0 
0 
0 
-0.0220964924467041 
0 
-0.02095206254636859 
0.005873667312345215 
0 
0.01179926338588334 
0 
0.04386131866833624 
0 
0 
0 
0.02708580792555127 
0.0006703359310442524 
0 
0 
0 
0.05931381103403025 
0 
0 
0 
0 
0 
0 
0 
0 
0 
0 
0 
0.0101584828039231 
0 
0 
0 
0 
0 
0 
0 
0 
0 
0 
0 
0 
0 
0 
0 
-0.1132707478274682 
0 
0 
0 
0 
0 
-0.007893792335534104 
0 
0.009644553692961284 
0 
0 
0 
0 
0 
0 
0 
-0.00495669183986912 
0 
0 
0 
0 
0 
0 
0.06524896150860518 
0 
0.0007027355282870669 
-0.004900143972109338 
0 
0 
0 
-0.01211694587644291 
0 
0 
0 
0 
0 
0 
-0.005485113901909036 
0 
0 
0 
0 
0 
0.3441422248092356 
0 
0 
0 
0 
0 
-0.2854720811989859 
0 
0.06219931754303547 
0 
0 
-0.09517049096063245 
0 
0 
0 
0 
0 
0 
0 
0 
0 
0.01611716342507691 
0 
0.003746795961017597 
-0.06285244794467656 
0 
0 
-0.002100717527370309 
0 
0.04848885581534104 
0 
0 
0 
0 
0 
0.04155073666706997 
-0.05626484993940058 
0 
0.01423647067008356 
0 
0 
0 
0 
0 
0 
0 
0 
0 
0 
-0.01351346886587183 
0 
0 
0 
0 
0.05122558981121488 
0 
0 
0 
-0.007273215771352107 
0 
0.00731060673854227 
0 
-0.09329361940687703 
-0.1844709778264434 
0 
0.005899631692941668 
0 
-0.2070242189958084 
0 
0.0294562788348959 
0 
0 
0 
0 
-0.9658829605495988 
0.05815087215171849 
0 
0 
0 
0 
0 
0 
-0.04081839842219442 
0 
0 
0 
0 
0 
-0.04326866190591963 
0.02421558170784402 
0 
-0.01015021364389341 
0 
0 
0.1035472394849921 
0 
0 
0.03530867236725649 
-0.04390159581590558 
0 
0 
0 
0.001968433539699209 
0 
0 
0 
0 
0 
0 
0.009344697127424879 
0 
0 
0 
0 
-0.01612507009367621 
0 
-0.0711912678173124 
0 
0 
0 
0.3383815642654444 
0 
0.1004461443431899 
-6.098637220230962e-20 
0 
0 
0 
0 
0 
0 
-0.01351346886587183 
-0.5540692104801108 
0 
-0.01151638152702488 
0.005751410047051851 
0 
0.118920918976305 
-0.01529294364819441 
0 
0 
0 
0 
0 
0 
0 
0 
0 
0 
0 
0 
-0.02067538149189782 
0.0007815746081820319 
0 
0 
0 
-0.08749021560570497 
0 
0.04502286176564934 
0.0006703359310442524 
0 
-0.002979737631276656 
0 
0 
0 
0 
0 
-0.004404817485064453 
0.01612635161631908 
0 
0 
0 
0 
0 
0 
0 
0 
0 
0 
-0.03966483639264014 
0 
0 
0 
0 
0 
0 
-0.03530145544745121 
0 
0 
0 
0 
0 
0 
0 
0 
0 
0.0612072810119609 
-0.01024241266327985 
0 
-0.02448250704900782 
0 
0 
0 
0 
0 
0 
0 
0 
0 
0.2365906014204075 
0.09366216167391893 
0 
0 
0 
0 
0 
0 
0 
0 
0 
-0.1350381395252535 
0 
0 
-0.006716498567732823 
0 
0.01596921314263872 
-0.02355775234820835 
-0.02783204709590694 
0 
0.00840963094761321 
0 
-0.1022433466551345 
0 
0.04565238099933681 
0 
0 
0.004106189775513211 
-0.005630400106137074 
0 
0 
0 
0 
0 
0 
0 
0.02377202880659981 
0 
0 
0 
0 
0 
0.06909190418234158 
0 
-0.007076842123824762 
0 
0 
0 
0 
0 
0 
0 
0 
0 
0.01298297424388509 
0 
0 
0.001187353257666673 
0 
0 
0.01382045943594016 
0 
0 
0 
0 
0 
0.01675258327942135 
0 
-0.1024332383866651 
0 
0 
0 
0 
0 
0 
0 
0.0743091288722325 
0.09122673609916765 
0 
0 
0 
0 
0 
0 
0 
0 
0 
0 
0 
0 
1.007531749414001 
0 
0 
0.004595761037195498 
0 
0 
0 
0 
-0.08214836930043951 
0 
0 
0 
0 
0 
0 
0 
0.002673163609875102 
0 
0 
0 
0 
0 
0 
0 
0 
-0.003251740942723163 
0 
0 
-0.01431318967761503 
0 
0 
-0.1099187329595733 
0 
0 
0 
0 
0 
0.01137648600642844 
-0.07434540835321037 
0 
0 
0 
0 
-0.08312385916616347 
0 
0 
-0.03708085166811237 
0 
0.009835320857007966 
0 
0 
-0.5747482482339556 
0 
0 
-0.02441706614317168 
0 
0 
0 
0 
0 
0 
0 
0 
0.003759221547537507 
0.09284483968685259 
0 
0 
0 
0 
0 
0 
0 
0.0129634262043394 
0 
-0.0458366537617669 
0 
0 
0 
0 
0 
0.005899631692941668 
0 
0 
0 
0 
0 
0 
0 
0 
0 
0 
0 
-0.05400717573435553 
0 
0 
0 
0 
0 
0 
0 
0 
0 
-0.1344776313995138 
0 
0 
0 
0 
0 
-0.01392136359393405 
0 
0 
0 
0 
-0.06072353210330367 
0 
0 
0 
0 
0 
0 
0 
0 
0 
0 
0 
1.00920759253003 
0 
7.080977873638489e-05 
0 
0 
0 
0 
0 
0 
0 
0 
0 
0 
0 
0 
0 
0 
0 
0 
0.003146109917218997 
0 
0 
0 
0 
0 
0 
0 
0 
0 
-0.004747529733507046 
0 
-0.01838062228134718 
0.2179997523316976 
0 
0 
0 
0 
0 
0 
0.02334048505769782 
0 
0.01559721628365861 
0 
0.01705093020725604 
0 
0 
0 
0 
0 
0.0801702686430841 
0.3593867628712853 
0 
0 
0 
0 
0 
0 
0 
0 
-0.02394875175988492 
-0.02155036308152047 
0 
0.01159995796036998 
-0.01594008029404294 
-0.01360108826812295 
0 
0 
0 
0 
0 
0 
0 
0 
0 
0 
0 
0 
0 
0 
-0.007232913294945706 
0 
0 
0 
-0.008974538713570198 
0.004856380838020891 
0 
0 
0 
-0.125822966087721 
0 
0 
0 
0 
0 
0 
0 
0 
0 
0 
0 
-0.09324980744394551 
-0.007756238744448114 
0 
-0.03814705109861714 
0 
0 
0 
-0.06247495646871072 
0 
0 
0 
0 
0 
0.04400552824217174 
0 
0 
0 
-0.01382317880893223 
0 
0 
0 
0.0346898841806153 
0 
0 
0 
-0.05469492154086686 
-0.1063661763393648 
0 
-0.01360108826812295 
0 
-0.2294800140319098 
0 
0 
-0.02011482758326327 
0 
0 
0 
0 
0 
0 
0 
0.3659588113819552 
-0.05409767902456347 
0 
0 
0.06233670194141843 
0 
0 
0 
0 
0 
0 
-0.02713583059396775 
0 
0 
0 
0 
0 
-0.0429234987055099 
0 
0 
-0.1312330532553358 
0 
0 
0 
0 
0 
0 
0 
0 
0 
0.007308728781061155 
0 
0 
0 
0 
0 
-0.02865224866164467 
0.03055402942398562 
0 
0 
0 
0 
0.0002936339253746698 
0 
-0.003559217705121577 
0 
0 
0.03099846503343492 
0 
0 
0 
0 
0 
0 
0 
0 
-0.0167905989571707 
0 
0.0101584828039231 
0 
0.01902138709205531 
0 
0 
0.2704427728221814 
0 
0 
0 
0 
0 
0 
0 
0.005622831339871609 
0.002874829087027057 
0 
7.080977873638489e-05 
0 
0 
0 
0 
0 
0 
0 
0 
0 
0 
-0.05589907532772888 
0 
0 
0 
0 
0 
0 
0 
0 
0 
0 
0 
0.0005407993313382445 
0 
0 
0 
0.0007433455492412708 
0 
0 
0 
0 
0.009396997786858478 
-0.02422042236280896 
0 
0 
0.03447131745747866 
0 
0 
0 
0 
0 
0 
-0.005116269303933166 
0 
0 
0 
0 
0 
0 
0 
0 
0 
0 
0 
0 
-0.004337873335619855 
0 
-0.2671164019843443 
0 
0 
0 
0 
0 
0 
0 
0 
0 
0.1351016781214608 
0 
0 
0 
0.001808134926420048 
0 
0 
0 
0 
0 
0 
0 
0 
0 
0 
0 
-0.01410142447060087 
0 
0 
0 
0 
0 
0.03102330248676409 
0 
0 
-0.1105896196492054 
0 
0 
0.07703775049150642 
0 
0 
0 
0 
0 
0 
0 
-0.002075474193697397 
0 
0 
0.01181951617740697 
0 
0 
0 
0 
-0.02747865226617154 
-0.05595158986580936 
0 
0 
0 
0.004980003298631549 
-0.01310119254183412 
0 
0 
0 
0.003410962120279834 
0.01098689020161634 
-0.01281097314325666 
0 
0 
0 
0 
0 
0 
0 
0 
0 
0 
0 
0 
0 
-0.02055456169650923 
-0.002035636248241366 
0 
0 
0 
0 
0 
0 
0 
-0.002513330309570475 
0 
0 
0 
0 
0 
0 
0 
0 
-0.4130205728131035 
0 
0 
0 
-0.01362514926305639 
0 
0 
0 
0 
0 
0 
0 
0 
0 
-0.05616269950327311 
0 
0 
0 
0.04736152485379719 
0 
0 
0 
0 
0 
0 
0 
-0.3468917199496463 
0 
0 
0 
0 
-0.01128591548671023 
0 
-0.1139548202203134 
0 
-0.032011217561999 
-0.0167653875414679 
0.007855075246422268 
0 
0 
0 
0 
0 
-0.01565372288474851 
0 
0 
0 
0 
0 
-0.06606180241320699 
0 
0 
0 
-0.07582944429656092 
-0.00615069729061097 
0 
0 
0.5894109030215625 
0.3469089553480887 
-0.03994409643339086 
0 
0 
0.304774381575774 
0.007272826148501899 
0 
0.3847561704219056 
-0.07711725368335107 
-0.01516659994200565 
-0.3347656532365176 
0.0399409594870981 
0 
-1.199819675665812 
-0.3116189786343961 
-0.004850391799617769 
0.009845957790138853 
0 
0 
-0.2163467031562858 
-0.1962297716884848 
-0.02040369357170978 
0.1632893963380243 
-0.02347420726048341 
-0.3948832945151323 
0.0644592620122747 
-0.04947314614556187 
0 
0 
0.003257996274792509 
0 
0.2406859928204354 
-0.1463986876506871 
-0.02019211927980881 
-0.03280089890030641 
0.02029882687863581 
0.007236916742317227 
0 
-0.04934880612472611 
-0.03393627549525685 
0.03830705204367178 
0.2631753270927878 
-0.1588250082457523 
-0.4872425216409623 
0.01924245607324717 
-0.0222823702063045 
0.05652188258357678 
0 
0.0306615788789474 
0.05065766561575864 
0 
0.1342579788124832 
-0.1442188678466637 
0 
-0.01580558990682946 
0.08461521875626379 
-0.002907226049343983 
0.06203205932885655 
0.02292642822716971 
-0.003131367205794376 
0.01088977354467554 
0.1911372947515337 
0 
-0.05590048598669353 
0 
0 
0.02501759225104159 
0 
0.2076362490765466 
0.1290321674085027 
-0.3091759427992434 
0 
-0.0250424957130316 
-0.00756780685299044 
-0.05804924867082831 
-0.01596905040016179 
-0.07502638308025626 
-0.3994853814016601 
-0.2114562062084451 
0 
-0.2453938915800054 
0.003103978187574106 
-0.04567943026494931 
-0.3719151499902093 
0.05513462539290107 
-0.06869674306075425 
0.02652441541910055 
-0.2423803105517558 
-0.03242682961890301 
-0.01753134014946986 
-0.1085816782192099 
0 
0.006043309633437655 
-0.4072067107451187 
0 
1.228188389810443 
0 
0 
0 
0.2636089745746245 
0 
0.07072573859393014 
0.07147496986032456 
0 
0.1494418495695603 
0 
-0.005945052268661036 
-0.2931910560808806 
-0.04849219900143409 
0.1070631725651972 
-0.07718890579762208 
0.0626008266706589 
-0.002317796735823065 
0 
0.3277102334503312 
0 
0.06489019780338288 
0 
0 
-0.09022121257918343 
-0.01375660188948035 
0.1020670553894494 
0.0004675330266061415 
0 
0 
0 
0 
0 
0.229799885102861 
0 
-0.01716808518574868 
-0.07163326937848831 
-0.5199998601267224 
0 
0 
0 
0.1494210838260785 
-0.6540860654169622 
-0.02365154593633715 
0.00564446616518972 
-0.008673406260187977 
-0.1051038011415503 
0 
0 
-0.02076887473262424 
0.02514422778594542 
0.08442652246229963 
0.01130040350536014 
-0.02753498392466077 
-0.5005519828426188 
0 
-0.2447873538347427 
0.2162831733663971 
-0.374267066228529 
-0.05007684709217618 
-0.2512819435016921 
0 
0.4603350725817571 
0.03021214307873759 
-0.07208037076063913 
0 
0.1584682578387467 
-0.01768975688366801 
0.006372485751523495 
0.03310680192580654 
0 
0.6588898560405569 
0.006311740501406056 
-0.08293008740651747 
0.008305223919495017 
0 
0.01500546816867573 
-0.04515140399242108 
0 
0.03781621720747487 
0 
-0.05182701160936003 
0 
-0.004090006529288173 
-0.06584112995786084 
-0.01702607778537847 
0.2128589466937662 
-0.01280498808233361 
-0.1055342046858252 
0 
0 
-0.1012214715078311 
-0.0005631515811512598 
0 
0.03245346505841473 
0.0007157858427218894 
-0.1976095598359764 
0 
0 
-0.4448584643553659 
0.05699368157106303 
0.046957819139297 
-2.001919363296988 
0.01064005782950481 
0.02131451786302086 
-0.2937484955166134 
0.0290567766849902 
0 
0 
0.05834873274162686 
-0.5477322250028069 
-0.009048300627713082 
-0.07403417766876076 
0 
0 
0.09967318094719049 
0.09967318094719049 
0 
0 
0.02133951862203103 
0.08072399456700205 
0 
-0.006361271960530177 
-0.01559942623546696 
-0.0972447152139541 
0 
-0.1118236849002263 
0 
-0.05759139624938264 
0 
0 
0.04200390267863585 
1.308290305447228 
0 
-0.0806388265543741 
-0.05096979161469391 
0 
0 
0 
0 
0 
0 
0 
0 
0 
-0.1160547780824465 
2.022968213854113 
0.4727910534829276 
-0.006028397683258336 
0 
0.1267880032922646 
0 
0 
-0.01944210215691571 
-0.1771931492023786 
0.0681316318894622 
0 
0.006409809966378383 
0.0006703359310442524 
5.83503881349378 
0 
0.1701589265950205 
0 
-0.01400669439652042 
0 
-0.001833325756546146 
-0.007735363342186966 
0 
0 
-0.1175881216344205 
-0.09576430102323787 
-0.002537128262144527 
-0.03955850633623138 
0.006183405140811137 
0 
0.1244228785633278 
0 
0.04916222596378883 
0 
0 
-0.003960109192847341 
-0.03058460734893478 
0 
0 
0.000637300318792404 
-0.001875795113993007 
-0.0138144656997215 
0.01247210589361457 
0 
-0.009013289193102261 
0 
0 
0 
0 
0 
0 
0 
-0.02087217017079754 
0 
0 
-0.02710423051234646 
1.120874941514249 
0 
0.02309751854149292 
-0.07071865547230807 
0.01198293140647544 
0.008652521614148017 
-0.05771797805900012 
0.004284007948509458 
-0.06406231414575018 
0.05003480258058186 
0 
0.02610072320786852 
0 
0 
-0.3875716585152649 
0.04474943871807255 
0 
0 
0 
0 
0.35978767421279 
0.5335584806311933 
-0.04552787448605877 
-0.01140783066511116 
-0.07855233233764185 
0.1583981738153018 
0.01492102002404662 
-0.01596787730952101 
0 
-0.02194553468743805 
0.04686125373566363 
-0.07356412900133957 
0.004795361458454265 
-0.07034949451495282 
-0.001953316973672686 
0.004402611076103815 
-0.01857716756246672 
0 
0.05439922281640854 
-0.4813087625955159 
0 
-0.1537549587484329 
-0.003957836486972927 
-0.08858767989644944 
-0.002954602456433569 
0.1757271697913759 
0 
-0.02935785226366016 
0 
0.01517608726593231 
0.02823962503718644 
-0.04033223187880091 
-0.1244948507886086 
0.08390619526524845 
-0.01837439074527191 
0.2384239958532155 
0.005836755933073471 
0 
0 
0 
-0.138832609073603 
0 
0.06116687963962081 
0 
0 
0 
0 
0.002438065284754147 
-0.0005251793818425772 
0.03027071143072865 
0 
0 
0 
0 
-0.05912755579943926 
-0.005775543925341 
0 
0 
-0.4785664215457615 
0 
0.04294744296385401 
0 
0.04384849194346261 
0 
0 
-0.1173342036912201 
-0.007442333790593697 
0 
-0.007184493688648107 
-0.06559395429478468 
0 
0.03404684800326386 
-0.06323212206029716 
-0.06961668102185739 
-0.006058472938221456 
-0.06668585933069199 
-0.003073765088426398 
0.02216199944574397 
-0.05409378679660703 
0 
0 
0 
-0.01901714520373556 
-0.0786412559641806 
-0.0328628834024019 
-0.2647211471895246 
0 
-0.08147453326383503 
-0.001373896671813337 
0 
0 
0 
-0.298529125898087 
-0.06121062718895875 
0 
0.1298442369212804 
0.8424148220678983 
-0.03067575732865111 
0 
0 
-0.4633037935565917 
0.008015759712011116 
-0.007635190009451003 
-0.004184716423656736 
-0.0167572905224908 
-0.03881308914962468 
0.6446966506690143 
0 
0 
-0.003797178676801984 
0.01066380406012136 
0.7013133286901407 
-0.01542685535399006 
0 
0 
0 
0 
0 
0.02277415656602701 
-0.02919870463925039 
0 
0 
-0.2471605043917726 
-0.009366456175217799 
0.0001416195574727698 
-0.009131387921589846 
0.07556889574555749 
-0.235137866009599 
0 
-0.02207610441700262 
0 
-0.1193570121833403 
-0.07140377843871132 
0.007764785744098672 
-0.03480851122684599 
-0.02891473121473886 
0 
0 
0 
0 
-0.1340369105250082 
-0.05609845908330183 
0 
-0.0986805632412712 
-0.006232614151267316 
0 
0 
0.2335068695403218 
0 
-0.02139816014730803 
0.03615098569532201 
0 
0.003320515316579715 
-0.007860818406570189 
0 
0 
-0.02571043632313471 
-0.04568142222499325 
0 
-0.06463682704813488 
-0.02738510325514418 
0.5398191713226655 
0.4118496187848041 
0 
0 
0 
0 
0 
0 
0 
0 
0 
0.2134127348193932 
-0.1927058257576864 
0 
-0.2414655669004034 
0 
0.02248988438875796 
0 
0 
0.008984032322182811 
0 
0 
0.04413515799400521 
0 
0.611737955518622 
-0.3430249975812202 
0 
0 
0 
0 
0 
0 
0.1309974465755082 
0 
0 
0 
0 
0.08184219464429983 
0 
0 
0.0001416195574727698 
0 
0.05527615395073068 
0 
-0.01029235739763084 
0.07373460162959655 
0 
0 
-0.4805604852375971 
0 
0 
0 
-0.01507398411957987 
-0.04937660238992553 
-0.005775543925341 
0 
0 
0 
0.08374219025564397 
0.04374702704840015 
0 
0 
0.05342983394267417 
-0.05393128849617002 
5.421010862427522e-20 
0.179619101140177 
0 
0 
0 
0.0632915177428357 
-0.02095206254636859 
1.04630619397873 
0.003415897837939427 
-0.006273898948881265 
0.5703733475880387 
0 
0 
-0.0816526578561209 
0 
-0.1013236163691511 
-0.0005251793818425772 
0 
0.03056934559275832 
0 
0 
0 
0 
-0.05713538413879265 
0.123352505345546 
0 
0.001510937092064906 
0 
0 
0 
0.2227472556326224 
0 
0.06178217594787495 
0 
-0.07168649365955369 
-0.4026618073498046 
0 
0 
-0.04165916091906288 
0.03673401446592046 
0.14169750071203 
0 
-0.01636392566095582 
-0.09009817982340676 
0.07271185020869264 
0 
0.0001416195574727698 
0.005622632071771952 
0 
0 
-0.04996972513345143 
0.2188396551020451 
0 
0 
-0.02886152111634426 
0.1619338593749406 
0.3542524308556365 
0 
-0.1318813174535541 
0.01332245491422124 
0 
-0.06184116044148151 
-0.09978954814834014 
-0.006404429042724402 
0.1131287686336375 
0 
-0.09303122584071935 
0 
0.01281082093792249 
0.1254633888252613 
-0.002302190203286265 
0 
0.02696831897723399 
-0.1019876768240751 
1.199235653740397 
-0.1153362903121266 
0 
0 
-0.01542454352404902 
-0.01542454352404902 
-0.007272651165224477 
-0.03202055937577131 
0 
0 
0 
-0.04265973471108103 
-0.9467215871809174 
-0.1419681500335981 
0.4748673391332311 
-0.04586795160778357 
0.1321752255253282 
0.01779515501121338 
-0.01686268724914935 
0.004099117942420178 
0 
-0.1252159072097828 
-0.2024846861577773 
0 
-0.04126714816010747 
0.04438018376366906 
-0.03915260477893764 
0.02886339005931737 
0 
-0.1918464372329744 
0 
-0.04255353637727476 
-0.06392938456026449 
0 
0 
-0.002558134651966583 
0.01706006965786435 
0 
0.004067074757773037 
-0.04894728948496308 
-0.01839278383880659 
-0.1384091243921856 
0.01487270940779235 
0 
-0.2684883042296054 
-0.0262182602252855 
-0.04864844488106898 
0 
0 
0 
0 
0 
0.02573557080669662 
0.02441044364541538 
0.001396207131357264 
0 
0.02702984819480386 
-0.1035359409805284 
-0.02783204709590694 
0.02066947294045543 
-0.01021448948059569 
-0.03023851772067931 
0 
0 
0 
-0.003097968583569556 
0.02862394145150982 
0 
-0.1486506181820597 
0 
0 
0.2956284826942532 
1.561747642605183 
0 
0.4734333071248819 
0 
0.09607136824771338 
0.001464797026605865 
0 
0.02279417945178779 
0 
0 
0 
0.05113806650705662 
0 
0 
0 
0.01742128034592044 
0.00553576293798712 
-0.005030486810692111 
-0.01936823297155909 
0.07917441162625292 
-0.04129426343257055 
-0.009684116485779546 
0 
0 
0.003662423617646707 
0 
0.01727924810815534 
-0.05186954557680985 
0 
0 
0 
0 
0.165473084837 
0 
0 
-0.06147707072913541 
0 
0.06226735294302763 
0.08748962179068698 
-0.003886856973230344 
-0.1191983137697106 
0 
0.06683487625285292 
0 
0 
0 
0.1489665756375929 
0 
0.1028931628826423 
0.04954849720859717 
0 
-0.110848717610128 
0.008432307711973336 
0.007379460189115686 
-0.007782994731984711 
-0.02267007733062172 
-1.082928703037442 
-0.3905053294586417 
0 
0 
-0.004855330752768876 
0.03871505925458059 
0.005720439717857064 
0.04773042567010581 
0 
-0.268159925376255 
0.01349797435839954 
1.344838188595042 
3.236313507898759 
0 
-0.01364438189806188 
0 
-0.05601490288452418 
0 
0.1781935821803134 
0.0464172702703772 
0 
0.2061859076073983 
0.01875173842096283 
0.07117494058077452 
0 
0 
-0.009754763741551584 
-0.03686395599734637 
-0.004628793741692751 
-0.2626366830265127 
0 
0.3139832109031135 
0 
0 
-0.0138062237886606 
-0.06886881734158357 
0.0588447186701071 
0 
0 
0 
0 
0.06115369324380496 
-0.0820245825031443 
-0.0991982918714312 
0 
-0.006800544134061475 
0 
0 
0 
0.1953209925288756 
0.0002936339253746698 
-0.06904261138900665 
-0.08767025611500831 
0.1440816452734642 
2.527338830974387 
0 
-0.08647100539712167 
0.02021018306913651 
-0.01090323012023381 
0.001472963169722671 
0 
0 
-0.07805364734402516 
-0.3365757634065384 
0 
-0.006055835443445946 
-0.7072828358842312 
0 
0 
-0.0117862823196454 
0.2430029385849737 
0 
0 
-0.1049906873317838 
0 
-0.004191150261385433 
0.05363368166285298 
0 
0 
0 
0 
-0.005116269303933166 
0 
-0.3572853832615561 
-0.008207288663049109 
0.006605374426780723 
0 
0 
0 
0 
0 
-0.1650014056918612 
0 
0 
0 
-0.1905703014410548 
-0.1234183557541325 
-0.07351104164945088 
-0.01149808481725198 
0 
0.003430181100868721 
0 
0 
0.005044082193185613 
0 
-0.0005604525175137129 
0.00232935903302836 
-0.002516901756836898 
0 
0.004120647450697117 
-0.05790215259970184 
-0.06997038014525626 
0 
0.008207279412733437 
0 
0 
0 
0 
-0.183328144449181 
0 
0.2689430695408094 
0.3461064157360554 
0.06525723620522059 
0 
0.09500525538139194 
0 
0.2691160995494507 
0.01730379676411603 
0.005700768664456181 
0 
0.01179926338588334 
0 
0 
0 
0 
-0.02041436646938319 
-0.005473192262167062 
0 
0.05740653680167422 
0 
0.1946335324612815 
-0.0801613326401259 
0 
0 
-0.02246188951415894 
0 
-0.04577609503214379 
-0.1438341694839128 
0 
0 
-0.09665931265387896 
-0.09202331514270304 
0.03513189020686143 
0 
0 
0 
0.007167320509361434 
0.008709231871688844 
0 
-0.08804229042648691 
0.05257147364601281 
-0.1029868335157885 
0 
0.02097569101605443 
0.01227863678330027 
-0.01477414975874342 
0 
0 
0 
0.1414136211369162 
0.0009085980098519316 
0.04317603680882433 
0 
7.080977873638489e-05 
0.03840785320630877 
0 
0 
0.09866244841684119 
0 
0 
-0.007319500467076168 
0 
0.01603976004789139 
0.005990147709311712 
-0.03255372163166672 
0 
0.008637055753106634 
0.1841207134620009 
0 
0 
0 
0.09266179562619418 
-0.02288629147167003 
-0.008253533341211643 
0 
0 
0.07585281146649264 
0 
0 
0 
0 
0 
-0.02929317128851368 
-0.1358810575073081 
0.06245760490603856 
0 
0.02755477413091183 
0.1250626080207513 
0.0009207464144306086 
0 
-0.03126513544984968 
0 
0 
0 
0.09157653836273673 
-0.1367933885650112 
-0.1518138793663965 
-0.02194588459730602 
-0.004030339110047557 
0 
0 
0 
0.03532158645147255 
0.01288070286319354 
0.1159779179478222 
0 
0 
0.03207106419027447 
0 
0 
0.2182043658982092 
0 
0 
0.1265719344628861 
-0.04817679729404871 
0.05468746552477929 
0 
0 
0 
0 
0.06245705985798024 
0 
-0.05879567308415529 
0 
-0.0005251793818425772 
0 
-0.1029698089310498 
-0.1039410831083148 
0 
0.02655807814105336 
-0.07460757970169661 
0 
0.1218194741672685 
-0.06484510664475199 
0 
0 
0 
0.1330048531490887 
0 
0.1543642711953756 
0 
0 
0 
0 
0 
0 
-0.0009335584091841763 
0 
0.01071669383297327 
-0.07582361732334854 
0 
-0.007913188582067247 
0 
0.1224207953279992 
0 
0.03766330838838534 
-0.002799613621333086 
0 
0.02972539052236058 
0.2214038697919083 
-0.006408627042498193 
-0.150838291631725 
0 
0 
-0.008254031544939306 
-0.04691529911944594 
0.01842243778064191 
0 
0 
0 
0.03310404052015222 
0 
-0.02057123080233568 
0.03674825402442598 
0.05082914937350808 
0.03870115824701288 
0 
0 
-0.1310059581486135 
-0.124992038772684 
0 
-0.03399607060218181 
0.006403891818544622 
-0.01579938825464544 
-0.2867659820861834 
-0.07875270751417471 
1.236845851015698 
-0.05626671174320713 
-0.08589754193600253 
0 
0.2988911610237654 
0.06036746673710855 
-0.264279849320683 
-0.1303388889310774 
0.7354209031498781 
0 
0 
-0.09581171629783321 
-0.07319677741315124 
-0.06654168974903352 
-0.1984991684730067 
-0.01721329789245363 
0.068454883764119 
0 
0.04278834452302918 
-0.01736679983074004 
0 
-0.004935822763540553 
0 
0 
0.01580592365020437 
-0.01113241145654869 
3.978562875451233 
0.3055312494313301 
0.126479257325357 
0.07644502685256103 
0.1798253700577142 
-0.002604003770323787 
0.1210075571080041 
-0.02667232550012622 
0.3735449708942708 
0.007185430421254854 
-0.4854753496755658 
0.1461440466549856 
-0.2525627943123644 
0.1396062386711514 
0 
0.04610958811717216 
0 
0 
-0.420933242542 
0.05830090948309497 
0 
0.008507893087308952 
-0.007469702520881534 
0.005287957979922806 
-0.008000873278331717 
-0.1412293714915308 
-0.05185727979115686 
0 
0.2459549887301033 
0 
0 
-0.5219061927008787 
0 
-0.01579078310013921 
-0.03632066152792117 
0 
0.1022008583831694 
0 
-0.01266037945822524 
0.02481924614874792 
0.007884043265747801 
-0.04953492291917644 
-0.1091629700274543 
0.1290992163747549 
0.1037894864319829 
-0.01595425585825627 
0.006748314596274948 
0 
0 
0 
0.04967736897137753 
0 
-0.3236313520129809 
0 
0 
0 
0.02500404291832118 
-0.01872089983442437 
0 
0.0001567256663118539 
0 
0 
0 
-0.0004531502573827292 
0.04171442379927354 
0 
-0.004026161308084353 
0 
0.0103853993197809 
-0.02287437439727504 
0 
0 
-0.04399960581614273 
0 
-0.1130184782671834 
0 
0 
0 
0.01351601697963275 
-0.04623212496655866 
0 
0.03536452700328283 
0 
-0.05757393864296506 
0.4494165530157473 
0 
0 
0 
-0.0004607130913211365 
0.0668723764601646 
-0.08785900952852432 
-0.01421653544449639 
0 
0 
0 
-0.02192328978716068 
0 
0.3731656691476656 
0 
0 
0 
0 
0 
0.000955377171905393 
0.07778676929860381 
0.005152777117811227 
-1.277401472418849 
0.01178882811041642 
0 
-1.018878761322473 
0 
0.05996455085061741 
0 
0.04122741118647187 
-0.04529710602294976 
-0.005056029031334006 
-0.01032710410624174 
0 
0 
0 
0 
0 
0.2869341808789609 
0 
0 
0 
-0.0506084176701655 
-0.01333999306533158 
0 
0 
0 
0 
0 
0 
0 
0 
0 
0 
0 
0 
0 
0 
0 
0 
0 
0 
0 
0 
-0.01143707647144332 
0 
0 
0 
0 
0 
0 
0 
0 
0 
0 
0 
0 
0 
0 
0 
0 
0 
0 
0 
0.01590967629647889 
0 
0 
0 
0 
0 
0 
0 
0 
0 
0 
0 
0 
0.005589189016839152 
0 
0 
-0.008630241763442095 
0 
0 
0 
0 
0 
0 
0 
0 
0 
0 
0 
0 
0 
0 
0 
0 
0 
0 
0 
0 
0.03010546145588866 
0 
0 
0 
0 
0 
0 
0 
0 
0 
0 
0 
-0.002986874230548777 
0 
0 
-0.02202601440491013 
0 
0 
0 
0 
0 
0 
-0.04963951146765781 
0 
0 
0 
0 
0 
0 
0 
0 
0 
0 
0 
0 
0 
0 
0 
0 
0 
0 
0 
0.01769889507882501 
-0.007994705066791443 
0 
0.005899631692941668 
0 
0 
0 
0.07656352755512739 
0 
0 
-0.006984112584197865 
0 
0 
0 
0 
-0.03537951376733603 
0 
0 
0 
0 
0 
0 
0 
0.008367914735364785 
0 
0 
0 
0 
0 
0 
0 
0 
0.06038059609068753 
0 
0 
0 
0 
0.1963575953006717 
0 
0 
-0.009744744914286606 
0 
0 
0 
0 
0 
0 
0 
0 
0 
0 
0 
0 
-0.01212516044857244 
0.005899631692941668 
0 
0 
0 
0 
0 
0 
0 
0.0240502372673353 
0 
0 
0 
0 
0 
0 
0 
0 
0 
0 
0 
0 
0 
0 
0 
-0.4684354659032976 
0 
-0.003414137554426617 
0 
0 
0 
0 
0 
0 
0 
0 
-0.02061778989966798 
0 
0 
0.07154441155858782 
0 
0.05973957964986464 
0 
0 
0 
0 
0 
0.02936984353680362 
0.02936984353680362 
0 
0 
0 
0.0122534439705729 
-0.01300619468966018 
0.004503879608527233 
0 
0.01647811049996169 
0 
0.1834686394089524 
-0.1456460081594921 
-0.06273590591808846 
0 
0.01655824803298263 
-0.01022703922551862 
-0.003520773005262075 
-0.05234072484584436 
0.07646437585772781 
0 
0 
-0.1023761757319759 
-0.02083486048316828 
-0.02117874868264539 
0 
0 
0.01056168402356844 
0 
0 
-0.02998994962076704 
-0.01587859260711232 
0 
0.8893593237103913 
0.9362488378360574 
0 
0 
0 
-0.07340456673781701 
-0.0169703539209937 
-0.07253881354043645 
0 
0 
-0.4691257609149423 
0.00878754487632359 
-0.2057347225693723 
0.08666997667906093 
-0.03738591738149177 
-0.05062127061803914 
0 
0 
0 
0.6098415250503147 
0 
-0.03487815024131676 
-0.04779176972898187 
0 
-0.05282737431455305 
-0.0261997433453025 
0 
0 
-0.176869494463204 
0 
-0.02150387147458793 
-0.1063070852321596 
0 
0 
0 
0 
0 
0.006180442853015229 
0 
0.03000205364276629 
7.080977873638489e-05 
-0.001185793895611067 
0 
-0.1405958676500394 
0 
0 
0 
0.1087220251493826 
0 
0 
0.01603860993189895 
0 
0 
-0.002118577096268741 
0 
-0.01793048264962391 
0 
-0.1400073541476204 
-0.3161472399586404 
0 
-0.09703282620706064 
0.5481376668194803 
0.7299634151737929 
0 
0 
0.1230671780213652 
0.06436291794565187 
-0.004860960117179835 
0 
0.01241496979011053 
-0.02815513913926007 
-0.02329147405848976 
-0.004821923026442626 
-0.007978818722652719 
0.01945153463825234 
-0.002407552845328569 
-0.03346609149393752 
0.03228157900564823 
-0.04451982790368619 
0 
0 
0.04210712462067138 
0.0807238369788133 
0.111322627860918 
0.07539112906886558 
0.0004675330266061415 
0.02737709760869625 
0 
0 
-0.08459915236161478 
0.011345635055548 
0 
0 
0.02007928375057013 
-0.01724724813544859 
0 
-0.02205397691234351 
-0.02018918419208144 
0.002470681459458528 
0.02533454433823121 
0.1498523982391142 
-0.04877866090218699 
0 
0.03739775893657695 
0 
-0.01999915903698633 
0 
0 
0.05372039654347555 
0 
0.07961117722346525 
-0.02405695924452532 
-0.001508231418647097 
0 
0 
0.01292879937627157 
0 
0.08477444344845426 
0 
0 
-0.09453849021134957 
0.1397797146994313 
0.01450780411374321 
0 
0 
-0.02605809617615154 
0 
0 
0.5047804964872418 
0 
0 
-0.06888293351173386 
0 
0 
-0.3860034214076528 
0.01233309943854268 
-0.004378715080360364 
-0.3276910659148495 
0.01200244653849331 
0.08593286969126575 
-0.04276759215602868 
0.0640355595430319 
0 
0.4833507651163599 
-0.006453993799361225 
0 
0.5397717407793052 
-1.863472483959461e-20 
-0.04984561632519051 
0.007928708215408125 
0 
0.02093764685271265 
0.005751410047051851 
-0.2500871147504128 
-0.02427174841393082 
-0.0340584069772953 
-0.1378173722333606 
0.2857090383263116 
0.6532560885768738 
0.01946434347790382 
-0.160155880058581 
0.2147157660474688 
0.01723062045468285 
0 
0 
0 
0 
-0.02201838919774511 
0.0005936766288333367 
0 
0 
-0.05578022153322452 
0 
-0.04645728110637134 
-0.007992298901140778 
0.001949557961427495 
0 
0.07802193208507002 
0.1636801087995263 
-0.07179454953930701 
0.05957621805547113 
0 
-0.2385080098767447 
0.5105625154340147 
-0.0128301230266789 
0 
-0.01641724483504246 
-0.03491680793795292 
-0.006058472938221455 
0.006123294959754205 
-0.03089354315029051 
0 
-0.01000987079793718 
-0.411480311610013 
-0.4041222997136675 
0 
0 
0 
0.01248211424338562 
0.0115966873039376 
0.03053220134429204 
0.01391687333960775 
0 
0 
0 
-0.01075695328668098 
0.00345430717325501 
-0.0003208909564695282 
-0.001387508627136574 
-0.0129442945952873 
-0.02601645890305515 
0 
0 
-0.0677105921593192 
0.0002936339253746698 
0 
0.02139597872010711 
0 
0 
0 
-0.07963060909258256 
0 
0.1038259027992155 
-0.08897743478223312 
0.1131198524345471 
0 
0 
-0.1565614876292747 
-0.01413117863933605 
0 
0.2323212237564541 
0.04975154833738422 
0 
0 
0 
0 
0 
-2.043132864968515 
0 
0 
0.5932845877808859 
-0.01246607251493249 
0 
0.09398414085078419 
-0.2524641834427204 
-0.08752786166086787 
0 
0.2096500389545268 
-0.04135076298379563 
0 
0 
-1.550268947414422 
-0.7677423177467939 
0 
-0.1626058176817258 
-0.1308647498318798 
-0.06616988405299427 
0 
-0.01040175877592988 
0.0008513007003460747 
0.005485747737922434 
0.04211169226326573 
-0.1495459596877327 
-0.01398817623288281 
0 
0.003266216710039813 
0 
0.08177372773742661 
0 
0 
0 
0 
0 
-0.05208938810739528 
0 
0.0420428544386465 
-0.02928392852213343 
0 
0 
-0.03314043490097625 
0 
0 
0 
0 
0 
0 
0 
0 
0 
0 
0.00199951072472755 
0.2888658581255268 
0 
0 
-0.05097521320493886 
0 
-0.03275210291413546 
-0.09029099826760953 
-0.08412505318079173 
-0.08383141925541705 
-0.1423559702861556 
0 
0 
0 
0.007773575736830481 
0.02670508895818663 
0 
0.5810936757927303 
0.01710292342435297 
0.08566972585448339 
2.07282610772519 
-0.8678856402573818 
0.2031542838686682 
0 
0 
0 
0 
0 
0 
0 
-0.1037661642772024 
0 
0 
0 
0.004601538784976055 
-0.04302579695798531 
-0.02699698507772685 
0.008146832639337928 
-0.0300234947248366 
-0.05089915110987845 
-0.05594155894179315 
0 
0 
0.04123179044841802 
0 
0 
0.06458988783434878 
1.071654363844559 
0.003955314035763552 
0 
0.01858480186931709 
0 
0 
0 
-0.03138107178712134 
-0.1261059425274217 
0 
0.02814637737348413 
0.01758061068661086 
0.08731685814468662 
0 
0 
-0.007853962296371083 
0.01731783115677871 
0 
0 
0 
0 
-0.1071737632179675 
0 
0 
-0.01705465500337826 
-0.009142587739959318 
0.05178204946965877 
-0.06528876570208186 
-0.1716740698711774 
0.1610735704073161 
-0.003058007602321708 
-0.05024078400591393 
-0.01778999662020338 
0 
0.05602045671523191 
0 
0 
0 
-0.02987700084049196 
0.06494264801795864 
0.8158964857795109 
0 
-0.1270687802302317 
0.1644821816651261 
0 
0 
0.02248571462961518 
0 
0 
-0.1050318743587386 
-0.004297736068318939 
0 
0 
-0.008627944030291962 
-0.2162133200050025 
-0.0758376191355539 
-0.1105845702097351 
-0.05838149720434627 
0.1605498317371705 
0 
0 
0.4775389451435244 
-0.002875981343430653 
0 
0.1877394101692095 
0.07029011451205119 
-0.02656160478605667 
0 
-0.2804470766222295 
0 
1.843143693225358e-18 
0.03384087254685928 
0.0006376056903027907 
0 
0.5357955113169816 
0.4218341412758303 
-0.0264998471711909 
0.1915145323064313 
0 
0 
-0.07950027467481095 
0.04291000413002845 
0.1256354154348504 
0 
0 
0 
-0.02475494061360691 
0 
0.06532782504227642 
0.1187928142146324 
0.02348635019721612 
7.080977873638489e-05 
0 
-0.007238788673703768 
0 
0 
0 
-0.002714425910893527 
0 
0.005899631692941668 
0 
0 
0.1539237945478247 
-0.0003601715318601018 
-0.07975635560416601 
0.02099366072449981 
0.05322419392000069 
0 
-0.05247957085942299 
0 
0 
0 
0.7947264999271882 
0 
-0.009027283418154045 
0.0222275382061812 
0.001221468572056504 
0 
0.05072521277731046 
-0.3149650688686825 
-0.04718068592818646 
0 
0.1009110959597572 
0 
0 
0 
0 
0 
0.007035069709358561 
0 
0 
0 
-0.1399027559327299 
0 
-0.03011353073272016 
0 
-0.09172122107627402 
0 
-0.1618898060086037 
0 
0.002057619913839564 
0 
-0.06325009204943319 
0 
0 
0.1986763503176673 
0 
0 
0.066553035406935 
0.05232879958830969 
0.0157406009993351 
0.576134285020809 
0.1161014861170999 
0.1589874365302849 
-0.01094638452433412 
0 
-0.1333090438066608 
-0.001402329539945379 
0.07130762168319457 
0 
0 
0.001061209655439478 
0 
0 
-0.02970413304436654 
0 
-0.01149483618970566 
0 
-0.03083158005454329 
0 
0.4646703378256656 
0 
0 
0.08336445100327926 
0.006752786492927918 
0 
0 
-0.4489469700767745 
0 
-0.0307685298374011 
0.02440786562122413 
0 
0 
0.01628550960913102 
-0.03089388776701137 
0.008719239526625122 
0.02982535921555892 
-0.03647063347505815 
0 
0 
-0.182859382910645 
0.007213537127617088 
-0.004687272997322262 
0.006088819957350325 
0.05290191987210028 
-0.02577462978564074 
-0.3175650060992695 
0.009231723882994083 
-0.2148223176206124 
-0.5606653192559898 
-0.000233761235739874 
0 
-0.1088102124196122 
0 
0.009709577514771778 
-0.002485912467171614 
-0.1103739460719699 
0 
0.01216248484942448 
0 
0 
0 
-0.003508159324168389 
0.01543950610525517 
0.47343939715061 
0 
0.01843128885640156 
0.005751410047051851 
-0.051974926322482 
-0.02306944875522524 
-0.02066537643289485 
0.05184205142287322 
0 
0 
0 
-0.2392782050444038 
0.6120028670646034 
0.1178391674172202 
-0.1003930807453772 
0 
-0.09337012132195296 
-0.003581317689512654 
-0.002558134651966583 
-0.02970958264936963 
-0.1439175363360781 
-0.1988041838249343 
0 
0 
0 
0 
-0.02574175102666936 
-0.01512796778957779 
0 
-0.0374255981873327 
0.05463021333574049 
0 
0.08512506825234471 
-0.0540160104666424 
-0.03958349898671264 
0.01048043059137281 
0 
-0.02767684218453307 
0 
-0.001373896671813337 
-0.1883738252625205 
0.05833969009134214 
0.06536133612112711 
-0.04009588584108936 
-0.1870895228561951 
-0.04643425745235098 
0 
0 
0.1204974765895071 
-0.02095206254636859 
0 
0 
0 
0 
0 
-0.01380418492520856 
0 
0 
0 
0 
0.0007815746081820319 
0 
0 
0 
0 
0 
0 
-0.01545892393658553 
0 
0 
0 
0 
0 
-0.06229718755273972 
0.02446373608733078 
0 
0 
0 
0 
0 
0 
0 
0 
0 
0 
0 
0 
0.001442547212281673 
0 
0 
0 
0 
0.005877071325334771 
0 
0 
0 
0.06352665990099751 
0 
-0.006747550870563919 
0.06826362601459789 
0 
0 
0.04226338093950051 
0 
0.08595499836636451 
0 
0.1071854690306104 
0 
0 
0 
-0.3163977234675401 
0 
0 
0 
0.0007859333761801032 
0 
0 
0 
0.04759615454016673 
0 
-0.01709666199237729 
0.009633920738019502 
-0.01826455575715455 
0 
0 
0 
0 
0 
0 
0 
-0.02879834562288063 
0 
-0.01568823701614356 
0 
0 
0 
0 
-0.1354570953483633 
0 
0 
-0.02955047917191859 
-0.03793577972691956 
0 
0 
-0.02708310376282584 
0 
0 
0 
0.0529992981739749 
0 
0 
0 
0 
0 
0 
0 
0.02259094544890525 
0 
0 
0.03145248412444887 
-0.0300640694387737 
0 
0.131317349177663 
0 
0 
0 
0 
-0.0101549648186759 
0 
0 
0 
0 
0 
0 
0 
0 
0 
0 
0.1973314349722111 
0 
-0.0007727716411628745 
0 
0 
0.008970536556754762 
0 
0.04226338093950051 
0 
0 
0 
0 
0 
0 
0 
0 
-0.01249526708330379 
0 
0 
0 
-0.02353430363163415 
0 
0.08849619270232487 
0 
-0.01231358748839508 
0 
0 
0 
0 
0 
0 
0 
0 
0 
0.2800431633926246 
0 
-0.2418449336281166 
-0.007050953121827833 
-0.04270024006913903 
0 
-0.1050852155320626 
0.002970151310649282 
0 
0.04129407514944032 
-0.1507238699192335 
0 
-0.05445346160585917 
0 
-0.002669394994138861 
0 
0 
0.003431147704323474 
-0.01324489723534377 
0.08477444344845426 
0.2667919169805209 
0.2262595757342826 
0 
0 
0.01249011199212933 
0.4220256748514419 
0 
-0.05007579705669402 
0 
0 
-0.2216202503941123 
-0.0003634562264343803 
-0.02108165400873015 
-0.3224892924115597 
0.2623476053559275 
0.03857182158121047 
-0.299331529097985 
0 
0 
0 
0.005836755933073471 
0.05126039384461237 
0 
0 
-0.004789203100767764 
0 
0 
-0.004959677031955725 
0 
0.02477424860429859 
-0.06911342509553389 
0 
-0.02773909010137748 
0 
-0.03546096121456642 
0.1599513142660584 
-0.2867284190392417 
0 
0 
-0.008928049491323808 
0 
-0.3576013835943843 
-0.1254502862943685 
0.124314352503557 
0 
0 
0 
0 
0 
0.004846486095885353 
0.003746795961017597 
-0.0007861075950319823 
0.02538581061168491 
0 
0 
-0.02311637318136444 
0.05855620857024033 
0.0241037430684542 
0 
0.04390076957872426 
0 
0 
0 
0 
0.07530431014032801 
0 
-0.01151933824915225 
0 
0 
0 
0.06330319931971706 
0 
0 
0.0164279285211234 
0 
0 
0 
0 
0 
0.01237263591403913 
-0.1375076534017699 
-0.1008663803457985 
0 
0.01026764607517507 
0 
-0.03017750283363228 
-0.03293935109879841 
0 
0.3950029335371317 
0 
0 
0.2201183371105965 
0.003371206786527904 
0 
-0.009999579518493167 
0 
0 
0 
0 
0 
0 
-0.0254315466388868 
-0.06089516694412401 
0.02825638718858179 
-0.01256884745352568 
-0.005473192262167062 
-0.06626110862912196 
0 
0 
0.007720947336513985 
0.0002124293362091546 
0 
0 
0 
0 
0 
0 
0 
0.001025317327488261 
0 
-0.2109245381605004 
0 
-0.1353303854888691 
0 
-0.1125343479531898 
-0.03435718847021786 
-0.0005251793818425772 
0 
0.4777726408138541 
0 
-0.05816991751659274 
-0.3223902042499351 
0.007155126712963887 
0 
0 
0 
0 
0 
0.005445213524596684 
0 
0 
0 
-0.1513828181928638 
-0.07577412731091865 
-0.198512430086545 
0 
0 
-0.007939752740493928 
-0.0101603596331418 
0.03303384515294395 
-0.1991742344749837 
0 
0.1201086646709575 
0 
-0.2702176037551914 
0 
-0.02892080950312194 
0.012538255923982 
0.008725112325058154 
0.08826076822588139 
-0.1047407363725748 
0 
-0.02201252655018393 
-0.0218772168529657 
0.005526170244540636 
0 
0 
0.1454873197249553 
0.005159265414226121 
0 
-0.08024906138632401 
0 
0 
-0.001380545983450547 
-0.002074392002134389 
-0.006206438314616921 
0 
-0.06182121505600111 
-0.382042098153672 
0.3218414275001863 
-0.2799956127802486 
0 
-0.141865767865901 
-5.699279511960204 
0 
-0.04349609082010965 
-0.04674579635795299 
0 
0 
0 
0 
0.3502557913100821 
0.01847349137499705 
0 
-0.05122122097334203 
-0.106539410924562 
0 
0.04759071645104253 
0 
0.4103994874087422 
-0.8173664780625679 
-0.05810586962598048 
0.6552893810010672 
0.008806142481735597 
0 
0 
0 
-0.06797985817793013 
0.01998469527556166 
0 
-0.08813760440427718 
-0.00544806387103034 
0 
0 
0 
0 
0 
0 
0.03984903133069096 
0.008902366353214754 
0.1217958809155489 
0.5381102399522014 
0 
0 
-0.1415457084183359 
-0.003058007602321708 
-0.03731513229570673 
-0.02462126142481223 
0 
0 
0.0552233463446828 
-0.03136840724101375 
0 
0.006311740501406056 
0 
0 
0.2604503379311484 
0.02458155906853392 
0.05462966971584947 
0 
0 
0 
0 
0.2550511204876499 
0 
0 
0.241086543895708 
0.05850578098893238 
0 
-0.01506060797946785 
0.4165763536286433 
0 
0 
0 
0 
0.01614783193359738 
0.006060675803947393 
0 
0 
-0.02725882744693216 
-0.06278745822693199 
0.2639448314789632 
0.3713573779985299 
-0.1844405474790373 
0 
0 
0 
-0.04005013749108383 
0 
0 
0.104886633023717 
-0.01287915234144845 
0.04511822074029893 
0.01431969362449124 
0.1117928625945721 
0.03179010140015879 
2.168404344971009e-19 
0.01811964185453079 
0.006538639256462512 
0.005080927672461565 
-0.02002506874554191 
-0.253647797034541 
-0.3904361379944102 
-0.2218220208086845 
0.003108504862547815 
-0.09186145925937729 
0 
0 
0 
-0.06349533823548945 
-0.007913188582067247 
0.006408159304432612 
0 
0.07362229672658752 
-0.02741427326406078 
-0.06242259893787067 
0 
0.030738983450927 
0 
0 
-0.1691975454371505 
0.04985170719727711 
-0.002136542489254098 
0.2323086284142826 
-0.002216762612666217 
0 
0 
0 
-0.1885958332615427 
-0.02518009010352655 
0 
-0.002924527163448756 
-0.2262471999994906 
-0.05612447564848868 
0.01525948219801162 
-0.003232491370643269 
0 
0.0261956294823679 
0.04638336053357927 
0 
0.494651624975372 
7.080977873638489e-05 
0.02674753173352006 
0 
0 
0.2244478278616362 
0 
0.1088707570496012 
0.7766156328335928 
0 
0 
0 
0.0004675330266061415 
0 
-0.002822802949821178 
0 
0 
-0.07397854077120776 
0 
-0.04408718802558639 
0.06297796377135281 
0.009160195883505086 
-0.01495376054825495 
0 
-0.03054996428162438 
0.1911009633179148 
0.605750041820453 
0 
-0.03461435260499276 
0 
0.2093082552966135 
0 
-0.04361386218441738 
0 
-0.02678331027087686 
-0.002558134651966583 
0 
0 
0 
0 
0 
0 
0 
-0.01795579760839918 
0 
0 
0 
-0.07990769865158798 
-0.02921602660369327 
-0.2116162119987877 
0.04933879313610794 
0 
-0.0438874489816598 
-0.1913972669503333 
-0.01413117863933605 
0 
-0.01015548119558492 
0 
-0.04477931715289734 
0 
0 
-0.04093730141185625 
-0.00569857030578465 
3.542738458721326e-05 
-0.04053881552218076 
0.02056843103189061 
0 
-0.02713583059396775 
0.0358770965873937 
0 
-0.0347192774681636 
-0.01257588145396306 
0.1099598135940321 
0 
0 
0 
0.1049712507857923 
-0.03003081564415107 
0.00642987765523909 
-0.1273992508964448 
0 
0 
0 
0 
-0.1477831540255881 
0.04659495402546672 
0 
-0.1340015707896351 
0 
-0.003414034693159225 
0.1140386882465657 
0.005494763616204365 
0 
0 
0 
-0.006716498567732823 
-0.0003208909564695283 
-0.05082166078005645 
0.07230382858260583 
-0.2699337769732938 
0 
-0.08383589496853742 
0 
0.122086856021679 
0 
-0.4791822715152197 
0 
0 
0 
-0.03005495644677425 
0 
0 
0 
0.003266216710039813 
0 
0.04917188784001432 
-0.08597728855520065 
-0.1035905325727105 
0.02572005260567608 
0 
0.003466345597782882 
0.0007815746081820319 
-0.04271711504183806 
-0.03203141014153818 
0 
-0.0177226432188505 
0 
-0.1160796155881892 
0.008275977952478379 
-0.114512950038622 
0 
0.01475708014412759 
0 
0 
0 
-0.05449019958643567 
0 
0.005899631692941668 
-0.09853888919185738 
0.03150587644610989 
-0.08405903645332 
0 
-0.04825210668305942 
0.289259026816826 
1.37938743581519 
0 
0 
-0.05284969634253316 
-0.02326917103840626 
0 
0 
0.1030089246079536 
0.03010216659361148 
0.1613057719665839 
0.00355801469934142 
-0.2184035279154345 
0 
0 
-0.06036732567689101 
0.08727296249408574 
-0.01140406612738062 
0 
-0.04978142841586767 
0 
-0.9109419951198547 
-0.1572730431130129 
-0.05041413531256175 
0 
0 
0 
0.008974513563402467 
0 
-0.0771843879049126 
0.02742498624324037 
0 
0 
-0.003601823742451239 
0.201993941577133 
-0.02380738289819368 
0.07861067181286611 
-0.5047526741045377 
0.03428435497232158 
0.01913221678032309 
0.01581987921884581 
0 
-0.06112860247522073 
0.01827627234025437 
0 
0 
0.04771633636387878 
0 
-0.4022976966562348 
-0.2320231961762718 
0 
0 
0 
0 
0 
0 
0 
0 
0 
0 
0 
0 
0 
7.080977873638489e-05 
0 
-0.004956445526336192 
0 
0 
0 
0.1269780731044518 
0.1943092628370312 
-0.004850818810905561 
-0.3114542600162859 
-0.02259546548365647 
-0.02469270522990276 
0.02373116571320642 
0 
0 
0 
0 
0 
-0.0330115899361181 
0.02553630934470915 
0 
0 
0 
-0.005056029031334006 
0.0727916571302806 
0.002640127858248367 
-0.05202458802910312 
0 
-0.03568631494166016 
0.02242324001202175 
0.06450616763071194 
-0.0005251793818425772 
0.003704786884891032 
-0.008621038777561358 
0 
0 
0.005952087220355081 
-0.005024544136618751 
0 
0 
0.00813060758668184 
0 
0 
0.01645439543159105 
0.01359939506606401 
0 
0.08298530046371062 
0.0002936339253746698 
-0.0353400217619444 
0 
0 
0 
-0.09902924247877777 
0 
0 
0 
-0.04502898953842115 
0 
0.08839352297608077 
0 
0 
0 
-0.5965991577085135 
0 
-0.04831945436999683 
0.2695427903418243 
0 
-0.08856523564148316 
0 
-0.03399753278896005 
0.04125021354553421 
0 
0 
-0.01630774964925127 
0 
0 
0.08693437724850714 
0.2386837256674171 
0.08038639578226585 
0 
0.09398414085078419 
-0.02178168020735526 
0 
0 
0 
0 
0.0001416195574727698 
0.1057015300525906 
0 
-0.0104550277920176 
0.01103269304879258 
-0.1335003192079786 
0.03437835082311335 
-0.05111322945143405 
0.02718127716110396 
-0.4342798053279743 
0 
0.08143894072357659 
0 
0 
0 
7.080977873638489e-05 
-0.01337976680157335 
0.3488615337091736 
0 
0.04170755801922205 
-0.08651407003772152 
0 
0 
-0.1727206160579344 
0.02226967237267416 
-0.0005251793818425772 
0.09513745915761206 
-0.02198418786385912 
-0.007853962296371083 
-0.2367851895393485 
0.08592602519370257 
0 
0.05028480189629204 
0 
0 
0.1099176245454977 
0 
-3.388131789017201e-20 
-0.007770079056132209 
0 
0.03968737848285518 
0 
0.007675860344027964 
0 
0 
0 
0 
0 
0.03257267784307447 
0.7170847192027644 
0.01381984480096671 
0 
0 
-0.2000239498817831 
-0.004456368762709652 
0 
-0.124514076738342 
0 
0 
0 
0 
-0.2305379307705218 
-0.08200108215210951 
-0.1220238637874683 
0 
0 
0.03318535204209843 
-0.002875981343430655 
-0.004027275866152834 
0.05597523189204032 
0 
-0.1989638169269396 
-0.1401919561193739 
-0.005980265023506597 
0.0367891890374083 
-0.06560441141275344 
-0.01566792202532676 
0.008393265861035731 
-0.1534076658809902 
0 
-0.01320744446409155 
-0.07834867976224284 
0.009127833766466019 
-0.3052760831472577 
-0.004027275866152834 
0 
-0.04955748037289456 
-0.04999080090581485 
0.0018942844537267 
-0.06979755441599053 
-0.05475680338027359 
0 
0 
0 
0.001968099836415973 
0 
0 
0 
-0.003011330010576877 
0 
-0.006669183037096586 
0.07496739154039631 
0 
-0.006976534284357736 
0 
0 
0 
0 
0 
0 
0 
0 
0 
0 
0 
0 
0 
0 
0 
0 
0 
0 
0 
0 
0 
0 
0 
-0.1082558429914347 
0 
0 
0 
0 
0 
0 
0 
0 
0 
0 
0 
0 
0 
-0.06830300843508436 
0 
0 
0 
-0.1686608617103005 
-0.09584674690338546 
0 
0 
0 
0 
0 
0 
0 
0 
0 
0 
0 
0 
0 
0 
0 
0 
0 
0 
0 
0 
0 
0 
0 
0 
0 
0 
0 
0 
0 
0 
0 
0 
0 
0 
0 
0.01830879221803361 
0 
0 
0 
0 
0 
0 
0 
0 
0 
0 
0 
0 
0 
0 
0 
0 
0 
0 
0 
0 
0 
-0.1856995268358963 
0 
0 
0 
0 
0 
0 
0 
0 
0 
0 
-0.02247794510436182 
0 
0 
0 
0 
0.127120880319217 
0 
0 
0 
0 
0 
0 
0 
0 
0 
0 
0 
0 
0 
-0.0419845105779208 
0 
0 
0 
-0.5608727385273595 
0 
0 
0 
0 
-0.06553400603844435 
0 
0 
0 
0 
0 
0 
0 
0 
0 
0 
0 
0 
0 
0 
0 
0 
0 
0 
0 
0 
0 
0 
0 
0 
0 
0 
0 
0 
0 
0 
0 
0 
0 
0 
0 
0 
0 
0 
0 
0 
0 
0 
0 
0 
0 
0 
0 
0 
0 
0 
0 
0 
0 
0 
0 
0 
0 
0.1515700287776937 
0 
0 
0 
0 
0 
0 
0 
0 
0 
0 
0 
0 
0 
0 
0 
0 
0 
0 
0 
0 
0 
0 
0 
0 
0 
0 
0 
-0.002558134651966583 
0 
0 
0 
0 
0 
0 
0 
0 
0 
0 
0 
0 
0 
0 
0.1612666919161474 
0 
0 
0 
0 
0 
0 
0 
0 
0 
0 
0 
0 
0 
0 
0 
0 
0 
0 
0 
0 
0 
0 
0 
0 
0 
0 
0 
0 
0 
0 
0 
0 
0 
0 
-0.007206945515577909 
0 
0 
0 
0 
0 
-0.01025514496348421 
0 
0 
0 
0 
0 
0 
0 
0 
0.06528391628815454 
0 
0 
0 
0 
0 
0 
0 
0 
0 
0 
0 
0 
0 
0 
0 
0 
0 
0 
0 
0 
0 
0 
0 
0 
0 
0 
0 
0 
0 
0 
0 
0 
0 
0 
0 
0 
0 
