solver_type L2R_L2LOSS_SVC_DUAL
nr_class 2
label 1 -1
nr_feature 38535
bias -1
platt's -13.0617175609641 0.1487940404120605
w
0 
0.06478037426252285 
0.06478037426252285 
0.1343011867232193 
0.2964404321634226 
0.3291325533346613 
0.3363089688178157 
0.1096621702283022 
0.168485593327849 
0 
0 
0 
0.009459159082729974 
-0.07479993903682701 
-0.09246616364852916 
-0.02111605363527687 
-0.08015642223769981 
0.2744778772061641 
0 
-0.4091032900750124 
0 
-0.04073358148197449 
0 
-0.2257164781170821 
0.2979551951453722 
0.06109284229271675 
-0.01555025479531512 
0.01387311491113641 
0.03331319736004902 
-0.03765105672499672 
0 
-0.05356685069955273 
0.07195620919148915 
0.0659935373124742 
0.7398349544574253 
0.0775639351385438 
0.01450907073701156 
0.007545231701793489 
-0.06075488440369852 
0.02413138066898123 
0.1758336554141896 
0.02448329328104946 
0 
-0.06980974616778975 
-0.2791754753302665 
0.4061646093390797 
0.0233992990239263 
0.04373433091685384 
0.02297757814743975 
0.0823092980414577 
-0.008892566056372073 
-0.3098429728694581 
-0.4935999142753125 
0.5403304002302981 
0.1683251618557436 
-0.0539104641817135 
0.006582970753984975 
0.009606797040090516 
0.1035809207239916 
0.1642610114781766 
-0.01512598137620097 
0 
0.00429026434415296 
-0.006394722945220479 
-0.02370186382994215 
0 
0.003421322257923586 
0.01208240298850288 
0.02704683601435381 
0.05685615846455861 
-0.04436242936273813 
-0.003438671428731629 
-0.07969670721597698 
0.009338554871648828 
0.01301755973224654 
0.848832455728146 
-0.1990147198629093 
-0.0649458988256162 
0.08013298611277545 
0.00172105286208993 
0.458677771893652 
-0.006339472405545212 
0.06222906721248315 
0.08228891909078882 
-0.659668466982154 
-0.4721327122685022 
-0.1237297039282608 
0 
0 
-0.6738514575267465 
0 
0 
0.05723900706895275 
-0.005369803403216957 
-0.07049326390392174 
-0.2100525919722184 
0.001834437012780158 
0 
0 
0.03123444757960499 
0 
-0.1573086043041747 
0.07629945859274559 
0 
-0.0001919197970274481 
-0.1991393612702792 
0 
0 
-0.008648795356057528 
0.3353602569002824 
-0.08395353683481122 
0.0607166341761732 
0.03684449512578782 
0 
0 
0 
0 
0.101439817783008 
-4.457391275030515 
0 
0 
1.773523547780681 
0.01268641457889734 
0 
0 
-0.2620560924448804 
0 
-0.01803048097268597 
0 
1.598603241490927 
0.1013588696265093 
-0.04583585528645619 
0.03097294058778232 
0.06238254216251181 
-0.1473381847281313 
0.005525000966146149 
-0.01436372045916768 
-0.312105053768589 
-0.09862167022971513 
-0.1855698003661136 
-0.8387340796972881 
0 
0.05983396722539622 
0.0008793452122219358 
0 
0.04478451125720896 
0 
0.0541001207704126 
0.1460086052950895 
0.004124301453439818 
-0.06275132908984156 
0.07811436918513313 
0 
0.03961445321355216 
-0.1327013315455453 
-0.0003838395940548962 
0.4319177416546059 
-0.03417290749191782 
0.01615511941437076 
-0.0123557133373908 
-0.3868118619041057 
-0.01694576587659725 
0 
-0.02195530997185728 
-0.04245459908557954 
0 
0 
0.2255111840599534 
0 
0.04626823508391252 
0.2037415705120597 
-0.001494991595976093 
-0.03967186468703945 
-0.009897135196717971 
-0.1300515463232998 
0.1062463419483461 
0.04330740937395155 
0 
0 
0.05248804300654833 
0.06992128584987145 
-0.4144180310671245 
0 
0 
0 
0.05155716090827592 
0.1975823676841443 
0.7053656800027686 
0 
0 
0.05503553007065918 
0 
-0.004239782651443969 
-0.2810915217826944 
-0.3581404790067843 
-0.1479816429259416 
0.06514568041735805 
0.06939876544244297 
-0.01602051735098125 
0 
0.02180548009429987 
0.1423815573500708 
0.09711122677239661 
0.664861445023152 
-0.01738370367715842 
0.05393944313337325 
0.09167927070017361 
-0.003595802720717981 
0.04894526769366957 
-0.01299787094564944 
0 
0 
-0.0182644098190317 
0 
-0.04903714437156396 
0.1308844718087565 
-0.3671496236166371 
3.325441365440249 
0 
-0.09885735228845996 
0.702686130479754 
-0.04280807495467241 
0.004430571666994725 
0 
-0.04291136696098895 
0 
0.00261931163252008 
0 
-0.02582831307315044 
-0.006229662685879224 
0.03135440289810106 
-0.009910903619791012 
-0.3357672790795558 
0.3369029933252385 
-0.3612586608753008 
0.289183275159061 
0.7050774862691063 
0.04874565038481917 
0.7186308697397882 
0 
0 
0 
0.4840050312646518 
-0.5752146477751073 
0 
-0.3241189999170676 
0 
0.08916361651775712 
-0.05069285188605571 
-0.2085473056738318 
0.008750539200220982 
0.01970072747497953 
-0.0107724862422715 
0.008509947721123309 
0.147962127725195 
0.1916223797328105 
-0.01192984386830543 
0 
0.3045826231587532 
-0.5954021233372635 
-0.0005884799693150126 
0.1436100748793281 
0 
0.03972772444370232 
0 
0.3650975063120907 
-0.3080159604376337 
0 
0 
0 
0 
0 
0.06559446213407738 
-0.003369579308331186 
-0.04221505035433157 
0.1375316073396095 
0.02636972628466543 
0.1914115934509377 
-0.02456930872637255 
0 
-0.0706098992108608 
-0.4043000283615645 
0.003307426338724145 
-0.7699007943342365 
0 
0 
-0.01179667033511388 
-0.03539001100534165 
0 
0 
0.6020135280075902 
0 
-0.5807987678051083 
-0.5686150440655841 
0 
0.3383131208678432 
-0.01577363545939336 
-0.05958872088452652 
0.06668370664638319 
0.1496466283762941 
0.1393491663251459 
-0.003851048521042863 
0.2731239801174583 
-0.1177386944232631 
0.0155147734407481 
0.01594771444325557 
0.2299769902449361 
0.08269347249971583 
0 
-0.1686135335429834 
0.09518026299121972 
0 
-0.1744706892003896 
-0.01179667033511388 
-0.01710928452618077 
0.06315995827539116 
-0.04929792013377084 
0.1429901621235674 
0.678123890558504 
-0.2823478726745867 
-0.01179667033511388 
-0.1466302201108698 
0 
0.09460784060575246 
0.09460784060575246 
0 
0.4637697368894966 
0 
0.004792259973734184 
0.02226207820669832 
0.9064055542103914 
0.06916039845565128 
0.125410968164714 
0 
0 
0.1255155064135816 
0 
-0.074927669761248 
8.152702525640021e-05 
0 
0 
-0.0508955621287598 
0 
0 
0 
0.2181387512825295 
-0.1274626623492208 
-0.002163038124805259 
0 
0.3691795858271 
0 
0.02287577224730534 
0.2018931012414378 
0.01597399493313229 
0 
0.2359639083790244 
0 
-0.1275723022539891 
0.2054434062790526 
0 
-0.08596487700451716 
0.02394204707312355 
0 
0.07522103807236027 
-0.01048666899267672 
0 
-0.06885785678317187 
-0.0001919197970274481 
-0.008074649156009757 
0.1040711002672745 
0 
-0.2949886427321339 
-0.2644468444491094 
0.004298756633226032 
0 
0.2533116714236341 
0.0302552270411469 
0.0395148927180198 
0 
0.178224652349366 
-0.005231752923694207 
0.0810353915960584 
0 
-0.03896641988613483 
0.1656083175618492 
1.507564165529193 
0.1664203817888223 
-0.008059414997397459 
0.003925307234171913 
0 
-0.03999377883700436 
-0.04311797550209997 
0.08359820827425414 
0 
0.06412216836200317 
0.1758806991094804 
0 
0 
0 
0 
0.02463360869705521 
0.02517707392193031 
-0.06472354057189339 
0.1706869578005964 
0 
0 
0.1022920436640463 
0.06587184040146653 
-0.003193202406365267 
0.02653359158805658 
0 
-0.09405634725469326 
-0.075906884778586 
-0.04274545199720014 
0.02162928782497573 
-0.117702359641826 
-0.1984306638599639 
0.07402544010185062 
0 
0 
0.02855557054080171 
0 
0.09799089659086842 
0.01653924762237775 
-0.1184237341789927 
0 
2.011583975614812 
0.1022835913869568 
-0.009565095306761263 
0 
-0.02402522148213481 
-0.0557950263195417 
0.06709693651873024 
0 
-0.02594152583143509 
0 
0.1105154995116969 
-0.08933182576808378 
0 
0.0400774683910125 
0 
0 
0 
0 
0 
-0.0001919197970274481 
0.0458833997215913 
-0.2347953663791882 
0.3610945623402007 
0 
-0.7473857806289823 
-0.2546102455953808 
-0.1905787487620533 
0.01755317249779594 
0 
-0.03234014444133716 
0 
0 
-0.08908754167604042 
0 
0.3031505624289312 
0.2468843287177621 
-0.002391319447262496 
0.2560020046414686 
0.1432098990783901 
-0.01661985710929302 
-0.007046537110178417 
-0.0001919197970274481 
-0.5460033342678109 
0 
0 
0 
0 
-0.02508075361390405 
0.9412093478028386 
0 
0 
-0.1489286026844854 
-0.6788751306251077 
0 
-0.01359923352650534 
0.2122052727614432 
0 
0.007056914075121317 
0.0543270556825163 
-0.1279711587164911 
-0.01359923352650534 
0.02029478575121933 
-0.01446185410589911 
-0.0001919197970274481 
0 
0.06459184547234682 
-0.01316135628363453 
-0.1104018541502032 
0.0610863216434708 
-0.01125976725662911 
0.03776089448095616 
0 
-0.1465427468135111 
0.007317772628113176 
-0.002234088726120028 
-0.009154900409556417 
0.09637414500743899 
-0.03916662171008286 
0 
0 
1.367630363357737 
0 
0.01720285948740157 
0.07207458845050431 
0.0958633161248853 
0 
0.2169544218000643 
-0.2026270938362579 
0.07588924954808156 
0 
-0.02558283413834584 
0 
0 
-0.03596172175929467 
0 
0 
0.08565650264986557 
0 
-0.05399705904509984 
-0.256057275530135 
-0.04367024429026482 
0 
-0.01932617654365605 
0 
-0.1321492506291467 
0 
0 
-0.1188800639818908 
0.5151463373591291 
0 
-0.1220958272867841 
-0.08287916485218647 
0.08798921125524235 
-0.01010873792499356 
0.07676282365878136 
0.09248270205437056 
0.004630666923143071 
0 
0.006033006659815402 
-0.003949263334499934 
0.0003383899224028127 
0.001245453281479774 
0.006301996478384296 
0.02067668920985053 
0.122960779819616 
0 
-0.0003838395940548962 
0 
0 
-0.2568774518710776 
0.4239357905843127 
-0.406807089831627 
0.003600919611224779 
-0.01629449071603497 
-0.04115943128762476 
0.4587772402145474 
0.07529624351106573 
0 
0 
0.5609838708212475 
-0.009911438911929407 
0.02967664645880914 
-0.02438125093906909 
-0.01248167008888238 
-0.01458636853007922 
-0.1421966793163825 
0 
-0.005417859490030198 
0.02313623153687468 
0 
-0.104962254282751 
0.299353657266229 
-0.05110910871073423 
0.1256165853686888 
0.0834942214489303 
0.3423984764076661 
0.025644204376818 
0 
-0.0448731575007947 
0.05030276155366338 
-0.06202727473818579 
-0.101493984216987 
0 
0 
-0.3043294859631621 
0 
0 
-0.03509843969760156 
-0.05676216535568571 
0 
0.1804278483417568 
0.7786165576080866 
0 
-0.0292791517983236 
0.007276504923637689 
0.06686814248049203 
0.09127375076402774 
-0.2393806694624089 
0.2447530000015771 
0.9368836046057087 
0 
0.1045036759342072 
0.02173386147740518 
0.1460811704117605 
-0.0107715714896779 
0.0216099835814114 
0 
0 
0.01029071956746551 
0 
0.004063657775497912 
-0.05963383547221125 
-0.03110967134478614 
0 
0.03661259297787701 
0.312826608802191 
0 
-0.0001919197970274481 
-0.009640616790766521 
0 
0 
-0.08491851536360803 
0 
-0.09832397398612107 
-0.06428296038352069 
-0.04874417623004402 
0.03533231413702322 
0 
0 
-0.1270479211944869 
0.3319309483743161 
0 
0.541255945842851 
0.374910145195362 
0.01841012708808785 
0.07971948112343291 
0.02422334545771552 
-0.04498859443700827 
-0.007709504341513664 
0 
0.03461763211593637 
0.001751722400934507 
0.4233747433038084 
0 
-0.03075082154490322 
5.20932373834268e-06 
0 
-0.1817204491471324 
-0.04841312946232596 
-0.09414717093293001 
0.4817605456080149 
0 
0 
-0.3585517741004166 
0.2273226491499318 
0 
0.0319954203336685 
0.0319954203336685 
-0.002234088726120028 
0.01933651592335442 
-0.0002114981663607633 
-0.12280082063332 
0.05089628552523721 
0 
-0.2217196967385789 
0.02488099897295764 
-0.1164378546650725 
0 
0 
0.03330286804387805 
-0.3146953454658999 
0.07369769159159427 
0.003523496460039582 
-0.07168785712740086 
-0.3905642341202223 
0.3053283779342904 
0.07648802985353505 
-0.146003532272839 
-0.4086958572120714 
0.06418391249851231 
0.3895496369255192 
0 
0 
0 
0.1401299188644008 
0 
-0.01437824085964846 
0.407241878104308 
0 
0.07145927682503372 
-0.07714334685367433 
-0.01055322485121362 
0.07382138384407713 
0 
0.1350659004206513 
-0.1807524793277825 
0.02807069475692725 
0.0481521865746895 
0.1336000441268859 
0.5824833319582382 
0.02901999933592016 
-0.01031778848800594 
0.1195292494920663 
0 
-0.06192218581071236 
0.005824685609476328 
0.00576377543474361 
0.4749358585278852 
0.05652318114383253 
0 
0 
0.3210177327034033 
-0.06121614236545334 
-0.02496381714076485 
-1.257014475036118 
-0.009156876107422553 
-0.01485801213294608 
0 
0.1073568353078084 
-0.02329208204561003 
-0.3990948027904423 
0.009602380215547279 
-0.01894863712948982 
0 
0.005793748743261438 
0 
-0.005635110005792848 
-0.2404972587497447 
0 
0 
0 
0 
0.09876424489721024 
0.03278937498228212 
0 
-0.01883367961386406 
0 
0 
0 
0.4302223995937793 
0.2052196934401275 
-0.04482958240091582 
0 
0 
0 
-0.01930761830509683 
0 
0.1250499191453585 
0.05595835766407084 
0 
0.05877747932754963 
0.01658221287025093 
-0.008752091248438938 
0.106963072176805 
0 
0 
0.1424299449906687 
0.01381838830730054 
0 
0.4108197654622387 
0 
-0.1393674578717559 
-0.1486946735006758 
-0.06029930935228117 
-0.1677917215740712 
0 
0.00767708285808724 
-0.0866230203053323 
-0.01472914937142331 
0.01102740423949267 
0.05412232476903058 
0 
-0.04751447903868167 
0 
-0.105195985177559 
-0.1404204791289925 
-0.2078422640473601 
0 
0 
0.04911602709952632 
0.3734179244456909 
-0.01902559941089151 
0 
0.01368766698901707 
-0.0001919197970274481 
0 
0.4050767260923561 
0 
-0.189344882532187 
-1.712135073881197 
0 
-0.002504912236773859 
0.04596746254599536 
-0.07035368452632201 
0.01760183615063462 
0.1060260962544265 
0 
0.0144796373676006 
0.008474950402811147 
0.03892673640172985 
-0.239627388257984 
-0.002804899394210833 
-0.006480404898906529 
-0.03765840408389305 
0 
0.1659555731268572 
0 
-0.07435950225656247 
0 
0 
-0.03614373631678205 
-0.02793889677797845 
0 
-0.000108694106450138 
0.08849098453956544 
0.005479597149056407 
-0.004319353460093889 
0 
-0.02298989604106084 
0.07896905202541175 
-0.03124510809731421 
-0.02746098261791053 
0.01934868892780902 
0 
-0.01011858038777418 
0 
-0.01836320325665973 
0 
0 
0.05465621642721653 
-0.6188767452816122 
-0.06229187143861756 
-0.1268719999827881 
-0.01022250818487997 
-0.02282668780084739 
0.1524455679911798 
0.1545220394928417 
-0.3310789336713183 
0 
0 
0 
0 
0.08828073750420705 
0.1777865326256079 
-0.1151590865298703 
0 
0.04480454675597897 
0.3193095189486084 
0.007971571833520865 
-0.2611758028975485 
-0.3834662522563155 
0.003181737595901975 
-0.04307904410516214 
-0.02694461675212191 
0.1936046147677608 
0.03078617544783843 
0.0119827379594516 
0.01612354371760148 
-6.634351104800774e-05 
-0.028536179580109 
-0.1036303557872717 
-0.01730789426099832 
-0.04775605329849997 
-0.01901458720826614 
0.2547971665774691 
-0.09607757522765854 
0.04939864073130357 
0 
-0.04128263553101528 
-0.08351687508001009 
-0.02145287738044081 
-0.3062768865905069 
0.09232288386740499 
-0.0301232815177847 
0.09686999523380789 
-0.009900171608043793 
0.08415525365799092 
0.216388884319174 
0.1356562836184794 
0 
0 
0.0281650365802494 
-0.03471674790246203 
-0.007699325877032887 
0 
0.02754092363413934 
-0.238083514237786 
-0.3573550884900738 
0 
-0.108486615927395 
0.3472653306563855 
0 
0.01633118669410074 
0.4312112411642808 
0 
0 
-0.102210485478023 
0 
-0.1508083173966595 
-0.001303066024177783 
0 
0 
0 
0.01547856062164689 
-0.08416853436656203 
-0.01549557812063445 
0 
0 
0 
-0.918946947389233 
0.4068816322097411 
0.09732111532700981 
0 
0 
0.1099742095237941 
0 
0.003592166300100601 
-0.0913474250825364 
0 
0 
0 
-0.08047903310294298 
0.1485581373710265 
-0.4456039674878446 
0 
-0.2958309717616476 
0 
0 
-0.01165039036240942 
-0.1146176415701046 
-0.08165301510694739 
0 
0.0201077994572153 
-0.04042088782949358 
-0.05648383028857877 
0.01174732396364326 
0.04223812867022346 
0.130524165608374 
0 
-0.2879600533733013 
0.08568524946859957 
0 
0 
-0.03782641375397195 
-0.04278388004466593 
-0.1134172955126499 
-0.151575864162466 
-0.01826951374815399 
-0.4555476126845568 
0 
0 
0 
0 
-0.05890392635979217 
0 
0 
0.002974082967658862 
0.3355441958594536 
-0.03100945282217316 
0.06306816978211441 
0.1648748451123208 
0.09525746782048999 
0 
0 
0.07732656224463945 
0.1386540239411344 
0 
0 
0.1655790307971038 
0 
0.003767123902867967 
0 
-0.08487117150994614 
-0.04312456351676174 
0.01497878109463652 
0 
0.03816866372058466 
0 
-0.07187163390107759 
-0.03634990760563104 
0.007247458762428025 
0.0516031649184092 
-0.3975903067511993 
0 
0 
0 
-0.1651715159419113 
-0.08571463557528798 
0.1165556454779726 
0 
0 
0.2127695351638053 
0 
0.02704683601435381 
0 
-0.01406919480547352 
0.1314542259063408 
0.02267366257436444 
0.1148974457219064 
-0.1072790826241427 
0.02423377093324445 
0.004383934591407014 
0 
0.9602254065026569 
0.003457992167973821 
-0.09426953500495303 
0 
0 
0.02244665341502433 
0.05663858097902547 
0.06940853322392918 
0.2371579575406591 
0 
-0.3066649836334723 
0 
0.08763660385489359 
0.09868119940082083 
0.1437958548412216 
0.06736132130149362 
-0.2112727591502358 
-0.02625592472407327 
0 
0 
0 
0.02268395195031209 
0 
0 
-0.1950223427195483 
0.03813153008148652 
0 
0.001205249119788554 
0 
0 
-0.03629322921213809 
-0.008456875559030082 
-0.03039587426366359 
-0.004447726629423257 
-0.03112593461523099 
-0.3339610040165477 
-0.02977776953833878 
0 
0 
0 
0 
0.2040627326966644 
-0.2776425765081612 
0 
0 
-0.06896984931318666 
0 
0 
0.02669515864209978 
-0.02101738602050719 
0.01543535214169314 
-0.07170075498587379 
0.04881293842305773 
0.060230786884751 
0.1726069648069584 
-1.298911725141744 
0.06432051644501208 
-0.3589566683723731 
-0.01848911584832358 
0.01109171965530767 
-0.04789429459286414 
0 
-0.6977618120128376 
0.01650991066149587 
0.072554886869412 
0.1022856836630645 
0.1384294806548123 
-0.7537878234998914 
0 
0.01250867633204064 
-0.06772446961900239 
0.02501735266408129 
0.2142462960560326 
-0.02232954900018102 
0.03334686199220479 
0.0301120738393305 
-0.09136006563534869 
0.05780789963733727 
-0.004537764256404381 
0.05590620306976947 
0.367383966045395 
0 
0.01317153783389633 
-0.04472623313489031 
0.118553240452088 
-0.04365663610928024 
0 
-0.001555447824847917 
-0.07537207040853934 
-0.2531228906229242 
-0.01358105827272383 
-0.01192984386830543 
-0.02028945896482468 
0.1116464304717731 
-0.02483172079931186 
0.01319287250190937 
0 
-0.03139484279438661 
-0.01550533798594876 
-0.02777745483394757 
0 
0.1370555408360934 
0.04931681017443233 
-0.07769820761799365 
0.20396121638263 
-0.004560086306546422 
0.02384292815575687 
-0.002882822295053992 
0 
0.008193262128346144 
-0.0219754203267037 
0.02492580086102456 
-0.4480019261995348 
-0.05309609445573721 
-0.02942748653954187 
0.1925664851360491 
-0.145515697924447 
0 
0 
0.08291106435125464 
0.1362551554714639 
0.007516931763731133 
0.01774985070219986 
-0.01298541948513727 
-0.06033921670757778 
-0.08828872676918846 
-0.03675979475096729 
0.03193039758462848 
0.006498649203283097 
-0.03412417879223395 
0 
-0.001151518782164688 
0 
0 
0.0366194514254826 
-0.6057677893694731 
0 
-0.01168899814168546 
0 
0.2348195186332301 
0.6931342891252564 
0 
-0.04452479194831384 
0 
0.1125512645704183 
-0.0534838760471873 
0.01320381306079279 
0 
0.6464547652868219 
0.1382526518091013 
0 
0.06964741715044238 
-0.01452731907804282 
0 
0.002692541698054124 
-0.04553620735121136 
0.07862191846266813 
0 
-0.04380142117184605 
0 
0.09182283013351508 
0.02390242990267959 
-0.1833049622330286 
0.01626353552212158 
-0.009687246206897017 
0.02218894163797994 
0 
0 
0.01114409455682456 
0.02505782137246731 
-0.1383969036058099 
-0.1135773972135989 
0.07269725663608567 
0.1491943973218854 
0.02625981585186526 
0.1116139508032099 
-0.03275925830339871 
-0.04732394072456483 
0 
0 
0.1427900785503778 
0.1241293869505556 
0 
0 
0.01468362415506038 
0 
0.02498507105589047 
-0.1235541241371152 
-0.05874271503431333 
-0.1097213786406286 
-0.04398362755568839 
0.005620083223318915 
-0.4035073764261329 
0.1300273552563182 
-0.3415818949182174 
-0.004029638598260636 
-0.07588937192738966 
0 
-0.0334390626854453 
-0.06759780563736568 
0 
0 
0.2485399444674566 
0 
0.699221665463358 
0 
0 
0 
-0.007605993039016529 
-0.1168859768389899 
0.2057492439927947 
0.02445290755392307 
0 
0 
-0.008669123094586527 
0.03323021703426585 
0.03219837767683601 
0 
0.005139431979393904 
0.02135979853994405 
0.03478969137378954 
0 
-0.003732831928065056 
0 
0.006190652624267507 
0 
-0.01542614511699626 
0 
-0.0196860937917282 
-0.008796624707563483 
-0.02055293081603957 
-0.02502071721653162 
0.1349580942452386 
0.5408113876666963 
0 
0 
0 
0.2213988678939267 
-0.0515233336591752 
0 
0 
-0.01050660192050991 
0.04032927910297582 
0 
-1.084601725019581 
0 
0 
-0.04046599508240424 
-0.01007008213704071 
0 
0 
0.01852476219058611 
0 
0 
0 
0.004765546493666505 
0.004415714117205456 
0 
-0.02432436251379276 
0.15330661929343 
-0.009882333008508692 
0 
-0.0001919197970274481 
0.4363413045817227 
-0.1233711210499974 
0 
0.007971571833520865 
-0.1031473080798661 
-0.1052324118215536 
0 
0.1495446937498557 
-0.02548231213218646 
0 
-0.1079377942307596 
0 
0.08846073975311858 
0 
0.581250867199855 
-0.3705676655523684 
0.01465431965082191 
0 
0 
0 
0.08545130497282297 
-0.002168429244559991 
0.8908314710179944 
-0.0425731731067041 
0 
0.2145163019617746 
0.1502760531653018 
0 
0.3855196582609815 
0.06539554662832651 
0.2598284442208883 
0.02018677361484137 
0 
0 
0 
0.4394330016586587 
0.07470474664889228 
1.082652032699495 
-0.006510930743485565 
-0.1223239170803875 
0 
-0.4222278286893364 
0.03288512906710585 
-0.06616347892142389 
0 
0.03736321536386054 
0 
-0.2258232447466895 
0.0006259448557494179 
0 
-0.1237601719072473 
0 
-0.0199666688810725 
0 
0 
-0.002391319447262496 
0.03195324378937413 
0 
0.06079219369969135 
0.08438485273512489 
0.04235406743384573 
0.01331969550646944 
0.03638179939511128 
0.03142803410883287 
0 
0 
-0.1744517566479972 
-0.003884557511031134 
0.03872403530857767 
-0.009167079827935633 
0.01381819925549363 
0.0443884105753824 
-0.01447013737180111 
-0.1760715932200504 
0 
0 
0 
0.00158908871384345 
0.04925636373033233 
0.01384760210990134 
0 
0 
0.0410848920791534 
0 
0 
0 
-0.02153952205258107 
0.1152932107309981 
0.07785837981454115 
0 
0.110309208785132 
0 
-0.01578510638246497 
0 
0 
0.02981387963053866 
0 
-0.1811127334644481 
0.07618107689017534 
-0.04723538307949903 
0.2319129586182658 
0.06266167595441381 
0.2040305991422851 
0.2956914706923318 
-0.04723538307949903 
-0.04723538307949903 
0 
0.1934097196166916 
-0.06964060551838287 
0.1549903810681175 
0 
0 
0.1550690289795852 
0 
-0.002944950495938514 
0.1022724191391893 
0 
0 
0 
0.04190764876626717 
0 
0 
0 
0.05062733388534756 
0 
0.05809662279344692 
0 
0.05855887669407668 
0 
0 
0 
-0.025691976117739 
0 
0 
-0.05565757565778008 
-0.2973914677801751 
0 
0 
0 
0 
0 
0.00482454438861082 
0 
0 
-0.1015920969324379 
0.04015880164879455 
-0.07958088818937462 
0.02327271181026637 
0 
-0.08917811732531086 
0 
-0.01791075397213928 
0 
0.5222182735441547 
-0.3291190766668183 
-0.364258621213004 
-0.1743883729660837 
0 
0.1386196290148417 
0 
0.06081341911318582 
0.0913967769621494 
0 
-0.04694266860891681 
0.3074795103583484 
0.4271674467098729 
-1.302801993784582 
0.0844714180914698 
-0.005937116738898486 
0.01978208442840172 
0 
0 
-0.3661495243205109 
0 
0.321762403642422 
-0.05138443209815152 
0 
0.09688260101919681 
-0.04759914696258202 
-0.01872785845723002 
-0.008515358351892334 
0 
0 
0.01709637946156124 
0.01599771016683425 
0.3671327999362724 
-0.02841439962546711 
0 
0.01950306242742211 
0 
-0.1186357998443321 
0.1812125057259464 
0.1730569058376667 
-0.06929340420880548 
-0.01631947803632872 
0 
-0.03461659266207136 
-0.3576521293092357 
0.09487342040262217 
-0.1327023447353457 
0 
0.007396547757252657 
-0.04597248455829767 
0.2970894368137269 
0 
-0.08185338882560571 
0 
0.416570077807103 
-0.01333325835058256 
0 
0.08354473827799287 
-0.01630534734011343 
0 
-0.02935969094743168 
-0.1137747334149588 
-0.08592365161485481 
-0.1591906490475313 
-0.009786563649143896 
-0.06867111243498525 
0 
0.06390232282888353 
0 
0 
0.122147936252751 
0 
0.04016331744089795 
-0.0001919197970274481 
0 
0 
-0.05329702856377232 
0.005113175473922016 
0 
0 
-0.01519055374657003 
-0.05355594363203192 
-0.002448894354041631 
0 
0 
0 
0 
0 
0 
0.1324170160637405 
0 
0.03231258147852919 
0 
-0.2120439398545015 
-0.06808620178044036 
0.03417888349075589 
0.06160299659361851 
0 
0 
0.0997686846427645 
0.0009698419399286699 
0.0399516004548754 
0 
0.006498649203283097 
0.0169360774685155 
0.1460407575150054 
0 
0 
-1.012908025275607 
0 
-0.3445264676052151 
-2.307031128747526 
0.01891831816545995 
0 
-0.08979812928298853 
0.002042580799122269 
0 
0.05404001869601738 
0.03086809825900448 
-0.1872213912210983 
0.1089755553866644 
0.2481406369626606 
0.0135329109603476 
0.006070658877824296 
0 
0 
-0.1021680074269606 
0 
0 
0.0409829781077487 
0.166149633697767 
0.5388901610783216 
0 
0.07217226798705613 
0 
-0.1888577080507836 
0.00999132978889357 
0 
0 
-0.535632887676218 
-0.535632887676218 
-0.02453854132502455 
0 
0 
-0.1195540977396615 
-0.09426495285266746 
0.3301265463084984 
0 
0 
0.008515004993528044 
0.02170801737499111 
-0.03007942916355889 
0 
0.00835169045710458 
0.05708349939782759 
0.05222638564351429 
0.004124301453439818 
0.092723786688443 
0.1268302964080586 
0.001151318933081849 
-0.183558269727826 
0.01482925727847196 
-0.001257170203610259 
0.03156882735106931 
-0.02413319195384337 
0.2308435312807773 
-0.09216343894315075 
0 
0 
0 
-0.05139998005188993 
-0.08496491916518462 
0.01510936158402646 
-0.03473632024701345 
-0.03033851035842395 
-0.0460783359147167 
0.3165685588564915 
0 
-0.04004184677215452 
0 
0 
0 
-0.05178810469392429 
0 
-0.05357174215863506 
0.00234575706006556 
0 
0.008925183429764592 
-0.01922085109340872 
0.09088415882925069 
0 
0.05019129829434877 
0.01387311491113641 
-0.1582000740772005 
0.05404443061247932 
0.1407627048184903 
-0.01662954704580004 
-0.03351487721847098 
0.04488420576227471 
0 
0.0785233994515233 
0 
0.04161934473340925 
0.04161934473340925 
0.1649837953013646 
0 
0.2520410158082589 
0 
0.02228256493442303 
0 
0 
0 
0 
0 
0.2345305769756463 
0.1927039990557455 
-0.2996438061012744 
0 
0.04216226970098309 
0.1433260324019963 
-0.01045170475031195 
0 
0 
0 
0.01567006712328206 
0.005931328072541762 
0.2335218449946098 
0 
0 
0 
-0.02478607169927156 
0 
-0.1531645559697083 
-0.3240731069291387 
0.009278014284263884 
0 
0 
0.04893433485476373 
0.1374779523345738 
0 
0 
-0.0001919197970274481 
0 
0 
-0.110885740270347 
0.01318252159086398 
0 
0.02909441320574222 
-0.005230746453126836 
0 
0 
0 
0 
0.1229970893737128 
0 
0 
0.1552138427716702 
0.06703899621696477 
0 
0 
-0.04992402343910544 
0.005713363396981645 
0.02624304819808145 
0.00566540433363244 
-0.0005757593910823441 
0 
0.04397468249205957 
0.0133642827989843 
0 
-1.120712791180016 
0 
0.08378031597385786 
-0.1134686404314243 
0.1267382705602914 
-0.002649210045695786 
0.01045790169568698 
-0.08574443935329951 
0.03482912974408929 
0 
0 
-0.0208608531172575 
0.01642235704323197 
0 
-0.04118995089913412 
-0.005087648786501262 
-0.02149702196199377 
0.01091715982839516 
0.03239018713126143 
0.248429119517262 
-0.002752498218281454 
0 
0 
0 
0 
0.008293002910721374 
0.01111343508097324 
0.02140497080666231 
0 
-0.01867976751796241 
0 
0.004138357404530859 
-0.004848590108191073 
0 
0.01815358355920193 
0.3639837381238493 
-0.09943900704037191 
1.170577393061499 
0 
0.1050071741302182 
-0.01417599641204146 
0.003377269827538144 
0 
-0.07734714590741361 
0 
0.04567872401955718 
0 
0.04036809216146825 
-0.01379708907440699 
-0.04747331053169311 
-0.01176363593027482 
-0.07227591795902789 
0 
-0.01738482535211172 
0 
0 
0 
0 
-0.02491003885403701 
0 
0.4426660832791194 
0.1095038333637872 
0.02054854468794717 
0 
-0.02691628124137069 
-0.02508221189430002 
0.03344059018347396 
0 
0 
0 
-0.01652194943303856 
0.01396839311830015 
-0.02600754498121969 
0.3809436522569545 
0.03281618415072141 
0.03513463585243114 
-0.2156351580047947 
0 
-0.1802941659698442 
-0.09226525574128344 
-0.02114393814725203 
-0.0001919197970274481 
0 
-0.0197760364087872 
0.03516374496846933 
0 
-0.008058863238374191 
0 
-0.001989821157386439 
-0.08276569696235236 
-0.04127606732465628 
-0.003374768192937999 
0.1526014311368145 
0.01718308518204619 
-0.2005158573965508 
0.02398097085560765 
0.009108747670530645 
0.008721487494525379 
-0.7511805159548114 
0.3049806617225135 
0.06131584665724837 
0 
0.07602939448901372 
-0.04652971572801293 
0 
-0.1548307403039016 
0.03000907241139776 
-0.1068775099258737 
0.05281864120575586 
0 
-0.02332357215230878 
-0.071232123139212 
-0.0008320377344264813 
-0.08018708350384124 
0.008489101683412586 
-0.7586803671626383 
-0.001266069146152235 
-0.02573857918259266 
0 
-0.01645689209676862 
0.03631783253794268 
0 
0.08489205338223488 
0 
0.0284361678113803 
0 
0.02555287556970141 
-0.03218886527696473 
0.06933857621318701 
0.05076069353157363 
0.428817446336493 
0 
0 
-0.334342582576129 
-0.4887927754218387 
0.04243020256490358 
0.08813431768635431 
0 
0 
0.1811155908401383 
0 
0.01108635225924358 
-0.01879048315211402 
-0.002391319447262496 
0.0328847775573262 
0.03190418133427624 
-0.1877058106924712 
0 
-0.009828427724598805 
0.201756969134163 
0 
0 
0 
-0.03925914109604403 
0.4336080232832851 
0 
0 
0.2838965689614856 
0 
0 
-0.04979058936694115 
0 
0 
0 
0.04554715459029882 
-0.0296112309173655 
0 
0.0867109395391512 
0.01447861542951741 
0.119438746861361 
0.08636209854805543 
0.01682971454869426 
0 
0 
-0.01365112967805252 
0 
0 
0.02733542244902923 
0 
-0.01179303217469086 
0 
0.6586970241027545 
-0.2642117048784778 
0 
0.1657597001531363 
0.03494062566325751 
0.07984919009865375 
0 
-0.1365278945568786 
0 
0 
0.01503386352746227 
0 
2.21432717146953e-05 
0.2146805416422633 
-0.2310820772540018 
0 
0 
0 
0.01743273092653794 
0 
0 
-0.007632034095618399 
0 
0.03292508786047249 
0 
-0.02202488473654798 
-0.009786563649143896 
-0.01339981097270552 
0 
-0.1514184700042823 
-0.3076792259771387 
0 
-0.1416197333622683 
-0.09923058578504312 
0 
0 
0 
0.009279175533420083 
0 
0.07848165241384182 
0 
0 
-0.2767604471360627 
0 
-0.002649210045695786 
0.258713742955893 
0 
-0.04913125397409814 
0 
0 
0.06095601783115118 
0 
-0.009223869458219651 
0.5756411207818811 
0.1771869699660895 
0.2414713975294027 
0.3983454027767748 
0.02757065608242667 
-0.08898737821295692 
0 
-0.01250560325938777 
0 
0.01622137553811901 
0.4208035007315902 
0 
-0.01557840114781077 
-0.3281989553789695 
0 
0 
0 
0 
0 
0 
0 
0 
0 
-0.001247718436762611 
0 
-0.1094871682857843 
-0.0294302432756111 
0 
0.05667317047038463 
0.03776273317906381 
-0.1103710280014359 
0 
0.08041880649842267 
0 
0 
-0.4280896626234729 
0.4643597244986934 
-0.08572514355192196 
-0.03745050489355436 
-0.3080807400673083 
0 
-0.4207270192806744 
0.07437866305170963 
0 
-0.2564429813135313 
0 
0 
0 
0 
-0.01347831723332475 
0.09124923248459145 
0.2747185773290456 
0 
0.06360754985629449 
-0.09955489760258873 
-0.0002088126465155405 
-0.01897096822158918 
-0.0139426416430526 
0.002690204625632099 
0 
-0.01803048097268597 
0 
-0.1037192041080467 
0 
-0.08274203143196031 
-0.272330262343647 
0 
0 
0.03077043339134707 
-0.04719290471347011 
0 
0.1439090981258726 
0.04642415964548056 
0 
0.01141322908455788 
0.08417452698384244 
0 
0.03863106189875195 
-0.02275148120439491 
0 
-0.0001919197970274481 
-0.01037077853181453 
0 
0 
0 
0 
-0.1161712282371159 
-0.08642301840383533 
0.01796531354524338 
0 
0 
0.06889812343503353 
0.02122304104425168 
-0.1647007985331418 
0.1435582656588478 
0 
0 
0 
0.2163660565880403 
-0.004088234478198947 
-0.07855589847119965 
0 
0 
0 
0.0957056933561094 
0 
0 
0.3965968025862999 
0 
0 
0 
0 
0 
-0.08365237283589608 
-0.1464334200981567 
0 
0 
0 
-0.03583772162792229 
0 
0 
-0.235632987016497 
1.276101338238223 
0.01808607112839339 
0.02385697146693695 
0 
0.03924944674897485 
-0.3794228757163924 
0 
0.01598344429518713 
-0.0001919197970274481 
-0.0003838395940548962 
0 
0.2110796447774096 
0 
0.02761458618424474 
-0.03877507478795 
-0.09476118256608056 
0.02138035433741201 
0.1941811023773548 
0.08617145225351482 
0.02308838213569453 
0 
0 
0 
0 
-0.05419491616647735 
0 
0 
0 
0.03563440547604855 
-0.02428117986886521 
0 
0 
0 
0 
0.05368975428676755 
0 
-0.0423249875812246 
-0.003369579308331186 
0 
0 
0 
0 
0 
0.085275770259649 
0 
0 
0.04702007337221854 
-0.009786563649143896 
-0.01842700151778025 
0 
0.008864765576742768 
0 
-0.0009052646116990613 
-0.04406097242951824 
0.03335224327142652 
0 
0 
-0.1373223033121731 
0 
0.1991590905672841 
-1.477445060424334 
0.1391569169686492 
0 
0 
-0.06833188604682015 
-0.1302448778494787 
-0.004697750948473037 
-0.1114094268189236 
-0.002031836317479685 
0 
0 
-0.01952720382845497 
-0.05981366450239171 
0.03078236314419397 
-0.08920474168984471 
0.1801246717954868 
0.1885375760715435 
0.2436074211927102 
0.01832156768737693 
0 
0 
0 
0 
0 
0 
0.1279529414147108 
0 
-0.02503252769972909 
0.5713871774582128 
0 
-0.347965093914858 
0 
-0.05790961257136885 
0.1055401971192758 
0.04324607467333071 
0.0857478131980754 
0.1280667373494132 
-0.2118913344870243 
-0.2652255975883935 
0 
0 
0 
0 
0.01652530449585811 
-0.02319265599900854 
0 
0.09898469220256699 
-0.0327409674692779 
-0.009728507013233608 
0 
-0.1062925496366222 
0 
0 
-0.2735603794730691 
0 
0.1535846224690986 
0 
-0.01548190845908188 
0 
-0.05531476982312795 
0.3334076587875946 
0 
-0.09626812431072292 
0.02872445308368005 
-0.07227591795902789 
0 
0 
0.03811818241957835 
0.01287988040446873 
-0.01258911566874955 
0 
-0.206457828103669 
-0.03082611973751268 
0 
0.4403630235087939 
0 
0.00633686537061247 
0 
0.04791384152794398 
-0.4723583430016557 
0 
0.05713670011828322 
-0.0001919197970274481 
0 
0 
0 
0 
-0.1436144344659218 
0 
0 
0 
0 
-0.04324074544528315 
0.03422430756611898 
0.03869118865041096 
0 
0 
0.08490051798643487 
-0.02695104172635221 
0 
0 
0 
0 
0.01124693896471301 
0 
0 
0 
0.01108635225924358 
0 
0 
0.07470240635878735 
0.07246916943663141 
0.223704507038279 
-0.0004675619916529003 
-0.01204715633649152 
-0.02834907113613735 
0.01578794560049119 
-0.03005583433113673 
0.01552324378183654 
0.04134911443803834 
0.08672706389745324 
0.08838050952562643 
0.1585631776803629 
0.009459159082729974 
-0.04165781660935866 
0 
0 
0.03765592588427553 
0.06838174968371706 
0.04332862183378915 
0.01122830693308039 
0.01325770859037771 
-0.01152593655985649 
0.03233258070015633 
0 
-0.04465055446360969 
0 
-0.01588414200151604 
-0.02383797260959504 
0 
0 
0 
0 
0.01259468696330111 
0 
0.3353627269795635 
-0.03115854510900483 
-0.03480739874164498 
0 
0.02868022261122328 
0.3464218524518563 
0 
0.02856518829583685 
0.0837791391490197 
-0.09178557995308738 
-0.02661813608730244 
0 
-0.09754669855626159 
-0.0412204550140062 
-0.005937116738898486 
0 
0 
0 
0 
0 
0.1387533453329607 
-0.1543958591066333 
-0.1412839271743712 
0 
-0.08375886804072909 
0.01614126849534708 
0.02956182131102561 
0 
-0.1221884641504023 
-0.01194053674002619 
0.4234192475418946 
0 
0.05439149520497355 
0.03588763756242946 
0 
0.0185537631187454 
-0.008647769991910317 
0 
0 
0 
0 
0.05993984559033345 
0 
0 
-1.070975283252371 
0.02620586894459757 
-0.005937116738898486 
0.03291747135481324 
0 
0 
0 
-0.02464749623139283 
0 
0 
0.03065330018117609 
0.05718662407834172 
0 
-0.474384824321785 
0.007693111223279333 
0 
-0.001772486804494953 
0.09129937929508944 
-0.03759951557395055 
-0.01136142463662814 
-0.01006098665663335 
-0.02658195936296662 
0 
0.05790179191780979 
0 
0.1046221218435866 
-0.1780890553307267 
0.01307409801829778 
0 
0 
-0.008392700810684483 
0.05027464318355921 
0.001960760314499361 
0.01847905823189993 
0 
-0.07392959345902823 
0.01428446536836884 
0.0108682517973956 
0 
-0.002181740954413887 
-0.07052013299149151 
0.004166439533916888 
0 
0.07408695407410829 
0.0115051796932806 
-0.02845709552210512 
-0.05265345371546327 
0 
-0.01085463927111692 
0.04626515345008621 
0.1637940267896775 
0.9234270180105401 
0.1148355399891725 
0 
0.05958002780699578 
-0.0940956236305765 
-0.3575958910308884 
0.02428110038983344 
0.1779287746625864 
-0.008012134011660697 
-0.08262721043909535 
0 
0.02636076538116668 
-0.1574329980663532 
0.004679870982490042 
0 
0 
0 
0.01181378706828909 
0.1647490821492014 
0 
0 
0.06955476141207867 
-0.005937116738898486 
-0.123295416377045 
0 
0 
0.1074518046551456 
-0.108486615927395 
0.248322686071451 
0.01192848573346847 
0 
0.01987929168876936 
0 
0.009290845361323415 
0.06299510077786666 
0 
-0.02736960782039966 
0 
0.0020135399735514 
0 
-0.201312203877761 
0.119139825526625 
-0.09406553220388446 
0 
0 
0 
0.03424284135891962 
0 
0 
0 
0.01897977527560965 
0 
0.02862790416967275 
-0.004682983080161662 
0 
-0.004514327834816883 
0.03643114831250056 
0 
0 
0 
-0.03544491805732707 
-0.1300373649561992 
0.2233353756917081 
0 
0.02042629189940382 
0.004912199920960319 
-0.03185392222458499 
0.06325776202284887 
0.1370369977304071 
0.01832426294805847 
0 
-0.0001919197970274481 
-0.01880639332894586 
0.3098188545955809 
-0.02359463361325091 
0.038374672214358 
0 
0.01267373074122494 
-1.646117360398054 
0.09048990306011814 
-0.3945373088761504 
0.00867391853220824 
0.1541841279616953 
0 
0 
0 
-0.01945701402646722 
0 
0 
-0.01022793740172725 
0 
-0.0072329179391238 
0.09221076454874354 
-0.02701585182792151 
0.04635889617897625 
0.007121754579796188 
0 
0.04592274300868305 
-0.03923316437459144 
-0.1007055253822362 
-0.08699982260668189 
0 
-0.03052652614068664 
0.03861508367526847 
0.513015587385186 
-0.006704795927008279 
0.059714168423641 
-0.09668910296157403 
0.01313950322411764 
0.04327701951981241 
0.06579219467770298 
-0.2066626503034407 
0.0473332957345575 
-0.03408193391280667 
0 
-0.02725260224213057 
0.06784563831577943 
0 
-0.138032219829743 
-0.4831216507072371 
0.01671338638909981 
0.01562980197800876 
0.02171014282567571 
0 
0 
0.03723646360412112 
0.0001275922843432375 
-0.0656659282900504 
0.01681915185731854 
0 
0 
0 
0 
-0.03781775691966505 
0.009456258725622616 
0.04944712040231748 
0 
0 
0.1182780113307646 
0.03688023131145174 
0.05487591731503084 
0.2498558370833865 
0 
-0.01869402369366083 
0.02513545413255924 
0 
-0.001892790590618495 
0.06554297272603568 
0 
0 
0 
0 
0 
0 
-0.0003838395940548962 
0 
0.02948785030953213 
0 
0 
0 
-0.05200352928573163 
0 
0.3827450478203366 
0 
0 
0 
0 
0 
0 
0 
0 
0 
0 
0.04193778582535602 
-0.06671377288033188 
0 
-0.3305875338485442 
-0.02611596606425715 
0.01027472125239148 
0.03571252612546649 
0 
0 
0.09586298039786742 
0 
0 
0 
0 
0 
0 
-0.1689422727577614 
0 
0 
0 
0.03314761434859982 
0.1212317772547992 
0 
0 
0 
0 
0.09109821243873478 
0.02379124738790884 
0 
-0.05848419807206065 
0.2848872363001692 
0 
-0.03452960284727648 
0.1154782331572679 
0.04365617202032041 
0.00493521763011656 
0 
0 
-0.1052372819737173 
0 
0.07775122891975635 
-0.1020244821300283 
0.01790463858312282 
-0.4979851751057448 
0 
-0.09161958276140397 
0 
0.05298413267409183 
0 
0 
0.02090156515343586 
-0.004926783973241088 
0 
0.03357849517119513 
0 
0 
0.04324362656203849 
-0.2089131269878633 
0 
-0.01252252362138276 
-0.009687246206897017 
0 
0 
0 
-0.01466851620944039 
0 
-0.004469545190140818 
0 
0 
0 
0 
0 
0 
0.04393934825888089 
0 
0 
0.3515683670172967 
0 
0 
0 
0 
-0.6015029668502533 
0 
0 
0.145141323901105 
0 
0 
0.008495969003239982 
0 
0 
0 
-0.1237020694675705 
0 
0 
-0.03102007144983977 
-0.005231752923694207 
0 
0 
0 
-0.08046152691441376 
0 
0 
0.02015647804539105 
0 
0 
0 
0 
0.06683808751692033 
0 
0 
-0.06633737433706083 
-0.08820786406800239 
0.007420258650588122 
0.0171767947103604 
-0.1602662263962533 
0 
0 
0 
0 
0.04498460953467284 
0 
0 
-0.03567555639624703 
0.02748653304195708 
0 
0 
0 
0 
0 
0 
0 
0 
0 
0 
0.004124301453439818 
-0.4825033305985821 
0.2114409803710002 
0 
0 
0 
0 
0 
0 
0 
0 
0 
-0.2473570938646674 
-0.01003126165354906 
0 
-0.009786563649143896 
0.006593841657648695 
-0.04156931683758146 
-0.05500372933126547 
0 
0 
0 
0.00771767607084657 
0 
0 
0 
0.005572995230348077 
-0.02017226528345456 
0.02210469079355059 
0 
-0.02487221228508456 
0 
0 
0 
0.07933301698907089 
0 
0 
0 
0 
0 
0.01350967421502893 
0 
-0.006917071806281687 
0.03794462477404078 
0 
0.05552399934181788 
0.02135979853994405 
0 
0 
0 
0 
0 
-0.1072150923763908 
0 
0.01143251730686463 
0.3934492614872093 
0.007685585626403433 
0 
0 
-0.09190451743031389 
0.02374923940513791 
0 
0 
0.08126598373412698 
0 
-0.003369579308331186 
0 
0.007990135601772318 
-0.002386746918512776 
0 
0 
0 
0 
0.01286600237915326 
0.007516931763731133 
0.03557139999485531 
0 
-0.02345661889009606 
-0.01864042209143088 
0 
-0.1335248671238427 
0 
-0.03647949661752651 
-0.07447024237481714 
0 
0 
0 
0 
-0.0339863332615148 
0 
0 
0 
0 
0 
0.04891567664039432 
0.005802763742738301 
0.09169088382024501 
0 
0 
-0.1515599845060625 
0 
0 
0 
0 
0.008489101683412586 
0 
0 
0 
0.07453661347817925 
0 
0 
0 
0 
0 
-0.1342213597343546 
-0.03221853925555732 
0 
0 
0.06367020448855339 
0 
0 
0.2345315440599009 
0 
-0.0458823037309161 
-0.0003838395940548962 
0.1720339948327738 
0.006149420639294667 
0 
0 
0 
0 
0 
0 
0.01153526506409981 
0.02190962718163352 
0 
0 
-0.0539203835942761 
0.2302029172622877 
0 
0 
0 
0.02924089128993796 
0 
0.03267054468927605 
0.04849988676106568 
-0.1501257449610887 
0 
0 
-0.0237572765409903 
-0.03439304501312088 
0 
0 
-0.01919431354232281 
0 
0 
0 
-0.05291776150256257 
0.02830424075919727 
-0.006231665195754769 
0 
-0.0490211847785795 
0 
0 
0 
-0.004485865392032045 
0 
0 
0 
0 
0.009986516650381212 
0 
0 
0 
0.05928131766979048 
0 
0 
0.04412385757971739 
0 
0 
0.02005356766507155 
0 
0.009073112266683352 
-0.0005757593910823441 
0 
0.008650074798124791 
-0.1366087954156361 
0 
0 
-0.01218050992916877 
0.00158908871384345 
0.01685207506088081 
0.0249474524344927 
0 
0.001483514829466303 
0 
-0.01868905875867489 
0 
0.006056143497403144 
0 
0 
0 
0 
-0.05248280736100856 
0 
0 
0 
-0.05803898010589521 
0 
-0.01101738027326224 
0 
0.02061121247902035 
0 
0.04079267880883582 
-0.008810109784737634 
0 
-0.07208314709505241 
0 
0 
-0.02578220393973707 
0.1006942601590223 
0.04586342093304107 
0 
-0.001989821157386439 
0 
-0.02267329182286954 
-0.0245092452321189 
0 
0 
0 
0 
0.3960992603707194 
0 
0 
-0.09473177666125271 
-0.003369579308331186 
0 
0 
0 
0 
-0.006739158616662373 
0 
0 
0 
0 
0 
0 
0 
0 
0 
0 
0.01021430301848427 
0.07137545900469669 
0.01627928816656623 
0 
0 
0 
0.00633686537061247 
-0.2052344116800711 
0 
-0.01205534077205437 
0 
0 
0 
0 
0 
0 
0 
0 
0 
-0.1970702228121135 
-0.02502033842311038 
0.06523110268347714 
0 
-0.02959978123169508 
0 
0 
0 
0 
0 
0 
0 
0.1299378510662377 
0.007516931763731133 
-0.03547298976007337 
-0.03068438755041733 
0 
0 
0.1189538215780447 
0 
0 
0 
0 
0 
0.02590027820423499 
-0.8686793168338274 
0.1151256865729399 
0 
-0.2588780171504437 
0 
-0.03232861307004326 
0 
0 
0 
0 
0 
0.1067900683300288 
0 
-0.01350559000969234 
0.09538996466842063 
0 
0 
-0.01748887680247466 
0.03116750862194454 
0 
-0.009811802499655251 
0 
0 
0 
0 
0 
0 
0 
0 
-0.01572167364688885 
0 
0 
0 
0.1646103134247106 
0.009637809458240679 
0 
0 
0 
0 
0 
0 
0.06727599996247698 
0 
0 
0 
0.1194033814932381 
-0.03909464078153904 
0.008897144741255707 
0.01615469607848486 
0 
0.294381792242399 
0.04139527871735036 
-0.0217987079006329 
0 
0.02842026297567862 
0 
-0.01665391109336499 
0.04022432451771035 
-0.03425884454251219 
-0.004105343660830586 
-0.01444550314439693 
0.01606782932361406 
0 
0 
0.01970072747497953 
0 
0.3281266981848814 
0 
-0.01010873792499356 
0.005311284717280748 
0 
-0.02186190309084309 
0.06708275352841696 
0 
0 
0 
0.163465047860462 
0.02700565031823585 
0.03204511552582944 
0 
0 
0 
-0.05472808072928567 
0.04675806323043481 
0 
0.03592239636726406 
-1.089339377438534 
0 
0 
-0.5644084779218148 
0 
-0.02968558369449243 
-0.0002567897140257553 
0 
0 
-0.03111674066360219 
0 
0 
0 
0.03363028464431039 
0.02897282401979778 
0.02318366234603148 
0 
0 
0 
0 
0 
-0.01512328340975822 
0.007247458762428025 
-0.009900171608043793 
-0.005607308632307686 
0 
-0.002386746918512776 
0.178221697995917 
0 
0 
0 
0 
0 
0 
0 
0 
0 
-0.07182174576773549 
0.01614126849534708 
-0.02186190309084309 
-0.01312796236203663 
0.07531479393872187 
0 
0 
0 
0 
0 
0.2756680444901825 
0 
0 
0 
0.07778132882622815 
0 
0 
0 
0 
0 
0 
0.3013339665671158 
0 
-0.08967033104717655 
0 
0 
0 
0.137913053323619 
0.04863873624477262 
0 
0 
0 
0 
0 
0 
0 
0 
0 
-0.1186612690896526 
-0.3515062342152051 
0 
0 
0 
0 
0 
0 
0 
0 
0 
0 
0 
-0.01553162154971208 
-0.3442406106308006 
0 
0 
0.01306528509320012 
0.1498783190921066 
0 
0 
0 
0 
0 
0.004124301453439818 
0 
0 
-0.02143372801654259 
0 
0 
0 
0 
0.008601760345918535 
-0.5844069114246512 
-0.03553622095262691 
0 
0 
0 
0 
0 
0 
0 
0 
0 
0 
0 
-0.002448894354041631 
0.02851115747438262 
0.07187131373388136 
0 
0 
0 
-0.009089021395860559 
0 
-0.0620340127401255 
0 
0 
0 
-0.02084684093479816 
-0.006739158616662373 
0.009704449436492867 
0 
0 
0 
0.0105389465410427 
-0.01193254420919465 
0 
0 
0 
0 
0 
0 
0 
0 
0 
0 
0 
0 
0 
-0.05993855939189065 
0 
0 
-0.4097591618523787 
0 
0 
0 
0 
0.141671290556212 
0 
0 
0 
0 
0 
0 
0 
0.0457646262854026 
0 
0.1246341229867025 
0 
0 
0.2126764894636823 
0 
0 
0.1062989147391893 
-0.8560804663448968 
-0.01552633438323449 
0 
0 
0.03829989141102903 
0 
0 
0 
0 
0 
0.1603771254766883 
0 
0 
0.1336674184220759 
0 
0 
0 
0 
0 
0 
0 
-0.003369579308331186 
0 
0 
0 
0 
0.06115481421312466 
0 
0 
0 
0 
0 
0 
0 
0 
0 
0 
0 
0.09996273935954214 
0.1122236780446588 
0 
0 
0 
0 
0.02704683601435381 
0 
0 
0 
0 
0 
0 
0.04623347895810054 
0 
0 
0.007605818687828671 
0 
0 
-0.03221853925555732 
0 
0 
0 
0 
0 
-0.1384119525814478 
0 
0 
0 
0.06187549332413712 
0.04758886726247478 
0 
0 
-0.009220358506294518 
0.02637589782692012 
0.01614126849534708 
0 
0 
0 
0 
-0.1069115298257183 
0 
0 
0.03059755778383773 
-0.02738502017557156 
-0.06302266307181695 
0 
0 
0 
0 
0 
0 
0 
0 
0 
0.09809763672046269 
0 
-0.02751968592584983 
0 
0 
0 
0 
-0.09321615672603364 
0 
0 
0 
0 
0.07838463807004956 
0.007516931763731133 
0 
0 
0 
0 
0 
0 
0 
0.9570120400372958 
0 
-0.0451486399893863 
0 
0 
0 
0 
0 
0 
0 
0 
0 
0 
0 
0 
0 
0 
0 
0 
0.03253991349044784 
0 
0 
0 
0 
0 
0 
-0.6458570825534063 
0 
0.04059573555186967 
0 
0 
0 
-0.006615825487210203 
0 
0 
0.0800354858359212 
0 
0.00453091527669047 
0 
-0.1411005555148114 
0 
0 
0 
0 
0 
-0.01574160642407706 
0 
0 
-0.02073369732069331 
0 
0 
0 
0 
-0.1123244228539561 
0 
0 
0 
0 
0 
0 
-2.053112559739442 
0 
0 
0 
0 
-0.005207901380999698 
0 
0 
0 
0 
0 
-0.03835864361961542 
0 
0 
0 
0 
0 
0 
0 
0 
0 
-0.01268398784888119 
0 
0 
0 
0 
0 
0 
-0.0001919197970274481 
0 
0 
0 
0 
0 
0 
0 
0 
0 
0 
0 
0 
0 
0.06439362878047004 
0 
0 
0 
0 
0 
0 
0 
0 
0 
-0.03835864361961542 
0 
0 
0 
0 
0 
0 
0 
0.005332912950250388 
0.02398097085560765 
0 
0 
0 
0 
0 
0 
0 
0 
0 
0 
0 
0 
0 
0 
0 
0 
0 
0 
0 
0 
0 
0 
0 
0 
0 
0 
-0.003369579308331186 
-0.06429721759793225 
0 
-0.08338925848780228 
0 
-0.01271934795433191 
0 
0 
0 
0 
0 
0 
0 
0 
0 
0 
0 
0 
0 
0 
0 
-0.01741578136700928 
0.02936724831012076 
0 
0 
0 
-0.006739158616662373 
0.04839870026926672 
-0.005207901380999698 
0 
0 
0 
0 
0 
0 
0 
0 
0 
0 
0.07121719279188338 
0 
0 
0 
0 
0 
0.3756556784089793 
0 
0 
-0.003369579308331186 
0.004401271020264263 
-0.8312273576042796 
0 
-0.1312252886512267 
0 
0 
0 
0.008250173678963779 
0 
0 
0 
0 
0 
0 
0 
0 
-0.01511581478406801 
0 
-0.006739158616662373 
0 
-0.05955892279001822 
0 
0 
0 
-0.06671377288033188 
-0.002234088726120028 
0 
0 
0 
-0.08104822108996222 
0 
0 
0 
0 
0 
0 
0 
0 
0 
0 
0 
0.02312180056027784 
0 
0 
0 
0 
0 
0 
0 
0 
0 
0 
0 
0 
0 
0 
0 
0 
0 
0 
0 
0 
0 
0 
0 
0.01802662230989643 
0 
0 
0 
0 
0 
0 
0 
-0.02721426865414298 
0 
0 
0 
0 
0 
0 
0.09309764947152625 
0 
-0.001585363772568897 
-0.0001919197970274481 
0 
0 
0 
0 
0 
0 
0 
0 
0 
0 
0 
0 
0 
0 
0 
0 
-0.5533034794534666 
0 
0 
0 
0 
0 
0 
0 
-0.1595013292768585 
0 
0 
0 
0 
0 
0 
0 
0 
0 
0 
0 
0 
-0.02466446214159439 
0 
0.01376264368415082 
-0.01658547297109345 
0 
0 
0 
0 
0.0005934518233198986 
0 
0 
0 
0 
0 
-0.06633120571215616 
0 
0 
0.05773295164390081 
0 
0 
0 
0 
0 
0 
0 
0 
0 
0 
0 
0 
0 
0 
0 
-0.04158058734401505 
0 
0 
0 
0 
0 
-0.007167544325584458 
0 
0 
0.04543640920346684 
0 
-0.003369579308331186 
0 
0 
0 
0.03863436834334414 
0 
0 
0 
0 
0 
0.1383973474332963 
0 
0 
0 
0 
0 
0 
0.01133646736760478 
0 
0 
0 
0 
0 
0 
0.0375610801460694 
0 
0.03791001370420256 
0 
0 
0.09938231518350082 
0 
0 
0.02756736792498264 
0 
0 
0 
0 
-0.005815009851031493 
0 
0 
0 
0 
0 
0 
-0.01306649170632642 
0 
0 
0 
0 
0 
0 
0 
0 
0 
0 
0.4974283887689532 
0 
0.0771784227651794 
-0.001095102864099499 
0 
0 
0 
0 
0 
0 
0 
-0.1482576367817565 
0 
0 
-0.007418154118648275 
0 
-0.0487958344879403 
0.02138631236963606 
0 
0 
0 
0 
0 
0 
0 
0 
0 
0 
0 
0 
0 
-0.001247718436762611 
0 
0 
0 
0.07901362303950096 
0 
0.03824969821742767 
-0.002234088726120028 
0 
-0.009653809152548416 
0 
0 
0 
0 
0 
0 
-0.03919524429080002 
0 
0 
0 
0 
0 
0 
0 
0 
0 
0 
0 
0 
0 
0 
0 
0 
0 
0 
0 
0 
0 
0 
0 
0 
0 
0 
0 
0.05294493375894701 
0 
0 
0 
0 
0 
0 
0 
0 
0 
0 
0 
0 
0.2787729356147499 
-0.09502910616396119 
0 
0 
0 
0 
0 
0 
0 
0 
0 
0 
0 
0 
0 
0 
0.01935302360351832 
0 
0 
0 
0.01404891697718292 
0 
0 
0 
0.04092155479944802 
0 
0 
-0.03654191276165984 
0 
0 
0 
0 
0 
0 
0 
0 
0.03691178029815443 
0 
0 
0 
0 
0 
-0.1808140523779984 
0 
0 
0 
0 
0 
0 
0 
0 
0 
0 
0 
-0.01851658722900068 
0 
0 
0.003178177427686901 
0 
0 
0.0119827379594516 
0 
0 
0 
0 
0 
-0.03440525872791406 
0 
0 
0 
0 
0 
0 
0 
0 
0 
-0.108848952246453 
0.0787952308037935 
0 
0 
0 
0 
0 
0 
0 
0 
0 
0 
0 
0 
0.6285886104137284 
0 
0 
-0.006983570181789687 
0 
0 
0 
0 
0 
0 
0 
0 
0 
0 
0 
0 
0.04052247202183572 
0 
0 
-0.001193373459256388 
0 
0 
0 
0 
0 
0 
0 
0 
-0.03087228651044953 
0 
0 
0 
0 
0 
0 
0 
0 
-0.02066476747363595 
0 
0 
0 
0 
0 
0 
0 
0 
0 
0 
-0.01359923352650534 
0 
0 
0.02191811853834367 
0 
0 
0 
0 
0 
0 
0 
0 
0 
0 
0 
-0.007102970846963531 
0.09469087449169782 
0 
0 
0 
0 
0 
0 
0 
0.02535182947210122 
0 
0 
0 
0 
0 
0 
0 
-0.003369579308331186 
0 
0 
0 
0 
0 
0 
0 
0 
0 
0 
0 
0 
0 
0 
0 
0 
0 
0 
0 
0 
0 
0.1179874462368661 
0 
0 
0 
0 
0 
0 
0 
0 
0 
0 
0 
0 
0 
0 
0 
0 
0 
0 
0 
0 
0 
0 
1.19193400962528 
0 
-0.0001919197970274481 
0 
0 
0 
0 
0 
0 
0 
0 
0 
0 
0 
0 
0 
0 
0 
0 
-0.02293069478238568 
0 
0 
0 
0 
0 
0 
0 
0 
0 
0.005125612316468637 
0 
0 
0.03822599808148577 
0 
0 
0 
0 
0 
0 
0.01823380117026171 
0 
-0.01347831723332475 
0 
0.01913101670869084 
0 
0 
0 
0 
0 
-0.4577806183552867 
0.3081154644248278 
0 
0 
0 
0 
0 
0 
0 
0 
0 
-0.1126255653398729 
0 
-0.01919431354232281 
-0.02771670601256231 
0 
0 
0 
0 
0 
0 
0 
0 
0 
0 
0 
0 
0 
0 
0 
0 
0 
0 
0 
0 
-0.1031190967623235 
0 
0 
0 
0 
0 
0 
0 
0 
0 
0 
0 
0 
0 
0 
0 
0 
0 
0 
0 
0 
0 
0 
0 
0 
0 
0 
0 
0 
-0.05699758034950954 
0 
0 
0 
-0.002448894354041631 
0 
0 
0 
-0.03703446793345758 
0 
0 
0 
0 
0.02421879602008164 
0 
0 
0 
0.2139150495372636 
0 
0 
0 
0 
0 
0 
0 
0 
0 
0 
-0.5947842654407204 
0.04095141605935373 
0 
0 
-0.09767109512949307 
0 
0 
0 
0 
0 
0 
-0.02248323767363558 
0 
0 
0 
0 
0 
0 
0 
0 
0 
0 
0 
0 
0 
0 
0 
0 
0 
0 
0.01027472125239148 
0 
0 
0 
0 
0 
0 
0.09358041329656976 
0 
0 
0 
0 
-0.002448894354041631 
0 
0.01934559432520548 
0 
0 
0.02493584973746994 
0 
0 
0 
0 
0 
0 
0 
0 
0 
0 
0.02312180056027784 
0 
0.01310833594040242 
0 
0 
-0.08749660355139584 
0 
0 
0 
0 
0 
0 
0 
0.009034434737616547 
-0.01137805776326932 
0 
-0.0001919197970274481 
0 
0 
0 
0 
0 
0 
0 
0 
0 
0 
0 
0 
0 
0 
0 
0 
0 
0 
0 
0 
0 
0 
0.03069982517338966 
0 
0 
0 
-0.004926783973241088 
0 
0 
0 
0 
0.01336853780682177 
0 
0 
0 
0.04661198723216934 
0 
0 
0 
0 
0 
0 
0 
0 
0 
0 
0 
0 
0 
0 
0 
0 
0 
0 
0 
0 
0 
0 
0 
0 
0 
0 
0 
0 
0 
0 
0 
0.1262933663566047 
0 
0 
0 
-0.004239782651443969 
0 
0 
0 
0 
0 
0 
0 
0 
0 
0 
0 
0 
0 
0 
0 
0 
0 
0.005933541710210701 
0 
0 
0 
0 
0 
0.09760166165752768 
0 
0 
0 
0 
0 
0 
0 
0.01688975767283944 
0 
0 
-0.02293069478238568 
0 
0 
0 
0 
-0.06966712790211481 
0.03227100769175714 
0 
0 
0 
0.008012748650115871 
0 
0 
0 
0 
-0.008277421914599905 
0.01762465072356539 
0 
0 
0 
0 
0 
0 
0 
0 
0 
0 
0 
0 
0 
0 
0 
0.04931681017443233 
0 
0 
0 
0 
0 
0 
0 
0 
0 
0 
0 
0 
0 
0 
0 
0 
-0.02478901462372873 
0 
0 
0 
0 
0 
0 
0 
0 
0 
0 
0 
0 
0 
0 
0 
0 
0 
-0.0567176476123426 
0 
0 
0 
0 
0 
0 
0 
-0.002234088726120028 
0 
0 
0 
0 
0 
0 
0 
0 
0 
0 
0.007652822801374352 
0 
0 
0 
0 
0 
0 
0 
0 
0 
0 
0 
0 
0 
0 
0 
0 
0 
0 
0 
0.5281629408149718 
0.1021340346826964 
0.01757890513086335 
0 
0 
0.3554985582350372 
0.01849567101966778 
0 
0.2717795465863425 
0 
0.005525000966146149 
0.09754084303680174 
0.25162710316759 
0 
0.08562696516026339 
0 
-0.04503118921273366 
0.009986516650381212 
0 
0 
-0.1076823687119542 
-0.02970346183167004 
0.03939768663410328 
0.03106082134114376 
0.01234974302174962 
0.03011213827006823 
-0.1036975660897641 
-0.02305264425689951 
0 
0 
-0.005126568352291368 
0 
-0.5095390058241807 
-0.2297366186771056 
0 
-0.01034264098736171 
0.02642316904900503 
-0.009937541191042999 
0 
-0.02784774179314052 
-0.04177161268971079 
-0.06650178763161407 
-0.09287080904320681 
-0.1239850508925163 
0.04699210237458042 
0.0587803892093727 
0 
0.09702170815830334 
0 
-0.07412733679799176 
-0.1182263155978868 
0 
0.003541518275410135 
0 
0 
0.04479694577946359 
-0.06703984152269934 
-0.0175594085759503 
0.04770040187316559 
-0.02502373010358193 
-0.02134202501521854 
-0.0134917311607171 
0.06628206894097455 
0 
0 
0 
0 
-0.03426868550142343 
0 
-0.2183273243269367 
-0.098511254507911 
0.06387882624550452 
0 
0.001733291603954592 
0 
0.01024044073681055 
0 
0.04161610111955844 
-0.1359798385670334 
0.07052866263974618 
0 
-0.03973768940019323 
0.008489101683412586 
0 
0.01821557415625028 
-0.0372684537560724 
-0.03157308268665172 
-0.01450769920597986 
0.04152670836282048 
0.09474095398699248 
0 
-0.01266536060455562 
0 
0.00309882422413036 
0 
0 
-0.8426140188490474 
0 
0 
0 
0.1965171426377752 
0 
-0.08579303921348722 
-0.07973690597574701 
0 
-0.1784136605080975 
0 
0 
-0.0149766165023615 
0.2921295271770699 
-0.06090292777382457 
0.02205836696945199 
0.1823113872273124 
0.004216463095799523 
0 
0.365392357078513 
0 
-0.01526244402198307 
0 
0 
0.01877202632170067 
0.05292898350715803 
-0.05354018287721526 
0.001308308232890588 
0 
0 
0 
0 
0 
-0.02460073594430441 
0 
0.009671240711785874 
0.0004742602618088296 
0.007930606556077417 
0 
0 
0 
-0.05027544333604107 
0 
0 
0.03272502524216193 
0 
-0.002234088726120028 
0 
0 
0 
0.004807744347718594 
0.1528669365941252 
0.001018809781240562 
0.10880812142194 
-0.01683946221669852 
0 
0.004740305364365841 
0.2686818032061595 
0.04228005493189176 
0.7533312757046565 
0.04445720916073734 
0 
0.3235383951142602 
0.02952969261137253 
-0.007268605702294278 
0 
0.09201977297946598 
0 
-0.009900171608043793 
0.07992920381584655 
0 
-0.4444025924228697 
0.007516931763731133 
-0.06202061789263808 
0.02222687016194648 
0 
0.04997361522847766 
-0.005937116738898486 
0 
0.1109199849722234 
0 
0 
0 
-0.1578251941509299 
0.02054854468794717 
0.1233819663201065 
-0.3229570087051646 
0 
0.001251889422838002 
0 
0 
0.1584787426846933 
0.02803034475435785 
0 
-0.01615033470883699 
-0.002163038124805259 
0 
0 
0 
0 
-0.04414519378010917 
0.0403039646604508 
0 
0.02054854468794717 
-0.02401544086724038 
0.05228955799217766 
0.05188948858096117 
0 
0 
0.4118246180837414 
0.01658105734081787 
0 
0.02674421004042992 
0 
0 
-0.1581396292235166 
-0.1581396292235166 
0 
0 
-0.0420707063796299 
0.06927010678333927 
0 
0 
0.06043302789551987 
0.004905652725989313 
0 
0.01421808390569015 
0 
0.00452998030514719 
0 
0 
-0.07903534988902147 
-0.1680156037754381 
0 
0 
0.138147646627973 
0 
0 
0 
0 
0 
0 
0 
0 
0 
0 
0.5209569630328083 
-0.150331530485215 
-0.04720261591451178 
0 
-0.1541697203199049 
0 
0 
0.00158908871384345 
-0.126644203015001 
-0.02379531915303622 
0 
-0.1150186078071304 
-0.002234088726120028 
-1.538663046044062 
0 
-0.6870595702232484 
0 
-0.02748449786457753 
0 
-0.1236176533686327 
0.007561409966656104 
0 
0 
0 
-0.05101648959255768 
0.05095857277314564 
0.03036126473071321 
0.04181980520829256 
0 
0.1208546482952013 
0 
0.04109105671689905 
0 
0 
0.1101534192417523 
0.1101534192417523 
0 
0 
-0.0024705964122158 
0 
0.0505385500174397 
0.1003616518835223 
0 
0.09239811385038292 
0 
0 
0 
0 
0 
0 
0 
-0.007440208905799438 
0 
0 
0.06836624896931 
-2.416825285092429 
0 
0.03097294058778232 
0.1292457067811024 
0.01796119818363203 
0.03309939302217039 
0 
-0.02337432875537728 
0 
-0.04484614615740202 
0 
-0.06824086026034858 
0 
0 
0.07354582454603735 
-0.09764627800859074 
0 
0 
0 
0 
-0.48632584806372 
-0.6577070727150384 
-0.07460632928474302 
0 
0.001308308232890588 
0.1648338982975364 
-0.01149675437976542 
0 
0 
0 
-0.06408746462008909 
0.1032901970987056 
-0.02461335607737829 
-0.008517279055079577 
0.03506212432102532 
0.01946420873347013 
0.03667949113390888 
0 
-0.0925077666257848 
0 
0 
0 
0 
0.002786969136619888 
0.08782116853922428 
0.0506669541580426 
0 
0 
0 
-0.02591975510868252 
0.0627376257796762 
0.02510483206224949 
-0.09991113007766929 
-0.05175140074549094 
0.007247458762428025 
0.3369095035273383 
-0.008953847293141715 
0 
0 
0 
0.007305744331881076 
0 
-0.1049433963816192 
0 
0 
0 
0 
-0.005944886371347153 
0 
0.0002753865403952348 
0 
0 
0 
0 
0.03016806662859851 
0 
0 
0 
0.1834903697675133 
0 
0.05522982312258455 
0 
-0.06671377288033188 
0 
0 
0.06266822864084345 
0 
0 
0.06650909739549417 
0.1472622670267501 
0 
-0.02924539531729172 
-0.01335389110149811 
-0.1127779302847295 
0 
0.02170181034703846 
-0.02098995350194083 
-0.004981914462540582 
0.01623066025054906 
0 
0 
0 
-0.02544631383813717 
-0.08512266201404434 
0.01039282041933071 
-0.03298393790925989 
0 
0.06989336737795286 
0 
0 
0 
0 
0.1617586559946636 
0.01476100658739724 
0 
-0.1411583373871698 
0.2267574505001157 
0.03530850827006438 
0 
0 
-0.06950069894053455 
0.007561409966656104 
0 
0.0220673777152948 
-0.001001514455963612 
0.005560670049612853 
0.618366810847098 
0 
0 
0 
0.3224389826219836 
0.4619903602540202 
0 
0 
0 
0 
0 
0 
0.02228256493442303 
0 
0 
0 
0.0003845808367306751 
0 
-0.0003838395940548962 
0.01499882218433548 
0.05799329391830182 
-0.2373075219685439 
0 
-0.01050514671693906 
0 
0 
-0.0350484649876514 
0.0154021183623464 
0 
0 
0 
0 
0 
0 
-0.09841263584450853 
0.02201875463138114 
0 
-0.02323019962504142 
-0.0003838395940548962 
0 
0 
0.228308229147735 
0 
0 
-0.04800035432693225 
0 
-0.005564495289276908 
0 
0 
0 
0 
-0.1327802645417981 
0 
0 
-0.02313752528592465 
-0.7147429688205461 
-0.4886552567480806 
0 
0 
0 
0 
0 
0 
0 
0 
0 
0.06684210636256625 
-0.1427338385902239 
0 
0 
0 
0.1115850460400818 
0 
0 
-0.009973330924916207 
0 
0 
-0.1718674600514186 
0 
0.202028636514428 
-0.02036101101901212 
0 
0 
0 
0 
0 
0 
0.1556084815811854 
0 
0 
0 
0 
0.02066551559494846 
0 
0 
-0.0003838395940548962 
0 
-0.253692697206388 
0 
0 
0.08584285281001326 
0 
0 
0.02129697921906816 
0 
0 
0 
0.0057525898466403 
0.03245595807581712 
0 
0 
0 
0 
0.06745114341935902 
-0.1316423971949927 
0 
0 
0.1206023337204961 
-0.008967717180045432 
0.0057525898466403 
-0.2670781542828222 
0 
0 
0 
-0.09190673541946746 
0 
-2.194562885190113 
0.04136321191052031 
0 
-0.7317527251810299 
0 
0 
-0.02265456973437801 
0 
-0.01888706535427668 
0 
0 
-0.003388820937668449 
0 
0 
0 
0 
0 
0.1306336737507039 
0 
-0.004998477268343369 
0 
0 
0 
-0.008083615939738768 
0 
0.07729206526288684 
0 
-0.09674146496263203 
0.01446067725412498 
0 
0 
-0.005090730075498063 
-0.05920742269199961 
-0.2492366696176032 
0 
-0.01632870404642106 
0 
-0.1305452842900016 
0 
-0.0003838395940548962 
-0.02199212355267311 
0 
0 
-0.01652995694907692 
0.342176015304664 
0 
0 
0.009073112266683352 
0.2255404108067335 
0.4258111407370153 
0 
0.2635146374820801 
-0.02629818705168953 
0 
0 
-0.02466441281071976 
0.06020394583236961 
-0.1840292905407641 
0 
0.02476720595467435 
0 
0.007378670603372009 
0.1169262553288787 
-0.002234088726120028 
0 
-0.1045204978953384 
0.007247458762428025 
-1.022589900075796 
0.1046039958807885 
0 
0 
0 
0 
-0.00435282670403579 
0 
0 
0 
0 
0.1468534501209045 
0.1125994691425039 
0.01656415753769675 
0.08729600798761189 
-0.03725930213901816 
-0.176064715966463 
-0.01248167008888238 
0.01092986588025211 
-0.009594407672711872 
0 
0.015710828626786 
0.1140646066279896 
0 
0 
0.03799566332344202 
0.02977259129958385 
-0.03114520341879155 
0 
0 
0 
0 
0 
0 
0 
0 
-0.03156972748740249 
0 
-0.008810109784737634 
-0.104406042499508 
0 
0.1592041987031255 
-0.001022737470908182 
0 
-0.003563944633504669 
0.1013967850289278 
0.07084994867678432 
0 
0 
0 
0 
0 
-0.006628837145781615 
-0.0131048210742411 
0.00756248715902072 
0 
0.03759070641410681 
0 
0 
0.02996985889653821 
0 
-0.01867614577629052 
0 
0 
0 
-0.001363966561158718 
-0.05377871515803638 
0 
-0.1532665030853899 
0 
0 
-0.4568543256549276 
1.562841730879414 
0 
-0.7685802916435222 
0 
0.1114148834740381 
0.009668511850198713 
0 
-0.00573372143721674 
0 
0 
0 
0.04640213707438157 
0 
0 
0 
0.006844723710153083 
0.07073872335968329 
0 
0 
-0.1069068947382364 
-0.03572513571325657 
0 
0 
0 
0.06544834021462032 
0 
-0.0001856140391685107 
-0.007050800116393915 
0 
0 
0 
0 
0.253532881974308 
0 
0 
-0.03082611973751268 
0 
-0.03472101721708775 
-0.2639805679175036 
0.002616616465781176 
-0.03463378673007839 
0 
-0.06370802829333821 
0 
0 
0 
0.1134200738937759 
0 
-0.1244305050357916 
-0.06987300100121488 
0 
0.008225834238926585 
0.007420258650588122 
0.006789011587202027 
0.03305328127808094 
-0.009821252045934342 
-0.2224775935967574 
-0.01100045458502301 
0 
0 
0 
0.04731405527386325 
-0.02955161074445913 
-0.01983892826087867 
0 
-0.03166409864746916 
0.04312986679367041 
1.613199765250626 
-0.8809702383666942 
0 
0.01702705569067864 
0 
0.001466097912614418 
0 
0.1760090292928323 
-0.004736355749843809 
0 
-0.2093647393403841 
0.03902337206824432 
-0.01843706495711258 
0 
0 
0 
0.008489101683412586 
0.02296137150434152 
-0.2900049458988386 
0 
0.2332011273501725 
0 
0 
-0.01665520487009332 
0 
0.1055452585229607 
0 
0 
0 
0 
-0.1111161505206006 
-0.01251519550792514 
0.1070004944966004 
0 
0 
0 
0 
0 
0.2402663282745252 
-0.002448894354041631 
0.02232911366647481 
-0.005937116738898486 
-0.07303138380002437 
3.137738722088364 
0 
-0.007308073111749818 
0.03511120798133807 
0 
-0.2832888315744705 
0 
0 
0.01259626040158093 
0.1216881073690272 
0 
0 
-0.02118258077325385 
0 
0 
-0.05252666809684419 
-0.0721152312399016 
0 
0 
0 
0 
0.03033225343954443 
0.06152762529973405 
0 
0 
0 
0 
0 
0 
0.194976763828996 
0 
0.005068037409689503 
0 
0 
0 
0 
0 
0 
0 
0 
0 
0 
0 
-0.0001919197970274481 
0 
0 
0.01602255776291472 
0 
0 
0.01403357408893773 
0 
0.04595601987306637 
0.005311284717280748 
0 
0 
0.01679803219466476 
0.0381574959359733 
-0.04496647534727116 
0 
-0.04441747742291857 
0 
0 
0 
0 
0.1585985454536505 
0 
0.5041306407348527 
-0.4520289135178348 
0.03607562061748328 
0 
0.08442904059128775 
0 
-0.2322785823365886 
0.02249424960695407 
-0.01134800534424542 
0 
-0.006739158616662373 
0 
0 
0 
0 
-0.005231752923694207 
0 
0 
-0.04424767723783661 
0 
0.1682156003068459 
0 
0 
0 
0 
0 
-0.3302804490086606 
-0.3302804490086606 
0 
0 
-0.07333530694718131 
0.1017849882502383 
-0.05220794905498975 
0 
0 
0 
-0.0002593257384772887 
-0.01114861295386078 
0 
0.005340127528037775 
-0.1167176273090776 
-0.02682634846906671 
0 
-0.02458898819238346 
0.03171151876026709 
0 
0 
0 
0 
-0.3112065281354572 
0.02498507105589047 
0.09212472804616981 
0 
-0.0001919197970274481 
0.04774239653780574 
0 
0 
-0.04897892137723495 
0 
-5.305364316664702e-05 
0 
0 
0.0150677985177296 
-0.01580937939884965 
0 
0 
-0.06261561770223006 
-0.1504013034495302 
0 
0 
0 
0.08258457573363144 
0.02314834857651456 
0 
0 
0 
0.05958996087132695 
0 
0 
0 
0 
0 
0.03461417296280513 
-0.00600692964805894 
0.07083850713274538 
0 
-0.005598160398425281 
0.2394902812429876 
-0.002355920304237701 
0 
0 
0 
0 
0 
0.1262982396193043 
-0.008521882894723797 
0.01883504220417381 
0 
0.01791437194878545 
0 
0 
0 
0.01373041687661259 
-0.01865854034711677 
0.1320871953066539 
0 
0 
-0.04288162615148454 
0 
0 
0.2635179237950976 
0 
0 
-0.2252064014606014 
0.09713904969306554 
-0.01015148928963613 
0 
0 
0 
0 
0.04832223103084207 
0 
0 
0 
0 
0 
0 
0 
0 
-0.01718645105620639 
0 
0 
-0.4409637499663562 
0.01284572029660012 
0 
0 
0 
0.0965040837039207 
0 
0.1678088479594744 
0 
0 
0 
0 
0 
0 
0 
0 
0.0003154539318015587 
-0.03752717748651596 
0 
0 
0 
-0.07156360011720758 
0 
0.01806206430967222 
0.06405573390841263 
0 
-0.04979278377415656 
0.196632759763698 
0 
0.01108635225924358 
0 
0 
-0.01258911566874955 
0 
-0.06872571256533336 
0 
0 
0 
0.02398097085560765 
0 
0 
0.03764979522432831 
-0.07068100928972748 
0.08162694366647728 
0 
0 
0 
0.0556820840837445 
0 
0 
-0.0235901991872276 
0 
0 
0.04323737531676983 
0.006073047143646768 
0.0456685222056289 
0 
0 
0.2804360750859481 
-0.06824183322124372 
0.0906166244781173 
0 
0.8577989238261714 
0 
0 
0 
-0.02886906393975087 
0.01092986588025211 
-0.04673443992324139 
0.02621293796474184 
0.01235101505329834 
0 
-0.05568315413432817 
0 
0 
-0.05842145957605319 
0 
0 
-0.02479127299707452 
0.1130706721546824 
3.673652231299936 
0.3981192756025522 
0.1029182871484717 
0.08516929221877474 
0.3033792079892946 
0.08677477066065636 
-0.01067872904476394 
0.02816364427968398 
-0.3450754897432184 
0.007068431134305228 
-0.0759682877911534 
0.152876035505181 
0 
0.2281141166151447 
0 
0.05010619701091724 
0 
0 
0 
0.08064543587947821 
0 
0.05518778800289938 
0.1039285161466396 
-0.01342592907205181 
-0.01575893220246193 
0.02734696468514808 
0 
0 
0.2913468111035371 
0 
0 
0.339234087113049 
0 
0.005802763742738301 
0.0628934097289827 
0 
0.08292974090204923 
0 
0 
-0.0294169762848505 
0.01430309714038978 
0.00158908871384345 
-0.148724935663322 
-0.1641201518276663 
-0.1503937573887197 
-0.006953058144780744 
0.004268741583487107 
0 
0 
0 
-0.1004350784749705 
0 
0 
0 
0 
0 
-0.0414829931107781 
0 
0 
0.02398097085560765 
0 
0 
0 
-0.002355920304237701 
0.09118673842017717 
0 
-0.04850502875122002 
0 
-0.01605922608564455 
0.009241911515217799 
0 
0 
-0.004782419719608961 
0 
0.01738740613704422 
0 
0 
0 
0.07948656690429845 
0 
0 
0.05127591638889844 
0 
0.06421634599724936 
0.4619587499053751 
0 
0 
0 
0 
-0.04180502812296643 
-0.0223980575152807 
-0.006930846086997004 
0 
0 
0 
0 
0 
-0.4452661101718643 
0 
0 
0 
0 
0 
0.01219261955462611 
0.05924722035760623 
0.01172019124170379 
-0.02403378888845695 
-0.08990406886123666 
0 
-0.1318773265856161 
0 
-0.01812561060729664 
0 
0.05453263891271519 
0 
0 
0 
0 
0 
0 
0 
0 
0.2751316559262228 
0 
0 
0 
0.06267104495899524 
0 
0 
0 
0 
0 
0 
0 
0 
0 
0 
0 
0 
0 
0 
0 
0 
0 
0 
0 
0 
0 
0 
0 
0 
0 
0 
0 
0 
0 
0 
0 
0 
0 
0 
0 
0 
0 
0 
0 
0 
0 
-0.02578220393973707 
0 
0 
0 
0 
0 
0 
0 
0 
0 
0 
0 
0 
-0.008669123094586527 
0 
0 
0 
0 
0 
0 
0 
0 
0 
0 
0 
0 
0 
0 
0 
0 
0 
0 
0 
0 
0 
0 
0 
-0.06342992091172063 
0 
0 
0 
0 
0 
0 
0 
0 
0 
0 
0 
0 
0 
0 
0 
0 
0 
0 
0 
0 
0 
0.007561409966656104 
0 
0 
0 
0 
0 
0 
0 
0 
0 
0 
0 
0 
0 
0 
0 
0 
0 
0 
0 
-0.01010873792499356 
0 
0 
-0.003369579308331186 
0 
0 
0 
0.06407939561983216 
0 
0 
0 
0 
0 
0 
0 
0 
0 
0 
0 
0 
0 
0 
0 
0.009262381095293055 
0 
0 
0 
0 
0 
0 
0 
0 
0.01169196408460087 
0 
0 
0 
0 
0.1334737829122423 
0 
0 
0 
0 
0 
0 
0 
0 
0 
0 
0 
0 
0 
0 
0 
0 
-0.003369579308331186 
0 
0 
0 
0 
0 
0 
0 
-0.1122767548593566 
0 
0 
0 
0 
0 
0 
0 
0 
0 
0 
0 
0 
0 
0 
0 
0 
0 
0 
0 
0 
0 
0 
0 
0 
0 
0 
0 
0 
0 
-0.0009026419152163013 
0 
-0.03459558152115332 
0 
0 
0 
0 
0 
-0.02441069720994933 
-0.02441069720994933 
0 
0 
0 
0.007861929317428868 
0 
0.03588725729680303 
0 
-0.02329208204561003 
0 
-0.2009239585386088 
0 
0 
0 
0.0252836832645631 
-0.04094839151889527 
0.08824155890026779 
-0.003992090194028655 
0.1334214031783442 
0 
0 
0 
0 
0.04387495183915877 
0 
0 
0.02658378933292769 
0 
0 
0 
-0.02669175054702137 
0 
1.255851749092181 
-0.973630110956156 
0 
0 
0 
-0.03721041803686349 
-0.01136354084884819 
-0.1217553092118173 
0 
0 
-0.002036792994924454 
0.003043415989387978 
0.06946634309000749 
0.1034062589095032 
0.003016503329907701 
0 
0 
0 
0 
0.5511953337447492 
0 
0.02131095528247669 
0.02819683569995928 
0 
0.01469575847024954 
0.01234888149771287 
0 
0 
-0.03826236257485862 
0 
0 
0.1327650922547258 
0 
0 
0 
0 
0 
-0.03473632024701345 
0 
-0.05543341202512461 
-0.0001919197970274481 
-0.006392365355983617 
0 
-0.04419925335426102 
0 
0 
0 
0.2536048595166724 
0 
0 
0.01174732396364326 
0 
0 
0 
0 
0.01179622025471737 
0 
0 
0.3082490910914627 
0 
0 
0.2555026872952459 
0.4382187337008339 
0 
0 
-0.09820503277490839 
0.02164388075836847 
-0.02326398702378005 
0 
0.1408961127078746 
0.007077388251721562 
-0.04778244335063155 
0 
-0.01423278269647602 
-0.03237019213485117 
0.02200870439098256 
-0.04183370954617409 
0.01297195432590737 
-0.09414659123799458 
0 
0 
0.0283980969372328 
0.05929031831749292 
0.1089889291648368 
0.09707274311932307 
0.001308308232890588 
-0.0401777120718619 
0 
0 
-0.03808516638459 
-0.006540581707173282 
0 
0 
-0.02893352688450566 
0.01705837868861897 
0 
0.003875917992393194 
0.007247458762428025 
-0.005602333221690809 
0.01140941545297929 
-0.1912252506488371 
0.0057525898466403 
-5.305364316664702e-05 
-0.05927811066849979 
0 
0 
0 
0 
0.06897710721974282 
0 
0.02167127401761179 
0.009608039844410761 
0.039706899697869 
0 
0 
-0.02409431267298303 
0 
0.05519304709353062 
0 
0 
-0.04856224767314072 
0.03262276634143287 
-0.02145287738044081 
0 
0 
0 
0 
0 
-1.051576406132735 
0 
0 
0.02808580686183591 
0 
0 
0.05264330520888734 
0.01174105138842544 
-0.01036574362217661 
0.02202059413658526 
-0.01149368450941908 
-0.09450569687002423 
-0.004682983080161662 
0.04639965464167685 
0 
0.2670728692976206 
-0.01605267289194385 
0 
1.011063016084452 
0.006498649203283097 
0 
-0.01199628049815575 
0 
-0.07245034926788887 
-0.007418154118648275 
-0.1846920504695404 
0 
0.003016503329907701 
-0.02329208204561003 
-0.4073727621207014 
0.9011537665445599 
-0.02819326050607773 
0.02249387792942601 
0.05407803054896944 
-0.02036101101901212 
0 
0 
0 
0 
0 
0.00158908871384345 
0 
0 
0.01098762178494796 
0 
0 
0 
0.03790325573158328 
0 
-0.1696717301917324 
0.1982207620020651 
0.02979603649441599 
-0.04491241617981347 
0 
0.03067807334478898 
0.4857490202983419 
0 
0 
0.05385533294146546 
0.05242204423832617 
-0.03473792672202366 
0.006455522708626031 
0.01275808073557569 
0 
0 
0.10913149568425 
0 
0 
0 
0 
0.01122830693308039 
0.01922804920005999 
0.04515826443200838 
0.003414532594020261 
0 
0 
0 
0 
0.01967587865387472 
0 
0 
0 
-0.02324134802595974 
0 
0 
0.04163820577523644 
-0.002448894354041631 
0 
-0.02689125523562262 
0 
0 
0 
0.036416451493143 
0 
0.02897377309147814 
-0.05929384588319025 
-0.3943508523937574 
0 
0 
0 
0 
0 
-0.02154588851567778 
0.1993552958528586 
0 
0 
0 
0 
0 
0.03681446056574399 
0 
0 
-0.9674216331466865 
0 
0 
-0.1124645513113342 
0 
-0.005445056114290429 
0 
0.2647661150341361 
0 
0 
0 
0.03769630996509445 
0.003857653007673722 
0 
0 
0.008974010373594353 
0 
0 
0 
-0.01887087803923444 
0.02209518240646285 
-0.03052457690695742 
0.01630779641622818 
-0.02058775442241883 
0 
-0.005231752923694207 
0 
0.08219894806468658 
0 
0 
0 
0 
0 
0.02999473404516349 
0 
0.06517059990296915 
0 
0 
0 
-0.036259145066708 
0 
0 
0 
0 
0 
0 
0 
0 
0 
0 
-0.004848590108191073 
0.3985839588486386 
0 
0 
0 
0 
-0.002447574651097081 
-0.005937116738898486 
0 
-0.002448894354041631 
-0.004897788708083262 
0 
0 
0 
-0.003890492314003213 
0.002690056096285003 
0 
-1.206980700923664 
0.06737770948758634 
0.01609709527789019 
0.3372959091533644 
0 
-0.1258862730634466 
0 
0 
0 
0 
0 
0 
0 
0.02782280094114002 
0 
0 
0 
-0.006341326056135764 
0 
0.01307409801829778 
0.01650868814014304 
0 
-0.01047104662106322 
-0.004316296390550739 
0 
0 
-0.02500605215456721 
0 
0 
-0.03611009799679365 
-2.207548260129248 
0.003857325022236828 
0 
0.06583405060701716 
0 
0 
0 
0.02683816181228147 
-0.03938799729249513 
0 
-0.004811704315600586 
-0.02274985115854064 
0.04324329844668588 
0 
0 
0 
-0.01370441922614375 
0 
0 
0 
0 
-0.007357264883540475 
0 
0 
0 
-0.00770374321666535 
-0.09011940882778866 
0.01702705569067864 
-0.158767216793689 
0.1538618120129657 
0 
0 
0.02126114029110972 
0 
0.06823595872146254 
0 
0 
0 
0 
0.09896663882091376 
-0.5096793690365281 
0 
0.05857759323106529 
0.152701155088688 
0 
0 
-0.01669763058960267 
0 
0 
0 
0.02415446383948349 
0 
0 
0 
0.05607897405333846 
0 
-0.02098422106716939 
-0.01761014373558459 
-0.1507851920850903 
0 
0 
0.4171901089187905 
0 
0 
-0.2579861236821878 
0.0588412800276419 
0 
0 
0 
0 
-0.08034883522532224 
-0.06488171422334671 
0.02562815168530385 
0 
0.5935714943388042 
0.4413868989449262 
-0.003673334837500708 
-0.3213835355747113 
0 
0 
0 
0.02268747310889137 
0.07670232818988881 
0 
0 
0 
-0.08486675579487843 
0 
0.0006131473382052459 
0.1089119897460068 
-0.02394919633801774 
-0.0001919197970274481 
0 
-0.0001919197970274481 
0 
0 
0 
-0.04936494014350779 
0 
-0.003369579308331186 
0 
0 
-0.2121580810831803 
0.02766664213053371 
0 
0.04357301926383215 
-0.04931184576183396 
0 
0.02414325457672542 
0 
0 
0 
-0.6259458682748437 
0 
0 
0.02377765767984036 
0.01659764460593694 
0 
-0.1656833450810768 
-0.05494537195166053 
0.02424052054245168 
0 
-0.02872948240438311 
0 
0 
0 
0 
0 
0.01305022250516632 
0 
0 
0 
0 
0 
0 
0 
-0.03653007942950171 
0 
-0.00574077975216285 
0 
0.01681539030581986 
0 
-0.00447720412022071 
0 
0 
-0.1811389450657364 
0 
0 
0.02185113578152995 
-0.09759583682943819 
-0.03189848803520261 
0.5540726914213604 
0.1100486756311719 
0.1440158127233409 
0 
0 
-0.009720794880147841 
0.04129732947282177 
-0.09323467161404507 
0 
0 
0.002897396946734037 
0 
0 
0 
0 
-0.1077174587467709 
0 
-0.009552779710894041 
0 
-0.8446657795856748 
0 
0 
-0.01456661820678694 
0.01179622025471737 
0 
0 
-0.08933168845445782 
0 
-0.01374957298044686 
-0.02913194227986486 
0 
0 
-0.03384965820926143 
0 
-0.009347011846830415 
0.03997261633724213 
-0.06193185116761898 
0 
0 
-0.02779182706340681 
-0.02417131034414552 
0.005384077196110685 
0.01598364848461709 
0.03930948005377891 
0 
0 
0.008181194120983526 
0.06489061273801566 
0.1792892137405565 
-0.00347384758267393 
0 
0.04999929884868457 
0 
-0.2483099755733147 
-0.008118855744595581 
0.1359897371813253 
0 
-0.001709361469653867 
0 
0 
0 
0.007026201654824409 
0.01950599836519768 
-0.4879142834931171 
0 
-0.04814134176316504 
-0.007418154118648275 
0 
0.01464270482708289 
0 
-0.1138951896043649 
0 
0 
0 
0 
-0.1369973281447677 
-0.28385074377659 
0.02377765767984036 
0 
-0.0003838395940548962 
-0.005885115434475383 
0 
0 
-0.01417163520088024 
-0.03141252655627453 
0 
0 
0 
0 
0 
0 
0 
0 
0.01440532129515943 
0 
-0.1319889639453838 
-0.04040555122940868 
-0.004894944950852941 
0.0008688792236187595 
0 
0.06157553057755246 
0 
0 
0.003416761994495167 
-0.1114181473389648 
-0.007792536348744134 
0.0194662818322577 
0 
0 
0 
0 
0.04708591841096523 
0 
0 
0 
0 
0 
0 
0 
0 
0 
0 
0 
-0.001247718436762611 
0 
0 
0 
0 
0 
0 
0 
0 
0 
0 
0 
0 
-0.0139426416430526 
0.004675619203405144 
0 
0 
0 
0 
0 
0 
0 
0 
0 
0 
0 
0 
-0.02073369732069331 
0 
0 
0 
0 
-0.01862954009675355 
0 
0 
0 
0.068950394290687 
0 
0.007247458762428025 
-0.09036346966874594 
0 
0 
0.05242747668476715 
0 
-0.1072269530423791 
0 
-0.2186936751783777 
0 
0 
0 
0 
0 
0 
0 
0.01560784978876012 
0 
0 
0 
-0.03235167079499324 
0 
0 
0.00767708285808724 
0 
0 
0 
0 
0 
0 
0 
0 
0 
0 
0 
0 
0 
0 
0 
0 
0 
0 
0 
0 
0 
0 
-0.01374991424710117 
0 
0 
0 
-0.02609370988606148 
0 
0 
0 
0 
0 
0 
0 
0.03586254721478002 
0 
0 
0.03777276615961366 
0 
0 
-0.2408168890946174 
0 
0 
0 
0 
0 
0 
0 
0 
0 
0 
0 
0 
0 
0 
0 
0.176790869646739 
0 
0.1029082566529642 
0 
0 
-0.01361029369618347 
0 
0.05242747668476715 
0 
0 
0 
0 
0 
0 
0 
0 
0 
0 
0 
0 
0 
0 
0.003952000728796482 
0 
0 
0 
0 
0 
0 
0 
0 
0 
0 
0 
0.09187162516927823 
0 
0.01599771016683425 
0 
0 
0 
0 
0.004166439533916888 
0 
0.01474144340846063 
0 
0 
0.04206088805032313 
0 
-0.03943887469631491 
0 
0 
-0.01408721316107732 
0 
0.05519304709353062 
0.1436094073494621 
-0.1507158635144917 
0 
0 
-0.01300316086585847 
-0.2891775379768406 
0 
0.249562526761289 
0 
0 
0 
0.01801049124319383 
0.1109515177323141 
0 
-0.374356555477799 
0.02180896142500961 
-0.00517720718323736 
0 
0 
0 
-0.008953847293141715 
-0.03775592110736386 
0 
0 
0 
0 
0 
-0.0001919197970274481 
0 
-0.03493650050060744 
0 
0 
0.005311284717280748 
0 
0 
-0.05712096153020892 
-0.001140586121151043 
0 
0 
0 
0 
0 
0.03306507331385589 
0.002700867084359231 
0 
0 
0 
0 
0 
0.2128775673627231 
0.01376264368415082 
0.01297519531779095 
-0.04127863166069109 
0 
0 
0 
0.0790297854360396 
-0.04414696866953038 
0 
-0.04652916030699199 
0 
0 
0 
0 
0.1101674202140699 
0 
0 
0 
0 
0 
-0.08077243570230554 
0 
0 
-0.03387424043597126 
0 
0 
0 
0 
0 
-0.01485227807439343 
-0.8234174716848338 
0 
0 
0.01791437194878545 
0 
-0.05018332788945365 
-0.02796641428270589 
0 
-0.3783076666573212 
0 
0 
0.2187169540140405 
0.02016630351259073 
0 
0 
0 
0 
0 
0 
0 
0 
0 
-0.02155009569418855 
-0.01348083335198223 
0 
0 
0.0462385535135598 
0 
0 
-0.007712227879320803 
-0.0005757593910823441 
0 
0 
0 
0 
0 
0 
0 
0.008925183429764592 
0 
-0.006739158616662373 
0 
-0.1879448351680935 
0 
0 
0 
0 
0 
-1.105411110572721 
0 
0.02790038408843119 
-0.02729838328315474 
0.007077388251721562 
0 
0 
0 
0 
0 
-0.01946973238236527 
0 
0 
0 
0.02456630289984721 
0.05345902674537707 
0.01387118928515108 
0 
0 
0.2274100076761749 
0.03142450215967574 
0.06727307025159748 
-0.04513669766591376 
0 
-0.1366558678295653 
0 
0.0004981482468211109 
0 
0 
-0.01435729700133679 
0.2906669125069944 
-0.1010045831685944 
0 
0 
-0.03473632024701345 
-0.005231752923694207 
-0.0136148866245699 
0 
0 
0.1237509866482742 
-0.01626526903829956 
0 
-0.01534528348029048 
0 
0 
-0.09192254835634156 
-0.01137805776326932 
-0.01656734901845227 
0 
0 
-0.0142128025613221 
-0.1520833134525456 
-0.02020373242992769 
0 
0 
0 
0 
-0.005372575492249461 
0 
0 
0 
0 
0 
-0.6047449204765648 
0.1292367909047613 
0 
0 
-0.008254870265323504 
0 
0.05400084247843644 
0 
0.2327159590683488 
-0.1496279202101626 
0.004277282529383538 
0.7795772994230448 
0.02414325457672542 
0 
0 
0 
0.007974896542070271 
0.02753014435523569 
0 
-0.009936749790912955 
0 
0 
0 
0 
0 
0 
0 
0.03746429321403751 
-0.01683177708217058 
-0.1699412974605214 
0.4582722147100836 
0 
0 
0 
0 
-0.01736215120918385 
0 
0 
0 
0.04659795803099801 
0 
0 
0.007516931763731133 
0 
0 
-0.04771868418290168 
0.02960920168192351 
0.04500886931715458 
0 
0 
0 
0 
-0.168555518936594 
0 
0 
0.2490246152184199 
-0.07956377694839349 
0 
-0.105568699994156 
0.3697187959785444 
0 
0 
0 
0 
-0.03842251000078208 
0.01997689954088423 
0 
0 
-0.02414089625134551 
0 
0.1523606648211943 
0.4047770521173549 
0.001567210241453303 
0 
0 
0 
0 
0 
0 
-0.06294313653172331 
0 
-0.01284792509342085 
0.05409367202870762 
-0.1306371542009334 
0.02660768662197259 
0 
-0.006229662685879224 
-0.01480279684303067 
0.02258801084198425 
0 
-0.0215967020220284 
0.0403973982307278 
0 
-0.01079985019301939 
0 
0 
0 
0 
-0.04855256828794857 
0 
0.06412932737196238 
0 
0.03899038006943851 
0 
0.0156846028103195 
0 
-0.1308554355528719 
0 
0 
0 
-0.05417228666267604 
-0.08489047534090717 
-0.4388332016335589 
0.007779652036493418 
0 
0 
0 
-0.02074222380220035 
-0.02879155495814176 
0 
0 
-0.01723398130952991 
0 
-0.04117833499431656 
0 
0 
0.03089317751745553 
-0.07700879896466038 
0 
0.4978990470859951 
-0.0001919197970274481 
0.1976885661563847 
0 
0 
0.1443151371933371 
0 
-0.09787958212657762 
0.682684542412849 
0 
0 
0 
0.001308308232890588 
0 
0.02197802425245239 
0 
0 
0 
0 
-0.0169510916778736 
-0.02355778320452402 
0.02856021350217662 
0.01105501916768556 
0 
0.0894239088043422 
-0.01188608969636286 
-0.5029365331761584 
0 
0 
0 
0.3160984512562611 
0 
0 
0 
0.005739480417515293 
0 
0 
0 
0 
0 
0 
0 
0 
0 
0 
0 
0 
0.008897144741255707 
-0.04691323778019212 
0 
0.0284361678113803 
0 
-0.002207292854300448 
-0.09881732670085171 
0 
0 
-0.009522879501614921 
0 
0 
0 
0 
-0.008661718868213847 
0 
-0.01860725999737092 
0 
-0.001580906968260251 
0 
-0.02248323767363558 
0.05271350906977214 
0 
0.009267239285702526 
0 
-0.1053246000538244 
0 
0 
0 
0.1366994797428514 
0.03575836235754398 
0.03300368702011413 
0.007930606556077417 
0 
0 
0 
0 
0 
-0.0594172770312137 
0 
0.0507544429059848 
0 
-0.01193254420919465 
-0.1631804773749467 
0.006172987081613191 
0 
0 
0 
0 
0 
0 
0.1017257030816355 
0 
0 
-0.02385453337240253 
0 
0.3370072104542386 
0 
0.007600673819370892 
-0.0006500500661226478 
0 
0 
-0.005607308632307686 
0 
0 
0 
-0.005231752923694207 
0 
0.05052427861477294 
0.0504712249716063 
0.01900548564710652 
0.03412159296797727 
0 
-0.007398128354600133 
-0.001247718436762611 
0 
0 
0 
0 
0 
0.003842792813201716 
-0.01053060255516205 
0 
0 
-0.01610572653511049 
0 
0 
0 
0.06639206506441828 
0 
-0.003369579308331186 
0.1930334298818248 
0.09499419757873963 
0 
0 
0 
-0.4486632874828325 
-0.51486337558629 
0 
0 
0.0120916220100263 
0.06550712334977052 
0 
0 
-0.0892743031147851 
0.01332846094226962 
-0.2300226286507913 
0.00479180108042512 
0 
0 
0 
0.0057525898466403 
0.1017640181828265 
0.0187506311262713 
0 
0.02127654161990787 
0 
0 
0 
0 
0 
0 
0 
0.01801049124319383 
0 
-0.004998477268343369 
-0.04431754235326436 
0 
0 
0 
0.1339168833495437 
0 
-0.05533959707257191 
0.001627143196252091 
-0.09079412677814412 
-0.05680243836337676 
0.09566834713257777 
0 
0 
0.02104210638223391 
0 
0 
0.03756438665622589 
0 
-0.008210687321661173 
-0.002448894354041631 
0 
0 
0 
0 
0 
0 
0 
0 
0 
0 
0 
0 
0 
-0.0001919197970274481 
0 
0.01619460445966484 
0 
0 
0 
0.07884716070095334 
0.2779741790720081 
0.06550666000225285 
0 
0.02412581172096346 
-0.02443985274422015 
0.0777266045737955 
0 
0 
0 
0 
0 
0 
-0.05251731937842471 
0 
0 
0 
0 
-0.001345966382479172 
-0.01478170108500941 
-0.01764301407522504 
0 
0.01599731802111467 
-0.03723512118740857 
0.08041141908558559 
0 
-0.005090730075498063 
-0.01117134100704565 
0 
0 
0.005812003020346362 
0 
0 
0 
-0.07501659486714075 
0 
0 
0.02005356766507155 
0.01328387613357439 
0 
-0.07893274272886945 
-0.002448894354041631 
0.1017830995436384 
0 
0 
0 
-0.01464117218367911 
0 
0 
0 
0 
0 
0.3832730686608576 
0 
0 
0 
0 
0 
-0.02121295900834984 
0.2610878896988641 
0 
-0.01431372194497217 
0 
-0.008296836833183713 
0.03261426083445213 
0 
0 
0 
0 
0 
-0.1258864469082361 
0.005872087727590799 
0.01692524523518301 
0 
-0.1124645513113342 
0.009034434737616547 
0 
0 
0 
0 
-0.0003838395940548962 
0.009889855422395871 
0 
0 
0.01310293447229879 
-0.005231752923694207 
-0.01519840943559352 
-0.00873264550339826 
0.03014233044319281 
0.05461507038451052 
0 
0.04079842684164358 
0 
0 
0 
-0.0001919197970274481 
0 
-0.118744075919101 
0 
-0.2284961023771216 
0 
0 
0 
-0.006092591729961507 
-0.0315523138653778 
0 
-0.01021691600509202 
0.06572004226911007 
0 
-0.002234088726120028 
0.0671191257532987 
0 
0.05258329406101019 
0 
0 
0.08787869651776177 
0 
0.01658221287025093 
0 
0 
0.06592957945889294 
0 
0.006149420639294667 
0 
0 
0 
0 
0 
0.1116424334843807 
0.279844111657495 
-0.02748739972005401 
0 
0 
-0.01370704380852106 
0 
0 
-0.01716630459158649 
0 
0 
0 
0 
0.01031941721328809 
0.06949314089954335 
0 
0 
0 
-0.01591601675839288 
0.08018289402618184 
0 
-0.1800702841799804 
0 
0 
0.027835373629968 
-0.002448894354041631 
-0.02339153715218504 
0.005512134947986077 
0 
0.005104077372498546 
0.03770838157652939 
0 
-0.02407109372438575 
0.01584056709276187 
-0.01465243581692024 
0 
0 
0 
0 
0 
0.02278101801007055 
0 
0 
0 
0 
0 
-0.003992090194028655 
0 
0 
0 
0 
0 
-0.001797901360358991 
0.1034977502339606 
0 
0 
0 
0 
0 
0 
0 
0 
0 
0 
0 
0 
0 
0 
0 
0 
0 
0 
0 
0 
0 
0 
0 
0 
0 
0 
0 
0 
0 
0 
0 
0 
0 
0 
0 
0 
0 
0 
0 
0 
0 
0 
0 
0.008193262128346144 
0 
0 
0 
0 
0 
0 
0 
0 
0 
0 
0 
0 
0 
0 
-0.02312834517890806 
0 
0 
0 
0 
0 
0 
0 
0 
0 
0 
0 
0 
0 
0 
0 
0 
0 
0 
0 
0 
0 
0.0279232706878287 
0 
0 
0 
0 
0 
0 
0 
0 
0 
0 
0 
0 
0 
0 
0 
0 
0 
0 
0 
0 
0 
0 
0 
0 
0 
0 
0 
0 
0 
0 
0 
0 
0 
0 
0 
0 
0 
-0.1977147045769199 
0 
0 
0 
0 
0 
0 
0 
0 
0 
0 
0 
0 
0 
-0.01524962976993059 
0 
0 
0 
0.008925183429764592 
0 
0 
0 
0 
0 
0 
0 
0 
0 
0 
0 
0 
0 
0 
0 
0 
0 
0 
0 
0 
0 
0 
0 
0 
0 
0 
0 
0 
0 
0 
0 
0 
0 
0 
0 
0 
0 
0 
0 
0 
0 
0 
0 
0 
0 
0 
0 
0 
0 
0 
0 
0 
0 
0 
0 
0 
0 
0 
0 
0 
0 
0 
-0.2567391342933835 
0 
0 
0 
0 
0 
0 
0 
0 
0 
0 
0 
0 
0 
0 
0 
0 
0 
0 
0 
0 
0 
0 
0 
0 
0 
0 
0 
0 
0 
0 
0 
0 
0 
0 
0 
0 
0 
0 
0 
0 
0 
0 
-0.2765974290943272 
0 
0 
0 
0 
0 
0 
0 
0 
0 
0 
0 
0 
0 
0 
0 
0 
0 
0 
0 
0 
0 
0 
0 
0 
0 
0 
0 
0 
0 
0 
0 
0 
0 
0 
0 
0 
0 
0 
0 
0 
0 
0 
0 
0 
0 
0 
0 
0 
0 
0.07628058719988362 
0 
0 
0 
0 
0 
0 
0 
0 
0 
0 
0 
0 
0 
0 
0 
0 
0 
0 
0 
0 
0 
0 
0 
0 
0 
0 
0 
0 
0 
0 
0 
0 
0 
0 
0 
0 
0 
0.08134465559921943 
0 
0 
0 
0 
0 
0 
0 
0 
0 
0 
0 
0 
0 
0 
0 
0 
0 
0 
0 
0 
0 
0 
0 
0 
0 
0 
0 
0 
0 
0 
0 
0 
0 
0 
0 
0 
0 
0 
0 
0 
0 
0 
0 
0 
0 
0 
0 
0 
0 
0 
0 
0.1656629511257233 
0 
0 
0 
0 
0 
0 
0 
0 
0 
0 
0 
0 
0 
0 
0 
0 
0 
0 
0 
0 
0 
0 
0 
0 
0 
0 
0 
0 
0 
0 
0 
0 
0 
0 
0 
0 
0 
0 
0 
0 
0 
0 
0 
0 
0 
0 
0 
0 
0 
0 
0 
0 
0 
0 
0 
0 
0 
0 
0 
0 
0 
0 
0 
0 
0 
0 
0 
-0.03708128487270424 
0 
0 
0 
0 
-0.01525831472532832 
0 
0 
0 
0 
0 
0 
0 
0 
0 
0 
0 
0 
0 
0 
0 
0 
0 
0 
0 
0 
0 
0 
0 
0 
0 
0 
0 
0 
-0.05380042820147585 
0 
0 
0 
0 
0 
0 
0 
0 
0 
0 
0 
0 
0 
0 
0 
-0.1118841013057413 
0 
0 
0 
0 
0 
0 
0 
0 
0 
0 
0 
0 
0 
0 
0 
0 
0 
0 
0 
0 
0 
0 
0 
0 
0 
0 
0 
0 
0 
0 
0 
0 
0 
0 
0 
0 
0 
0 
0 
0 
0 
-0.02310820155110109 
0 
0 
0 
0 
0 
0 
0 
0 
0 
-0.02073369732069331 
0 
0 
0 
0.5201444376162749 
0 
-0.0001919197970274481 
0 
0 
0 
0 
0 
0 
0 
0 
0 
0.008627471360974271 
0 
0 
0 
0 
0 
0 
0 
0 
0 
0 
0 
0 
0 
0 
0 
0 
0 
-0.02504963358370824 
0 
0 
0 
0 
0 
0 
0.001308308232890588 
0 
0 
0 
0 
0 
0 
-0.1967774162942993 
0 
0 
-0.0001919197970274481 
0 
0 
0 
0 
0 
0 
0 
0 
0 
0 
0 
0 
0 
0 
0 
0 
0 
0 
0 
0 
0 
0 
0 
0 
0 
0 
0 
0 
0 
0 
0 
0 
0 
0 
0.004842965333117687 
0 
0 
0 
0 
0 
0 
0 
0 
0 
0 
0 
0 
0 
0 
0 
0 
0 
0 
0 
0 
0 
0 
0 
0 
0 
0 
0 
0 
0 
0 
0 
0 
0 
0 
0 
0 
0 
0 
0 
0 
0 
0 
0 
0 
0 
0 
0 
0 
0 
0 
0 
0 
0 
0 
0 
0 
0 
0 
0 
0 
0 
0 
0 
0 
0.009034434737616547 
0 
0 
0 
0 
0 
0 
0 
0 
0 
0 
0 
0 
0 
0 
0 
0 
0 
0 
0 
0 
0 
0 
0 
0 
0 
0 
0 
0 
0 
0 
0 
0 
0 
0 
0 
-0.6655528053055335 
0 
0 
0 
0 
0 
0 
0 
0 
0 
0 
0 
0 
0 
-0.3034001930335903 
0 
0 
0 
0 
0 
0 
0.004461861929933105 
0 
0 
0 
-0.002386746918512776 
-0.003369579308331186 
0 
0 
0 
0 
0 
0 
0 
-0.002163038124805259 
0 
0 
0 
0 
0 
0 
0 
0 
0 
0 
0 
0 
0 
-0.001585363772568897 
0 
0 
0 
0 
0 
0 
0 
-0.1416565751769065 
0 
0 
0 
0 
0 
0 
0 
0 
0 
0 
0 
0 
0 
0 
0 
0 
0 
0 
0 
-0.04030479363430622 
0 
0 
0 
0 
0 
0 
0 
0 
0 
0 
0 
0 
0 
0 
0 
0 
0 
0.001308308232890588 
0 
0 
0 
0 
0 
0 
0 
0 
0 
0 
0 
0 
0 
0 
0 
0 
0 
0 
0 
-0.01191746044242228 
0 
0 
0 
0 
0 
0 
0 
0 
0 
0 
0 
0 
0 
0 
0 
0 
0 
0.1068985583687416 
0 
0.02491869474330264 
0 
0 
0 
0 
0 
0 
0 
0 
0 
0 
0 
0 
0 
0 
0 
0 
0 
0 
0 
0 
0 
0 
0 
0 
0 
0 
0 
0 
0 
0 
0.005414166603447608 
0 
0 
0 
0 
0 
0 
0 
0 
0 
0 
0 
0 
0 
0 
0 
0 
0 
0 
0 
-0.03378138784484026 
0 
0 
0 
0 
0 
0 
0 
0 
0 
0 
0 
0 
0 
0 
0 
0 
0 
-0.006739158616662373 
0 
0 
0 
0 
0 
0 
-0.01381445002412874 
0 
0.001308308232890588 
0 
0 
0 
0 
0 
0 
0 
0 
0 
0 
0 
0 
0 
0 
0.007971571833520865 
0 
0 
0 
0 
0 
0 
0 
0 
0 
0 
0 
0 
0 
0 
0 
0 
0 
0 
0 
0 
0 
0 
0 
0.03396713709216893 
0 
0 
-0.05718376916767503 
0 
0 
0 
0 
0 
0 
0 
0 
0 
0 
-0.05268917955973131 
0 
0 
0 
0 
0 
0 
0 
0 
0 
0 
0 
0 
0 
0 
0 
0 
0 
0 
0 
0 
0 
0 
0 
0 
0 
0 
0 
0 
0 
0 
0.01153526506409981 
0 
0 
0 
0 
0 
0 
0 
0 
0 
0 
0 
0 
0 
0 
0 
0 
0 
0 
0 
0 
0 
0 
0 
0 
0 
0 
0 
0 
0 
0 
0 
0 
0 
0 
0 
0 
0 
-0.009594407672711872 
0.07485225936432224 
0 
0 
0 
0 
0 
0 
0 
-0.01568326277069151 
0 
0 
0 
0 
0 
0 
0 
0 
0 
0 
0.0400163067292698 
0 
0 
0 
0 
0 
0 
0 
0 
0 
0 
0 
0 
0 
0 
0 
0 
0 
0.1298366078379012 
0 
0 
0 
0 
0.02894057578528463 
0 
0 
0 
0 
0 
0 
0 
0 
0 
0 
0 
0 
0 
0 
0 
0 
0 
0 
0 
-0.01837530447687018 
0 
0 
0 
0.02724333852020502 
0 
0 
0 
0 
0 
0 
0 
0 
0 
0 
0 
0 
0 
0 
0 
0 
0 
0 
0 
0 
0 
0 
0 
0 
0 
0 
0 
0 
0 
0 
0 
0 
0 
0 
0 
0 
0 
0 
0 
0 
0 
0 
0.009183605866904025 
0 
0 
0 
0 
0 
0 
0 
0 
0 
0 
0 
0 
0 
0 
0 
0 
0 
0 
0 
0 
0.1259180527929435 
0 
0 
0 
0 
0 
0 
-0.0673846191717222 
0 
0 
0 
0.6053125133814538 
0 
0 
0 
0 
0 
0 
0 
0 
0 
0 
0.07137545900469669 
0 
0 
0 
0 
0 
0 
0 
0 
0 
0 
0 
0 
0 
0 
0 
0 
0 
0 
0 
0 
0 
0 
0 
0 
0 
0.05276997831633821 
0 
0 
0 
0 
0 
0 
0 
0 
0 
0 
0 
0 
0 
-0.003369579308331186 
0 
0 
0 
0 
0 
0 
0 
0 
0 
0 
-0.05360816723689659 
-0.0008253707945392926 
0 
0.02513861899268309 
-0.01536945052762245 
-0.09820312752532789 
0.0008112755073927035 
0 
0 
0 
0 
0.006617789625876259 
0.0255367040733079 
0 
0 
0 
0 
-0.03473002108357078 
0 
0 
0 
0 
0 
0.01626995674522392 
0 
0.2566046021410968 
-0.009765615879508515 
-2.626395271068252e-05 
0 
0 
0 
0 
0.004113115871138317 
0 
0 
0 
-0.01342592907205181 
0.03868592798954927 
0 
-0.004682983080161662 
0 
0 
0 
0 
0.01246674529591823 
0.02004476315176813 
0 
0 
0 
-0.009300044254001692 
0.06396011061031036 
0.005311284717280748 
0.002958155512065064 
0 
0.1530291103294498 
0 
-0.0281295669023468 
-0.02198739092971008 
0 
0.03723646360412112 
0 
0 
0 
0 
0 
0 
-0.125298706560784 
-0.08075280644160035 
0.266101803507084 
0 
-0.01921721248133156 
0 
0.01779855181328743 
0.07618107689017534 
0 
0.3566410890035888 
0 
0 
-0.3383685828064132 
0 
-0.03349603938214847 
0 
0 
0 
0 
-0.4329059657023825 
0 
-0.04662398207117031 
0 
0 
0 
0 
-0.03497179197783277 
0 
0.02301921687877473 
-0.06368263267707648 
0 
0 
0 
0 
-0.01617200233621898 
0 
-0.1437289565256365 
0.005982641295157677 
0 
0 
0 
0 
0 
0.01482925727847196 
-0.07322176571543568 
0 
0.00806169525421699 
0 
0 
0 
0 
0 
0.01892733842556904 
-0.05965650738785531 
-0.1411053892472085 
0.03794462477404078 
0 
-0.005937116738898486 
0 
0 
0 
0 
0 
-0.004316296390550739 
0 
0.01920946216974634 
-0.03791749412795421 
0 
0 
0 
0.07545239269214923 
0 
0 
0.05825857338087502 
0 
0.05259958201972829 
0 
0 
0.01273032991574188 
0 
0 
0 
0 
0 
0.03814277697790173 
-0.007094696724530216 
0.1435194671022722 
0.1700711988394853 
0.001308308232890588 
0 
0 
0 
-0.1389096919657498 
0 
0 
0 
0 
-0.06978432154699647 
-0.0405523821558543 
0 
0 
0 
0 
-0.1001614075204839 
0 
0 
-0.2211587352015812 
-0.00268628774612473 
0 
0 
0 
0 
0 
0.06305822899572888 
-0.01193254420919465 
0 
0.007247458762428025 
-0.02643415787300434 
-0.04658416409122006 
-0.004894944950852941 
0.0287356160580005 
-0.003439496696779991 
0 
-0.03449251225906196 
0 
0 
-0.003878193481699369 
0 
0.01262547584989639 
0 
0 
-0.08426075472882862 
0.09941615973087366 
-0.04250848391349426 
0.0144796373676006 
0 
0 
-0.004204657870543704 
-0.07667741968302819 
0 
0 
-0.2872329544902348 
0 
0 
0 
-0.02734015374727906 
0 
0.1259882928433075 
0 
0 
0 
-0.03992250582988072 
0 
0.08165766735731365 
0 
0 
0 
0.04026533090600698 
-0.03663942443878694 
0 
0.02260221714596019 
0.01389559929655199 
0.008025096269867865 
-0.02442945711370204 
0.1237280312618066 
-0.03506911326604567 
0 
0 
0.009443477923675839 
0 
0 
0 
0 
0 
0 
0 
0 
0 
0.002618915181750924 
0 
0 
-0.002234088726120028 
0 
-0.01764301407522504 
-0.01764301407522504 
0 
0 
-0.017995736397033 
0 
0 
-0.007167544325584458 
-0.00268628774612473 
0 
0 
0 
0.8496981878916481 
0 
-0.002386746918512776 
-0.01187423347779697 
0 
-0.01858964292892602 
0 
-0.1855669144755326 
0.03444111402665816 
0 
-0.07850974406921923 
0.1313080781108616 
0.3839582709145493 
-0.001178013373492718 
0 
0.01614747844581424 
0 
0 
0 
0 
0 
-0.02794972922086695 
0 
0 
0 
0 
0 
0 
0 
0 
0 
0 
0 
0 
0 
0.02193159850749195 
0 
0 
0 
0 
0.4795021969665909 
0 
0 
0 
0 
0.01897977527560965 
0.05788483080422635 
0 
-0.1004014711638634 
-0.0001919197970274481 
-0.0024705964122158 
0.1860863363213726 
-0.04106876057965316 
0 
0 
0 
0 
0 
-0.0149883658121849 
0 
0 
0 
0 
0 
0.3551727551335079 
0 
0 
0 
0.03467506375813365 
0 
0 
0 
0 
0 
0 
-0.0139426416430526 
0 
-0.01010873792499356 
0.05503553007065918 
0 
0.01124693896471301 
0 
0 
0 
0 
0 
-0.02050287306547632 
0 
0 
0 
0 
-0.01412326547832737 
0 
-0.0001919197970274481 
0 
0 
0.008651606314173516 
0 
0 
-0.0272750739555816 
0 
0 
0 
0 
-0.2113682458427973 
0.2233360158716934 
-0.014664778991187 
0.04010713533014311 
0 
0 
0 
0.01409516133311573 
0.02055458459205767 
-0.03135208656964387 
-0.0001919197970274481 
-0.008001625748865581 
0.1608043586769413 
0.05045615827051288 
0.005812003020346362 
0 
-0.005240015348095772 
0 
0 
0 
0.02042485535174604 
0 
0 
0 
0 
0 
0.05258329406101019 
0.01732969552685788 
0 
0 
0 
0 
0 
0 
0 
0 
0 
0 
0 
0.01988992739559518 
0 
-0.08641158730291665 
0.002739818909826661 
0 
-0.3997857213077924 
0.008450104344330016 
0 
0 
0 
0.5636563515701379 
0 
0.2635240907486452 
0 
0 
-0.1394077580362206 
0.01422517838225476 
0 
0.05281642673677115 
0 
0 
0 
0.004566160366047154 
0.06877444786670453 
0 
0.05079102926167673 
-0.0001518993135888251 
0.01631537110331304 
0 
-0.01796441783243637 
0 
0 
0.03690915248425368 
0 
0 
0.08314648383340395 
0 
0 
0 
0 
0 
-0.006057865637258473 
0 
0.03465584495920167 
0.0001610530566627143 
-0.1447294525423505 
-0.07635817441875217 
-0.09652631545417352 
0 
0 
0 
0 
0 
0 
0.01381381706922882 
0 
0 
0 
0 
0 
0 
0.01122830693308039 
0 
0 
0 
0 
0 
0 
0 
-0.1373984480488682 
0 
0 
0.04809941515755594 
0 
0 
0.03020192723703042 
0.03335224327142652 
0 
-0.02659590656017678 
0.2251606395653025 
-0.0322161522424627 
0 
0 
-0.02555536565284272 
0.1049427082325318 
-0.005369126980264809 
0.01646354815880771 
-0.0668786383541019 
0 
0 
0 
-0.1533803773218551 
0.1503554840521061 
0 
0 
0 
0.1305651724011983 
0.02905651297187248 
0 
0.1287122471525017 
0 
0 
0 
0 
0 
0 
0 
0 
0 
0 
0 
0.02384869988202493 
-0.0001919197970274481 
0.09376328055078663 
0.06857650761124447 
0 
0 
0 
0 
0 
0 
-0.03864214580546785 
0 
-0.02560867501498298 
0 
0 
0 
0 
-0.01606983256113172 
0 
-0.001638417415735544 
0 
0.9840282328385301 
0 
0 
-0.0006031400118311786 
-0.06610292716942129 
0.009034434737616547 
0.009083313868350691 
-0.003369579308331186 
-0.115154064391111 
0 
0 
0.3078560470606174 
0 
0 
0 
0 
0 
-0.008637474807001708 
0 
0 
0 
0.620050914542904 
0.02454358236295057 
-0.02608971171443734 
-0.0001919197970274481 
0 
0.05449229748187394 
-0.5060216670468666 
-0.005607308632307686 
0 
0 
0 
-0.02988843174775636 
0.03670546132913764 
0 
-0.0536503359054829 
-0.05120144155144125 
0.009262381095293055 
0 
0 
0 
0 
0 
0.1512218642335584 
-0.01299499340206289 
-0.01290180069283125 
0.05343919787760933 
0 
0 
-0.006810377969840844 
-0.02968558369449243 
0 
0 
0 
0 
0 
0.01748655725777267 
0 
0.06013679026435245 
0 
0 
0.03084102981129925 
0.01421808390569015 
-0.0003838395940548962 
0.01558137017203761 
0.03245794634350142 
-0.007863564807563983 
-0.04061587978270486 
-0.04061587978270486 
-0.944438491718934 
0 
-0.0001919197970274481 
0 
0 
-0.07786272557587552 
0 
0 
0 
0 
0 
0 
-0.02777745483394757 
0 
-0.02367150570269047 
-0.0005757593910823441 
0 
0 
0 
0 
0 
0 
0.008248602906879636 
0 
0 
0.02899020507925689 
0 
0 
0 
0 
0 
0 
0 
0 
0 
0 
0 
0 
0 
0 
0 
0 
0 
0 
0 
0 
-0.007167544325584458 
0 
0 
0 
0 
0 
0 
0 
0 
0 
0 
0 
0.02653163871442757 
0 
0 
0 
0 
0 
0 
0 
0 
0 
0 
0 
0 
0 
0 
0 
0 
0 
0 
0 
0 
0 
0 
0.0479619417112153 
0 
0 
0 
0 
0 
0 
0 
0 
0 
0 
0 
0 
0 
0 
0 
0 
0 
0 
0 
0 
0.02596448120307076 
0 
0 
0 
-0.0123460295507596 
0 
0 
0 
0 
0 
0.04102073062096646 
0 
0 
0 
-0.007167544325584458 
0 
0 
0 
0 
0 
0 
-0.1335486635404354 
0 
0.1474199044514836 
0 
-0.02772627565758783 
0 
0 
0 
0 
0 
0 
0.006232521666833289 
0 
-0.03831257174892306 
0 
0 
0 
-0.03835864361961542 
0 
0 
0 
0 
0.007388248637038252 
0 
0 
0 
0 
0 
0 
0 
0 
0 
0 
0 
0 
0 
0 
-0.1641511978201406 
0 
0 
0 
0.02588132868799288 
0 
0 
0 
0 
0 
0 
0 
0 
0 
0 
-0.0001919197970274481 
0.00771767607084657 
0 
0 
0 
-0.02503252769972909 
0 
-0.006739158616662373 
0.01180138431152705 
0 
-0.8074795576001398 
0 
0 
0 
0 
0 
0 
0 
0 
0 
0.01762465072356539 
0 
0 
0 
0 
0 
0 
0 
-0.02293069478238568 
0 
0 
0 
0 
0 
-0.03876640871850513 
0 
0 
0 
0 
0 
0 
0 
0 
0 
0 
0 
0 
0 
0 
0 
0 
0 
0 
0 
0 
0 
0.04258680856146776 
0 
0 
0 
0 
0 
0 
0 
0 
0 
-1.307245050569337 
0 
0 
0 
0 
0 
0 
0 
0 
0 
0.36246953223378 
0 
0 
0 
0 
0.01934559432520548 
0 
0.01698810358015193 
0 
0 
0 
0 
0 
0 
0 
0 
0 
0 
0 
0 
-0.0003838395940548962 
-0.006739158616662373 
-0.07483853941847787 
0 
0 
0 
0 
0 
0 
0.01321825615773398 
-0.07511765158558903 
-0.008843290197227866 
0 
0 
0 
0 
0 
0 
0 
0 
0 
0 
0 
0 
0 
0 
0 
0 
0 
0 
0 
0 
0 
0 
-0.007369334442599487 
0 
0 
0.009417521102086905 
0 
0 
0 
0 
0 
-0.02428651602814563 
0 
0 
0 
0 
0 
0 
0 
-0.01776813003649095 
0 
0 
-0.03591023436892539 
0 
0 
0 
-0.05818653859658181 
0 
0 
0 
0 
0 
0.01618398025782044 
0 
0 
0 
0 
0 
0 
0 
-0.02406554881235313 
0 
0 
0 
-0.02389503418545391 
0 
0 
0 
0 
0 
0 
0 
0 
0 
0 
0 
0 
0 
0 
0 
0 
0 
0 
0 
0 
0 
0 
0 
0 
0 
0 
0 
0 
0 
0 
0 
-0.01391533058032456 
0 
0.01334089754697004 
0 
0 
0 
0 
0 
0 
0.00771767607084657 
0 
0 
0 
0 
0 
0 
0 
-0.6833271329016909 
0 
0 
0 
-0.00517720718323736 
0 
0 
0.0661323072324157 
0 
0 
0 
0 
0 
0 
0 
0 
0 
0 
0 
0 
0.1030288656751149 
0 
0 
-0.01485227807439343 
0 
0 
0 
0 
0 
0 
0 
0 
-0.2199063826838271 
0 
0 
0.01310293447229879 
0 
0 
0 
0 
0 
0 
0 
0 
0 
-0.01390670294224683 
0 
0 
0 
0 
0 
0.2017118720676706 
0 
0 
0 
0 
0 
0 
0 
0 
0 
0 
-0.03651887366291994 
0.07797669977486835 
0 
0 
0 
0 
0 
0 
0 
0 
0 
0 
0 
-0.02942973596305868 
0 
0.0279453420114425 
0 
0 
0 
0 
0.01516499581771853 
0 
0 
0 
-0.002448894354041631 
-0.02275611552653865 
0 
0 
0 
0 
0 
0 
0 
0 
0 
0 
1.897969718200807 
0 
0 
0 
0 
0 
-0.141781531889779 
0 
0 
0 
0 
0 
0.2377637565535355 
-0.0001919197970274481 
0 
0 
0 
0 
0 
0 
0 
0 
0 
0 
0 
0 
0 
-0.006692058142031001 
0 
0 
0 
0 
-0.01753187898752077 
0 
0 
0 
-0.0123322310707972 
0.4682069135624317 
0 
0 
0 
0 
0 
0 
0 
0 
-0.002234088726120028 
0 
0 
0 
0 
0 
0 
0 
0.2431106262420787 
0 
-0.1005433661353913 
0 
0 
-0.05273824256298934 
0.03300591441167256 
0 
0 
0 
0 
0 
0 
0 
0 
0 
0.2362313088903882 
0 
0 
0.02256691154616442 
0 
-0.01350559000969234 
0 
0.05735033190087608 
0 
0.2267218402283806 
0 
-0.0001919197970274481 
0.08079198143920967 
0 
0 
0 
0 
0 
0 
0 
0.02605974779981785 
0 
0 
-0.007958087694123766 
0 
-0.1079172361469036 
0 
-0.01864987241361931 
0 
0.03896319343521132 
0 
0.02190962718163352 
0 
0 
-0.09332227419256113 
0 
-0.01557952700076131 
0 
0 
0 
0 
0 
0 
0 
0.1374779523345738 
0 
0 
-0.061563275468252 
0 
0 
0 
0 
0 
-0.1978298851263514 
-0.1978298851263514 
-0.1978298851263514 
0 
0.03596908433353959 
0.136052591183554 
0 
-0.003418495339505922 
0 
0 
0 
-0.09861341140334144 
0 
-0.01876148059630634 
0.06047350042965662 
0 
0 
0.005836567013804649 
0 
-0.01485227807439343 
0 
0 
0 
0 
0 
0 
0 
0 
0 
0.0788519662472663 
0.06550712334977052 
0 
-0.1900534909525531 
0 
0 
0 
0 
0 
0.01108635225924358 
0 
0 
0 
0 
0 
0 
0 
0 
0 
0 
-0.08213835814267399 
0 
0.07228262168981633 
0.003016503329907701 
0 
0 
-0.0005757593910823441 
0.05254601950132894 
0.01387311491113641 
0.1864854699704737 
0 
0 
0 
0 
0 
0 
0 
0 
0 
0 
0 
0 
-0.01031778848800594 
-0.04449368910647846 
0 
-0.006103699789175032 
-0.0045549170643739 
0.04751626961300482 
0.04845613673999878 
0.08060643418417553 
-0.004446203651891744 
0.04375056002404479 
-0.02985348870191735 
0 
-0.04162633228288426 
-0.0001919197970274481 
0 
-0.03308699167736062 
-0.07890706412090114 
0 
-0.03154809245986693 
0.3529694535737424 
-0.005231752923694207 
0.1094182600489612 
-0.02516084097902681 
0 
0.3518793384853022 
-0.0290903249051824 
0 
0 
-0.0290903249051824 
-0.0290903249051824 
-0.0485783079738683 
0.05392618995932361 
0 
