solver_type L2R_L2LOSS_SVC_DUAL
nr_class 2
label 1 -1
nr_feature 38525
bias -1
platt's -17.06710782304009 -4.436189983100057
w
0 
-0.03610573187368582 
-0.03823472709162174 
-0.1219352191219556 
-0.001506137777860102 
0.7288382695794945 
-3.811519329615047 
-1.003131114138409 
-0.1760584994290035 
0 
-0.005165303858699124 
-0.02532220878381891 
-0.004623252505854105 
-0.005555483544533955 
0.03465045560050355 
0.3133114820185199 
-0.09562864860191159 
0.02844681272468799 
0 
-0.06410070025862216 
-0.08476720705067385 
-0.0193435483466068 
-0.05219792347033254 
-0.9337955559482335 
-0.3201043525739369 
0.1690209527396312 
-0.7309576466132911 
0 
-0.01916582904606262 
0.006521300156596696 
-0.007052455284999011 
-0.2760496283472664 
0.01330681774259919 
-0.3820682233247363 
-0.6920595284067964 
-0.2834295147207671 
-0.09967903070700215 
-0.4919425895513955 
-0.4078043401699508 
-0.4066506565571723 
-0.2239772130588471 
-0.114590951484434 
0.01969220011979809 
0.01680063834133778 
-0.3433060885758862 
-1.308014730362844 
-0.1337755429864163 
-0.4466878919672981 
-0.2320455461452713 
0.03428084336205302 
-0.3133224427504744 
-0.1152085517725658 
-0.3740139376707499 
-0.01973144393772886 
-0.03333361634022777 
-0.1818569298478246 
-0.6748350776914688 
-0.1158325927897729 
-0.1928035508587379 
-0.03701224280204365 
-0.04975914292664373 
0 
0.09454321023054055 
-0.3300344669622912 
-0.286588896688239 
0 
0.173690654706392 
-0.01013458270183376 
0 
-0.002432796826292693 
-0.1203145631276761 
-0.2083656735019709 
-0.002410836929417504 
-0.1951025431938248 
-0.2467832611348119 
-0.6189006308039934 
-0.6448297440485689 
0.03857761302507124 
-0.316137414269646 
-0.1400699156146971 
-1.343272033210775 
-0.0658525863737322 
-0.4255583463763285 
-0.1564890015519353 
-0.1809640929880331 
-0.1485445817432436 
-0.008018261313327774 
0.007432828980364872 
0.005904092778125717 
-0.8478264192635014 
-0.00277259068469896 
0.02293375779877816 
-0.3800400261139941 
-0.02302795278487604 
-0.1703297466133886 
-0.3761458997123387 
0.2333366857387254 
-0.01095315881635006 
0 
-0.0227924249390237 
0.03851846346635263 
-0.2328789290214795 
-0.1807988370709599 
0 
0.2921300074587583 
-0.3094027737249804 
0 
0 
-0.2184787296002881 
-0.6572767267218448 
0.05124928114932744 
0.01675258667193306 
-0.1830418423115582 
0 
0.0601302871341854 
0 
0 
-0.5285393132756486 
-0.2213534122066397 
-0.3343953715425279 
0 
-2.660246701305368 
-0.06437773325382554 
0 
0 
-0.4934325376402082 
-0.03971513231139352 
0.2453992425081213 
-0.001721767952899708 
-3.611623778449114 
-0.3728347738978908 
0.03782991936099741 
0.1904862139790879 
-0.08605591870851627 
-1.109940187377515 
-0.001403381165431983 
-0.700391836369833 
-1.142427745746542 
-0.1726046745134553 
-0.01301289217212745 
-0.3633682270190597 
0 
-0.04771534902966657 
-0.2236015199689029 
-0.001548895192972472 
-0.1340371248311291 
0 
0.1044623810679845 
-0.1101700466967351 
-0.08139377664753382 
-1.924772523128529 
-0.5178649366770544 
0 
0 
1.052189476310243 
0 
-0.2262122377299652 
-0.04488220054883556 
0.1056766427011144 
-0.4205483519191286 
-0.314353662001917 
-0.2033420532420447 
0 
-0.01818167130977032 
-0.9351521820170737 
0 
0 
-0.1266715750885152 
-0.008088352109659915 
0 
0.2607858985298928 
-0.002565736765013179 
0.02464855841875304 
0.0526544478319651 
0.06187283310711576 
-0.2383147383530651 
-0.3607231971779304 
0.05120747598656804 
-0.0008608839764498539 
-0.07723920429851928 
-0.1169539544958918 
-0.199355206022885 
0 
0 
-0.009508773944091749 
-0.1567935280593876 
-0.6724401440886422 
-0.4543472064840179 
-0.02851273546174148 
0 
0 
0 
0.02265645110102583 
-0.3923174371982149 
-0.5282068908367766 
-0.2460776326719545 
-0.02149641179052132 
-0.1931171336739536 
0 
0 
-0.1749678182252418 
0.005460370559704655 
-0.01073860244577216 
0.02964151192853438 
-0.109857317554313 
-0.008274096692168749 
0.08067660671067144 
-0.08896091299815249 
0.1255872002260849 
-0.000203613632518104 
0 
-0.006454163427265942 
-0.0115663185951654 
-0.0003887968622067314 
-0.1664203817540824 
-0.2160544835807814 
-1.175495191035075 
-0.3943210949083824 
0 
-0.06272615557341342 
-0.1685942038520729 
0.07658318868843475 
-0.099537245213885 
-0.1077047573752172 
-0.001039305142321949 
-0.04587499515016252 
-0.006928479548792817 
0 
-0.6011876353973032 
0.08165060149995344 
-0.3401160879469644 
-0.3872133705489005 
-0.8857844450772546 
-1.424361595098803 
-0.03233597791126838 
-0.1292207266856411 
-0.527070252209567 
-0.1477913895026943 
-0.1759061245613129 
0 
-0.009908312902158467 
0 
-0.2153182932662229 
-0.2181449052232541 
0 
-0.04146769729812617 
-0.03905659151807201 
0.03451215044251377 
-0.1279428022897426 
-0.6915314726510853 
0.003873930019508212 
-0.0008608839764498539 
-0.02161300506328425 
-0.1392932970494842 
-0.1997292420746231 
-0.4017755659746686 
-0.01390111715530623 
0 
-0.3518461061200014 
-0.07660712606799301 
-0.322903189546607 
0.01059895180088562 
0 
-0.09662270790922056 
0 
-0.8651138540956741 
-0.02172123229441022 
0 
0 
0.008485549977351676 
0 
0 
-0.08533749028026262 
0.02385940719786074 
-0.1909119806814831 
-0.5967531420711082 
-0.07492554585068582 
-0.4958370644386495 
-0.07496128192890952 
0 
-0.06962860145742082 
-0.7018349712557692 
0.06988517219215633 
-0.2874955489054742 
0 
0 
0 
-0.1032901618064889 
0 
0 
-0.951728915873171 
0.08080559067441728 
0.144609258239262 
-0.114636620134485 
0 
0.1260538703323332 
-0.0009886770744906295 
-0.4122859363227949 
0.2151129742033233 
-0.5167648283521397 
-0.4609333871215903 
-0.277794290738491 
-0.05840785093028462 
-0.05493483156348276 
-0.2981586519993514 
-0.01220098878567566 
-0.1467131342501098 
-0.01257151066602815 
0 
-0.3270242947916077 
-0.3490666553019134 
-0.0009029491599817212 
-1.339385804643738 
-0.006131401373770981 
-0.1494400204491598 
0.1780003638947627 
0.7509608047020031 
-0.1116798803405412 
-0.1674632454071642 
-0.288520810370313 
0 
-0.5160658097518687 
0 
0 
0 
0 
0.5696032678387783 
0 
-0.09656179377724186 
-0.02483369393696616 
-0.5062241932791866 
-0.0486819774928991 
-0.2755092170754039 
-0.001058983048576823 
-0.06929892998978442 
-0.07496737621496467 
-0.01149528033849752 
-0.04444871700057292 
-0.2742512114671104 
0 
-0.005154101835772531 
0 
-0.05270858156510864 
-0.006883102557454616 
-0.03994269992134629 
-0.4937245474886282 
-0.1305059481449955 
-0.01416480213515841 
0.09610458690178537 
-0.3644122117450048 
0 
-0.1786417098248222 
-0.3702868741901899 
-0.1479390848565763 
0 
-1.331766763893699 
-0.008050642341688022 
-0.7438510793441176 
0.2072489024316791 
-0.004071203702539133 
0.02353476379871971 
-0.07111439538168213 
0 
-0.3917270183911158 
-0.08336544673082617 
0 
-0.007235467991328896 
-0.01428576745974246 
-0.7390027022337059 
-0.07489296743238485 
-0.001410783920193544 
-0.1080667135143724 
-0.2792979347145563 
-0.2862425857223191 
0 
0.3253231226064749 
-0.07892347635810401 
0.07006113082702585 
-0.04704134133838718 
-0.4180140420703694 
-0.09806928360432322 
-0.585577253672361 
0 
-0.2218171329252998 
-0.009975682938390044 
-0.8194365814943823 
0 
0 
-0.4220492671959343 
0 
-0.830218566492831 
-0.5605240380567155 
-0.3179749343865781 
0 
0.119311136499398 
0.1626794111496376 
-0.00640644663553592 
0 
0 
-0.03039511373933698 
-0.4287312704253795 
-3.888928827777113 
-0.1271717557921195 
0.09692002079055888 
0 
0 
-0.001713308708276866 
-0.432868272440354 
-0.07305294768925624 
-1.273774260190428 
-0.008747661849166215 
-0.4199293433550018 
-0.5028590351896716 
-0.1720608203791065 
-0.008793807444637961 
-0.3236202472156588 
-0.5524593998473635 
-0.2528453416909928 
0 
0 
-0.1701715647991643 
0 
0.446263973215952 
-0.1990604378879508 
-0.3025580824112794 
0 
-0.04780922062915874 
-0.02306428386825552 
-0.06925065205754459 
-0.006803958977878951 
-0.07842424802684232 
-0.1020060202938175 
0.009219171074116567 
0.01290498469492422 
-0.157581774958634 
0.02698400329092504 
0.07691285313540012 
-0.1716888582333906 
0 
0.06161020415394221 
-0.03217521149827097 
-0.03217521149827097 
-0.01728822784369105 
0 
0.04911411135259531 
-0.00361287852116737 
-0.2818255934785775 
-0.08154699226116825 
-0.1191109817508044 
0 
0 
-1.875277506936624 
-0.07448192297983916 
-0.109186290753755 
-0.03621202017805938 
-0.1121462495689928 
0 
-0.008029773337500545 
0.01167298774440674 
0 
-0.2225532858353205 
-0.1009080986679904 
-0.005923085887244004 
-0.1448233715776815 
-0.008414938312798876 
-0.02746963345171863 
-0.3854568096431028 
0 
0.1597196797867985 
0 
0 
0 
-0.1157723071161991 
0.1745442245363148 
-0.364049503452845 
0 
0 
-0.05378955660277459 
-0.2781226635724893 
0 
-0.06481491053899972 
-0.1773220709830728 
0 
0.005346482505016264 
-0.2166532452447339 
-0.1957694321753584 
-0.1090086022208422 
-0.2856529384345508 
0.004070725255636779 
0 
-0.003389940165911262 
-0.4642132372503857 
-0.1219331309322001 
-0.1706756537601223 
-0.3731671574357595 
0.003182195068950508 
0.348053588884112 
-0.00352608168514104 
-1.010585445231804 
-0.06282748502567691 
0 
-0.1033528703535179 
-0.3436088858953805 
-0.1763444960443394 
-0.054281769094607 
0 
-0.4167775237722006 
-0.008256312254701664 
-0.578100109396061 
-0.03462069351187173 
-0.07442319179320699 
-0.1075273313066922 
-2.05654120773126 
-0.8677666254968623 
-0.009390455499817749 
0 
-0.2077290164368801 
0 
0 
-0.004195774970052437 
-0.0008608839764498539 
-0.009012183722996609 
-0.8217789514654631 
0 
-0.004506091861498304 
0.5978203401131335 
-0.2129614170155235 
0 
-0.05415875651993259 
0 
-0.0503285119040156 
0 
0 
0.3731077192470514 
-0.09598634298309758 
-0.04446606467106153 
-0.4124323688461376 
-0.1444593207201001 
-0.1075972125945061 
0.01268571997343482 
-0.01084088227250559 
-0.5498499442702275 
-0.01368516556486182 
-0.003207440702160777 
-0.08944546501768455 
-0.02913406428528743 
-0.1020542429810749 
0.2128490795586979 
-0.02162388328040014 
-0.4586834853514128 
0.01795642431816266 
0.01570404131969251 
-0.06995047944671812 
0 
-0.04163019927043898 
-0.1274370270919734 
-0.2749753967283479 
-1.359749104368528 
-0.04225077406319672 
0.0512026747224445 
-0.2636890306227524 
-1.1863200974213 
-0.1914954007242583 
-0.01052179403575756 
0 
-0.556233723526233 
-0.1003512163547106 
-0.08977939798843225 
-0.1482240138848654 
-0.0175509489043088 
0.02897927650720608 
-0.02119443711786429 
0 
0.06803970442536598 
0.03375108781677009 
-0.0003887968622067314 
0.02105406205612717 
-0.8684396435507188 
0.1513923061540103 
-0.1201267087114603 
-0.0675404809064799 
-0.4339593534718154 
-0.4676933738767172 
-0.4345301983494683 
0.05548795264046315 
-0.00876714691636616 
0.03720752530386136 
-0.05048276891147467 
0 
-0.02032643911587062 
-0.1517548029695429 
-0.01066211806949581 
-0.009643304994492619 
-0.09932302337855373 
-0.2856777842858629 
0.05631396356944532 
-0.5669954756309069 
-0.3878000467502417 
0 
-0.006718204729185127 
-0.04380412105746757 
0.08349569169157073 
0.1030705608789562 
-0.2435528604676406 
0.345833267761501 
-0.3965575998115063 
0 
0.03432743287469613 
-0.08606977426726625 
-0.07913016341978783 
-0.2685791109460098 
-0.01163368678211801 
0 
0 
-0.1098303356683108 
-0.01011767817008039 
0.02303568001734456 
-0.05895137563848372 
-0.01557930154198723 
0.009635449877251767 
0.4521227517877995 
-0.2079033264845986 
0 
-0.0007440731709079527 
-0.04027883008531488 
0 
0 
-0.001410783920193544 
-0.003469521539824814 
0.0173514690029766 
-0.2759760474830986 
0.3839692320565175 
-0.08539130626979179 
0 
0.02210947713422333 
-0.01002194459944753 
-0.6647060520072042 
-0.0285894072113094 
0.2888759349484229 
-0.2482669779590334 
0.01330566091510134 
-0.03866460314959699 
-0.1693118466901581 
-0.008809050341380898 
-0.1169775525360894 
-0.01165579863323355 
-0.2359105504498986 
-0.1225193031250142 
-0.4468752282039662 
0 
-0.01673091617519682 
-0.6102845342501793 
-0.01385695909758563 
0.0258749855141686 
-0.6248170960053986 
0 
0.1187066295058366 
-0.006026187835148977 
-0.06112799102216448 
-0.2366772611769143 
0.02773173644952926 
0 
-0.08444816761375967 
-0.08444816761375967 
-0.0454411468629194 
0.02688292743381495 
-0.01524814238801707 
-0.07800343682740228 
-0.2808847919663062 
-0.000203613632518104 
-0.1024053937688721 
0.03937394492463048 
-0.1502938383616789 
0 
0 
-0.08477475528745851 
-0.2357479647660978 
-0.05542284679928621 
-0.01380790193911623 
-0.02365033875532612 
-3.229492892203881 
0.01214686681097116 
0.007193306848575556 
-0.2056366298786588 
0.2193839101771123 
-0.08500988052299596 
0.05990262985074183 
0 
-0.007310616030735576 
-0.01645368331280774 
-0.2373198097802326 
0 
0.03969129284832209 
-0.6689303298550489 
-0.003823846326931008 
0.3742246625516953 
-0.1093780487583005 
-0.1557873329494222 
-0.1264249520937569 
0 
-0.002407150662152378 
-0.1431686619972793 
-0.1614485333937531 
-0.1636378655064847 
-0.328895736739943 
-0.1879228224011532 
-0.05114870537447008 
0 
0.08163373238454015 
-0.01881452483545236 
-0.1566120106491872 
-0.02005172302448561 
-0.08754072196695407 
-0.2496539365311993 
-0.5293024106251986 
-0.01813579820279705 
0.006503249627449244 
-0.1976900039100483 
-0.01963517838351769 
-0.1487330098219662 
-0.1165805262912338 
-0.09093359490393066 
-0.02474418408368169 
0 
-0.2524065298691866 
-0.05376094580881863 
-0.2564258797922759 
-0.6194566817690121 
-0.2021151506755554 
0.02344821448322583 
-0.01067028976801447 
-0.2202688762649668 
-0.03693198188452466 
-0.7732551930767683 
0.004294453710327386 
0 
0 
0.006890979447581421 
-0.2130634338577059 
0.2030260683957644 
-0.001721767952899708 
-0.0109740209357879 
0 
-0.02502228114213808 
0 
-0.4453506613371178 
-0.1501055582640863 
0.631003717258611 
-0.0008608839764498539 
0 
0 
-0.01217421774212134 
0 
-0.2192478972398016 
-0.009215776106576206 
0.01445329329084852 
-0.6860329646813923 
-0.007464273602047209 
-0.00816837556880076 
-0.03554519950812347 
0 
0 
-0.009328082323610182 
-0.0530215983368909 
-0.0008608839764498539 
-0.1116698236232096 
-0.03754408676839493 
-0.7138542870349324 
0.1514721934470077 
0.07133269710498748 
-0.002841526105219872 
0 
0.01231295989368038 
0.0007154744965241832 
0.02553837722165537 
-0.001000223664312575 
0.09226830314993323 
0 
-0.1024569895944191 
0 
-0.0535804653609919 
-0.04174936898147357 
0.04176132576184007 
0 
-0.03711190100852526 
-0.3600669358124566 
0.04846159269346483 
-0.0156287572232905 
0 
-0.1245861240813248 
0 
0 
-0.4595309978755611 
0 
0.04345397182444834 
-0.0373842346800254 
-0.08072810661675109 
-0.1304638511717718 
-0.5271296185211284 
-1.05673620220862 
-0.3289334586325573 
-0.04812093024257021 
-0.01159824070794896 
-0.04097209103899533 
-0.1844838994246215 
-0.01579134223470479 
-0.02781693703432703 
-0.1465272447942844 
-0.4237690874921908 
0.01805442048158488 
0 
-0.1261853714755558 
-0.1551711595052921 
-0.07561473005197086 
0 
-0.01442030243089184 
0.3892709094678768 
-0.05448739127791976 
-0.02715447770469148 
0.8281862665101116 
0.3924455022375389 
0 
-0.229988084119132 
0.01887427330033538 
-0.1429361612040467 
-0.2167941634784954 
-0.720970081078174 
0.05485049691459753 
0.1617158634821114 
0 
-0.1675471894407645 
0 
0.1568367444799971 
-0.005271956790373738 
0 
0 
-0.5712249558765906 
-0.08516472481363925 
0.6830253736855805 
-0.01465643490784331 
0 
-0.01611030985111395 
0.05920993262001897 
-0.1161450502772819 
0 
0 
0 
-0.004965752954700833 
-0.1718163791711727 
-0.2506862535533876 
-0.1546419139174022 
-0.02069871461412436 
0 
-0.1751664567497525 
0.0175970383022658 
-0.548761304813708 
0.8432058880284627 
-0.02429474577272796 
0 
-0.03100693913651666 
0.01538364814295139 
-0.07072782940737449 
-0.2711665910938727 
0.03249162431494594 
-0.05354776097541462 
-0.06728183484090397 
-0.4647297031723172 
-0.1249928261584744 
0.04428637368709459 
0.5434940394823844 
-0.02037313790372178 
-0.1416165001931238 
-0.4437385282074179 
0.003057705747944627 
-0.2194362267938323 
-0.114151722640687 
-0.02725831429142351 
0.09957660344048616 
-0.5300276834774141 
-0.4948898247076646 
-0.039857022849794 
-0.006904206452370548 
-0.05680608610425218 
-0.3227664166432365 
-0.07084636809624098 
-0.02074504127638118 
-0.07317174201073186 
0.001971722954593707 
-0.3254654749388913 
0.09710491931736469 
0 
-0.5316020717131307 
-0.01484255550829481 
-0.2221256898771798 
0 
-0.3325491290071795 
-0.8672628570418573 
0 
-0.260623596491601 
-0.3327596963537279 
0 
0.04059089439403738 
0.2884719429072135 
0.0126885139374929 
-0.464229930585694 
-0.1066159062997278 
-0.001560672983387167 
-0.001272760533238363 
-0.02555137649500039 
0.6403163987564475 
0.003858495264854638 
0 
-0.004424623629855104 
0 
-0.001069146900720259 
0.04307159387745673 
-0.002536222482972124 
0.3274482954029126 
0 
-0.01829237995417135 
0.002404978292770484 
-0.1695186995634964 
-0.04933796415423665 
-0.5616514316666924 
-0.0757574420038899 
0 
-0.05209134839987351 
-0.009982988699397389 
-0.1026350200627433 
-0.07974288267985566 
-0.001176967746052369 
0.1542281806237268 
0.01494605424176386 
0 
-0.02834470414034088 
-0.5168989214306277 
-0.8328378231193158 
0 
-0.006357803923145693 
-0.02085842345834409 
-0.4094454237992379 
0 
-0.09884922148886757 
-0.4140797272283856 
0 
-0.001600975590950673 
-0.167697998988872 
-0.007653386911571535 
0 
0 
0.0565684664475527 
0 
-0.2000144260478633 
-0.008032285014447988 
0 
0 
-0.002368764524740415 
-0.06988393298212059 
-0.03306807102705861 
-0.05900337194319557 
-0.1269907092283186 
0.06688675774573474 
-0.02085515179873319 
-0.4632228238032697 
0.4801053436568306 
-0.2142168986744931 
-0.9932254230649165 
-0.2106399931925191 
0 
0 
0.006472527078950274 
-0.03115222182451803 
0 
0 
-0.187623854346941 
-0.1714403631480914 
-1.692259096648603 
-0.02283885044303162 
-0.177166673174618 
-0.03788705453672427 
-0.01259131575245366 
0 
0.140509015231066 
0.02900650842292128 
-0.5475679732890569 
-0.1364305037793763 
-0.001307915779322232 
-0.1211690117706814 
0.04768924663847864 
0 
-0.02468147004637163 
-0.06654392145231791 
-0.5119622702333467 
-0.5231573624550828 
-0.2633911605014874 
0 
-0.02737578332585715 
-0.4570101324631256 
-0.003954183313978443 
-0.1104228319031533 
0 
0.001599729978552816 
-0.248704850981561 
-0.02650484924812078 
-0.1035670302286981 
-0.06555118722558488 
-0.116719274961657 
-0.05144885771736576 
0 
-1.410698648760284 
-0.2911964095993612 
-0.09779593904883033 
0 
0.03016868424637582 
0.06652107575350236 
-0.07498197119173708 
-0.3378664667658891 
-0.03596954155349166 
0 
-0.1990479800442691 
0 
-0.05368028029756599 
-0.07664643466333271 
-0.168830907586258 
-0.2474773360121761 
-0.9868048676099465 
-0.1381044578457975 
0 
0 
0.01335531164766425 
0.04070013523659909 
0.01086744851335975 
-0.01169727015685714 
-0.2810704308282378 
0.07430655282070078 
-0.01153051467202402 
0.1254253286641009 
0 
0 
-0.1507890777549698 
0 
-0.1059231465868768 
-0.02416488814824546 
-0.0465462324934347 
0.04545733939930072 
-0.003952639713179276 
0 
0 
0 
0 
-0.1058383869598187 
0.3052919364213843 
0 
-0.05939188059833399 
-0.1319479167027936 
-0.03316419501274521 
-0.07052707795161875 
-0.2631434833322096 
-0.352721580211828 
-0.01134542983278581 
-0.2878499131280784 
0.5214679373348039 
-0.2429104148283352 
0.1550197571377628 
-0.9758451720114104 
-0.520606906740417 
-0.2648450246206079 
-0.2081796033078356 
-0.0468815511690648 
0.07084490051351428 
0 
-0.6014168447029531 
0.04740494680822843 
0.001349025268849723 
-0.09496111886095356 
-0.07964110139006066 
-0.04873561786580678 
0 
0 
-0.3393105302199856 
0.2976954307958713 
0.8873603055344412 
-0.01192906435569386 
-0.1316222249307446 
0 
-0.6888782488301995 
-0.1541346115688755 
-0.05727719247292818 
-0.4428259658729983 
-0.4419245888981282 
-0.01211566541125907 
-0.1063645911619677 
0 
-0.03124102544527607 
-0.3127009669531575 
-0.1774147679485594 
-0.01360825575585062 
0.004426864064758502 
-0.04454570578700973 
0.0550307006482133 
-0.06491995757130134 
0.07797208236067234 
-0.7055817348762442 
-0.01984408079154847 
-0.4533097284510741 
-0.03839273152739834 
-0.2813396172106108 
0.0621187676020167 
-0.05996461229225103 
0 
0.07674073501697344 
0.007297549789975406 
-0.1886073315372515 
0.01152763097820328 
0.1262410644971955 
0.1260566476121993 
-0.3254755429311698 
-0.07870319379473993 
-0.03630731433509091 
-0.1361060034662796 
-0.002582651929349562 
-0.2103261137152334 
-0.4629071310346896 
-0.04750884889818946 
-0.460850752713558 
-0.1957355569853436 
-0.007937559745712022 
-0.02231142172188913 
0 
-0.6739178961197004 
-0.02336928549362644 
-0.2985720443688149 
0 
-0.02065770687483164 
-0.03803302116316927 
-0.1230932951335666 
0.02933872432151631 
-0.01921142954717592 
-0.04620351895395868 
-0.01242013355535168 
-0.1070134259851902 
0 
0 
0.4214746125370717 
-0.1026595709849992 
0 
0 
0 
-0.3577419517201302 
-0.1857467685521244 
-0.001800787070302182 
-0.1513152020640917 
-0.01556941999291712 
-0.5186052434815517 
-0.4139464682590283 
0 
-0.1687830623737543 
-0.5414444293612785 
0.02362697997452981 
-0.02229737917151264 
0.08579653231077722 
-0.04119882855101466 
0 
0.08033890218824896 
-0.1565095946895446 
0.08724374662216401 
-0.02020670247053391 
-0.03999963055899536 
0 
0 
-0.06216994327153529 
-0.3407953488782226 
-0.1010622766585656 
-0.03022648397303854 
-0.01301960830988808 
0.1522420791759691 
-0.01227127710019912 
-0.1200125048847665 
-0.02371568600294389 
0.02446343770144983 
0.01729797602437052 
0.09137990030203717 
-0.4696883538559878 
-0.05003539750058049 
-0.04330803576264906 
-0.01068793278835741 
-0.003427635990321346 
-0.02496567894443638 
2.499202979749908 
-0.09008868218844547 
-0.06632586134375122 
0 
0 
-0.02299445557406188 
0 
-0.03575371471474321 
-0.1989478736899759 
-0.2548083515412285 
-0.07212976494407751 
-0.01521403046766892 
0 
-0.03985808820889716 
-0.02241696486627834 
-0.01330243717687253 
-0.1783808142810886 
-0.310645364111479 
0 
-0.4732752360551399 
-0.04065807896748595 
0 
-0.2335301284436906 
1.944281773511851 
0 
0.3693443449172352 
0 
0 
0 
-0.07919190756971217 
-0.2170541617628296 
-0.1952296437313359 
-0.0716182992497868 
0 
-0.009889781506609926 
0.06673932559418053 
-0.06182334282597946 
-0.01947827825734531 
-0.000143832038982097 
0.1484635455989635 
0 
-0.1967424540225964 
0 
-0.07701400364779197 
0 
0.2926436350769551 
0 
-0.1037010769248594 
0 
-0.2626739290379059 
-0.6081420122482241 
-0.001721767952899708 
-0.256627555504209 
-0.1624888003746258 
-0.8059495521081916 
-0.02202517373928838 
0 
0 
-0.1100320228242668 
-0.09821137498742114 
0 
-0.003302508969859131 
-0.9335494638847764 
-0.09779938032613285 
0 
-0.2884203445807044 
0 
-0.07282492997230236 
-0.07567613090044026 
-0.2133329396470728 
0.0045101439650444 
0.1017250556420852 
0.03564119607853929 
0 
0 
0 
-0.03245775247011367 
0 
-0.1361481003209605 
-0.036968373165553 
-0.01547734839290458 
0.02989686805776231 
-0.01636539555937767 
-0.005303456185454397 
-0.4607280016611997 
-0.4088610100010841 
-0.0142947036056547 
-0.0004072272650362079 
-0.2352497463657212 
-0.02421358655428314 
0 
-0.2980411080887148 
0.02218068499251811 
-0.003359608813090839 
0.2553951279763688 
0 
-0.5903032043250636 
-0.04129170975295256 
-0.8205416171732256 
-0.04544243026438879 
-0.1606551376136441 
0 
-0.03687262996051834 
-0.03687262996051834 
0.0265226311492282 
-0.2059556206032685 
-0.7039342880767849 
0.06004958244044434 
-0.007146900524048014 
-0.07958740124119204 
-0.1006764920550776 
0 
-0.3621078824364632 
-0.3497292356803244 
-0.5373470875998002 
-0.07064557454254619 
0 
0 
0 
0.1967666760600809 
-0.04742682897250259 
-1.373484510097165 
0.04744196697836277 
-0.1193722903017588 
-0.1392877150328176 
0.02816700272999513 
0.2119670068170506 
0.03332126575559008 
0 
0.1564980931031648 
0 
-0.1187735249041947 
-0.0004788226808669301 
0 
0.04686053674135911 
0.04380664202109089 
0.05637958062470959 
0 
0 
-0.0577085049366599 
0.04725395994905961 
0 
-0.3171613536623947 
-0.2555864102757122 
0.03003650542969729 
0.02264358073644958 
-0.06214049153074471 
-0.1074146417018398 
0 
-0.002660464758850129 
-0.2476775756376294 
-0.1433919642390625 
-0.03817986090616823 
0.07458723212760271 
-0.09916409397627035 
0.08571911884924664 
0.02323182201311242 
0 
0.1434330359016156 
0 
0 
0.1497537847777027 
-0.04077810717765316 
-0.0539949682472432 
0 
0 
-0.1255519610938876 
0 
0 
0 
-0.04063885969899098 
-0.01323892598302382 
-0.1186611457071938 
-0.005081376765990546 
-0.2885818989223908 
0 
-0.07709612111308269 
0.05121690875363639 
0 
0 
-0.3454547319721638 
0.01838517874804929 
0.06660905136562281 
0 
0 
0.1493977631111405 
0 
-0.03963557980261807 
0 
0 
0 
-0.3488451096275151 
-0.0006877433839342197 
-0.1399345827447355 
0 
-0.0005291292177778513 
-0.0518285289937754 
0 
-0.04244995043061281 
-0.01116377611331964 
0.02659785173376156 
-0.3129778167173587 
0 
-0.1988266172763339 
0 
-0.01190812486742362 
0 
-0.1306298564978543 
0 
-0.1149087786553872 
0 
-0.3390158327635438 
0 
0 
0 
-0.331280977036942 
0 
0 
-0.01556800602081686 
-0.2645895565658323 
-0.008849247259710208 
-0.004424623629855104 
0 
0.02265645110102583 
-0.01792290070381712 
-0.4589541815122586 
0 
0 
-0.03276438821586231 
-0.1398942729159738 
-0.06647540545990037 
0 
0 
-0.2049853187145994 
0 
-0.08493865566334417 
0 
0.1247042132943818 
-0.04250829616425172 
-0.04572677119675485 
-0.0005270582273223304 
0 
-0.193985923481649 
0.007181722059954159 
-0.2674342759089024 
-0.5338468747311297 
0 
0.05437345619058615 
0.0754331567364607 
0.1627009705536541 
0.05600613804665906 
-0.0109996245932779 
0.171229883956251 
-0.3026044227189186 
0 
0 
-0.9721892161951786 
0 
-0.07282785184862356 
-0.01841623351773492 
0 
-0.1504094173272947 
-0.5497863961481414 
-0.006541728638235769 
-0.001166512852356049 
0.0005767228922649676 
-0.01595015963660316 
0.0271854080223408 
0 
-2.107513306654918 
-0.1350301041920741 
0.07058918868626492 
-0.415216280177487 
0 
0 
-0.3685192014881998 
0.00037046116454194 
0.03186608496110156 
-0.05648659555157045 
0 
0.01300310356007486 
-0.0699316117236943 
-0.0782413445042745 
-0.4552691502019745 
0 
-0.2292207551842533 
-0.02158952613720759 
-0.019426588522326 
0 
0.01677864965398916 
-0.0007294756973967429 
-0.4628296401580151 
-0.09302755998447329 
0.005503720134057342 
0.08940794766078619 
0 
-0.0003887968622067314 
0 
-0.0580068707812085 
0.5605911618885173 
-0.002258606402051991 
-0.05369618793069304 
-0.2319469438411854 
-0.03018225645163432 
0.009105853175931334 
-0.004087476801123373 
0 
-0.713679575798114 
0.0291135215664669 
-0.1200034084416373 
-0.0004072272650362079 
0 
-0.009066533258791927 
-0.1786979229268364 
-0.3375797952423629 
0.4716601238326272 
0 
0.04652424853428517 
-0.02500496099274457 
-0.01854579199546816 
0 
0 
0.02840832362804795 
0.02840832362804795 
0.02840832362804795 
0.02840832362804795 
0.02840832362804795 
-0.02783038245204602 
-0.0989778881150703 
0 
-0.1617181100899754 
-0.05391832482670224 
-0.1548752957014955 
-0.006157969507724148 
0 
-0.03150489637588233 
-0.3922830345745429 
-0.8733201828083516 
0.04629680285447126 
0.01730454743901784 
-0.01511019148179144 
-1.249966458566736 
-0.07345184704240619 
0 
-0.01746900899267523 
-0.1785470677861046 
0 
0.03849978955367594 
0.4539208464279057 
0.3538618767200812 
0.03887685014415781 
-0.009218837281687754 
0.5574387922557766 
-0.01726863778926727 
-0.08134040112587644 
-0.04339464534278887 
-0.7670092185830666 
-0.1952181760246644 
-0.3327729789224234 
0 
-0.03785329311299317 
0 
0 
-0.3735390755731752 
-0.04428614625747893 
0 
-0.02176859761337916 
-0.4718274999175771 
-0.4103746705529602 
-0.0270353491671218 
-0.2425081663046092 
0 
-0.06897708878790251 
-0.006362646130813624 
0 
-0.1848070138935093 
-0.06668680472780142 
-0.101274838639553 
-0.0729760752514472 
0 
-0.104686030169024 
-0.4974890567415741 
-0.364628546654034 
0 
0 
0.2661256159347743 
0.02388575648775517 
0.2772793815238779 
-0.6886183079246785 
0 
-0.3610175626458368 
-0.01169727015685714 
-0.38945361772261 
-0.01131281944234916 
-0.5335947564996724 
0.04933756158897436 
-0.277475454493211 
-0.9915143322058564 
-0.01097116510512403 
-1.215955543420211 
-0.239909897700456 
-0.1174109093834684 
-0.07845590410504222 
-0.03632019304479422 
0 
-0.07209506591467625 
0 
0.01382849690618211 
-0.6703995071702789 
-0.2178166862228079 
-0.02359145206371159 
-0.2719856587032402 
-0.05302500719091447 
-0.001057679128080014 
-0.01060791327248848 
-0.1066690973091933 
0 
0 
0 
-0.07840009044787914 
0 
0.3815214090485636 
0.3388226512858936 
0 
-0.1018376584555308 
-0.02586299684312513 
-0.03192859922024031 
0 
-0.2538763405332057 
-0.04312925126507812 
-0.01566685359383544 
-0.07472663928361002 
-0.4038924465852546 
-0.299569387295231 
-0.3388268113462308 
-0.8482873863728035 
0 
-0.1701803786079944 
0 
0 
0 
-0.859351442736169 
0 
0.02965096128307246 
-0.1050770855594304 
0.08734069882051322 
0 
0 
0.1814945335276123 
0 
0 
-0.1738672117121132 
0 
-0.01594736673328302 
-0.02630531397773196 
0.01062633263882937 
-0.02388252718356524 
-0.07738402019689235 
0 
0 
0 
-0.0681416621208811 
-0.02765213491819665 
1.552887462800013 
0 
0 
0.08887699398565539 
0 
0 
0 
0.1374113696564376 
0.1827061243532374 
0.1381659152108784 
0 
-0.01343037719753732 
-0.005693364809335846 
-0.0009750208993411469 
0.03222690027709423 
-0.1342019004119509 
0 
0 
-0.1488010080716154 
0.1095683914303608 
-0.006469913406232344 
2.018796735098278 
0.0318378226924487 
0 
0 
0 
0 
-0.3203484791105058 
-0.002411519934753028 
-0.04198097853283921 
-0.6239419752877872 
-0.1343514598918302 
0.005454991743325419 
0 
-0.01546183130919077 
-0.7003087074287131 
-0.06538781621631226 
-0.1499944568371436 
0 
-0.07339530216078187 
-0.2864513914726612 
-0.6783181999955615 
0 
0.1595287024804452 
-0.05619165718160837 
-0.07786468014787488 
-0.03211481815263618 
-0.2685975013569214 
-0.03049979934957684 
-0.02496802763782988 
-0.001069146900720259 
0.2149551177220288 
0 
0 
-0.03488117545106692 
-0.004852987362150312 
-0.00189186174260379 
0 
-0.004776712888223405 
-0.0873728929059371 
-0.0291518791795615 
0.03842323652167414 
-0.1065663149528886 
-0.04675216764461319 
0 
0 
0 
-0.007008323125679844 
-0.0773837790253836 
0.003671604834214437 
0 
0 
-0.1320662780607643 
-0.02221646966572541 
-0.008257881257840381 
-0.03687558265124076 
0 
-0.0411908848390076 
0 
0.1716903444709205 
-0.05426032002626135 
0 
-0.01298496304795105 
-0.06922042697821712 
-0.03062083148704409 
0 
-0.2707052768787381 
-0.05973401383879732 
-0.5937448648625424 
-0.02103895490135507 
-0.0975819567113443 
0.03820576996288477 
-0.1569112265345517 
-0.4753153654989056 
-0.1032879996884285 
-0.001410783920193544 
-0.01618550092004426 
0.03675921770110131 
0 
0 
0 
-0.01602123493088222 
0 
-0.1538626637766912 
-0.09016313128395206 
-0.02978620298382078 
-0.01131725846314773 
-0.1039114960262143 
-0.03974586540612322 
0.002261287187130888 
0.0532765070113347 
0 
0 
-0.04471851064344478 
-0.01235849624848436 
0.05413372566817115 
-0.2621001337147438 
-0.03264401750522257 
0.1148158474369146 
0.2913203103986631 
-0.0008608839764498539 
-0.03936731985809882 
-0.1709160297991522 
-0.01116377611331964 
-0.1203561158941931 
-0.000203613632518104 
0.04021360668795858 
-0.03907661623238229 
0.3322977527911899 
0 
0 
0.01778610138629375 
-0.04753692187257245 
-0.01836274093235766 
0 
-0.4698770234700659 
-0.03115767803037149 
-0.071191678522952 
-0.0009053042152340956 
-0.07464005036647724 
-0.004183827350376075 
0.03351975465642769 
-0.07071196038968397 
-0.1281537789891149 
0 
0.04059089439403738 
-0.09392474144072561 
0 
-0.525327625333941 
-0.1178527929442255 
-0.005358990817431531 
-0.01480640142790418 
0 
-0.04977862143232642 
-0.03936893869768503 
0.02770687812888903 
-0.2506093528393752 
0.01954729139004672 
-0.1555866133915693 
-0.05382900554058401 
-0.6039814275454058 
-0.007259677468456175 
-0.8131242776078459 
-0.2028920888120631 
0 
0 
0 
-0.004577638352228893 
0 
-0.001721767952899708 
-0.007445818235270147 
-0.08955745081131304 
0.1027893199816721 
-0.5235283337291576 
-0.05913964959558994 
-0.7107110269938794 
-0.8250551108822279 
-0.2772915217815711 
-0.02962193576403687 
0 
0 
-0.001721767952899708 
-0.05835546547106722 
0 
0 
-0.09309087905855663 
-0.0006108408975543117 
-0.06619234782376052 
-0.0009750208993411469 
-0.1397307108053584 
0 
0 
-0.2045289570513059 
0 
0 
0 
-0.02149738538415711 
0.05573157480726165 
0 
0 
-0.1031150618845927 
0 
0 
0.250486233618044 
0.04371812771493673 
0.1603354556797632 
0 
0 
0.01066005234470156 
0.09478974969679207 
-0.05413144214833187 
-0.2191028277167876 
-0.00680959278784605 
-0.06549311110272116 
0 
-0.006020907812439575 
0 
-0.05976333108897115 
0 
0 
-0.09498560725114606 
-0.001721767952899708 
0.007781660706362185 
-0.05303789327207751 
-0.4136009919119951 
0.0005129310391276146 
0 
-0.05124513696815523 
-0.0009505379017491253 
-0.1368068733317926 
-0.001069146900720259 
-0.428386951744458 
0.009843809527221014 
0 
0.01968761905444203 
0.009843809527221014 
-0.6055901747595656 
-0.3286982170443589 
-0.2562980650949482 
0 
-0.05785452128733863 
-0.05785452128733863 
-0.1799081230277035 
-0.005716765987198084 
-0.03741443424016565 
-0.0190175478881835 
-0.05319212096408416 
-0.02976733966626925 
-0.08110621578059658 
-0.002582651929349562 
-0.009066533258791927 
0.1247886549643424 
-0.005897182693651187 
-0.04478818701714205 
-0.01007226690071922 
0 
0.03227106145693874 
0.046054484749981 
0 
0 
-0.02200158657317277 
0.3264979649283671 
0 
0.09894044544595079 
0 
0 
-0.08680053410063902 
-0.001992039221519135 
0.04496220540363945 
-0.05210070483916182 
0 
0.01429665169104911 
-0.0008608839764498539 
0 
-0.08324264767244691 
0 
-0.00288758497844905 
-0.5207149442713706 
0.02161638936019638 
-0.1868541855322167 
0.3414293911411601 
-0.01341649298052007 
0 
-0.01311567689087825 
0.07288356147632444 
0 
0.04305176671133756 
0 
0 
-0.01455037829251348 
-0.5351962994720415 
0 
-0.0008608839764498539 
0 
0 
-0.03580211155491355 
0 
0 
-0.01443229976945253 
-0.07428211982553502 
0.02767249410047432 
0 
-0.02245951511004123 
-0.03811573618042582 
-0.002010167997519917 
-0.08549473608970327 
-0.003469521539824814 
-0.6427097811804561 
-0.02161390598400074 
0.1014517212954326 
0 
0 
0.03210265421851106 
-0.09021651455399558 
0.07917300904746472 
0 
0.09528418231951453 
-0.01501520831173407 
-0.2601105732611853 
-0.01981638055916746 
0 
0 
0 
0 
0 
0 
0 
-0.1330967669468736 
0.03615507536673602 
0.003793274606551918 
-0.05218423873536602 
-0.02836596815740784 
-0.009885601782791603 
-0.6440548807331811 
0.02045504051159029 
0.09736881443533899 
-0.01058803787759772 
0.0232419339787565 
-0.00430441988224927 
-0.002841526105219872 
0 
-0.08829394336779105 
-0.07710136873260091 
-0.007901839166248004 
0 
-0.02387549801604298 
0.01262104067290818 
-0.07967644372936315 
0.1365616894165435 
-0.2379096801969018 
0.01920258107807615 
-0.01846559957646353 
0.0926740386754293 
0 
-0.1480254155801864 
-0.02302633328043165 
-0.03401309348162904 
-0.007050299468413567 
-0.009260326135041921 
-0.001721767952899708 
0 
0.2575292056244024 
0 
0.06146444883645598 
-0.1866795107387044 
0.326966299749161 
0.04755218932932181 
-0.002174300335439783 
-0.03110015186301003 
-0.4012086351568958 
-0.1370414553697822 
0 
0 
0 
0 
-0.01678402345446559 
-0.03837864384909796 
0 
0 
0.05829023440045243 
0 
-0.09201412352829091 
-0.01579877982191667 
0 
-0.008965377582676971 
0 
0 
0 
-0.000203613632518104 
0 
-0.03906234698544152 
5.454725478260352 
0 
-0.07189660169501057 
0 
0 
0 
0.03489612729991742 
-0.03678975090729126 
-0.04240705880550342 
-0.04517585647821973 
0 
0 
-0.009946268060845536 
-0.05271838300634395 
-0.005675799715834778 
-0.01596838023922543 
0 
-0.037468587203377 
0 
0.1853521263735488 
0 
-3.039068980689571 
0.03586088593933508 
-0.1643835259573498 
0 
-0.608432350395147 
-0.136009697929244 
0.01319680129063717 
-0.0273806342892513 
-0.1015979804807313 
0 
0.0002371892180755411 
0.1394561954074228 
0 
0 
0.01941328038775038 
-0.2631045762326507 
-0.04942943167030769 
-0.005099178137708103 
0 
0.01422288400396101 
-0.1364283218061648 
-0.2768597460607224 
0 
-0.01446506021679787 
-0.006692348383785109 
0 
0 
0.3728291078550157 
0 
0 
-0.282511022947795 
0 
-0.02378410388240921 
-1.023145679547302 
-0.03097131638598186 
-0.1594655617034967 
-0.0008608839764498539 
0.02895088120152814 
0 
0.08837229642480092 
0.06408827609718945 
-0.06644037939997684 
-0.0009029491599817212 
0 
-0.364893277361899 
0 
0.02621395318878499 
-0.183304090099014 
-0.08438985574275185 
0 
0 
0.4907082789106667 
-0.00240474582644953 
-0.001013130749572376 
-0.3423069426269009 
-0.1622599724211687 
0 
-0.03658258416010341 
-0.07551518946290368 
-0.01958898860095282 
0.4194449532643397 
-0.09711560681390191 
0 
-0.006977572944181791 
-0.02774635091000869 
-0.1068222231095247 
0 
0 
0 
-0.003778645538895337 
0 
0 
-0.03373994146877508 
0 
-0.04133030801931287 
0.3586247538884215 
0 
-0.1535409619038197 
0 
-0.2545961602632996 
-0.03708356377211799 
-0.06585084969396919 
-0.4158365541855349 
0.04583645520375519 
-0.07395751081758434 
0.04096814383767654 
-0.06562846284122012 
0 
0 
-0.007809573280410508 
-0.01607963271655481 
-0.00828390069392931 
-0.08729822597763559 
-0.08144970298072521 
0.0009593197116999093 
0 
0 
-0.2661322824255301 
0 
0 
-0.4668879842553572 
0 
0.126466434461928 
0 
-0.1774454972410148 
0 
-0.02846976610253622 
-0.0150752636210852 
0 
0.03747817447532315 
0.05072322508585866 
0 
-0.008002013989138058 
0 
0.02023905017235266 
-0.1036230642207145 
0.1329996237784022 
0.03634031320456955 
-0.04155596080333712 
0 
0.07543670505889528 
0.4074679814090231 
0 
-0.004694937253951928 
-0.02886661153769493 
0 
-0.244924462082465 
-0.002341591652168523 
0 
-0.03362905008076008 
-0.0007002144139011227 
0.007174671516188138 
-0.01396867535005051 
-0.003326490735285642 
-0.2131317515650961 
-0.001069146900720259 
0 
0.02459275950930962 
-0.01272493935009438 
-0.09019134903657119 
0 
-0.4932954983766618 
-0.01371651180158732 
0 
-0.1045489756031512 
-0.3414691908885036 
-0.00709479933410648 
0 
-0.009206232043248533 
0 
0 
0 
-0.05186315579023344 
0.041439216683828 
-0.09814432058592971 
0 
-0.02560634668571918 
-0.2632146516695842 
-0.2331961915930081 
-0.007496979015020843 
0.1112480295238082 
-0.2024003725013999 
-0.3436697954571598 
-0.002416955297799966 
-0.2006623096469678 
-0.225550491241424 
-0.04821985952396696 
-0.577899893948693 
-0.04983284790164073 
0.002758855088262901 
-0.005527513496855783 
0.05518970307716228 
0 
0.07582048334569193 
-0.1566136154232963 
-0.1942315607437358 
0.0492235669832458 
0.02022176121298117 
-0.1790998000748567 
-0.05027221678821424 
-0.5647665315578714 
0.001767609754433875 
-0.07332375115821409 
0 
-0.06977506432393643 
-0.163584126449446 
0 
0 
0 
-0.05482668971239636 
-0.1061358098842051 
-0.01775242750249082 
0.03138464178420285 
0.0757583966877417 
-0.007539848335834472 
0 
-0.02441655499001535 
-0.9144786455096847 
-0.02623378051488199 
0.0005222813935974738 
-0.02141709072677326 
-0.05077338682805346 
-0.2653188037731768 
-0.06264295851683407 
-0.08228704279511355 
-0.5416717623284322 
-0.06107969871421196 
0 
-0.01366526335280224 
0 
0 
0.07473027120881928 
-0.2750599087605773 
0.055827668881605 
-0.4705729283719398 
0 
0.02800767108749789 
-0.001968496917685372 
0.03993375284410183 
0 
-0.02190666669957317 
0.0181263516925757 
-0.07717760709000909 
0 
-0.06858035659547554 
0.02250726584693021 
-0.003443535905799416 
-0.004246706571709026 
-0.1053711309130245 
-0.0105157674591616 
0 
0 
-0.02632891282367756 
-0.04289101143302188 
-0.004961157806984559 
0 
-0.3597184589647316 
0.09054660542184952 
0.07244837739674947 
-0.01809845774130063 
-0.0009340532559369896 
-0.0007016905827159915 
-0.004672881498369964 
0.00681835237424765 
0 
0.02092866723988406 
-0.1517065098043654 
0.02091305149457893 
-0.07338249630504809 
-0.214545082449064 
-0.05491894750737528 
0 
-0.2705979921641295 
-1.170859829214784 
-0.06624475623046512 
-0.007775491829481006 
-0.02776623453939476 
0.03623450710201673 
0 
-0.08764238424558762 
0.06249587288132305 
-0.1278860863390447 
-0.5824899839590719 
-0.1147283789877642 
0 
0 
-0.1040067509514428 
-0.09892313330280593 
-0.05177475935873065 
-0.009521183096439111 
-0.006583605621455076 
0.1499375342383887 
-0.1297691954330343 
-0.05379632628550808 
-0.01431976107911256 
-0.04160576464370424 
-0.05126483559458321 
-0.006453286892942392 
0.0008362513581037106 
0.1957744272486104 
-0.001410783920193544 
-0.04825239341077082 
-0.279815864940617 
-0.006435225558709177 
-0.09640182111993556 
0.008271580933077073 
-0.1357404106579922 
-0.27260368460891 
0.1861753352776777 
-0.1351817980077544 
-0.4223859211773268 
-0.1342726830417866 
-0.02206663311568881 
-0.03622785560144191 
0.2734299935136827 
-0.1142755662854828 
-0.6185696696503703 
0.0331595676038104 
-0.07624157123468667 
-1.887678063848647 
-0.06910564382149684 
-0.01193154112425384 
-0.02446828855186881 
-0.03251775426114753 
-0.2159012294732238 
0.07655250701110153 
-0.03091319064432887 
0 
-0.4179914718994803 
-0.3230736463946386 
-0.5746499312325444 
-0.3885919663678794 
0 
-0.09269016151815192 
-0.1260717680505365 
-0.03055654121498058 
0.05294106746029721 
0.04565754135403762 
-0.0146987490117471 
0 
-0.0476804263759111 
-0.2678487374136055 
0 
0.2125298714697355 
-0.002582651929349562 
0.02717436128816271 
-0.1015555952689512 
-0.2729204748994139 
-0.9110629480370869 
0.01341415696269592 
0 
0 
0.00911599478311634 
-0.08686677485838325 
0 
0 
0 
-0.002336123085617639 
0 
-0.05909896187012256 
0 
0.01312758569262613 
0.01416075359117948 
0.1726067493324991 
0.03010291722173468 
0.0433376672644528 
-0.002706359832969068 
0.07252313947901605 
0 
-0.3245818339841127 
0 
0 
0 
-0.04064291792571838 
0 
0 
0.3503313796049492 
-0.006177371584667316 
0 
0 
-0.004663411367170705 
-0.1897553959830663 
-0.05057330644628966 
0 
-0.1039081797771403 
-0.006619845442005984 
0.04718827119855435 
-0.08993303815079218 
-0.006999967798283286 
0.166317033801418 
0 
0 
-0.007393031009040485 
0 
0 
0 
0.05527257953384687 
-0.1311887847602472 
-0.03952253698285312 
-0.1590856824346049 
-0.2397003984598334 
0.03009920847091526 
-0.1642594410608279 
0 
0.148008303314409 
-0.1835392973020752 
0.05692955815901437 
-0.07729777175261589 
0 
0 
0 
-0.3860449291200748 
-0.2476360915829067 
-0.04032102897949937 
-0.04185759333328663 
-0.3665423465806308 
-0.05349532124967687 
0.08572337592412747 
-0.1795329915983606 
0.03201187528586723 
-0.04620466632259621 
-0.001993036304513813 
0.01137890663774339 
-0.4966172771875343 
-0.1117253790813985 
-0.3982778534430058 
-0.6419839256121302 
-0.1784111441466583 
-0.06011730696797594 
-0.1421656480028106 
0 
0 
0.01333119932514423 
0.1981063546441039 
-0.03584424100578928 
-0.311509020222422 
0 
0 
0 
0 
-0.1045400395029355 
0.317120050685404 
-0.07742972000613882 
0 
-0.09668340424227495 
-0.1525529300819951 
0.003887095774330827 
-0.000203613632518104 
-0.0644104711481189 
-0.009774627652100031 
0.1438445318529854 
-0.1818148731158193 
0 
0.02936407405218076 
-0.07140220841194975 
0 
0 
0.0261247222783726 
0 
0.2279425858568402 
-0.01119204189074018 
0 
0 
-0.08861104282604129 
0 
0 
0 
0 
0 
0.05266557483630908 
0 
0 
0 
0.03150447923332363 
0 
0 
0.0004256564939571821 
0.02556495958557993 
-0.1059758244693929 
0.1813702932370672 
-0.001721767952899708 
-0.001721767952899708 
0 
-0.1391375192860018 
0.04685908915704615 
0.09055580234589587 
-0.1241102962910178 
0 
-0.00430441988224927 
0.1212461691537788 
-0.00430441988224927 
-0.001721767952899708 
-0.001721767952899708 
-0.02379376863211285 
0.01863674916717173 
0 
-0.03282893194061127 
0 
-0.002582651929349562 
0.01848059693895957 
-0.004890844672058937 
-0.01492732068535507 
0.01852275075991661 
-0.01350300765704886 
0 
-0.06999959031449568 
-0.2468008068711344 
-0.001721767952899708 
0 
-0.02424572958848632 
-0.01790052246793199 
-0.03032465538987651 
-0.01096374594307504 
-0.02706335786135849 
0.0473645041348953 
0.06894547593691396 
-0.003443535905799416 
-0.006237531778339502 
-0.2510908350848232 
-0.0008608839764498539 
-0.3026288385392775 
-0.2578583397534737 
-0.2362179845484376 
0.04619436945138378 
-0.0008608839764498539 
-0.003284342512065553 
-0.00430441988224927 
0.08141661312343754 
-0.001721767952899708 
-1.274607729273989 
0.005153210163521937 
-0.006813789347166064 
-0.2336684255422384 
0.3576462738338324 
-0.002582651929349562 
-0.06235465835404265 
-0.02134794346302658 
0.006924533616383601 
0 
-0.03835278793520802 
-0.0008608839764498539 
-0.002582651929349562 
-0.0008608839764498539 
-0.01251006916459134 
-0.1471731538906942 
-0.002582651929349562 
-0.1427131205951322 
-0.003443535905799416 
-0.0008608839764498539 
0 
-0.00430441988224927 
-0.002582651929349562 
0 
-0.009903992003760406 
-0.009667110688542001 
0 
-0.003141828486883427 
-0.001721767952899708 
-0.002582651929349562 
-0.0008608839764498539 
-0.006779916326079237 
-0.4498769485745465 
-0.007915776939441455 
0 
0.04298135622393934 
0 
-0.002582651929349562 
-0.005410411515489581 
-0.003443535905799416 
-0.00636687119245635 
-0.004388550249313003 
0.2819339753631689 
-0.006726402249050099 
-0.01068095449794848 
-0.02207630457205011 
-0.00830670221172 
-0.1036402626295377 
-0.00430441988224927 
-0.07896572507047271 
-0.0687734585488385 
-0.003443535905799416 
0.02395081076544207 
0.006626834959521916 
-0.257805564054475 
-0.003443535905799416 
-0.001721767952899708 
-0.002582651929349562 
-0.004593494599089413 
-0.0008608839764498539 
0 
-0.001721767952899708 
-0.05505693742759103 
-0.01115853467915007 
-0.01351089179844214 
0.006824139400735704 
-0.15031263272428 
-0.001721767952899708 
-0.005559908505104137 
0 
-0.001721767952899708 
0 
-0.001721767952899708 
0.05116350903929541 
-0.08553021975421492 
-0.005500413491795046 
-0.0007294756973967429 
-0.0008608839764498539 
-0.003443535905799416 
-0.0008608839764498539 
0 
0 
0 
-0.001721767952899708 
0.007382089528075363 
-0.003443535905799416 
-0.02282107109922353 
-0.008907699771801248 
-0.001721767952899708 
0 
-0.002582651929349562 
-0.0141302877007488 
-0.006026187835148977 
-0.02263542559539064 
-0.01985674573860897 
-0.0008608839764498539 
-0.0556047439980879 
-0.04061434393479543 
0.02973753749132876 
-0.001811421878198979 
-0.01183386182012412 
-0.01682392407075662 
-0.05864377633723566 
0.002004826951215476 
0 
0.07070350021303519 
0 
-0.01418773890908124 
0 
-0.01033060771739825 
-0.003463925081607951 
0.2105601497625362 
-0.05442887756227078 
-0.003443535905799416 
-0.00430441988224927 
-0.01723582421153666 
0 
-0.001721767952899708 
-0.0008608839764498539 
-0.002582651929349562 
-0.002287945923775451 
0 
-0.003443535905799416 
-0.02384562850359023 
-0.04557012033984643 
-0.04556791214857137 
-0.001721767952899708 
0 
-0.002582651929349562 
-0.001721767952899708 
-0.03474328690710252 
-0.01148044823336208 
-0.009841980968617854 
-0.03063658923962503 
0 
-0.0182216375305485 
-0.03101505592516569 
0.03329432578186549 
0 
-0.2344566824826296 
-0.0562129101123597 
0 
-0.005175088352415809 
-0.02849660669703399 
0 
-0.2505648558983984 
-0.01544781225023134 
0 
-0.02238970283059161 
0 
-0.005866994441415115 
0 
-0.3619087793286065 
-0.001721767952899708 
0 
-0.001721767952899708 
0 
0 
-0.001721767952899708 
-0.01660103830138081 
-0.003443535905799416 
-0.003443535905799416 
-0.05829080249470264 
-0.002654813633390412 
-0.187630948660986 
0.3164514687929335 
-0.005165303858699124 
-0.007913747480860819 
-0.02762059767481758 
-0.01995893613957814 
-0.007721731167034116 
-0.005165303858699124 
-0.02052747664247242 
0.01871519523370879 
0 
-0.0008608839764498539 
-0.007599535066574872 
0 
0 
0.01156382139957468 
0.06141357515216861 
-0.06130466286404346 
-0.006029608644669544 
0 
-0.02350973026264761 
-0.00430441988224927 
0 
-0.001721767952899708 
0 
-0.01715544146223326 
-0.06352491476522486 
-0.03985362597903492 
-0.00430441988224927 
-0.0301484355974948 
-0.002582651929349562 
-0.002582651929349562 
-0.0008608839764498539 
0.06771339542394006 
0 
-0.03767991561648826 
0 
0 
-0.0008608839764498539 
0.4189665518033527 
-0.0008608839764498539 
-0.002582651929349562 
-0.0359262190408037 
0 
-0.01513587925548602 
-0.01957992616887874 
-0.03503288726956131 
0.09020805671885844 
-0.0209141241249783 
0 
0 
0 
0 
0 
0.01559368768507182 
0.005836778379691655 
-0.003443535905799416 
0 
-0.07590232986313646 
-0.1251328787135604 
-0.0008608839764498539 
0.03707427519726027 
-0.007464883232768334 
-0.02444215111732653 
-0.004145226488515408 
-0.2292207554850542 
-0.09951146052330104 
-0.003443535905799416 
-0.002582651929349562 
-0.001721767952899708 
-0.1065276933882624 
0.01512346314486462 
-0.001721767952899708 
0 
0 
0 
-0.0008608839764498539 
0 
0.01129107658611016 
-0.01196844494102617 
-0.0008608839764498539 
-0.002582651929349562 
0.009595641770839611 
-0.0008608839764498539 
-0.09351089803920355 
0.02918527342929557 
0 
0 
0 
-0.030169639464613 
-0.009464443718238989 
0.001134236995769521 
-0.002582651929349562 
-0.05334684713358879 
-0.007747955788048684 
-0.1559821875038867 
0.00873475779438976 
-0.001721767952899708 
-0.02374440888462847 
-0.01337095314104119 
0 
-0.0008608839764498539 
0.0161728841491095 
-0.002582651929349562 
-0.02152226705604591 
-0.003443535905799416 
-0.04009093460621367 
-0.002582651929349562 
0 
0 
0.1084783526635466 
-0.03182970695784976 
-0.02692747405362859 
-0.01457901349280984 
-0.001721767952899708 
-0.002582651929349562 
-0.009469723740948391 
-0.02664051454202589 
0 
-0.07276706510982486 
-0.01173386611859248 
0.02068791986700092 
0.05143616869062021 
-0.00430441988224927 
-0.008326764475105211 
0 
-0.007829363334625772 
0 
-0.02525020106847644 
0 
-0.002582651929349562 
-0.001721767952899708 
0.00481756057449048 
-0.001721767952899708 
-0.0022955837948705 
-0.00386054766455231 
-0.008164874505674326 
-0.05292086799419115 
0 
0.00457969690805811 
-0.02901668299260817 
-0.01769993582255247 
0.04865749181026453 
0 
-0.05821073118401036 
-0.01258608689974074 
-0.0587458866377513 
-0.04743455830566397 
-0.001721767952899708 
0 
-0.003443535905799416 
-0.001721767952899708 
0.05449970547216684 
0 
0 
0.0745312234315287 
-0.02291073228218512 
-0.0008608839764498539 
0.07149007025436264 
-0.0008608839764498539 
-0.002582651929349562 
-0.01719913508449376 
-0.011140297064821 
-0.02768372100549081 
-0.00430441988224927 
-0.01441625525749167 
-0.05873042303522776 
0 
-0.04013709958111706 
-0.002582651929349562 
-0.2878259168648508 
0 
0.02266637150577788 
0 
-0.01870340233621411 
0 
-0.0008608839764498539 
0 
0 
-0.03518324420283873 
-0.01162575995666011 
-0.001721767952899708 
0 
0 
0.04192230301907904 
0 
0 
0 
0 
-0.001721767952899708 
-0.001721767952899708 
0.02166370531681066 
-0.01818243461027476 
-0.1299578172527562 
-0.01283553571718129 
-0.046681661649389 
-0.0008608839764498539 
-0.001721767952899708 
-0.0008608839764498539 
-0.051671068691397 
-0.02395404429207591 
0 
0 
-0.5155566252773621 
-0.04514110255394203 
-0.04569785617608407 
0 
0 
-0.003443535905799416 
-0.305149136947537 
-0.01472258777097495 
-0.002582651929349562 
0 
0 
-0.0008608839764498539 
0.2547567710378722 
-0.1512132743938543 
-0.05930082760771009 
0 
-0.02886528558899213 
-0.004928949091897001 
-0.02639471136025368 
0 
-0.1087092313038055 
-0.003443535905799416 
-0.005872789594417446 
-0.00430441988224927 
-0.03702690620376688 
-0.002582651929349562 
0 
0.06957099823282707 
-0.005165303858699124 
0 
0 
-0.1483075571956112 
-0.2275644636780631 
-0.002582651929349562 
0 
-0.0008608839764498539 
-0.00931698057145521 
0 
-0.03351878064002106 
-0.05284752958672562 
-0.0191923561720786 
-0.06120118893301572 
-0.002582651929349562 
0 
0 
0.01813624719567756 
-0.07881525919833314 
-0.001721767952899708 
-0.03407672232682643 
0 
0 
0 
-0.01691877222033764 
-0.001721767952899708 
-0.01625842521323623 
0 
0 
-0.01573020550385533 
0.1013743977437545 
-0.003443535905799416 
0.02157978310147697 
-0.007961183560423314 
0 
-0.01963881968506414 
-0.1279958336769633 
-0.003443535905799416 
0 
-0.03504834386390629 
0 
-0.1980710415406283 
0 
-0.0004787481224411308 
-0.001525121764137707 
-0.1662813414598035 
-0.1378540895875388 
-0.0008608839764498539 
-0.002582651929349562 
-0.004814915739384923 
-0.01268267126422688 
-0.2168167647420626 
-0.05762892367478414 
-0.002807679231408458 
-0.0008608839764498539 
0 
0.01134250281974807 
-0.447522211445194 
0 
0 
-0.002582651929349562 
0 
-0.01442141589376484 
-0.02849528097986814 
-0.009155616522876791 
0 
-0.02123899304087394 
-0.0911584542325863 
-0.005006110464965261 
0 
0.02505746579052432 
-0.02355150822036329 
0 
0 
0.0513155313082008 
0 
-0.002202021797121032 
-0.06108143209889504 
-0.02184035922415362 
-0.0008608839764498539 
-0.003443535905799416 
0.04059089439403738 
-0.0008608839764498539 
-0.0008608839764498539 
0.00124805269285456 
-0.007298219251780083 
-0.04785678821003921 
-0.005214673109837122 
0 
0 
0 
-0.003945810597599674 
-0.1351190379789466 
-0.003516705185286551 
-0.001721767952899708 
-0.001721767952899708 
0 
-0.01709742892438574 
0.07642517924766294 
-0.008239807765211266 
0 
-0.0109617841094092 
0 
0.0724683108317217 
0 
-0.0152349895880034 
-0.002582651929349562 
-0.0008608839764498539 
0.2575292056244024 
-0.0008608839764498539 
0.01099761542767151 
-0.003485601089331283 
0.02166365548856295 
0 
0 
-0.0008608839764498539 
-0.01351322163510369 
-0.001721767952899708 
0 
0 
0 
0 
-0.03723924298875297 
0 
0 
0 
0 
0 
0 
-0.05007125013358403 
-0.002582651929349562 
0.1618133817993925 
0 
-0.01294361710517173 
-0.01963100868326245 
-0.1674757908289917 
-0.02731806787104704 
-0.005165303858699124 
-0.04737305942156208 
-0.02330028164440838 
-0.008717216003555428 
-0.0008608839764498539 
-0.0008608839764498539 
0 
-0.006918559726939228 
0 
-0.1898756832485585 
-0.1203065761004046 
-0.0005884838730261845 
0 
-0.0008608839764498539 
0 
0 
-0.02609613148646 
0 
0 
0 
-0.002582651929349562 
0 
0.001954248203318386 
0.1503252756625737 
-0.03590643068090486 
-0.01491451589679117 
-0.01511697029840205 
-0.01562327350160512 
-0.005165303858699124 
0 
0 
0 
0 
-0.05783233673257769 
-0.017216491032874 
0 
-0.05765038185006766 
-0.01077412080646919 
0 
-0.00791747781544477 
-0.001721767952899708 
-0.04981807315867894 
-0.01454356393965903 
-0.003443535905799416 
-0.097176548224851 
-0.0008608839764498539 
0.2840544604913868 
0 
-0.004221214431926404 
-0.0100000435451957 
0 
0 
0 
-0.01618280283881727 
-0.0008608839764498539 
0 
0.0820162746608666 
-0.07565552397055694 
0 
0 
-0.03532920475057337 
0.06557510020736565 
-0.001721767952899708 
-0.02326729124156045 
0 
0 
-0.02446318978249395 
0 
-0.01992988954349513 
-0.007747955788048684 
0 
-0.008838029739511663 
-0.001900189118771803 
0 
-0.003020412319104833 
0 
0 
0 
0 
0 
-0.0008608839764498539 
0 
0 
-0.002582651929349562 
-0.0008608839764498539 
-0.01297488376194747 
-0.01088183084451691 
0 
0.3990604446116381 
0 
0 
0 
0 
-0.04352810530014927 
0 
0 
0 
-0.01939208853736662 
0 
0 
-0.01738049462215125 
-0.1231871418765653 
0 
-0.003248485206060382 
0.05681487982070341 
-0.06618440088575808 
-0.02667171486514086 
0.06608898918494721 
-0.0009749755648592878 
-0.05367494788170163 
0 
-0.005358266648578484 
0 
-0.00430441988224927 
0 
0 
0 
-0.02785101475941729 
0 
0 
0 
-0.002067904164865135 
0 
0.329886714156807 
0 
0 
-0.03015404110466769 
0 
0.04059089439403738 
0 
0 
-0.3614875184931809 
0 
0 
0.02357747752848168 
0 
0 
0 
0.08968150994693347 
-0.1619712868601862 
-0.01442030243089184 
0 
0 
-0.0008608839764498539 
0 
0 
0 
0 
-0.06277812242684842 
-0.001562574559165846 
0 
0.09174207878572017 
-0.01027457307868283 
0 
-0.0008608839764498539 
0 
0 
-0.003618232802961044 
-0.003443535905799416 
0 
0 
0 
-0.0313963800697983 
0 
-0.04169335775863018 
0 
0 
-0.003443535905799416 
-0.0008608839764498539 
0 
0 
0 
0 
0 
0 
-0.0008608839764498539 
0 
0 
0 
0 
-0.02433159005515563 
-0.5600568797062058 
-0.01453308210751778 
0 
-0.0799747773744581 
0 
-0.02248798719681757 
0 
-0.007340063128925567 
0 
-0.0008608839764498539 
-0.04943249418680443 
0 
0 
-0.07787908699658865 
-0.005595370106843032 
-0.06765161644785035 
0 
0 
0 
0 
0 
0 
0 
0 
0 
-0.3421873343285975 
-0.0008608839764498539 
-0.4086541728411711 
0 
0 
-0.001721767952899708 
0 
-0.002582651929349562 
0 
-0.0008608839764498539 
0 
0 
0.5691052064175578 
-0.02485084448458229 
0 
0 
-0.0164125315386747 
0 
0 
0 
0 
-0.01450759207858242 
-0.001721767952899708 
-0.02426938306153174 
-0.02339652408837969 
0 
0 
0 
0.003607381081128666 
-0.009231454859451335 
0 
0 
0 
0 
0 
0 
0.05925598811102577 
-0.01201636111394282 
0 
0 
0.1271553081188072 
-0.0008608839764498539 
-0.1664475920191924 
0 
0 
-0.009913236830019335 
0 
-0.3095458994779143 
0 
0 
0 
-0.0008608839764498539 
0 
-0.04170738863822461 
0 
0 
-0.01899586176215911 
-0.01868461542667009 
-0.05946497442591366 
0 
0.0568166472560959 
-0.03645874615437349 
-0.004005221611016976 
0 
0 
0 
-0.2588454847191969 
0 
0 
-0.07482121543161947 
0 
0 
0.005681298508353441 
0 
0.1359491719994166 
0 
0 
0 
0 
0 
0 
0.285409712835569 
0 
0 
0 
0 
-0.01982082541349726 
0 
0 
0 
0 
0 
0.0238452757313252 
0 
0 
0 
-0.002582651929349562 
0 
0 
-0.000203613632518104 
0 
0 
-0.01453466122397155 
0 
0 
-0.0008608839764498539 
0 
0 
-0.006968479358175917 
0.02916124441615647 
0 
0 
-0.0008608839764498539 
0 
0 
0 
0 
0 
-0.01734451385566135 
-0.005980689468611809 
-0.003506485657379797 
0 
0 
0 
0 
0 
0 
0 
0 
0 
0 
0 
0 
0 
-0.0008608839764498539 
0 
0 
0 
-0.02902132503397263 
0 
0 
0 
0 
0 
0 
0.04244202729887332 
0 
0.01852275075991661 
0 
-0.0008608839764498539 
0 
0 
0 
-0.006107595381726064 
0 
0 
-0.0008608839764498539 
-0.0008608839764498539 
0 
0 
0.1326493662830986 
0 
-0.0008608839764498539 
0 
0 
0 
0 
0 
0 
0 
0 
0 
-0.09186175481418059 
0 
0 
0 
-0.1273164868580186 
0 
0 
0 
0.02972282747169011 
0 
0 
0 
-0.1300775853209062 
0 
0 
0 
0 
0 
-0.006177371584667316 
0 
0 
0 
0 
0 
0.005403529220652328 
0 
-0.0008608839764498539 
-0.01241525367147616 
-0.08473877404876472 
-0.0156006069653316 
-0.002064778308235645 
0 
0 
0 
0 
0 
-0.03640871094277767 
0 
0 
0 
0 
-0.1400817917994212 
0 
0 
-0.0008608839764498539 
0 
0 
-0.05514102599341621 
0 
-0.001414755237261932 
0 
-0.0008608839764498539 
0 
-0.02827437607348349 
-0.002427163586981617 
0 
-0.0152598664304147 
0 
0 
-0.0008608839764498539 
0 
0 
0 
-0.02772923363753304 
-0.03820692807138887 
-0.0008608839764498539 
-0.4399931483485666 
0 
0 
-0.0008608839764498539 
0 
0 
-0.01702723392818498 
0 
0 
0 
0 
-0.01802230722960731 
0 
0 
0 
0 
0 
0 
0 
0 
-0.0008608839764498539 
0 
0 
-0.01899586176215911 
0 
-0.004145226488515408 
0 
0 
0 
0 
-0.01116377611331964 
-0.105969192029105 
0 
0 
-0.001721767952899708 
-0.01513248622540788 
-0.0008608839764498539 
0.01757030442767882 
0 
0 
0 
0 
0 
0 
-0.003684592905062667 
0.1970930687677231 
0 
0 
0 
0 
-0.01068800384502278 
0 
0 
-0.008987605726297533 
0 
0 
0 
0 
-0.003613864008778279 
0 
0.009075603244814196 
-0.0008608839764498539 
0 
0 
0 
-0.0008608839764498539 
0 
0 
0 
0 
0 
0 
-0.0008608839764498539 
0 
0 
0 
0 
0 
0 
0 
0 
0 
0 
0 
0 
0 
0 
0 
0 
0 
0 
0 
-0.0008608839764498539 
0 
0 
0.005306195343714151 
0 
0 
0 
0 
0 
0 
0 
-0.06663439857018762 
-0.04544714816071382 
0 
0 
0 
0 
-0.2605561318526906 
0 
0 
0 
-0.0010547120702662 
0 
0 
0 
0 
0 
0 
0 
0 
0 
0 
-0.0008608839764498539 
-0.0008608839764498539 
-0.0008608839764498539 
0 
0 
0 
-0.0008608839764498539 
0 
0 
0 
0 
0 
0 
0 
0 
0 
0 
0 
0 
-0.0950883857326171 
0 
0 
-0.04391794428799895 
0 
-0.0008608839764498539 
-0.0008608839764498539 
0 
0 
0 
0 
-0.03832355626595997 
-0.01041669394311115 
0 
0 
0 
0 
0 
-0.09980881663740244 
-0.109157529654942 
0 
0 
0 
-0.001721767952899708 
0 
0 
0 
0 
0.01877389204615657 
0 
0 
0 
0 
0 
0 
0 
0 
-0.0008608839764498539 
0 
-0.002918053153682288 
-0.0008608839764498539 
-0.0306754180760334 
-0.03555998137988625 
-0.0008608839764498539 
0 
-0.0008608839764498539 
-0.1040823875235391 
0 
0 
0 
0 
0 
0 
0 
-0.009431054302753325 
0 
0 
0.02091305149457893 
0 
-0.115829856090338 
0 
-0.009279839722234945 
0 
0 
0 
0 
0 
0 
-0.08361463485445625 
0 
0 
0 
-0.02343356467978917 
-0.05409040932074041 
-0.04143757781835331 
0 
-0.0008608839764498539 
-0.0008608839764498539 
0 
0 
0 
-0.0113965465741577 
-0.02297378107720301 
0 
0 
0 
0 
0.01138949506305862 
-0.04030264047154612 
0 
0 
0 
-0.04020883781502527 
0 
-0.04894379947081934 
0 
-0.0008608839764498539 
-0.01884596173429159 
0 
0.005681298508353441 
0 
0 
0 
-0.3930774955904651 
-0.00118012431543267 
0 
0 
-0.07189803909263252 
-0.01661430979918585 
0 
0 
0 
0 
0 
0 
0 
-0.01885488888556845 
-0.001721767952899708 
0 
0 
0 
0 
0 
0 
0 
-0.0008608839764498539 
0 
-0.01691877222033764 
0 
0 
0 
0 
0 
0 
-0.02446318978249395 
0 
0 
0 
0 
0 
0 
0 
-0.0008608839764498539 
-0.0228041519434001 
0 
-0.241918104750046 
-0.06683844455371109 
-0.0008608839764498539 
0 
0 
0 
0 
0 
-0.008223863360554574 
-0.06852160475941277 
0 
0 
0 
0 
-0.006166905439725388 
0 
0 
0 
-0.01737300431912589 
0 
0 
0 
0 
0 
0 
0 
0 
0 
0 
0 
0 
0 
0 
0 
0 
0 
0 
0 
0 
0 
0 
0 
0 
0 
0 
0 
0 
0 
-0.0003807157072231202 
0 
-0.0008608839764498539 
0 
0 
0 
-0.05039489722373044 
-0.0008608839764498539 
0 
0 
0 
0 
0 
-0.01385081816489538 
-0.292087881563094 
-0.009431054302753325 
0 
0 
0.1692107687272363 
0 
0 
0 
-0.0008608839764498539 
-0.0008608839764498539 
0 
0 
0 
0 
-0.04306986469585452 
0 
0 
0 
0 
0 
-0.04423827279660967 
0 
0 
0 
0 
-0.006878723983784389 
0 
0 
-0.01415735684456495 
0 
0 
0 
0 
0 
0 
-0.007843288370842614 
0 
0 
0 
0 
0 
0 
0 
0 
-0.04705318858146295 
-0.01604889561989087 
0 
0.01917400330840096 
0 
0 
-0.0008608839764498539 
0 
0 
0 
0 
-0.02674817936997575 
-0.04858134583942975 
0 
0 
0 
0 
0 
0 
0 
0 
0 
-0.0008608839764498539 
0 
-0.03348886368165533 
0 
-0.01007107177580618 
0 
0 
0 
-0.0450002279447459 
0 
0 
-0.0008608839764498539 
0 
-0.09831489318174286 
0.3883249728149726 
0 
0 
0 
-0.003612074472747816 
0 
0 
0 
0 
0 
0 
0 
0.009306511104092686 
0 
0 
0 
0 
0 
-0.001721767952899708 
0 
-0.001548642637673979 
0 
-0.0008608839764498539 
0 
-0.005472777897301176 
-0.01225324190835227 
0 
0 
-0.02042523444341463 
0 
-0.0008608839764498539 
0 
0 
-0.002565107573741223 
0.03556382121438297 
0 
0 
0 
0 
0 
0 
0 
0 
0 
0 
0 
0 
-0.03401997755733307 
0 
0 
0.02866377973198566 
0 
0 
-0.0008608839764498539 
0 
0 
0 
0 
0 
0 
0 
-0.01394042340255406 
0 
0 
0 
0 
0 
0 
0 
0.1139863616875764 
0 
-0.0008608839764498539 
0 
-0.03338190817351341 
0 
0 
-0.01117574133287744 
0 
0 
-0.005711076074607622 
0 
0 
0 
0 
-0.0008608839764498539 
-0.0193035772338466 
0 
-0.001647139416847228 
0 
0 
-0.0008608839764498539 
0 
0 
0 
0 
-0.002053384040896424 
0 
-0.1067422821135267 
0 
0 
0 
0 
0.02713146525674953 
0 
-0.01565451625732886 
0 
-0.0008608839764498539 
0 
-0.0008608839764498539 
0 
0 
0 
0 
0 
0.01006644128712515 
0 
0 
0 
0 
0 
0 
0 
-0.1815348524476089 
0 
0 
0 
0 
0 
0 
0 
0 
0 
0 
-0.1188081172400803 
0 
0.09257275310651741 
0 
-0.0008608839764498539 
0 
0 
0 
0 
-0.01260642665353537 
-0.004283628113149046 
0 
0 
0 
0 
0 
0 
-0.01703923940888219 
0 
-0.007518621331469336 
0 
0 
0 
0 
0 
0 
0 
0 
0 
0 
-0.0008608839764498539 
-0.01702723392818498 
0 
0 
0 
0 
0 
0 
0.0177364939320728 
0 
-0.14930593633732 
0 
-0.0008608839764498539 
0.002413094783990924 
0 
-0.01635423012210481 
0 
0 
-0.0008608839764498539 
0 
-0.0009505379017491253 
0 
0 
0.01582079334356349 
-0.01624086364341291 
-0.03221966952813737 
-0.0008608839764498539 
-0.009322578814273451 
0 
0 
0 
0 
0 
-0.0008608839764498539 
0 
0 
-0.08715063429145328 
0 
0 
-0.01116377611331964 
0.1486597676886284 
-0.03778024057931399 
0 
0 
0 
0 
0 
0 
0 
0 
0 
-0.06150667273704728 
0.3052657435511855 
0 
0.03623415541586085 
0 
-0.0008608839764498539 
0 
0 
-0.09839136015855397 
0 
0 
0 
0 
0 
0 
0 
0.009122383124466832 
0 
0 
0 
0 
0 
0 
0 
0 
0 
0 
0 
0.2553250469937829 
0 
0 
-0.0949465119714781 
-0.03578149046124685 
0 
0 
0 
-0.0008608839764498539 
-0.004349089557923558 
0 
0 
0 
0 
0 
0 
-0.002427163586981617 
0 
0 
0 
-0.0008608839764498539 
0 
-0.0008608839764498539 
-0.0008608839764498539 
0.1210149100660072 
0 
0 
0 
0 
0 
-0.006928479548792817 
0 
0 
0 
0 
-0.05404077035177339 
0 
-0.0138462906115502 
0 
0 
0 
0 
0 
-0.0725506155412234 
0 
0 
-0.06234303460354619 
0 
0 
0.03418846730748788 
0 
0 
0 
0 
-0.0008608839764498539 
0 
0 
-0.01680713055411025 
-0.0008608839764498539 
0 
0 
0 
0 
-0.008999657119403369 
0 
0 
0 
0 
0 
-0.01237988956878605 
-0.006177371584667316 
0 
0 
0 
0.006133556182699322 
0 
-0.0008608839764498539 
0.03556382121438297 
-0.0008608839764498539 
-0.01510215611785691 
0 
0 
-0.1185957146633229 
0 
0 
0 
0 
0 
0 
-0.02902935840257845 
-0.003978769135334006 
0 
0 
0.006817131226628406 
0 
0 
-0.0008608839764498539 
0 
0 
-0.02582523047257507 
0 
0 
0 
0 
0 
0 
0 
0 
0 
-0.0128593275584123 
0 
0 
0 
0 
-0.02402789140363456 
-0.0008608839764498539 
0 
0 
0 
0 
0 
0 
0 
0 
0 
0 
0 
-0.02554576136271809 
-0.0008608839764498539 
0 
-0.03201675775159983 
-0.05596019502390916 
0.01231295989368038 
0 
0 
0 
0.007122092516949604 
0 
0 
-0.0008608839764498539 
0.03565511343902539 
0 
0 
0 
0 
0 
0 
0 
0 
0 
0.00214157802574644 
0 
0 
0 
0 
0 
0 
0 
-0.3019953552421792 
0 
0 
0 
0 
0 
0 
-0.0008608839764498539 
-0.009038630337989342 
0 
-0.01318527417520281 
0 
0.06268507438290205 
0 
0 
0 
0 
0 
-0.0008608839764498539 
0 
0 
0 
0 
0.02632396444975517 
0 
0 
0 
0.0288220326133717 
-0.07960178298621153 
0 
-0.0008608839764498539 
-0.0008608839764498539 
0 
0 
0 
0 
-0.008206060060526023 
0 
-0.01549746357512731 
0 
-0.01485689934300174 
-0.0008608839764498539 
0 
0 
-0.1062028344022882 
0 
0 
0 
0 
0 
-0.0008608839764498539 
-0.0008608839764498539 
0 
0 
0 
0 
0 
-0.003727766420116615 
0 
0 
0 
0 
0 
0 
0 
0 
0 
0 
0 
0 
0.02910731617867545 
0 
-0.0008608839764498539 
0 
-0.01011095632505715 
-0.0008608839764498539 
0 
-0.01646149094178146 
0 
0 
0 
0 
0 
0 
0.02326408486661161 
0 
0 
0 
0 
0 
-0.0008608839764498539 
0 
0.0004143399434861924 
0.01417524710817768 
0 
-0.0008608839764498539 
0 
0 
0 
0 
0 
-0.0320829547554775 
-0.09557427023469732 
-0.005290856596435828 
0 
0 
-0.03785411815519901 
-0.02656680849509641 
0 
-0.4624498150794406 
0.005837129813941051 
0.1279860856588056 
-0.03978875806465432 
-0.07336049863395636 
-0.001312008593730886 
-0.01376051588905783 
0.007872721241096729 
-0.4344482610682485 
0.001065648911121965 
0 
0 
-0.04979485560507879 
-0.06938532143716086 
-0.1492739317952993 
-0.400621931351889 
-0.004376388788412631 
0.1777055025854963 
0.01136839468625655 
-0.09626123777941979 
0 
0 
0.001512826192373944 
-0.02446318978249395 
0 
-0.1285777410521581 
0.00481776443028284 
-0.05421233222524181 
-0.0003887968622067314 
-0.1038547935122953 
0 
0 
-0.0008608839764498539 
-0.01668752936070677 
-0.01574688385606436 
-0.08589863271407867 
-0.2507235146190041 
-0.02833161162955326 
0 
0.1184298333618596 
0 
0.0841625867115985 
0.199781277842887 
-0.001724243264327471 
-0.04207262351727193 
0 
0 
0.004210575890648029 
-0.0387833026150465 
-0.002867614572214048 
-0.04684681342657352 
-0.01888205684555335 
-0.1182601694757488 
-0.1295665703026899 
0.3336110963682171 
0 
-0.001400428827802245 
0 
0 
-0.03768712865847474 
0 
0.4508840084835506 
-0.02593168130270481 
-0.01792669384818775 
-0.2170435165689248 
0.2256818733851358 
0.04615163247344362 
-0.07115027836256403 
0 
-0.08098982265641833 
-0.4225188937348075 
-0.125275941165782 
0 
-0.2533394121020623 
-0.01699883492353836 
-0.002319446023566671 
-0.01718029355233213 
-0.0002574375878770497 
-0.2080193851768039 
-0.0549670517073219 
-0.01524927788765538 
-0.05854943330917965 
0 
-0.01454659200666123 
0 
0.05015416081459267 
0 
0 
-0.1378913163771721 
0.002839108026504837 
0 
0 
-0.5011040951192509 
0 
-0.009435947782726294 
-0.03395087193420998 
0 
-0.1122465388560696 
0 
0 
-0.06338472801441371 
-0.02714761122123696 
0.002987306480641581 
-0.009337369414821583 
-0.1234009486981207 
0 
0 
-0.002365832871579552 
0 
0.1248003254727022 
-0.002241939023511164 
0 
0.06720656229518114 
-0.08683310807397539 
-0.04034840022571361 
0 
0 
0 
0 
0 
0 
-0.1157581411481821 
0 
-0.03575521284026629 
-0.2287347223184308 
-0.1059618157068237 
-0.03202812453992612 
-0.02933689107733176 
-0.279206514886379 
-0.0008235559029378123 
0.08504001021761225 
0 
0.01329754143584906 
-0.01466844553866588 
-0.04726518855193255 
0 
0 
-1.265249229814692 
0 
-0.0811267012794719 
-0.01445474844342824 
-0.03303032779966084 
-0.9697731059269735 
0 
-0.02057530897833013 
-0.009134684286326676 
-0.003512302955323952 
-0.04775008594452322 
-0.1314191132011473 
-0.000203613632518104 
-0.5819110035368485 
-0.03298196060226556 
-0.186429359814977 
0.007395917922784344 
-0.09834724673223265 
-0.01677720714542221 
0 
0.03055767725523718 
0 
-0.02289744134967705 
0 
-0.1012772173253209 
-0.07362786716985496 
0.007878160589310797 
-0.231334860605893 
-0.05528992457771138 
0 
-0.05827338886535904 
-0.01345648323705338 
-0.01533049885100461 
0 
0.03415341634631607 
0 
0.02237821238664398 
-0.2113883879839674 
0 
0.04854297720739841 
0 
0 
0.007129075008580447 
-0.2388667424656472 
0 
-0.01179468368644217 
0 
-0.08907734114876857 
0.03933582563473375 
-0.01421322976526281 
0 
0.07788927515416018 
0.02639512908647372 
-0.1529335517380049 
-0.009920184286600308 
0 
-0.1242826607160167 
-0.1013816970596698 
-0.004702939671888989 
0 
-0.3903037185712271 
-0.5040278193488229 
-0.1115274175904612 
-0.06492223507818909 
0 
0 
0 
0 
0 
0 
0 
-0.01648182197345907 
0 
-0.002954015981174256 
-0.1195104463141852 
0.1946792190892717 
0 
-0.01698163194749995 
0 
-0.008299027647249341 
-0.03625760104957329 
0 
-0.1077516188267141 
-0.1944444662594567 
0 
-0.003219133819513267 
-0.01904693470987204 
-0.006107595381726064 
0 
0 
0 
0 
0 
0 
0 
0 
0 
-0.07138884364400049 
-0.2731297433832937 
-0.004736751956922563 
0 
-0.0202011457624332 
0 
0.2366460253774962 
0.07504282259219619 
-4.135837802843946 
-0.560555550172521 
-0.009041371860899792 
-0.1769070812512742 
-0.01933289431074252 
-0.09189329750246963 
0.01445328475039677 
-0.3399858450311113 
0 
0.02032935316065955 
0 
-0.007129671456458412 
0.01550001372108436 
-0.06374577366651274 
0 
-0.1030241236579501 
-0.04045740094189745 
-0.05743994748006537 
-0.06070120265978736 
-0.03418430601560569 
0 
-0.1691483104119226 
-0.00211501306056886 
-0.1711731765478757 
0 
0 
-0.02231516077263664 
-0.02231516077263664 
0 
-0.07459451533480001 
0 
-0.04749166333858664 
-0.2262432819792495 
-0.03384840729818443 
-0.0228041519434001 
0.9553092713743118 
0 
0 
0 
0 
0 
0.006830463839659402 
0 
0.003615908450989052 
0 
-0.003289095586750083 
0.2915227078377908 
-0.1359684396164882 
0.0009471532054305677 
-0.0008608839764498539 
-0.0325307349437491 
2.142100218547921 
-0.019783348826273 
-0.001201449634054196 
-0.01251524340660789 
0 
-0.02162252887870046 
0 
-0.1129444698255419 
0 
0.1084733666429157 
-0.2559861124374975 
0 
-0.01272493935009438 
-0.1846898467925649 
-0.003363306589881676 
0 
0.02694141766345067 
0.02928695928362783 
-0.1656343678695749 
-0.06284050523791425 
-0.09826688387299728 
-0.3849850426772318 
-0.02390229023086884 
-0.001654786766130226 
0 
0.02121940109652129 
0.0172824251254019 
0.002513538109055129 
-0.03244437459507028 
-0.08802910950370295 
-0.1103020547181938 
0.02990855719068036 
-0.06078286256310041 
0 
0.07123366753692625 
0.01829323579738565 
-0.01998186443597089 
-0.1366986653360055 
0 
-0.1868260858256608 
0.1147946868850683 
0.07673556204057688 
0 
0 
0 
0 
0.02721372753305137 
0.006585323046663451 
-0.08125161420687896 
-0.2244335574950825 
-0.01055425813610139 
-0.1134052248211234 
0 
0 
0.003873877150794861 
-0.009345622441407943 
-0.5006569505833335 
-0.05931018098527734 
0.1080624220034528 
0 
0 
-0.04778883876241986 
-0.003631562082089177 
-0.03002479852916254 
-0.02040810609915033 
-0.01392280970939613 
0 
0 
0 
0 
-0.02914428651592752 
0 
0 
0 
0.8061052847006569 
0 
-0.1556677899880426 
0 
0 
0 
0 
0.4264766119619851 
0 
0 
-0.01540978350690704 
-0.05054838755020895 
0 
-0.05420762272630252 
0.01952282403912962 
-0.0944510669893603 
0.01012640775691326 
-0.03745920341118473 
0 
-0.03747705518844504 
-0.00889857637817448 
-0.02512058922704344 
-0.004612629337870979 
0 
0.01165546049195486 
-0.004380049349979685 
-0.009282201265373097 
-0.06666051117396389 
0 
-0.04163212448464374 
0 
0 
0 
0 
0.0271361328761671 
0.004690368981055796 
0 
0.08344293605346244 
-0.5949715347961567 
0.03367915779391067 
0.01018043781651008 
0 
-1.081116386328621 
-0.00598498648817187 
0.05419926883175896 
-0.07592098497363517 
-0.02048565521291064 
-0.2130705033357733 
-0.05471486058117974 
0 
-0.007369561877530748 
-0.008861322850421818 
-0.2607136416663852 
-0.5613861424226277 
-0.01179765150562572 
0 
0 
0 
-0.002766753495291161 
0 
-0.02217397927301092 
0.01856571967902735 
0 
0.05458863797292063 
-1.226681719944601 
-0.002267125030891137 
0 
-0.02151316914419678 
0.05011020141894522 
0.04917446870904602 
0 
-0.2969084154373058 
0 
-0.06703227295042606 
-0.04741453166913887 
0.01736258243819093 
0.04015133129847286 
0.01546986125210123 
0 
0 
0 
-0.0006765382966526913 
0.008040024880837214 
-0.06004045358658533 
-0.02361198243245327 
-0.005217221100431393 
-0.005003901613034413 
-0.008143844543654166 
0 
0.2516765561781393 
-0.06151760847421614 
0 
0.1845730838807292 
0 
0 
0 
0 
0 
-0.1112441420878178 
0.009585778285652749 
0 
0 
-0.1421925853653716 
-0.01443672407017443 
-1.992292172534014 
0 
0.02625127520989287 
0 
0 
0 
0 
0 
0 
0 
-0.1139066885919862 
0.3072772761870552 
0 
0 
0.01681305811784766 
-0.05075413335817806 
0 
0 
-0.0006470093292698044 
-0.0008608839764498539 
0 
-0.03813138806054819 
0 
-0.1247096581394495 
0 
0 
0 
0.05791410658708411 
0 
0 
0 
0 
0 
0 
0 
0 
-0.0805742247634065 
0 
0 
-0.02306102934404803 
0 
-0.1365062927467958 
0 
0.191712978625263 
-0.1108447687722195 
0 
0 
-0.6837621943073406 
0 
0 
0 
-0.02219375059760828 
-0.01609526705646422 
0 
0 
0 
0 
-0.8879099902204814 
0.01833422385114555 
0 
0 
-0.1889024239745387 
-0.03093299264706118 
0 
0 
0 
0 
0 
-2.370603308133711 
-0.0005578501813354949 
-0.008382302634540812 
-0.08895968852516024 
0.003900022550704666 
-0.09568988047977771 
0 
0 
-0.06766919940074824 
0.002807411125754713 
-0.04565837907433344 
-0.01351805780404599 
0 
-0.1330006589466363 
-0.001629922452052164 
0 
0 
0 
0 
-0.1190314214405586 
0 
0.000369150847932971 
0 
-0.01044874427634475 
0 
-0.001807148762794904 
-0.05813749277007643 
-0.001312008593730886 
-0.00325999642219306 
-0.3484984570007788 
-0.08765598649402025 
0 
0 
0 
-0.01054082102560258 
0.2868660718032311 
0.04210735378054832 
0.019941820146266 
0 
-0.1329247743699632 
0 
0 
-0.006143237796981163 
-0.002533988318647972 
0.04319939105840674 
-0.09218421848750076 
-0.002982607086458566 
0 
-0.007393031009040485 
-0.02485226193851421 
-0.08228721710071743 
-0.0918819105564348 
0 
-0.161052929884273 
-0.02058213079805097 
0.05325603261818217 
-0.05398539241140494 
0 
-0.01955061648041607 
0 
-0.08562674244953586 
0.07507960891575602 
0 
-0.02690730227771553 
-0.2679015363810311 
0 
0 
-0.0008608839764498539 
0.03894118230996794 
-0.3845252601317597 
-0.2551372841412898 
0 
0 
0 
0 
-0.03177168672938664 
0 
0 
0 
0 
-0.01900361285541957 
-0.09940565677152455 
-0.01616119393179221 
-0.1991227195872732 
-0.1404415670420091 
-0.01598091023983935 
0.02149551975803788 
-0.0004841297514161156 
0 
0 
0.03476538506207299 
-0.1822325888340363 
0 
0.06943227728287761 
0.006015706803719716 
-0.1342802436467259 
-0.0830526892085891 
-0.001316657318886066 
0 
0 
-0.02025587022062212 
-0.007447344381116996 
0 
0 
-0.006726613179763351 
-0.1051253219926895 
0 
0.02050853741469996 
-0.002498822693075923 
-0.03361266379655557 
-0.01001919538672733 
-0.1355877501593817 
-0.04596657941213066 
-0.5103430010240723 
0.05680680093366883 
-0.1071220643698327 
-0.05529530845895683 
0 
0 
-0.07450744362880211 
0 
0.06272244155516368 
-0.2253324829177452 
-0.06266512646455848 
0 
-0.02653331134956693 
0.02349518137241778 
0 
-0.06027007502404408 
-0.6534257061055206 
0.002887437786165789 
0 
0 
0 
0 
0.1841863932383524 
-0.0008608839764498539 
0.003607381081128666 
0 
0 
-0.04950268785154524 
-0.2395858632307296 
0 
-0.04007646929031159 
0 
-0.1851800752797461 
0.03899612006516795 
-0.01014667823486753 
0.008385261941610973 
0 
0.01300310356007486 
0 
-0.002825721403584639 
0 
0 
0.00610983280509883 
0 
0.01779951488717872 
0.009535838117927856 
0 
0.006650510815810469 
0 
0 
0 
0.2359368114823054 
-0.121294457149494 
-0.001798958147177275 
-0.1490618565146534 
-0.009369414983064749 
0 
0 
0 
0.02879180639874875 
0.03461095136050102 
0 
0 
-0.007011613570697434 
0 
-0.1398530521596708 
0.1043475145910678 
0.04021054686332239 
0.07096079995524586 
0 
-0.03932113396426455 
0 
-0.01609697934611173 
0 
-0.03341593921107526 
0 
-0.0001876300321766455 
-0.02195575997593086 
0 
-0.1008980303182977 
0.06448789775465535 
0.01440390116471632 
0.06493670407374377 
-0.009309841602467769 
-0.2981195000353506 
-0.168574495071055 
0.003607381081128666 
0 
0.04407711917433001 
-0.03430938199417773 
0 
0.05258750461694531 
-0.04231732708435451 
-0.7789998456924644 
-0.07651785137579674 
-0.0218462148986964 
-0.2017321274088947 
0 
0.01486158658756946 
0 
0 
0 
-0.07823909091248299 
-0.01865119897820281 
0 
-0.02668090650993713 
0 
-0.05914203409055296 
0 
-0.009878691598804844 
0 
0.003883510172344925 
0 
-0.134972101073408 
0 
0.02483449475136601 
0 
0 
-0.01706446624840614 
-0.004005221611016976 
0.09046592405301936 
-0.00317694914573047 
0 
0 
0 
-0.005657825535723215 
0.03499145789266862 
-0.02261767183520038 
0 
-0.3072830696397309 
-0.01009459605378934 
0 
0 
0.06729864528218638 
0 
-0.07800300098244287 
-0.3006949634047932 
0 
-0.2429659892959109 
0 
-0.07216905308520359 
-0.01596715711041384 
0.01575522646768709 
-0.2672353901885126 
0 
0 
0.01567767457448517 
-0.01668849714558899 
0 
0 
-0.04124903670532763 
-0.02903721323425001 
0 
-0.01879356138677941 
-0.14505487842471 
0 
0 
0.0007964757974949159 
0 
-0.03021690807862175 
0.6207930921877965 
0 
0.04488165620911361 
0 
0 
-0.01342528693032304 
0 
0.04695667440495947 
-0.01152625466909551 
0.03867747033867492 
-0.008736296842689666 
0 
0 
0 
0 
0 
0 
0 
0 
0 
-0.04230165120476126 
0.06172406377975585 
0 
0.001169702264598527 
-0.001363158668250113 
-0.06956906067941693 
0 
-0.07669030112140204 
0 
-0.03481946626781415 
-0.01430580675885939 
-0.01069469717017558 
0 
-0.006109325836281698 
-0.008265355444549217 
0 
0 
0.02604068789761884 
0 
0 
0 
0 
-0.8093923764146534 
0 
-0.04624164812608261 
-1.726428485443849 
0.005059698322657318 
0 
0.2158671367004814 
0 
0.03648481102887467 
0 
-0.04919904837287779 
0 
0 
0 
0 
0 
0 
0.006133556182699322 
0.09316847755295761 
0.04923805640747084 
-0.01455471272649623 
0.0002002257961138427 
-0.01103558808108135 
-0.01102148847623802 
0 
0 
-0.006336730817981346 
0 
-0.00601918776265394 
-0.01514923600418953 
0 
0 
0.00124468937737509 
0.4071736749124389 
0 
0 
-0.006339241930399903 
0 
-0.1282785427818042 
-0.003842426659727696 
0 
-0.08331982723660752 
0.01425123244456739 
-0.03372872462170783 
-0.001858596287006279 
-0.04275999034432226 
-0.1896287776855601 
-0.006316670684984411 
-0.006053617383682267 
0 
0 
-0.2539267433420072 
-0.003293421994762959 
-0.09585235043184856 
-0.005877767113675166 
0 
-0.01710612285124468 
0 
-0.2828989349227786 
0.002858842207169548 
0 
0 
0 
-0.03557833043634442 
0 
0 
0.003634844521558913 
0 
0 
0 
0 
0 
0 
-0.03450688412729217 
-0.04220403070103282 
-0.0006270677323158818 
0 
0 
0 
0 
0 
0 
0 
-0.01019936532590745 
0.1128214770072336 
-0.09823078739176161 
0 
0 
-0.07360327200857139 
-0.2100150240853992 
0 
0 
-0.01711520061267694 
-0.1098448035646612 
0 
0.02642792766067477 
-0.02840763179862935 
-0.1154538580984006 
0 
-0.01408147695076256 
0.007688973701848926 
0 
0.06880808357446946 
0.01711123290080072 
-0.004754094104372957 
0 
0.005496524653141113 
0 
-0.02181332088980966 
0.004224334526797627 
0 
-0.01653005932558893 
-0.197950640311873 
0 
0 
0.004202782433215249 
0.1449580837116904 
-0.01794916494081127 
0 
0 
-0.000203613632518104 
0 
-0.1289550888706494 
-0.002841526105219872 
-0.008432871577200225 
-0.001548642637673979 
-0.02049323545616615 
0 
0 
-0.03888431630156581 
0.008293608905962644 
0.07797962918080846 
0 
0 
-0.2253167148381371 
-0.00273460122184722 
0 
0 
-0.05403488029725463 
0 
-0.0305197328608294 
0.068466847211269 
0 
0 
0 
0 
0 
0 
0 
0 
-0.04020411626114327 
-0.05743962316950808 
0 
-0.01108129301383156 
0 
0 
0 
-0.1019578876711757 
-0.001850597236821809 
0 
-0.02233501329555133 
0.03566484154163103 
0.1198098913795446 
-0.02124597508520889 
0.06423612231100806 
-0.0008608839764498539 
-0.1178992286818911 
-0.04102888019096049 
-0.140739824610714 
0 
0 
0 
-0.005756742451811897 
0 
0.02377397726102077 
-0.01313757289462245 
-0.05001130592956364 
-0.1858841871545228 
-0.002365895747613417 
0.05292920216551111 
-0.2653125220007799 
-0.4628868909302272 
0 
0 
-0.01383358695279075 
0.01135111776393994 
-1.442959918011752 
-0.205252893747572 
0.08370670261472743 
-0.05402510545309751 
0 
-0.0001866279315919386 
-0.1004428559951938 
-0.01646565792015597 
-1.207054854992322 
-0.9308326664348906 
-0.004054779508573167 
-0.00609366216773003 
-0.003577892356789575 
-0.002341591652168523 
-0.4306657011435394 
-0.1502423680720577 
-0.03382376746062325 
-0.01339649739144658 
-0.02385698328183143 
-0.009489751687934226 
-0.03216466976013299 
-0.1018212787603776 
0 
-0.08452768590344929 
-0.001789799288820924 
0.03412535666170172 
-0.00133544640212074 
-0.09402606070397194 
-0.1688402854210006 
-0.07848355770986658 
0.01887427330033538 
0 
-0.05440739460839115 
0.04912687901495962 
0.1995642198454695 
-0.1010896242008939 
1.535241463112683 
0.00481776443028284 
-0.3287320111398877 
0.06299421048992501 
0 
0.05414174388561031 
0 
-0.02766954565750109 
0 
-0.06962583476495071 
-0.2287821760433991 
-0.03335277146814896 
0 
-0.007923951608817641 
0.04493780906684159 
0.08928615574751637 
-0.1277672843295695 
0.2845562373824391 
-0.2240825772876624 
0 
-0.08428676339507071 
0 
0 
-1.97220757294311 
0.02596976926596157 
-0.002642677365835914 
-0.1955765641422769 
-0.004232351760580632 
0.03445813671848848 
0.0164516772306552 
0 
-0.001857333542411177 
-0.08158195523328335 
0 
-0.03887837000546621 
-0.1440487036198973 
-0.0526688422052818 
-0.01741042681375414 
-0.02912579512608173 
0.04076829036054678 
0 
-0.02954324843169323 
0 
0 
0 
0 
-0.007138154910578846 
0 
-0.1113264510839699 
-0.03359967522663598 
0 
0.5098323251368178 
0 
-0.0004841297514161156 
0 
-0.01971922595148208 
0.2105276681664633 
0 
-0.05858578566117734 
0 
-0.008771131094097799 
-0.01525220786789256 
0 
0 
0.00132505315870187 
-0.03462953158817501 
-0.1919481884017456 
0 
0 
0 
-0.07139590198264875 
-0.01538906507391571 
0 
-0.03891788164500352 
0 
-0.7890543450278175 
-0.1558879254891856 
0 
0 
0 
-0.09414255055284758 
-0.06814884087850273 
-0.4454752032764318 
-0.001732681896936812 
0 
0 
0 
-0.01013487530995357 
0 
-0.3948353572788835 
0 
0 
-0.1658097976675294 
0 
0 
-0.186936879483318 
-0.002267125030891137 
-0.01608084487266546 
-0.0520872163937687 
-0.1542071517026888 
0 
-0.07707020644127378 
0.0004143399434861924 
-0.003781511982249648 
0 
0 
0 
-0.008800448437029658 
0.001596363710290565 
0 
0 
0 
0 
0 
0 
0 
0 
0 
-0.04469600291115327 
0 
0 
0 
0 
0 
0 
0 
0 
-0.01829609284979677 
0 
0 
0 
0 
0 
0 
0 
0 
0 
0 
0 
0 
-0.009667110688542001 
-0.002383746805342335 
0 
-0.005772465882256233 
0 
0 
-0.0008608839764498539 
0 
0 
0 
0 
0 
0 
0 
0 
0 
-0.007221897107780074 
0 
0 
0 
0 
0 
0 
0 
0 
0 
0 
0 
0 
-0.0008608839764498539 
-0.01749281300792729 
0 
0 
0 
0 
0 
0 
0 
0 
0 
0 
0 
-0.01565451625732886 
0 
0 
0 
0 
0 
0 
0 
0 
0 
0 
0 
0 
0 
0 
0 
0 
-0.02024845472858112 
0 
0 
0 
0 
0 
0 
0 
0 
0 
0 
0 
0 
0 
0 
0 
0 
0 
-0.0008608839764498539 
0 
0 
0 
0 
0 
-0.01405363192034132 
0 
0 
0 
0 
0 
0 
0 
0 
0 
0 
0 
-0.005513043469638868 
0 
0 
-0.0003887968622067314 
0 
0 
0 
0 
-0.007320526334452398 
0 
0 
0 
-0.0008608839764498539 
0 
0 
0 
0 
0 
0 
0 
-0.0325580844071408 
0 
0 
0 
0 
0 
0 
0 
0 
0 
-0.02505174507406873 
0.0498778209631385 
0 
0 
0 
0 
-0.02898050081016427 
-0.01874024623370675 
0 
-0.00395912200224829 
0 
-0.03504632058751202 
0 
0 
0 
0 
0 
0 
0 
0 
0 
-0.05610063370042793 
-0.02914666883994945 
0 
0 
0 
0 
0 
-0.03979365804185768 
0 
0 
0 
0 
0 
0 
0 
-0.0007002144139011227 
0 
0 
0 
0 
0 
0 
0 
0 
0 
0 
0 
-0.0008608839764498539 
0 
0 
0 
0 
-0.0008608839764498539 
0 
0 
0 
-0.0008608839764498539 
0 
0 
0 
0 
0 
0 
0 
0 
-0.00144730876625952 
0 
-0.03301875326046087 
0 
0 
0 
0 
0 
0 
0 
-0.06322558439425877 
0 
-0.0005754565629165777 
0 
0 
-0.01030531430949397 
0 
-0.03307261962417877 
0 
0.04838229797218675 
0 
-0.08507791785940895 
0 
-0.01237430043842293 
-0.002364890141490169 
-0.1150660944433233 
-0.03975958446240489 
-0.03825495818408276 
0 
0 
-0.03055785012473831 
-0.001824247137318525 
-0.1494991466782828 
0 
0 
-0.1845347426198318 
0 
0 
-0.03886135001422567 
0.01949717761856641 
0 
-0.09137410387142564 
-0.03963288646606733 
0 
0 
0 
-0.0207612310648349 
0.03087419271212669 
-0.06340418768646432 
0 
0 
0.001826614418199379 
0.03942245422719879 
-0.01322538434011013 
-0.0162001801075608 
0.02992480301800504 
0.04921218258645622 
0 
0 
0 
0.527154017716658 
0 
-0.003505326683232927 
-0.05723604432438696 
0 
-0.429276943546358 
0.06909231617499892 
0 
0 
0.004274930187639537 
0 
0.04490786468491673 
-0.03286994128185905 
0 
-0.003033672882691468 
0 
0 
0 
-0.05196525619707823 
0 
-0.09121717939386857 
0 
-0.006322793087485166 
-0.0111511836130678 
-0.02046529981378378 
0 
0 
0 
-0.03310953676621423 
0 
0 
-0.007340063128925567 
0 
0 
0 
0 
-0.05608183813856542 
0 
0 
-0.4877119013585993 
0 
-0.04103273543631472 
0.06891344678393252 
0 
0 
0.08795521206598467 
-0.1008783100976144 
-0.05524088768434478 
-0.008455218061846627 
-0.006383204993298561 
-0.007879460057240266 
0.06196325936629058 
-0.1639637652842664 
-0.006578746589742782 
0 
-0.005385765501761795 
0.03667137274426752 
-0.007118130512729351 
-0.02228882182562751 
0.1596977051663982 
0 
-0.02636372801008465 
0.01458029710908312 
-0.01248362823868771 
0 
-0.05515108086656847 
-0.01208327571719996 
0 
-0.0004960677792650965 
0 
-0.2707858176374946 
-0.1269179077626469 
-0.01217360069660263 
0 
0 
-0.1757811178671066 
0.008405386880990306 
-0.06184580504479071 
-0.03838644005959413 
0.005544922161705911 
-0.1036456852066888 
-0.1123401461293576 
0.003649057583306335 
-0.1411044893730879 
-0.01244030770043016 
0.01006937230800888 
0 
0 
-0.07995693742613391 
-0.0005884838730261845 
0 
0.03438864149123032 
0.04734732594653892 
-0.3627610958076919 
0 
0.005132733851458997 
0 
0 
0 
0 
0 
-0.03996693266922957 
-0.2941113803939865 
0.01466254725368373 
0 
-0.000203613632518104 
-0.02296827467429115 
0 
0.007937874696184684 
0.0556189728686691 
0 
0 
0.05183072992136252 
0 
0 
-0.1432365094050675 
-0.04970391409883565 
-0.1814277355278217 
-0.001671194914766384 
-0.02530518727726302 
-0.06382336975725547 
0.00134944602727945 
0.04560558121939531 
0.002855819447053945 
-0.1149596052504902 
-0.02374757941672691 
0 
-0.07736459272017636 
0 
-0.01659203871475491 
-0.002578931840350219 
0 
-0.07887408508000186 
0 
-0.06836535861840165 
-0.00941487022016897 
-0.007319395573971774 
-0.1360048955109703 
-0.7434111855972455 
-0.1873255850227724 
0 
0.02417768217887199 
-0.3910545365600639 
0.02290374773957277 
0 
0 
0 
0 
-0.106177513733924 
0 
0 
0 
0.2264918580974997 
0 
-0.02876530513157866 
-0.01104986898134664 
-0.05112223166200714 
0 
0.01706656456878931 
-0.07817068333599567 
-0.02390523148149212 
-0.003453320399516102 
0 
-0.09081593899492332 
-0.2433964988497744 
-0.001143897267523142 
0 
-0.04769551598232118 
0.3756599887831789 
0.001248414453405104 
-0.001827477671208477 
0 
0 
0 
0.1767182710106353 
-0.04933117695256129 
0 
0.002948670505711163 
-0.003053631183985046 
0 
-0.03047931300367193 
0.03582467974489177 
-0.04009117816804005 
0 
-0.04182776086813399 
0 
0.08453203966279123 
-0.4174743771860573 
-0.002304564534763319 
-0.01040940538582227 
-0.007796275310957669 
-0.1027452795815994 
-0.007066799613560926 
-0.04646570098514446 
-0.05907512520866494 
-0.1280204403084555 
0 
-0.04371587056703363 
0 
0 
-0.07671100963379132 
-0.5557465378792208 
0 
0.03043633517214472 
0 
-0.07689516872869935 
0 
-0.01939250400324549 
0 
-0.001657632938999197 
0.005432072043838638 
-0.04033784095925685 
-0.03749563859685966 
0 
0 
0 
-0.008615681383539671 
-0.045969180368079 
-0.1756078507888195 
-0.007835086236508892 
0 
-0.001298644366205125 
0 
0 
0 
0.05759709164343481 
0.3020698551518529 
0 
0.01328518723156419 
0 
0 
-0.0007002144139011227 
-0.1963369972382051 
-0.6527959062153299 
0 
-0.09711354968202172 
-0.1027274973384239 
-0.01344883664289315 
0 
0 
-0.1646461315537351 
0.02562271303126392 
-0.03163978332135522 
0.00603041799939591 
-1.207362750644875 
0 
0.02001814658466447 
0 
-0.087290841492262 
0 
0 
0 
0 
0 
0.001631786761753675 
0 
-0.08353754698144696 
-0.01175138493798898 
-0.03120121393066319 
0 
0 
0 
0 
0.02244082810455681 
0 
-0.0009886770744906295 
-0.01946757716844408 
0 
0 
0 
0 
0 
-0.07880866597181876 
0 
0 
-0.01179628569829113 
0 
0 
-0.07916158426619452 
0 
-0.002365895747613417 
-0.0106423432875058 
0 
0 
-0.001632961714086123 
0.004345372951848528 
-0.0257389135905817 
0 
-0.04132557851887175 
-0.04175318837767392 
-0.05005186455919335 
-0.1423668486973116 
-0.1692830431426156 
0 
-0.004879251355022143 
0 
0 
0 
0 
0 
0 
0.09068844032750575 
0 
-0.0173313612689343 
-0.04635106868303242 
-0.1618071887536166 
-0.00145795057931759 
-0.01934521388939847 
0.0514177270749139 
0.002382924841795911 
-0.07861457480802063 
0 
0 
0 
0 
-0.003468056733722944 
-0.008681214210170794 
-0.03564076357347223 
-0.05915560289123736 
0 
0 
0.01165129456964114 
0 
0 
0 
-0.03247053079091954 
-0.245146901938316 
-0.001698227713749107 
-0.04569491333678326 
-0.005655034703209712 
-0.03453688243083662 
-0.007138154910578846 
0 
0 
0 
0 
0 
-0.05146064128352713 
-0.01135917655648103 
-0.0486104590835099 
0 
0 
-0.07105600500937848 
-0.04149810573918412 
0.02648619291462075 
-0.07884425886147028 
-0.01482320330654794 
-0.1128243551774924 
0 
-0.0008608839764498539 
-0.01658853028122769 
0 
0.02972238054042073 
-0.0351352650451414 
-0.2487757814438534 
0 
-0.1607835597434658 
-0.1566575277039478 
0.6357269220152135 
0 
-0.306398265128252 
0 
0 
0 
-0.07316640654812731 
-0.002485586826932604 
-0.004947799076738918 
-0.02175688032004468 
-0.1220920381255968 
0 
0 
0.06331198686853189 
0 
0 
-0.01502330355303242 
0 
-0.4590110514062471 
0 
0.04206721637667236 
-0.3180780888856459 
-0.0226154680691384 
0 
-0.008191323515379323 
-0.002385804819534691 
-0.03744589223130924 
0 
-0.09372154805444965 
0 
0 
0 
-0.005645926735815029 
0 
-0.2382441274342417 
-0.04806043214385434 
0 
-0.02446318978249395 
0.0004143399434861924 
0 
0.5814681510208062 
0.0986118788516443 
0 
0 
-0.001244349493886415 
0 
-0.05534401630932536 
0 
-0.03105974401391526 
-0.06852160475941277 
0 
0 
0 
-0.0006108408975543117 
0 
0 
0 
0.6722610799281964 
0.07364895626659256 
-0.001358547722967507 
0 
0 
-0.244359405849073 
0 
0.7337213525375272 
-0.1294650697137013 
-0.05597382486681829 
0 
0 
0 
0 
0 
-0.1235594779233735 
0 
0 
-0.05588631855047662 
-0.01869856936030507 
-0.002319446023566671 
-0.1208658299882679 
-0.006531681074261186 
-0.04574560609380355 
0 
-0.06606052013647708 
0 
0 
0 
-0.001718282576491642 
-0.001312008593730886 
-0.01662177359618727 
0 
0 
0 
-0.0886985538342079 
0 
0 
0 
-0.5542775918718545 
0 
-0.07377155839676641 
0 
-0.003739495819091377 
0 
0 
0 
-0.05014285461794663 
-0.8694120607269694 
-0.001039305142321949 
0 
-0.2129776504764527 
-0.09402935391269479 
0 
0.1203279926299616 
-0.04801516698947662 
-0.04801516698947662 
-0.008399863655813349 
0 
-0.03192690853653621 
-0.2037304834122781 
0.005975159095397213 
0 
-0.0152598664304147 
-0.01606612100788193 
0 
0 
0 
-0.5491442124854069 
-0.2194397007406465 
-0.005531358848737888 
-0.009210336519468993 
0 
-0.0392713248344959 
0 
0 
0.03839094718333726 
-0.005161003072975626 
0 
0 
-0.2336686376872387 
0 
0.001678835125664375 
0 
0 
0 
0 
0 
0 
-0.01362567347061457 
-0.02251171905833986 
0 
0 
-0.01695409800094506 
0.03793515917371012 
-0.02734458287588926 
-0.005574850402156441 
0 
0 
-0.0310685297737721 
0 
-0.1126884715613646 
-0.6836625290751711 
-0.05684814842924057 
0 
-0.1488855715915332 
-0.0009602020234935322 
-0.04228380619865339 
0.04201682397870111 
-0.03151695877697196 
0 
0.01190187057296786 
0 
0 
0.005833028223535343 
-0.02440515833204213 
-0.01523662248483232 
-0.9146351975166755 
-0.04784518382261332 
-1.843418408725264 
-0.1215752610522011 
0 
-0.03431372185040691 
-0.1639478540443004 
-0.0007016905827159915 
0 
0 
0 
0.01014855613307814 
0.07091511705988868 
-0.06154949812149282 
0 
0 
-0.1659333960420097 
-0.0030451513330297 
-0.01782260026945838 
0.01931934597202308 
-0.0994546665755854 
-0.1047189327148223 
0 
0 
0 
0 
-0.006087977321651896 
-0.01304448862714367 
-0.006714043327364879 
0 
-0.04934326245355062 
0 
0 
-0.06170194360562496 
-0.1320828602513915 
0.03180568851032597 
0 
0.08948780792087838 
0 
-0.004471448557272037 
-0.03865945153569006 
0.05875168996982556 
-0.04548418287667378 
-0.0008807148462589767 
-0.03847849884557675 
-0.01404488686953574 
0 
0 
-0.04610893975009196 
-0.04722463597664738 
0 
-0.001721767952899708 
-0.0007016905827159915 
0 
0 
0.02986072863059348 
0 
0 
0 
0 
-0.004362706989585663 
0 
0 
0 
0 
0 
0 
0 
0 
-0.05658521925007053 
0 
0 
0 
0.1033591712661112 
-0.002038029065105477 
0 
0 
0 
0 
-0.0122136111076174 
0.0004143399434861924 
0 
0 
-0.0008608839764498539 
0 
0 
0 
-0.0007002144139011227 
0 
0 
0 
0 
0 
0 
0 
0 
-0.07652162478807102 
-0.0008608839764498539 
0 
0 
0 
-0.0008608839764498539 
0 
0 
-0.001721767952899708 
0 
0 
0 
-0.0008608839764498539 
0 
-0.02842070507238393 
0 
0 
0 
0.03191281971910834 
0 
0 
0 
-0.1492370806881347 
0 
0 
0 
-0.0008608839764498539 
0 
-0.01056018510853342 
0 
0 
0 
0 
0 
0 
0 
0 
-0.01426266208803765 
0 
0 
0 
0 
0 
0 
0 
0 
-0.1020583229433934 
0 
0 
0 
0 
-0.0008608839764498539 
-0.6402345735690219 
0 
0 
-0.04475256983289745 
0 
0 
0 
-0.06719664232459462 
-0.06258149341674724 
0 
0 
0 
0 
0 
-0.0008608839764498539 
0 
0 
0.0238120121932258 
0 
0 
0 
0.04816913630472105 
0 
0 
-0.001721767952899708 
0 
-0.0008608839764498539 
0 
0 
0 
-0.004233859208768918 
0 
-0.02750553528631539 
-0.0105157674591616 
0 
0 
-0.006143237796981163 
0 
-0.0008608839764498539 
0 
0 
0 
0 
0 
0 
0 
-0.03571279675999922 
0.07992888936789649 
-0.08452523630998637 
0 
0 
-0.0008608839764498539 
-0.078438057479816 
0 
0 
0 
0 
0 
0 
-0.0196304679811584 
-0.004083567838518995 
0 
0 
0 
0.1260102441884072 
0 
-0.04130478490928221 
0 
-0.07744437492636236 
0.0170895184197127 
0.003900022550704666 
-0.002841526105219872 
-0.003459279863469614 
-0.009913236830019335 
-0.03599196334298575 
0 
-0.04472155328754997 
0 
0.03184430281391153 
0 
-0.00144730876625952 
-0.01761819798699692 
-0.04119044618902359 
0 
-0.01493172917065315 
-0.03934670992296237 
0 
0 
-0.1086789062540827 
-0.04792273191370652 
0 
0.1042282797429372 
0 
0 
-0.02131365913653859 
-0.02758840938685296 
0.01149566037832662 
-0.02527475456604977 
-0.4095597229737615 
-0.04721116800907989 
-0.04622124129801199 
0 
0 
0 
0 
-0.03091353549118941 
0 
0 
0 
-0.02497409685328003 
0.001096678818089815 
-0.01448960858978006 
0 
-0.0007044143720232764 
-0.05665367990835191 
0 
0 
0.004946079954030911 
0 
-0.4294096805569311 
-0.1206655745322744 
0.001936938575397431 
0 
0.01172736317207747 
0 
-0.007721808129413919 
-0.008651607389808264 
-0.147545817668381 
0 
0 
0 
0.02749628049493182 
0 
0.08271616485566784 
0 
0.0438202804315766 
-0.0399124479960242 
-0.0004072272650362079 
0 
-0.006110897389380445 
0.02363852368247216 
0.06330735453544324 
0 
0.0004143399434861924 
0 
-0.1201141469863314 
0 
0 
-0.03777097100177651 
0 
0 
0 
0 
-0.000203613632518104 
0.05487152741270426 
0 
0 
-0.004539531850025325 
0 
0 
0 
0 
0 
0.4554082799216698 
0.004099139742912676 
-0.02318980162366248 
0 
0 
0 
-0.1070899516685122 
-0.04220904701861045 
0 
0.01765770248220894 
0 
-0.1166067795570547 
-0.04628998711205325 
-0.05266749517671709 
0 
-0.006383204199847619 
0 
0 
0.6255236241486343 
0 
0 
0 
-0.0324354267767267 
-0.0517706231148869 
-0.09893498613571251 
-0.005528106126140529 
0.007680403151760835 
0.000784680583038598 
0 
0 
0.02720527569386045 
-0.0155234857494531 
0 
0 
0 
0 
0 
0 
0 
0.004369684505032645 
-0.02706897622019646 
-0.04150193335663676 
-0.01286516032088178 
-0.001312836925237186 
0.09006547090271093 
-0.001810149637786849 
-0.003290137665067886 
-0.03460909953885073 
0 
-0.04606580899472637 
0 
0.1041319326590081 
-0.002366246776202993 
-0.01222243906568566 
0 
0 
0 
-0.007393031009040485 
0 
0 
0 
-0.05051194925171972 
0 
-0.1382528135670175 
-0.6721427079025455 
-0.9658113842538706 
0 
0 
-0.03866628748787593 
-0.0151153656305073 
0.006192981014100216 
-0.04670933799435954 
0 
-0.008716911902892279 
-0.0416905568724058 
-0.06957610256560323 
0 
0 
0 
-0.1331008450813853 
0 
-0.04710993291102866 
0 
-0.07307509644188985 
-0.006321229748941806 
0 
0 
-0.05307020690684021 
0 
0 
0 
0.07614763928500219 
0 
0 
0.06015870611757222 
0 
0 
0 
0 
-0.5101830830859672 
-0.5314034868262998 
0.01895062815404185 
0 
-0.1112320423594406 
0 
-0.0007458278133652707 
0.01444513498102759 
0 
0 
0 
0 
0 
-0.03277400014043995 
-0.2226419467267099 
0.00944612219095615 
0.009773210551473876 
-0.0225878386452745 
0 
-0.009260269995090661 
0 
-0.5398370520027883 
-1.688159662360847 
-0.05354544113776149 
-0.2379350728698478 
-0.02462399628384888 
0 
0 
-0.00526362282508586 
-0.04868293658158741 
-0.07447967732573919 
0 
-0.1017427719373522 
0 
0.03690021217810023 
0 
0 
-0.09211252038320258 
-0.1584517180644377 
0 
0.00150961370533314 
-0.02575229987308403 
-0.3383000125505892 
-0.2008669595320915 
0 
0 
0 
0 
-0.1043560642739862 
-0.004257715034386917 
0 
0 
0 
-0.01503585332032979 
0 
0 
0 
0 
-0.1915678455213493 
-0.006107595381726064 
0 
0 
0 
0 
0 
0 
-0.0008608839764498539 
0.03150447923332363 
0 
0 
0 
0 
-0.07045099341549847 
0 
0 
0 
0 
-0.0005273560351331 
0.02792886744159432 
0 
0 
-0.02253231744165148 
0.01154288944334632 
-0.1132415842783067 
-0.004856423966634231 
0.01207716148130687 
0.03195410871529218 
0 
0 
0 
0 
0 
0.02600150078160202 
-0.006975284546296697 
-0.07344290516921187 
-0.08393443716804187 
0.1689688693387384 
0 
0.01374814024746591 
0 
-0.09042217332102163 
-0.1593739564495687 
-0.0008608839764498539 
-0.1325298247968394 
-0.04258717224030511 
0 
0.02020801260007655 
0 
0 
0 
0.2439786562063873 
-0.003505326683232927 
0.03576700334981273 
-0.03853804892190562 
-0.006120844948118031 
-0.00252804291397915 
-0.04513415201881329 
-0.2190096445360571 
0 
-0.1457265670691949 
0 
0 
-0.03501855500084834 
0 
-0.2443195590812293 
-0.007856632338252663 
-0.09538856710512425 
0 
0.02416680767277157 
0.1893668258126554 
-0.1290184639515956 
0.003623311255636156 
0 
-0.006612708565345218 
-0.1414809519320007 
-0.02222962747705834 
0.006206672488427197 
0 
0 
0 
-0.01637447640857911 
0 
0.002504976577087611 
0 
-0.2194754161451841 
0 
0 
0.09478778440064956 
-0.001953432885476812 
-0.2034100040403806 
-0.2067878491093141 
0 
0 
0 
-0.004561108738494317 
-0.001316657318886066 
0.07375969325221515 
0 
0.06890611417740747 
0.06890611417740747 
0.06890611417740747 
-0.05878136560470192 
0 
0 
-0.01479052415017958 
0.03445305708870373 
0.02063868925533679 
0.079760922959366 
-0.1110453611719992 
0.002796297598077655 
0 
0 
0 
-0.1624965354831195 
-0.2143204940764166 
-0.0003887968622067314 
-0.00588537037986045 
0 
-0.001868625099094598 
0.02707628204989175 
0 
0 
0 
