solver_type L2R_L2LOSS_SVC_DUAL
nr_class 2
label 1 -1
nr_feature 32424
bias -1
platt's -19.13089073163373 -4.129849957056512
w
0 
-0.01130167930321616 
-0.08456217816702666 
-0.06156779298524919 
-0.1259591798928249 
-0.5960475623846347 
-7.167912344288122 
-1.060858159257906 
-0.2206769708369664 
0 
0.002987809978185148 
0.005106269434167656 
-0.2818716110257661 
0.09010010539712368 
-0.06359141201979832 
0.2257519842913837 
0.03523764735116252 
0.1174457127013135 
-0.008508396739687377 
-0.1838059522849425 
0.02644956211611061 
0.1930021801272951 
-0.0344951415499946 
0.01476669203227463 
-1.220920997473057 
-0.1062368379739575 
-0.6946847676834277 
-0.02025795856831881 
0.0930120636911064 
0.08471008838627618 
-0.002857576522458527 
0.6912613009495416 
0.1873687605232932 
-0.8955991852763628 
-0.2135208241604737 
-0.3518101926606048 
-0.1975424154972115 
-2.062458484942005 
-0.5777156156299258 
-0.2530937854125056 
0.1895604874491132 
-0.5885544468831847 
-0.01877002905021305 
0.1253502087166231 
-0.6974040279461233 
-2.414539024897 
-0.08900303737182805 
0.25983583189093 
-0.5138516078386182 
-0.2796157420926088 
-1.119098489535149 
-0.1769237824976302 
-0.1025163825540689 
-0.09173150716861023 
-0.2813787776347261 
-0.538593070374023 
-0.1266449303401278 
-0.005159599611038871 
-0.09775004377529464 
0.04508570791490687 
-0.01510719056466759 
0 
-0.6001661052293021 
-0.123501140545659 
-0.08693022878566727 
0 
0.1222842191370116 
-0.06322399193710695 
-0.01868765359165109 
0.04386450178482355 
-0.0941806386251989 
-0.3432020475769251 
-1.452724630039787 
-0.8382207533208581 
-0.6132649029347428 
-1.552478909722457 
-0.4785301354918802 
-0.03043279171120288 
-0.2241844260455783 
-0.3806926189851627 
-1.291580783229577 
0.1242258865217109 
-0.6169858742995775 
-0.5772665461826313 
-1.125646082319291 
-0.354233003900986 
-0.00850950887858232 
0 
-0.006734480583929431 
0.252391909537397 
-0.003109482858637445 
-0.001657809169867559 
-0.812868469411782 
-0.05157562571340165 
-0.1806486180975857 
-0.2210662316970493 
0.02130929509011294 
-0.007650334617506176 
0 
-0.1418347559244684 
0.1119531147650302 
-1.625680509642032 
-0.2513274296905425 
0 
0.2602252374494094 
-0.7896934288445807 
0 
0 
-0.04638195175865736 
-0.04763125139669819 
-0.1557576375762991 
-0.02546535031941924 
-0.2003182664705765 
0 
-0.1369543988606919 
0 
0 
-0.1254989176038586 
-1.021053772428059 
-0.1607511722851832 
0.006309607791363328 
-2.375817269668454 
1.198950697183612 
0 
0 
-1.607738485719989 
-0.01560622524776599 
-0.0706341736189418 
-0.1246473354835363 
-1.96980823621702 
-0.7721986702107148 
-0.6104534304972181 
-0.08760099929325879 
-0.254182702648136 
0.2086313912016712 
-0.001306939602715833 
-0.4524068177184724 
-1.404058324479229 
-0.1632298928017359 
-0.02638195812488122 
-0.2443308264699169 
0 
-0.1102731441726507 
0.129313191050644 
0 
0.2609895342819802 
0 
-0.1564781705738434 
-0.1000714103188773 
-0.3155477222872033 
0.1739415754695274 
-0.0803359187868497 
0 
-0.09769374434447445 
-0.3517219636735356 
0.006005466190768247 
-1.265199746087141 
-0.7662124024262759 
-0.4046124571758737 
-0.5375372307849364 
-0.9402587788772987 
-0.4111983882434688 
-0.06752901472916635 
-0.184076992436215 
0.5615897890971886 
0 
-0.019928432834916 
0.2684389652611145 
-0.1288938623795157 
0 
-1.220532797584386 
-0.005896443160990386 
-0.3089329005422025 
-0.3469107905863499 
-2.254600220462052 
-0.09774596867198745 
-0.4116034838916824 
-0.06409772216908527 
-0.6975860789853762 
-0.4836446488294352 
-0.4400842703485353 
-0.2719860937709807 
0 
0 
0 
0.6649010586568836 
0.9785613435471555 
0.6905113488148515 
-0.2618134578048082 
-0.008542103566369669 
-0.03451629535232024 
0 
-0.07678419279139896 
-2.423858951891021 
0.09961352335794459 
-0.5270217538297569 
-0.9590166007881024 
-0.4782678115263304 
-0.02523150366685866 
0 
-0.2045913136932107 
-0.3345086292358364 
-0.2023435613761234 
-0.3377771134052965 
-0.4446844925527922 
0 
0.003968197135370279 
-0.02414641295910356 
-0.04368448270439547 
-0.0712035880266122 
-0.05474248698504631 
-0.02791895447924771 
0.1105877727587021 
-0.05663502406432231 
-0.3639980177190946 
-0.0952630825585007 
-1.2613128458945 
-1.283088544362489 
0 
0.4437182300988856 
0.229844563896041 
-0.0252367356755865 
-0.3411406602612649 
-0.4954889384143085 
-0.323245057590118 
-0.1707961099565688 
-0.01943226004389129 
0 
-0.1383691392832148 
-0.0372693699426959 
-0.3841711878795165 
-0.4824938659152626 
-0.0316425607586213 
-1.633917977299256 
0.2262767552894786 
-0.03511347791290854 
-0.2267156705089564 
-0.1432868042519004 
-1.47448086429263 
0 
0 
0 
-0.1893687191849436 
0.5352223086957719 
0 
-0.03740610964774817 
-0.2462022583762981 
0.1987432476982703 
-0.002995671253217681 
0.271527711951735 
-0.06480528291500594 
-0.005461955644252526 
-0.06628499904953232 
-0.0459052063687365 
-0.6257789664835511 
-0.6218963525247256 
-0.3359123212023031 
0 
-0.08846256648986535 
-0.002239011849049269 
0.001730021794995264 
-0.1277436405120576 
0 
-0.06602755285472328 
0 
-1.782127180968078 
0.03481147767077489 
0 
-0.03112046503400805 
-0.01362953716491582 
0 
-0.01835198753595689 
0.1651638563872254 
-0.02135155022084396 
0.04933670178982107 
-0.2844704114801229 
0.3303614466931762 
-0.06127208550938526 
-0.188502465692963 
0 
-0.169158273216134 
0.1528155971476232 
-0.4847902069453225 
-0.2196190915199154 
0 
0 
0 
-0.04723581504750278 
0 
-0.01316141887170006 
-0.531189727794236 
-0.01857166695532571 
-0.09234333059439367 
-0.2634658948477897 
-0.002730977822126263 
0.421870228065967 
-0.001614805646587517 
-0.35072175468973 
-0.4187553906812594 
1.375291722228158 
0.301883870788456 
-0.225005059846388 
-0.009139150439966753 
0.3180171463164418 
-0.1484706189627333 
0.03257214789382833 
-0.6100563479094381 
-0.6075252709640876 
0 
0.1530385482589551 
-0.1403598164119478 
-0.01942712362210396 
-0.03934653333169855 
-0.05322687394880685 
-0.2408546164901955 
2.755333170578068 
-0.1472033835965527 
-0.1123777417382278 
-0.5483239773011787 
-0.1635362248787111 
0 
-2.789349764201789 
0 
0.03780678015851272 
0.03780678015851272 
0 
-0.1160587778354307 
0 
0.07550015519217483 
-0.09983288886438792 
-1.889853516695549 
-0.255664981927556 
-1.418805335611391 
0.04266731630242639 
-0.102531957117925 
-0.4187720246092795 
-0.2730923714292593 
-0.0106911008299008 
-0.1821936132475209 
-0.1390864471651288 
0 
0 
-0.0410030924578712 
-0.01913243640926667 
-0.03838286441029785 
-0.1465260165617362 
-0.07535015340924729 
-0.04395269727967662 
0.152573734544046 
-0.2073593104983487 
-0.0008657459157394501 
0.2573200269194761 
-0.937778686125852 
-0.1331335238399029 
0 
-1.519148885914042 
-0.248328838224869 
-0.3478810319135677 
-1.378760595464848 
-0.1272503405449535 
-0.0948045167676493 
-0.0791160508946539 
0 
-0.5360974393039638 
-0.146314277132409 
-0.004255026703030833 
-0.01140796532615415 
0 
-1.272831331261895 
-0.06576053775608663 
-0.05100553326291819 
-0.3101139177412327 
-0.6460814056665126 
0.273958578581023 
0 
-0.3243474738306926 
-0.1116118907895213 
0.008286770727830481 
-0.00503341865870193 
-0.270497477602044 
-0.4183292503770464 
-0.03339953883840797 
-0.04594902115117272 
-0.7178932694193156 
-0.01628612665727926 
-1.478162777636381 
-0.06193946247208609 
0 
-0.2411877472997808 
0 
-0.2078739756901547 
-0.8771879404255445 
-1.134181379079921 
0.02839078144884783 
-0.05613962921026802 
0.02244652618590454 
0 
-0.02232992890068932 
-0.0003667169516515484 
-0.01337867004987404 
-0.1649843886382496 
-2.359539786439881 
-0.02907662431473139 
-0.04587004461628113 
0 
0 
0.05306280688931612 
0.008885846011790044 
0.01404347838761327 
-0.9884277149375904 
-0.09272254077531328 
-0.1188010848057924 
-0.7027549129344132 
-0.08394514764903747 
0.07285689263861135 
-0.4452040379492743 
-0.40561130940742 
-0.05060459544646857 
0 
0.09263877616847549 
-0.1674740570158784 
0 
-0.173739851983735 
0.01867052599983975 
-1.519971263415978 
0 
-0.05680348262766758 
-0.4090945333227509 
-0.04082520117270756 
-0.01155760112944691 
0.04271975474395558 
-0.2454344805121984 
-0.08665390601268697 
-0.1215523226025349 
-0.09174922205345255 
-0.1023884263520436 
-0.3561122123380992 
0.2557065053370526 
0 
0.01265571547940252 
0.1671401440577367 
0 
0 
0 
-0.0154876081484601 
-0.2308140097555251 
-0.3030972926485441 
-0.2386607919721177 
0.07579403344681754 
0 
0 
-0.9604219946106168 
0.04816918460714024 
0.008381346835141926 
0.06307407294539727 
-0.5699407031428975 
-0.03530392625623371 
-0.06079824346274808 
-0.2820183902925414 
-0.01542014097972898 
0.163784706398649 
-0.1247415092606689 
-0.06141286692013612 
-0.06632781679025403 
-0.1264168205662558 
0.0171676653958249 
-0.3204147154099946 
0.02080155080677734 
0.3333783842918782 
0 
-0.007312166460491068 
0 
0 
0.6364568251571185 
-0.04053889923610333 
0 
0 
-0.01897009119978274 
0.01954200058779081 
0 
0.3778319519655186 
-0.1766031063994728 
0 
-0.8953220142660431 
-0.0342218433502514 
-0.4724376772719988 
-0.07281010391688811 
-0.239589782436712 
0.3662632122235142 
-0.01034590558606516 
-0.02994610809135461 
0.05972248604952952 
0.03734926789415719 
-0.06700706735895406 
0.1271917359348216 
-0.2667292602320955 
0.2917310820322916 
-0.0245802633721464 
-1.185477983382817 
-0.3902595624140551 
0 
3.2105326208911 
0.1309635549718417 
-0.4094363049262694 
-0.01647822191605618 
-0.004533156152156142 
0.4309975389263336 
-0.07188360049645702 
-0.06997567234578353 
-0.3448683402224271 
-4.049648171695889 
0.05170557764431929 
-1.622693159472923 
-0.2484200560271749 
-0.008192933466378789 
0 
-0.1349067849101303 
0.01334207528095134 
0 
-0.2555408266145014 
0 
0.01783646604832564 
-0.1469120709164884 
-0.00767693415209747 
0.004998627027767434 
-0.8843452907298989 
-0.1977653020666941 
-0.009920643751068407 
-1.024676196499979 
0 
-0.3696700007625973 
0.06485793016385914 
0.03000908587701777 
-0.2945318548395275 
-0.0662841231134275 
-0.02543968751072802 
0.01751059612972149 
-0.3433330945547332 
-0.3062765758785133 
-0.01081538474483159 
-0.08588278831427849 
0.07613036316892542 
-0.5379088067197066 
-0.04817575166336086 
-0.04127906494292159 
0.1302669213499908 
0.07482944393907327 
-0.3608619832575994 
-0.6428125564034972 
0.1200917982691883 
-0.1907127142763742 
-0.06446829318521538 
0.1518411133900081 
0 
0.07202633215261253 
-0.1418077210521429 
-0.8218471872501815 
-0.979341989084749 
-0.570507497165554 
0 
0.2601539211174916 
-0.1203165291123199 
-0.2361104739240995 
-0.002528827319847978 
0 
-0.6380585563542328 
-0.137945114870434 
0.05007090236639378 
0.08981658252438877 
-0.05341184110438915 
-0.008650892187434761 
0.02152572343272543 
-0.01782312474696743 
-0.1656013644037292 
0.1349096210438854 
0.02693158173460733 
-0.01354052356269369 
-0.8165883793676065 
-0.0126827689163905 
-0.1004856103385547 
-0.2391936934612238 
-0.4846908155233177 
-0.1315393542721924 
-0.04533345384468374 
-0.116046875936057 
-0.1561847768558981 
-0.03640005315625882 
-0.1311703661743022 
0 
-0.009659717888595041 
-0.02510163589556885 
0.1387393522567176 
0.02973259542186762 
0.007922003709900448 
1.404871656586398 
-0.006628277676055212 
0.05600246624264557 
-0.2733144658954043 
0 
-0.1222701080567436 
-0.02087258446801624 
-0.1197825682384928 
-0.4073079596179617 
-0.4069458206794606 
-1.125829778244608 
-0.1860240718656138 
0 
-0.1496747890533611 
-0.02176077948683776 
-0.1770312808665639 
-0.0616611531639417 
-0.05614836225495756 
0 
-0.05541375450748733 
0.003853587242488569 
-0.06171052620827155 
-0.1014874622211486 
8.829850998970731 
-0.2971919638142643 
-0.04431091971176086 
-0.8499067799158216 
-0.3734618267200261 
0 
-0.4263817324637483 
-0.03422292297985947 
0 
0 
0.1204810551615804 
-0.001264369495063825 
-0.04796491609662799 
-0.4992022952461465 
-0.08408818348206852 
-0.2078151716450803 
-0.05727869956177483 
-0.01949289026238723 
-5.483168401160376e-05 
0.2062402496874432 
0.01266082497516892 
0.1176630725745785 
-0.03039688091147984 
-0.1832743594477687 
-0.06892811561772624 
-0.1399914357833127 
-0.1311038797108609 
0.138373150636633 
0.009043992412320323 
-0.5098775572737935 
-0.4682814967314534 
-0.6170306313703924 
-0.001127133836282617 
-0.010112574778134 
0.6232828167588575 
-0.0134291631066721 
-0.3871348053703006 
-0.3912266404593356 
0 
-1.519681169255911 
-0.05384179009764619 
-0.01010480865745694 
-0.8062900194061517 
0.8510294054543225 
0 
-0.001538324439093734 
-0.001538324439093734 
0.1254141587945415 
-0.1439360226635791 
-0.02838273093961828 
0.01880701239539696 
0.2118967813142609 
-0.0009647862735458772 
-0.06591715039702953 
-0.07619869542719299 
-0.5359383802337703 
0 
0 
-0.1269613084246119 
-0.2083243302823403 
-1.594730360291893 
-0.07759896861472618 
-0.08672591397226886 
-1.143075316095995 
-0.2739023211912374 
-0.1046456937806906 
-0.6697738264523383 
-0.2319740783233508 
-0.07135669443598888 
-0.07638005096438408 
0.01246826463216204 
-0.07766136573527697 
-0.0707377412854242 
-0.3222282354273694 
0 
0.06464928209199468 
-0.140900854423219 
-0.2628799962399858 
-0.05903792971149439 
-0.08351219019495962 
-0.1271838859456611 
-0.06246694316299452 
0.001767250191904352 
-1.250796159709207 
-0.200630523707781 
-0.05426981545508328 
0.1092927719743647 
-0.4620099726515999 
-0.1258316599487663 
0.09759381247922763 
0 
-0.3866132401762407 
-0.0145192462269358 
-0.1450314097191412 
0.006078504208456767 
-0.1118895566179709 
-1.038625774676644 
-0.2773814707406539 
-0.00759323258870872 
0 
-0.1250744749649066 
-0.008963413600279982 
0.05969864650114513 
-0.3886566053538568 
-0.007832628340575541 
0.05768600602007172 
-0.01350513342056673 
-0.1759045066777374 
-0.05909808758557145 
-0.3309698157636434 
-0.1786338390280795 
-0.0258602296228587 
-0.02367273411012533 
-0.09810621783807745 
-0.1285737980000476 
-0.1877214135891045 
0.8368942671651032 
-0.2099807979503275 
0 
0 
-0.06475903156864152 
-0.2359266225170771 
-0.01201759342796804 
-0.01715106250557652 
0 
0.02895492399372256 
0.02693755294631361 
0 
-0.3507019190081967 
-0.1769985672897121 
-0.01998840531286573 
0 
0 
0 
-0.1915473623661645 
0 
0.0730512196240143 
-0.3332512942819503 
-0.04864736438257954 
-0.0399729674953084 
-0.07213845826548464 
-0.08462443045238524 
0.1151993771058375 
0 
-0.03767178181176248 
-0.08242874934848517 
0.02547139082943005 
0.00375443644601502 
-0.3960083071104912 
0.009094742274564983 
-0.2815540727849382 
-0.1799353401100452 
-0.1078758499063807 
0.08676614636530865 
0 
0.02662795649659667 
-0.149727606853494 
-0.03277707231038779 
-0.06448867976628143 
0.1085242426102969 
0 
0.0325341112038277 
-0.02810823286092608 
0.08677697725646751 
0.04379177275209839 
0.1426534850250783 
0 
0 
-0.005064085276968945 
-0.02719723313884751 
0.01305357428605837 
0 
-0.04754023976852258 
0.04544117764259756 
-0.03928713386128545 
-0.02218866577339677 
0 
0.02123571220297327 
-0.1873433922586665 
-0.09024993675542249 
-0.1236706146900269 
-0.2198738761345238 
-1.222684355782505 
-0.220094956872989 
-0.3210594574443401 
-0.02538718628728105 
0.01370335898766386 
-0.03227462912508947 
-0.01940199204320776 
-0.09069123967011333 
-0.3134310871673974 
-0.4488279543464148 
-0.05599764801585065 
0 
-0.4372203783820848 
-0.2318363276104537 
-0.03614602690621446 
0 
0 
-0.4586633390244781 
-0.1299847039101457 
0.02163833138566775 
-0.6935655742243666 
-0.3701421961954388 
0 
0.08027382743059472 
0 
-0.1250422021194518 
-0.121048492596078 
0.1056704072225575 
-0.03656128944859661 
-0.124425774294422 
-0.0007113612239282737 
0.3260667332900359 
0 
-0.2535196827095293 
-0.03509326363744143 
-0.003210887675581415 
-0.007324688357715118 
-0.4249729837955505 
-0.2969954398386462 
0.6599109331317459 
-0.1393763838311287 
-0.05312453146843096 
-0.06365542906004937 
0.01253311417107187 
-0.04962693833759062 
0 
0 
0 
-0.03224907445056523 
-0.3080733051875554 
-0.7192367892136721 
-0.3333958760998809 
-0.02508102835946322 
-0.009492363823697014 
-0.05910874199962277 
-0.103434788315837 
-0.3010767978435459 
-0.7521535637481966 
-0.2104680097420979 
0.001542241750608938 
-0.4321267101982929 
-0.9936143053283291 
-0.01659488923971566 
0.1090986417751974 
-0.042191431751955 
0.0573497028178442 
0.07737388045639337 
-0.863910525614215 
-0.07902765074602247 
0.5109422390735525 
-0.1293512997885918 
-0.3025828809585144 
-0.3720375341082043 
-0.2199439844516601 
-0.2487339712906372 
-0.4551008699706791 
0.5621895819383071 
0.02288122098672985 
-1.093833473085742 
-0.1158772412372033 
-0.7877302033022315 
-0.2070899546982262 
0.08506840929100581 
0.008593986706088944 
0.06301887757940811 
-0.6822997447069098 
-0.009100025364486354 
-0.05032870050999779 
-0.09005204733931031 
-0.4962407820899464 
-0.2158277733393444 
-0.05962220062441621 
-0.1515691625790612 
-0.2291128162388241 
-0.1257900756955691 
-0.04062140602061406 
-0.6174803899149491 
-0.387813145280706 
0 
-0.06865713006307909 
-0.8573136476325771 
0 
-0.01350980261343925 
0.01835644092453925 
-0.02487475548135295 
-0.2299168933103798 
-0.1219623780777514 
-0.1226532079404995 
-0.6028277839169369 
-0.2894596804797915 
-0.003857887950501503 
-0.05009617981449536 
0.0007899290871019362 
0 
-0.07683309232236374 
0 
0.02905258666822661 
0.08070785191048048 
-1.205824376288541 
0 
-0.01491255949444544 
-1.27296399185376 
-0.139251531365694 
0.07618808277351931 
-0.2962211250271164 
-0.02342969168956309 
0 
0 
-0.2983085135647947 
-0.4224805702415622 
-0.832181118452986 
-0.009429988551073378 
0.0478379714638985 
-0.02569836955910415 
0 
-0.08807799260805996 
-0.08739555243525049 
-0.1754655859838425 
-0.01046897660533168 
-0.007324688357715118 
-0.007050571498464167 
1.337733104110667 
0 
-0.3796997780635117 
-0.1215659986115565 
-0.01132937572220604 
-0.0224423296412001 
-0.5021496840603102 
-0.108438403735045 
0 
-0.3287035377817272 
-0.09764823637081121 
-0.01868838154175748 
-1.57822584905625 
-0.09126321924337893 
-0.246810354465651 
-0.01884142913065072 
0 
0 
0 
-0.06402548579569628 
0.03175130822829387 
-0.0003667169516515484 
-0.1106137640198061 
-0.02206192491315309 
-0.020580147324745 
-0.5885398406377367 
-1.352106847760282 
-0.5694200077796373 
0 
-0.004230284447863854 
-0.1128432750356441 
0.2560918148959118 
0 
0 
-0.6380218708329715 
-0.1193228712688985 
-0.1651081193484319 
-0.03388173069622813 
-0.5072851968409299 
-0.5414248192602412 
-0.02359291111489963 
0 
-0.1590453731531212 
0.01877501356245215 
-0.07280459240647992 
-0.4666914114424957 
-0.03016842423918827 
0.09100792938924472 
-0.3963052844232769 
0 
0 
-0.01851061967941615 
-1.902928487176632 
-0.05261504276279948 
-0.2026905041335006 
-0.03709796919991169 
-0.002470835768629594 
-0.02868224623480663 
0.0006950152360417712 
-0.03843113926647515 
0 
-0.1058193282769367 
0.1303759148485193 
0.2781868889681802 
0.04018744122047874 
0.1328283241388825 
-0.2391161344090954 
-0.04803057964241334 
0 
-0.1339953928157467 
-0.1507775907359994 
-0.6270958673761068 
0 
-0.02334600812153649 
-0.2991141742533373 
0.04516654794134945 
-0.0386878691488336 
-0.1719008691158535 
0 
-0.627886608577879 
0 
-0.04821615876764413 
-0.1990129904776097 
-0.09489399309619452 
0.0270767731271352 
-0.2477303573753818 
-0.3754404303152719 
0 
0.006862760885053881 
-0.002811607779792072 
-0.4579683978976538 
-0.05668260535087485 
0 
-0.05630177902019966 
0.3652016209238549 
-0.1379634948302752 
-0.1471392426260943 
-0.04473049972719847 
-0.003418860579741954 
0.03281386461910324 
0 
-0.5537193461877932 
0.03014226866909692 
-0.008010913279855885 
-0.79700166501127 
-0.092441268551206 
0 
-0.0946641269807976 
0 
-0.2016372482956838 
-0.3773127154839481 
0.7106863714015569 
-0.01554889614806921 
-0.4080018078329286 
-0.00704426903548193 
0.3409226827637239 
-0.5270521534187381 
-0.389390010545169 
-0.2891440999893932 
-0.02080905890267577 
-0.05955250078078 
-0.02613525471528608 
-0.04544508163262258 
-0.3873905924004021 
-0.1550567015811532 
0.008460903905586249 
-0.359111858115038 
-0.03292686730966281 
-0.09220362073219504 
-0.1232978081619704 
-0.0741641460356415 
-0.1734788144649395 
0.02865430607509032 
0.02443062988982287 
-0.2253598399464563 
0.0152579548937404 
-0.07098167975641957 
-0.003707508606777521 
0.04511817225319393 
0.3985398579357755 
-0.01673041655855936 
0.002823884047748183 
0.2855074537657772 
-0.03994724100379154 
-0.02791611312315167 
-0.6157831243606496 
-0.2035175776281277 
0.1403519352189399 
0.0938829441918743 
-0.03615493677723036 
-0.02749996124506922 
-0.03662776185400152 
0 
-0.06463375654816947 
0.4406730582321888 
-0.5559797049507229 
-0.02232728939094854 
-0.1758388463520259 
-0.01624532572409419 
-0.1714910196952307 
-0.02286867496837789 
-0.2013269081307247 
0.333964269781049 
-0.02697533384608668 
-0.07696411936889758 
0.7193790240713944 
-0.1909423311255227 
-0.008280126765716893 
0.01909511484676862 
0 
0.01898554048139092 
0 
-0.1058743536630053 
-0.1741288419417754 
0.0769635554812301 
0.01306445210586461 
-0.7210008173443263 
0.3313337907959084 
0.002385009035660002 
-0.1517124584271153 
0.03590020905251375 
-0.5388817569035952 
-0.1688580584944793 
0.432520997807518 
-0.5717701652917148 
0.1468185084460157 
-0.2130266356381391 
-0.00608467237880916 
0 
0.08397555291793216 
0 
-0.04173344122479806 
-0.02135756946706912 
0.0400609228471385 
-0.2255528805919218 
-0.825155874602039 
-0.1298611627547413 
0.1190907829200512 
0.1522981810856532 
-0.1484900172872065 
0.453794655602935 
0 
0 
-0.009137188499171955 
-0.008821673615272236 
0 
0.1347497419820985 
-0.07078132680821785 
-0.2096578659732894 
-0.1616058014886059 
-0.4149363669758833 
-0.01842242311744584 
-0.03202412997560526 
-0.8593791115306441 
-0.3937437569368392 
0 
0.03119547477604131 
-0.164737991811363 
-0.008884510973996597 
0.03044548880234279 
0.02556728011420971 
-0.01729740857774646 
0 
-0.09452604616963681 
0.01720141188331627 
-0.05015416843486146 
0.07194220867385033 
-0.06262024542598364 
-0.01122947485251568 
0 
-0.01721663074560352 
-0.2698635237701273 
0.1111182799889251 
-0.04621647264676431 
-0.1778280371026406 
-0.00522691604743001 
0 
-0.3101274632241123 
-0.1377701398893427 
-0.1539565995231278 
-0.03803507252328888 
-0.1823718851947538 
0.3652446978900691 
-0.09871167106902606 
0.1225051147599915 
0.01164558249363845 
0.01053416626490003 
-0.0381587883847477 
0.1180279402330228 
-0.2970559817097387 
-0.1550770851875799 
0 
0 
-0.01052428600193113 
0.01605913152869991 
-0.1837603200936125 
-0.0772963285761991 
-0.08829228953206363 
-0.2922048510666165 
-0.06623468202541133 
-0.02632045514626476 
0.2426594993954491 
-0.2933846228699188 
0.01883247817441856 
-0.2281917296988947 
-0.1957743968658708 
0 
-0.750751928399315 
-0.0157136276834373 
-0.02280083428545046 
0.08910693915321335 
-0.2048631646121828 
0 
-0.3734175149338084 
0 
0 
0 
0.1069886844557194 
-0.9830268801621324 
-0.04756953113007065 
-0.05980007189281041 
0.01789049972228733 
-0.03070975260095505 
-0.03468126997246704 
-0.0709447801897667 
-0.01143777581832731 
0.08000011746786274 
0.161627728912883 
0 
-0.04248409532298026 
0 
0.7172982495259321 
-0.2222981941748234 
-0.1006581738085242 
-0.07457859087488061 
-0.2420297047053122 
-0.1231088137683822 
-0.03785976616605177 
-0.4866384006403998 
-0.04561538258895758 
-0.1280254273484542 
-0.01741202254460717 
0.2952890664262859 
-0.04302809005140792 
0 
-0.02650975215841634 
0.06174498556085726 
-0.198011843609377 
-0.001605443837790708 
0.01419539072442391 
-0.70220962064346 
0.02334690731735286 
-0.04282189599055494 
0.09652301899179473 
-0.03365577445906366 
-0.05040458431758865 
0.3652971318548442 
-0.4435463004384958 
0.01906379086655844 
0.03780237954528259 
0.5298573258205699 
-0.0226788781612894 
0 
0.09673651286256699 
0.02809511295244604 
0.03304960466717751 
0.2151484246118593 
-0.6042985388890953 
-0.01066872999016339 
0 
0 
0.04834716316751927 
-0.4613790254692865 
-0.6643888645896004 
0.001075576470038278 
-0.02182201095506397 
-0.03617478997193527 
-0.2536279216462231 
-0.1324693175742148 
-0.07694975860763899 
-0.04054616610619031 
-0.01313529864882751 
-0.2553774981174148 
0.01089970533048251 
-0.1631805556318696 
0.1610978521812212 
-0.4627901972136885 
-0.1516360061857664 
0.06906447138660128 
0 
-0.1630930665999713 
-0.1630930665999713 
-0.1090521554901298 
-0.1029144504963129 
-0.6416318814087931 
-0.7783456311226133 
0 
-0.08788176477768543 
-0.1754868328256129 
-0.02081030090602944 
-0.1409702259980763 
0.2911890253680627 
0.1278236362908945 
-0.1083978493781957 
0 
0 
0 
-0.9063891965069369 
-0.004948243097907703 
-0.9046863965672659 
0.07226646550575927 
0.03314264588490281 
0.3658980811752179 
-0.2039043715858439 
-0.1387415455563836 
-0.2028605679785667 
0 
-0.08988921940349967 
0 
-0.06627837927546545 
-0.9704636400800292 
0 
-0.6230264794456432 
-0.0764032696946563 
-0.02669008152572206 
-0.03023636189991303 
-0.01048495246956438 
-0.1620251511036173 
-0.2277737849702939 
-0.004389532205997164 
-0.4896080520113735 
-0.362967507841192 
0.2017992065989774 
-0.05809461017131536 
-0.03420216725498412 
-0.5102929791670545 
-0.03802832113652675 
0 
-0.5128080167717081 
-0.03517653216797834 
0.02860947933410894 
-0.3478956245540996 
-0.08175344196331608 
-0.03629017681092456 
-0.001624987490164089 
-0.005941995205081772 
-0.01517975321208168 
0 
0 
-0.2970313645285357 
-0.05178182901609332 
-0.05049747481547383 
-0.001284417693978487 
0 
-0.3730141168532336 
0 
0 
0 
-0.07491713583170408 
-0.4795053537411074 
0.7157935765651529 
-0.02999028284535744 
-0.05177242807342543 
-0.009398524382172717 
-0.05036271187864772 
-0.1677391215292745 
0 
0 
-0.0006030573318658767 
-0.893739431028307 
-0.4975106292945774 
0 
-0.03224811290776555 
-0.2148005525838327 
-0.03319225003416561 
0.1917414602127183 
0.03228961592296044 
0 
0 
-0.5515549735759391 
-0.07157951105024543 
-0.4589172681462171 
0.01255534523172692 
-0.0139848338959483 
-0.1240928311278586 
0 
-0.01565078093908584 
-0.4428080348563326 
-0.01417546826184232 
-0.2334613573659169 
0 
-0.06234242298515989 
-0.003826889131676219 
0 
0 
-0.2248711310721475 
0 
-0.1007561545809788 
-0.01162472719033296 
-0.1804528565200933 
0 
0 
0 
-0.1490889245914043 
0 
0 
0 
-0.1678914147355409 
0 
-0.2099703836634345 
0 
0.004549765622782331 
-0.1078768448473693 
-0.6304607865194666 
-0.007274746829964574 
-0.1170460958878221 
-3.659687948240183 
-0.3449061246975734 
-0.8204893176369161 
-0.006527188961970568 
0 
-0.3175843532960098 
0 
-0.06620315573117824 
0 
-0.05315456263024979 
-0.07908016088968407 
-0.1645083058409359 
-0.217466163336505 
0 
-0.02998999906527088 
-0.06255798651205757 
-0.2849893609435968 
0.07551092429057306 
-0.006437286021641479 
-0.001264369495063825 
-0.05950915277959805 
-0.06780597584713091 
-0.630207056772609 
-0.1083468504152144 
-0.04973189657941914 
-0.03022784831074418 
-0.04199099361050036 
-0.003707508606777521 
0.1219722756969973 
0 
-0.1557764532477311 
-0.01141914659310545 
0 
0.7430946814005761 
-0.2397232741765068 
-0.005644995300738503 
-0.07285264271076006 
-0.2744161973174086 
-0.1226076408860558 
-0.4550579744382631 
-0.09298322165058703 
0.2291862337503886 
-0.06234840029079645 
-0.1149311707753057 
-0.3097009087246025 
-0.004388053043555322 
-0.03748066284545431 
-0.3221282470893268 
0.02375118338247974 
-0.2068876943950882 
0.04370824326782205 
-0.01789549030869879 
-0.012895031198541 
0.1282239783282724 
0.03386692232428382 
-0.1184722043391291 
0 
-0.5359021153031196 
-0.0530800505928039 
0.0004599113518954095 
0 
0 
-0.001764557068399985 
0.5214648823805608 
-0.1126595550559269 
0 
-0.1311948503209397 
0 
0 
-0.004327403700877547 
0.2208676870715403 
0.3943996573360681 
-0.06261171410690815 
-0.1953232967841504 
0.2151399112571551 
0 
0.35020792282727 
-0.08459549027107309 
-0.01704057207899813 
-0.7234187604554576 
-0.1048629229829602 
0.3460664115550808 
-0.07647055298325149 
0 
0.3060937564785955 
-0.08576865380710368 
-0.2307990363131018 
-0.1304987228608712 
0 
-0.0486186656331537 
-0.07504927189722453 
0.1047672927757793 
-0.005328546101027453 
-0.008250673739988888 
-0.01702025919027465 
0 
0 
0 
0 
0 
-0.1118811804803224 
-0.0009359705886012905 
-0.08512516040341554 
-0.04315478729705772 
-0.0160651101182806 
-0.05714644684566631 
0 
-0.05334953462665531 
0.533065604017834 
-0.07492981597246137 
-0.1476100344711521 
-0.007061990255544248 
-0.01135779909610119 
-0.1566581917663473 
-0.1800262920450317 
0.06835401202317763 
-0.006249007509632077 
-0.05845756551242533 
0 
-0.0812813469066446 
-0.2293891678214717 
-0.1191015170953692 
-0.01385984412452131 
-0.7306480657434219 
1.095543886907113 
0.06696994651381522 
-0.2479620970179493 
-0.02351212480723759 
-0.07636182298571614 
0.5387658945597822 
-0.2240337973652781 
0.0009535481957161964 
-0.004040467408741417 
-0.0008439494363726503 
0 
-0.1420477936642263 
-0.02561331603279371 
0 
-0.1075186155783894 
-0.174714702340905 
-0.225429806994545 
-0.2790723495568044 
-0.6279620446151628 
0 
-0.03618059221328441 
-0.003114718735704938 
0 
0.01881891153878264 
-0.007575536031950691 
-0.05260978182186859 
-0.1020846185486268 
0 
-0.03283246185590125 
-0.2131119221970558 
-0.5729029899793238 
0.3936311220332416 
0 
-0.005336945539958299 
-0.2029450725084023 
-0.06497675719927738 
-0.1620539130565488 
0 
0.5578972335419576 
-0.01113699785296187 
-0.4103402879754473 
0.1385530742338683 
-0.09976606297361398 
-0.04775246323653515 
-0.2752959743524618 
-0.07741205583506471 
-0.01818804050094886 
0.1771426460397611 
-0.7120315225693549 
0.0232608219352419 
-0.2522790147338959 
-0.005473193840970488 
0 
0.004262767886607082 
0 
-0.04154242767785841 
-0.5860270728560378 
-0.3920235534699594 
-0.01389314133339039 
-0.1340111961433675 
-0.01733063278475835 
-0.2274519854765388 
0.01390918986663883 
-0.09644468968538171 
0 
-0.04804707059377818 
0 
-0.1504134290529202 
-0.0009575532544004117 
-0.1526374521080281 
-0.1893212947564545 
0 
-0.05048573932677532 
-0.04076042887456104 
0.05065709754138528 
-0.01340236711601372 
0.1154158797723417 
-0.06722501263554753 
-0.01790501179914142 
-0.2210484973386945 
-0.3491119221047269 
0.1284367203072719 
-0.1307493543705585 
-0.5757714910525012 
0 
-0.05289327555051173 
0 
-0.00252873899012765 
0.03094124129265562 
1.317734094187822 
0.08427886509382965 
0.01313951364279573 
0.05490951555310695 
-0.04366521115267067 
0 
0 
-0.02124741486986395 
0 
0 
-0.09354086279472763 
-0.0009441371264000549 
-0.4300956902300603 
0 
-0.06695189317216849 
0.006098216653922648 
-0.08689412121622266 
-0.0009359705886012905 
0 
0 
-0.1618040136926766 
-0.07167163646789711 
-0.01328677583985655 
0 
0 
0 
-0.04502267408427577 
0 
0.0642328499378312 
-0.05407005206045596 
-0.01282777572145115 
0 
0 
-0.1801587566611279 
-0.0007697089211220556 
0.1922006926677588 
-0.07460337774693994 
0.1446458376118123 
0 
0 
-0.2034800457394292 
0.004874057670058885 
0.04918760960010393 
0.601456643545324 
0.0173259240911337 
0 
-0.1496823300537252 
0 
-0.01931172293960181 
-0.2252560805817982 
-0.06221168921127904 
-0.09344130290628097 
0.008522402803002427 
0.1732182438753167 
0.007208702866556477 
-0.04617203213585225 
-0.02746695072695405 
-0.5776892801745672 
-0.3351087383382846 
-0.1161904718166497 
0.001136229569443947 
0.002032236206142248 
-0.05861730207158508 
-0.1694898537404215 
0.01423433088781475 
0.01548263314687058 
-0.1084759123063023 
-0.3333212891431434 
-0.137285748664549 
-0.2176231340877097 
-0.04119289327596055 
-1.332132378079153 
-0.005982732092863214 
-0.157982998335371 
-0.09852910282766214 
0 
-0.1473809392317528 
-0.03750602050610244 
-0.4106886885060492 
0.03777697736126926 
0.1004911347654788 
-0.04120960723095821 
-0.09339772863759804 
-0.138229383296797 
-0.2199346303414081 
-0.004558914226918233 
0 
0.1036434226638393 
-0.009725031855291458 
-0.05835046364244746 
0.01478291379695768 
-0.03319686922874419 
-0.2015738890302735 
0 
-0.02839526225418512 
0.1030580236207703 
-0.006564024975522468 
-0.01483953246385834 
0 
0.3907283998975312 
0 
-0.1730203580011364 
0.0841381051676518 
0 
-0.05061379215008296 
-0.08616519014954931 
-0.2352671371898887 
0 
0.04096863710128729 
-0.1286861619373916 
-2.019166947930441 
-0.3086899931970334 
-0.07429317204859782 
0.0723492863363764 
0.004326351940009731 
0.1146061872645527 
-0.3191380628690837 
-0.03273760528592273 
-0.683040092393422 
-0.3297829286220429 
0 
0 
0 
-0.07477769242494881 
0 
-0.2571829325954336 
0.1075624460940855 
-0.05012236693834207 
-0.00166186481121182 
-0.08977772025704209 
0.1296327986914415 
-0.1324952649159742 
-0.05581911419183568 
0 
0 
0.006037954065427557 
0.005773863660816899 
0.3278427915160476 
-0.7238563484572195 
-0.0487160403327711 
-0.05804614950407758 
-0.06063398917312422 
0 
0.08288287989748482 
-0.1654690682581592 
-0.0388786899168197 
-0.5887711891754371 
-0.01889155345627652 
-0.0846269246538814 
0 
-0.6236298269253502 
-0.01618161296550341 
0 
0.03998851255732627 
-0.003216308121995447 
-0.04831912375754809 
-0.004327403700877547 
-0.6741789822800922 
-0.2403974352290374 
-0.09836266247844422 
-0.04578362071974466 
-0.09451258001043752 
-0.0487360391499387 
-0.02877283553828602 
-0.09418369344478572 
-0.04185933363787907 
0 
-0.00328571501642374 
-0.04314926855075342 
0 
-0.8002644929312739 
0.02994722047900822 
-0.1700264305517701 
-0.04023925846735366 
0 
0.01522953678543044 
0.08826486378562522 
-0.1263624537891995 
-0.1147655101692386 
-0.0482636535381088 
-0.4119302775669176 
-0.0108760320934309 
-0.05702136953611726 
0 
0.590395002630608 
0.0950705320591031 
0 
0.001017457654767502 
0 
-0.002715047330993208 
0 
-0.02329663058778082 
0 
-0.04844945382684097 
0.3644095162657946 
-0.04506852749852843 
-0.6512048395140477 
-0.2288053236859237 
-0.2303177862621966 
0.06252060180658808 
-0.03350632075803998 
-0.1435665655047554 
-0.0279436028075759 
-0.02930536510199475 
0.346196369218905 
0 
0.002240731704512037 
0.0486369793101562 
-0.2727681368097851 
1.073129666786181 
-0.1587375839754579 
0.1089496148083643 
0 
0 
-0.1302470158797357 
0 
0 
0 
-0.01901123668155128 
-0.09963549870867079 
0 
0 
-0.4074111287497767 
0 
0 
-0.1338376579018343 
-0.003552552688409 
-0.007105105376818001 
0 
0.0002860207073937339 
-0.04889511742660728 
0 
-0.003948827741135214 
-0.1492311220484961 
-0.2468057392476821 
-0.5578944627336795 
-0.005153074526356897 
0.00581679086581416 
0 
-1.5438949744357 
-0.0007365480653584279 
0 
-0.003319937705602405 
-0.07545245901893884 
-0.01248851932450192 
0.03350052536501866 
0.07507827291638797 
-0.1064607618848164 
-0.01001226444003645 
0.07091532989985824 
-0.01077897027571181 
-0.1950344634141337 
0 
-0.7796041102662209 
0.08655267590934598 
0 
-0.0199593481219306 
-0.003707508606777521 
0.104328568853414 
-0.466417052939375 
0.2128509226627664 
0 
-0.02089193338501768 
-0.02089193338501768 
-0.02237628459751802 
-0.08897009639445455 
-0.01946418303077035 
0 
-0.03615787866716828 
-0.1523564480238607 
0.3763842555887616 
-0.0005789764794344298 
0 
0.08231877579634017 
-0.07952129255806738 
-0.09165897469535751 
0.2100859830163924 
0 
-0.01388287994397339 
-0.3066834181910548 
0 
0.0006807412567508483 
-0.01359299876700648 
-0.7788340060169158 
0 
-0.3758637161523628 
0 
0 
-0.2676266643377482 
-0.05741754013363 
-0.02716261237695899 
-0.2526213203738748 
0 
0 
0 
0 
-0.04284530730224436 
0.01696634114123493 
-0.2753241250687922 
-0.5645776716538842 
-0.06299087220655958 
0.06560445699073859 
-0.03770718982103768 
0.002764239738538735 
-0.01298000447258225 
0.04042846952218693 
0.1985951435394958 
0 
-0.03384519683316913 
0 
0 
-0.03459733686882889 
-0.2013102722224657 
0 
-0.002730977822126263 
0 
-0.025533293524066 
-0.08899853817502185 
0.07026121518177528 
-0.01450349742111936 
-0.02474837677457328 
-0.7820030972352877 
-0.05736424675670962 
-0.06961555648688782 
-0.1009487238272595 
0.1738735254111739 
-0.0145401193459813 
0.1284494289477285 
-0.1400909133852565 
0.1299802285126094 
-0.004809678608300265 
-0.05064506190107215 
0 
0 
0.2854239346606057 
-0.1544229510996583 
0.009176588973599116 
0 
-0.0229326790453602 
-0.7977410785042154 
-0.4751276651659233 
-0.1300722064238027 
0 
0 
-0.01366677689890152 
0 
-0.02351621613449627 
0 
0.003753268451111247 
0.7038288475470095 
-0.1044469429768193 
0 
0.348605696341994 
-0.01143521473257197 
-0.02424735877402521 
0.04309570175934883 
0.006801038931871425 
-0.09540040053035839 
-0.0145877271897313 
-0.02729417127099589 
-0.04771347481072612 
-0.06729278677813792 
0 
-0.0717787568473891 
-0.05602225531394311 
-0.02728613285133626 
0 
-0.009824645776121868 
-0.02532081036455325 
0 
-0.1008320992723837 
-0.5348793702110812 
-0.008516671258115987 
-0.05241580140850987 
1.801955616360439 
0 
0.1732833732702024 
-0.07936773023069192 
-0.01312454601894836 
0.0002860207073937339 
-0.02335797815843705 
-0.01903952557086964 
0 
0 
0 
0.7155131710527671 
0.2567922627251564 
-0.3304191424516557 
-0.06950883836132399 
-0.04036027026659454 
-0.1647062916717976 
-0.5321081070673654 
-0.06901965009293833 
0 
0 
0 
0 
-0.01788918925755384 
-0.04911917486322169 
-0.008755365208434923 
0 
-0.09536963377791161 
0 
-0.2804565259575426 
-0.1639900919395275 
0 
0.5313859199915218 
0.1732363089752378 
0 
0 
-0.05532074331457743 
0 
-0.009968725223507337 
-0.1768924000658137 
0 
-0.004026952012117022 
-0.005245833045871255 
0 
0 
-0.001605443837790708 
-0.136444229713856 
-0.186764886334761 
0.02089119487236623 
-0.02268145878861367 
-0.1453878614560469 
-0.0002451901691035196 
-0.02298972243635818 
-0.02812691716158328 
-0.02029595775597605 
0 
-0.008502790844816303 
-0.1300800560933525 
-0.4631705645602538 
0 
-1.386148711072825 
-0.07874923794927116 
-0.6197218062335137 
-0.05526794898076353 
-0.5510503119120105 
0.3382097726635281 
-0.03775366463242211 
-0.489519297244939 
0.0002568736074163571 
0 
0.03187280096482603 
-0.2100627201829983 
0 
0 
-0.01475097054130044 
0.05277642650896981 
-0.6509414023842117 
-0.06463705717992492 
-0.01827737222458847 
0 
-0.07343572717020951 
-0.3913476743341497 
0 
0.01395442981489977 
0.004760015064788305 
-0.003174957911722317 
-0.01585688422199739 
-0.1014473150425897 
0 
0 
-0.2444824340126167 
0.0006950152360417712 
0 
-0.01661300125744483 
-0.05464355680474207 
-0.08736029199320317 
0.009717153768175151 
-0.01200266534260662 
0 
-0.008502821848746088 
0.03868183888491259 
-0.4572834720629887 
0 
0 
-0.8657032352101292 
0 
0.4577084990110524 
0.6287819027157985 
-0.02062613713392374 
0 
0 
-0.03349769048084983 
0.1047111240691102 
-0.03585463468876485 
-0.4887983013895635 
-0.03348087934111166 
-0.1229181737799151 
-0.09668943095994664 
0.01548121762952952 
0 
0.07418760514802934 
0.06669736726831789 
-0.1585579219713721 
-0.3139457128459014 
-0.00499340075278865 
0.1031352615978585 
0 
0 
0 
0 
0 
0 
-0.1694759772073616 
0 
-0.02831974022530183 
-0.1838037934853425 
0 
0.1391958475833829 
0 
-0.0147728393824376 
-0.09898419217594234 
0.0187432793741947 
-0.1934838615868977 
0.05428445516545919 
-0.5744799268194364 
0.1458758709390194 
-0.3197723437221818 
-0.3509351758228063 
-0.05518751133140806 
-0.180641955073008 
-0.4090444729059712 
0.04435221465972935 
-0.1245018924117924 
-0.1213422026503579 
-0.1337339486257967 
0.0004319501401342291 
0 
-0.1673210107005424 
0 
0 
-0.04565789115571575 
0.004650629563742243 
0.5507648564580243 
0 
-0.1988139369809021 
0 
0.0006100239945279301 
-0.03107898852472228 
0 
-0.08973189949545196 
-0.009995623508337213 
-0.07693991558647244 
-0.03045938324075965 
0 
-0.01233198633546049 
-0.1222564156330217 
-0.03018686956079841 
0.06222332015036234 
-0.09226459818969573 
0 
-0.04551310101789111 
-0.2626220388029936 
-0.06354835386350258 
0 
-0.3011217902050364 
0.1651370388126714 
-0.2806528291620542 
0.04050315520379459 
-0.05293164989544093 
-0.04209147959171758 
-0.02333203642943539 
-0.02846396818546551 
-0.01608205389039801 
0.2263523953580811 
-0.500985897822417 
-0.1377991662984949 
0 
-0.1713568714769074 
0.03788447337111013 
0.02368688662087836 
-0.2721509125489291 
-0.1366987874551331 
-0.0055584860047878 
1.254486060207179 
-0.01910702495404097 
0.1133800952984009 
0.01305756921376461 
-0.04146067274475024 
-0.02350902163620833 
0 
-0.09254791506323207 
-0.02930176903237037 
-0.3740875205141694 
0.1968190473267375 
-1.571741466118419 
-0.007221573441056856 
-0.1980277770646897 
-0.1729637745105053 
-0.463693072624245 
-0.1173543734495809 
-0.1340526152356259 
-0.02850030948595483 
-0.2129354929589881 
-0.005064535724679936 
0.02644364623638166 
-0.3195889478636211 
0.01955437088058021 
-0.3245706117529044 
0.0514612390566303 
0.1726892866328304 
0.1536776503858246 
0.02591456701372101 
-0.2313245569268909 
-0.0595706424236713 
0.01099066961501253 
-0.7896462312237938 
-0.07442719212246761 
-0.4116150814350853 
-0.1690859300181972 
0.008674509432346546 
-0.2065260782603714 
-0.4548584094810089 
0.1306957564986617 
0 
-0.0667546333980118 
0.01127869762174494 
0 
0 
-0.144033092760955 
-0.7475216291936431 
-0.03822491648169123 
-0.1124588783727246 
0.1208957858708693 
-0.0001470263393002007 
-0.05276764637671084 
0 
-0.1421820649575139 
-0.02579070186458674 
0.1616155778069548 
-0.1382610300785694 
0.0405182523130338 
-0.1986267527631279 
-0.03014989149809107 
0.08615620516471385 
-0.1341902772607672 
-0.03358850701799745 
-1.768018887619218 
0 
0.04885966846619899 
-0.02519905257187766 
0 
0 
0.007926080786323193 
-0.07053087223018517 
-0.8384424039917974 
-0.2232142825852856 
-0.4601369520005272 
0 
-0.1961960042144428 
-0.05430192949059549 
-0.4422376196078323 
-0.06105952042312498 
-0.1131180079274535 
-0.004533156152156142 
-0.3249219587507007 
-0.1049421289785696 
-0.03397464654532408 
-0.005691818003503075 
-0.2251534866632725 
0 
-0.005791204550733024 
0 
-0.0346330214807583 
-0.01452510351744216 
0 
-0.0005227758410863331 
-0.1000753884054799 
-0.009283837625442052 
-0.007768395888478955 
-0.07342835168587156 
-0.006386452034498946 
0 
0 
-0.1534194399547751 
-0.001246241646561424 
0.05895888939512411 
-0.1134631356429612 
0.01331185498665247 
-0.0435840161004651 
0.475623925534558 
-0.1022587666160574 
0 
-0.6079212734867874 
-0.7351779608765872 
-0.02396290562027539 
-0.1850766790707764 
0.08243856737907604 
-0.3175516793675126 
-0.007346417422009876 
-0.1100282974278849 
-0.03060573447749344 
0.01907715618896736 
-0.1494758156747348 
-0.1030332949922792 
0 
0 
-0.04869208907768873 
-0.3673366875402315 
0.0654806478175322 
-0.002245890260425188 
-0.01668944091449542 
-0.0753319483648706 
-0.04929124836161456 
-0.2132802901429576 
-0.03347562422009211 
0.04128564305520045 
0.00207422722570429 
0.008186594064934528 
-0.01075166072433507 
-0.1342803839407775 
-0.002209557157965402 
-0.0207093616967606 
0.008708843997619653 
0.0308434766506627 
-0.03874233056972744 
0.2101322243439807 
0.1342607783638049 
-0.2342161956398606 
-0.233550330752205 
-0.3007441421771101 
-0.3153813707059321 
-0.02670539385182572 
0.006488941565762252 
0.007913123717254783 
-0.1187537810674802 
-0.01150984344595318 
-0.1461072281404549 
-0.004310689289538168 
-0.2663339784300934 
0.6118197698454249 
-0.111569812231806 
0.1060074795800451 
0.09688703465436414 
0.2041484118190992 
-0.1099586606280174 
-0.101272486644418 
-0.01539171480312619 
-0.02070695690953949 
0.1080283712244662 
-0.1004714236289388 
-0.4347152580319339 
-0.005906613410189751 
0 
-0.06100578623650059 
-0.110880015808309 
-0.05708789052275176 
0.08907353984843108 
0.225590318764422 
-0.06115188608548213 
0 
-0.08663685905461047 
-0.02110989204937377 
0 
0.50690471192154 
-0.01419186510507337 
0.2371959735624258 
-0.05495019828954191 
0.2607055330843456 
-0.6117226412959554 
0 
0 
0 
-0.07398731084857869 
-0.03308204111186623 
0 
0 
0 
-0.0002613879205431666 
0 
-0.271555406490862 
0 
0 
0.01692648158331244 
-0.1560374087147016 
-0.8116505220259573 
-0.01995233812542503 
-0.01356995278140783 
0.2484313201323653 
0.05256836027423011 
0.09611847936421158 
0 
-0.2081945790431412 
0.0197031845279355 
-0.4124549589593827 
0 
-0.04695186205104745 
-0.008904294690307063 
-0.0945038913976407 
0.01896299976614659 
0 
-0.1778249468792995 
-0.1580849785929995 
-0.4447851573448707 
-0.001605443837790708 
-0.2362883563659721 
-0.2028168737096771 
-0.07572212264061509 
-0.1079005232502429 
-0.0184293819407812 
0 
0 
0 
0 
0 
0 
0 
-0.02667457796583993 
-3.188686281710209 
-0.01829818250150407 
-0.07305568541781179 
-0.1382322930991363 
-0.241007077100054 
-0.05586133222093934 
-0.01469667757780804 
-0.117428575216604 
-0.3026263149209717 
0.1357731769799031 
1.019749100526043 
0 
-0.001538324439093735 
-0.09198074550607042 
-0.09516010147520468 
-0.01272456648940622 
0.01212345979221059 
-0.02266300817374651 
-0.8803211987253311 
-0.04470263775511172 
-0.3947043875888831 
-0.499629980020336 
-0.07124199362703804 
-0.1120854590162745 
0 
0 
0.1417143271273469 
0 
-0.05047530977313449 
-0.4077254013539631 
-0.3250946682593783 
0.02100123030423764 
0.1228407983785631 
0 
0 
-0.05178121860543162 
-0.1246928618621753 
0.7399258145582872 
0.1428105373289061 
0 
0 
0 
0 
-0.0403608351128554 
0.02537132848531923 
-0.08501665511066173 
0 
0 
0 
-0.02024326288517646 
-0.02247548260748174 
-0.1309340086000113 
-0.009606289982823287 
0.2022648735973099 
-0.3480645872489354 
0 
-0.5250982036794114 
-0.2677457344129838 
0 
0 
0.02679647262407872 
0 
0.09092602071327673 
0 
0.01475168188886648 
0 
-0.0412286454922442 
0 
0 
-0.0009441371264000549 
-0.05380575276132812 
0 
-0.108061525912508 
0 
0 
0 
0.1788111665634949 
0 
0 
0.00883700920791664 
0.002766400540208262 
-0.0203396571071585 
0.05242089263456633 
-0.008192933466378789 
-0.02862313530025273 
0 
-0.03706156843839521 
-0.08353849433443694 
-0.06321337236266274 
-0.02526749832363237 
-0.002730977822126263 
-0.009326089042365513 
-0.08963861788543759 
0 
-0.008783728730742908 
0 
-0.04172369239699969 
-0.002730977822126263 
0 
-0.2042989541588803 
0 
-0.002730977822126263 
0.01509080664034411 
0.04233786034898263 
-0.007000280083346259 
-0.02347259261568516 
0 
0.009141747888849193 
-0.07003855683112266 
-0.09134111072234465 
-0.004282134132213557 
0 
-0.1338646574348892 
-0.0403625831538597 
-0.009918768758983811 
-0.01266410893733404 
-0.02795115510649804 
0.02321437867031081 
-0.04666431280661459 
-0.0243668282279437 
-0.008100493239757704 
-0.5759394205861756 
0 
-0.03160470450828955 
-0.08070287944990788 
-0.002730977822126263 
-0.1040785765736938 
-0.02317959788764025 
-0.009505546703167934 
-0.005461955644252526 
-0.1554669571460098 
-0.01797519964861542 
-0.32023624575381 
0.1084861285330502 
-0.03273406563301159 
0 
-0.08631088677990059 
-0.02684412311100434 
-0.007938338532587817 
0.0325733749063933 
-0.1218619613534827 
-0.008192933466378789 
-0.03481188446308199 
-0.02357908881415945 
-0.005212710121267694 
0.02574027430108185 
-0.002730977822126263 
-0.2573289294501182 
-0.005461955644252526 
-0.1048761307383976 
-0.02113237140492936 
-0.06055746333307691 
0 
-0.01861452088613805 
-0.01924450854750732 
0 
-0.02251132945435761 
0 
-0.02060295935797192 
0 
-0.005461955644252526 
-0.0150615128466145 
-0.007952741260225993 
0.008600593511770492 
-0.5285412860015146 
-0.005461955644252526 
0 
-0.1782634279600038 
0 
0 
-0.0303670748989108 
-0.02785603921252771 
-0.02076532473538636 
-0.02486720404911981 
-0.02457862385141404 
-0.006518793351281497 
0.01197393874028975 
-0.05604443475013879 
-0.0724790127040245 
-0.3184573241194043 
-0.002730977822126263 
-0.1097624699408701 
-0.05662027843013587 
-0.005094326500883913 
0.00142108172007842 
0.01494248901158575 
-0.09690007013373818 
-0.002730977822126263 
-0.01243056846419027 
0 
-0.0394522102410531 
0 
-0.005977284007721973 
-0.02054309238792352 
0.05791232379900556 
-0.01170912094285571 
-0.06486847126947926 
-0.03779391611064822 
-0.165849982395667 
0 
0 
0 
0.002918108325959937 
0 
0.02203930970399489 
-0.02435572661045702 
-0.4526655417848109 
-0.4341223728515259 
0 
-0.002730977822126263 
0 
-0.0143719758170468 
0 
0 
0 
-0.0178951811677714 
0.001415981541937108 
-0.0411379111933029 
-0.1068002188896392 
0.03092235064836808 
-0.002730977822126263 
-0.05631345181630459 
0 
-0.06079505341577046 
-0.002730977822126263 
0.05874393104781694 
0 
-0.009190914600367372 
-0.002730977822126263 
0.02015072505837983 
-0.07100218364473676 
0.657988514181495 
0.03316751188712251 
-0.03463579488972576 
-0.004872631638436488 
-0.2083551094336283 
0 
-0.00400482617474721 
0 
-0.1248100270802999 
0 
-0.05307348209242926 
-0.01333892585368943 
-0.1436926403441069 
0.4038072115433697 
-0.002730977822126263 
0 
0.02222604522358677 
0 
-0.002730977822126263 
-0.002730977822126263 
-0.0149020682112461 
0 
0 
0 
-0.08301907063718882 
-0.04302502648611319 
0.07693941440615806 
-0.005461955644252526 
0 
-0.03481703297934299 
-0.008626729241984012 
0.2533026592561754 
-0.1584705083504412 
-0.0517739869324422 
-0.002730977822126263 
0 
0 
0 
0.09711301632461949 
0 
1.177724379499332 
-0.002730977822126263 
0 
-0.002730977822126263 
-0.1547185149036442 
0 
-0.09664385780126068 
0 
-0.006135214949800675 
-0.08851872154846524 
0 
-0.02810855371608373 
0 
0.03639882668901962 
-0.2481013993995687 
-0.04227735007696843 
-0.005557292052658053 
0 
0 
-0.002730977822126263 
-0.06362123990873222 
-0.06652480719561385 
0.03064576852813955 
-0.01774959413450823 
0.02252004480104753 
-0.09885522433090155 
-0.04761110260424678 
0 
-0.06893744396702436 
-0.04534068245808957 
-0.03120333858463399 
0 
-0.01119624709883319 
-0.2469953189080123 
0.003529825979642507 
0 
0 
-0.002730977822126263 
0 
0.01178792964824341 
-0.01107321640192628 
-0.007000280083346259 
0.06619359265291092 
-0.01751902250874431 
0 
-0.04729830781393035 
-0.005461955644252526 
0 
-0.008933093911169893 
0 
-0.02140080288969658 
0.05344070178604059 
-0.002730977822126263 
-0.005196008023841092 
0.005396641123740665 
-0.002730977822126263 
0 
0 
-0.002730977822126263 
0 
0 
0 
0 
-0.001562644339174656 
-0.3617487186271473 
-0.1954504962618047 
-0.09219654916696249 
0.05292883526168166 
0 
-0.002730977822126263 
-0.002807911765803871 
0 
-0.05985632292238007 
-0.01620236204290382 
-0.02042442423947411 
0 
0.0532228625484187 
0 
0 
0.01886695718224524 
-0.005461955644252526 
-0.04952214560188287 
0 
-0.08459292985554102 
-0.02047469497168501 
0 
-0.02915385949665333 
-0.01751234796478051 
-0.01293826515639793 
0 
-0.0485392488236038 
0.03544426277236173 
-0.02772882888349112 
-0.00659520469018514 
-0.005461955644252526 
-0.02313608892261682 
0.02734382142645541 
-0.0134048914784397 
-0.01233636488625614 
0.1458790331140901 
0 
0 
0 
0.003284086577253766 
-0.003707508606777521 
-0.06243889338943348 
-0.02282850378884996 
-0.05288650718825969 
-0.07014701863221544 
-0.01172466742958106 
-0.01802991418014605 
0 
0 
0 
-0.02787410931826463 
-0.01869119963108255 
-0.01283122166361564 
-0.0326949927162278 
0.03319119964094095 
-0.1299801581864717 
-0.2428392793384972 
0.04391781984174915 
-0.02903363664501283 
-0.04007400266361001 
-0.002730977822126263 
0 
-0.134595955715632 
-0.007141754473504403 
-0.007784772364801729 
-0.0155174186352114 
0 
0.05706865037780196 
-0.01568892800478718 
0 
0 
0.1751798600547342 
-0.005700803830479096 
-0.02685493479101181 
-0.09706836949333714 
0.00367554834064741 
-0.004162452553581108 
-0.2309135385164961 
-0.02499507057529763 
0 
-0.018246168034124 
0 
-0.002730977822126263 
-0.008192933466378789 
0.003466558658040095 
-0.00613944003344144 
-0.002730977822126263 
-0.005461955644252526 
0 
-0.01583556092011737 
0 
0.4379233290495432 
-0.002730977822126263 
-0.03791800300428669 
-0.002730977822126263 
0.00703466727120496 
-0.008559069047863502 
-0.1104123006992956 
-0.04357571199938742 
0 
-0.05138125218328265 
0 
0.05365095160481054 
-0.06987328965374158 
0 
0.06246848067538313 
0 
-0.003114398062703766 
-0.03142977235033526 
-0.005461955644252526 
0.009304777368493026 
0 
0 
-0.003491561869477407 
0 
0.02017484270884083 
-0.03112930209844113 
-0.002730977822126263 
0 
0 
0 
-0.02897118428479993 
-0.003776529504298929 
0.07423647363221229 
0.1330899072472992 
0.01042064550968981 
-0.006364679633892892 
0.1213421442818546 
-0.02439644159305218 
-0.1134361864154861 
-0.005461955644252526 
-0.04182856253055642 
-0.002730977822126263 
-0.1764558959742057 
0 
-0.04727791373204589 
0.0693361617681537 
-0.006640457881334473 
0 
0.002879183699166744 
-0.0008433092030519627 
-0.2532972661071894 
-0.04320824922465929 
-0.02289340507147692 
0 
0.2024416987710966 
0 
-0.04460558562081444 
0 
0 
0.0009824016503038988 
0 
-0.002034703069030991 
-0.03304930951766036 
0.03559149211653981 
-0.005461955644252526 
-0.1593541149586843 
0 
-0.002730977822126263 
0 
0 
0.03438826602020374 
0 
0 
-0.03202391809536489 
-0.07726412196803643 
0.02758764902292499 
0 
0.3076814331757192 
-0.005461955644252526 
-0.275558764460703 
0 
0 
0 
0 
0 
-0.01415901288039282 
0.1040633234349729 
-0.02283727075339105 
0 
-0.1690237611475176 
0 
-0.0845945746991162 
0 
-0.05251283584003998 
-0.005461955644252526 
-0.005461955644252526 
-0.044509106161798 
-0.2680580607276028 
-0.005613350304941181 
0.0235690078735903 
-0.06920587371093244 
0 
0 
-0.02116065356953325 
0.1634688687634276 
-0.0017314918314789 
0.01283140934663764 
-0.02398386527267465 
0 
-0.0370876089235296 
0 
-0.007604055613319104 
-0.01408622035134102 
0 
0.4343326128233242 
-0.002730977822126263 
-0.002730977822126263 
0 
0.01302162114879357 
-0.09190433196842582 
-0.1531431505708752 
-0.4766234955598747 
0 
0 
0 
0 
-0.0952907853573239 
-0.003309954301560693 
0 
0 
-0.02039677741223477 
-0.04784837402285858 
-0.004282134132213557 
0 
-0.01448991375368886 
0 
-0.3579865547461779 
-0.1868727533599616 
0.007146094061669856 
0 
0.03690490581879342 
0.01257862643461514 
-0.07374638923535688 
-0.01472757418109734 
0.03040382030030523 
0 
-0.02547544701157586 
-0.0646335897246625 
-0.002730977822126263 
-0.0147255793152034 
0.01876277409228817 
-0.1122262739241498 
-0.04330177930297894 
-0.2175751757947138 
-0.1224185414085534 
-0.002730977822126263 
0 
0.06351611729641747 
-0.7877063529041228 
0 
0 
-0.002730977822126263 
0 
-0.2285456893911409 
-0.002730977822126263 
0 
0 
0.004870683339638043 
-0.3199453222331478 
-0.003320958495983373 
0 
-0.01948592109052494 
-0.227063763960157 
-0.05328166388597012 
0 
-0.01390848130292829 
0 
0 
-0.003995347317190089 
0.02451607635650621 
0 
-0.06571855685649287 
0 
0 
0 
-0.06616598820666106 
-0.2230729380801897 
-0.06973317481445349 
0 
0 
0 
0 
-0.01279550914032759 
-0.08673376297328195 
-0.06248636361249902 
0.01897002320584164 
0 
0 
-0.05797831621386388 
-0.3368273306932107 
-0.02375688976670751 
0 
0.08822901204065628 
0 
0 
0 
-0.1090309954448805 
-0.002730977822126263 
0 
-0.03819697936870551 
-0.007825304323010176 
-0.1493141373417286 
0 
-0.08313103392541482 
0 
0.1148197236991382 
-0.03752024190521771 
0 
-0.01167453307609951 
-0.04639980065996226 
0 
0 
0 
-0.05078856589888826 
0 
0.0006950152360417712 
-0.009988524380169159 
-0.002730977822126263 
0 
0 
-0.1573489911664754 
-0.001422722447856547 
-0.3246034997571539 
0 
-0.04000223039778533 
0.009133021856617485 
1.014251939023482 
0.1097366683392491 
0.08016876792141045 
0.1497643374492276 
0.02231960352139672 
0.008650023218297472 
0 
0 
0.04534413741088428 
-0.09369915388922342 
0 
-0.1201862445782965 
0.0009894423816959033 
0 
0 
0 
-0.01011851875585334 
0 
0 
0 
-0.0002613879205431666 
0.01837556891418554 
-0.0070767943704165 
0 
0.002295549407690861 
-0.134913036563379 
0 
-0.01162555807285696 
-0.1602344033630818 
-0.520916967983714 
-0.002730977822126263 
0 
-0.06662063666916598 
0 
0 
0.006091669323266624 
-0.04583803059259357 
0 
0.2276985883382406 
0.0009127433160099389 
0 
-0.009695624120811718 
-0.002730977822126263 
-0.1224306565754232 
0.07417883977563511 
0.09378082418228346 
0 
0 
0 
0 
-0.002470395125592095 
-0.0169606845874926 
0 
0 
0 
0 
0 
0 
-0.07611894847737469 
-0.2206659914044142 
0 
0 
0 
-0.07307272153514051 
-0.2890616857607448 
0 
0 
0 
0 
0 
-0.02114004880216156 
-0.2071156089928551 
0 
0 
0.002061142345684772 
-0.04189797564569066 
0 
0 
-0.01934075703972268 
-0.002730977822126263 
0 
0 
0 
0 
0 
-0.02897118428479993 
0 
0.02902195692908997 
0.09535960386885153 
0 
-0.3086149810518272 
0 
0 
-0.08792055516053912 
0 
0.04387072741398018 
-0.01689473226887842 
0.07161981670285028 
0.01449836418250349 
0 
0 
0 
-0.01343290767311324 
0 
-0.03435522175077102 
0.005344821210206902 
-0.04258256947836182 
0.0462089859062846 
-0.1287785668692294 
0.1306127501476054 
0 
0.01125345015178419 
0 
0 
0.001383200270104131 
-0.157763005351877 
0 
-0.1339027823961552 
0.01816854730240552 
-0.0648643249898659 
0 
0 
0 
0 
0 
-0.01356145510992616 
0 
0 
-0.002730977822126263 
0 
0 
0 
0.0594570843127732 
0 
0 
0 
-0.1041618220715865 
0 
0 
0.006454861425191135 
-0.003079461566395454 
-0.1688043794609618 
0.0006950152360417712 
0.02008065637477993 
0 
-0.03124366872319782 
0.1114922024148984 
0 
0 
0 
-0.002730977822126263 
-0.004217627836038194 
-0.0138940322607818 
0.01436667296969912 
-0.005714024656393877 
0 
-0.002730977822126263 
-0.002730977822126263 
0 
0.0140775652588886 
-0.01763915789489712 
0 
0 
0 
-0.005461955644252526 
-0.001614805646587517 
-0.0442815463321813 
0 
-0.1323740677830484 
0.01238700186483589 
0 
0 
-0.002730977822126263 
0 
0 
0 
0 
0.0006950152360417712 
-0.001538324439093734 
0 
-0.002730977822126263 
-0.004908780468153818 
-0.06765920768499319 
0.005717024402118287 
-0.02838706153573563 
0.02686213772109085 
0.06435332418271601 
-0.0659950320215678 
0.03122871423870716 
0 
0 
0 
0.008231712902304383 
-0.04847299229730854 
0 
0 
-0.2029069596245957 
-0.01253297475028128 
0.03123083706936265 
0 
0 
0 
0 
-0.02826219545171626 
-0.06241766765051525 
0 
0.0009517348006285388 
0 
-0.06149926721195043 
0 
-0.2634636643185729 
0 
0 
0 
0.006309607791363328 
-0.004742126591774753 
-0.02557837817121316 
0.0006950152360417712 
-0.002730977822126263 
0 
-0.002878847352595527 
0.003628218479539026 
0 
0 
0 
0 
0 
0 
-0.004411754661123078 
-0.01954808240236608 
-0.007827215962686592 
0 
0.08092297769072683 
0 
0 
0 
0 
0 
0 
0 
0 
-0.02910942737513036 
-0.008563876477691334 
-0.003707508606777521 
-0.03190428431121325 
0.001305039230569701 
-0.01909848968435275 
-0.01527764965219667 
-0.01654830287717883 
-0.0008657459157394501 
-0.1264294094354577 
0 
0 
0.03254875600915063 
0 
-0.04970819995561783 
-0.05072270413503433 
0 
-0.02375688976670751 
-0.1228809368447826 
-0.002730977822126263 
-0.06785366653371777 
0 
0 
0 
0 
0.06308043585545714 
0.01257862643461514 
0 
0 
0 
-0.100805122437954 
0 
0 
-0.06146321273993684 
0 
-0.002061996085554916 
-0.04613055929417354 
0 
-0.01760569352959676 
0 
0 
-0.008945580995163124 
0 
0 
0 
0 
0 
-0.0003667169516515484 
-0.5707554386351584 
0.02924532152950261 
0 
0 
0 
-0.05883030659531759 
0 
0 
-0.02363474810062725 
-0.0007113612239282737 
0 
-0.08505405664294445 
0 
0 
0 
-0.01376696149309008 
0 
0 
0 
0 
0 
0.001987872176015502 
0 
0 
0 
0 
0 
0 
-0.2605937450502833 
0 
0.0006950152360417712 
0 
0 
0 
0 
0.007655258164984932 
0 
0.0002590422942662094 
0 
0.01538547400894224 
-0.02999137571207442 
-0.004410776651378139 
0 
0 
0 
-0.01066938094014107 
-0.01178110445700501 
-0.04363715105113837 
0 
0 
0 
0 
0 
0 
0 
-0.0005312108764972534 
-0.004215807372435161 
-0.02948819551142211 
0 
0 
0 
0.006751197670176946 
0 
0 
0 
0 
0 
0 
0 
0 
0 
-0.002730977822126263 
0 
0 
0 
0 
0 
0 
0 
0 
0.0006950152360417712 
0 
0.02691880106681528 
0 
0 
0 
0 
0 
0 
0 
0 
-0.06765618317203341 
0 
0 
0 
0.0426381321871233 
0.0006950152360417712 
-0.001614805646587517 
0 
0 
0 
0 
0 
-0.0110997450635767 
0 
0 
0 
-0.05671746306506392 
0 
1.734980006204605 
-0.009876760351442332 
0 
0 
0 
0 
0.01537535230392821 
0 
0 
-0.007979925383963648 
0 
0 
-0.002730977822126263 
0 
0 
0 
-0.07487170863217438 
0 
0.05762062816415239 
0 
-0.1338548148282408 
-0.02856649865388825 
0 
-0.0481664894714554 
-0.03575021721140038 
0 
-0.00254326987957711 
-0.00434141825144614 
-0.001447919905842606 
0.04384698460638599 
0 
0.05615718621153888 
0 
-0.002730977822126263 
-0.01329718347953491 
-0.1264100044235582 
-0.001747390577330005 
0 
0 
-0.01945209360419862 
0 
0 
0.004056539331897206 
0 
0 
0 
0 
0 
-0.09311253855910692 
0 
0 
0 
0 
0 
0 
-0.01036562774186235 
0 
0 
0 
0 
-0.03157830481100354 
0 
0 
0 
0 
0 
0.0443215371168291 
0 
0 
0 
0.03457548306799139 
0 
-0.03661267198765678 
-0.2039035443866656 
0 
0 
0 
0 
0.02152572343272543 
-0.0009441371264000549 
0 
0 
0 
0 
0 
0.01354373810501574 
0 
0 
0 
0 
0 
0.05926389336507794 
-0.01619056764544874 
-0.0008657459157394501 
0 
0.001017457654767502 
0 
0.08764420657841722 
-0.008823509322246155 
0 
0 
-0.0260455315399891 
-0.007903287926182728 
-0.08072394814194919 
0 
0 
-0.003210887675581415 
0 
-0.1458055329340542 
0 
0 
-0.05533906684337071 
0 
0 
0 
0.008113078663794411 
0 
-0.06326031424502437 
0 
-0.002730977822126263 
0 
0 
0 
0 
0 
0 
0 
0 
0 
0 
-0.03149439894196214 
0 
0 
0 
0 
0 
-0.01938288561302388 
-0.002730977822126263 
0 
-0.1289941097439335 
0 
0.05632518898392237 
0 
0.001464302975502052 
0 
0 
0 
0 
0 
0 
0 
-0.04066527577222618 
-0.02989940559124559 
0 
0 
-0.01792283636668194 
0 
0.03589171810301152 
0 
-0.06385769272707752 
-0.005941865497707678 
0.0006950152360417712 
0 
0.006285529550406023 
-0.09633841516861029 
0 
0 
0 
0 
0 
0 
-0.001538324439093734 
0 
0 
-0.0589923540765938 
0 
0 
0 
-0.02101957713813221 
0 
0 
0 
0 
0 
0 
0 
-0.06492776459381876 
-0.04831409482610408 
0 
0.01067755593136249 
0 
0.152809661933672 
0 
-0.09389661179521432 
0 
0 
0 
0 
0 
0 
-0.1076573962831753 
0 
-0.05444088019248894 
0.03811849995871528 
0 
0 
0 
-0.08508957584314851 
0 
0 
0.04119950064060358 
0 
0 
0 
0 
-0.02659436695906982 
0 
0 
0 
0.01166517516624786 
0 
0 
0 
0.04991559979150327 
0 
0 
0 
0 
0 
0 
0 
-0.007324688357715118 
0 
-0.01984128750213681 
0 
0 
0 
-0.02283205199660313 
0 
0 
0 
0.001299503090671418 
0 
-0.006153954695748446 
-0.003825247384866917 
0 
0 
0 
-0.01380980993164485 
0 
-0.01715320662389439 
-0.06741692078757186 
-0.01286711750902147 
0 
0 
0 
0 
0 
-0.01012888026987698 
-0.1169443915298968 
0 
0 
0 
0 
0.01834892556195541 
-0.1218735651433655 
0 
0 
-0.02606353911892655 
0 
0 
0 
0 
0 
0 
0 
0 
0.04184491235022835 
-0.01247855191493746 
0 
-0.003773298085434269 
0 
0 
0.09889707941379269 
0 
0.01770106199577159 
-0.0007605840473511449 
0 
-0.01254098150623053 
0 
0 
0 
0 
0 
0.102065588758318 
-0.02233802293321158 
-0.005737871077300376 
-0.03849471532057649 
0 
0 
0 
0 
-0.01981263854156743 
-0.009596872361124525 
0 
0 
-0.05523993719975132 
-0.002470835768629594 
0 
0 
0 
-0.003707508606777521 
0 
0 
0 
-0.02575039922119757 
0 
0 
0 
0.02451607635650621 
0 
0 
0 
0 
0 
0 
0.07399884058638494 
-0.002730977822126263 
0 
0 
0 
0 
0 
0 
-0.002730977822126263 
-0.00220030170990929 
0 
0 
0 
0.04379993226632863 
0 
0 
0 
0 
0 
0 
0 
0 
0 
0 
0.05287224020640851 
0 
0 
0 
-0.01164846411281567 
0 
0 
0.08755350015324223 
0 
0 
0 
0 
0 
0 
0 
0 
-0.009453821787475421 
0 
-0.009539485555945883 
0 
-0.01296772010315446 
0 
0 
0 
0 
0.03028091217067587 
0 
0 
0 
0 
0 
-0.08403626284946664 
-0.00613447771912864 
0 
0 
0 
0 
0 
0 
-0.005586112527934398 
0.05615127844825344 
0 
0 
0 
0 
-0.02111582534946034 
0.001464302975502052 
-0.04765840048244989 
0 
0 
0 
0 
-0.02823298364970982 
0 
0.001017457654767502 
0 
0 
0 
0 
0 
0 
0 
-0.1155823901535645 
0 
0 
0.02017484270884083 
0 
0 
0 
0 
0.02407249289616547 
-0.01495111166532113 
-0.0007113612239282737 
0 
0 
-0.03766539385324934 
-0.3994146737838319 
0 
0 
0 
0.0006950152360417712 
0 
0 
-0.01374096373742282 
-0.03338003807559652 
0 
0 
0.02470368417898211 
0 
0 
0 
0 
-0.00221741917872245 
0 
0 
-0.002076479157136626 
0 
0 
-0.01791177474892927 
0 
0 
-0.01909848968435275 
0 
0 
-0.1319065727437552 
-0.01157312741459807 
0 
0 
-0.01965108599682807 
0 
-0.002017371047408945 
0 
0 
-0.002730977822126263 
0 
0 
0 
0 
-0.01303426491129169 
0 
0 
0 
-0.0009359705886012905 
-0.1493359731285072 
0 
0 
0 
0.6472697721665064 
0 
0 
0 
-0.01527764965219667 
0 
0 
0 
0 
0 
0 
0 
0 
-0.1201679347849736 
0 
0 
-0.004411754661123078 
0 
0 
0 
-0.008641524491918519 
-0.01254051404333663 
0 
0 
0 
-0.008446525658675763 
0 
0 
0 
0 
0 
0 
0 
0 
0 
0 
0 
0 
0 
0 
0 
-0.09186647846423768 
0 
0 
0 
0 
0 
-0.002163701850438774 
-0.0225157629678127 
0 
0 
0.0167360416011371 
0 
-0.002730977822126263 
0 
0 
0 
0 
0 
0 
0 
0 
-0.02423477073158886 
-0.002730977822126263 
0 
-0.01129468353980057 
0 
0 
0 
0 
0 
0 
0 
-0.1329785208045096 
-0.003488017385610762 
0.006056182434135175 
0 
-0.004777581090635855 
0 
-0.002730977822126263 
0 
0 
0 
0 
0 
0 
0 
0 
0 
0 
0 
0 
0 
0 
0 
-0.002730977822126263 
0 
-0.002730977822126263 
0 
-0.002730977822126263 
0 
0 
0 
-0.1563600139668112 
0 
0 
-0.02428023630552266 
0 
0 
0 
-0.005547428668072953 
0 
-0.002730977822126263 
0.1462947560926163 
0 
0 
0 
-0.0230453158863204 
0 
0 
0 
0 
0 
0.1753271616502419 
0 
-0.0009441371264000549 
0 
0 
0 
0 
-0.1531431505708752 
0.0006950152360417712 
0 
0.02131744647688217 
-0.0733152589468891 
0 
0 
-0.01415214724082462 
-0.01329718347953491 
0 
0 
0 
0 
-0.01456688817882079 
0 
0 
0 
0 
0 
0 
-0.001692448245190179 
0.05313907707620022 
0 
-0.04166744558381216 
0 
-0.01296075852255796 
-0.002730977822126263 
-0.03268601697275086 
-0.243030019131951 
0 
-0.06904227608249154 
0 
0 
-0.005245833045871255 
0 
-0.001538324439093734 
-0.002730977822126263 
0 
-0.002730977822126263 
-0.007252690488019897 
-0.00823349060987686 
-0.04831409482610408 
-0.007229258820606696 
0 
0.01301075522426876 
0.4489556092824464 
0 
-0.01833968453659232 
0 
0 
0.08733286600897962 
0 
0 
0 
0 
0 
0 
0.0002860636527189376 
0 
0.0004458933456834875 
0 
-0.02010011788489221 
0 
-0.0006825115843765509 
-0.01013949034478103 
0 
-0.0113394390806447 
0 
0 
0 
0.005808362933903866 
-0.009954571859210755 
0 
-0.0208330822902899 
-0.1550910174556805 
0.03108948663773 
-0.1125183262591483 
0.02611678341252014 
0 
0 
0 
0 
-0.01649601265476594 
0 
0.005313898101642665 
-0.2924272058317771 
0.6857240810686849 
-0.008331663170440038 
0 
0 
0 
0 
0 
0 
0 
-0.01287457204328296 
0 
0 
-0.001605443837790708 
0 
-0.03405047242923567 
-0.028459002897247 
0.01871809403465707 
0 
0 
0 
0 
0 
0 
0 
0 
0 
-0.01026885619785332 
-0.006518793351281497 
0 
0 
0 
0 
0 
-0.002730977822126263 
0 
-0.01466968957865064 
-0.0174590136701928 
0 
0 
0 
-0.003864226868058877 
-0.0667526010456846 
0 
-0.07241308700025899 
0 
0 
0 
0 
0 
0 
0 
0.04564825278786774 
0 
0 
0 
0 
0 
0 
0 
0 
-0.01039581736318897 
0 
0.03053252053255972 
0 
0 
0 
0 
0 
0 
0 
0 
-0.170969439991963 
0 
0 
0 
0 
0 
-0.02686604585862287 
0 
0 
0.04310491703028687 
-0.002730977822126263 
0 
0.001295850420402688 
0 
0 
0 
0 
0 
-0.0006030573318658767 
-0.09143218212919317 
-0.03858789747963786 
0 
0 
0 
0 
-0.006377078509804399 
0.09352995547050272 
-0.002730977822126263 
0 
-0.05116342871227886 
0 
0 
0 
0 
0 
0.006056182434135175 
0 
-0.005122043082127469 
-0.001438349043986419 
0 
0 
0 
0 
0 
0 
0 
0 
0 
0 
0.04102679372407209 
0 
0 
0 
0 
0 
-0.04418856952053674 
0 
0 
-0.008560243163696973 
0 
0 
0 
0 
0.01598310687645263 
-0.00188827425280011 
-0.01469903869550278 
0 
0 
0 
0 
-0.0689672986292692 
0 
-0.007807473558607413 
0 
0 
0.01961811065034087 
0 
-0.00190178911332373 
0 
0 
-0.1342573357886799 
0 
0 
0 
0 
0 
0 
0 
0 
0 
0 
0 
-0.03122392125827191 
-0.006567191467755252 
0 
-0.03957927435982255 
-0.00226638904247859 
0.02537124635329567 
0 
0 
0 
0 
0 
0 
0 
0 
0 
-0.02395403206487621 
0 
0 
0 
0 
0 
0 
-0.1687331973654131 
0 
0 
0 
0 
-0.005759657407015125 
0 
0 
-0.02341135664058603 
0.0009894423816959033 
0 
-0.0003667169516515484 
-0.02563526808703212 
0 
0 
0 
0 
0 
0 
-0.06730872428615026 
0 
0 
-0.07318730690465887 
-0.04482955729876747 
0 
-0.002730977822126263 
-0.01113699785296187 
-0.0007605840473511449 
0 
0 
0 
0 
0 
0 
-0.002730977822126263 
0.02595711644196537 
-0.009653009151761338 
-0.001538324439093734 
0 
-0.003552552688409 
0 
0 
0 
0 
0.02915098347810572 
0 
0 
0 
0.04077965340519296 
0 
0 
0 
0 
0 
0 
0 
0 
0.002768280152647309 
0 
-0.01437433063585874 
0 
0 
0 
0 
0 
-0.01180952999791079 
0 
-0.2235518623179328 
0 
0 
-0.0423502713866049 
0.07632738356144045 
0 
0 
0.04182382793333343 
0 
0 
-0.1193256015662927 
-0.002730977822126263 
0 
-0.01321864097620355 
-0.01661978613233498 
0 
0 
0.01302510818428029 
0 
-0.002730977822126263 
0 
0 
0 
0 
0 
0 
-0.06617811681461241 
-0.02604581590356366 
-0.002730977822126263 
-0.03205940873155178 
-0.1982311151322709 
0.04379353508606443 
0 
0 
0.04693655060695184 
0.03533849586990588 
-0.02547325125872176 
0 
0 
-0.4328676095161155 
-0.05790503675716426 
0 
-0.1269070948286414 
-0.06977102631608809 
0.03003555100625618 
0.1225741174091941 
-0.06047439959915125 
0.03337421177905874 
-0.03724231071033449 
-0.02693295170462453 
0.3508804520355548 
-0.07733758458818191 
-0.01722508707747858 
-0.06531076572890229 
-0.254900001819546 
-0.16015024399317 
-0.438906470156225 
0.04206652351971153 
0.0148757880762924 
0.2492501165655525 
-0.05027937236128914 
-0.1281616567028797 
0 
0 
-0.05807790038953808 
0 
0 
0.04264968102178659 
-0.004820181994700921 
-0.1055756641560634 
-0.01438415347918091 
-0.05201498907079637 
0 
0.02097303815918218 
0.0171636989490101 
-0.009497508256013028 
-0.3059300337517481 
-0.08694830949359515 
-0.5227314287614869 
0.2504224138672067 
0.01779339583901166 
-0.2382872518743316 
-0.001538324439093734 
-0.2590134600462757 
-0.5009363799023515 
0 
-0.07375681436361635 
-0.03187229860552725 
-0.007903287926182728 
-0.0344654455081673 
-0.008297366666048769 
-0.009532105657610514 
-0.09464448009077123 
0.03453847347030187 
0.03549839112992956 
-0.05079376668794294 
-0.5180097615097571 
0 
0.1128539137896416 
-0.006183859849823446 
-0.122517035575968 
-0.05048316695653778 
0 
-0.01256362364156216 
-0.6200684799028428 
0.1099827586362293 
-0.08876614799416679 
-0.1117040204538306 
-0.1452892965132163 
-0.1424800327358897 
-0.06338498971292165 
-0.1080240727881314 
-0.2184819833390787 
0.1468140459128175 
-0.8006698953117544 
0.03247550692956724 
0.01568430132640593 
-0.06289763224330668 
-0.5070876703378451 
0.008805692997797888 
-0.1214860342494528 
-0.1586663568835067 
0.04540625758333942 
-0.01758172118728748 
0 
-0.0006254390805238776 
0 
-0.03021764708556078 
0 
0 
-0.807327922328976 
-0.0007334339033030967 
-0.003539884043142664 
0 
0.4793733160627761 
0 
0 
-0.05824060290660565 
0.02788681813559173 
-0.001538324439093734 
-0.00198413121751762 
-0.01385984412452131 
0.4612838937179451 
0.0009571149161800004 
0.05753149764164074 
-0.02579909505872328 
-0.0332817412380922 
-0.0149494186523912 
-0.001747390577330005 
-0.107800805059786 
-0.0008644452524090434 
-0.05621073082595412 
-0.01426112787941269 
0 
-0.05928130432010925 
0.08891321997617518 
-0.06910110244130906 
0.009997235029350031 
-0.03822561289798686 
0 
0 
0 
0 
-0.1927859598873083 
0 
-0.01005322882779675 
-0.04967618062732915 
-0.138731194464221 
-0.03534550981767128 
-0.0465383544962804 
-0.05757540751702211 
-0.187327345850283 
-0.0166086071873953 
-0.005212377404409644 
-0.1895165060372319 
-0.07737101845090243 
-0.01781996262870891 
-0.002730977822126263 
-0.001062421752994507 
-0.002598075208453671 
0 
-0.1868808518989691 
-0.09560359778390595 
-0.01027166110187521 
-1.209921941171557 
-0.0212605918562033 
-0.02302181536536304 
0 
-0.0199736867459852 
-0.002522479543268244 
-0.1140098352846558 
-0.009182312220104086 
-0.3572661958204175 
-0.01422512150802207 
0.045832321795228 
0.0006100239945279301 
-0.07625990049340266 
-0.0108081108235514 
0 
-0.08240301387939397 
-0.001538324439093734 
-0.1458071169097409 
0 
0.07119670437474662 
-0.2410790301831568 
-0.01820571757004458 
-0.5754875565036416 
-0.02727047908726967 
-0.0003667169516515484 
-0.04091765811542417 
0 
-0.004389532205997164 
0 
0.01101961432197855 
-0.01684693244105578 
-0.107796936150053 
-0.1862856226435606 
0 
0.08532796103192766 
0 
0 
-0.4666823207659546 
-0.227141124730523 
-0.02083034891145843 
0.02773149984471926 
0 
-0.05737980121020742 
0.006746326937697828 
0 
0 
-0.00924847936796469 
-0.04258178800616367 
-0.1876637818248211 
0.07241192583219716 
0 
-0.2674039419976538 
0.09234106825255808 
-0.06148897951355103 
0 
-0.4147815146332818 
-0.1650517921594267 
-0.02271279984424364 
0.05251282594069041 
0 
0 
-0.02435721018384744 
-0.07261257108077809 
0 
-0.1502408639748908 
0 
-0.05269337269213809 
0 
-1.089430855972092 
-0.004715924727470789 
0.0971446519816153 
0 
0.04215455954315585 
0 
-0.2721119946066897 
0 
0 
-0.1478369111857117 
1.917060135788589 
0 
-0.2004628427573275 
-0.04474740404316548 
0 
0 
0 
-0.001538324439093734 
0.0006950152360417712 
-0.001264369495063825 
0 
0 
0 
0 
-0.00912238367413685 
-0.7339868692826885 
0.1548157036485188 
0 
0 
0 
-0.01640923865574956 
0.02274401662686053 
-0.1223833071101674 
-0.4090774660789501 
0 
-0.1061528011341363 
0 
0.3274041443375633 
-0.02241412693566112 
0.02175956897734489 
0 
-0.199857128892954 
0 
-0.1300758830194594 
-0.0430975169895973 
0 
-0.2231995324659473 
-0.08595567929349818 
-0.02022157970337738 
-0.1449661955198555 
-0.1793461412232224 
-0.6574185403823588 
0 
-0.1237325189721685 
0 
-0.1459507038832515 
-0.003938231257483851 
-0.02675623945520004 
-0.08093717275721413 
-0.08770905132037111 
-0.1049241271973674 
-0.1103858116820823 
-0.01529773681206636 
-0.1216502375224097 
-0.003056878363460201 
-0.02620600758589865 
0 
-0.06984309187458933 
0 
0 
0 
0 
0.2958016190053001 
-0.1841034202567655 
0 
-0.04559565735888536 
-0.02589597673311859 
-0.005351185174996781 
0.07849268135622289 
0.126808595530911 
0.03287007713060106 
-0.02791765801542077 
-0.9792924263594123 
0.01230624278263488 
-0.2982651904585298 
-0.2140832995480901 
0 
-0.04331914949975155 
0.1713903769840249 
-0.05911981447330752 
-1.146514056748497 
-0.08372810162514431 
-0.03025631668782387 
-0.1789518769659219 
0 
0.01152807527265503 
0 
0 
0 
0.2099025918897328 
0.05770780101682915 
0.01621943452125393 
-0.1826990063280179 
-0.02376611681176117 
-0.318307490619883 
0.006824091758328476 
0.03246524858319933 
0 
-0.02177986426686906 
-0.04903555042986125 
-0.2402058944040412 
-0.1913099504883169 
-0.03736539168695677 
-0.1347428777452694 
0.02149889596859083 
-0.06160088126853368 
0 
-0.2572499893881289 
0.04850922442004582 
0.02477028752612115 
-0.06767522781426664 
-0.08846339700114801 
-0.1604917321817942 
-0.1208178459723805 
-0.01555396747261545 
0 
0 
0 
0 
0.1532265704857323 
0.05391473757701343 
-0.0142240967210465 
-0.04095423794543644 
-0.04951341404146138 
-0.3491222120511618 
0.02025955058851283 
-0.04186655623072329 
0.00637640624112468 
-0.007901471466985839 
0.572306661025716 
-0.05421120385628915 
-0.1091970253352019 
0 
0 
-0.002455175985827884 
0 
0 
0.0008405213797366939 
0.002760940377621933 
0 
-0.02325961885472055 
-0.035105740452884 
0 
-0.05313529489757003 
-0.01422720406596328 
0 
0 
-0.2247697201980339 
0 
0.002996593383005622 
0 
-0.02889453628371278 
0 
-0.001538324439093734 
-0.308276639543168 
-0.04515623184219682 
0 
0.09899028058343884 
0.3275533517416934 
0.04884266081495502 
-0.01822944954165228 
0.02142067670887628 
-0.1098298940453356 
0.0003941675516167433 
-0.2433817057876073 
-0.0008657459157394501 
0.006365654015183217 
0.328495082498784 
-0.006694157513545259 
-0.03909743752718153 
0 
-0.02494967258738104 
-0.0412969209972714 
-0.1085607818806106 
-0.0244160418497221 
0 
-0.03153476692623185 
0 
0 
0 
0.001305039230569701 
0.03529628206382485 
-0.03321786782438707 
0 
-0.007401433812081253 
-0.1557473402762121 
-1.38792471639691 
0.0487359161311439 
0 
-0.752458859409996 
-0.01444314688211371 
-0.0148165962112998 
-0.08504294255279855 
-0.1014486284878964 
-0.08423665908602532 
-0.005804447054074293 
0 
0 
-0.06419203636045631 
0.2056096772219799 
-0.1323487083174337 
-0.04448289609712758 
0 
0 
0 
0 
0 
0.0636635816343698 
-0.0789932026905327 
0 
0 
-0.144977632832702 
-0.02753121416063865 
-0.02790869676973744 
-0.02304986412355654 
-0.2206785510117959 
-0.075260914369878 
-0.0113394390806447 
-0.1296703159067388 
0 
0.2699147546101621 
-0.06441748513529123 
0 
-0.0008185039302470404 
0.0001899834039286093 
-0.0009441371264000549 
0 
0 
-0.02399500623960003 
-0.07195946475283183 
-0.04139181167876601 
0.005965649751200973 
-0.01976038531398749 
0.1469908953285413 
0.03607027656137211 
0 
-0.1117898814294427 
0 
-0.0495175545944516 
0.05139983260706371 
0 
0 
0 
0 
0 
-0.002845444895713095 
-0.02263502071574042 
0 
-0.03713339570807115 
0.01572523713765639 
0.03573825638816109 
-0.2193436506642409 
0 
-0.001062421752994507 
0 
-0.0608253686840096 
0 
0 
0 
0 
0 
0.08975756878444414 
0.04726318472805693 
0 
0 
0 
-0.2054918634614178 
0 
0 
0.008323289985095933 
0 
0 
-0.02798996839845307 
0 
-0.2939316594481584 
0.03106728965010349 
0 
0 
-0.008558408897875774 
0 
0 
0 
-0.001538324439093734 
0 
0.1018165113545439 
0 
0 
-0.01363362465564057 
-0.03685416130386114 
0 
-0.1856727081415031 
0 
-0.1763994895343413 
0 
0.1970736036518305 
-2.260175592109219 
-0.08428426213520146 
0 
-0.3753833460542741 
0 
0 
0.04816613687472997 
-0.2167349787728526 
-0.07023752787701068 
0 
0 
0 
0 
-0.03423251064397154 
-0.241880897977598 
0 
-0.2254697202930835 
-0.5049741485339797 
-0.00409048426048626 
0 
0 
-0.02701728794281524 
-0.0006030573318658767 
-0.01403032319876773 
-0.8234124866638629 
-0.05786297638702574 
0.2331908435958616 
-0.007721399275688301 
0 
-0.1613595161711451 
0 
-0.02462263568244696 
-0.07163218317640918 
0.02050839299498546 
-0.0007602551218809063 
-0.4879242846599512 
-0.204755621618806 
0.06794012209793472 
0 
0 
-0.09683596803536997 
0 
-0.02193631416393881 
-0.1524699043687113 
-0.05271282079162593 
0 
0 
0.004000299529585517 
0 
0.01727196194637793 
0.007946343776299537 
0 
0 
0.6758895871945255 
-0.0003614952442223587 
-0.0017314918314789 
0 
0.01114403571120694 
-0.1054325229541847 
-0.0005789764794344298 
-0.02793663017347037 
-0.003408011166578824 
0 
-0.127437970838341 
0 
-0.01563813036380308 
-0.01714192208008698 
-0.0008657459157394501 
-0.0008657459157394501 
-0.2730965846205881 
0 
0 
-0.09274360971813947 
0.006318079836220594 
-0.2921856058160316 
-0.1242730719978286 
0 
-0.08712732946713153 
0.01698994772384678 
-0.2736675906811109 
-0.1443613031007225 
0 
-0.0106280034513657 
-0.04593473999606855 
-0.006528700187236923 
0.03557631056927522 
0 
0.1029903270142119 
0.2133891649950207 
0.0006950152360417712 
0 
0 
-0.1824203713036129 
-0.09577974403367009 
-0.06990161599683525 
0 
0 
0 
-0.03388121999253627 
0.01087455729704784 
-0.0139892149784518 
0 
0 
0 
-0.1949024709035752 
0.4372227913142605 
0.3946909579253462 
-0.2567947305350925 
-0.06965470955501755 
-0.01450842594240982 
-0.003078297982361424 
-0.007961882339038323 
-0.01299931500176818 
0 
-0.02387624704459642 
-0.2876056006052856 
0 
0.07096790327516247 
-0.001577534167788311 
0.02135893132672934 
-0.02589215747812646 
-0.0009441371264000549 
0 
0 
-0.0007605840473511449 
-0.2793489213795695 
-0.003707508606777521 
0 
-0.06019821548275676 
-0.1955948856646282 
0.2785502915718926 
0.03260048985646344 
0.02120201177575738 
0 
-0.04836527930251541 
-0.04120058680456737 
0.01031248974237055 
-0.4616385128617885 
-0.07345203895055394 
-0.5946893492433146 
0.05468106518858626 
0 
0 
0 
-0.02445492346831549 
-0.00067717729695783 
-0.3917134929715475 
-0.02653729694732291 
0 
0.003013533997700207 
-0.03360793528754498 
-0.003210887675581415 
0.1763346553269046 
-0.1507787737599929 
-0.007312611613999986 
0 
0 
-0.001038239578568313 
-0.04546516830324245 
-0.008933093911169893 
0 
-0.1727150501746839 
0 
0 
0.05530998195184689 
0.1600749615367672 
0 
0 
0 
-0.4425359683539303 
0.00152770742352786 
-0.02122954094052814 
-0.01291114761046074 
0 
-0.01273855896094229 
0 
-0.02616264950643945 
0 
0 
0 
0 
-0.08237424149212773 
0.006990316851682622 
-0.03096712003615999 
-0.03258002009326498 
-0.02721276444069358 
0 
-0.0249722301786292 
0.02966085169163845 
-0.02348850560899122 
0 
0.06667928465501009 
-0.07223992725876573 
0.03391512388759477 
0 
-0.02164745558537427 
-0.0206780823555558 
-0.20240812177521 
0 
0 
-0.01065314603873648 
0.01629265938765984 
-0.02051261663531824 
-0.07056282299439853 
-0.09014530363622171 
-0.1273995622555278 
-0.0005227758410863331 
-0.01679751022411011 
-0.00831757643669387 
0.02423503026425792 
-0.0024757965237846 
-0.1059564632034337 
-0.006768794784850166 
-0.1161451482509283 
0 
0 
0.1124767822104593 
0.007846313484544589 
-0.01741967614245919 
-0.07312460421486686 
0.0817813177045188 
-0.03720441393838562 
-0.07797116327811078 
-0.01321995399670361 
0 
0.0001942948357097721 
0.0740025424256119 
-0.05792272352080403 
-0.009055151074016114 
-0.1448164906652631 
0.111831844122431 
-0.05592634586515034 
0 
-0.31903323187119 
-0.008804080630129323 
-0.003307658151388444 
-0.03273961310389143 
-0.02795590800374156 
0 
-0.07607531250160851 
-0.470368108353003 
0 
-0.004420625261010258 
0 
-0.9595634153590772 
0 
0 
-0.01495187555469782 
-0.1716229216927545 
-0.208589954643956 
-0.2161379837932929 
0.0376974377705197 
1.053089468549151 
-0.001538324439093734 
0 
-0.04952824101515777 
-0.1556572150085664 
0.04724293617893734 
0 
0 
0 
-0.05097983476574911 
0 
-0.2926985910605868 
-0.05593075997774118 
-0.007981314961861852 
0 
-0.001179961347714221 
0 
-0.1305313355291222 
-0.1031268645554547 
0 
-0.02784368150560034 
-0.276924869192417 
-0.005635626693602429 
0.005436139671533382 
0 
-0.05981605908610739 
-0.08647777819958941 
-0.03221198064805558 
-0.3967058746363452 
0 
0 
0 
0.05330041500757432 
0 
-0.005276522567117589 
-0.06225827044144339 
0.4736534929780523 
0 
-0.0116719743768797 
-0.0156777433715408 
0 
0 
-0.001526698642229539 
-0.01336330037184845 
-0.1494142695153125 
-0.03317241555369252 
0.001305039230569701 
-0.1278131055883477 
0 
0 
0.002339485885010385 
0 
-0.02989126531839633 
-0.08926292719668101 
0 
0 
0 
0 
0 
-0.01487638266793777 
-0.07486829160073283 
0 
0 
0 
0 
0.1273460337194371 
-0.01491045418107157 
0.000962047914353998 
0.1154903795929991 
-0.03307806304017349 
0 
-0.01426519052938856 
0.1788304976950653 
0 
0.04317813126860445 
-0.06348555659143147 
-0.07965823254576886 
-0.05461369487179429 
0 
-0.01442754542924493 
-0.04698718765713249 
0 
0 
0 
-0.0003667169516515484 
-0.03695170679406507 
0 
0.2353111803773074 
0.01739277260095244 
-0.002468220285560487 
-0.07354665642861204 
-0.0004538421531685044 
0 
-0.107211580527305 
0.0002571797225182045 
-0.02918971907415173 
0 
-0.03713590452662334 
0 
0.007170366713023274 
-0.01758983593709499 
0 
0 
-0.01257970143182481 
-0.1370393063178602 
0.01200395436403569 
0.006168538308711145 
-0.00252873899012765 
0 
-0.007341739359124888 
-0.04621369992234441 
0 
0.044934457366961 
-0.08452669911134994 
0 
-0.02375688976670751 
0 
0 
0 
-0.04006580622770391 
-0.0430218029626491 
0 
0 
0 
0 
0.07887648921412871 
-0.00592580086081585 
0 
-0.06236502738130169 
-0.1327984515055287 
-0.5242665397756674 
-0.05619179238559742 
-0.01651535746233678 
-0.05613693388348174 
-0.073416476030495 
0.006956381175219091 
0 
0 
-0.02478768549115841 
-0.002634127157835728 
-0.2322835052009368 
0 
0 
0 
0 
-0.1768722529547937 
-0.02533628683431878 
0 
0 
0 
-0.154667176641187 
-0.00628208781598854 
0.006752177095303153 
-0.03975947656898796 
-0.02360791179926485 
-0.04078318293796741 
-0.00366734469256265 
0 
0 
0 
0.002230043095865052 
1.581181979116592 
0.05351841141093558 
0.4144733303534432 
0 
-0.02208141682701726 
0 
0 
0 
-0.01079430960575421 
-0.001605443837790708 
-0.06571444410663381 
-0.02943594325364159 
-0.1202247113201967 
-0.1057635998405819 
0.1249116093163979 
0.01700975082533411 
-0.009386215498636753 
0 
-1.079475375518616 
0 
-0.03290264859307977 
-0.01975455935858298 
-0.0194704847813529 
-0.08909654101690243 
-0.0122159053464649 
-0.1271700148950518 
-0.02485845073271078 
0 
-0.1146557638763938 
-0.01827567268025682 
0 
0 
-0.1736544379597015 
0 
0.006751197670176946 
0.006101075360774975 
0 
0.04306406569481527 
0 
0 
0 
-0.00259723774721835 
-0.02443301132858218 
-0.008916737910697883 
0 
-0.0005825615158294837 
0 
-0.001061641590541338 
-0.2004046235244464 
-0.02952959520892181 
0.01748428225395545 
0.05302131749099669 
-0.02666870586550135 
0 
-0.02776040422933349 
0 
-0.0149442292111908 
-0.0663170610456664 
-0.03440712024429576 
0 
0.03256130361812488 
-0.01498936272240021 
0.01857866666873952 
0 
0 
0 
0 
0 
0 
0 
0 
0 
-0.001538324439093734 
0 
0 
-0.007760000533494064 
-0.3441654086044633 
-0.2229517666400493 
-0.07326613488389601 
-0.08992621769277971 
0 
-0.003259960285414099 
0 
-0.03762470894507183 
-0.1608136236999163 
-0.02657124377988799 
-0.003610673770139063 
0.0113825891509941 
-0.09224555844786017 
-0.1088471653044887 
-0.0008513685944002772 
0.07724011017472714 
-0.2187107744443255 
-0.03883628072446351 
-0.05410089744540752 
0.0009535481957161964 
0 
-0.02572539293488187 
-3.374129701717479e-05 
-0.04296242821673922 
-0.5156589220313873 
0.1711115732903918 
0.01371513033525088 
-0.08515244096444426 
0 
-0.01962689935208767 
0.3988428642945593 
0.2995663599850445 
0 
-0.3504817278661103 
0.1396555188385242 
0.2284994468642305 
0.3698638620840213 
-0.08235023165834547 
-0.01361397993364278 
-0.01616466600433546 
-0.01942715366136713 
-0.007089103768795377 
0.009657555913258101 
-0.006019131535453108 
-0.1339441530298522 
-0.1071085465017114 
0.1312377218884318 
0 
-0.02074410910507207 
-0.007281353046236242 
-0.1373955021381965 
0.4568382613561125 
0.1905110733334984 
-0.04424344074551476 
0.01310869769881547 
-0.01040726793260974 
-0.002134475839797046 
0.00399558448098887 
-0.0008657459157394501 
-0.0008588812635755398 
-0.01700954173482853 
0 
-0.07990750582042692 
-0.1724466184035396 
0.03337933564007205 
-0.155442686707023 
-0.1794645170305523 
0 
-0.005508186880583407 
0 
-0.02113051346221907 
-0.118881985256517 
-0.3116657883032233 
0 
-0.7376016051261632 
-0.003790790509745706 
0.02896545553176666 
-0.006574478501816912 
0 
0 
0 
0 
-0.03009809958082939 
-0.01596715530601976 
0.02661464480978901 
-0.01501767093293439 
0.3302999043652977 
0.007860443853850298 
-0.1238205497811806 
0.2611291112733506 
-0.09281121443195303 
0.1836843317432913 
0.05563662037506373 
-0.05708301195885024 
0.005773863660816899 
-1.233723524133061 
-0.1104802802270186 
-0.05328217529610576 
0.04682866072878095 
-0.02728684893664531 
-0.02067741331424776 
-0.07888892306529924 
-0.0005312519575081199 
-0.02329190487876042 
-0.03026970301465597 
-0.001100150854954645 
-0.01984529607904825 
0.02169169278344398 
-0.06708615456001492 
-0.06673123898580086 
-0.07347835576376241 
0 
0 
-0.02878724068154241 
0 
-0.03861024514759853 
0 
0 
0 
0 
0.02228666217027947 
0.01207662085225866 
0 
0.1750612017195194 
0 
-0.0103766955531258 
0 
-0.02167239042041325 
-0.2448821959202461 
0 
0.01304780761728999 
-0.0009359705886012905 
-0.0130568641357441 
-0.05213575183168195 
0 
0 
-0.01360396344690999 
0.01535437004971302 
-0.05531705690906983 
0 
0 
0 
0.01861300174754998 
-0.05594892982179615 
0 
-0.05374074738378848 
0 
-0.1883499192312748 
0.3865219981868391 
0 
0 
0 
0.007753269726650692 
-0.1478940891696259 
-0.1060254031546892 
-0.1633403856003152 
0 
0 
0 
0.04430139770161758 
0 
0.1247317981592814 
-0.009725521732735455 
0 
0 
-0.01694060999626814 
0 
0 
-0.1099422895054769 
0.0006032899283165498 
-0.1277495567144272 
0.06840962549021889 
0 
-0.04328705158538331 
-0.02699689578605295 
-0.07728019252667123 
0 
-0.007354972238196819 
0 
0.03374461990321927 
0.04334191704511433 
0 
0 
0 
0 
0 
0 
0 
0 
0 
0.1729020189458584 
0.0006950152360417712 
0 
0 
0 
0 
0.0908023928543477 
0 
0 
0 
0 
-0.01745389958946897 
-0.06853347580492146 
0 
0 
0 
0.01011975441302583 
0 
0 
0 
0 
0 
-0.0008657459157394501 
0 
0 
0 
0 
0 
0 
0 
0 
0 
0 
0 
0 
0 
-0.0114928352301642 
0 
0 
0 
0 
0 
0 
-0.002730977822126263 
0 
0 
0 
0 
0 
0 
0 
0 
-0.01167453307609951 
0 
0 
-0.02259305561164192 
0 
0 
0 
0 
-0.006132073313212087 
0 
0 
0 
0 
0 
0 
0 
0 
-0.002730977822126263 
0 
0 
0 
0 
0 
0 
0 
-0.003707508606777521 
-0.0005899806738571106 
-0.003707508606777521 
0 
-0.0007113612239282737 
0 
0 
0 
0 
0 
0 
-0.004719351924015861 
-0.01898515825897419 
0 
0 
0 
0 
-0.02167307892846919 
0 
0 
-0.00188827425280011 
0 
0 
0 
0 
-0.0007113612239282737 
0 
0 
0 
0 
0 
0 
-0.003683433037409307 
0 
-0.01024549633552638 
0 
0 
0 
0 
0 
0 
0 
0.03410199854373075 
0.02896545553176666 
0 
0 
0 
0 
0 
0 
0 
-0.02226821686916442 
0 
-0.1308615371651743 
0 
0 
0 
0 
0 
-0.03704227199640294 
-0.006323134715655489 
-0.1317670983323947 
0 
0 
0 
0 
0 
0 
-0.004563504284106869 
-0.008273058777813329 
0 
0 
0 
0 
0 
0 
0 
0 
-0.0174740148271104 
0 
0 
0.2733545938448821 
0 
0 
0.03722547557066629 
0 
0 
0 
0 
0.03350023398399081 
0 
0.0006950152360417712 
-0.1289991052576089 
-0.001225377192209806 
0 
0 
0 
0 
0 
-0.01829049310070595 
-0.04949675354914655 
0 
0 
0 
0 
0 
0 
0 
0 
0 
0 
-0.01739159598826519 
0 
0 
0 
-0.002949903369285552 
0 
0 
0 
0 
0 
0 
0 
0 
0 
0 
0 
-0.0002613879205431666 
0 
0.05846953372370587 
-0.005096238140560326 
0 
-0.08064344464954228 
0 
-0.02515938679568076 
0 
0.02585124341281884 
0 
0.04043484539857826 
0 
0 
0 
0 
0 
0 
0 
0 
-0.001309469215159725 
0.04837003999251195 
-0.04670738928911514 
0 
-0.0507176183647874 
0 
-0.004115142255451919 
-0.1696684630077967 
-0.04957489707823856 
0 
-0.1380836798115486 
0 
-0.01829391044055778 
-0.01070520964022656 
-0.1958592455995323 
-0.04656291127563451 
-0.08632224532338921 
-0.0008657459157394501 
0 
0.003204033485419883 
-0.01572038627320245 
-0.02171440439993067 
0 
0 
-0.02981104002793682 
0 
0 
0.007759260758114052 
0.2273996964426712 
0 
-0.06543000154027974 
-0.1105626780908589 
0 
0 
-0.01370156223990799 
-0.1406693712080524 
-0.3743899513293916 
0.2330720649137084 
-0.003903660695997491 
0 
-0.01984983891344119 
-0.07448389515799508 
-0.7847538428189722 
0 
-0.03552412306183856 
-0.02332459936038006 
0 
0 
0 
0.05765638060453478 
0 
-0.05178106676818749 
-0.04792038386317693 
0 
-0.205358576192215 
-0.07063388341286078 
0 
0 
-0.07510834710780107 
0 
-0.03521274542896778 
-0.3856341751416342 
0 
0.0242247297365407 
0 
0 
0 
0.1745468393317856 
0 
0.03539537100309818 
0 
-0.01963684607522035 
0.07640485348718529 
0 
0 
0 
0 
-0.08073629674439201 
0 
0 
-0.0934870591885511 
0 
0 
-0.0001216166339998481 
0 
0.01277647451887406 
0 
0 
-0.4881967158206732 
0 
-0.006414790199162795 
-0.04276600935628828 
-0.03679126700092079 
0 
0.0179479239618939 
-0.3385169125552895 
-0.1540987426459741 
0 
0 
-0.08647623997975037 
0.01159767670118283 
-0.1371107470840464 
0 
-0.03530416394338735 
-0.01367584371542491 
-0.008040307405089769 
0.06900825749536221 
-0.113901739740838 
1.248654115365183 
0.0009535481957161964 
0 
-0.04456039184916179 
-0.00942455727357637 
-0.006239942925326208 
0.01161229662185776 
-0.004042203461352664 
0 
-0.01822107757965068 
-0.008542103566369669 
0.02225195538918319 
-0.02885788078486516 
-0.01055246101074823 
0 
-0.02624909203789673 
-0.07325354186246547 
-0.04619042891128224 
-0.005509556079686568 
-0.03574551621580109 
-0.0180106956449977 
-0.1089559260761525 
-0.3835062207987733 
0.0118356431796565 
0.01393762530430643 
0.006304282787281935 
0 
0 
0 
-0.02428237092620893 
-0.04007229552531515 
0 
0 
-0.07114326355285119 
-0.01444337578220835 
0 
-0.01309084115857107 
0 
0 
0 
0 
0 
0.001055636861446246 
-0.1547978069325104 
0 
-0.0005825615158294837 
-0.02123550671930474 
-0.0840167454531122 
0 
-0.005366956533897948 
0.02314165730392812 
-0.06347493948304009 
-0.06501326392213382 
-1.142315735194922 
-0.06347493948304009 
0 
-0.188837410035969 
-0.1136970611141787 
-0.2994260084276057 
-0.1466369133164657 
-0.5295168041514646 
-0.1510203130087184 
-0.01770311876320121 
-0.117460663710323 
-0.0852256165040518 
-0.3787877435230578 
0.0606291230357471 
-0.008288372739013667 
-0.1162988536565294 
-0.008423134778953102 
-0.02703516316756152 
-0.01312020907101516 
0 
-0.1644971098136118 
0 
-0.05801542521711291 
-0.003114912711145199 
-0.01967665093491357 
-0.3030506807345796 
-0.02661657062407505 
-0.07147639894391503 
-0.03173746974152004 
0.07601967488765689 
-0.0492445314501176 
0.004960047391837637 
0 
0 
0 
-0.02363972574474033 
-0.06361604035225815 
0 
0 
-0.0341834857426311 
-0.1368765199777215 
0 
0.003002733095384123 
-0.02069580244575387 
0.01392559620601228 
0 
-0.01547278070831789 
0.007893688248325093 
0.2977402483953793 
0 
0 
0.1786405268318679 
-0.2105564484213944 
-0.03778244051180352 
0 
0.009253779330330923 
-0.09040702432789498 
-0.09399589274738611 
0 
0 
-0.00140892475445993 
0 
-0.1633969220254133 
-0.07483934713330265 
0 
-0.01183270834564659 
-0.00254326987957711 
-0.007903287926182728 
-0.005200043671500597 
0.08613675193795479 
0.08361065189996975 
0 
0 
0 
-0.04154886892828582 
-1.105729921994983 
-0.04679588519123506 
0.02295492946880366 
-0.01184394417561678 
-0.0006281048721947151 
-0.002804052865521566 
-0.01764980495219122 
-0.04435605203785895 
0 
0 
-0.1518738119322176 
-0.001538324439093734 
0 
-0.1446542655789718 
3.545328894542648 
0 
-0.3357290289880097 
0 
-0.04796838428994594 
0 
0 
-0.4842144275213012 
-0.01153380458490149 
-0.01095482810546706 
0.04455453324156612 
-0.1538462621563352 
0 
0 
0 
0 
0.03830894845124667 
-0.07951354822831987 
0 
-0.004411754661123078 
0 
0.03567893989444817 
0 
0 
0 
0.1173535521228823 
0 
0 
-0.03434677788759888 
0 
0 
0.3982954409615909 
0.5439206937733442 
0 
-0.04063974393682504 
-0.02463810404928403 
0 
0.0009535481957161964 
0 
0.09638150884365394 
-0.0908020659059413 
-0.05923752695644204 
0.007524572265160859 
-0.05076258884182022 
0 
0.02892783563705232 
0 
1.170652873014457 
0 
0 
0 
0 
-0.01706627050732062 
-0.1874391794771323 
0 
-2.375771089424867 
-0.001264369495063825 
0 
0 
-0.358467049893261 
0 
0 
0.05142503538474445 
0 
0 
0 
-0.01604970579027496 
0 
0 
-0.005339416953901045 
-0.01067883390780209 
-0.1200144281562202 
-0.005339416953901045 
-0.005339416953901045 
0 
0 
0 
-0.1830358714788612 
0 
-0.0181058084505653 
-1.154027004961169 
0 
0 
0 
-0.0574203211997969 
-0.1343384867688277 
0 
0.0119500801014956 
0.02538736989573597 
-0.06879822944802126 
-0.01548094762563924 
0.7753222799525019 
-0.03063826592790806 
-0.006076945440872732 
0 
0 
0 
0 
0 
-0.3195959769238101 
-0.6016815731256183 
0 
0 
-0.1797715078134781 
0.1831964485103161 
-0.08252549979642126 
-0.2455147854521598 
-0.006113998223415235 
-0.02310704966938414 
-0.1310605157515292 
0.1866242570496073 
0 
0 
0.04044275487040559 
-0.144633585071525 
-0.01105426525091552 
-0.02764208873501452 
-0.1682509172144279 
0 
0 
-0.5672762822018398 
0 
0.0093927397726768 
0 
-0.004010423604927403 
-0.04430219312085294 
-0.1305119515808873 
-0.04269604382495647 
-0.1379286113358507 
-0.0493439070872868 
-0.009151069609994206 
0 
0 
0 
0 
0 
0 
-0.03067524264902967 
-0.09914383992140145 
-0.005904764998955396 
0 
0.3136789780598411 
0.0007760636226866286 
-0.01663186913277516 
-0.1584254447206748 
-0.7267542214129959 
-0.0980429329287278 
-0.05769334109692185 
0 
0.1428122540267317 
0 
-0.05046016524452623 
0 
-0.001538324439093734 
0 
-0.001538324439093734 
-0.02989365400606713 
-0.3597072370629247 
0 
-0.8610727939171835 
-0.01101068031633788 
0 
0.02400820278070131 
-0.008650892187434761 
0 
-0.01472282769563662 
-0.01846848059665149 
0.1943971119334193 
0 
0 
0 
0.0563738899258321 
0.01982775112914919 
0.0002860207073937339 
-0.1837865830831281 
-0.05581631976384837 
0 
-0.007807473558607413 
-0.1560540522984016 
0 
0 
-0.1681425366197513 
-0.04555652501213941 
-0.1913754601423576 
-0.02128352945035587 
-0.001798253015766517 
0 
0.1568064041110072 
0 
0.0187821127666069 
0 
-0.08334723385173995 
-0.1345332623428063 
0.1386941678776618 
-0.05501877936490171 
0 
-0.01117073126518931 
-0.04314997031599915 
-0.04927419709553563 
0.03176118072234885 
0 
-0.00875884999697688 
0 
-0.1068464964672554 
-0.01870145651627374 
0.0002860207073937339 
-0.05408134205522313 
0 
-0.06376570734202312 
0 
0.0326603775755339 
0 
0 
0 
-0.02460181284107015 
0 
0 
0 
0 
-0.4964992794051764 
-0.0008657459157394501 
-0.05724237421565152 
-0.262994644395065 
0.03652268020669257 
0 
-0.02064710240681726 
0 
0 
-0.003707508606777521 
-0.04859623158149792 
0 
-0.008331663170440038 
-0.05160150546015824 
-0.3183679198217532 
-0.6313369694488352 
-0.08158455869793492 
0 
-0.1177872067788981 
-0.001538324439093734 
0 
0 
0 
-0.01779802538989396 
0 
-0.07722734317767209 
0 
0 
-0.005904764998955396 
0 
-0.06190597990923447 
0 
-0.02774864419558374 
0 
0.1162027710211497 
-0.09724771283367929 
-0.128534859518826 
-0.02266038116722527 
0 
0 
-0.0138940322607818 
0 
0 
0 
0 
0 
-0.1410843360736677 
-0.08512437710680772 
-0.2369379616495268 
0.1062081511637332 
0.05355157466693843 
0.05355157466693843 
0.074571326665147 
-0.05009069181400039 
-0.4700751805967199 
-0.1392356477876848 
-0.06273960330459788 
0 
-0.01634276291478722 
0.04916650568065365 
-0.02357435226872947 
-0.0009441371264000549 
0 
-0.06872207827568892 
-0.06725313691490589 
0.004817095607611471 
-0.01127039197808844 
0 
0.3338111014824157 
0 
0.01893128435973552 
-0.1340680966365271 
-0.0004914862254727466 
0 
0 
-0.156143376527499 
0 
-0.08733858252997632 
0 
0 
0 
-0.2340621163161963 
0 
-0.1682326066793104 
-0.001486586599369457 
-0.03306595830275155 
0 
0 
-0.1032669632726592 
0 
-0.03066084338502665 
-0.01634276291478722 
0 
0 
0.0500967246939733 
0 
-0.2588817888077576 
-0.2965324081941906 
-0.5437804446665406 
0 
-0.09259203289891946 
0 
-0.09189079508374962 
-0.003683433037409307 
-0.132949677730141 
0 
0.1405706723871779 
0 
0 
-0.03926470920236343 
-0.007163495492201456 
-0.115822233714383 
0.007412639705586273 
0 
0.009973159737164675 
0.006676116479347641 
0 
-0.04945673744926928 
2.152746898001392 
-0.07422459182913983 
-0.01868870682089734 
0 
0 
0.3777726660752905 
0.09906525450119177 
0.002596006266285504 
-0.6483907409900769 
0 
-0.3260326581256754 
-0.005644228176849175 
-0.04752130964393846 
-0.02902124438300658 
0.1686904035885277 
-0.1300532252392674 
0.0006950152360417712 
0 
0 
0 
0.01143214974743134 
0.0184200481715437 
-0.03021286617097421 
-0.01730410394204479 
-0.04811456504589967 
-0.003707508606777521 
-0.1615790375151135 
-0.0527956868198459 
0.001749793209772488 
-0.04670976856841569 
0 
0.1087267006539098 
0 
-0.006606659876977756 
-0.02622660657377166 
0.2863650800543899 
-0.138656396186084 
-0.01813769695158527 
0.417233246530485 
-0.04318566026169368 
0 
0 
0.0228374511485128 
-0.3137572629582027 
0 
0 
0 
0.0001472767045292413 
0 
0 
0 
0 
0 
-0.01512592681109015 
-0.02499052549187478 
0 
0 
0 
-0.002730977822126263 
0 
0 
0 
-0.1905892105263172 
0 
0 
0 
0 
-0.02094479455731582 
0 
0.007060725314806611 
0 
0 
0 
0 
0 
-0.002730977822126263 
-0.01024437163372671 
0 
0 
0 
0 
1.172471578076106e-05 
-0.0024757965237846 
-0.03140221517185898 
0 
0 
-0.0009441371264000549 
0.0006950152360417712 
0 
0 
0.08801498765334413 
0 
0 
-0.003864226868058877 
0 
0 
0.001383200270104131 
0 
0 
0 
0 
0 
-0.007814731494006516 
0 
0.01989110706539441 
0 
0 
0 
-0.03676235153502114 
0 
0 
0 
-0.03823687370227781 
0.004250937494083121 
0 
0 
0.01038179820886343 
0 
-0.011291237463423 
0 
0 
-0.003707508606777521 
0 
0 
0.143085864674302 
0 
0 
0.01190906001210662 
0 
0 
0 
-0.1068819738566029 
0 
0.004056539331897206 
0 
-0.003707508606777521 
0 
-0.007081672350511197 
0 
0 
0 
0 
-0.08720226594832475 
0 
0 
-0.002730977822126263 
0 
0 
0 
0 
-0.07531661979383937 
0 
0 
0 
-0.1229585526761012 
0 
0 
0 
0 
0 
0 
0 
0 
0 
0 
0 
0 
0 
0 
-0.08741190196276478 
0 
0 
-0.01245755000584376 
0 
0.007796331021267512 
-0.002730977822126263 
0 
0 
0 
0 
0 
0 
0 
0 
0 
0 
0 
0 
8.449022163219129e-05 
0.7004332387007308 
0 
0 
0 
0 
-0.004405904241644903 
-0.01075072087736835 
0 
0 
0 
0 
-0.005542555477659857 
0.01953952090314113 
0 
0 
0 
0 
0.2540039408201136 
0 
0.4006112177461576 
-0.01134916851797254 
-0.03412481041871174 
