solver_type L2R_L2LOSS_SVC_DUAL
nr_class 2
label 1 -1
nr_feature 38525
bias -1
platt's -10.83984889206775 -2.511699848149608
w
-0.02470856229515017 
0.5238231797220313 
0.4392205290474632 
0.561047922662316 
0.739821393912458 
-0.6533475447562185 
-5.640688667215309 
-2.499964273363982 
-1.146644556296352 
-0.00352979461359288 
0.146304729116964 
-0.06501307275330005 
-0.9048023466210763 
-0.6389241097496309 
-0.6934355406444241 
-0.6341920540956244 
0.144827147598321 
0.06181617863342728 
0.2022075608568491 
1.495564508551089 
-0.1323651645017339 
-0.6005658230157229 
-0.1571013288308722 
-0.7169873355537006 
-1.593619847434211 
-0.2198713909926588 
-2.364042056119205 
-0.06884434171745189 
-0.03627628501765504 
-0.1500760444487432 
0.03999499813720622 
3.007062721378701 
-2.602441572534261 
-4.114853511635816 
-1.567857938181517 
-0.8172188830433488 
-0.04645159770310699 
-2.466280922532518 
-1.1547120515904 
-4.248839084190055 
-1.777924291979818 
-2.001532539792231 
-0.004131266614583611 
-0.3196047481570284 
-0.9695028720565962 
-4.56827102179145 
-0.116433631210388 
-0.9943685180069245 
-1.076538494761022 
-0.7356866869412804 
-1.570245760591557 
-0.2075764813938713 
0.2285308158074243 
0.3419036582145278 
-0.6285729838740574 
-2.0799970662763 
0.1977568980855752 
-0.1130566986064881 
-1.725202468446117 
0.1658557024095136 
-0.3375215781078618 
-0.00352979461359288 
-1.717080742701999 
-1.090126522425009 
-0.355568470109328 
-0.00352979461359288 
-1.062379041632245 
-0.1352767203308272 
-0.00993723876984804 
-0.1174196505013547 
-0.1190632087055169 
-1.454075549848244 
-2.147200660592648 
-0.9758398111209057 
-1.905697624319536 
-0.2391613293024343 
-3.119481863558082 
0.08814504826251997 
-1.606913499592579 
-0.384850923830744 
-1.695284952316971 
-0.7396259356817204 
-1.126493116029498 
-0.2351909727385588 
-1.828573169330785 
-0.2925803675299018 
0.08874269908252216 
-0.00352979461359288 
-0.0002774411719921508 
0.7590750449122806 
-0.006375944164396523 
-0.02559173275269192 
-1.460964478835218 
-0.6239133603608544 
-0.2352393511003588 
-1.518233944507311 
0.07579712347140281 
0.05839034428140299 
-0.00352979461359288 
-0.1300834568866721 
-0.1318509014529904 
-3.633813903677339 
0.05636875478027389 
-0.01447304684029365 
-0.6548540600239064 
-2.3069803095783 
-0.00352979461359288 
-0.00352979461359288 
0.2929972613015857 
-1.24901356121911 
0.2373028126187096 
0.06302688624534537 
-0.3918644895407505 
-0.00352979461359288 
-0.2129809175106201 
-0.06927735786554987 
-0.05335465020161734 
0.1328066816723749 
2.10386729049802 
-1.537288854011392 
-0.04591464383049486 
-0.4918845823168735 
-0.6910921570729111 
-0.02854140033820011 
-0.1146344538315615 
-1.206282741384002 
-0.3786418928259643 
-0.2838251529662655 
-0.07543413585817328 
-3.025240310577169 
-3.62526806928236 
-0.7992405005972918 
-1.143899013051087 
-0.6383144053247971 
-3.303662412812686 
0.0798359400724431 
-1.122888661417396 
-2.687825669566168 
-0.4882073772491178 
0.1712297526234223 
0.4979134243346787 
-0.1267835335041322 
-2.68621426901339 
-0.1161756767750949 
-0.0152962199702359 
-0.26616620423362 
-0.001890921703987161 
-0.4605513621816631 
-0.04830800441139686 
-1.042927813134444 
-1.395028944073325 
-0.4376428941397149 
-0.01782639248198931 
-0.1884256114587534 
-0.8500934902315326 
-0.0203572244804611 
-1.641980970987843 
-2.933986244242355 
-0.9485727741048435 
-3.232371445367799 
-0.8609273832042877 
-4.12067886814221 
-0.888554964448672 
-0.3859125396532399 
-1.045560074621144 
-0.3276235617944331 
-0.2335718314992211 
0.3421254816758909 
-1.343727723118098 
-0.5272030881088355 
-0.8569636958040351 
-0.1610507770147722 
-2.053828471069424 
-1.075325542918824 
0.7550488054795986 
0.07058295043141803 
-0.9825676408471077 
-0.8222346358263413 
-2.030591927839247 
-2.180096905654542 
-1.082646116384798 
0.2854045574384624 
-0.02864841046314893 
-0.03312675777432334 
-0.04656296969543156 
-0.03077854364649073 
-0.6612063283904934 
-0.05683418734212566 
-2.18536072755525 
-0.1871703238890337 
-0.05607803425845222 
-0.04113903325944494 
-0.1839105460660112 
-0.7072591645816314 
1.579546219595618 
-0.7512777781223655 
-2.451467708769183 
-1.427491372658615 
-0.2496847344050681 
-0.1012553562537031 
-0.5608469663605029 
-2.115546235578745 
-0.299040578666609 
0.2071607254090275 
-0.7121032885731091 
-0.01340289554722151 
-0.004996122301195499 
0.05300856887534688 
-0.2251817415404912 
-0.07502587407741922 
0.5556656741166037 
-0.7243548555642786 
-0.2332236339651876 
-0.159495491830349 
-0.3300707897873858 
-1.876196683871666 
-2.967028929966111 
-0.6618533604094492 
-0.01249896381121112 
-0.9615028783307288 
-0.5498836165864374 
-0.1659390807929413 
-0.4326008737471561 
-2.716112670239209 
0.263598555276737 
-0.5772799706012386 
0.2363796287604103 
-0.7229999281713043 
-1.742449903626958 
-0.09776481123408202 
-0.4442154475829634 
-0.02137292713870301 
-0.6184746626174215 
-0.9000171469049543 
-1.000890614460623 
0.6347736755255518 
0.03027294961084811 
-0.05010931894757409 
0.3525330029759579 
-0.05099929989243332 
0.2853148160319031 
-0.01781197914340447 
1.388753831892475 
-0.2720090247152586 
-0.0322429386465022 
0.4505551933902598 
-1.576920097279013 
-1.587954998562321 
-1.284987592479077 
-0.4176155547588279 
-0.09804002569290669 
0.05962724603434757 
-1.533261042199843 
-0.54116523249578 
-1.226942441090014 
-2.550265680039692 
-1.309139206720982 
-0.5694337794601589 
-0.03232876588997222 
0.6796982056055092 
2.75951135649685 
-0.4228157149086162 
-0.01479786608200155 
-0.4689206156344017 
-0.01059649939185561 
-0.36587842721248 
0.3486055942654536 
-0.08423032407436705 
-0.2905666902697531 
-0.534872273620264 
-0.6069724855206788 
-0.3323990212934571 
-0.2204601058021255 
-0.2029901197475273 
-0.3109947532528631 
-0.3748593280885041 
-0.2591356536328823 
-0.7548357916334593 
-0.1467678553055063 
0.002106600833553532 
-0.2046407691767174 
0.2426817710552753 
-0.875442529678232 
1.510415725705973 
-0.01933593484920096 
-0.01933593484920096 
-0.02174036184221469 
0.04441854801418998 
-0.03867186969840192 
-0.5018317488059463 
0.8831414040223932 
0.03333565435342835 
0.5532398883329451 
-0.8738741119961562 
-0.0298555649445991 
0.2576625167836762 
-0.008515612601830326 
0.3697206702868107 
-1.618731003888275 
-0.5272395493906932 
-1.891027033193031 
-2.731192674103074 
0.5688147195969723 
-1.596990490686886 
0.207805276991213 
-0.01314009783327984 
0.218697829720058 
-1.246800508967842 
0.09639716184374598 
0.1505346011495441 
-0.2442989173143674 
-0.3920584003600567 
-1.504890490781752 
-0.1064842031636387 
-1.106328479190452 
-1.816858061084675 
-0.8560946973320583 
-0.3486904932924848 
-1.525570630669774 
0.2299444602172624 
-0.01051838953156784 
-2.693650145221985 
-0.03061255036049803 
0.04691600380284695 
0.04691600380284695 
-0.03061255036049803 
-0.2807242907531423 
-0.02775038137625067 
-0.9089412286037164 
-0.1343701175344527 
-1.276935569750009 
-0.1906189664944419 
-0.6426603769704805 
0.07908131695773692 
-1.355198793635759 
-0.950779799791248 
-0.1675368695606585 
-0.04137748689338396 
-0.1362511601034362 
-0.08829891428130182 
-0.005940341127225118 
0.0434414664672453 
-0.03354416445534229 
-0.3359275557438043 
-0.7297794432436567 
-0.07178973178354345 
-0.02524020609504104 
0.3965709638803337 
-0.1173951363916493 
-1.333788614155711 
-0.3471405742039398 
-0.2520291008345641 
-1.157762449521217 
-0.4466475660188971 
-0.03539255254889558 
-2.968435219340067 
-0.8904755208223316 
-0.5255616904781542 
-1.382229263208553 
-0.07643475676672402 
-0.1262326830052162 
-0.4026091276993547 
-0.007119331668757192 
-2.101167166373792 
0.3582203272270942 
-0.005182688437151912 
0.2372411720437372 
-0.02293890783507149 
-1.555904530632286 
-0.6522253113504487 
-0.3732089715833492 
0.01528363892475723 
-0.06269079984027015 
-0.3712772895770095 
-0.0390222428131588 
-0.2400522370572627 
-0.02881331938558144 
0.0015282129307933 
-0.2231761106502371 
0.1490332801002492 
-0.4850718329438833 
-0.4872285285937826 
-0.08936046430797488 
-0.812646889883036 
-0.1964323774814337 
-0.3454625383969527 
0.1660770353546509 
-0.1428554071013016 
-0.2617807401145544 
-0.07032422686599904 
-1.331676888934548 
0.7409212953626242 
-1.062377346956929 
-0.01758206161909836 
-0.1816130818141136 
0.1024812718559727 
-0.009877525975970228 
-0.01466559039319494 
-0.03790753901465634 
-0.05920727680260104 
-0.5405088081466964 
-4.823331699390295 
0.1460974888255553 
-0.2239734617419402 
-0.06657559042034338 
-0.04971168876750146 
-0.240162637665856 
-0.6926002078097293 
-0.03753993270874481 
-3.213383528163913 
-0.3857121019569836 
-1.123191976763385 
-0.8976913543948789 
-0.402650683956652 
-0.1030530593123241 
-1.09406986800862 
-1.074837854092301 
-0.1019618993160837 
-0.06094427678334009 
-0.03141226657799333 
-1.617180200273365 
-0.01542969018561102 
-0.7886442002873871 
-1.398358055053743 
-1.589100567435211 
-0.1516349818169847 
2.068521045440603 
-0.5982398239371914 
-0.2544158717063393 
-0.1714742463013466 
-0.8941401350687063 
-0.03446472763038726 
-0.5282173050681339 
-0.2002213964356194 
-0.2746212764621736 
-0.09733777777486741 
-0.5984585820083397 
-0.7488366020231303 
-0.2864064047789737 
-0.2674670767960463 
-0.3174410762686296 
-0.1715741545496241 
-0.04883126600641374 
-0.07145619849666035 
-0.1663856882275185 
-1.136026459422415 
-0.4215796094274362 
-0.1477492208302922 
-1.58969223990059 
-0.005593721039225083 
0.4895239196306043 
-1.161603262234334 
0.4978543481809382 
-0.2941104101592368 
-0.1986583661177632 
-0.09338638138294535 
-0.2423028560065711 
-0.1558728809902313 
1.150920127995007 
-0.5492538399232056 
-0.2851954064789194 
-0.4598760178785948 
-0.409011954226615 
-1.288548002006315 
-0.704660171647371 
-0.6730724335644862 
-0.7319967874041066 
-0.1381661490318407 
0.166480851076162 
-0.005593721039225083 
-0.01796283633863155 
-0.02257938110105256 
-0.1383616194910759 
-0.7157982197716145 
0.8086136343739936 
-0.0256538617856882 
-0.003717054507235824 
0.0489602951314516 
-0.1729183678001191 
-0.01109713813483466 
-0.1147848902607979 
0.8362344770401658 
-0.01109713813483466 
-0.8835920118511505 
-0.3534244203323413 
0.1035735845239896 
-0.1294000244121051 
-0.3138926411400587 
0.1856143144420609 
-0.1316283298087464 
-0.1460715592135917 
-1.123185027997255 
-0.07595665198332739 
-0.4070218459777639 
-0.3883669354253715 
-0.4104614896256543 
-1.126859308555501 
0.09962282249505909 
-1.716467815077982 
-1.607778700953002 
-0.01606445292744311 
-1.537130318214951 
-0.52399110802235 
-0.7403162254249942 
-0.06940510284172115 
0.03158679955051459 
-0.244899418015184 
-0.06271986393725981 
-0.7517298512976749 
-0.1642260600844607 
-2.541280093777629 
-0.2977892533822183 
-0.7053951949539751 
-1.465323483139553 
0.1332779949510021 
-0.004395658323495798 
-0.2246159727601469 
-0.2025546426508115 
-0.08337342605785041 
-0.6779361585173477 
-0.004356802103166578 
0.06550209236722952 
-1.13398412277201 
0.006509856728734395 
0.1088410227712069 
-1.217609687170267 
0.3327738513389004 
-0.06004396931524171 
-1.167536818532642 
-0.002197829161747899 
0.3705715948592374 
-0.1298664008593018 
-0.1234213245914671 
-0.3578065690628436 
0.9376176048752168 
-0.04086544371794371 
0.2208281794495443 
-0.13262299385026 
0.04916039748583961 
-0.3262925330816648 
0.1277327041886965 
-0.9443938418186852 
-1.442734419767959 
-1.396657158769677 
-0.5721234412687292 
0.08033278915451085 
-0.5829180610636481 
-1.250352645144446 
-0.7581330643802906 
-0.2831319048446815 
-0.6030305674362179 
0.01573538116967425 
-0.3603766515281938 
-0.0132791975516212 
-0.8744298627322786 
-1.966790242938701 
-1.278945740215764 
-0.8883444232459581 
-0.3669327656452243 
0.01707044081568647 
-0.4164770917477395 
-0.05216152095090527 
-0.01738466431516951 
-0.1303353535417763 
-0.006659102482664672 
0.391821730057956 
-0.04693226014092235 
0.1534579157980037 
-0.8543410698071693 
-0.05170705988869964 
-0.02399716757066163 
0.14454976739616 
-0.05824631581176148 
-0.5091082132392714 
-0.4162866799859584 
-0.2172534256214163 
-0.3110762293726712 
0.653067070027769 
-0.08628375719898193 
-0.0551887644631856 
-0.3316326258611577 
-0.6631787213210586 
-0.7675639279801779 
-0.3963979975000025 
-0.9074189822525393 
-0.2084040505043924 
-2.793560448130149 
-0.1938492547337183 
-0.008878042752453961 
-0.2640917294727458 
-2.736809089461096 
-0.2949864829160618 
-0.1220448208138955 
-0.1418245553802484 
-2.171368513286581 
-0.09144376063319104 
2.853819687517731 
0.80584561704121 
-0.00310325329780056 
-0.1223613378476364 
-0.3644650908406174 
-0.4297773677538961 
-0.5694540688931089 
-0.3831955766042991 
-0.3298094440575335 
1.198466416274097 
-0.03649352213010088 
-0.357670231863486 
-0.05723214841843674 
-0.227302462982868 
-1.282456280174808 
-0.1230401568949843 
0.005054521380233308 
0.2266830952529023 
-0.2704411398754559 
-0.1153974966970254 
0.01510214354959061 
-4.07797097880451 
-0.6942742630974881 
-0.2559849060775606 
-1.004241312636134 
-0.4165013110951654 
-0.04772998686518825 
-0.6583673031516734 
-0.6145052295370541 
-0.01109092665094868 
-0.01109092665094868 
0.1860426886702509 
0.01399575242597648 
0.1602106557504409 
-0.8868187007339178 
-0.6133616839567861 
-0.9402107030780824 
-0.05751441306984686 
-0.08152446899134741 
-0.06773895925359986 
1.892590814955146 
0.0377127839772543 
1.532735791379907 
1.08995187533475 
-0.7673541252438569 
-0.1021247466343833 
-0.994914039936874 
-0.5308251778444283 
-0.6054481463528327 
0.03534581318091765 
-0.5063542968355593 
-0.5604061921581985 
0.5825570483543661 
-0.12341590149782 
-0.563068745430454 
-1.404890610198403 
-0.3435436552529803 
-0.0903983698571586 
-1.320433526045534 
0.1131692114521743 
0.09418579497488844 
-0.1848527713475142 
-0.0217433986929597 
1.331480117070501 
0.02166032206091341 
-0.0653776483091399 
-0.08040492989438823 
-0.08847188020195286 
-0.1155063158886162 
-0.2322063635606745 
-0.02159984097271608 
-0.0421671760801561 
-0.4453537996819348 
-0.03391290074442427 
0.3798578858057829 
-0.4674119726685532 
-0.5173463833717469 
-0.03289784280635268 
-0.2727015969845571 
-0.07829564843322531 
-0.5999039391792991 
-2.263336081944059 
-0.3536533127854136 
-0.00782578997844567 
-1.486333608983149 
0.4347006803273088 
-0.02493484832326943 
0.03363781349438827 
0.03523206358874038 
-0.4771259338864844 
0.8560678773800459 
0.003882286377892343 
-0.8410865006237852 
-0.3349151378090625 
-0.7043965555265609 
-0.0391825568986225 
0.03002995688226992 
-0.4762738979309263 
-0.2803132864123825 
-2.720275843710449 
-0.608324549065666 
-1.033929342691923 
-0.2630651228882525 
-0.181280808706897 
-2.376608578045016 
0.5874799133298205 
0.4249018775891859 
-0.4212665671600918 
-2.436187002733725 
0.2120701159869147 
-0.05797000141518292 
0.002730087546375377 
-0.03879472485438498 
-0.03964346536468547 
-0.3622109444402036 
-0.08035889451292354 
-1.518444452483109 
-2.473216417504737 
-1.271797831880463 
0.01929636203949869 
-0.03549430946208362 
0.1582449088536187 
0.2067612934915432 
0.3118753019300283 
0.4744017824380084 
-0.3729462897982472 
-0.2458812389130404 
-0.03011165736653063 
-0.1403626550851448 
-0.3340569697234967 
-0.2197354116502809 
-0.9086855850130463 
-0.235759615397098 
-0.08061102830947955 
-0.3571895244221459 
-1.058385024136938 
-0.2667969679237902 
-1.170379119788651 
-0.2554349984965654 
-0.04116270774278481 
-0.02761799297287547 
-0.1211562055302888 
-0.2255235644379746 
-0.714965610468988 
0.008470045026817186 
-0.04319845542347846 
-0.1398546070831147 
-0.5057469071473539 
-0.04063414430972798 
0.1369752035612267 
-0.02628877019747758 
-2.181086055103758 
-0.1145383632959731 
-0.05569476463838696 
-0.01439784631727717 
-0.6197889157607106 
-0.08098630286672795 
-0.1612478198987342 
-0.4383175391573079 
-0.315305470890166 
-0.9687522138850337 
-0.3173924484339005 
-0.2229033273927159 
-0.771279895909203 
-0.01354471476990933 
-0.2011195694026702 
0.01132588081036431 
-0.2442696032308598 
-0.2068466589457742 
-0.3362808001657488 
-0.2089850360834546 
-0.2953939100303285 
-0.4771563171200545 
-0.3140355390723228 
0.22077753635451 
-0.3346572696268577 
-0.03156332467600838 
-0.1142904380844759 
-0.3716073645816748 
-0.05767069784436627 
-1.246762674727277 
-0.03489481728385482 
2.605458778144686 
-0.03009888023758204 
0.1189763886817503 
0.0726044673130368 
0.3246010741765845 
0 
-0.01900534860332279 
-0.184133768456708 
0.311746180702371 
-0.1394397737233228 
-0.000637759741143949 
-0.1903157400743116 
0.01324555862413843 
-0.2138139685042783 
-0.4408121049679049 
-0.01231992648696009 
-0.02611492019054324 
6.956919164658303 
0.02724227376770111 
-0.2712476296481452 
-0.3091338526872254 
-2.45784755190484 
-0.3459090562011518 
-0.7928606071847044 
-0.01102153587827071 
-0.3795483907127361 
-0.1833420718290889 
-0.09887730183307589 
-0.03152305148954852 
-1.570174128826659 
-0.612798403156793 
-0.04538498389410337 
-8.445065918207323e-05 
-0.6468781432843133 
-0.4269239638874554 
-0.1606650006995295 
-0.06941294042505385 
-0.1507203092702158 
-1.501548314862926 
-0.596833333824363 
0.02540954492004489 
-1.377768886591571 
-1.377528247276734 
0.02060124356436115 
-0.8900949467501167 
-0.03004136253021013 
-0.2868099587059118 
-0.9189523076223711 
-0.2335891313202001 
-0.0005828793297202577 
-0.4487720350368151 
-0.01335189572571665 
0.03981457927552377 
-0.04689329566058942 
-1.357043956726222 
-0.05901388066670503 
-0.4713550022229551 
-0.4001065529910214 
0.006479067838549145 
-1.797196838752584 
-1.017190381366168 
-0.1232998277274428 
0.06653130069165843 
-0.01608083535619734 
-0.028348546071507 
-0.06888851242116246 
-0.07812679076721622 
-0.04405804582826923 
-0.3986663563459398 
-0.06727365651012014 
0.2628184617097109 
-1.156996133057349 
-0.2603529715117876 
-0.04448451891147872 
0.01078189631554123 
-0.1133205312169142 
-0.290863306258516 
-1.060237807432913 
-1.457028867765658 
0.03428746478833788 
0.009531907984320629 
-0.2050364938329054 
-1.321687608521637 
-0.3479155684826785 
-0.3790444746018211 
-0.1242802715585891 
-0.281765081506884 
-0.4175616506147824 
-1.490353689888975 
-0.4791784692803134 
-0.9176123669997672 
-0.09507214848960276 
-0.2342206992496493 
-0.2390012225418927 
-1.169403741362071 
0.790843042423481 
0.0341930960097683 
-0.4457762705798267 
-0.1396674961719697 
-2.196903328201289 
-0.7132050466992572 
-0.8564238518526661 
-0.4004642646866159 
-0.02753547149967366 
0.08239562480943408 
-0.4570337400825332 
0.609884255653429 
-0.03434839344847717 
-0.1169551024302713 
-0.5481011579019193 
-1.086186730293188 
-0.5156302869472882 
-0.2303741777253288 
-0.7224442505841784 
1.369986943694134 
0.3581272243507328 
-0.04535163075527947 
-1.105937823175517 
-0.9201060766789897 
0 
0.2628006905579925 
-0.393019350910159 
-5.252000165025942e-05 
-0.1527009818849087 
-0.3805078991838093 
-0.2869567043153896 
-0.1417557749574144 
-0.3862965171820498 
-0.4422946832929512 
-1.735319249836737 
-0.1202113426013371 
-0.2553824540604671 
0.03653235966118232 
-0.03592060304375361 
-0.00311459932133401 
-0.3822932752441043 
-0.0004111145518804781 
-0.545656919143781 
0.5300915717793981 
-1.09092474547439 
-0.005827584157573411 
-0.03433313227742739 
-1.036141893981352 
-0.5680822958667926 
-0.1187642717248317 
-0.122570620083913 
-0.03042421630002544 
-0.01857910456340656 
-0.182134261783497 
-0.9779343127209322 
-1.204059260342214 
-2.155960339965402 
-0.2807170009978015 
0.9106987586266143 
-0.2401592182309412 
-0.0383066449153226 
-0.2014036376447907 
0.5810056375166114 
-0.3447357027382212 
-0.003093408079938491 
0.006330733362238148 
0.2526534272002181 
-1.578908334299441 
0.02740712677548112 
-0.4595841602975139 
1.050286403645557 
-0.1565403508123769 
0.5199335499379376 
-0.8145058660342366 
-0.2023547837129386 
0 
-0.2622896199949687 
-0.5182404213823841 
0.02548261066695074 
-3.504288354001242 
-0.1460988911966711 
-0.06161085811970603 
-0.05298337286027906 
-0.0008037840048109906 
-0.06308722132332455 
-0.02944968439755843 
-0.09724168248911588 
-0.1399466853829882 
-0.008031363562403967 
-0.341781944361211 
0.05766612099673477 
-0.5268954750264809 
-1.089949654394915 
-2.688237234883746 
-1.329080862728272 
-0.01076950683893328 
0.01485719390120135 
-0.180188711858439 
-0.7360937600638376 
0 
-0.005242012378365604 
-0.2675632955603884 
-0.6020015870408728 
-1.302285349046794 
-0.2048289711790448 
-1.009251468345731 
-0.7892374815870479 
0.0178287659413086 
-0.008499757456653462 
-0.2482538177497113 
-0.03618150892942142 
-0.7421457407221242 
-1.53189441296865 
-0.03746687651442766 
-1.514724218578771 
-0.2905220087360003 
0.2175119576646773 
-0.02777434278297392 
-0.1088739236980463 
-1.992459716615808 
-0.0227250554478192 
-1.127539295140701 
-0.2448640724917378 
0.03495497681570278 
0.5024277408047682 
-0.02583517384156463 
-0.1245959086037056 
-0.000287297002778187 
-0.1335895114086486 
-1.418095690754963 
-0.3272411556496465 
-0.4697591316395334 
0.0415057824964095 
-0.1473332975180969 
0.2721078760595372 
0 
3.552865471662746 
0.8789088421160113 
-0.08808784059581198 
-0.004308214029194977 
0.04934286644932195 
-0.2177858352517098 
0.2547155558574649 
-0.267603990585886 
-0.1577112191437157 
-0.01143818246087076 
-0.8632255837250777 
0 
-0.04376222006312781 
-0.3658475759402621 
-0.03590327347665954 
-0.3981980767761968 
-0.9136610295354829 
-2.043610557466261 
-0.0590229549038986 
-0.03909502981182689 
-0.005472386768990765 
-0.5659230214547009 
0.1564105077475106 
-0.01162711816297288 
-0.7200804677091817 
-0.1832407433821232 
-0.2945937881462453 
-0.5899614302890182 
0.004358332853701325 
-0.1431938125695817 
-0.7024091163284012 
-0.02099834024877367 
-0.780697951754833 
0.2510919580515302 
0.04237475587711764 
-1.011479055932669 
-0.6951741449234364 
-0.004227528895065297 
0.1126159570184928 
-0.02585436423975912 
-0.4122271428924871 
-1.6127810021941 
0.3991098649306912 
-0.03086236854992291 
-0.7429677634807211 
0.183512422749979 
-0.2688975502698514 
0.1605494490320285 
-0.8067411455487421 
-0.6021781131890198 
0.06609524432906969 
-0.6314618634347412 
-0.06055946014031281 
-0.555327143485839 
0.04282798602186842 
-0.1456745139069993 
-0.09882654462800056 
-0.1543039819364803 
0.005780033257351883 
-0.1673483908917806 
-0.0514572274442298 
-0.0991788672094344 
0.615581750699529 
-0.3062219931345853 
0.01703123297688629 
-0.4621733826476488 
0.3719306902034725 
0.3303858415469367 
-0.00820421151201676 
-0.01926759991542247 
-0.1098935084112848 
-0.04974060907012808 
-0.143238260874372 
-0.319354656515201 
-0.02929569853166989 
0.3256716379980845 
-0.9606156214679757 
-0.2161525432776339 
-0.380417491668843 
-0.8797211905837198 
-0.4214131112275312 
-0.1269787561919087 
-0.2003829041924572 
-0.5052275209511143 
-0.2080495824991333 
-0.2098972453739711 
-0.3693024453458112 
0.09099563371756994 
-0.3255082106232005 
3.411067372844883 
-0.7183847806340345 
-0.3141190643255888 
-0.2302478034262385 
-1.267984235654737 
-0.3156631273286404 
-0.4848947079144005 
-0.5728243355777149 
-0.4128532520394693 
0.05279213883050171 
-0.1055950765640191 
-0.01884154197888827 
-0.6292351875279777 
0.06619000519479071 
-0.2550376760706585 
-0.06661959190554957 
-0.1287282113951578 
0.1635293975725211 
0.8999754728216223 
-0.2478270139267324 
-0.2606989681584909 
-0.0515041497009051 
-0.1011087169485262 
0.9148989875202516 
-0.0515114801572031 
-0.2485845499337433 
-1.133706010651517 
0.09095374642801457 
-0.5123156562370761 
-0.03176744084582067 
0.03576482740102881 
0.2381865060757408 
-0.01967364725995802 
-0.03348372999641402 
-0.167355637859583 
0.1545193237443784 
-0.8376740936604374 
-2.189205477381227 
-2.029584226281689 
-1.711948327228008 
-0.098020129561824 
-0.02026621966985635 
-0.1875038873923954 
-0.0009842204449716147 
-0.0180195549643713 
-0.1636580849039377 
-0.1351031175281008 
-0.0180195549643713 
-0.4914031916832562 
-0.4977780744233629 
-0.3716745705321834 
-0.4070694883650698 
-1.710171469152349 
-0.5770562620269222 
-0.09719003845057136 
-2.134192705619267 
-1.834664347655857 
0.01102535835049626 
-0.05119570979063214 
0.9345820525359857 
0.7671664504163009 
-0.2230184279816629 
-0.2702213293353523 
-0.354947073716692 
-0.5320655736782375 
-0.07942916992241932 
0.004908519825936708 
0.3232674233526434 
-0.08056596465971123 
-0.08748449390066272 
-0.2122782463588085 
0.02812919194650971 
0.03434820192290454 
0.1296605219505938 
0.2761557705082401 
-0.04615480586730981 
-0.636981439178841 
-0.136518753494447 
-0.0312794900209851 
-0.9977339182240471 
-0.1872331249946355 
-0.02245794326592275 
0.008426575068175596 
0.07661077626620166 
0.08005854781656867 
-0.4008678188931021 
0.1474451995478517 
0.01380320432067399 
-0.1171275960245676 
0.1331192730378082 
-2.129520311839626 
-0.6370674162376545 
0.001546279860176329 
-0.1556600617313234 
-0.2058280293578358 
-0.1913946200286828 
-0.2232817810463174 
-1.052910735526005 
-0.2038102621624643 
-0.2961888774097629 
0.2671151504747829 
-0.1154862718424565 
-0.1434167842681972 
0.9877789218988197 
-0.2227987126432888 
0.7972333882050198 
-0.05516769145258223 
0.6223441587376231 
0.1674899313502165 
11.75439232574343 
-0.07187156413854899 
-0.03191707520707091 
-0.8325865439798454 
-0.4247561894563553 
-0.1691632246518792 
0.4546034391548529 
-0.1359726961344841 
-0.02173246632279726 
-0.07808840808358093 
-0.01228792361274367 
-0.3940059939598018 
0.4577939884956357 
-0.0659641228161533 
-0.09292902335899801 
-0.1974625248480747 
-0.04869163916030933 
-0.04871486314588759 
0.0680763945916853 
0.0371161934390908 
-0.2278403887936934 
0.009095488016591184 
-0.1336036717568347 
0 
-0.4514191894343079 
-0.1922404721362986 
-2.446363809347778 
-0.08393716682994899 
-0.3144574118643798 
-0.2122374836600653 
-0.05199464038842844 
-1.903383005987251 
-0.1859765823162364 
-0.4164439736924124 
-0.03407566047851625 
-0.8847913760486324 
-0.1475096253834303 
0 
-0.01711043001502903 
0.6227667917526274 
0.3436928245711138 
-0.104480225938169 
-0.01963797034141287 
-0.02246925563376941 
0.03937495588273153 
-0.1485818402786231 
0.7762994897996993 
-1.177029878263806 
-0.09335709868022639 
-0.61699008876186 
-0.6433937541404326 
-0.1636362685869596 
-0.4993675267429031 
-0.2986028123388621 
-0.06085627480117817 
0.1023889471129543 
-0.2193796271570137 
-0.5003575345208301 
-0.04047412581858974 
-0.2732483141279555 
-0.2927232575976474 
0.06424661681224025 
0.001101479682255795 
-0.03059141432880327 
-0.03756744514901662 
-0.0362258280974103 
-1.761597073663022 
0.04038245271402923 
0.0577322035288261 
-0.4761721491479385 
-0.3881312129741747 
-0.1119749079122724 
-0.6409302089526223 
-1.387701072696938 
-0.01125271977446545 
-0.6667792154131149 
-0.1322271525768738 
-0.448106218247331 
-0.4542257569240914 
-1.083941527282843 
0.4606829399798752 
-0.442736386937717 
0 
-0.1304247594947416 
-0.1304247594947416 
-0.3523657973931129 
-0.7716046447708762 
0.6144965768146252 
-1.702376301670901 
-0.006420399408252205 
-0.1132654932001578 
-0.4330920408441257 
-0.01663887450456892 
1.205275273077034 
0.3020891087495123 
0.1492216384804826 
0.2444322234421606 
0 
-0.005982797472774933 
-0.005982797472774933 
-2.720978560294633 
-0.1257775686778879 
0.06585480341499406 
0.02037300576492933 
-0.03116056481590523 
-0.4039136903107293 
-0.4346307832370418 
-0.4569376213166736 
-0.3420026951218346 
0.03925754663391737 
-0.6893483459304017 
-0.0007955112635703929 
-0.3702464126028673 
-1.428173427497497 
-0.001755536086082282 
-1.22514865949807 
-0.1048905644497349 
-0.431122495949679 
-0.09961509927518758 
-0.03666409784256998 
-0.2490164282976977 
-0.7479660127348607 
-0.0114924045233548 
-0.9474621203149742 
-0.1381998624526943 
-0.09664980453526224 
0.02545018706471601 
0.02494799043228272 
-0.7662319083378997 
-0.04049157610388907 
0.006441220437331849 
-0.8735413519278488 
-0.1725233005092268 
-0.1928620831673207 
-0.4978886764613105 
-0.1284520169090759 
-0.2825034465951031 
-0.06674555178961156 
0.04354688204003442 
-0.1123865712450423 
-0.1454361973518142 
-0.009985784497500981 
-0.2427927123941267 
-0.3933889392651578 
-1.264327902273977 
-0.01852289321426966 
-0.03158658509426922 
-0.4163840978236202 
-0.02650447218874018 
-0.02650447218874018 
-0.01634024637768212 
-0.1327601722547584 
0.451306455134849 
-0.4008603781248231 
-0.1748411005628856 
-0.4145478914190578 
0.006564268344194185 
-0.2090901739331935 
-0.07975647417651445 
-0.01804098111275456 
0.02088229200615857 
-0.2448350460206386 
-0.5207061357512287 
-0.7329521595608482 
-0.004616616699993673 
0.1454784428818209 
0.02760891439555792 
0.1647079251801743 
0.1686214061404585 
-0.01941290611176592 
-0.004616616699993673 
0 
0.208013616888895 
-0.403098844594988 
0.140480808455043 
0.0007711240441593678 
-0.2231412960682404 
-0.5520318307202944 
-0.01720773841560823 
-0.0824711805572326 
-0.4671986523078419 
-0.02203706871215243 
-0.4541498116625109 
0 
-0.2554735794618442 
-0.002550371944433253 
-0.02646927094693481 
-0.01988493837103884 
-0.3812272176578393 
0 
-0.424501921463538 
-0.01135350985421423 
-0.64674406049335 
-0.0001675759246596999 
0 
0 
-0.8166640001434395 
0 
0 
0.03351423072590287 
-0.3981796834072188 
-0.06310877625678853 
-0.9579721911337759 
0 
0.6156125443428079 
-0.08813822581986698 
-1.506241847114397 
-0.002972992156510593 
-1.172866320074542 
-2.753963957180796 
-0.9236335620322931 
-0.6523866545791311 
-0.02980160826766105 
-0.2735625765731746 
-0.6486797989026373 
-0.07909247619883211 
0.04352201542277376 
-0.03292341539287835 
0.5329446703924441 
0.293308006525598 
-0.0001089280466921723 
-0.7153526668183331 
-0.3151574286961394 
0.2506857171579048 
-0.1044121344401668 
0.6238009660982857 
0.1606738665893131 
-0.242842987228481 
-0.07661342692728981 
-0.3403057298311359 
-0.4832095995313034 
1.441998998348961 
-0.1136999265830572 
-0.2128015098937817 
-0.9137785534570244 
-0.1302565507159599 
-0.03474094896244369 
0.0635437334839223 
-0.0957649458773015 
-0.09804589980498686 
-0.06848793790790357 
-0.01049991479783505 
-1.138697092989037 
-1.332377178014394 
-0.02696589638369154 
-0.2589164292646893 
-0.3356460508858095 
-0.3191614046234627 
-0.526484469214557 
-0.3379258471141717 
-1.276136415730151 
-0.4889862255097321 
-1.315197449383673 
-0.8657310106380487 
-0.2926202695852422 
0.0746186689197593 
0.02763555964628446 
-0.231312378902025 
0.060425017563064 
-0.1471372270681545 
-0.030098900786638 
0.1748082395181565 
0.2335633775697388 
0.2403522607936014 
0.1186348588120826 
-0.1045054453007171 
-0.9280283848240655 
-0.1231400395821401 
0.4367826768577399 
-0.1601390915681957 
0.06948480852835164 
-0.002792579749558519 
0.3832486016296113 
-0.3579761220065352 
0.01693767574271355 
-0.5982541606740338 
-0.00923392218774936 
0.1843409493397236 
0.0007531406432621906 
-0.9348132868844113 
-2.204507195420984 
0.3615793637154505 
-0.3889259612978376 
-0.3677612508815058 
-0.0006492294759268163 
-0.1361508491777959 
-0.09409578586389628 
-0.0315139750726304 
-2.342758787164181 
-0.01957700918203424 
-1.019840891363706 
-0.5804415041605109 
0 
-0.0972750347332856 
-0.1927922531016569 
-0.5196493597767554 
0.0508413932533588 
-0.05111911170702022 
0.2112493979185509 
-0.1344446027862606 
0.1463607488919752 
-0.01084289708904468 
-0.01560309982990541 
-0.4507163349439771 
-0.01936162762776542 
-0.01936162762776542 
-0.03128806233958243 
0.1378391220504028 
-0.04676571540489523 
-0.2498573060843045 
-0.1069181968145203 
-0.2662716721972274 
-0.3597897765411199 
-0.4004673950496649 
0.2613857243882885 
-0.02187477574343457 
0.07792917230229254 
-1.205005772963605 
-1.207136254260906 
-0.3363668275920606 
-0.02360240854489854 
-0.1620446955782514 
-1.960921042469215 
0.3808641912276122 
-0.01767440496059321 
-0.02979153714113099 
0.4248519564996306 
0 
0.160771017245607 
1.970532163532463 
-0.07938892843865995 
-0.3521992918022493 
-0.9793464415242571 
-1.684612761499465 
-0.270191409080731 
-0.2274469938070925 
-0.1288364715954228 
-0.7778418117656801 
-0.7772382459460997 
0.3280936431000511 
-0.02260242780890418 
0.07921901641985929 
-0.0008537678941988004 
-0.07176146100864268 
-1.177324827644175 
-0.0658338172580084 
-0.0038512683458131 
0.1238264720205088 
0.21165618956708 
0.9355949786933465 
-0.3178951958973017 
-1.042576246303241 
-0.0038512683458131 
1.208977281206355 
0.04116936085179705 
-0.02948785258016223 
-0.3294489119992188 
0.6260431836115702 
0.4093065658779684 
-0.1904121282717865 
-0.0460472110111452 
-0.1074702840454083 
1.2924613676905 
0.3470233246700293 
0.8010069563421223 
0 
-0.28969838831211 
-0.01221169114044689 
-0.08681789156185114 
-0.3203349561935024 
-0.02102347340497255 
-0.6349832331892022 
-0.7736844830829293 
-0.8596248808405148 
-0.2258584407306108 
-0.945710346813852 
0.08320746593880735 
-1.711008923162953 
-0.7423092896195184 
-0.170793399396277 
-1.551027317623725 
-0.1672222913810743 
-0.1920364848659677 
0.063418091641687 
-0.1922226345708805 
-0.06600200386744426 
-0.1017321278487901 
-0.02981347859565474 
0.02323356801637196 
0.1470221814540863 
0.3668630300133396 
-0.04358249989221983 
-0.6995248964196316 
0.1004959204040509 
0.1755008544474254 
-0.02561590914197213 
0.5068976493200394 
-0.01962524102958611 
-0.06691106056866226 
-0.01962524102958611 
-0.3135150554053758 
-0.03552366887766563 
0.3970532362060376 
0.1919441989046738 
-0.00506330569317359 
0.9675210049342418 
0.1379830621054899 
0.3782392949645146 
-0.009738094908256197 
-0.6278143765798962 
-1.376050133781108 
-0.04430933197496506 
-0.5966627085795823 
-0.6258116149456561 
-0.5665714243550619 
2.308925320179737 
-1.786005979907302 
0.04109334204914072 
-0.1778484003616243 
-0.001427746727871792 
0.02658811208772214 
-0.3718747685703575 
-1.203563161181303 
-0.05883379162845351 
0.4806340793505741 
-0.3626291265024659 
-0.1759990208628016 
-0.0001675759246596999 
-0.01298679194846373 
-0.04502529939952565 
-0.02936667852408014 
-0.1333336114359073 
-0.1106549320185135 
0.07424634031474341 
-0.2521516979203107 
0.01075937046801714 
-0.5378650907058442 
0.09803473411127728 
-0.3818790082302161 
-0.1082032027701848 
-0.03930264430714957 
-0.0061238954265663 
0.4378700787013996 
-0.310656561569277 
-0.6242724293260613 
-0.0061238954265663 
-0.01884702160747204 
-0.1860115883080076 
-0.06529113536604134 
-0.0002263560340131651 
0.1444108131558704 
-0.2315929944593008 
-0.9324080843596788 
-0.08724928515838178 
0.06192455352112656 
-0.1769988210963867 
0.129039631305568 
-0.07987095627103211 
0.7935764009976679 
-0.08659046375012967 
-0.007917165443842005 
-0.02018231608044007 
-0.181692986442598 
-0.05796662662945138 
0.08712585940054611 
-1.958652900774094 
-0.6465395009481081 
-0.004587014935721355 
-0.1315538983814323 
-0.003653630910268009 
0.07226557778394462 
-0.6537235389549036 
-0.06126303983827632 
-0.243483293164706 
-0.1136126806693685 
-0.08595701560457647 
-0.1585344365815295 
-0.1684827274252103 
-0.02568210331758853 
-2.257113412330774 
-0.660123354146581 
-0.275227167285755 
-0.000522328177492252 
-0.2885090190297696 
-0.2281194417514117 
-0.932157363214579 
-0.02562904112969772 
1.145210252598221 
-0.1634803234163728 
0.01022712490723003 
-0.09519672041365075 
-0.007680029613495579 
0.1312795733826059 
-1.467713430527893 
-0.08144786106045368 
0.2770839464866431 
-0.165604290823947 
-0.1401847080532864 
-0.4784862552168171 
0.06748832440387702 
-0.869145242715484 
-0.07127989327186328 
-0.06989533793537522 
-0.1434252628119866 
-0.1238042997511469 
0.7230933559791992 
-0.4742174798757384 
0.1424634800836754 
-0.009703988233794588 
0.06986285092579876 
-0.03726331358272112 
-0.05643277875306153 
-0.6586970089229819 
-0.02337800257933097 
-0.1876497617371659 
-0.0007669693286916223 
-0.171003668341807 
-0.08787656244526305 
-0.005983990369025946 
-0.6411039131458642 
-0.06269009135621585 
0.6199587466673607 
0.3764017809074616 
0.2916887382714417 
1.528436327677288 
-0.005125012633227169 
0.06801928647008636 
-0.2304292225792289 
-0.2037349461777585 
-0.03022660310812678 
-0.4229994559362669 
7.626765694429067 
-1.262986827611777 
-0.6638317106747814 
-0.2200957650716948 
-0.2211170136110192 
-1.451221328213751 
-0.5552629767791174 
0.1760143304660662 
-0.1333721168768731 
-2.454291145586759 
-0.8230562132911934 
-0.05072164980814731 
-0.008453608301357886 
-0.07741700191869647 
-0.6326818787052025 
-0.008453608301357886 
0.864553105220573 
-0.1603518643806671 
-0.3173729452805092 
-0.0685934256128469 
-0.2640990224353144 
0.1508367694876431 
-0.417067352842745 
-0.1080916463050965 
-0.008453608301357886 
-0.008453608301357886 
-0.06887657463335843 
-0.008540167138944591 
-0.3993162644091933 
0.953159780210483 
-0.007123025026489188 
-0.140977170387291 
-0.5938760164543232 
-0.01523347320445855 
0.3088929530381324 
0.7264288768535713 
-0.04226697272957358 
-0.499098479090462 
-0.0161244501747682 
-0.03565458496096333 
-0.08589943071518659 
-1.36399269543443 
-0.07230981964316731 
-0.07102624389310253 
-0.004303433335838598 
-0.09560264509515722 
-0.1280575212777099 
0.00740462616618162 
-0.5937633896539756 
-0.04916881615982106 
0.329566339284329 
-0.04514843922571565 
-0.236731961911866 
-0.1152719066103822 
0.518864159295204 
0.1698315224038974 
-0.480137183169202 
-0.005982797472774933 
0.7904516108265704 
-0.2595202752711986 
-0.005982797472774933 
-0.9355288675236415 
-0.1246916605033454 
-0.6142401170119346 
-0.04052361353418166 
-0.00143985365460723 
-0.2767871333392283 
0.06522443686400083 
-0.4219664271032921 
0.2462454242400183 
-0.1197974025671492 
1.754891592102642 
-0.0004457597419953397 
-0.9876803012387274 
-0.010984611793474 
-0.5437922581740894 
-0.193285827121604 
-0.06564220090599329 
0.04557480611421019 
-0.01602207514910172 
-0.2045952213860415 
-0.02597358389692746 
-0.08510307840330128 
0.009913978141253138 
-0.03397720990083999 
-0.2639808015030554 
-0.6647269384804824 
-0.6117203227180812 
-0.7559505366671969 
0.2468655491047666 
0.2777361701641225 
-0.04758036064921554 
0.1732693308337021 
-0.04492694946149656 
-0.1003595398537443 
-0.2043853681016033 
-0.0565867145173856 
-0.1716511616997934 
-0.2327759086859723 
-0.6649068031322787 
-2.774248742017205 
-0.1425840848147064 
-0.09817064305424292 
-0.01648263625341513 
0.008194885880563042 
-0.1333054746684824 
-0.08110650600866165 
-0.08110650600866165 
-0.08110650600866165 
0.6449067328593303 
-0.2086652873238375 
-0.003852849906917145 
-0.02153901367786656 
0.3404326699935079 
-0.02153901367786656 
-0.03961344000980917 
-0.492823102885596 
-0.01484620948407376 
-0.06305360925583466 
-0.001902393716130258 
-0.0328421307358774 
0.07331206591923987 
-0.06465197087337501 
0.0120715517095692 
-0.5028213943988192 
0.3829288254699172 
-0.6012245498330338 
0.01524705506245819 
-0.04585954111627383 
0.1510469359458263 
-1.10977667571934 
-0.01122899700589871 
-0.01076950683893328 
-0.05986730029128529 
-0.8037610581389084 
-0.02377982235839913 
-0.09755489809223983 
0.7331060092913844 
0.1998833854719018 
-0.02382988172589008 
0.07823790222083925 
0.02626638946775778 
0.1293465051718284 
-0.008116814365714769 
-1.501715011117354 
-0.03566803090124924 
-0.007705699813834291 
-0.06661725921210659 
-0.02896901968773653 
-1.746205186495728 
-0.4179563352314202 
-0.1695206230599646 
-0.01179507878510627 
-0.1282749590110834 
-0.1282749590110834 
-0.446653682006545 
-0.3011827398400982 
-0.008948094973172789 
-0.01336509536572603 
-0.1268525066465282 
-0.2324496554277135 
0.1504861562234383 
0.1348335407933426 
-0.01123239011686146 
0.3897653255812401 
-0.07891616547255961 
-0.1191576220843125 
-0.2806563315770397 
-0.03545783836527765 
0.1700542439375459 
-1.479512103031225 
-0.0511422784336896 
0.005576242223353042 
-0.05388498573972237 
-1.962347448150182 
-0.01268042417666999 
-0.2867948488894307 
-0.03136888013682391 
-0.03415864789467667 
0.2076317963561345 
-0.09193384037209301 
-0.2695154337174345 
-0.2035417973373265 
-0.001974231144881159 
-0.02117447898145476 
-0.009370495190210644 
-0.03261201773524921 
-0.0518168813129178 
-0.07719665171714205 
-0.383154280353712 
1.695992907811477 
0.1717892327004086 
-0.01281356181754686 
-0.3250927565726634 
-0.1702847106992744 
0.2442034139087227 
-0.04709528551368062 
-0.361331169992192 
-0.006107388212067931 
-0.02873886037848265 
0.402016285246713 
-0.01393569160313052 
1.803695346322445 
-0.08480181012628121 
-0.07712385015375552 
-0.1810473475828261 
-0.006602626318072863 
-0.08685941025445745 
-0.133206128475336 
-0.1799729708770348 
-0.2420880884849675 
-0.1442728549296931 
-1.009966975303656 
-0.2636980713084831 
-0.3122962535778666 
0.0123540025384048 
-0.1175494669348738 
-0.03819270631756293 
0.3698363804711322 
-0.06676276656298197 
0.1243552688166765 
0.0184030538026178 
-0.280968743536726 
-0.02421013625703104 
-0.02236760502506021 
1.440635426571093 
0.8509505710295515 
0.06602360290118807 
-0.06450710440686257 
-0.07939173950299085 
-0.9753519288901402 
-0.2013230287254116 
0.1789264753023337 
-0.02163080463214082 
0.2043237433986432 
-0.02310815443567819 
-0.004649352757222155 
-0.0572584343931255 
-0.02932169209148699 
0.02527813479360518 
0.3892946161244009 
-1.225245506059543 
-0.03505874471660798 
-0.2203214459239472 
-0.03331897057280322 
-0.1545467278893683 
-0.5406608645838571 
0.1767035743359532 
0.1982810866750951 
-0.109602838486433 
-0.3045364151259727 
-0.3801553896780744 
-0.4291435048526603 
-0.1054099015446256 
-0.07307156856863757 
-0.08781589410399489 
-0.03596210506635607 
-0.0171735896268612 
-0.003416387711033995 
-0.3827613205489754 
-0.05410610219389479 
0.3763252651058998 
-0.7227906732338881 
0.001601548839446942 
0.06828177971407151 
-0.9781600697354689 
-0.03506204398705563 
-0.8129574091101412 
-0.07340074415966695 
-0.0939439507133509 
-0.0173338530587724 
-0.2429373955196267 
-0.06829603057432451 
-0.038120512785692 
-0.1652525109531758 
-0.08350530391067298 
0.7843910658971274 
-0.7017167862364253 
-1.067782678618783 
-0.3782646617432906 
-0.06550799483894673 
-0.2512032814547135 
-0.4356868948244532 
0.1470935921356954 
0.1631155959749585 
-0.02349641884995178 
0 
0 
-0.03298943300195573 
-0.07845772468026495 
0.1911612679076181 
-0.0786604267500305 
0.01156577618834528 
-0.02903006857391616 
-0.7423341565242586 
-0.24149349369818 
0 
0.04471522307558238 
-0.1687393649993001 
-0.01671712136188188 
-0.2017191023168419 
-0.01703949882835384 
-0.008533677257740862 
0.8844518363021422 
-4.343527393450118 
0 
-0.06649078327223673 
0.5269219502664715 
0.07211137535741122 
-0.01091776492821721 
-0.08000492661683223 
0.2797876260274768 
0.2725606368366617 
0.1725118319769812 
-0.007851690766295077 
-0.2197386007071885 
0.01758978713252302 
0.3429282939549784 
-0.04410413273236932 
-0.06759679373036649 
-0.01301591855657723 
-0.1982185897313765 
-0.1055727002510465 
-0.4881595925734296 
0 
-4.108102976491339 
-0.3904239933289014 
0.2610174454312545 
-0.08936718168763536 
-0.9134834137298856 
-0.5916598984270703 
-0.06862400427091137 
-0.898372100342133 
-0.0908963093966941 
-0.01739194077102425 
-0.05922067682862151 
0.09821329787518962 
-0.004857530255954884 
-0.008738278646486384 
-1.402083013993074 
0.2674064801393781 
-0.5706135088114928 
-0.1089779524751141 
-1.043636414621535 
-0.02065424717734616 
-0.3507783607505911 
-0.6802710103395289 
-0.004390293453730319 
0.07604201692186673 
-0.005437036407234906 
-0.01992249615770596 
-0.1202769909894616 
-0.481616621356234 
-0.02847461739915122 
-0.05318076313811254 
-0.5515361312022581 
-0.01234687605147721 
-0.02735744128089032 
-0.7032515310385573 
-0.1792202345999624 
-0.1613405744172954 
-0.006169590371244743 
-0.1257357747775029 
-0.0007138733639358959 
-0.116202219657601 
-0.242702018350533 
-0.3997029416777279 
-0.4991102124436316 
-0.007447667797642281 
-0.5339332866375168 
-0.01327650727955483 
-0.1110694055726563 
0.1846932332020921 
-0.3853636912067704 
-0.01308411979056272 
-0.03296274540671272 
-0.3733231859989452 
0.02793157168326291 
-0.2038739483948873 
0.4254939899914002 
0.01724311855588618 
-0.2398251682083682 
-0.3994662940052714 
0.08785767726324302 
0.2814791494350055 
-0.6210580719906563 
-0.2012773917259945 
-0.001181713336458268 
-0.07088735789657594 
0.2672288937539322 
-0.5766856360837642 
-0.004705568865476053 
-0.004705568865476053 
-0.004705568865476053 
-0.008012073553398849 
-0.004705568865476053 
-0.004705568865476053 
-1.01919839138038 
-0.06465467608057157 
-0.05579376046942756 
0.2958351138593309 
-0.1500149851855225 
-0.07165134809143306 
-0.0103353952548446 
0.3345402018653666 
-0.2310204416507754 
0.004104047781130963 
-1.016821207674408 
-0.2506801970856798 
-0.1031262328455042 
0.219736726832615 
-0.4432641227234184 
-1.256909683896756 
-1.033327624137147 
-1.400913294146118 
0.09046388020524365 
-0.08665943886736331 
-0.9032883833954135 
0.1026741849123159 
-0.2899968228797035 
-0.01196173470557348 
-0.02205875100643561 
-0.03679863133344981 
-0.2553413477814794 
-0.09510763195410581 
-0.8156153326237932 
-0.1035287763315358 
-0.1856109149140716 
-0.05368947003610956 
0.3649104135439818 
-0.04289305851003306 
0.1255792871113816 
-0.3116694479699776 
-0.04272548258537336 
-0.1085859708857132 
-0.01890116387196072 
0.01991353001099418 
-0.02966338015091578 
-0.07254396960674629 
-0.4759855858279307 
-0.02718704388104071 
-0.1902788814541793 
-0.05879348493445352 
-0.2911308662005704 
0.06451563109477307 
0.02185916368114331 
0.1029125555565452 
-0.04332691273007085 
-0.02949983805419135 
-0.3877293075755181 
-0.06888455411283 
-0.2034699322025694 
-0.1291804069679304 
0.1507174017743805 
-0.1667152034129607 
-0.05474626915529864 
-0.1136730765225205 
-0.04238757228913 
-0.2429791310756953 
-0.691864879991405 
-0.1504691505266669 
-0.3500648719121758 
-0.3897378763846602 
-0.02848278485681207 
-0.3375322116683862 
-0.1472983014761375 
-0.6983846732370897 
0.1332687625181751 
-0.7895818293871356 
-0.3319334907049133 
-0.3987365781641816 
-0.009098520460835698 
-0.04056438479416894 
-0.03488124819147067 
-0.001131780170065826 
-0.3007610475809296 
-0.0328851056523248 
-0.342605860559398 
-0.2137867979997205 
-1.599690696338738 
-0.09607401014198415 
-0.1573349967648297 
0.4729979889020487 
-0.5348972928289512 
0.6412045442412767 
-0.120700062202814 
-0.3114795514069006 
1.635183065670284 
-0.1208026985229569 
0.07921805089288654 
0.2057651561096134 
-0.3123517129173495 
-0.3588962042305652 
0.3331426062571326 
-0.2214505127754299 
-0.3231720809636217 
-0.2297110813624209 
-0.2052054042266642 
-0.003872159181211504 
-0.1396622564369757 
-0.8699959485023957 
-0.4985437983130019 
-0.3029342370792023 
-0.3714806751430423 
0.2902011943355302 
-1.245351335194042 
-0.07098016281421306 
-0.7445257416211952 
-0.08707059679404214 
0.03232060175623309 
-0.1405340655081372 
0.6322742598393023 
-0.0110586681159101 
-0.1955621030919745 
-0.8803412235064266 
-0.1922231237574256 
-0.08028726551437344 
0.8122403158990205 
0.0007757618306450287 
-0.3634206425451383 
-0.002489916374144817 
-0.2344090522206689 
0.100891395090693 
-0.3460045372552205 
-0.07948845475430821 
0.5117175023677715 
0.03970944661691095 
-0.2474114021817752 
-0.2057634702377199 
-0.05257879587696249 
-0.2972686231631481 
-1.398376751755716 
-0.03031337029080362 
-0.05161049129363427 
-0.02838089539260911 
-0.0002263560340131651 
-0.01213647503535319 
0.8110147054577586 
0.9147101625013114 
-1.310717951571953 
-0.6305858205767452 
-0.5142874946375962 
-0.1002919087594628 
-0.3245531422091872 
-0.09770799777241096 
-1.092150636532042 
-0.04425896053278956 
0.9412634548161127 
-0.1952959116286134 
-0.4628014320444729 
-0.07847319170022589 
0.4521099060403299 
0.1879948973623209 
-0.253462544797057 
-0.07660880159620154 
0.04800237435374603 
-0.03687181940320584 
-0.5661058733550435 
-0.4018782234634266 
-0.006805045986200272 
0.02724530663090238 
0.4902745311853081 
0.7754265960677812 
-0.4663477799898273 
-0.2870226003372578 
-0.005656841526880529 
-0.02737583254139877 
0.9366403189387871 
-0.2276491694897047 
-0.09022394816565282 
-0.1621206742428742 
0.08765445656159246 
0.6325446036110614 
-0.07948601461997198 
-0.655285142225977 
0.04616813497119809 
-0.006301900464601424 
-0.796258207243481 
-2.080261486854529 
-0.1957786352569685 
-0.857524594585081 
-0.05737385977267599 
-0.7290516387672529 
-0.006718853539418616 
-0.7402652436588711 
-0.08400690523523588 
-0.1569221422440183 
-0.3915474452950966 
-0.006976788377292343 
-0.06167011184114749 
-0.002618490953765285 
-0.3884691212203377 
-0.7652219626584107 
-0.03621640698658249 
-0.003222724627678741 
-0.06621276117482253 
-0.05411868855192725 
-0.1277181437601708 
-0.193609629425857 
-0.04514370193636598 
-0.3463752380635903 
0.00597627515850991 
-0.01130919977239878 
0.01730535734987642 
-0.3610824685238158 
-0.0007057269371956022 
0.00790137637327515 
-0.5876435021473012 
-0.08211257426306347 
0.04212401068426248 
-0.1606965253518455 
-0.207577745111001 
1.215489238212234 
-0.3487752935605318 
-0.358186521072709 
-0.8805625130722933 
-0.1152515323668449 
0.9439761921199581 
0.411285994754381 
0.5509626765071837 
-0.2386204686780277 
-1.006335219046899 
-0.04716611297000599 
-0.3619260056325014 
-1.72933001188051 
-0.2403847741930382 
-0.07372446623808844 
-0.2397423051142299 
-0.4011594822935276 
-0.6584567883662115 
-0.04454707461803049 
0.002986713713974203 
-0.03169116425646305 
-1.306506164347342 
-0.384891833214442 
-1.133111478056106 
-0.2652635695786461 
-0.02181457064683871 
-0.308153076054715 
-0.3761691043389123 
0.1994132815899829 
-0.2397776999913071 
-0.5868307643088215 
-0.2982293355525018 
-0.01276580123624939 
-0.2094546742433325 
-0.4145147558325802 
-0.08938147860834716 
-2.091997786081465 
-0.2969378555567779 
0.06460413581244298 
-0.2714196247460817 
-0.06524578336452276 
-1.874381569928437 
0.1045884832685368 
-0.0001965368036648706 
-0.000637759741143949 
-0.135652069035525 
-0.02805279417850998 
-0.004179280340470471 
-0.01253784102141141 
0 
0.04495284180334038 
-0.001675093709387746 
-0.04445109365016598 
0.007044240384222216 
-0.08065006709825118 
0.05429899601200971 
-0.178101281618385 
-0.8671946434746644 
-0.03614572866490261 
-0.001579328840338784 
0.069371992252253 
0.3290466380354704 
0.4148212286531762 
-0.01934614770122723 
-0.106885416859823 
-0.006060806565978835 
-0.5401756150340954 
0.002361055709080962 
0.1455701281476203 
-0.3160760977724243 
0.1051513127626541 
-0.291573785107993 
0.002040973383612137 
6.194683591339849 
-0.3406957171471817 
-0.2322968136262561 
-0.005368065138553802 
-0.7361403399298679 
4.67966389321957 
-0.02299088946042776 
0.5377093192106989 
-0.08070366504388383 
0.04250452542492038 
0.01164314640488221 
0.3646648761037006 
0.3720631010516335 
-0.04312784755304386 
0.01164314640488221 
0 
-0.5205149951932168 
-1.655250422949149 
0.0235105766247933 
-0.4512378007745069 
-1.095294245531229 
-0.3152880956481777 
-0.4207074216648881 
-0.003182369835484723 
0.515110890043059 
-0.4591880565084862 
-0.2497516532481309 
0.1945011919213583 
0 
0.1150052239841468 
0.3823660383401745 
0.1164804271599387 
-0.1909913054333797 
-0.05435843816292035 
-0.01173302239377497 
-1.144454105870907 
0.3151068444839686 
-0.9385940446341724 
-0.823543469012039 
0.111312772057574 
-0.06530705250538887 
-0.001618570141650936 
0.02621246447047886 
-0.9441765974677371 
-0.1070873607679909 
-0.6025816862295849 
0.0001168603436015684 
-0.140840527837864 
0.06520690916210774 
0.3112708294413729 
-0.1150274107237402 
-0.05751370536187011 
-0.277657001895621 
0.3517666549950851 
-0.1627435763148097 
-0.7542558110622909 
-0.03354518009506795 
-0.03354518009506795 
-0.02396852526680214 
-0.04254294504805591 
-0.3722071592142914 
0.0003824506730364821 
-0.09378612461010151 
-0.3562686273397113 
-0.1014193892206667 
0.3278452125711219 
-0.03213065127290373 
0.05426428270874723 
0.2194543832401343 
-0.1511175531094037 
0.09558074605449343 
-0.4984185114486469 
-0.01828132508782171 
-0.5759424462196466 
1.052120895739547 
-0.00924770041362161 
-0.1150949728675516 
-0.1563077753951714 
-0.008383236453169417 
-0.3674725160767344 
-0.0616386285504758 
-0.02720503021682349 
-0.01023844273829529 
0.08651532755749496 
-0.02047688547659058 
-0.01502940781398684 
-0.0004579818644971737 
-0.0003018529364700813 
0 
0.02447851418790861 
-0.01333049672412719 
-0.05011210102822861 
-0.02666099344825439 
-0.117237557769585 
-0.01333049672412719 
-0.01333049672412719 
-0.05097968168259039 
-0.01893931862218163 
-0.1273346688753633 
-0.2078757278429426 
-0.02199810863341343 
-0.00759285634248953 
-0.000574594005556374 
0.2428679749410816 
0.2972728058832902 
-0.1532384753006815 
-0.1578094005899071 
-0.002582121577186111 
-0.05086537106477729 
0.1024078004934638 
-0.1667599333750155 
-0.0457809044023779 
-0.01476991979179603 
-0.2358793519550634 
-0.09166060559552547 
0 
-0.1588914170222918 
-0.00618770357459838 
0.8304607429769709 
-0.03000860013347583 
-0.08354796177204607 
-0.001847291067652491 
-0.05664902360018823 
-0.01676352842584296 
-0.0785742709746453 
-0.1006350583134939 
-0.1512452483081964 
-0.07553009308119361 
-0.002542565414362104 
-0.1364686613448152 
0.08559590114393036 
-0.05734963815849016 
-0.1422762215645762 
0.3578753438227389 
-0.1354628405396938 
-0.006041916538384951 
-0.04346580512593894 
0.01050391711079967 
-0.6081804375790871 
-0.04869581953260051 
-0.139127734931892 
-0.2807809197681426 
-0.2438191958750789 
0.07599149076150906 
-0.0407138028916114 
0.07762598986099643 
-0.05566864057871512 
-0.3365875438293376 
-0.0324393190565648 
-2.276838935544915 
-0.09290155960891913 
-0.4290651956145397 
-0.253877971086932 
-0.2385985081309837 
-0.0611705035986302 
-0.1690303527889538 
-0.3353492900423289 
1.347187334278216 
-0.02125585858924376 
-0.3609637229441415 
-0.03994777043508981 
-0.02301612277508164 
0.4949791670641518 
-0.06981360923735987 
-0.1412078698777327 
0.06627169682766948 
-0.2019758509501297 
-0.8062104668190772 
-0.09823216934505338 
-0.0007775728054299542 
-0.08179483611612771 
-0.03492295413386659 
-0.000637759741143949 
0.1053967441803479 
-0.01483574351260145 
-0.197611583371861 
0.2892000167759358 
-0.05438422666261323 
-0.03840080146514015 
-0.1062875067691405 
0.03327782638488626 
-0.7020589240209966 
-0.04343787606374176 
-0.01226889579057492 
-0.1937536156315911 
-0.001300351646332623 
1.054105091525116 
-0.1165307683481378 
-0.1076756511417524 
-0.0703073184483792 
-0.03208960763081466 
-0.1584844708146809 
-0.01970401525941559 
-0.002229475494175955 
-0.03861652901468867 
-0.03378898325544342 
-0.5617050078105238 
-0.01887818140449075 
-0.3562594301793418 
-0.1103875713870651 
-0.01836931337478871 
-0.373152819187877 
-0.03493326695334946 
-0.4730851313686608 
-0.009436586191191003 
-0.1084443427651571 
-0.05105355062025296 
0.3481693665054265 
-0.0383407249048042 
-0.003147215207325895 
-0.005926275647082726 
0.209159521017403 
-0.08436003337524045 
0.3816163879795529 
0.0449791622246962 
-0.2623545010806476 
-0.01470557605920141 
-0.004374974326171907 
-0.02653481135842308 
-0.05709573586793746 
-0.03131222724676028 
-0.03854144719473706 
-0.1572445664156521 
-0.4315774709997806 
-0.2687365302761059 
-0.002429466570852841 
-0.02054215779247577 
-0.0182483167409405 
-0.01824806152034603 
-0.01894685155146905 
-0.0009674013207823088 
-0.0005476449748769688 
-0.06042594555044896 
-0.1659722117494743 
-0.04432452432724331 
1.506923025810669 
0.07950855533284837 
-0.01286458095979786 
-0.05547268361558533 
-0.02886702887055013 
-0.05133260382896188 
0.3144008472053897 
-0.1022199811386347 
-0.02483484831254572 
-0.02824700814010028 
-0.05658439116034975 
0.3690935459921776 
-0.1901466553420736 
-0.4754433560533436 
-0.1677992017403205 
-0.0605167416333435 
-0.05454241558299468 
0.00215087026802865 
0 
-0.1491544801269688 
0.008851552570026263 
-0.1533401130671575 
-0.0327623122441637 
0.7236520703345506 
-0.2812239860723978 
-0.4799925638383263 
-0.2867459043061276 
-0.01906692512311576 
-0.06500922893760781 
-0.1506664094360803 
-0.007772524491464946 
-0.08327616037074699 
-0.0407373742527713 
-0.05635204818408978 
-0.06360510608110642 
-7.119350006977245e-05 
-0.02045744100662136 
-0.1953654457267382 
-0.1031466762475885 
-0.002580675565542158 
-0.027437999787997 
0.008973527460145778 
0.06580157114523813 
-0.05460199145342846 
-0.5271958381725567 
0.3867720556528192 
-0.05798200377221369 
-0.03673015874907855 
-0.007160295010538686 
-0.01139442696823446 
-0.07711353654847171 
-0.3625691988973189 
-0.0008177517478260116 
-0.8617794317681964 
0.3997571401856708 
0.006730273614594212 
-0.02412101657475856 
-0.1496618264380037 
0.05350451738272811 
0.09155188206420882 
-0.02621821298520283 
-0.02459622934020494 
0.01998375161313512 
-0.0006377993588031556 
-0.05088505540500948 
0 
-1.194778497116508 
-0.2673190436480511 
-0.0249788785868655 
-0.09454330385230342 
-0.01877566010913573 
-0.001247756621914203 
-0.01012665746665338 
-0.04997575540891199 
0.0148137059716939 
-0.03157378145002605 
-0.1121359023947964 
-0.02738581913908179 
-0.1555541664819389 
-0.1140503913121473 
0.08030975789759369 
-0.01472397565402872 
0.2553828501181094 
-0.191999089652851 
-0.0150430125016676 
-0.02266128427087911 
-0.3746012821054577 
0.04247875206631703 
-0.006692488262185144 
-0.05497534389255866 
-0.03298582898762951 
0.05032690933860307 
-0.007884390455372335 
-0.07297120624796677 
0.04556887334942879 
-0.03374074391161377 
-0.2953523318657763 
-0.0001675759246596999 
0.1121167617381673 
-0.03594614816178728 
-0.01018717169301033 
-0.03108819375119009 
-0.008285254628823062 
-0.05384400725144148 
-0.1846315962586217 
-0.07288021275402638 
-0.1168390219381926 
0.05235746376142957 
-0.02995389029516732 
0.005185278438334043 
-0.003537308269269489 
0.5112550345275644 
-0.0009451487300896542 
-0.1840525313285739 
0.03457864126975602 
0 
-0.06700156788714377 
-0.4137268002053654 
-0.04352898447436471 
-0.352859618839916 
0.04629039338977916 
-0.0008053356658036487 
0.07124465151850903 
-0.2501286399989922 
0.06024547476299723 
-0.2930692102479714 
-0.04496122842134204 
-0.02076769044607233 
0 
-0.01604238097399438 
0.01043012750520067 
-8.445065918207323e-05 
-0.1682609262428608 
0.09507491685884527 
-0.08640976820288129 
-0.000637759741143949 
-0.1539342179735691 
-0.1670786115591499 
0.0008576619024019471 
0.01840718821390245 
-0.06980177703286977 
-0.1056069885537599 
-0.03169651946349876 
-0.004912882946161472 
-0.4619798522845473 
0.4721360070240891 
-0.08497958670069501 
-0.1762535552048266 
-0.1905997921689631 
-0.2620868555327897 
-0.0530257625779263 
0.07981613041963673 
-0.1190033116945341 
-0.0017260800010824 
-0.006129125112882792 
-0.0001367825064164481 
0.09211855879533705 
0.02719397670728658 
-0.03501272277610957 
-0.04331375652794861 
-0.06049951192292578 
-0.525759915727003 
-0.1099611645416398 
-0.08281951840415845 
0.04619773708119815 
-0.02147691077695526 
-0.0004701838164842489 
0.06936286666637367 
-0.1458434672468477 
-0.01209928072311602 
-0.0009897167609943735 
-0.1206129823610793 
-0.2197520751854085 
-0.4277435939132463 
-0.1199243930717077 
-0.02506492772978808 
-0.06366227836181856 
-0.0267354147024788 
-0.002110294922398231 
-0.1583375770777966 
-0.1016609730983119 
-0.0462057309262616 
-0.1136214015639994 
-0.01546065053258365 
-0.09455216640303596 
0.3356726300732256 
-0.04483128617085625 
0 
-0.3854873274260943 
-0.145700188823924 
-0.1655852997402585 
-0.08731122368959651 
-0.04822812520687123 
-0.03087700889596908 
-0.1956839902770928 
-0.09359829579619727 
-0.000637759741143949 
-1.286382969347466 
0.2116300880996518 
-0.03663539864932581 
-0.06393560621362361 
-0.04794473310356508 
0.04151688266612744 
-0.02549006159686487 
-0.03408333846879723 
-0.0004701838164842489 
0.07867526444670352 
0.0467832376662518 
-0.2166945411776013 
-0.02144231255697003 
0.2348340941689137 
-0.06006496428697572 
-0.03008360760858467 
0.003370593374215085 
-0.07005751051974918 
-0.04158760744871167 
-0.0004749978979404809 
-0.1129469055888958 
-0.03247698688968504 
0.007027765868428461 
-0.3178776411420395 
-0.001660267377762241 
-0.09682176132769343 
-0.01802676747198552 
0.06975143521929014 
-0.08277498726858519 
0.0862217686705303 
-0.004583696672769038 
-0.0290509016374129 
-0.0129618167143597 
0.4701460904750872 
0 
-0.01133202833712516 
0.3193119625314614 
-0.07135060965854705 
-0.0008075657610026168 
-0.0589645721315134 
-0.001282563658943098 
-0.0442631197107725 
-0.2753541864209609 
-0.1659533044104276 
-0.1825199335963973 
-0.09000219453534655 
-0.06141974399087789 
-0.0789367748433059 
0.550454247152947 
-0.5041379085083669 
-0.02028619064343636 
-0.473954925575627 
-0.003057119475126592 
0.05544715620462767 
0.036263351027547 
0.09127245217461111 
-0.02648406176215637 
-0.02073415226266755 
0 
-0.01827984674070694 
0.09600864736863871 
0.04350227638003529 
-0.1094975488638248 
-0.01584921704022764 
-0.0006425738226001809 
-0.07211814586094822 
-0.01262270260592835 
0.001149148254680863 
-3.505921419959821e-05 
0 
-0.02252282252996781 
-0.0293202059579987 
0.1874089673659169 
-0.0545347305411953 
-0.2637902941715314 
-0.0152244481848629 
-0.4198760341938272 
-0.0008075657610026168 
-0.07110074406515583 
-0.0168284797156537 
-0.05973522137061456 
-0.09885132176365038 
-0.0001675759246596999 
0 
-0.3482351833537385 
-0.1058669241771722 
0.1669095720109267 
0.02221378799317556 
-0.1524290269750488 
-0.01748729189361743 
-0.2857768306726408 
-0.02437469589321595 
-0.01723568761381698 
-0.0008378796232984997 
-0.0004749978979404809 
-0.07246424131645804 
-0.3546231199695923 
1.259116427958378 
-0.3287637823010717 
-0.0001675759246596999 
0.1924481446973177 
-0.03130605996750797 
0.1923194254502416 
-0.04922832735821796 
-0.02126009997678428 
-0.04386940711598295 
0.007946811590331868 
-0.08677827731004278 
-0.2703654177860394 
-0.0377506747330145 
0.003266187059032004 
-0.2523829492268033 
-0.04060740263038356 
-0.001427748628596266 
-0.06197547503773105 
-0.03523744439900317 
0.3328943567972214 
-0.02923588468493592 
-0.02318351884401747 
-0.0009751416856623169 
-0.04840487981697827 
0.009244155563063169 
-0.04532606854083576 
-0.07762625214339795 
-0.0507288062169526 
-0.3275831958021962 
-0.1130942060202645 
-0.002749697501845811 
-6.065854546388793e-05 
-0.1059017006634232 
-0.2015046296109537 
0.01911648488485901 
-0.6628128862652906 
-0.002411736098521959 
-0.0003351518493193998 
-0.000287297002778187 
-0.01035785632557318 
-0.1080058961133665 
0.003080544901535393 
0 
-0.0007775728054299542 
-0.04998356674225261 
-0.01447296124039435 
0.03036267980443936 
0.03104525588431018 
0.03840916217597227 
8.470329472543003e-22 
-0.333518043585304 
-0.5487607110669847 
-0.0593094686716877 
-0.002161446836095982 
-0.1312529998532236 
-0.009452928538544517 
-0.6755743033409144 
0.03859986491902228 
0.09688171397468541 
-0.0002301367526345021 
0.1019921264099799 
-0.2058413432896481 
0.00719947885025663 
-0.05800600170037122 
-0.008519950038056836 
-0.1136819672440754 
0.315817527269717 
-0.2027070333270847 
0.05758590873448156 
-0.04248383063736618 
0 
-0.05612587050663208 
0.261145127443292 
-0.004734099694997417 
-0.006586650178761043 
-0.02141370917647666 
0.1858546040046613 
-0.2099284149575266 
-0.002715229287275175 
-0.01067970816063564 
-0.0008177517478260116 
-0.06561173896780452 
0.04742558432543452 
0.05458799155801385 
0 
0.1051675361587475 
0.5335243297057212 
-0.0559271989398033 
-0.006881985270993965 
0.216710611731312 
-0.001112757639084429 
0.2164146145846981 
0.05720857336943176 
-0.02681044870865754 
-0.0008075657610026168 
-0.2120906132596222 
-0.04675718655940554 
-0.001757561556883578 
-0.0010991347180609 
-0.06235464760448926 
-0.1822231007933002 
-0.116539172738368 
-0.001849249603486499 
-0.001218676397974 
-0.0009451817144247297 
-0.001109744707025142 
-0.04856689177948517 
-0.375465173955933 
-0.2968040904614435 
-0.03504504638702287 
0.1130870315962005 
-0.02487396274396074 
0.004025999592363608 
-0.4393818160283902 
-0.03582341425026417 
-4.559416880548271e-05 
0.02443939568709207 
-0.0009451817144247297 
-0.03180760058208178 
-0.0001495019033416417 
-0.07144992216500573 
0.5747638544629086 
-0.0008946361023627823 
-0.07268960415905727 
0.02963895779419354 
-0.2933815143808822 
-0.07620033922078705 
0.07318751370012262 
-0.001125173721106792 
-0.02642098887920742 
-0.02826972077372498 
-0.01029886711840179 
-0.1854880966974822 
0.3714201405788513 
-0.0006041678678289476 
-0.000637759741143949 
-0.00456506826718344 
1.263521210685853 
-8.445065918207323e-05 
-0.0009373071681996424 
-0.03201013733692169 
-0.002592656531791995 
-0.008277810137795022 
-0.001112708454070766 
0.5457244843587974 
0.02028651273358445 
-0.2896480736343739 
-9.228055877061997e-05 
-0.03275467936971187 
0.01631077165523082 
-0.6749641315601465 
0.1481893052092461 
-0.05884932634530601 
-0.03982741286479603 
-0.04472403865704539 
0.01283828334032519 
-0.002384185091276176 
-0.008778845797889458 
-0.03621494915156976 
-0.09702312867115509 
-0.0006425738226001809 
0.1634906302508638 
0.371883314427479 
-0.0009149827235831341 
-0.008453297064951883 
-0.02075110055207683 
-0.008341484273132459 
-0.0001898285153523546 
-0.03317394985594893 
-0.0005027277739790998 
-0.002205788743791218 
-0.007998611845952679 
-0.03389402075041421 
-0.0001675759246596999 
-0.04340774188832725 
0.1621145398759217 
-0.02147903609901489 
-0.03388536444141946 
-0.2393440196667845 
-0.1434692201999496 
-0.04047965711779451 
-0.001112757639084429 
-0.03975918317574194 
-0.0007089532412137213 
-0.001275519482287898 
-0.1306363583961714 
0.006123820101367793 
-0.001427748628596266 
-0.1399620657107616 
-0.04724238484849164 
-0.0008177517478260116 
-0.03948232647098333 
-0.03187695584248877 
-0.364599418638091 
0.5401859268855249 
-0.3034437019716946 
-0.09164725026807201 
-0.00240773738004989 
-0.08888182953570302 
-0.01647729692476203 
-0.03561982441498567 
-0.077245239356255 
-0.001775349544273104 
-0.002370142423911096 
-0.0007390983285262731 
-0.03368288405119871 
-0.001142717610322017 
0.005144980126604808 
0.04516876153506486 
-0.2291054345799709 
-0.001125173721106792 
-0.01211481095057291 
-0.03143523040978111 
-0.4075464816862006 
-0.7094749935304103 
0.03587725886647794 
-0.0004749978979404809 
0.03188016662567412 
-0.01709093922408348 
0.02371621461728731 
-0.368237395525133 
-0.2070344620763767 
-0.0004855328525463654 
-0.02200199622164517 
-0.02049235771288794 
0.0056591322149548 
0.1490780863613541 
0.1033979714455491 
-0.0500013185208651 
-0.01689058190791239 
-0.0007775728054299542 
-0.0001675759246596999 
-0.0008075657610026168 
-0.0008177517478260116 
-0.0004222221906795654 
-0.04338448549291699 
-0.00576658286068405 
-0.01193143905350031 
-0.06975647920860691 
-0.0003351518493193998 
0.1563340711845321 
-0.0004701838164842489 
-0.01070940644836177 
0.2215953637509494 
0.1391593789820527 
-0.06666012082530119 
-0.01115908021807286 
-0.01342684169411329 
0.01345014336175048 
-0.02957087055132233 
0.04246346051589475 
-0.0006425738226001809 
-0.04826182603455535 
-0.1947602849027344 
-0.02471935512108051 
-0.005295658604924559 
-0.1628046149630258 
-0.09993934101545482 
-0.1366535012798647 
-0.3816792745364569 
-0.0009662273948357832 
0.1502172949397807 
-0.0001675759246596999 
-0.017628480058293 
0.0889420008820009 
0.7988362909364932 
-0.01325387680454909 
-0.1057281269377354 
-0.01033827157985967 
-0.04130838900654343 
-0.001112757639084429 
-0.0006501758231663116 
-0.0007775728054299542 
-0.001694954368953154 
-0.001252570703370435 
-0.2131183624320692 
-0.0001675759246596999 
-0.004290879327795082 
0.2783298050934422 
0.002751290772637901 
-0.05322756984733079 
-0.0005703984837022412 
-0.03907712885013941 
-0.3455267847108519 
-0.002151968382422686 
-0.0001675759246596999 
-0.1594080219628327 
-0.001125173721106792 
-0.0006377993588031556 
-0.01240575793268471 
-0.05026131728500639 
-0.2380532320619225 
-0.01471009722039212 
0.04529919513631202 
-0.0001675759246596999 
-0.01160513104698454 
-0.04773894508921206 
-0.02430398243802511 
-0.001799554025765632 
-0.0008053356658036487 
-0.06549940567259997 
-0.2662543259590227 
-0.02587985322219097 
-0.1054672914485644 
-0.07983871966479482 
0 
-0.02122300458439644 
-0.08833068660952889 
0 
-0.04310601988054396 
-0.06971022533784711 
-0.00403283784987079 
0.02714236702827734 
0 
-0.05739043342508066 
0.006370120688171859 
-0.02758804383050778 
-0.000637759741143949 
-0.1126961226298596 
-0.06012702657477878 
-0.0008075657610026168 
0 
0.03190111910680814 
-0.0006501758231663116 
-0.01582813491948326 
-0.0003351518493193998 
-0.003236067176845494 
-0.001197227954325291 
0.1626176693931198 
-0.01000562780166706 
-0.00305230539367036 
-0.001197481724070118 
-0.2065992519972278 
-0.549801521735001 
-0.3512767708022447 
-0.04542485810487693 
-0.07306305660622273 
-0.0398958699219466 
-0.1155639042471249 
-0.001120359639650561 
-0.006191875546549036 
-0.01851362440694616 
-0.05427661927436177 
0.09504873514089313 
-0.1160280335348064 
-0.0004749978979404809 
-0.4954330522577172 
0.0357408983917864 
0.1226974899327799 
-0.0009403676329684977 
-0.000637759741143949 
0.2433955468345604 
0 
-0.02515976775661655 
-0.07501096242132033 
-0.2097124346125399 
0.06200387937985757 
-0.01269021705134668 
-0.2446662092910983 
-0.0008075657610026168 
0.8098139425486615 
0 
-0.0816043725463136 
-0.02411034219372309 
-0.0009067427753184209 
0.05107329327896319 
-0.01641594483411516 
-0.001228832818142944 
-0.002582121577186111 
-0.0003351518493193998 
-0.1120005986169823 
-0.08140012901237489 
-0.0004701838164842489 
-0.01288433924682529 
-0.01861724956817487 
-0.0009800268566423659 
0 
0 
-0.002513405117456647 
1.08390361364388 
-0.0793458710862328 
0.01670683095187447 
-0.05270348607963584 
-0.0006425738226001809 
-0.007955618682768945 
-0.02574424520457557 
-0.001328573779055505 
-0.00743969547802513 
-0.0788268239722114 
-0.000637759741143949 
-0.0008101497472598806 
-0.5231951473084132 
-0.006045431606322363 
-0.004685904280985021 
-0.02712173346166418 
0.03156353407363516 
0.1113084368266284 
-0.01924995794266534 
0.5058002290568653 
-0.001627157087638729 
-0.1455085877409508 
-0.0004749978979404809 
-0.0001291699698884667 
-0.04878109030384663 
-0.0006133471150408372 
0.8410912117944713 
-0.01622685464301329 
0.05964011113795912 
-0.0527917799548383 
-0.1767747783776558 
-0.008464133384314773 
-0.1729334882085291 
-0.04002140248964622 
-0.003384788686804304 
0.04065877990433397 
0.002100529206182835 
-0.3610895871045477 
0.06911514515474483 
-0.05986222618218964 
0.1230451206837887 
0.1336651543942033 
-0.07624788854086574 
-0.0001675759246596999 
-0.001130894594256445 
-0.2493881245808467 
-0.009047422251125262 
-0.004803063900283114 
-0.2402655556443307 
-0.0004749978979404809 
-0.01803279425205056 
0.06283213985130426 
-0.0006425738226001809 
-0.09113983754919025 
-0.0001675759246596999 
-0.0006449875728374048 
-0.0007108343686301995 
-0.001013009725132281 
0 
-0.01461555247576256 
1.412181412795689 
-0.007345579916521657 
-0.0001675759246596999 
-0.0004855328525463654 
-0.003072762167355498 
-0.08404810462581901 
0 
0 
-0.028560715982751 
-0.004024068511220951 
0 
-0.03663765911316855 
0 
-0.0001126199119924571 
-0.03513228362500955 
0.6521913733555988 
-0.001847312494182852 
-0.0003351518493193998 
-5.276159528443208e-05 
-0.0006425738226001809 
-0.006940256803993097 
0.4099120183616462 
-0.001755536086082282 
-0.01833853168294383 
-0.001282563658943098 
-0.0156875887464082 
-0.01746281203603233 
-0.007042278057853885 
-0.4938072222452088 
-0.001087193907729065 
-0.0003896621933226736 
-0.0008075657610026168 
-0.0006984182866078369 
0.02057486230171665 
-0.0006425738226001809 
-0.00508592328980498 
-0.0008651898832510743 
-0.5768287020201893 
-0.008103746440240841 
-0.06354684942537675 
0.113486270074838 
-0.004325646779139802 
0.4137131346150393 
-0.0001675759246596999 
-0.0002967458945481664 
-0.005340270294687339 
0.01476093870690891 
-0.01740033324914171 
-0.0001642291840880649 
-0.0009451487300896542 
-7.011842839919642e-05 
0.06238741321126803 
0.04326758050205627 
-0.009979556068484774 
0.05649821645250724 
-0.0002916986131845866 
-0.002721930817165344 
-0.02384888156278454 
-0.000843006063062432 
-0.01648911415245537 
0.004560610183747408 
0.03215152442986072 
-0.0003351518493193998 
-0.0003351518493193998 
-0.007897435706412537 
-0.006196865220903531 
-0.007960062891466507 
-0.0004643218192078664 
-0.001142717610322017 
-0.0001675759246596999 
-0.0005356564434043688 
-0.003232297400352423 
-0.005584536473684955 
-0.01159418972057226 
0 
-0.0008075657610026168 
-0.0009751416856623169 
-0.0009179555777961056 
-0.0001675759246596999 
-0.03052899565838191 
-0.0005572381179823737 
-0.03597254634884244 
-0.01011594413057183 
0 
-0.0006425738226001809 
-0.0001126199119924571 
-0.01327304409830742 
-0.04312918909691428 
0.002549006781307075 
0.07224122272729938 
-0.01141194319757046 
0.06798152838734813 
0 
0.0233943202759874 
-0.002019533398737926 
-0.1945836536141276 
-0.001039838016488985 
-0.0003317439326115778 
-0.0004749978979404809 
-0.0001675759246596999 
-0.0001675759246596999 
-0.0009451487300896542 
-0.001004663681750518 
-0.2208903673228751 
-0.004531104869007712 
-0.0001675759246596999 
-0.001120359639650561 
-0.05549244208252698 
-0.001531399187098125 
-0.8081619722976138 
-0.008594091932652611 
-0.0001675759246596999 
-0.03335518563556336 
-0.004272231991891155 
0.01290368007334254 
0.02872114066801435 
0.003337185287191969 
0.03798725519902647 
-0.06498266328749849 
-0.05389925367659833 
-0.02120479235510863 
-0.02681375619526568 
-0.01382832936320434 
-0.009956427019802089 
-0.0006345597695887764 
-0.04708950941253497 
-0.001891907455599194 
0.01344831397131798 
-0.001871523787679077 
-0.1351338192819414 
-0.01355467733340213 
-0.007473952472876305 
-0.2244487316302137 
0.955213012491636 
-3.160486381765353e-05 
-0.002568913880260778 
0.003779766733453104 
-0.01672495715596724 
0.746415579866534 
-0.01985234024644345 
0.1389996936537203 
0.01136072021364977 
-0.004032261160788909 
-0.01793977245804831 
-0.03778237775926709 
-0.0437560485221281 
0 
-0.02143326321604974 
-0.01081157737503804 
-0.0004701838164842489 
0.0315542391792267 
-0.003111007204438342 
0.02383162767651941 
0.007303603589530242 
-0.04302950963794117 
-0.0014262465222889 
-0.001282563658943098 
-0.6312259511850051 
-0.03987658492074204 
-0.00657018993951909 
-0.004596477727659171 
0.1169369957272569 
0.002456026756011594 
-0.01358564166961536 
-0.7775797786436863 
-0.00282903783190676 
0.06835703020824149 
-0.0006425738226001809 
-0.01572695920680122 
-0.02687669848322142 
-0.005949696143162479 
-0.005598033234524071 
-0.006786349200904657 
-0.03143509229121953 
-0.001117571720540661 
-0.02067644199673756 
-0.001062615707873419 
-0.002222931291911596 
0.009308035721050033 
-0.01630750121711545 
-0.01601220625549907 
-0.1350800240511593 
-0.09044904014384644 
-0.01519109194631312 
-0.001609786737852203 
-0.0009777256719195806 
-0.0006425738226001809 
-0.01881796601030681 
-0.09459635957556324 
-0.001420146628030135 
-0.002655635810439159 
-0.002257705344605415 
-0.01467892721737366 
-0.001752747475427347 
0.06821223588666604 
-0.01318102286507736 
-0.03270462657178272 
-0.001764935578451675 
-0.0004749978979404809 
-0.001125173721106792 
-0.0136203962286372 
-0.02546958440889887 
-0.09354328675119017 
-0.003265253183200207 
-0.001558208083260086 
-0.0009499957958809617 
-0.02593037106349111 
-0.01494949265051939 
-0.0005963149888682567 
-0.0009451817144247297 
-0.03720138634916618 
-0.04699269340066864 
-0.004397087028544554 
-0.001117571720540661 
-0.0007002377219253952 
-0.02752527761770006 
-0.0006425738226001809 
-0.1476205381811266 
-0.002100315406769109 
-0.008761012327352526 
-0.1030148642842942 
-0.0008101497472598806 
-0.001752747475427347 
-0.002070355435531522 
0.0144362996808176 
-0.0008101497472598806 
-0.05662627373347646 
-0.001241967226632103 
-0.003224695399786292 
-0.001450139583602797 
-0.001491373112434983 
0.00960998364645522 
-0.001583020690887091 
-0.0007038832762245679 
-0.001503889167655131 
-0.0006425738226001809 
-0.0008101497472598806 
0.4631689613500293 
-0.001420179612365211 
-0.02424053309814523 
-0.0004749978979404809 
-0.0004749978979404809 
-0.0007823682235651559 
0.515159676735411 
-0.0004749978979404809 
0.1640979870621286 
-0.003527303291610841 
-0.0005876178099329378 
-0.08062727832485315 
-0.005170427686092867 
-0.02760801279595684 
-0.00439242949010048 
-0.00353068305158924 
-0.001885668200370847 
-0.001890330444514384 
-0.01199579942509193 
-0.001117571720540661 
-0.03304798225447679 
0.02493989398141864 
-0.0009777256719195806 
-0.07278252053375388 
-0.0063396018207755 
-0.02216058493508 
-0.0004749978979404809 
-0.07452886417930368 
-0.001074351684313196 
-0.1144256178045464 
-0.0005963149888682567 
-0.08250334971374207 
-0.004275195229669582 
-0.001486586470973015 
-0.0246770362076846 
-0.1934565995114881 
-0.03319427266788159 
-0.003464799257804762 
0.04884849194842843 
-0.0006425738226001809 
-0.0008708082927237686 
-0.008335744359616776 
-0.0004749978979404809 
-0.03112213011633826 
-0.001282563658943098 
-0.001507360928173819 
-0.0950918145941306 
-0.00104058230018649 
-0.0008101497472598806 
0.02022463588030993 
-0.01637009698236284 
-0.1886014774206471 
-0.001308039564647224 
-0.008797584686214572 
0.04377309622321766 
-0.0006950938242504405 
-0.0005894405870825243 
-0.0005672784567111006 
-0.02797544558811082 
-0.05793689612224826 
0.01332758790640001 
-0.004146567588722072 
0.1358093241575135 
0.7406443657283869 
-0.001112757639084429 
-0.08077395944707071 
-0.04920813922637726 
0.3483425015588497 
-0.001450139583602797 
0.03634912919204837 
-0.00111891771699071 
-0.005640242412197166 
-0.0706148701552738 
-0.001117571720540661 
1.355470088818695 
0.05380751154623406 
-0.001117571720540661 
-0.001112797256743636 
-0.0006425738226001809 
-0.1148538741576834 
-0.004987678626848524 
-0.0715295835125923 
-0.183178343495713 
-0.008708839649099633 
-0.0005356564434043688 
-0.0008101497472598806 
-0.002090129419945715 
-0.03612953766701488 
0.04486914902532911 
0.01570487829982957 
-0.0009451817144247297 
-0.5059685472181868 
-0.001420146628030135 
-0.001595357537591041 
0.1261860564183976 
-0.01728801583927191 
-0.0005800379012409998 
0.04524335885577904 
0.06270850592894797 
-0.0008101497472598806 
-0.001450139583602797 
-0.0009499957958809617 
-0.01301662274833746 
-0.04644506528222794 
-0.07007114625937982 
-0.08955964983750682 
-0.001752747475427347 
-0.0008812233639318139 
-0.002060136464373052 
-0.09649843961700674 
-0.0004749978979404809 
-0.004258048666249829 
-0.0005894405870825243 
-0.001148147436281791 
0.04628546054892758 
-0.004993987499504454 
0.03847865144394796 
-0.005574179739152992 
-0.03103949472482184 
-0.0009499957958809617 
0.4617160548891442 
-0.04030336645140749 
0.04511925422730524 
-0.1266982575169094 
-0.01888593488391013 
-0.001757632646407396 
-0.001112757639084429 
-0.0004749978979404809 
-0.001112757639084429 
-0.0008101497472598806 
0.01639405748236152 
2.160498053316192 
-0.001072521487394948 
0.02513139616072304 
0.00761867075451546 
-0.02311561838733493 
0.097773323044459 
-0.1152754762852264 
-0.001112757639084429 
-0.001282563658943098 
-0.04914786531608641 
-0.000510057112140079 
-0.0008128576339178521 
-0.0008101497472598806 
-0.01739124578293532 
-0.05563396215170612 
-0.001452075355808957 
-0.0113898157237425 
-0.001252570703370435 
-0.01902381688978401 
-0.02845352213886585 
-0.02869546094251394 
-0.001125173721106792 
-0.02951912204925605 
-0.0009802409286243279 
-0.3093113703715367 
-0.0009451817144247297 
-0.007252956543381647 
0.001655933524891009 
-0.001757561556883578 
-0.003962816911312853 
-0.01554108764413204 
-0.001200749290461823 
-0.01490134024293344 
-0.0006531087772060654 
-0.0007570165117422242 
-0.3707663476266327 
0.01357782367599088 
-0.002846936443760083 
-0.02084375593733192 
-0.05874014509295718 
-0.01298097359054428 
-0.0004749978979404809 
-0.001587706352011246 
-0.08612257226421531 
-0.008500840718440714 
-0.0004749978979404809 
-0.0004749978979404809 
-0.01060894079852138 
-0.05575947857229024 
-0.002257705344605415 
-0.001125173721106792 
-0.003197672557707942 
-0.004080721481671001 
-0.0006531087772060654 
0.09261136245362765 
-0.0007717437924886475 
-0.0435464297099949 
-0.001282563658943098 
-0.002993690993317458 
-0.01083285422351366 
-0.02226099328270826 
-0.001892103432139208 
-0.00128033356374413 
-0.004906074016820882 
0.08103678565934674 
0.01406782656477397 
-0.01869111084313075 
-0.01654774811273231 
-0.006588894801479703 
-0.07522518471487713 
-0.001112757639084429 
-0.0009418819093957019 
-0.0009451817144247297 
-0.0006425738226001809 
-0.003307893086287255 
-0.0192496890984619 
-0.001751972309889885 
0.084208501173771 
0.07186113114311446 
-0.00133978500351412 
-0.03954347275641785 
-0.0006425738226001809 
-0.0004749978979404809 
-0.0004749978979404809 
-0.0008101497472598806 
-0.004905365397492809 
-0.04583861448869062 
-0.002338832185668663 
0.3051171650115595 
-0.001292749645766492 
-0.001420179612365211 
-0.02647445118165215 
-0.001292749645766492 
0.02375162180651102 
-0.02469455236208333 
-0.04367182699260339 
-0.0006425738226001809 
0.01337978416494399 
-0.04289334383211781 
0.2256393979827088 
-0.0004749978979404809 
0.06350475354320224 
-0.003515472243755632 
-0.007035755680461793 
0.08164774003096503 
0.002206807936020419 
-0.0004749978979404807 
-0.004151659267715318 
-0.0008256183964880338 
-0.1437974955837123 
-0.0006425738226001809 
-0.05444943798589538 
-0.001442399218722789 
0.03215976298994936 
-0.001250017717271281 
-0.01395329328905221 
-0.01585093644092198 
-0.000727024481782254 
-0.0005963149888682567 
0.1444021098265682 
-0.0004749978979404809 
0.01076539459453708 
-0.06240133038231674 
-0.005749912590986672 
-0.001916838557412568 
-0.002379781540117805 
-0.0005963149888682567 
-0.001752747475427347 
-0.001600171619047273 
-0.06571395764568147 
-0.002787467513498846 
-0.1239486740864395 
-0.001450139583602797 
-0.0007032323680640688 
-0.0139354942740924 
-0.001420146628030135 
-0.02003110159875669 
0.01302057249023207 
-0.03842394018335843 
-0.1896920181940722 
-0.005741755663812693 
-0.001112757639084429 
-0.00591599497963819 
-0.1896079610617784 
-0.004785690007966613 
0.1836192224057981 
-0.002062720450630315 
-0.001688789124934431 
-0.001450139583602797 
-0.0006425738226001809 
-0.0006425738226001809 
-0.0005707156576039669 
-0.001375874609866791 
-0.05539051770380247 
0.09921632586216754 
-0.002550167414928235 
-0.07669522600650153 
-0.001292749645766492 
-0.0004749978979404809 
-0.0326858855159473 
-0.0006531087772060654 
-0.01360171494295873 
-0.01900563616877543 
-0.000861882632044501 
-0.008563570190369857 
-0.001415365530908978 
-0.002092215808382325 
1.432092609004884 
-0.008430138532059095 
-0.006063102427870636 
0.006349806736169158 
-0.001032236015922854 
-0.001290868518350014 
-0.0129289259930013 
-0.02118355899612093 
0.06733276448699523 
-0.00102264287281745 
-0.0009557166690306141 
-0.01145574309803548 
-0.02817062398383521 
-0.003823217748697848 
-0.001895177510305691 
-0.001250007319393298 
-0.1802346862052763 
-0.01501831124704641 
-0.001415444766227392 
-0.02533878899314566 
-0.02171445040636094 
-0.001117571720540661 
-0.0203139849112744 
-0.001252570703370435 
-0.00838751076328202 
-0.006670436121209897 
-0.0006425738226001809 
-0.01031099863955219 
-0.1113500801431483 
-0.2263737006538308 
-0.002374989489702405 
0.1694174417464275 
-0.01522550894062034 
-0.0005963149888682567 
-0.07421235755075573 
-0.001727568601310916 
-0.001112757639084429 
0.01471328308022663 
0.1224357505683331 
-0.001292749645766492 
-0.03264946566337816 
-0.004304021596912999 
-0.01909482672346637 
0.1244857490300156 
-0.002540506267680695 
-0.002385729453126098 
0.02263972562030067 
-0.1883503017397598 
0.01337970569392385 
-0.001510798129066685 
-0.05800512890893438 
-0.5067079111300332 
-0.08710906438010592 
-0.0008101497472598806 
0.02684188204202401 
-0.101164395831042 
-0.01124654851517851 
-0.001420219230024417 
-0.001351407180416063 
-0.03558313193065468 
-0.0009557166690306141 
-0.0006648264132928355 
-0.01514910577460231 
0.003337953059954397 
-0.3796043616366211 
-0.001722754519854684 
-0.01536267603838467 
-0.01433182604234077 
-0.0004749978979404809 
-0.0137919502857934 
-0.002090129419945715 
-0.03157948776924881 
0.002407179007355376 
-0.0008288910184029381 
0.07385409223430747 
-0.0006425738226001809 
-0.00796674609696431 
-0.01092088055685524 
-0.002070322451196446 
-0.0009157140673697184 
-0.009965447733690831 
-0.001263105657976319 
-0.001752747475427347 
-0.001292749645766492 
-0.001985871490637045 
-0.002948443721948047 
-0.01443880270370875 
-0.0006425738226001809 
-0.000474997897940481 
-0.0005356564434043688 
-0.01724900938629837 
-0.01058036175595447 
-0.236600932815747 
-0.0005894405870825243 
-0.001722754519854684 
-0.0006068499434741412 
-0.000677633036799779 
-0.0006425738226001809 
-0.004822468199077452 
-0.04156519985335103 
-0.0004749978979404809 
-0.02077321710119604 
0.2336696878905765 
-0.002075196090539426 
-0.003651659180043076 
-0.001445325502146566 
-0.001410551449452746 
-0.003977023757343397 
0.01701310669511045 
-0.0009403676329684977 
-0.001938111387476572 
-0.001247756621914203 
-0.0004701838164842489 
-0.006255592078654236 
-0.003992673026638856 
-0.006253352777883548 
-0.006621338520132043 
-0.0008053356658036487 
-0.004035335186209607 
-0.001195140164567908 
-0.000728523756261182 
-0.1209210604907732 
-0.01928518097818464 
-0.007167064908979919 
-0.1170230179314794 
1.21559962479609 
-0.01297438129539706 
-0.0004907205761272979 
-0.03736588102823552 
-0.0004701838164842489 
-0.003219881318330059 
-0.006571677755403822 
-0.03086557519585413 
-0.0021881242548827 
-0.00138781239106571 
-0.001107943557628197 
-0.001445325502146566 
-0.0145967267440946 
-0.001770535462816872 
-0.001906328526064444 
-0.0008053356658036487 
-0.0004701838164842489 
-0.001406919547375333 
-0.00128793556431026 
0.0250879316940963 
-0.0009403676329684977 
-0.003122423822069557 
-0.001870748168092922 
-0.003702481216836672 
-0.1037351460061694 
-0.003522489210154609 
-0.001717940438398452 
-0.02338664688215502 
-0.004212598386262919 
-0.2712056558355353 
-0.001410551449452746 
0.01315726754179745 
0.2883017017403705 
-0.06056815000833282 
-0.0004701838164842489 
-0.001312808791686464 
-0.004714974897393073 
-0.03125486521979487 
-0.003109526738241381 
-0.04291490119826289 
-0.05815442622284457 
0.02933562956119705 
-0.001107943557628197 
0.09345516040089076 
-0.00734559492220574 
-0.01161275332342352 
-0.005382507257624819 
-0.07006767782685465 
-0.0004701838164842489 
0.1242622032896326 
0.3500103418255502 
-0.01013015104783049 
-0.0004701838164842489 
-0.001275519482287898 
-0.0004701838164842489 
-0.000637759741143949 
-0.128285055420363 
-0.01405703489467465 
-0.001431700593982929 
0.005749146016073887 
-0.1464429469775868 
-0.0009754268471680959 
-0.09464612048752472 
0.08635965146681812 
-0.01698811849415478 
-0.0008053356658036487 
-0.0008053356658036487 
-0.0004701838164842489 
-0.00128793556431026 
-0.1043561075882342 
-0.00726160251224074 
-0.000637759741143949 
-0.000637759741143949 
-0.00521623403477228 
-0.002025329427344157 
-0.001107943557628197 
-0.007737214619889671 
-0.02424765838988823 
-0.001410591067111953 
-0.1836963095731184 
-0.04131179919882601 
-0.009158016333020868 
-0.003219881318330059 
-0.04993240146192275 
-0.2137743341150662 
-0.0009403676329684977 
-0.04634205900746122 
-0.0004701838164842489 
0.3915622722138461 
-0.005878608394366837 
-0.001747933393971115 
-0.6575085917269102 
-0.008818412229582351 
-0.0004701838164842489 
-0.003690065134814309 
-0.0093049931072975 
-0.008699874141754908 
-0.06149372011076114 
-0.01033827609748752 
-0.000637759741143949 
-0.1382830954834246 
-0.1771755637232379 
-0.00217841246146942 
0.02718362351504917 
-0.1098130753194544 
-0.008228767590168936 
-0.04881052799913627 
0.09908248315293126 
-0.001277749577486866 
-0.001609710069742193 
-0.00137160330026542 
-0.001467382977612995 
-0.002658426924344569 
0.003114391322644417 
-0.01447556848130964 
-0.08013803596284338 
-0.001445325502146566 
-0.005079134868218567 
-0.002060388641543755 
-0.001103195461890427 
-0.002581058063116576 
0.03980294225493818 
-0.01599158191924596 
-0.003760718793737803 
-0.002911543998378885 
0.08685045047061719 
-0.1498745650781123 
-0.003200000473744884 
0.02098617872825066 
-0.06494722338073473 
0.3855910352928686 
-0.04344848827111682 
-0.09432496956150413 
-0.09615345591034508 
-0.0004701838164842489 
-0.01627945363567096 
-0.001415332546573903 
-0.0006881088742242788 
-0.00929977993355707 
-0.004331081476664177 
-0.006189713438695944 
0.2558974776178164 
-0.1960563310455224 
-0.007609432821009239 
-0.01590139325031277 
0.08500811084443594 
-0.01398763226782088 
-0.001415332546573903 
-0.01188212701405471 
-0.08845374153024935 
-0.0004701838164842489 
-0.008404318288359722 
0.01147470445719748 
-0.0008514505947461262 
-0.03082482715477894 
-0.0004912537256960178 
-0.03321053101180754 
-0.06261227733917994 
0.0409943388172109 
-0.004852902616518588 
-0.0007089532412137213 
0.008612771402217166 
-0.000637759741143949 
-0.000637759741143949 
-0.001392954787244981 
-0.00647865149293513 
-0.05346301778773652 
-0.000637759741143949 
-0.009053836648137427 
-0.1365557959605848 
-0.2294736568047606 
0.00340160056717255 
-0.09111863791550609 
-0.03110691725986309 
-0.001247756621914203 
-0.003181475363558826 
-0.001410551449452746 
0.01659960940678433 
0.1483543490106477 
-0.05750093102383389 
-0.0174832812114834 
-0.001107983175287404 
-0.002701337076772697 
-0.04450453739981961 
-0.0008987817565660759 
-0.1133140772730709 
-0.1117612011693398 
-0.0008275882564963035 
0.04597359452237616 
-0.001612901426806266 
-0.001415332546573903 
-0.001563856300341975 
-0.002705498206083131 
-0.02450254019433011 
-0.001880854118914616 
-0.0005308423619481368 
-0.0004701838164842489 
0.02816739680896159 
-0.007115976923353456 
0.001516761028317178 
-0.001410551449452746 
0.02094423985596328 
-0.02401577049647385 
-0.00128793556431026 
0.2263947222522902 
-0.0004701838164842489 
-0.01330447831850022 
-0.003620304155272021 
-0.0004701838164842489 
-0.0008053356658036487 
-0.001717940438398452 
-0.01804486820146568 
-0.04960948928185761 
-0.1906585911136616 
-0.0004701838164842489 
-0.0326168285814933 
-0.01226584931403976 
-0.01445551389641265 
-0.163515695797807 
-0.01749727915702633 
-0.0004701838164842489 
-0.000637759741143949 
-0.0151493757336287 
-0.003859871154672977 
-0.0006521594528759128 
-0.001207923239311556 
0.09515278704717799 
-0.001574495472035032 
-0.0005993537863727156 
-0.003354730986217363 
-0.001069577220516171 
-0.1013133586172183 
-0.141984703184535 
-0.03426733774911819 
-0.03957346208550893 
-0.02762761443245705 
-0.0004701838164842489 
-0.0008053356658036487 
0.03421410120691872 
-0.03777660985690539 
-0.003829878199100314 
-0.000537940115661155 
-0.04398619075923847 
-0.002352529518709354 
-0.02188811446481908 
-0.001612901426806266 
-0.02245222110990535 
0.01146873792722741 
0.04220095991196651 
-0.0004701838164842489 
-0.00580776356091786 
-0.1867369184880373 
-0.0004701838164842489 
-0.01120878155866011 
-0.1241673815498183 
-0.003527744016261759 
-0.0004807187710901334 
-0.0008053356658036487 
-0.00789402347147258 
-0.003890707065477132 
-0.0007669297110324155 
-0.001871499488154987 
-0.1916848609179274 
-0.002031164650353551 
-0.0008053356658036487 
-0.001277749577486866 
-0.01629831873596751 
-0.01194463113491807 
-0.1398271124530449 
-0.0004701838164842489 
-0.125696726163754 
-0.03424953734648383 
-0.00293725540807226 
0.4466814802375055 
-0.1587680294585865 
-0.000919778354945692 
-0.006944743617398717 
-0.001386147545478596 
-0.09722531290357378 
-0.0004701838164842489 
-0.000637759741143949 
-0.001181018185114449 
-0.01457985616912992 
0.1126315129880176 
-0.001277749577486866 
-0.007221702172448676 
-0.0004701838164842489 
0.007327922942178217 
-0.007767186598853936 
-0.001590583073794016 
-0.0004701838164842489 
-0.001247756621914203 
-0.001078475910573187 
-0.156442671396898 
-0.1014248838962314 
-0.005123777765724622 
-0.0140032356617308 
-0.001612901426806266 
-0.009585037244176069 
-0.003801573268866963 
-0.0480244196751576 
-0.005756875152957597 
-0.0006949810857149706 
-0.008171283056016195 
-0.006630343258193064 
-0.1286102468533346 
-0.008252079959285554 
-0.0005753614590830434 
0.1083359015217246 
-0.07279453255778835 
-0.01035641140190288 
0.0449733882742907 
-0.0008053356658036487 
-0.0004701838164842489 
-0.000637759741143949 
-0.02742677459870771 
-0.001415332546573903 
-0.0004701838164842489 
-0.003930787634404959 
-0.01860907274164083 
-0.01769268962337117 
-0.005866469410340618 
0.01732757765709222 
-0.1224695318237871 
-0.01503013541072673 
-0.0004701838164842489 
-0.003726243580173684 
-0.6507175217859379 
0.2595919981648558 
-0.001120359639650561 
-0.000637759741143949 
-0.001044777822040623 
0.005521293205413618 
0.02596944909470537 
-0.001445325502146566 
-0.03021757253581566 
-0.000890834237278469 
0.005495128255384498 
0.01473612824587362 
-0.02082363434373578 
-0.006645982362389169 
-0.00784399401490544 
-0.0009222445290174961 
-0.0006482946957498334 
-0.009093268916831493 
-0.1068789590777925 
-0.06219700624991262 
-0.03973193756439543 
-0.001984432075422192 
-0.08217077971356915 
-0.05503420242655897 
-0.0008053356658036487 
-0.003219881318330059 
0.09337734037664708 
0.1962970245171816 
-0.06246011424756281 
-0.002192905352003857 
-0.004150378414570828 
-0.001927925400653178 
-0.0009800860477316557 
-0.00458161315891435 
-0.00305230539367036 
-0.07104725673419866 
-0.210749885428488 
-0.001970276918811768 
-0.01260088958168334 
-0.0233390458551193 
-0.006992894908042803 
-0.002055322382916819 
-0.001107943557628197 
-0.00318097633533317 
0.2935771841020776 
-0.001247756621914203 
-0.0433987291195836 
-0.008376653261475827 
-0.006408609049987842 
-0.001417105534198727 
-0.01392291608981002 
-0.002042368089795221 
-0.0004701838164842489 
-0.001107983175287404 
-0.001415332546573903 
-0.000637759741143949 
-0.0004701838164842489 
-0.03065167705941482 
0.04591971293333972 
-0.1234212776036795 
-0.0005624643752548687 
-0.03716829983867729 
0.06536968191299737 
-0.003475833303711229 
-0.02525676615301596 
-0.01373458938433164 
-0.00965119884428978 
-0.1125773669913985 
-0.001415332546573903 
-0.002811931038306781 
0.4224205537250416 
-0.05964267279808513 
-0.001927925400653178 
-0.004765211476392867 
-0.06017815591642516 
0.05565949266569858 
-0.0009403676329684977 
0.0006809469940715615 
-0.003219881318330059 
0.05795311834519489 
0.03005453425968689 
-0.009057571569361961 
-0.01647121338892367 
-0.0005846265056262923 
-0.02282912081274159 
-0.000637759741143949 
-0.04621569205585565 
0.07125745386783498 
-0.0008053356658036487 
-0.002015935535733525 
-0.001277749577486866 
-0.000637759741143949 
-0.001465329564782349 
0.01691334894055522 
-0.02192258009231763 
-0.004027447079332677 
-0.01708053791736464 
-0.06143518799346227 
-0.01239507402099824 
-0.001247756621914203 
-0.00141063068477116 
0.8526859780044845 
0.1975087964128635 
-0.02132844780164534 
-0.01435248291813094 
-0.02511190359266347 
-0.03273862707149738 
-0.2439325713367926 
-0.03088848851277177 
-0.02555637507776538 
0.1033321515766088 
-0.02216061958417425 
0.4122072381455513 
0.3273735525988201 
-0.008592143826451588 
1.79862226081292 
0.4631620001717578 
-0.5376173928436081 
-0.1033291211645339 
-0.3165365087010096 
-0.1775378416702502 
-0.1318446582668673 
-0.2009210374491092 
-0.728057718572487 
-0.5318213287318231 
0.04067379054572431 
0.3521571308703254 
0.01057870716342806 
-0.1489030798064435 
-0.01075942067453254 
-0.1279442405432367 
-0.1602622568918531 
-0.02785035989861602 
0.2497849149952025 
0.5144146431410057 
0.01943051543480077 
-0.067254728577858 
0.07630064845515563 
-0.08245275044601107 
-0.0119258514909538 
0.1196720909289588 
0.1312593491483628 
-0.06049920010592096 
0.1836424925397728 
0.4639798509638971 
-1.222262996926263 
-0.1858625776544743 
0.02185481744452997 
-0.8769954634136173 
-0.03419771123806796 
-0.6195180933681768 
-0.5558091867717074 
-0.04774399842565673 
0.1183513146927192 
0.2927907006374796 
-0.09819897869306786 
-0.007517693768774353 
-0.003904259511358423 
-0.0008370328086907715 
-0.3280094628277552 
-0.2220256783795041 
-0.1497817090050339 
-0.2746453287343557 
-2.134949793363916 
-0.04431981597429047 
-0.02787386363871538 
-0.02388462816619488 
-0.5237124459294127 
-0.185837140360354 
-0.02030387480410093 
-0.3920857690232363 
-0.7314490704656066 
0.4708792990188725 
-0.2304574308457785 
-0.3321172252852319 
-1.132038588784671 
-0.3661328716069743 
-0.04924317625969818 
-0.09638041452346366 
-0.6446755991286591 
-0.138125842936501 
-0.4784648816075068 
1.176883809161655 
-0.01529173853543821 
-0.01558159908948777 
-0.08595332957513696 
0.04887215900042131 
-0.4983482677191141 
0.2937773282969532 
0.3214331455191902 
-9.282756669934577e-05 
0.0158934466445159 
-0.006719633566430858 
-0.005369106971650431 
-0.08829613146063672 
0.5232788911736466 
-0.005369106971650431 
1.369033052812809 
-0.006387304273267745 
-0.03230642346019876 
-0.005369106971650431 
-0.3934564825606376 
-0.005369106971650431 
0.05096186896113142 
-1.013879657540891 
-0.03326243850061697 
0.07310812321165547 
-0.01538393672246546 
-0.03558080821939451 
-0.5045331222285134 
0.5232026493019324 
0.05914149564197647 
0.1228393616254703 
-0.08102181227042679 
0.001377514466879506 
-0.05286515152846968 
0.2122964246878353 
-0.02469237085566161 
-0.284214894737806 
-0.02091366089997921 
-0.03544312698920572 
-0.2263054960255611 
-0.2870901228106808 
-0.1797810454275503 
-0.01342343544892089 
-0.05357342237798812 
-0.001828564859430359 
-0.0003787154465483384 
-0.1496623786108537 
-0.02963786206646771 
-0.4465022590830382 
-0.04930317301073186 
-0.06823430817833528 
0.2809010274045822 
0.6692107541844666 
-0.07644275647104584 
-0.07587659460446544 
-0.3984799024045468 
-0.3043433768374373 
1.136847499445687 
-0.06110250762540632 
-0.156134776391823 
-0.03176394950586859 
-0.06312462208425157 
-0.03896900586688316 
-0.0005833972263691732 
-1.232723840091033 
0.03339465250549824 
-0.06518242800131997 
-0.1344382253681929 
-0.1011963222492245 
-0.6842501759776488 
-0.1275933434669943 
0.1751456815074877 
0.2314960614714662 
0.6187452488535544 
1.602420994983329 
0.2890561389289042 
-0.02474950515951626 
-0.2817111145927968 
0.005064453584350699 
-0.1064585167394842 
-0.03809384029024857 
-0.2160915060891614 
-0.05721171708280884 
-0.017858690952698 
-0.1835756751280549 
-0.008579222928476845 
0.7092782141559122 
-0.09510029147650752 
-0.5497397064094717 
-0.2689887774291538 
-0.0153163758420927 
-0.6199763794373994 
0.03318605718092037 
-0.01735777148110442 
0.07519310997566021 
-0.09997151464898218 
-0.08001113438154481 
-0.01818776907413055 
0.1998303104107954 
0.1703938981930909 
-0.1141522047703761 
-0.1794821799379441 
0.007005728472697065 
0.0716146672576079 
-0.0109611395561124 
-0.008847692143506208 
-0.4949010828829195 
-0.4264792326562589 
-0.0147426074360129 
0.008882180110425486 
-0.003328523068294626 
-0.08588797562714051 
-0.05233063088860416 
-0.05441549117592513 
0.5712195571801719 
-0.0882761187326957 
-0.08465861363987083 
2.906805235200847 
-0.08364957986332563 
0.04955583406597965 
-0.2281875029196776 
-0.3452419775094283 
-0.1791927399050727 
-0.02854187567705596 
-0.1829612537595266 
0.2934700227594747 
-0.1186745481108025 
-0.1449376659251 
-0.1748766786574145 
-0.01073921282363854 
0.1037358390143394 
0.08064189618179586 
-0.0632371462197595 
-1.811540138604501 
0.04222277835017453 
-0.1450355216488468 
-0.004269932098196497 
-0.9276399739283256 
-0.1444258784061311 
-0.5997837901844967 
-0.00567941582834595 
-0.3386553510182929 
-0.00395521807253435 
-0.1454366088393911 
-0.4164492114798354 
0 
