solver_type L2R_L2LOSS_SVC_DUAL
nr_class 2
label 1 -1
nr_feature 33893
bias -1
platt's -9.343091721468982 -0.5891094974888198
w
-0.04822035098682748 
-0.07091016192054406 
-0.01408478046180175 
-0.4187075198606821 
-0.1999533351940776 
-0.0787943042120282 
-2.010903223872264 
0.06633640225417758 
-0.3587764505978302 
-0.006888621569546783 
-0.0640053003877892 
-0.07561195068025661 
-0.07394515529822916 
-1.105465271772035 
-0.5581710601347417 
-0.4185479528552293 
-0.03742142611266298 
-0.02253812662959786 
-0.03889939174504541 
-0.2273618562191611 
-0.04570635663460591 
-0.9167392540477241 
-0.04570635663460591 
-0.3524508252666985 
-0.534854126705628 
-0.3755208762294965 
-0.9976941237130732 
-0.04578801331459221 
0.1228266132319447 
-0.0123688076336069 
-0.02038667262305294 
-0.03225235520760016 
-0.9863228421921082 
1.58212329155539 
0.4645249176254925 
-0.06093444378284203 
0.01532857889667089 
-1.194076291084283 
-0.1197441760527023 
-3.739725632867077 
-0.4751524892813029 
-2.431620182767096 
0.007160382674413211 
-0.3128503352647954 
-0.0936675424062466 
0.5842430297346706 
-0.3177720538796322 
-0.227060524086992 
-0.130422066524506 
-0.2272986841176582 
-0.5470362572589659 
-0.1886699993753929 
-0.1137075652342317 
-0.0766743859511116 
-0.1874242110824515 
0.5842437454166991 
0.153782148088392 
0.1749427157288817 
-0.5379823245669646 
-0.03247510567455626 
-0.1925128296878464 
-0.006888621569546783 
-0.2654711644538471 
-0.4253960174792235 
-0.08867477480596267 
-0.006888621569546783 
-0.2367728339603506 
-0.0132114141030311 
-0.03454529122756666 
-0.09951258688026521 
-0.06420318360099697 
-0.2310603274828124 
-2.634904084828159 
-0.1429326989133656 
-0.1018970133262091 
-1.813474263906284 
-1.017900994923514 
-0.005023482280412329 
0.3114080623869565 
-0.0531278627507536 
-0.3014029200339919 
-0.569111091010949 
-0.6615218397358428 
-0.2480740408456775 
-1.236538150975166 
-0.4255911276336194 
-0.02065287002231075 
-0.006888621569546783 
-0.05023681668831712 
-0.06652569822335969 
-0.00707512657605131 
-0.01068799898999062 
-0.2516638301005309 
-0.6376070645817687 
0.08298064369977201 
0.5298676559856016 
-0.09796745420364528 
-0.01759552466878471 
-0.006888621569546783 
-0.008015405284944941 
0.05240504538660056 
1.132139504849071 
-0.1848454292927883 
0.03092403947896917 
-0.2838804561126538 
-1.922235463587455 
-0.006888621569546783 
-0.006888621569546783 
0.09247641314416638 
-0.1062878136655335 
0.004959292184386364 
-0.01576991168522855 
-0.008269527807535803 
-0.006888621569546783 
-0.05096020115714456 
-0.1075935416774893 
-0.08069515625811696 
0.3446718303677717 
-0.21980376837446 
-0.4889083191366631 
-0.06012383880707239 
-0.8929439203428603 
-0.06838294623185801 
-0.04593830250684635 
-0.231905109763673 
-0.9650073359681653 
-0.5964964714761142 
-0.2033047831856152 
-0.04065593307797608 
-1.63783163139187 
-5.616532535569747 
0.2234144430480349 
-1.919261298219503 
1.073858621743457 
-1.592502415785047 
-0.01640118209485009 
-0.3969184992913935 
-0.5407254337552536 
-0.1531288624503402 
-0.05779788028076462 
0.4919404189327244 
-0.3212430125265094 
-4.776937114004085 
-0.02123827976951191 
0.01682920804977801 
0.08064050270268676 
-0.01558336041209464 
-0.1675314222892909 
-0.1446636063422251 
0.1593145298145381 
-0.1008928161979429 
0.1802420567383248 
-0.04042287248232329 
0.05409166874102894 
-0.1639055146145301 
-0.03237232040329231 
0.6721687102103411 
0.9072117244396372 
0.003108889789538673 
2.841675880387761 
-0.630311095423453 
-8.503762307988559 
-0.7458836536266621 
-1.2118036576699 
-0.23346402632039 
0.6298966938292637 
-0.04999570516666193 
0.2905385895418596 
1.568542824724658 
-0.3974255783160733 
-0.6893196564221223 
0.05477634999881439 
-1.60311077509556 
-0.4488425378185567 
0.0375846003393812 
-0.2304749895459308 
2.30686533484586 
2.367049806210244 
2.555832891134995 
2.476137360584181 
1.345635793095223 
-0.1351461434494269 
-0.05579867614278622 
-0.06480675868044397 
-0.09501225078280247 
-0.1233379001221561 
-0.4755864985284589 
-0.3328751709783055 
-0.8894286718640717 
-0.4192496950071765 
-0.1118136592613814 
-0.09430226338080773 
-0.1020076651917819 
-0.9314634026422293 
-0.01439727468911581 
1.194613301508662 
1.758117041388488 
-1.072528898957267 
-0.1487182981811026 
-0.2276121236038819 
-0.08708978150360916 
-2.64483105532859 
0.5005859881758428 
0.04210760005070799 
0.8739891017201037 
-0.1371032239546288 
-0.1292203637473117 
-0.06776555142546203 
-0.1559887906115861 
-0.0952944637301044 
-0.06988876969027724 
1.348787211851106 
0.01401609949705654 
-0.4083813598447265 
-0.02475671424013593 
1.05759746971599 
1.405491306639062 
-1.494274469444655 
-0.0490481387829398 
-1.127469997255794 
-1.74141915102219 
-0.03064427341583608 
0.1287180806025434 
5.710150378409828 
0.254680561303393 
-0.5190114240070794 
-0.06404824883988113 
-0.7718704831621396 
1.030651757345548 
-0.02311201019937262 
-0.04505731471429761 
-0.101906382875416 
0.06220443303852633 
-0.2715303099793958 
-0.2973489835729182 
-0.004441260670989462 
0.3238639668823167 
-0.116387687787133 
-0.7644983375080788 
0.01524578040573318 
-0.04368914217325891 
-0.02184457108662946 
-0.1156971515058283 
-2.781999700509782 
-0.02184457108662946 
-0.1228625068224975 
1.382378502966541 
-2.00672750628454 
-1.158127705990474 
-0.08352022703427435 
-0.2321394353577899 
0.02412544716055374 
-1.348111747731783 
-0.4006204333939193 
1.137917831931351 
-1.455840302437001 
1.741928136649045 
-0.9765078423918836 
-0.3188842154253282 
-0.6632830400646569 
-2.455814629971101 
-0.06673410840777022 
0.0025362517817798 
-0.4283366783985579 
-0.02184457108662946 
-0.4179180676448687 
-0.0976170781349275 
-0.1240003493852916 
0.5352921979540226 
0.9247658315266338 
1.099986749794053 
-0.1223088895296592 
-0.1474753520305941 
-0.01268629151028808 
-0.1574202790116924 
0.3059345051775609 
-0.2749753435134152 
-0.5655917365768439 
-0.02428361769637075 
-0.05032402673353844 
-0.02303783059614174 
-0.1056649050030634 
-0.27110925708718 
-0.03430225166914039 
0.0006962149925555522 
0.0006962149925555522 
0.03830792464954826 
0.05559138889214991 
0.001392429985111104 
0.07153633483818427 
0.0960017845993005 
-0.02336198464899026 
-0.397249622081552 
1.801801915768307 
-0.01004762704234722 
0.08466616744181839 
-0.04607269024047315 
0.1694176856750226 
-0.4031067713573717 
0.2592598670041291 
0.2443708433248495 
-0.02588960341484068 
0.1263402627860718 
0.4240684042253822 
-0.558978720411187 
-0.02581715185267912 
0.2950273432859929 
0.4275984621021295 
-0.02336198464899026 
-0.1930586478515543 
0.6250141404821316 
-0.04523527800912339 
0.1133322109056983 
0.0006962149925555522 
0.2330139037918143 
-0.2665878566435765 
-0.1133595003807923 
-0.1740130487229834 
-0.06545385744736296 
0.2477234481207774 
0.0006962149925555522 
0.09102482856821781 
-0.06181511838083549 
-0.238296035162311 
-0.2662257242604025 
-0.06181511838083549 
0.1615800644202284 
-0.06904926408283778 
-0.6709733241517919 
-0.067443182712405 
0.2830104433799762 
-0.2439867472661822 
-0.1759658756302279 
-0.04777501714100043 
-0.9555589380312798 
-1.431438464529012 
0 
0.151961842766185 
0.04113407966615084 
0 
0 
0 
-0.2240435150103955 
-0.3638871087194069 
-0.9696239200808341 
0.96948897162292 
-0.03752271724593378 
0.003298661278969316 
-0.04173436614625289 
0.0617863193127987 
-0.5719500920037307 
-0.2029537304429551 
-0.2225064582868397 
0.1066141038959685 
-0.07376400369645163 
-0.1300732925599265 
0.2786478478834055 
-0.1904872817734625 
0.3065731619125115 
-0.05763433212119873 
-0.2693661264563449 
-0.08349622391648641 
-0.01412234839496894 
-0.3787468967883827 
0.2826954577170099 
0.01658724925004611 
0 
0.01566615712885153 
-0.1691942458042981 
-0.3423524979319522 
-0.5621254229815712 
-0.09552825337386439 
0.01966366491183731 
0.03637060785417912 
-0.1247381272426649 
0.3665243265256006 
0.02989575253640616 
0.02374980762355296 
0 
0.1163310678485765 
-0.09814520722909927 
-0.110042847594465 
-0.08273554391914939 
-0.06064113080789556 
0.2303686302034513 
-0.8251817889911461 
0.2357033324803622 
0.005055691572511289 
0.4707495505197331 
-0.05367710469332559 
-0.2262214143629958 
1.977282370652869 
-1.317063391719335 
-0.1192270175639941 
0.06968510343488646 
-0.2935849343049944 
-0.1182306832909266 
-0.01828078741511163 
-0.1446119026539712 
-0.1182653539206632 
0.04586870557997395 
-0.04226830258929057 
-0.06977481174662849 
-0.3117213232300738 
-0.08465851078615647 
-0.08456104157322847 
-0.4315885701125511 
-0.1894277161259958 
0.07811129975101626 
1.972949520476821 
-0.04407437742493391 
0.2791516017219401 
-0.2680868848976062 
-0.114171423047908 
-0.0253826757619642 
-0.4853246306737393 
-0.1704007936445729 
-0.1027063029181471 
-0.1707984144223702 
-0.04704372910324452 
-0.1916834664938958 
-0.050666709983976 
0.3369976458587842 
-0.03223223880772479 
-1.050850772700594 
0.09732328788745324 
0.01918840504722873 
-0.2087171163493371 
0.05505283717689514 
0.009221068729933276 
-0.2328720770438852 
0.267721370471789 
-0.04767402102838753 
-0.04441844512810929 
-0.007882162029591454 
-0.005477859704179573 
-0.25660598517269 
-0.1376969811424248 
-0.457785671104205 
-0.3422314370290772 
-0.3617972971857179 
-0.2134015569584561 
-0.01166320127725293 
-0.03774269753945853 
-0.1121752019580641 
-0.9167726220662207 
-0.002865159675335359 
0.1440081676687487 
0.5752075852809645 
-0.02045209265453203 
0.0226830767619625 
-0.4750433459578075 
0.02192750718832789 
0.03673243627368303 
-0.1546453937523189 
-0.0363750914345836 
0.08165539313305128 
0.02170937651557017 
0.1647882877438337 
-0.6580360600947091 
-0.3971873985120216 
-0.2532893003799263 
-0.09378755573664176 
-0.5223620830209129 
-0.1130514066762639 
0.06945275341714822 
-0.2740732804585194 
-0.1832620943507626 
0.3241459160589722 
-0.01166320127725293 
-0.03998709707061265 
-0.0300100107622451 
-0.03893163358243498 
-0.144494371414213 
0.09444977269724211 
-0.04070178020741699 
-0.01138559816193004 
0.00299851453526783 
0.3918547208466983 
-0.02138353889034378 
-0.1084679287511596 
-0.1144312679508342 
-0.02138353889034378 
-0.5077680257319996 
0.01186143465325468 
-0.3403887113083072 
0.01128479171069446 
-0.4826283221204662 
0.09175451342793867 
0.04236734050974199 
-0.03179306293303208 
-0.5359885622843132 
-0.025516371260293 
-0.03856852258079507 
0.02514159358367913 
0.3996637354714191 
-0.2550719566732554 
-0.02580803144422987 
2.073538609864988 
-1.550734053934841 
-0.04653906577815048 
-0.1558825819832597 
-0.3985414047649343 
-0.1141169436905715 
-0.05291346955011472 
-0.01069176944517189 
-0.925688391095418 
-0.01091413778068154 
0.05875130678136491 
0.1641172258898862 
-0.6909143872648941 
0.02132087131695586 
0.2019404173547205 
0.01816967132646198 
-0.02373180696550144 
-0.008535946802443321 
0.1674891395610745 
-0.3690161403328336 
-0.186487871134707 
0.03213708276769237 
-0.005723830321259464 
-0.1163755569800641 
0.6131420795891889 
-0.04040706537102495 
-0.07968027989488698 
-0.2986991575284008 
-0.1688206375981834 
-0.08609173305428061 
-1.358129570246696 
-0.03308998359056485 
0.9768808209916712 
0.2106497320886427 
-0.07196408946906532 
-0.4162944608737127 
-0.7538040406657588 
-0.006643664210284838 
-0.01427431135727668 
0.7237285984531524 
-0.1492056830154305 
-0.04745492463142974 
0.4333641202774274 
0.1443531099604129 
-0.4668510496957007 
-1.941722899694496 
-0.7402030733139248 
0.004592494232530811 
-0.1395879014498185 
-0.128984522078193 
-0.03066234593150908 
-0.02433989717654122 
-0.1698283317210831 
0.06855956035549976 
-0.2490199183587303 
-0.02707710473618198 
-0.05062293981890903 
-0.05282260807344265 
-0.1115491869164587 
0.6903746639641418 
0.525887152301975 
-0.1335502584933173 
-0.2019093644827833 
-0.02810039506631473 
-1.556257572768566 
-0.2025335709528263 
-0.01212701590857986 
0.5112807132673646 
-0.1612501599491853 
0.04665491599027115 
-0.4957642893222224 
-0.0001766096784851288 
-0.008535946802443321 
-0.00426797340122166 
0.01258477439878629 
0.004893962908799577 
-0.1923192480272335 
0.275302072961479 
-0.3748246069924312 
-0.3181591287303964 
-0.1115293589293749 
-0.01894852199560237 
0.05757888769689534 
0.08928297112635857 
-0.05191583639457337 
0.0102805451572504 
-0.755582056212044 
-0.1291159896831668 
5.367763938067557 
0.1189164154479801 
-0.01602240170577884 
-0.1893303963576332 
-0.06653611966234273 
-0.6062876853765765 
-0.3065376900220608 
-0.1661578706868165 
-0.2828431376803205 
0.09689105843950267 
-0.1621904666239872 
-0.1696134947557185 
-0.03942364486116166 
0.07409248626707565 
0.1403243626789221 
0.03321375822745182 
0.05057079307584252 
-0.2099824909847019 
0.7925875772244401 
-0.9659424276098034 
-0.1200374776782261 
-0.2823175181154664 
-0.05457686763514764 
0.1559805223359559 
0.0899870397932425 
0.06102504305070914 
-0.002092108873298786 
0.1843507801815616 
-0.3624447796864181 
-0.1106426952847109 
0.0457448506768549 
-0.6721443622950545 
-0.1344153460284052 
0.5467986228944504 
0.8911870849172985 
5.652205022302246 
-0.2935318526248261 
-0.6687547855146859 
-0.2552107299440461 
-0.01397439726032054 
-0.01397439726032054 
-0.08752943855907087 
-0.01397439726032054 
-0.2209504915174045 
0.5373892579977686 
-0.2148980644648847 
-1.643014499756131 
-0.1327694801206834 
-0.001360186777589743 
-0.2219825322108146 
0.1973939658204094 
-0.02563682089262522 
-0.8040388303427619 
0.0514331961565094 
0.5407613840716557 
-0.08622812630542195 
-0.2498300275569802 
-0.1483217299141331 
0.19727043784319 
-0.0001805479617888984 
0.06677903097966888 
0.02475713963441013 
0.195653775139089 
-0.210820817290187 
-0.4132163311020813 
-0.102845408898162 
-0.04855892801061167 
-0.03408767417519316 
-0.2778962200236579 
0 
-0.0441323200844289 
-0.1411293326330331 
-0.01362712215519023 
-0.3879562989761209 
0 
-0.08686820698031993 
-0.01720041766621363 
-0.02544043784810801 
0.04053216180073117 
-0.0254791357994352 
-0.02972203848103861 
-0.02691069018811864 
-0.03275825683116455 
-0.0097766872401046 
0.3850318413045998 
-0.2783663564752407 
0.2786198338397622 
-0.05975198902507484 
-0.4518297758709561 
-0.00775177760410724 
0.1417201027243037 
0.1347963759561926 
-0.1783850553105005 
-0.01936360476433598 
-0.01249891476935749 
0.009993347017959911 
-0.04006133670394856 
-0.005782675137633759 
0.1977857481009105 
-0.2632440044349372 
2.315982637520148 
0.04816329323544579 
0.9260790763115826 
-0.2537303727010096 
-0.09597982367856484 
-0.04610329025717234 
0.004398907458803663 
-0.02934806587366435 
0.03637415221368953 
0.263897415415335 
-0.06125978513308543 
-0.01523693244361708 
-0.5475977567873975 
0.1023325479363555 
-0.6482099425207293 
-0.000182505769031978 
-0.05070258102138424 
0.03499075827765404 
-0.01713105448352898 
0.02888114239816381 
-0.003719758571282351 
0 
-0.2146647810434676 
-0.01018755206730512 
-0.2574331287390669 
0.04671416694808708 
-0.9047771118113908 
-1.324447155716409 
0.1496880417293569 
-0.02898986893862819 
0.01172708909908349 
0.1770237305082488 
0.03311032998769409 
0.05570313916582736 
0.02027637160691303 
-0.1722885542602467 
-0.02102336034075015 
-0.04159577648033892 
0.06093542654563545 
0.03396268398589885 
-0.3093553273963281 
-0.1018104103468743 
-0.01397439726032054 
-0.01397439726032054 
-0.3370180816637132 
-0.4461114953485092 
0.01919950915557514 
0.4118507413549012 
-0.1249786497806107 
-0.07105687733525431 
-0.05655292151919931 
-0.0135795087637482 
0.4454742624942009 
-1.092434411418397 
-0.003041837818605798 
0.04995364144379761 
0.134048051306021 
0.1714099658216077 
-0.04351186744816501 
0.02279611497331283 
-0.06529043228116932 
-0.1260333443439952 
-0.1465447490877656 
-0.05241345139320427 
-0.03941267003211286 
0.3662727574183187 
-0.3750744857313448 
-0.1749965529787736 
0.1023760735699588 
-0.3701321393201396 
0.4113294521986523 
-0.27830016588285 
-0.3127344738760547 
-1.150816950323919 
-0.04251271540507649 
-0.3594166341960106 
-0.206912107186644 
0.1182868482946238 
0.06436585613942206 
0.4116226068277031 
-0.1735236264031609 
-0.01830270295347099 
0.7309247146569475 
0.1147265779047131 
0.3273220774658206 
-0.1805048137448514 
-0.03725167932702543 
-0.2725115848884544 
-0.1060922850040194 
-0.05192476013664559 
0.189719291733835 
-0.1068070158742072 
-0.02055326314746708 
-0.02691328762350005 
-0.05865517986713578 
-0.005004976863051409 
0.09694961012329369 
0 
0.1377151513235204 
-0.2284130939245153 
-0.1184164320376978 
-0.1027991534851587 
-0.0006970468856184032 
-0.2561634993642537 
-0.0783113252792273 
-0.1777098216562437 
-0.02306182500083137 
-0.000837525530288459 
-0.5041628251240708 
0.4489693353101074 
-0.7747625421974478 
-0.111030540819299 
0.01399700156679871 
-0.9335547032184072 
0.1396575141205306 
-0.07848289743288439 
0 
0.2577627053955133 
0.03166037775150608 
-0.08522573316978505 
-0.4042780418567712 
-1.469240023553322 
0.04597606802266738 
-0.008996080661152888 
-0.0002477281815814108 
0.01142939224390513 
-0.2807944854530827 
-0.342010845800389 
-0.04974779105201153 
-0.2211362177620566 
-0.9923096290548326 
-0.1430260988191849 
-0.02082723281930991 
0.4580072431177076 
-0.7076797809220845 
0 
0.1113942982487153 
-0.03186173850716033 
-0.1639805350281253 
-0.1601255488474989 
-0.1271220285185159 
-0.1086605690392053 
0.06520848783567738 
0.03872749788776985 
0.06886628597208889 
-0.08227697683677956 
-1.164955373255516 
-0.07350688098798971 
-0.5633483467595574 
-0.8716249817166457 
0.051660367186287 
-2.336214460239327 
-0.07478322751483307 
0.1056520515684476 
-0.1514435180611073 
-0.002176794513385418 
0.009960524827744061 
0.003608083528441388 
-0.1962613812258773 
-0.04062749639713736 
-0.008197333232328132 
-0.07041484949297741 
0.001930474449921093 
-0.03949118728469372 
0.01377322236127821 
-0.06318894105082648 
-0.04208837554983241 
0.1459066751502357 
-0.1598679435801821 
-0.0961306738049226 
0.08814864929554649 
-0.06489534701294888 
-0.105351886430976 
-0.0642376029434529 
-0.1916387246741763 
-0.04890364756935472 
-0.2579761999778916 
0.01082467918074414 
-0.4502011763057674 
-0.02789822423004101 
-0.3755366846372611 
-0.0413311486404779 
-0.5411087155448875 
-0.127026598350542 
0.04292719283744668 
0.07911721097028333 
-0.2263562242096968 
0.005246005023269708 
0.07726473618948949 
0.09722185252294296 
0.1488931574639663 
2.309843187165021 
-0.002707094800982834 
0.3207732032469244 
0.05942913796868193 
-0.001148295001326498 
-0.1109255090096896 
-0.3676387438052324 
0.6185098191747535 
0.006967787270718716 
-0.05634540628288929 
-0.06586484383704835 
0.01565846428034358 
-0.1538753731935906 
-0.41381270125814 
-0.07806980000084038 
-0.1302063020644894 
-0.2388903839266211 
0 
0.01670961388555917 
-0.768338332445702 
0 
0 
0.07669146512197772 
-0.000186974749554017 
-0.1856597952398898 
-0.02815862971853942 
-0.2459434465589325 
0.2025807492338107 
0.03255646543285199 
-0.3619803160640076 
0.1485193490104142 
0.05102604994556734 
-0.1250205391134609 
-0.01114178036619074 
0.01558587324011349 
-0.000186974749554017 
0.5553601363912355 
0 
0.2056239500000261 
0.02983323525152489 
0.008696172965115913 
-0.007588571277836745 
-0.04053321560474065 
0.472061481960854 
-0.05078308340983331 
-0.03708724175486116 
0.04977819793545176 
-0.01126619382406058 
0.01153040648092749 
-0.3729193539066352 
-1.016374444626912 
0.4091938259598935 
-0.9209828571884099 
-0.2926471263602993 
0.4111589956573792 
0.09817177134061604 
-0.07632164323869588 
-0.07506962121363965 
-0.07488457695242447 
0.1238765573014049 
-0.0188455367522844 
-0.08133137408394084 
-0.04079023907495914 
0.0419829177820033 
0 
0.06823623368497739 
-0.02755124780073465 
-0.2914500028964115 
-0.1718954107353535 
-0.2729402989120702 
-0.05832816648109908 
0 
0.05729445173580192 
-0.5146727352396041 
-0.2086499993685972 
-0.9495914459070478 
-0.005280600524505292 
-0.09864374888942522 
0.1594962678306175 
0 
-0.008549980232868074 
0 
0.009162493310253962 
0 
-0.02993875181219502 
-0.5149126197233873 
0.3524740592984327 
-0.04216489790264141 
-0.59487541404163 
-0.4160267905555193 
-0.4393559305396814 
-0.02068203080680751 
0 
-0.06227954429906939 
-0.2634718130093156 
0 
-0.0009158315946661169 
-0.08431769655863622 
-0.4029912470300832 
0.334855580151659 
-0.1010098590106898 
-0.04357812622534857 
-0.381711289893764 
0 
0.006752932533245081 
-0.07470670237043714 
0.04346775516892671 
-0.08332311510644931 
0.003898107983149726 
-0.02176163883870669 
-0.2898642168228008 
-0.5994656575664447 
-0.009876618993121039 
-0.009876618993121039 
-0.02088588966653828 
-0.07706339979640238 
0.3045024076328032 
-0.2399970484813232 
-0.3391831918142836 
-0.001595246602597719 
0.007983614963952321 
-0.006589863534831654 
-0.02888517416294144 
-0.0004405693026412583 
0.01436971564171874 
-1.232744512770935 
-0.4112851468002491 
0.07308174861865567 
-0.2824287454123505 
-0.03721636988300984 
0.02477518019977182 
0 
0.194410511565196 
0.115479038357194 
0.1046122228211082 
-0.01239871025860451 
-0.0007431845447442321 
0.1505349806434568 
0.1457427822019556 
-0.1429862950192535 
-0.0517002349838992 
-0.005118779402093551 
0.140885068636171 
-0.05772387695325025 
-0.05916114549913903 
0.08097484571326194 
0.1138520569256037 
-0.344636374422053 
0.115274333346354 
-1.980937972184286 
-0.2046879238265272 
-0.006888859074657307 
-0.01924129231775009 
-0.1008500687967897 
-0.04863863816424521 
0.04445669377427959 
-0.1272666987109624 
0.1248052240847262 
-0.01281873863482683 
0.002396320358961714 
-0.09185004701132121 
0.08973648640834689 
-0.5962979646237677 
-0.04740823812859533 
0.06954775343249785 
0.05737539257473428 
-0.02778388769958424 
-0.1480869845505303 
-0.3197325132731957 
-0.01336596797449932 
-0.1315825012806668 
-0.07642862181863931 
-0.254284542622862 
-0.1511252244894722 
-1.063379296861679 
-0.0676584173234058 
-0.02714269086047807 
-0.03987219384576714 
-0.3278125983090657 
0.174413616272982 
0.1796479570593809 
-0.08551746975617926 
0.04546816172042713 
-0.3960037846106481 
0.354753291830831 
-0.03537541244167826 
0.020672994045536 
-0.2736381340047703 
-0.4794037168865544 
-0.2102963956974518 
0.1487266654486391 
0.002316128317863335 
-0.0136807458314986 
-0.0354346718504145 
-0.7600319684017862 
-0.09323870712763671 
0.1304732685027344 
0.07742239424523201 
0.06778257742339101 
-0.1066320940699985 
-0.07184739377926015 
-0.01558143289317307 
0.08397091491818309 
-0.03871883365083425 
-0.235056819714632 
-0.1263576054808996 
-0.1043295012762858 
-0.1394283641815754 
0.0397305480304557 
0.00612865860227918 
-0.2735082660065219 
-0.2314978671893588 
0.6663401404744804 
-0.1138524227065255 
0.04930380284672854 
-0.2710104087124501 
-0.316604626398404 
-0.1421293556561327 
0.4121594610121175 
-0.008165891451308497 
0.3578826175390641 
-0.3480890285124766 
-0.1934743892712061 
0.03412420803734467 
-0.6480097600451377 
-0.9617971144867166 
-0.05648223827468887 
0.1871437404315664 
0.7433857388766217 
-0.05734151800504121 
0.02623677679883451 
0.01187787626904924 
-0.06828522056645464 
0.03675384259852001 
-0.04784461088925961 
0.08110606280964265 
-0.03839549568874403 
-0.08093161948873788 
-0.005062635025725288 
0.2905358494216344 
-0.02032336366162731 
-0.08498222978431152 
-0.2240831253335003 
-0.2249414669392056 
0.04068254805089767 
0.02089668781637961 
-0.04313086044086617 
0.0007649564118779561 
0.04321226793813043 
-0.1423796085969868 
-0.01260197839164725 
-0.01241975603511433 
0.1092444432651627 
0.008879284109113247 
-0.0190514086355807 
-0.2216075807123257 
-0.09243173715435171 
-1.541121809117774 
1.870044196710674 
-0.2006684901045686 
-0.03573386382200416 
-0.02109144271216383 
-0.186485584521158 
-0.2361126863026711 
-0.04068067295507086 
-0.1199127747213197 
-0.07339831633471774 
-0.1575763869186344 
-0.1199127747213197 
0.8675705795746863 
1.610647434559642 
0.756666785205986 
0.9962519388904636 
3.51677764169326 
-0.08567919722671595 
-0.03371330744183899 
0.07011977463494364 
2.355480483939082 
0 
-0.02362132424863385 
0.1845346244934357 
-0.3205889047542395 
-0.1205276560753445 
-0.4636530011232485 
0.02021041084691928 
-0.9239604636715427 
0.08102243986793962 
-0.01917223100696853 
0.1163289644231245 
0.01665405465406119 
-0.1143892472918607 
0.008108565373344909 
-0.0468501323982124 
0.02289935066421659 
0.08661419392192693 
0.0008307582023839356 
-0.01026512732619571 
-1.210942392530738 
0.02292444030473591 
-0.01689377129573741 
0.2072052801972235 
-0.05445717389555312 
-0.02941287961922586 
-0.03155934407121146 
-0.6252797714543015 
0.06305699515699367 
0.05530819766933084 
-0.008371525734002943 
0.1608485888535801 
-0.0792069992205446 
-0.00189968871022192 
0.0387327928212023 
0.362126950997011 
0.1340078284501943 
-0.1957264297376101 
-0.2568235698416448 
-0.1208572748135127 
-0.2427319791965022 
0.8167022487249082 
-0.004858158761287297 
0.07780225948600777 
-0.2569980047040558 
-0.03979618026252185 
-0.007953317231237529 
0.02251243962646667 
0.07811232450328136 
-0.08262612503205215 
-0.07980658562466399 
0.001110630733530627 
-0.0743157291873203 
0.1417562878207669 
-0.1074983312815538 
-0.03900759684226644 
-0.08243713047724484 
-0.4228374517540534 
-0.2369333959186041 
-0.1185347285043514 
-0.210535059336605 
-0.05244487233265459 
-0.1981730511530211 
-0.009594623638747593 
0.1586287996536996 
-0.05744909542901968 
-0.1059848526716608 
-0.185618748161197 
-0.04685219448265953 
-0.2274221858978277 
-0.2471511774237674 
-0.01952854251710032 
-0.005142054471330798 
-0.1364037690262032 
-0.03900759684226644 
-0.03900759684226644 
0.02672154746420288 
-0.1668848004940034 
-0.02597602354022265 
-0.3725876240592638 
-0.01875393166536007 
-0.03090210424331142 
0.07996229614279494 
-0.09445335425268284 
0.1744760919388844 
-0.1023113437717122 
0.1300037734626075 
0.1162493218623277 
0.05502803256723665 
-0.04928411199799058 
-0.01875393166536007 
-0.0281308974980401 
-0.05755838006863558 
-0.6496098840208685 
0.2837171909433941 
-0.05313273324538308 
-0.07125055984585446 
-0.1950186258230398 
0.2952682474735507 
-0.1833921803944744 
1.888002582363194 
-0.04523957129288986 
0.4536688369090597 
-0.2559750777691412 
-0.1566523753567134 
-0.3456574092738823 
0.02625385439982372 
-0.05060828901579492 
-0.009898400222643065 
-0.1648929401788174 
-0.3043090390182971 
0 
-0.04394744898790191 
-0.2690673636225525 
-0.07786591812914634 
0 
-0.01090350270858272 
-0.008243169552645119 
0.3092015859989813 
-0.2673166082905554 
0 
0 
0.1946149363353438 
-0.107617863174348 
0 
-0.1804197200850898 
0.3030767897075904 
0 
-0.06037617327151831 
-0.06652218115047745 
-0.0748503388767478 
0.07231265302601363 
-0.05841060036870789 
-0.170279571185916 
-0.106911680251744 
0 
-0.02254046106871943 
-0.02254046106871943 
0.09002245147521905 
0.5033507797048909 
-0.08068373602012238 
1.106746848581019 
-0.02254046106871943 
0.4202262738506523 
0.1348185931206309 
-0.07562228103052987 
0.07375074001238553 
-0.1999796049727013 
-0.1704450244511824 
-0.2581781135210847 
0 
-0.01381259390443455 
-0.01381259390443455 
-0.9069410548962286 
-0.2183972428891051 
-0.4750324528379584 
-0.02142547442698472 
-0.06975160023953032 
-0.02840429544408461 
-0.5168633528539247 
0.2432508878861605 
-0.01853195058861617 
0 
-0.3915217475844931 
0.0006073110953689402 
0.2506501024369799 
0.150569184449843 
-0.002908712103767813 
0.08748082775267668 
-0.03824228758831765 
-0.0115370425671119 
-0.1087785479293729 
-0.06410939189626047 
0.04028366379727345 
1.823879335192186 
-0.04393071210951113 
-0.7279691152000077 
-0.004587327568741604 
-0.02282095935830653 
0.0605874872216366 
0.9796151322758331 
-0.2841196047753836 
-0.1358880464784348 
-0.0001116870241347634 
0.2199828615673723 
0.03822273793960927 
-0.08542687225739669 
0.07762933808043977 
-0.03006790974911882 
-0.3169907142568432 
0.008703359821360593 
-0.05257916533805704 
-0.07228992779646734 
-0.4685995439284421 
-0.01039137588524805 
-0.0104892460722447 
-0.5385117041123167 
-2.5242042481119 
0.003747602550097083 
-0.04427477939317574 
-0.2387696716261509 
-0.03809096171860677 
-0.03809096171860677 
-0.02572332636946882 
-0.04711230173901664 
0.0359476963492909 
-0.03414708549602814 
-0.3434272165625251 
0.1571778057078611 
-0.01236763534913794 
-0.05708455491532651 
-0.03797553620871276 
0.00603051728789719 
0 
0 
-0.1491517987059395 
-0.2907990710172511 
0.1017761521569754 
0 
0.2949336576418813 
0.1017761521569754 
0.2986449800456158 
0.1017761521569754 
0.1017761521569754 
0 
0.1785009378784763 
1.539574799231614 
0.3328285755960709 
0.08149729355144138 
0.04184419772646641 
0.07850291778284442 
-0.02519264684354869 
0.02457242297210267 
0.4153270815147737 
-0.03429808811633771 
-0.2401283992164401 
0 
-0.05988094709256007 
-0.0005148245290854798 
0.08214896502785111 
-0.05614161868315662 
-0.3492216782808545 
0 
-0.1377117471191098 
-0.01976488530928656 
-0.07898716579785804 
-0.0001822223565329232 
0 
0 
-0.4246343522506345 
0 
0 
-0.09567104095633266 
-0.08238019898780868 
-0.03845048633356011 
0.5578877983840035 
-0.07253450255041859 
0.3904380530506535 
-0.04191910799120339 
0.6202257398557501 
0.01510305063246489 
0.6139646495024624 
1.81595117245885 
-0.1048379059658921 
1.381894015070925 
-0.1511021828069027 
-0.730265221283031 
0.05855523957593613 
-0.4900286548735333 
0.04252217826964699 
-0.2005688746159245 
-0.08484897431156713 
-0.1154199458799729 
0.04395097271684233 
-0.1944605947840563 
0.0979360340007847 
-0.02451058420071643 
-0.01988417660114395 
0.4309857938555481 
0.05486106828853637 
-0.2732486982289309 
-0.0831908846537002 
-0.06758238665374461 
0.01343736163376673 
-0.02513018210048643 
0.2360942485061622 
0.0355205303637626 
-0.7713217058219529 
-0.2726354592384275 
-0.0605443988420834 
0.1649011295224793 
-0.001055634398760394 
-0.1125234199813243 
0.120514456226056 
-0.007159639082621551 
-0.9747255026484404 
-0.02601695716938655 
-0.03804209873537619 
-0.3673460695465717 
-0.6417498331082733 
-0.2705182725204273 
-0.59267100281947 
-0.6651163844805803 
0.2624774755099462 
0.1288201646247694 
1.210717159555624 
-0.09652857760078079 
0.1133464998190684 
-0.119081263648498 
0.01234871989299879 
-0.4170165867479071 
-0.07544294010153513 
-0.2290917731778085 
-0.03763564729042544 
-0.06700488269852921 
0.2326400527418334 
-0.1634027884612358 
-0.1823961572660021 
-0.3020402518588536 
-0.8403174878548704 
-0.3286876273447832 
-0.09593775568265263 
-0.2641228646278572 
-0.0276062920690766 
-0.05248657366829163 
0.1311114158290881 
-0.06482016342333603 
-0.02988469282672935 
-0.184360270619405 
-0.08141051017207242 
-0.08141051017207242 
-0.08141051017207242 
-0.111908059153367 
-0.8930361630735403 
-0.04564598230625886 
-0.1670831512816853 
-0.1198550624513293 
0 
-0.1778132897456221 
0.3077410210199282 
-0.007120333321535209 
-0.7660760002797881 
-0.1423182500470057 
-1.575052484997739 
-0.8448894884751612 
0 
0 
-0.0136417386109691 
0.005893185340644956 
0.1041182833196055 
-0.08611629084237832 
0.04161095319770713 
-0.1194823007204312 
-0.2727686481323242 
-0.01801837275688817 
-0.01865693622928243 
0.008769872898266978 
-0.01801837275688817 
-0.01801837275688817 
0.005605831739881975 
-0.01801837275688817 
-0.04063542258496607 
-0.0007291179196298793 
-0.1895225119265697 
-0.006625869610226398 
-0.02179914042153247 
-0.07013379532548038 
0.1052571462090443 
-0.04436151122275184 
-0.01305198359778163 
-0.3127838105939074 
-0.1320729822071454 
-0.1269744261396815 
-0.01801837275688817 
-0.07660750911309806 
-0.1205592849060074 
0.142756631502193 
-0.01801837275688817 
-0.01801837275688817 
-0.1257058143079028 
0 
-0.06303788084799719 
0.05528986049817615 
0.001462848512275396 
-0.3549161196923972 
-0.02755087516547257 
-0.4238755588963111 
-0.1225503351107001 
-0.03970484353493646 
-0.12120780647798 
-0.0139538065482998 
-0.5410433191898653 
-0.3606978086810845 
-0.05757053859053449 
0.02351610285493184 
-0.002072782364660086 
-0.01353732511100541 
-0.3119699822150473 
0 
-0.004807737437382646 
0.02688211702514223 
0.04435984285456037 
0.1265826397888898 
-0.6937929717182462 
0.1739759038885921 
-0.004807737437382646 
0.1673036227673011 
-0.01700420856139184 
-0.01205361815719449 
0.01253620491505818 
-0.03200330622715372 
-0.1073685305671873 
0.3573625570818942 
0.07454275335288647 
-0.008424720209568384 
-0.2253180614158659 
-0.1729813799651635 
0.05167818710350292 
0 
-0.006521512546727228 
0.002854508280620394 
0.1383828522037906 
-0.2375729596518323 
-0.08207642905650893 
-0.0230347571126195 
-1.10867843186947 
0.2652617056656695 
-0.1673162603512866 
-0.1128579436994403 
-0.1063896556928911 
0.1460149167428308 
-0.03913276379912938 
0.03526332509241775 
0.05210803599997642 
0.09944395291611126 
0.009379633301630269 
0.1376523991271199 
-0.02778741452132798 
0.03389808626202311 
0.02097845674662146 
-0.05060828901579492 
-0.19335855658988 
-0.7303417670500278 
-0.6540934739761017 
-0.03162017066125151 
-0.02686207344027186 
-0.04070988879315186 
-0.1043598698661319 
-0.0525196278190761 
-0.1684223764164677 
-0.03486344541686456 
-0.1486697340001072 
-0.06368545560620775 
-0.09388811378007068 
-0.09843000861008515 
0.04904724536156212 
0.1510902340172126 
-0.005674107116578802 
-0.1032933234961817 
-0.05324933998531074 
0.02693473816237025 
0 
-0.5113339203998947 
-2.088970786556407 
0.09401140253733999 
-0.07031403077960627 
0.1540961356260814 
-0.01935839103931621 
0.01659950537592608 
0.07807130213353847 
-0.02460750215252129 
-0.08775344766340511 
-0.01417313772132617 
-0.07800874842155266 
-0.1051226462056728 
-0.5131483521946257 
-0.03559088628202993 
-0.2981036039736414 
0.03652842366377265 
-0.03619553590252972 
-0.0001822223565329232 
-0.02703084096711112 
-0.02751913348045788 
-0.02957942000692285 
0.2547741229474641 
0.8495677316157014 
0.1874313028435337 
0.2770431974231506 
-0.02210939238863532 
-0.6158581175866126 
0.0331153375869264 
0.07674078911014962 
0.2020284603117909 
0.07273335980100881 
-0.01384842455577266 
0.08204847519740546 
0.1362399345592843 
-0.0800577892087905 
-0.01384842455577266 
-0.1652618464105666 
0.1710796308251246 
-0.1772470564625472 
-0.05037190081437212 
-0.1350185742427389 
0.4717296566746769 
0.4916521368203035 
-0.01305003309219069 
-0.01957504963828604 
-0.02598022178682046 
-0.05156928662149293 
-0.006525016546095344 
-0.00189579990388361 
-0.02818176348559603 
-0.0130641237378103 
-0.03311132770679643 
-0.202451606702371 
-0.0243538489160932 
-0.04734006834616186 
-1.185275162623942 
-0.1208393752444373 
-0.01254101092729507 
-0.004816147872134824 
-0.006328771688215879 
-0.006081043506634468 
-0.3419220349669364 
-0.006081043506634468 
-0.01601277012128384 
-0.2837634090476442 
-0.0648199323803606 
-0.1126016243956829 
-0.1720831005063581 
-0.06906642969030609 
-0.21322951312207 
0.06843346107757957 
-0.003165773366632041 
-0.0003340766153294625 
-0.3072594913114822 
-0.06395999287902605 
-0.1148694222729071 
0.01835484801461709 
-0.05882922650071783 
-0.1123193763360446 
0.05953715459555332 
0.2241018803888009 
-0.05876272689543385 
-0.1208495063080627 
-0.8646756734635535 
-0.09937466230078568 
-0.1141359101739791 
-0.02123011318063563 
-0.2148340324141758 
-0.1096330966329788 
-0.01502549938804492 
0.4607271497884424 
-0.1590246748231266 
-0.07536087243247754 
-0.006601290592715582 
-0.0002327781833727932 
-0.02466704631510537 
0.252205409629295 
0.02529001856979752 
-0.05354657506777697 
0.009334753847501013 
0.09291876611168381 
-0.0210474326405743 
-0.2276083414196313 
-0.05584247160358637 
-0.05960434396261268 
-0.0008125824438240175 
-0.01749356034942555 
-0.01308473593403117 
0 
-0.4791987202490611 
-0.09214100287403677 
-0.7905337289608997 
-0.1021225423629254 
-0.1601916054286652 
-0.0147570528897178 
-0.004807737437382646 
-0.01703607765448101 
-0.1191863468208562 
0.01450052052329829 
-0.03683416168687895 
-0.07568334921125371 
0.01866465505584323 
-0.2340126438362474 
0.8729466818296361 
0.06439396393987359 
0.07970593891321263 
0.2933830645324441 
-0.001018020919171303 
0.4908419708219781 
0.09448050905470382 
0.9932683490080628 
1.10579558053923 
-0.07231329134271682 
-0.01205221522378614 
-0.09955352946246378 
-1.224151383943233 
-0.01205221522378614 
-0.2035943050817278 
0.01097732434736182 
0.2616666595233693 
-0.09599573522583206 
-0.05856713468071039 
-0.1629225569770723 
0.05604550707649138 
-0.04665763802105725 
-0.01205221522378614 
-0.01205221522378614 
-0.01289405331064214 
-0.01205221522378614 
-0.3761551374054429 
0.5884936198853371 
-0.05291118799324787 
0.1238176302071579 
-0.2917974700842826 
-0.02732855136458315 
-0.02613458563797009 
0.003510778239399625 
0.0119541421496597 
-0.2101208248703557 
-0.02304012483033751 
0.0009341036732748956 
0.07150310736088886 
0.2628870628284768 
0.03543403765812481 
0.09808849599902188 
0.07069227399670774 
0.0005895715665632136 
-0.07571202974643114 
0 
-0.1941438768552329 
0.1243147056753398 
0.1225647509089869 
0.06553506554478138 
0.0403644175180877 
0.06161083162875368 
0.1803119994727943 
0.03955184626784912 
0.1307389813961939 
-0.01381259390443455 
0.005588018226318289 
-0.04014367104225249 
-0.01381259390443455 
0.5972219862850391 
0.3502008999008751 
-0.2287544084844471 
-0.1338320086965127 
0.08372356043013988 
-0.2410820450628093 
0.01623330161786407 
-0.2899529327850996 
0.1311082765942926 
0.1578956733627999 
0.08441257865666674 
-0.02372393103862849 
0.2570823608803853 
-0.01381259390443455 
-0.1550106112980731 
-0.1046998717739453 
-0.04971335967243148 
-0.1488687805396034 
-0.03667025631564019 
0.03697125273002265 
-0.04843503769224884 
-0.2078019865905651 
-0.04169147889180305 
0.06044218386964018 
-0.3351966094715024 
-0.7478164989452644 
-0.0129777809146192 
-0.02964544047593991 
-0.04595907503697313 
0.2654123145629335 
-0.04534167726787152 
0.1128903978272709 
-0.0667153346297765 
-0.1421990267385689 
0.1794733503077596 
-0.1534160540940391 
-0.1210965815040673 
-0.2185872479856746 
-0.2737885270954214 
-3.616529227074411 
-0.1814807544313817 
-0.3366620163723303 
0.003155138811780033 
0 
0.0570951518282568 
-0.1282275071284653 
-0.1282275071284653 
-0.1282275071284653 
-0.0102545589642481 
0.4014517663375926 
-0.01935856153212831 
-0.04136406161361503 
-0.4459317211416741 
-0.04136406161361503 
0.03963175721990758 
-0.4460483844533367 
0 
-0.003416666676999345 
-0.001996283549479008 
-0.04388868786196046 
-0.0223293287196901 
0.03754941388580135 
-0.3080546500540586 
0.1196391956866006 
0.1990717902694571 
-0.07168924388622518 
-0.03025632356442988 
0.03432468211770917 
0.1268993386910278 
0.1593829134851242 
-0.0216770400404835 
-0.02068203080680751 
-0.1702150515560224 
1.306201582475174 
-0.05331561699673289 
0.04346256953097282 
0.08473576903906543 
-0.002143215967093293 
-0.05861692191101939 
-0.004026401825653031 
-0.06423910953509518 
0.05222114809646176 
-0.02847956426006951 
-0.2973047553139357 
-0.0147574254486106 
-0.02847956426006951 
-0.01423978213003475 
-0.01423978213003475 
0.004092003293608295 
0.3173883516144372 
0.01337967110644174 
-0.06677211331637507 
-0.05823395113250733 
-0.05823395113250733 
-0.1116076768715459 
0.3079837027098357 
-0.1130315652904125 
-0.03349376363531411 
-0.07607968784930699 
-0.2763433947783909 
0.09066676910301828 
0.2257293196564769 
-0.0213614641231941 
-0.01431939218435296 
-0.1488656275037616 
-0.0386865028177388 
0.3959118870006172 
-0.07648349940327676 
-0.02008128671265875 
-0.5395422443155471 
-0.1079211919324543 
-0.002935951340320094 
0.2358447097343433 
-0.5423131221527392 
-0.01121803756390196 
0.1422920716809029 
-0.06287538505835501 
-0.04598879823785056 
-0.153744979608921 
0.01332031972574703 
-0.0314376925291775 
0.165497826416334 
-0.004121103137648639 
0.0604883226933745 
-0.01197892278958585 
-0.02938448431839014 
-0.01314939926865324 
0.05169500179384865 
0.205826572216196 
-0.07253539355866521 
0.03341463726708499 
-0.01674130740041001 
-0.296590624248967 
-0.3666398624875112 
0 
0.01556363277292716 
-0.004707438957635084 
-0.01855656988689977 
0.01489551148926851 
0 
-0.03246426306862428 
0.0204216356332209 
-0.2644978088737326 
-0.06398824747248544 
-0.3433876401219493 
-0.007903607626512991 
-0.02407050548868143 
-0.1116697205269089 
-0.08227673941246592 
-0.2296933706221436 
-0.1421687673319477 
1.882903932324028 
-0.009585077314287465 
0.005230194819145505 
-0.1095783473963679 
-0.1387366671882517 
-0.1554949724432708 
0.1435269735133841 
0.07846436008591384 
-0.3478905419301342 
-0.06157564689956452 
-0.1084152192032765 
-0.05774019586462868 
-0.08173480036195123 
-0.1379443442175388 
-0.05911693355757904 
-0.09476524651711662 
-0.1867228005232235 
-0.03386816903811625 
0.3796218767705494 
0.05964187361616491 
0.2746307101424112 
-0.03734456010464471 
-0.09769052525734372 
-0.01272973123930668 
-0.02584715755384766 
0.02239540926046384 
-0.02282687769591606 
0.01636267896574121 
0.0487088456181933 
-0.4157739547979135 
0.02413447363376058 
-0.004900209641363644 
0.02626656874049881 
-0.01061830579149794 
-0.101795307503932 
0 
-0.02590277995382427 
-0.2489423886179962 
-0.5116234464914582 
-0.4342899964050619 
-0.6021281743581923 
-0.2485129625872691 
-0.105913322031664 
0.1068643692354121 
-0.01272973123930668 
-0.02753779225549913 
-0.01272973123930668 
-0.2471104547753666 
-0.02271127072819533 
-0.03928053781019762 
0.04429593178058566 
-0.1829749882933322 
-0.09745932467703511 
-0.07746519958045869 
-0.08388717683231989 
0.0503874301794439 
-0.2230903378809479 
0.04026361605468275 
-0.008451216189687175 
0.0076812476012029 
0.3587643453797594 
-0.06362072240993903 
-0.07984461884564105 
-0.1379235756954734 
-0.1915689594160218 
0.007925489940021771 
-0.5453000685408502 
-0.4039976745001088 
-0.04262732208109454 
-0.06247869152557146 
0.0529141231846261 
0.0516495109476819 
-0.02289555086543962 
-0.03446297663906029 
0 
0 
-0.2935420454716429 
0.002324661629687447 
-0.2703165103607361 
-0.209595539956017 
0.1942703008311369 
0.04406476268560716 
-0.6004178748667155 
0.03346097125350927 
0 
-1.204907173657848 
-0.1267846853653381 
-0.01064964387829331 
-0.323192616643402 
0.0250322435947911 
-0.02107380560836198 
-0.1012827184104219 
0.1763280935452964 
0 
-0.01188015653356034 
0 
0 
-0.03940460215380152 
-0.09738583770427375 
-0.1313663528607135 
-0.6713535289526184 
-0.06797347970735096 
-0.03119194032889428 
-0.01970230107690076 
-0.02920714771028096 
-0.04338222799992977 
-0.05235375984112155 
0.1265009384163269 
-0.001271783404934802 
-0.1550974126856421 
0.06881183622219424 
0.6594330085191584 
0 
0.09634077856565762 
0.01502451235526139 
-0.4920030912082234 
-0.2453783807140649 
0.1427473611335816 
0.1328034240887687 
-0.09928571628176777 
1.246134303260584 
0 
-0.02793232092470333 
-0.007230808412757242 
-0.05522668374143321 
-0.01134955034787748 
-0.01415266546885619 
-2.808786504159366 
-0.2202100502593491 
0.04649495736852698 
-0.09642256216673308 
-2.03183263143942 
-0.05790805824861828 
0.2364061666664383 
0.08498787088009099 
-0.007169585237680358 
-0.03121953059223904 
-0.00749468659140106 
-0.03118758729633272 
-0.01776055496162253 
-0.05833042827416664 
-0.0527226591177594 
-0.06620772548340378 
-0.02507701761884061 
-0.02247610421237902 
-0.02153507182142669 
-0.02959021556427775 
0.01140795648098385 
-0.007277455496009512 
-0.007959980902890556 
-0.0116459673543334 
-0.007086568860663083 
-0.02407075458026975 
-0.3649181247299598 
-0.06647875417384794 
0.5664090883457266 
0.06399927709516648 
0.4707049406543144 
-0.01899152932168077 
-0.06202709567605603 
-0.3411361574662123 
0.4219670544566604 
-0.01636954688408956 
-0.06376736769160435 
-0.6031191319069926 
-0.3937607377772951 
0.7786923840896426 
0.5199743119912504 
0.1616438013980165 
0.7973937813156159 
-0.08041463883043129 
-0.002443134788972404 
0.09428616078979139 
0.04408022515016308 
-0.3857829129039426 
-0.05859469619857347 
0.07624286044992566 
0.005706530025032017 
-0.5762740309922502 
-0.008356329971003766 
-0.008356329971003766 
-0.008356329971003766 
-0.008356329971003766 
-0.008356329971003766 
-0.008356329971003766 
1.546226670118597 
-0.009097958101285964 
-0.1408251614600156 
0.3414731261198808 
0.09855574692298717 
0.5354073008160941 
-0.04089995675137777 
-0.07917702564404329 
-0.1756488432852631 
0.03794993463264066 
0.07925203137904856 
-0.08746244881016568 
-0.06942120600667194 
0.01254470306217626 
0.01522777749517365 
2.577762940855073 
2.705887958019639 
2.079616709530818 
0.7855546847287209 
-0.001473714803341227 
0.1159419756004013 
0.9146643740286979 
-0.06754544439728609 
0.01519624472624569 
0.07907852048682619 
0.2492784548630173 
0.2346743148159256 
-0.07688299804880286 
0.28069953348516 
0.2221186118822665 
0.01077618812023954 
-0.0877217401026642 
0.1434185228244148 
-0.09171401558446585 
-0.05800709382902122 
0.07331700354641676 
-0.09183984737751727 
0.0387555301526925 
-0.003969326810778952 
0.09250248531551954 
-0.01381259390443455 
0.08795140062144169 
0.02575818380647019 
-0.1050801050112922 
0.2908506676643625 
-0.01090100130118282 
-0.001348149096521654 
0.05448059297586716 
-0.02290981915261692 
-0.1285524465488139 
0.0792125377739808 
-0.01091368848996832 
0.1915941992330619 
-0.04662822390440092 
-0.1745428677594655 
-0.2585210603254014 
0.06174400680755738 
0.06893526458954467 
-0.009488242125688421 
-0.04712724490851201 
0.09297395571462853 
-0.3539622057970271 
0.04642709473174031 
0.3315114723293572 
0.7646892276489917 
0.3557687508512185 
-0.03032837082371449 
0.1359459185481673 
0.01157261150151665 
0.3638239418711672 
-0.002651859402212492 
0.2672956114775867 
0.2262891708404539 
-0.01986740953814434 
-0.01139813226133152 
0.01940057480747773 
-0.00189968871022192 
-0.009498443551109599 
0.2352288978502376 
0.02626813239948058 
0.07271822045819711 
-0.08676990136669062 
1.016723091310336 
0.2947421717718104 
-0.02347716084686949 
0.2893543043768976 
-0.08347451072323024 
0.02482150544678035 
0.01738171267565545 
-0.00189968871022192 
0.1682816039436088 
0.04260433280695073 
-0.2522252769684699 
0.04710953415629394 
-0.06186991338268649 
0.1184772763592663 
-0.1258839970485687 
-0.07096117740816989 
-0.1721826124912016 
-0.03592239233252189 
0.01400745189528563 
-0.02536436969325094 
-0.08700715972829039 
-0.0530694627593138 
-0.04559057862956774 
0.02885715992482334 
-0.00379937742044384 
0.360239897944312 
1.147315458137118 
0.1256708628350571 
0.1129051384364058 
0.03926168409769646 
-0.01237769838700524 
-0.0194167177263763 
-0.00189968871022192 
0.1008422707645237 
0.3950090632642628 
-0.2179475104147376 
-0.1706025400843851 
0.05977434418697692 
0.01128313065747561 
-0.02609962621187296 
0.1995145042732233 
-0.02089657581244112 
0.2163969754891662 
0.008153172454270635 
0.3407333414532463 
0.04399099793224714 
-0.1044423978020618 
0.1191427507795906 
0.1017495311150264 
0.09199683774625961 
-0.09201399040300867 
-0.01197186285838008 
0.09927163238311539 
0.1157822139312962 
0.04361672805420986 
-0.007598754840887681 
-0.00189968871022192 
-0.00189968871022192 
-0.1475962499416567 
0.04649856511031984 
0.6951385630006884 
0.9417840424276381 
0.01710366886088166 
-0.06966818001527406 
0.169409863594163 
0.2224318882339575 
1.339263303864545 
0.01967619677554096 
-0.001236182167825044 
0.1914198645797018 
-0.1344785379421885 
0.1026025222026391 
-0.02243412653393072 
0.2151655703216772 
0.3555497355315795 
0.1970156707242028 
0.130228774291196 
0.1361036632786255 
1.108003007883535 
0.1756108195189474 
-0.02945660532927422 
-0.00189968871022192 
0.1243681926507364 
-0.0007070624915616748 
0.03560677691568632 
0.1517218084197859 
-0.005118772668240395 
0.06078556025620559 
0.05560683337148534 
0.1451728844941992 
-0.1202426145326164 
0.006054684895790596 
-0.03705571698762554 
-0.0005679849494895337 
-0.00189968871022192 
0.1647757248096097 
0.05598032349553334 
0.009747906994193613 
0.04113689123148978 
0.2138217099943483 
0.02116254108982376 
-0.7334760826415269 
-0.05899045849340273 
-0.4655366790689048 
-0.006772320789156332 
-0.3796144402457072 
-0.00189968871022192 
0.0293107737098632 
-0.1387448339594082 
0.1051113372086886 
-0.1684749277546725 
0.00117769620990357 
0.129858969478834 
-0.4053972737921845 
-0.06450649082804469 
0.0005695355201681613 
0.03393227261317872 
-0.04479377874276019 
-0.02851283711056452 
0.03376714585256899 
0.003505149043225196 
0.03421020752089178 
0.003239462595272941 
-0.09986692801468704 
-0.002894697943897911 
0.1737550229501719 
-0.00189968871022192 
-0.00189968871022192 
-0.1300501124933209 
-0.01826911876068422 
-0.07477889457444827 
-0.06855689157078153 
-0.07945368915960334 
0.06932209643803268 
-0.2231509585789358 
-0.03833236681024526 
0.001711516565190535 
0.1244976743630653 
-0.00189968871022192 
-0.02173873397849158 
0.07014826400128558 
0.011814519921917 
0.1070090999064667 
-0.00189968871022192 
-0.2509328959112211 
-0.05527060961569456 
-0.1499375830227785 
-0.06355073629088143 
0.07479647902275767 
0.2002562802198994 
-0.2655986242703675 
-0.5817416205702303 
-0.08540315474319117 
-0.05495224285708467 
-0.05210168556410563 
0.04337413922677602 
0.1615419311225376 
0.008226943027535112 
-0.03998162297591192 
0.1624876076794129 
-0.3516474367222968 
-0.05741561887461231 
0.2305631851398906 
-0.1882747338154573 
-0.5871131464614076 
0.004446664252118275 
0.005684379643637275 
0.04609042767094139 
-0.3115284071831521 
-0.163150738310088 
-0.624473958072495 
-0.270627805232963 
-0.03185732864198612 
0.2322130963009203 
-0.2427754825543029 
-0.07584707564073506 
-0.0002829590679368773 
-0.0006970468856184032 
-0.06919322463362196 
0.0511547412363179 
-0.002623904200875282 
-0.00794872614002194 
0 
-0.01734363598029522 
0.004708178159908879 
-0.1415086708090658 
0 
0 
0.04334626880860411 
0.4277294721289172 
0.1781026098125343 
0.02259490330991128 
-0.006462746285508606 
-0.08761153050051471 
-0.03038620167504963 
0.4220430149714312 
-0.05501193945845805 
-0.02364166347647569 
0.05509598847247262 
-0.2763019956929261 
-0.02415648800556117 
-0.1805676290651813 
-0.0816506266403888 
-0.02291963507514538 
-0.09120962214602756 
-0.01182083173823784 
-0.06527320211248028 
-0.03861234463567688 
0.01078028514493202 
-0.01206139607000319 
0.1089779723510909 
0.3481711357191041 
-0.05190205139588835 
-0.01152202603916679 
-0.03929296904462461 
0.0200366545570773 
0 
0 
0 
-0.1658367060277984 
0 
0 
-0.5417984856137734 
-0.02344612349061711 
0.08749966440819114 
-0.09485430149662288 
-0.2203615897963293 
-0.04232872031716216 
0.2014730147251191 
0.02345883532696841 
0.9962125075053304 
-0.1379934212547165 
-0.03853093760709424 
-0.1601605757141989 
0 
0.06613950716818415 
-0.2943613122191123 
-0.01431264538833603 
0.01029801860562824 
0.003583474724410465 
0.07785467660296312 
0.3267245077283236 
0.06496036848693856 
-0.05141361655925315 
0.4948610731959504 
-0.03431635628880251 
0.02510772173967341 
0 
0.0093954967576057 
-0.1156070645862768 
-0.001261860871978689 
-0.02777516796350289 
0.1544549165633839 
0.03914174203141528 
-0.0784709690344839 
0.2349274243867741 
-0.1449923497898493 
-0.07249617489492463 
-0.19960790258074 
-0.2646510237648371 
0.1808467549064205 
0.2033092202362845 
-0.03343772031251513 
-0.03343772031251513 
-0.03094619414294128 
-0.01503744693091625 
-0.01174689578849741 
-0.1231837996631819 
0.1341942660385516 
-0.1497763802378675 
0.01296536044094219 
0.0475291786262242 
-0.1829374602220105 
-0.0400248015383581 
0.06770719250518809 
-0.06798230359573418 
0.03962798777863717 
0.01134365546214012 
-0.009219744731799876 
0.271224400863904 
0.04678423570821272 
-0.005402556612590423 
-0.0657732389159817 
-0.101342224978773 
-0.0431311563671303 
0.247264377592329 
-0.232498177141498 
-0.09237064907034098 
-0.04618532453517049 
0.02714801402055196 
-0.06436188948131949 
-0.05688042469590883 
-0.0280087595890215 
-0.06515576022511244 
-0.0280087595890215 
-0.2442787433882643 
-0.04399926795757425 
-0.101498718421637 
-0.0879985359151485 
-0.0879985359151485 
-0.04399926795757425 
-0.04399926795757425 
-0.0114682970281083 
-0.00717628652744962 
0.06670867955915968 
-0.01236321584165919 
-0.07068112834932307 
-0.0129222272984238 
-0.0008811386052825166 
-0.2445740249557689 
-0.05290426380407919 
-0.09012752209068137 
0.04542690961794927 
0 
-0.05031170301898711 
0.2211110780942772 
-0.4473118150884517 
0.04001041643045029 
-0.01442141370248603 
0.5000274581942183 
-0.09108199630283674 
0 
0.4793285952829008 
-0.01673360328607143 
-0.04142081085663742 
-0.0171296527778805 
0.04092647539214388 
-0.2850972074272574 
0 
-0.0101671973498373 
-0.04341310606346314 
-0.03590922167061399 
0.08316871249310484 
-0.06519414970864182 
-0.00274025415765906 
-0.002150923243522145 
-0.1093632041176543 
-0.02072968363179168 
-0.1471244699642981 
-0.01543132510274416 
0.1454817751234244 
-0.03623731364512166 
-0.01480240603299737 
-0.02579873543205275 
-0.3666886033199714 
-0.05141517621988397 
-0.07442100186551118 
-0.055768011906742 
0.2361127661752577 
-0.01624723528781933 
-0.03941186309959745 
-0.06178622430785739 
-0.07690216739022217 
0.07940041704058338 
-0.01285158369262367 
-0.03457612833229481 
0.008764744172005056 
-0.004258749583988626 
-0.0008445172799076443 
-0.1060600300867562 
-0.01401996043227759 
-0.1861419399534505 
-0.1233037933920339 
-0.1119661942370111 
-0.01444729045578177 
0.01395357959005259 
0.009277512194380364 
0.02196638210237132 
-0.05686559206224313 
0.05230086458261067 
-0.1033382950403447 
-0.008666722081345548 
0.1939251470401224 
-1.84092014046689 
-0.02654740884531079 
-0.0008734120422274706 
0.03095400595477784 
-0.01300933634972952 
-0.0006970468856184032 
-0.04193436946163485 
-0.0008734120422274706 
-0.06922132119120666 
0 
-0.0506659845047301 
-0.0277905924508376 
-0.09215012719637164 
0.08205301536174779 
0.2835867272266328 
-0.02900723496669144 
-0.01814142475484356 
-0.06748859714773835 
-0.001419974803989459 
-0.01216496331016448 
-0.05778060110713577 
-0.02708491648948925 
0.09252987997353848 
0.03191239833483297 
0.005745301152397511 
-0.01181043023620636 
-0.1345247199536362 
-0.08228494574656152 
0.01472479949315414 
-0.1079533008018312 
-0.0134544955909685 
-0.07854207584095325 
0.01505352170316758 
-0.003746808565416758 
-0.05089123373122804 
-0.02174442864480912 
-0.09684042204438241 
-0.01204347058675433 
0.2068784654783637 
-0.00346515323428506 
-0.07032361395333275 
-0.07443501023372134 
0 
-0.1820737401806188 
0.06524809881968673 
-0.09563396063326488 
-0.01356668361713067 
-0.03782798771121724 
-0.02796867220978854 
-0.047889630275804 
-0.0001822223565329232 
0.0007235891207261954 
-0.05738487073618857 
-0.04098453373101214 
0.006305345199970835 
-0.1716421497834539 
0.01512693126988513 
-0.0562017471081326 
-0.001915422478978108 
-0.01870326625199807 
-0.01648761829869577 
-0.04279382902504609 
0.06393758351652139 
-0.001076087279606633 
-0.0007736461883734016 
0.04269059103412012 
-0.0301948185664904 
-0.01270051691553283 
-0.09112202552781952 
-0.03678538679855966 
-0.03296544695949936 
-0.01202069854810109 
-0.01173833893537048 
-0.04231527773864295 
-0.001040764106512874 
-0.06802676871833864 
-0.007220937800977572 
-0.02387443559401954 
-0.1435787579166456 
-0.1488278071681103 
0.1552537612034632 
-0.04120850706463768 
0.3566708845918384 
-0.05142560063813311 
-0.07815680656743744 
0.188258243460799 
0 
-0.02037003748506478 
0 
-0.1587142200616671 
-0.09808717133559709 
-0.03811755793584904 
0.2176896236927177 
-0.2544541445034137 
-0.01486851675865026 
-0.0223827398688185 
-0.168995846180794 
0.02140729625641784 
0.01124748213323173 
0.4388285217332725 
0.09294642055860398 
0.1279737512735464 
-0.05194451230644699 
-7.994718796023536e-05 
-0.01873760340338163 
0.02382505375219481 
-0.07514313770821783 
-0.00976134086249692 
-0.02221695303276638 
-0.002509918588395047 
-0.01977112371512664 
-0.05461145583535637 
-0.1866501740244907 
-0.005408561346722724 
-0.04798094822295588 
-0.03371802365467821 
0.008457540616440582 
0 
-0.1158776218661861 
-0.7226157625557753 
-0.0008922097585276531 
-0.001709247555537651 
-0.1786774345663833 
-0.0005336334321057502 
0.00700431975380396 
0.003021308751541466 
0.07846197952083329 
-0.0634396629081203 
-0.01564083398479031 
-0.02824424281139135 
-0.01496189078324055 
-0.0006780525659111031 
0.07642307738763154 
0 
1.263052681820948 
0.07122334574003292 
0 
-0.03987995876349767 
-0.03030290007633302 
-0.00138823657131295 
-0.02661926433156295 
-0.0603617012595557 
-0.0162085940348339 
-0.008762450266165057 
0.05522637565733771 
-0.2340239328533541 
-0.03147409451113248 
-0.05369313323659964 
-0.01227484019094626 
-0.09779282707855819 
-0.17186914149213 
-0.08629641542920076 
0.02768464825037404 
-0.009040589171593413 
-0.02747679675004561 
-0.01434255324689865 
-0.007051578420927068 
-0.04221570045400967 
0.002819095912286195 
0 
-0.004141827643421523 
0.07690562737326921 
-0.07285335111297361 
-0.05249649217280145 
-0.1324200999731407 
-0.0001822223565329232 
-0.0006938287167581507 
0.0002186685015016289 
-0.01543172663408149 
-0.01450241781387641 
0.01353803277573425 
-0.05374709691674483 
-0.1459321004527822 
-0.05072898531568362 
-0.104006610078401 
-0.0150936710305453 
-0.0314454101111605 
0.01520383107093632 
-0.007625699038449139 
-0.02223477660665737 
-0.001055634398760394 
-0.2327812115596992 
0 
0 
0.008084908248261255 
-0.7170349618722869 
0.01942774187379131 
-0.0174504459251328 
-0.07103861930921478 
-0.0008792692421513262 
0.00872637502207561 
0.1853452337327308 
-0.04034507003022635 
-0.430559476400831 
0.008511939904364644 
0.02982543482016287 
0 
0 
0.007093763134965605 
-0.0002477281815814108 
0.051054017200753 
-0.01750565502770147 
-0.1658982083207463 
-0.0006970468856184032 
-0.09412841885526863 
0.4175799431925382 
-0.01481729303688695 
-0.01162929523029192 
-0.02550800488407827 
-0.01856720464851383 
0.0006069266784263157 
0.007200024843091753 
-0.03395084349887827 
-0.09157887982681756 
-0.01197585714592373 
-0.1822865874917221 
-0.1846928606460438 
-0.1054494021841566 
-0.03106460654748896 
0.02781925300318568 
0.1230014178659482 
-0.001816089871636896 
-0.03421882900412179 
-0.0001488151536646729 
-0.0944748663756609 
-0.01598637379725569 
-0.00957303373630808 
-0.01273031483945999 
-0.04575725823798703 
0.1276434138372238 
-0.08314860412753829 
0.008372438503819111 
-0.0002026884638404146 
-0.03803066874345302 
-0.0005148245290854798 
-0.06208066279452998 
0.07772092860833997 
-0.01448522710436511 
-0.1672747665969082 
-0.2394770784611627 
-0.05607045423997098 
0.1596766842722477 
-0.06620849479833223 
-0.01469651041956597 
0.204041709901757 
-0.01440252980060768 
-0.002223779637415036 
-0.05910062639259225 
-0.004457623280140252 
-0.01483744913177863 
0.01274646116082255 
-0.0134203749402089 
-0.02319949657362659 
0.05677462218266648 
0 
0 
-0.03891693170241561 
0.03394561144729823 
0.01164929089601861 
-0.0196480003568258 
-0.08504090628348598 
-0.07633741931935427 
-0.156583817101242 
-0.2044861018873601 
-0.0006970468856184032 
-1.263529073246784 
-0.01959241815862698 
0.00240502438571178 
-0.1110509997683879 
-0.01449745782412057 
0.005910540211156464 
0.008553550569612395 
-0.03498807921510864 
-0.0005148245290854798 
-0.01716165108575046 
0 
-0.04722587891486339 
-0.01888108834033844 
0.08281026597301096 
-0.01597301219107552 
0.005454185309314481 
0 
-0.02317796704177555 
-0.1997546538944127 
-0.0005116063602252274 
-0.08616797108568065 
-0.0424040440990706 
-0.06974533377477062 
0.1193202531874357 
-0.013212112457774 
-0.02335273706229929 
0.08322808276179143 
-0.06593957826670502 
0.1602475314974184 
-0.02496881143251206 
-0.0001822223565329232 
-0.009548891518932194 
-0.03577521923954329 
-0.1404596015411502 
0 
-0.0001822223565329232 
-0.03625873028841914 
-0.003251005952560105 
0 
-0.03832928477737502 
-0.0005116063602252274 
-0.009066679378700437 
0.0329009640686506 
0.05108439963078871 
0.03703335813102635 
-0.05965095170992751 
-0.01230838519286434 
-0.01185271913828796 
-0.001026430889310707 
-0.371479205794945 
-0.01402991973399886 
-0.1510782863291371 
-0.0005116063602252274 
0.2177431322557231 
0 
-0.03553069212860988 
0 
-0.01647416238845421 
0 
-0.01825859230957064 
0.1841917270219367 
0.1954264627967826 
-0.008234397308077662 
0 
-0.0006938287167581507 
-0.01518658080839249 
-0.02123275372957708 
-0.04089013173273012 
-3.780322272757042e-05 
0 
-0.01190485206069723 
-0.004523040057777594 
0.01913723396223554 
-0.03166965365316435 
-0.1048617630418787 
-0.01245984645405101 
0.04646206808296886 
0 
-0.04056659718795191 
-0.0164777133972904 
-7.560644545514084e-05 
-0.04020213431918813 
-0.0001822223565329232 
0 
0.07581272285549966 
-0.02644966626168124 
-0.008945117569492275 
-0.0143058460065236 
-0.0006970468856184032 
-0.009874938665744393 
0.1608068208621834 
-0.03407824151066109 
0.01247916896003568 
-0.0009111117826646161 
-0.0005116063602252274 
-0.05688374700643636 
-0.08228394035929323 
-0.01907517751266462 
1.430250890508111 
-0.0001822223565329232 
-0.115009522880117 
-0.01334581654985679 
-0.02057690386801375 
-0.07568920841025543 
-0.02671822486924279 
-0.03705082273283741 
-0.09862047023482703 
0.02355829852032558 
0.1325840162869824 
-0.01152150067471481 
-0.0008734120422274706 
0.130033789771919 
-0.04889067681878734 
-0.0015833994442222 
-0.01405087538696585 
-0.0456290461205262 
0.05879648939321723 
-0.01613304177572141 
0 
-0.0001822223565329232 
0.004533006409819372 
0 
-0.0133495575843291 
-0.01231553063410395 
0.02734535962435837 
-0.07023512781411985 
-0.06239072841911792 
-0.0001822223565329232 
-6.814535946624811e-05 
-0.07136761581633279 
0.4595299903957447 
0.1062596964660788 
-0.3632002168326636 
-0.002566290726064448 
-0.0003644447130658464 
-0.0004405693026412583 
0 
0.001060101694120731 
-0.01540380574755744 
0 
-0.0008734120422274706 
-0.07099818192796775 
-0.1448637709084878 
-0.009237593331819005 
-0.03323031674955294 
-0.01080402063859538 
0 
-0.07593153476483738 
-0.1803758345699681 
-0.02041727130198491 
-0.0532836504893567 
-0.3224643519773565 
-0.003381812354091118 
0.2121293792447949 
-0.0005449926748547448 
-0.03806764592996176 
0 
-0.06434630336474841 
0.05400639298611698 
0.009105573752599534 
-0.02145355691344456 
-0.0136816240112871 
0.09605949414991315 
-0.06555584655420368 
-0.1011650198400709 
0.05075809920267926 
-0.04233421293743744 
0 
-0.02671463256295653 
-0.07333840953965355 
0.09147619950486238 
-0.006946787493126764 
-0.01772987372805331 
0 
0.01852274945118371 
-0.01730578121343229 
-0.001026430889310707 
-0.0008922097585276531 
0.04913238829490572 
0.230783912079807 
-0.01082245898923789 
0 
-0.01562774945675646 
-0.6357695553325227 
-0.002696245261179895 
-0.01032969222325799 
0.04018953440060575 
-0.00120865324584363 
0.0001381164998305667 
0 
0 
0 
-0.1801819422120802 
-0.0005433182801107201 
-0.001023212720450455 
-0.0003091881180645754 
-0.05717665939937976 
-0.003116918315979054 
-0.009939397032994636 
0 
-0.001288278092181291 
-0.001026430889310707 
0.00280445598647505 
0.01910716196859635 
0.02319250399622617 
0.6911496812493815 
-0.07086040893085917 
0.007383427059654619 
0.07843818451238167 
-0.4164424864526646 
0.06744491222255319 
-0.01313211099838549 
-4.960505122155765e-05 
-0.4198413875302597 
-0.001026430889310707 
-0.001026430889310707 
-0.0001603003666654697 
-0.01376309127642396 
0.05208003367640555 
-0.0002405643317653447 
-0.02170262256465359 
-0.117511180259331 
-0.1742280306612443 
-0.06472947827943293 
-0.001756999155025171 
-0.001221593762219957 
0 
0 
0 
0.6380648998366009 
-0.04951486803266111 
-0.0006461362381381419 
-0.0006970468856184032 
-0.0198412394859579 
-0.3241430728052626 
-0.0002477281815814108 
-0.0007736461883734016 
-0.03773195420474617 
-1.180182849398723e-05 
-0.008719868544604697 
-0.001152501870957502 
0.1047909008692272 
-0.01668760521767705 
-0.1507326866852762 
-9.905179469652008e-05 
-0.01530485469216633 
-0.0264693681869394 
-0.1492157249251845 
0.04417556708719386 
-0.01059200541000848 
0.124969575287108 
0.009051421588001032 
-0.05499496269941977 
-0.007818771392868459 
-0.01383802956922602 
-0.01812839126393304 
-0.04438942523150328 
-0.0006938287167581507 
0.02015288531951195 
-0.06782537386674907 
-0.0005116063602252274 
-0.0005148245290854798 
0.0461975818489737 
-0.0008878345420945308 
-0.0002026752373791626 
0.03211468857941015 
-0.0005466670695987696 
-0.002247777977415524 
-0.01718368168151287 
-0.003648550716225498 
-0.0001822223565329232 
0.0111604937214655 
0.07485219825585011 
0 
-0.0120559429002428 
0.05947998195438597 
-0.04029038606732466 
-0.0532114942901644 
-0.00120865324584363 
-0.002569973582057177 
-0.0007769940735786386 
-0.001394093771236806 
-0.04017909013523759 
-0.1052545791758327 
-0.0015833994442222 
-0.04099142313919617 
-0.02331168565961568 
-0.0008922097585276531 
0.0360418557660152 
-0.02409732642787623 
-0.2087060522865 
-0.01966575416934208 
-0.02025923466351696 
-0.06263831192679171 
-0.001733200122445184 
-0.07258399646216394 
-0.0216723796943127 
-0.0312493082459808 
-0.03938666970704706 
-0.001931581164214687 
-0.002590453479436076 
-0.000776691793697996 
-0.0005148245290854798 
-0.0003644447130658464 
0 
0.01237009981803451 
-0.08666692224424949 
-0.001221593762219957 
-0.02091154607601955 
0 
-0.01049118721410613 
0.3590576280648066 
-0.05736945286803063 
-0.0005116063602252274 
0 
0 
-0.0001822223565329232 
0.2011814374550209 
0.2292691763059322 
-0.0005234081887192147 
-0.0136080788834102 
-0.009547300401543581 
-0.02581192860659213 
-0.009162010153761181 
0 
-0.1028992697613428 
-0.02167557736269184 
-0.0008734120422274706 
-0.0001822223565329232 
0 
-0.0008922097585276531 
-0.0006050090448311911 
0.02302970227761373 
0.0203085829024938 
0.01517684730779578 
0.02361125548216101 
-0.0003644447130658464 
0.07297005182455252 
-0.0005148245290854798 
-0.01218589719745309 
-0.1704995556147461 
-0.0002477281815814108 
-0.004995333670828899 
-0.0001822223565329232 
0 
0.01311477122222363 
-0.0007553888608508245 
0 
-0.0006938287167581507 
-0.02454043311621629 
0.01211692422778939 
-0.0005116063602252274 
0 
0.07779008386050248 
-0.0005148245290854798 
-0.1239180771524315 
-0.01506141332999997 
0 
-0.0007099874019947297 
-0.0001822223565329232 
-0.01499326595755692 
0 
-0.03461451889263688 
-0.03068855801791647 
0.04362492622729768 
-0.001152501870957502 
0.01376150314307221 
-0.00120865324584363 
-0.0007099874019947297 
-0.0008734120422274706 
0 
-0.001385018402452698 
-0.04629369954307225 
-0.0001822223565329232 
-0.007079123892468848 
-0.00616158391618647 
-0.0005116063602252274 
-0.001237856755293317 
-0.0007024929955716547 
0 
-0.05592822517202874 
-0.002319350011342083 
-0.0001822223565329232 
-0.03755188712572555 
-0.001221593762219957 
-0.0006780525659111031 
-0.0008734120422274706 
-0.0005148245290854798 
-0.0001805479617888984 
-0.0001822223565329232 
0.1457631510224691 
-0.0001822223565329232 
0 
-0.0001822223565329232 
-0.1150346905836403 
0 
-0.0008792692421513262 
-0.02638023083219799 
0.3933203700877071 
-0.01123312121892714 
0.181296846617673 
0.195266366946105 
0 
-0.02308658985315416 
-0.1375323732775957 
0 
0.05952462128224319 
-0.05148262463873056 
-0.004236703433576533 
0 
0 
0.02089439611000238 
0.006496456013642237 
-0.019797038920434 
-0.0006970468856184032 
-0.02596202738104332 
-0.05986764826671093 
0 
0 
-0.0001908866353464274 
-0.0007099874019947297 
-0.03176613990771746 
-0.0003644447130658464 
-0.003327472030861239 
0 
-0.0003817732706928548 
-0.010422039464 
-0.0005148245290854798 
0 
-0.5623378968224862 
-0.003739914929549911 
0.4110833126281852 
-0.01289304679693816 
0.03893579912832447 
0.1781036227749402 
-0.06777319501416978 
-0.001224811931080209 
-0.0005116063602252274 
-0.03089952375493868 
-0.0902087357374083 
-0.03296892728053678 
-0.1989958569285566 
-0.0005116063602252274 
-0.1845257540109559 
0.01440406167701683 
0.3186506681635726 
-0.00102964905817096 
-0.0006970468856184032 
0 
0 
-0.02842979502815996 
0.02648526643353229 
-0.3348869611652869 
-0.0007712359739636793 
-0.01526117048009967 
-0.1466911145469613 
0 
-0.04288404825361809 
0 
-0.2116638066584789 
-0.007709440740278837 
-0.001007941920140385 
0.0002984856611639368 
0 
-3.540548548196169e-05 
0 
-0.0003644447130658464 
0.1055019098831396 
-0.1078076183942973 
-0.0005148245290854798 
-0.01344120166073453 
0 
-0.001041074417987117 
0 
0 
-0.0001822223565329232 
0.05116041817282962 
-0.07347065732625158 
0 
0 
-0.0006938287167581507 
0.01798711471311474 
-0.03119546044407596 
-0.0005116063602252274 
0 
-0.1226915020883729 
-0.0006970468856184032 
-0.0008760510732910738 
1.227585595084942 
0 
-0.00138823657131295 
-0.01373108149965904 
-0.02133829755048102 
-0.001055634398760394 
-6.814535946624811e-05 
0.03434711748684308 
-0.0007304127855056185 
-0.2469836199126313 
-0.0005116063602252274 
-0.0001345298779129145 
-0.0261637951790049 
-0.001206738403283687 
-0.01660693981691895 
-0.01215861770663474 
0 
-0.0724423917405683 
0.01800892445402307 
-0.006246096553760034 
-0.02633444060774003 
0.02826971316681912 
-0.003564427339753043 
0 
0 
0.128523448714105 
-0.0005148245290854798 
0.06789528312860967 
0 
0 
-0.0006050090448311911 
-0.0001822223565329232 
-0.001236613759574196 
-0.0001822223565329232 
-0.009391601185102913 
-0.0003610959235777969 
0.2408394743756804 
-0.0005116063602252274 
-0.0005148245290854798 
0 
-0.0006938287167581507 
-0.1847806775171446 
-0.0001822223565329232 
-0.0006799651385126519 
-0.0007781327614609779 
0.0122839993920525 
0 
0.02456847808645187 
0.2399889518611305 
0 
-0.0001822223565329232 
-0.0005234081887192147 
-0.003234650706931737 
-0.03869132387006398 
-0.02963233611673429 
0 
0 
-0.003808012586132034 
0 
0.005786579485826854 
0 
-0.0001805479617888984 
-0.05270475490401722 
-0.05576197009489215 
-0.001911914532832405 
-0.0003644447130658464 
0 
-0.0006938287167581507 
-0.007360956792282086 
-0.06181355704215479 
-0.002908712103767813 
0.03029504563330442 
-0.0005116063602252274 
-0.01665160598807088 
-0.0001822223565329232 
-0.0007099874019947297 
0.01362475155818668 
-0.001119993475454685 
0 
0 
-0.0007651922450846513 
0 
-0.0006938287167581507 
0 
-0.0009287586634775398 
-0.7992947624764573 
-0.01009926211391272 
-0.01450040242991671 
-0.02759573175162425 
-0.0001822223565329232 
-0.0001822223565329232 
-0.0001822223565329232 
-0.0003167522344458377 
0.006145254794804533 
-0.0007099874019947297 
0 
-0.0001723331006404849 
-0.001055634398760394 
-7.560644545514084e-05 
0 
0 
0 
0 
0 
-0.001002280962921274 
-0.04251730032311573 
-0.0008873871091419082 
-0.0194111089896233 
-0.000511606360225226 
0.02903532562452353 
-0.0003644447130658464 
-0.0003644447130658464 
0 
-0.01571939194544087 
-0.0001822223565329232 
-0.0004989745909787609 
-0.0003644447130658464 
-0.0001822223565329232 
-0.0005797517196914756 
-0.0007099874019947297 
0 
-0.03573471544199011 
0 
0 
-0.0001822223565329232 
-0.001059817203940225 
-0.0001822223565329232 
-0.04404163966227599 
0.008143896959824759 
-0.102983541743358 
0 
0 
-0.0006938287167581507 
-0.0001805479617888984 
0.04736043398931757 
0 
0.0068575294501296 
0 
-0.02526520639036548 
-0.1444181578451427 
0 
0 
-0.002187391656534328 
-0.2943723506231464 
-0.0007099874019947297 
-0.0001822223565329232 
-0.0005116063602252274 
-0.0001822223565329232 
-0.0001822223565329232 
-0.001055634398760394 
-0.001070411245812082 
0.0335594147848916 
-0.004782667160070953 
-0.0001822223565329232 
-0.001224811931080209 
0 
-0.001651019792947054 
-0.0005816879982743755 
-0.0007099874019947297 
-0.0001822223565329232 
-0.05526552997158842 
-0.004382448715310291 
0 
0.05365196746911124 
0 
0 
-0.1023272520641993 
-0.0005148245290854798 
0 
-0.01657815818130295 
0.01844949375666433 
-0.03530647051033133 
-0.0006675134430868556 
-0.0005116063602252274 
-0.002013098146678595 
0 
-0.001942508715264381 
-0.03681830683614421 
0 
0 
-0.0007024929955716547 
-0.0103720845642467 
-3.540548548196169e-05 
-0.0004958302093781798 
-0.0008244294528805366 
-0.02907193090220404 
-0.0209671081127201 
-0.07314745115238197 
0.003281109424436466 
-0.0001865050065045255 
-0.0006938287167581507 
-0.0002223683355096441 
-0.1307136819115734 
0.02367861684411214 
0 
-0.001304831373392359 
-0.003090934460300735 
-0.0005148245290854798 
-0.0004275390813193617 
-0.001205435076983378 
0 
0 
-0.0001822223565329232 
0 
-0.0005116063602252274 
-0.1314980631816145 
0.05072160002106088 
0.03905830750592168 
-0.003938517790665757 
-0.0005797517196914756 
-0.0006938287167581507 
-0.001796858908823856 
1.941071863908556 
-0.003049153479592409 
-0.001385018402452698 
-0.0006938287167581507 
-0.0005612114114467851 
-0.001567240758985621 
-0.001444931683132191 
0.01222939933814516 
-0.01112798322501377 
-0.06811096764295416 
-0.001205435076983378 
-0.001221593762219957 
-0.001203760682239353 
-0.001541255418396187 
-0.0005116063602252274 
-0.0005116063602252274 
-0.0005116063602252274 
-0.0229168222458258 
-0.08603726839079039 
-0.01607684416738549 
-0.001705922356156333 
-0.001058273429823997 
-0.0006938287167581507 
-0.0006938287167581507 
-0.002049643609761163 
-0.001567240758985621 
-0.003866599477550834 
-0.0006938287167581507 
-0.0005116063602252274 
-0.001026430889310707 
-0.01536789814942701 
-0.0210763842696426 
-0.0008760510732910738 
-0.003659915822804134 
-0.0005116063602252274 
-0.001221593762219957 
0.01390736856153033 
0.0458842277761034 
-0.006748919096001259 
0.02068042402697484 
-0.001205435076983378 
-0.001023212720450455 
-0.0006938287167581507 
-0.001221593762219957 
-0.0006478970791577237 
-0.001026430889310707 
-0.09541539013744033 
0.03509741676461199 
-0.0005116063602252274 
-0.001205435076983378 
-0.0008727022838030241 
0.04068008834019837 
-0.0006938287167581507 
-0.1245909967740681 
-0.00140381611875288 
0.01500368973273381 
-0.05015849333174147 
-0.0008760510732910738 
-0.001026430889310707 
-0.002248024651530664 
-0.001026430889310707 
-0.0008760510732910738 
-0.0006938287167581507 
-0.001324188804049245 
-0.0006938287167581507 
-0.0006938287167581507 
-0.00161798443749617 
-0.0005116063602252274 
-0.00168548913551451 
-0.000756600648101026 
-0.005331960060762536 
-0.0006938287167581507 
-0.0008760510732910738 
-0.001023212720450455 
-0.001538037249535934 
-0.0005116063602252274 
-0.0005116063602252274 
-0.0005116063602252274 
-0.001577629834088397 
-0.0006938287167581507 
-0.0005116063602252274 
-0.01033985387518643 
-0.001026430889310707 
-0.0006921543220141258 
0.07913713821560839 
-0.00487866657136258 
-0.0006938287167581507 
-0.0005116063602252274 
-0.0005116063602252274 
-0.001999096988359767 
-0.002082065288071101 
-0.0005116063602252274 
-0.001205435076983378 
-0.001221593762219957 
-0.0005116063602252274 
-0.001058273429823997 
-0.0005116063602252274 
0.03928384228233327 
0.03414999457205636 
-0.0005116063602252274 
0.1110378614633414 
-0.001160960767223621 
-0.06310231812634244 
-0.0006478970791577237 
-0.03707490454164074 
-0.0005116063602252274 
-0.0005116063602252274 
-0.007201350458777386 
-0.3894287086606412 
-0.1287143084691787 
-0.01064867004723585 
-0.0005116063602252274 
-0.0006938287167581507 
-0.0009441964327573221 
0.04970047057449186 
-0.0005116063602252274 
-0.07379471882329537 
-0.0005116063602252274 
-0.0007550772887271003 
0.006044975759051315 
-0.001217317524657134 
-0.0008760510732910738 
-0.0005116063602252274 
-0.00168548913551451 
-0.001385018402452698 
0.03106591277845813 
-0.009289055621113805 
-0.04426737377292828 
-0.0008808034663121677 
-0.0006341035041631268 
-0.0006106581549217474 
-0.0006938287167581507 
-0.001720259606068858 
-0.002582179634528602 
-0.0005116063602252274 
-0.001205540158996447 
-0.1990408332719121 
-0.00120865324584363 
-0.001026430889310695 
-0.0006938287167581507 
-0.0005116063602252274 
-0.0006938287167581507 
-0.0005116063602252274 
-0.001198861192940389 
-0.0005116063602252274 
0.03432954549928028 
-0.001205435076983378 
-0.0005116063602252274 
-0.1906726347487463 
-0.001205435076983378 
-0.001189658926136331 
-0.0006938287167581507 
0.05124641254065079 
-0.0005116063602252274 
-0.0005116063602252274 
-0.07172960140986467 
0.01708239946268674 
-0.0005797517196914756 
-0.0008760510732910738 
-0.0005116063602252274 
-0.0005116063602252274 
-0.001385018402452698 
-0.01921389499669036 
-0.001026430889310707 
0.8309067761903234 
-0.001567240758985621 
-0.001736418291305437 
-0.0005116063602252274 
-0.001160960767223621 
-0.0008855558593332616 
-0.0006106581549217474 
-0.001385018402452698 
-0.0008760510732910738 
-0.0006938287167581507 
-0.001023212720450455 
-0.001094576248776955 
-0.0005116063602252274 
-0.04686119902828071 
-0.0005116063602252274 
-0.001026430889310707 
-0.0009410323909523245 
-0.001385018402452698 
-0.0008301194356906468 
-0.0005116063602252274 
-0.004416304169772829 
-0.0006341035041631268 
-0.0006938287167581507 
-0.001058273429823997 
-0.0006938287167581507 
0.1965357720393285 
-0.0005116063602252274 
0.08529408475762081 
-0.001023212720450455 
-0.001007062723388049 
-0.118766684269867 
-0.001132648066280106 
-0.03773556879992039 
-0.002226869444637384 
-0.001885282950764901 
-0.00120865324584363 
-0.0005116063602252274 
-0.00120865324584363 
0.006774156349054005 
-0.0009343930485234954 
-0.001349495947931322 
-0.001163285906734798 
-0.0008760510732910738 
-0.001221593762219957 
-0.0005116063602252274 
-0.08478674647381546 
0.02558548875363972 
-0.00120865324584363 
-0.0005116063602252274 
-0.009040365155088416 
-0.0005494095829527978 
-0.001053250245591922 
-0.0008760510732910738 
-0.0005116063602252274 
0.05053817460584051 
0.007096021593797798 
-0.01850975908642425 
-0.001385018402452698 
-0.0006938287167581507 
-0.0255553782786133 
-0.001221593762219957 
-0.001221593762219957 
-0.03712024941196791 
-0.001064234112038277 
0.1253086355855038 
-0.001026430889310707 
-0.001385018402452698 
-0.001007436569603407 
-0.001023212720450455 
-0.0005116063602252274 
-0.09695998365488143 
-0.0005116063602252274 
-0.111625302077806 
-0.000705630545252138 
-0.00081632586069605 
-0.05624466865934472 
-0.01672751312447569 
-0.0005116063602252274 
-0.0005116063602252274 
-0.0005116063602252274 
-0.000572854932194177 
-0.0005116063602252274 
-0.001664108231182729 
-0.1119836470741567 
-0.0006938287167581507 
-0.0005116063602252274 
-0.0005116063602252274 
0.02773831843368088 
-0.04879256839150216 
-0.0006938287167581507 
-0.001221593762219957 
-0.003330733302891801 
-0.0006938287167581507 
-0.000705630545252138 
-0.0005116063602252274 
-0.0008283585946710652 
-0.0318660703298985 
-0.0005116063602252274 
-0.00317297976364905 
-0.0005116063602252274 
-0.0005116063602252274 
-0.002053170525751275 
-0.001390875602376553 
-0.01688264443726398 
-0.0005116063602252274 
-0.001385018402452698 
-0.001733200122445184 
-0.0006938287167581507 
0.02405687172622664 
-0.0006938287167581507 
-0.00120865324584363 
-0.001009177750418572 
-0.001026430889310707 
-0.0006938287167581507 
-0.002773254973765649 
-0.0005116063602252274 
-0.002694841418576052 
-0.0005116063602252274 
-0.0005116063602252274 
-0.000572854932194177 
-0.06977632086976379 
-0.0006938287167581507 
-0.0005116063602252274 
-0.0005116063602252274 
-0.0008760510732910738 
-0.001026430889310707 
-0.0005116063602252274 
-0.0005116063602252274 
-0.02420854690806298 
-0.00140381611875288 
-0.001538037249535934 
-0.01111539296926734 
-0.00140381611875288 
-0.0007704280195131492 
-0.06840332542009905 
0.006999495377865251 
-0.0006938287167581507 
-0.0005116063602252274 
-0.0006938287167581507 
0.06795427834356385 
-0.0005116063602252274 
-0.0005116063602252274 
-0.003679290589736107 
-0.007435631274209665 
-0.0118200300340224 
-0.009403145339808631 
-0.0005116063602252274 
-0.001026430889310707 
-0.0008797179107475764 
-0.262503095560671 
-0.0006938287167581507 
-0.05983559269028875 
-0.001587693639831861 
-0.0006938287167581507 
-0.001318785627702714 
-0.0005116063602252274 
-0.0005116063602252274 
-0.0009415568983395613 
-0.0006478970791577237 
-0.006075189825881334 
-0.0005116063602252274 
-0.001007436569603407 
0.01172755184135117 
-0.0005116063602252274 
-0.002072980682968314 
-0.002258430444680168 
-0.0006478970791577237 
-0.001026430889310707 
-0.001733200122445184 
-0.09990395447154196 
-0.0005116063602252274 
-0.05931920216049498 
-0.0006938287167581507 
-0.0007619740762243989 
0.09328026772042532 
-0.001567240758985621 
-0.001050034546298681 
-0.001023212720450455 
-0.0006938287167581507 
-0.0006938287167581507 
-0.0006938287167581507 
-0.00120865324584363 
-0.006227136448118555 
-0.04399508507226455 
-0.007324216895189244 
-0.0005116063602252274 
-0.002261069475743772 
-0.0009410323909523245 
-0.0006938287167581507 
-0.0006938287167581507 
-0.0006938287167581507 
-0.000617554942419046 
-0.001451327165562213 
-0.04274701432198406 
0.1343261470146731 
-0.00275641284289564 
-0.1112250138165871 
-0.00140381611875288 
-0.0005116063602252274 
-0.001023212720450455 
-0.000705630545252138 
-0.001402141724008855 
-0.0005116063602252274 
-0.0005116063602252274 
0.02611953455060464 
-0.001541255418396187 
-0.0008741013868758501 
-0.4486255398901552 
0.03743210460807738 
0.01058451988754089 
-0.0005116063602252274 
-0.0006938287167581507 
-0.001402677430870541 
-0.01078329936167828 
0.01113598934419031 
-0.04930008742811322 
-0.001285252548598628 
-0.001038232717804694 
-0.0005116063602252274 
-0.04513484800445669 
-0.004017045157053484 
-0.002049643609761163 
-0.001341989185675539 
-0.1489531032740935 
-0.0005116063602252274 
-0.001503266778981587 
-0.01491187064791204 
-0.0005797517196914756 
-0.001205435076983378 
-0.006891801927247182 
-0.001385018402452698 
-0.01812813923514248 
-0.0005116063602252274 
-0.0006938287167581507 
-0.001221593762219957 
0.06649932805282478 
-0.3859565865255891 
-0.002558031801126137 
-0.001026430889310707 
-0.003206447778801279 
-0.0006478970791577237 
0.08118900434818883 
-0.001896624762677925 
-0.00120865324584363 
-0.0005116063602252274 
-0.001026430889310707 
-0.00140381611875288 
-0.001023212720450455 
-0.0006938287167581507 
-0.0005116063602252274 
-0.001221593762219957 
-0.002792052690065831 
-0.002552833657049369 
-0.0005116063602252274 
-0.1744488924481204 
-0.00140381611875288 
-0.0007619740762243989 
-0.1227039851997132 
0.1124474865395933 
-0.0005116063602252274 
-0.0008760510732910738 
-0.0006938287167581507 
0.05741723558359698 
-0.0005116063602252275 
-0.001519042929828635 
-0.001455856920037804 
-0.0005116063602252274 
-0.001038232717804694 
-0.0007142815976043901 
0.1211162554777232 
-0.0006938287167581507 
-0.05005467190868384 
-0.001899842931538177 
-0.07759828300066189 
-0.001899842931538177 
-0.0005116063602252274 
-0.0008760510732910738 
-0.0005116063602252274 
-0.0005116063602252274 
-0.0005116063602252274 
-0.0008741013868758501 
-0.001026430889310707 
-0.0006938287167581507 
-0.0005116063602252274 
-0.001026430889310707 
-0.002277228160980351 
0.02946345914001184 
-0.001026430889310707 
-0.001396820230946685 
-0.001026430889310707 
-0.00140381611875288 
-0.002142516851256761 
-0.001026430889310707 
-0.001026430889310707 
-0.0006938287167581507 
-0.0005116063602252274 
-0.0005797517196914756 
0.05868667096230811 
-0.02099790622273009 
-0.2603522014247856 
-0.0006341035041631268 
-0.001899842931538177 
-0.000659698907651711 
-0.0007316319394857212 
-0.0006938287167581507 
-0.003053739936014152 
-0.0005116063602252274 
-0.0005116063602252274 
-0.06054382401784557 
0.136151618857171 
-0.002204970734394766 
-0.001164178936083874 
-0.0006970468856184032 
-0.001544473587256439 
-0.001211871414703883 
-0.001459075088898057 
-0.00102964905817096 
-0.002117021689607862 
-0.00138823657131295 
-0.0005148245290854798 
-0.009968232713815762 
-0.001544473587256439 
-0.006602202066735976 
-0.0008163206556801346 
-0.0008792692421513262 
0.01647650876495858 
-0.003212884116521784 
-0.0007838842849113088 
-0.001739636460165689 
-0.0005148245290854798 
-0.01070379480676401 
-0.03241682500734267 
-0.04412308581480383 
-0.001570458927845873 
-0.0006970468856184032 
0.008880653189331133 
-0.0005148245290854798 
-0.0006970468856184032 
-0.0005148245290854798 
-0.1804362259590828 
-0.00241788562948391 
-0.001487086258722385 
-0.001211871414703883 
-0.0006970468856184032 
-0.00190306110039843 
-0.001934799333074939 
-0.0011264729163455 
-0.0008792692421513262 
-0.0005148245290854798 
-0.0006493544069983943 
-0.001407034287613132 
-0.0006970468856184032 
-0.00102964905817096 
-0.0005904309745406207 
-0.0006970468856184032 
-0.001224811931080209 
0.01019923109021034 
-0.00102964905817096 
-0.00190306110039843 
-0.03896797917740633 
-0.004470933657451298 
-0.3065365361908927 
-0.001544473587256439 
-0.0005148245290854798 
-0.0005148245290854798 
-0.0005148245290854798 
-0.0005148245290854798 
-0.0005526277518130503 
-0.0005148245290854798 
-0.001544473587256439 
-0.0005760731010544294 
-0.02711404185711856 
-0.0005148245290854798 
-0.0005148245290854798 
-0.001211871414703883 
-0.0485840228960742 
-0.0006970468856184032 
0.01674085308374496 
-0.01618212257187771 
-0.09261249757611342 
-0.0005148245290854798 
-0.4266401571963476 
0.1973645816356154 
-0.01011763316726635 
-0.0005148245290854798 
-0.001394093771236806 
-0.0005148245290854798 
-0.0006970468856184032 
-0.0006970468856184032 
0.02718075109505562 
-0.001530088604829814 
-0.0005148245290854798 
0.003775132802172675 
-0.00106745228089853 
-0.07575584852600056 
0.005825481777939169 
-0.03004481337169978 
-0.0008792692421513262 
-0.0008792692421513262 
-0.0005148245290854798 
-0.001407034287613132 
-0.1293241234375331 
-0.002424824848847046 
-0.0006970468856184032 
-0.0006970468856184032 
-0.005788672774516702 
-0.002261648613540421 
-0.001211871414703883 
-0.0006970468856184032 
-0.0006970468856184032 
-0.001525479267549139 
-0.1915880599105534 
-0.0008792692421513262 
-0.0005148245290854798 
-0.0006970468856184032 
-0.004380112619542822 
0.05709091276319365 
-0.00102964905817096 
-0.001224811931080209 
0.02857951062309025 
-0.0005148245290854798 
-0.00102964905817096 
-0.00102964905817096 
-0.0005148245290854798 
-0.00659164813498413 
-0.0005148245290854798 
-0.001211871414703883 
0.04438780862597612 
-0.001739636460165689 
-0.005414851949644976 
-0.0005148245290854798 
-0.0006970468856184032 
-0.1085507952757166 
-0.01709298271038842 
0.01093590620736352 
-0.0005148245290854798 
-0.2150589973008254 
-0.0005148245290854798 
-0.0005148245290854798 
-0.0005148245290854798 
-0.0005148245290854798 
-0.001701749008616639 
0.02964837448916743 
-0.00102964905817096 
-0.00287572719944749 
-0.007017357545635206 
-0.0005148245290854798 
0.02514230908894008 
-0.0006970468856184032 
-0.00138823657131295 
-0.002299451836267992 
-0.0005148245290854798 
-0.0006970468856184032 
-0.0006970468856184032 
-0.0005148245290854798 
-0.003142068123402863 
-0.0006970468856184032 
-0.001394093771236806 
-0.01691257117466828 
-0.0005148245290854798 
-0.0005148245290854798 
-0.05797285453771926 
0.08052469654419614 
-0.001488861004306651 
-0.001631707499814823 
0.02775908343913751 
-0.0005148245290854798 
0.07207155098802051 
-0.001570458927845873 
0.03173487878886504 
-0.0005148245290854798 
-0.004518961738212373 
-0.00102964905817096 
-0.01984561287878131 
0.07402145418735813 
-0.0006970468856184032 
-0.0005148245290854798 
-0.0008792692421513262 
0.01500047156387356 
-0.001570458927845873 
-0.02578003091945096 
-0.0005148245290854798 
-0.0005148245290854798 
-0.001211871414703883 
0.1048673902132651 
-0.002564036783505948 
-0.01142810956146281 
-0.0005384281860734544 
-0.00102964905817096 
-0.07606690231381197 
-0.0005148245290854798 
-0.0351669046756532 
-0.0007769940735786386 
-0.1017389272130239 
-0.0006970468856184032 
-0.0006970468856184032 
-0.001509023511510576 
-0.006724526080548087 
-0.01248248572877994 
-0.0006970468856184032 
-0.0005148245290854798 
-0.00101065473846366 
-0.1624391979005656 
0.007843359833146322 
-0.0006970468856184032 
-0.0005148245290854798 
0.1181744750018587 
-0.0006493544069983943 
-0.001544473587256439 
0.02557577060023539 
-0.0005148245290854798 
-0.08630255764360725 
-0.0402900647274765 
-0.001192877094996583 
-0.0006970468856184032 
-0.02770194876174499 
-0.000979669310957801 
0.02975743191778883 
-0.1739742820407038 
-0.0008997221229975657 
-0.0005148245290854798 
-0.0008792692421513262 
-0.001570458927845873 
-0.0008210673889302283 
-0.002098223973307681 
0.01303687377348952 
-0.002002315157220019 
-0.000582969888551728 
-0.0005148245290854798 
-0.0005148245290854798 
-0.009682808862534425 
-0.0005148245290854798 
-0.001544473587256439 
-0.0006970468856184032 
-0.0005148245290854798 
-0.001407034287613132 
-0.02951498561949318 
-0.02426990711115061 
-0.00101065473846366 
-0.001211871414703883 
-0.0005148245290854798 
-0.0008792692421513262 
-0.00190306110039843 
-0.001407034287613132 
-0.0005148245290854798 
-0.0006970468856184032 
-0.0005148245290854798 
-0.001407034287613132 
-0.0005148245290854798 
-0.0005526277518130503 
-0.01139956572677485 
-0.0006970468856184032 
-0.0005148245290854798 
-0.0006970468856184032 
-0.00138823657131295 
-0.0005148245290854798 
-0.0007192606074842241 
-0.0006953724908743782 
-0.0005148245290854798 
-0.0008315767635313176 
-0.0006493544069983943 
-0.003604039946188762 
-0.001145184616376574 
-0.1693627672777695 
-0.0007625527106668905 
-0.0006970468856184032 
-0.0710771465519122 
-0.06604479842517705 
-0.0005148245290854798 
-0.0008792692421513262 
-0.006569413293048047 
-0.0005148245290854798 
-0.00138823657131295 
-0.0005878749295484167 
-0.02521409185767443 
-0.0005148245290854798 
-0.02302613643699152 
-0.0008792692421513262 
0.01718521704728838 
-0.0005148245290854798 
0.008269353046605428 
-0.0005148245290854798 
-0.0005148245290854798 
-0.0006970468856184032 
-0.0005148245290854798 
0.02932172596238109 
0.2451384214689419 
-0.007680783689826846 
-0.0005266263575794671 
-0.0008792692421513262 
-0.0005148245290854798 
-0.0008216875076388793 
-0.0008315767635313176 
-0.003086044251676648 
-0.0005148245290854798 
-0.002164887191479194 
-0.0008792692421513262 
-0.0005148245290854798 
-0.03228096443680294 
-0.01621346658998895 
-0.01873226277989337 
-0.0005148245290854798 
-0.2933058026587734 
-0.04913743141111799 
-0.003141728589941846 
-0.0005148245290854798 
0.127621573087226 
-0.001001766386089226 
-0.00126261515380778 
-0.0005148245290854798 
0.022056898502679 
-0.0005148245290854798 
-0.0006970468856184032 
-0.001292957290546457 
0.06185814254452217 
-0.0005148245290854798 
-0.0005148245290854798 
-0.001570458927845873 
-0.0005148245290854798 
-0.0005148245290854798 
-0.0005148245290854798 
-0.001720642140458389 
-0.0005148245290854798 
-0.00138823657131295 
0.007258775382362699 
-0.0005148245290854798 
0.2737993255550796 
-0.003972092572385061 
-0.0005148245290854798 
-0.0008792692421513262 
0.01640993301382328 
-0.0005148245290854798 
-0.0005148245290854798 
-0.0006970468856184032 
-0.0007582954575873528 
-0.01732618106510137 
-0.0005148245290854798 
0.04780914161113831 
-0.001224811931080209 
-0.0006282341972681911 
-0.0008792692421513262 
-0.03340934262890547 
-0.0005148245290854798 
-0.03655900114478163 
-0.0008792692421513262 
-0.0005148245290854798 
-0.0006970468856184032 
-0.0005148245290854798 
-0.001570458927845873 
-0.0005148245290854798 
-0.02123632942789316 
0.055266413032159 
-0.001224811931080209 
-0.0005148245290854798 
-0.0005148245290854798 
-0.1291406284086493 
-0.0005148245290854802 
-0.0005148245290854798 
0.007112376559971769 
-0.01919631448898058 
0.07365846206244339 
-0.001224811931080209 
-0.0006970468856184032 
-0.001395963134367996 
-0.0005266263575794671 
-0.0005148245290854798 
-0.0006970468856184032 
-0.02042970839779156 
-0.0006970468856184032 
-0.0005148245290854798 
-0.0005148245290854798 
-0.0006970468856184032 
-0.007071862851361294 
0.05611830949199845 
-0.001817486153794031 
-0.0007088487141123904 
-0.0005148245290854798 
0.06235683264754308 
-0.008364145559537215 
-0.06901586459864535 
-0.00211813333510186 
-0.1070175440560662 
-0.001224811931080209 
-0.0008792692421513262 
-0.0006970468856184032 
0.01811521088751865 
-0.0005148245290854798 
-0.0005148245290854798 
-0.002443870970073344 
-0.003540968899728918 
-0.001224811931080209 
-0.001061704156783557 
-0.004749508969780889 
-0.0005148245290854798 
-0.0005148245290854798 
-0.1491829203719915 
-0.0005148245290854798 
-0.006088866113161495 
0.09976054631236871 
-0.0005148245290854798 
-0.00138823657131295 
-0.001211871414703883 
-0.003350607914377713 
-0.1499211574742074 
-0.00138823657131295 
-0.0590947906771677 
-0.03508493026680334 
-0.0005148245290854798 
-0.001541564165526047 
-0.01976644846770277 
-0.001347309075018108 
-0.0005148245290854798 
-0.001192877094996583 
-0.001570458927845873 
-0.0006970468856184032 
-0.0005148245290854798 
0.03742888643921714 
-0.0005148245290854798 
0.03050014085632647 
-0.0006138763237819999 
-0.06793938638047202 
-0.0006970468856184032 
-0.007628647437581133 
-0.1160772801581875 
-0.0005148245290854798 
-0.0005384281860734544 
-0.0005148245290854798 
-0.001570458927845873 
-0.00295316345372804 
0.06864413677610115 
-0.0005148245290854798 
-0.001224811931080209 
-0.005000854207784236 
0.00994563871028644 
-0.0006970468856184032 
-0.00102964905817096 
-0.03149674965358128 
-0.0006970468856184032 
-0.0005148245290854798 
-0.0005148245290854798 
-0.0005148245290854798 
-0.02843579974181019 
-0.0006373216730233793 
-0.01169918784599659 
-0.0006970468856184032 
-0.0005148245290854798 
-0.0005148245290854798 
-0.0008792692421513262 
-0.002131175039343737 
-0.0005148245290854798 
-0.0006970468856184032 
-0.001628800903078295 
-0.006698642203654451 
-0.0006970468856184032 
-0.0006970468856184032 
-0.0006970468856184032 
-0.05350118784879147 
-0.0005148245290854798 
-0.00138823657131295 
-0.001506484947841839 
0.00933851513200149 
-0.08868729115471519 
-0.0446593414122465 
-0.02820393542782382 
-0.04642268806351744 
0.1522591153035601 
-0.0943058304025112 
-0.004584635407124396 
-0.09550448999589496 
0.05311155796103343 
-0.0221260185491612 
-0.01182111654130038 
0.1300469711532673 
-0.009109376317846819 
-0.05561900591495612 
-0.02246592890320787 
-0.01933358025138356 
-0.03104891951924578 
0.7494119669680751 
0.1289480466812153 
0.03421489975457417 
-0.2016493605387194 
-0.8348455377447871 
-0.09082207618941206 
-0.009109376317846819 
0.3011502254186412 
-0.00959050498137751 
0.02839886963246971 
-0.01821875263569364 
-0.203839769641997 
-0.009548745938923643 
-0.01821875263569364 
0.09918274454150507 
-0.04248482907185411 
-0.02633780496194463 
-0.002035083138346451 
-0.0275569166190523 
-0.01233611386352114 
-0.007399089129150286 
-0.01909542216198889 
-0.01945986687505474 
-0.004027439695447409 
0.03835379145872381 
0.03688689049777059 
-0.03478444955463488 
-0.07278941800466843 
-0.007646817310731697 
-1.478729689605968 
-0.08018768182180039 
0.1641951689740622 
-0.1922997189715704 
-0.1202815227327006 
-0.1716777955186246 
-0.03711982603093819 
0.03560902312483723 
0.0164287533491681 
-0.06260373195652201 
0.0004649533871862546 
0.05129484556297959 
-0.0587786432733018 
-0.0004423393823911752 
0.001448125852342449 
0.106907093104353 
-0.06761954482364799 
-0.02730663958874712 
-0.0181947849269417 
-0.2857037038111285 
-0.03498863657300788 
-0.01445722753398759 
0.2900983539331736 
-0.4263739695627281 
0.1579616246589154 
-0.007145494998694328 
-0.0878974707286635 
2.032715874271362 
-0.07170296487927669 
0.02167190783407302 
0.05388316318110541 
0.4115564969366597 
0.1609263028244753 
-0.006954608363347901 
0.1068475361316546 
-0.006954608363347901 
-0.001949061644920736 
-0.2126914170151234 
-0.02650826026756993 
0.1824003129924907 
0.2822219219284355 
0.06960649719580336 
-0.3985165696490189 
-0.01282676620193523 
0.006975049675056787 
0.006759600268791022 
0.006759600268791022 
0.006759600268791022 
0.006759600268791022 
-0.09143776719916318 
0.006759600268791022 
-0.002799667385607977 
0.006759600268791022 
0.06599241614504883 
0.006759600268791022 
-0.02448160222901282 
-0.05320631497636477 
-0.002851837539456705 
-0.0060221084177073 
-0.002034429570227945 
0.07236690864069757 
-0.2684693461356133 
0.2080662023686207 
0.0001723770309363117 
-0.003342237432318044 
-0.1305202933800771 
0.002315581782499614 
-0.04301813792977505 
0.4901262914677738 
-0.04101693781075975 
-0.04291304348063221 
-0.0100466074921258 
-0.04505818895490462 
0.08021824047388432 
0.0532454332984378 
-0.05114398671003721 
-0.02223560468471774 
-0.03284681251692707 
0.00507018249217636 
-0.004110366298542579 
-0.2393405666003025 
-0.06354475000105163 
-0.3866110127753056 
-0.09521161979766202 
0.03610979462547442 
-0.1810932278631711 
-0.06101770418353351 
-0.01679887408479753 
0.01840717569988728 
0.01822020095033327 
-0.007493814011132952 
-0.003799100596609545 
0.01770252728344941 
0.001766223703628915 
-0.04776408684818574 
-0.01483988652892888 
-0.09530667325789656 
0 
-0.03238316107532391 
-0.01736801417018033 
-0.2423265586348097 
-0.01499761347993925 
0.01459351906137595 
0.254167187325324 
0.1700840066572447 
-0.0748718338095027 
-0.0211818519046226 
-0.08196908180129217 
0.001008375016047293 
-0.8066118242333233 
-0.04236370380924521 
-0.05539038784329866 
-0.02874577630822 
-0.03819510140543698 
0.00409497790619732 
-0.1233705478860826 
-0.03228962292487503 
-0.001401165922353511 
-0.05234573922830429 
-0.006380195567021955 
0.3762981278623843 
-0.1506628826421297 
-0.2078868582051354 
0.08494892722299369 
0 
0.03411516744297394 
0.00843761762092499 
-0.05772251332103287 
-0.04612673526705248 
-0.07527262863851587 
-0.08793136536140336 
-0.02886125666051644 
0.0983860180985113 
0.01163790730950892 
0.08019027455727804 
-0.09348806980502573 
-0.03026360376586955 
-0.020536198425749 
-0.01662308902888994 
-0.01749490684123644 
-0.1706962744518186 
0.01058690340689505 
-0.01796405998935099 
-0.0138081598683474 
-0.008311544514444972 
-0.01776978332531702 
0.001695412405799824 
-0.0923669430751206 
0.04849515214396326 
0.0565245321614004 
-0.003480837877961502 
0.7253490943681942 
0.02623587361285961 
-0.03894666011691432 
0.02298119032277358 
-0.01543512838617129 
0.1047122033509715 
-0.04585998634884876 
-0.5890050229073094 
0.004624618726110535 
-0.04110513374313234 
0.01454585422884527 
-0.2602202932099528 
-0.0150343602465098 
-0.08208467120864399 
-0.08208467120864399 
0.2219427752379956 
3.873201168807054 
-0.0075171801232549 
0.1621159982656107 
-0.05027655946741472 
-0.01675885315580491 
0.0520114623531797 
-0.009713125006287017 
-0.01675885315580491 
-0.1885284685595646 
-0.02553506304733661 
-0.03395889845735705 
-0.01675885315580491 
0 
0.03587138456426908 
-0.07645957203430914 
0 
-0.7603545719159097 
-0.1756288749045397 
-0.1444445827957744 
-0.1444445827957744 
0.1597063290894448 
0.3435820703892571 
0.207178899907056 
0 
-0.6141640555017107 
-0.09646904272976675 
-2.281064182950234 
-0.3006629825682505 
0.03540905463092769 
0.2749553984291134 
-0.1962509768277769 
0.04202852185190115 
-0.3902930362620918 
0.03952796326271032 
-0.0357636516072968 
-0.04858869458304438 
0.1316898791849071 
-0.05448241792125411 
-0.03752799909082863 
-0.1656829042704526 
-0.03752799909082863 
-0.103636760316969 
0.05641076568557429 
0.2277440961078095 
0.05663313402108392 
-0.2106018840382761 
-0.006502533016549726 
-0.2182954688743319 
-0.03159289503239221 
-0.05526473339734284 
-0.2213631583503494 
0.05150698810909841 
0.05970682734537554 
-0.1651208251872972 
0.02229936329543485 
-0.004482706617893662 
-0.01612264561595483 
0.0408941238328714 
0.005077166608402842 
0.07580613932736349 
-0.01573579413367687 
-0.2684714809724046 
6.59502713314806e-05 
-0.02312729353436553 
-0.02948903763619452 
0.2050405242700832 
-0.01739002163556968 
-0.04131994040016508 
0.03563806755694043 
-0.001556875107893869 
-0.01399673131112461 
-0.1156457351086549 
-0.04390411850284915 
-0.04408634085938207 
-0.04390411850284915 
-0.06065423854266098 
0.07709834269665373 
-0.07131530595648754 
0.05481182761115697 
-0.05340370036011751 
-0.01213084770853219 
-0.01213084770853219 
0.0188025855731065 
-0.07709428630158083 
0.03031643334315863 
