solver_type L2R_L2LOSS_SVC_DUAL
nr_class 2
label 1 -1
nr_feature 38525
bias -1
platt's -16.50751380175857 4.264589388560733
w
0 
0.03611015691372959 
0.03823919841432134 
0.1219012965355629 
0.001528260167292506 
-0.7281640516377517 
3.809085879687985 
1.002381195258967 
0.1759189037031038 
0 
0.005165316845120027 
0.02533067012476247 
0.00468844760847099 
0.005546687027676462 
-0.03473627057027209 
-0.3133224513675166 
0.09561270912866225 
-0.02851952026945713 
0 
0.06409516225130575 
0.08476345569952788 
0.0192887708024267 
0.05219122138041899 
0.9331737774173413 
0.319513465891846 
-0.169042623801559 
0.730568917510231 
0 
0.01915606507898257 
-0.006549577259430074 
0.007048232985632885 
0.2759043952732264 
-0.01343810970454214 
0.3823472035342558 
0.6912698971106118 
0.2832955956786758 
0.09962495475773932 
0.4916748344662851 
0.4073875727560934 
0.4064481268979021 
0.2238737766284197 
0.1146732617624509 
-0.01969914493885483 
-0.01691454247561504 
0.34320504465617 
1.306817406786176 
0.1337287189870357 
0.4463865561238559 
0.2313655851461599 
-0.03456019404745016 
0.3131415175759915 
0.1150463083109178 
0.3736615581298206 
0.01975528275390303 
0.03316885537291146 
0.1818887481964906 
0.6741240281572907 
0.1158182183371985 
0.192331736704809 
0.03698083628088934 
0.04957927535394451 
0 
-0.09468546591249909 
0.3298657105627651 
0.2863926944115825 
0 
-0.1736621788899406 
0.01013351098935113 
0 
0.002417327150278125 
0.1202562509058164 
0.2081946160834814 
0.002383886373572343 
0.1949863917077368 
0.2466486316234384 
0.6186586077444558 
0.6446510022815045 
-0.03857180614565708 
0.3161031598998397 
0.1400549359456934 
1.342636234285382 
0.06584692663429791 
0.4253532994650895 
0.1563854935226104 
0.1802653779198755 
0.1484212729186342 
0.008010287947960942 
-0.007432179119973565 
-0.005903802501784518 
0.8475332067817523 
0.002769135117231096 
-0.02293117469924207 
0.3800485592090884 
0.02296893380974085 
0.1702087437745363 
0.3761018410735161 
-0.2333335367956364 
0.01095707193877475 
0 
0.0227835511510221 
-0.03854928232577125 
0.2332770443051232 
0.1806307512659401 
0 
-0.2921539875981549 
0.3088722404631944 
0 
0 
0.2183404637193562 
0.6567548456342438 
-0.05124911764049767 
-0.01675722725496693 
0.1827631447785385 
0 
-0.06009377993002814 
0 
0 
0.5279019976556565 
0.2209074431929422 
0.3342651135948584 
0 
2.657049234058531 
0.06438350481474098 
0 
0 
0.492831735825116 
0.03969364721007471 
-0.2453088404336603 
0.001721772281706675 
3.606685035925679 
0.3727594109796876 
-0.03790483849362701 
-0.1904472476485494 
0.08592993148572321 
1.109180043261653 
0.001403587671415864 
0.7001496084979296 
1.141487163881683 
0.1726008357986818 
0.01301480290713934 
0.3632253013806827 
0 
0.04772346178459836 
0.2235078253937064 
0.001548897433843578 
0.134032049464697 
0 
-0.1043427894368597 
0.1101002826928718 
0.08129686224632882 
1.92334415030094 
0.5177287671468115 
0 
0 
-1.052024852454131 
0 
0.2255182134250414 
0.04487685675644405 
-0.1056980705714379 
0.4201598286466862 
0.3139664910030457 
0.203262279956004 
0 
0.01811794741348973 
0.9347963491860902 
0 
0 
0.1265276385334754 
0.008085268930014339 
0 
-0.2610616368945937 
0.002597052893509256 
-0.02464803188940131 
-0.05268082702491645 
-0.06221929260593934 
0.238126880928886 
0.3605470142397053 
-0.05118333865440682 
0.0008608861408533377 
0.07718672761102226 
0.1170351045320222 
0.1994761412140126 
0 
0 
0.009518752344179425 
0.1566939672586676 
0.6713972569488494 
0.4532493584122887 
0.02851146788833583 
0 
0 
0 
-0.02266661059647499 
0.392413505304984 
0.5279108788945217 
0.2458363402001797 
0.02148508413001069 
0.1929354890007043 
0 
0 
0.1748952552343931 
-0.005406366145959313 
0.01072732583466351 
-0.0299937202225497 
0.1098250271225909 
0.008278424546216407 
-0.08077299344929047 
0.08902177628701838 
-0.1256506990963031 
0.0002036346094425375 
0 
0.006454188265099416 
0.01154346982313747 
0.0003888001756599806 
0.1664117652986388 
0.216015072465516 
1.174606874803673 
0.3942743769173526 
0 
0.06259587311779732 
0.1684895141975587 
-0.07656031529631138 
0.09949481582278993 
0.107576373607338 
0.001039558168560345 
0.04585183671493322 
0.006924068670402824 
0 
0.600901642848518 
-0.08164947596579822 
0.3400640779607127 
0.3870587801369079 
0.8851430266737907 
1.422234457834901 
0.03191099186096123 
0.129183959541364 
0.526806141497335 
0.1478488843740871 
0.1758371745779478 
0 
0.009889955581407386 
0 
0.2151103291168581 
0.2180271917110927 
0 
0.04145849854685772 
0.03903548712542038 
-0.03452486131922462 
0.1278199667632112 
0.6908699970811494 
-0.003973729208562041 
0.0008608861408533377 
0.02161194117583143 
0.1392625039684491 
0.1992194439042877 
0.4013250770083513 
0.01388945798484834 
0 
0.3518203202449269 
0.07659486932117339 
0.3227633144300099 
-0.01061592858758854 
0 
0.09657620920926673 
0 
0.8647401394122037 
0.0217014360311313 
0 
0 
-0.008481088234204756 
0 
0 
0.08535566761449015 
-0.0238539707322657 
0.1907043099248446 
0.5964237625238378 
0.07492671545910611 
0.4956939505257563 
0.07492154795945771 
0 
0.06962229491927183 
0.7012933038203301 
-0.06987350087234605 
0.2873554686870713 
0 
0 
0 
0.1033189129249513 
0 
0 
0.9511203193990904 
-0.08079542149425256 
-0.1445853329783126 
0.1146013095490148 
0 
-0.1261916269279923 
0.0009889288174124988 
0.4119183378880302 
-0.2155657770937836 
0.5164778236204881 
0.4606397951296789 
0.2777190957718464 
0.05835395729190265 
0.0549173064441191 
0.2979487594100578 
0.01220079142303835 
0.1464555038473098 
0.01236952794998307 
0 
0.3268003369976915 
0.3489340797219082 
0.0009030381903334687 
1.339021098446618 
0.006129881987461466 
0.1493942454470327 
-0.1779286618446537 
-0.7506945998812434 
0.1116479742868198 
0.1672377268067528 
0.2882814059805607 
0 
0.5163677482495932 
0 
0 
0 
0 
-0.5691003151405571 
0 
0.09646754626907693 
0.02483551885568279 
0.5059805452449874 
0.04854455662772206 
0.2752595534387688 
0.001058899439998926 
0.06922488279677413 
0.074943670474223 
0.01149447949726809 
0.04444705400344608 
0.2740367344907424 
0 
0.005153532377639298 
0 
0.05271176667667651 
0.006884851661142005 
0.03992709259878049 
0.4936056411178196 
0.1305044154575447 
0.01416526789538292 
-0.09610974346317265 
0.3641616629411528 
0 
0.1785558093339043 
0.3696680612361675 
0.1478065137074083 
0 
1.331188467917615 
0.008050340799236416 
0.7432043403820283 
-0.2074434383169561 
0.00406658785078626 
-0.0235251539015243 
0.07101227579631042 
0 
0.3912614832086154 
0.08339722764475056 
0 
0.007233513020290733 
0.01422581866237243 
0.7384268839435731 
0.074802641706487 
0.001411302139733158 
0.1078462835744733 
0.2789161506704689 
0.286163524165624 
0 
-0.3250725659588066 
0.07884310153236325 
-0.07012950625947133 
0.04702561745377343 
0.4178635976835677 
0.09806376203139414 
0.5852745412232579 
0 
0.2216895278020993 
0.009974653088127087 
0.8186213534144656 
0 
0 
0.4217363488977054 
0 
0.8301908047969575 
0.5600612961452882 
0.3178655404136101 
0 
-0.1192763659191821 
-0.1626999839786451 
0.006408082846936768 
0 
0 
0.03037517370266854 
0.4286654617776785 
3.884420480886952 
0.1269999528988495 
-0.09703988607505526 
0 
0 
0.001710325529823703 
0.4327814210603121 
0.07306502675485155 
1.27262473107333 
0.008726156759843763 
0.4196546826101472 
0.5024158629279417 
0.1719553479842814 
0.008751310492396667 
0.3235445274617113 
0.5523106208866216 
0.2527318508475442 
0 
0 
0.1698887968601465 
0 
-0.445853369739641 
0.1989606461533091 
0.3023251588363902 
0 
0.04780187317835861 
0.02292287118241731 
0.06924644998486273 
0.006805604959343109 
0.07884918643833062 
0.1019295677658068 
-0.009455197832438089 
-0.01293792324385647 
0.1575499254498221 
-0.02701961418823282 
-0.07693160469368697 
0.1715492162195046 
0 
-0.06165067965918351 
0.03217060151590131 
0.03217060151590131 
0.01730188445073336 
0 
-0.04908482541234576 
0.003607756650411789 
0.28176680591602 
0.0815346958851921 
0.119000499591065 
0 
0 
1.875031004732396 
0.07448391879823908 
0.1090689948400172 
0.03623229100276883 
0.1119422224843442 
0 
0.008033450905212595 
-0.01169700191535092 
0 
0.2224066072966401 
0.1008716282646311 
0.005920589347781121 
0.1449097588381854 
0.008327837617701986 
0.02741476086959984 
0.3853183621200087 
0 
-0.1596540920084198 
0 
0 
0 
0.1158189505388567 
-0.1742842455247205 
0.363933028760776 
0 
0 
0.05371591441091425 
0.27772686739153 
0 
0.06483132185849837 
0.1771363215958797 
0 
-0.005350666311576126 
0.2167561368743542 
0.1956625058352506 
0.1090331850040517 
0.2854304139635604 
-0.004079303536260242 
0 
0.003390113765178467 
0.4639922304694563 
0.1218934705083349 
0.1706026528771159 
0.3730660059513792 
-0.003201843624937391 
-0.3481988105137468 
0.003523557093006167 
1.009915040671652 
0.06275997205917899 
0 
0.1032789911392015 
0.343293536492442 
0.1762762157464617 
0.05428090744638118 
0 
0.416251068515165 
0.008241152155339533 
0.5777718596092508 
0.03460915800374542 
0.07425387735591078 
0.1075523380319324 
2.05512007604317 
0.8667925206540258 
0.009364664668564938 
0 
0.2076384415037366 
0 
0 
0.004342373728173489 
0.0008608861408533377 
0.009018599944034079 
0.82106872696063 
0 
0.004509299972017039 
-0.5975858622540975 
0.2127907797786744 
0 
0.05390908202453439 
0 
0.05020044113104495 
0 
0 
-0.3733209007016833 
0.09603207287149353 
0.04444507502913762 
0.4122349516706615 
0.1440315392457946 
0.1075699765138029 
-0.01268622771256201 
0.01083345872361309 
0.549502733340312 
0.01366523353951327 
0.003207088242025439 
0.08932134465225096 
0.0290470804164848 
0.1019887655476304 
-0.2134630669146911 
0.02155569974257459 
0.4584159624378323 
-0.01800072966838661 
-0.01568623837558526 
0.06995553693733716 
0 
0.04162279431680835 
0.1270857856822399 
0.2743394148659551 
1.358624043721088 
0.04213404999575714 
-0.05119051481487381 
0.263613895816731 
1.185350305490912 
0.1916033930676903 
0.01052484769202523 
0 
0.5560126312347451 
0.1003325507929052 
0.08971870005996259 
0.1482570615116242 
0.0175234125568478 
-0.02897592439308889 
0.02119354099493731 
0 
-0.06809624172372745 
-0.03371136078811754 
0.0003888001756599806 
-0.02104948642536777 
0.8676602273062655 
-0.1515144192916957 
0.1200822843658451 
0.06752119308641434 
0.433720565651655 
0.4675541836999852 
0.4343637686846271 
-0.05559689941569157 
0.008755635702406039 
-0.03719221216248018 
0.05048510136796022 
0 
0.02032468455761145 
0.1513998465733986 
0.01066239299678626 
0.009637639118051527 
0.09917890610865718 
0.2854361544908443 
-0.05627169350969615 
0.5666422243280741 
0.3878819999493098 
0 
0.006715623203639678 
0.04382491636622712 
-0.08344494153513843 
-0.1031919330443316 
0.2432558048324343 
-0.3458069673450715 
0.3964280989276715 
0 
-0.03442763573800745 
0.08610220137645867 
0.07914743951012458 
0.2684154994907961 
0.01163070023488216 
0 
0 
0.1098159528703288 
0.01013014957274484 
-0.02319942046134185 
0.05892522906283018 
0.01565211036127576 
-0.009626556014218907 
-0.4523265623887669 
0.2076859372540496 
0 
0.0007456246818711955 
0.0402698246960875 
0 
0 
0.001411302139733158 
0.00346983718200015 
-0.01734584775783889 
0.2757800728860215 
-0.3839845845549469 
0.08539513508267094 
0 
-0.02210426860419509 
0.01002130174420216 
0.6641744594466228 
0.02859523686371477 
-0.2889094444558705 
0.2482034449354352 
-0.01325830338646541 
0.03864057510889246 
0.1692436733010567 
0.008724662920756583 
0.1169165077629298 
0.01165616465562345 
0.2359372577773492 
0.1223537951351814 
0.4471445002485712 
0 
0.01672901497973736 
0.6096438318740232 
0.01384813734080565 
-0.02573722310087144 
0.6244126617293921 
0 
-0.1181645026013248 
0.006026202985973363 
0.06114752645288524 
0.2364724868558893 
-0.027718003709148 
0 
0.08461135966027533 
0.08461135966027533 
0.04541632977606457 
-0.02690752392381836 
0.01525275243727637 
0.07797765255880075 
0.2806196337732996 
0.0002036346094425375 
0.1025293311484745 
-0.03934239496847942 
0.150214862401811 
0 
0 
0.08475453060126989 
0.2355405004931213 
0.05548801051845845 
0.01378338748698839 
0.02365084432593436 
3.226897890550417 
-0.01223979060366909 
-0.007149826427736735 
0.2052935957488973 
-0.2197258819566151 
0.08494227167115263 
-0.05996017618390589 
0 
0.007294789655284395 
0.01644827033516036 
0.2374408493289446 
0 
-0.03966327624400753 
0.6686566987389698 
0.003824097797443935 
-0.3741673914418814 
0.1092911275293339 
0.1554140804486965 
0.1263267832169749 
0 
0.002198798036806704 
0.1430595936251412 
0.1612299427737856 
0.163525540425692 
0.3288431210810038 
0.1878553992241407 
0.05114439049829536 
0 
-0.08164431557646046 
0.01882136532891869 
0.1565276212318817 
0.02004692267925905 
0.08727734964018304 
0.2491529115190507 
0.5289897710871845 
0.01812505132333068 
-0.006503983824963805 
0.1976556473895441 
0.01956812362891413 
0.1486774559379722 
0.1164346668738509 
0.09096980509370968 
0.02472257303905309 
0 
0.2521103028257933 
0.05370030645034352 
0.2562450278523976 
0.6188126260193197 
0.2019077660854056 
-0.02343207022501948 
0.010688375117984 
0.219858577381326 
0.03678926542655 
0.7729776015661071 
-0.004291698793511843 
0 
0 
-0.006888941103519178 
0.2130642611343632 
-0.2029816240655442 
0.001721772281706675 
0.01097619656264193 
0 
0.02500732686624346 
0 
0.4451169213054073 
0.1500268836658825 
-0.6313187213328773 
0.0008608861408533377 
0 
0 
0.01217437532286613 
0 
0.2190813548555729 
0.00917724607754573 
-0.01445155991243463 
0.6857160423421886 
0.007429560561094012 
0.008162058607898981 
0.0355397022449058 
0 
0 
0.009323489494411636 
0.05303773911455241 
0.0008608861408533377 
0.1116529053048763 
0.03754231675082045 
0.7135920304889636 
-0.1517107523758223 
-0.0713884428604795 
0.0028416983755338 
0 
-0.01231208959240166 
-0.0007327854365393715 
-0.02554923799643581 
0.001029189262478951 
-0.09208615018961813 
0 
0.1023110953894936 
0 
0.05348507647202423 
0.04176814592133792 
-0.04180314152292898 
0 
0.03711646014640313 
0.3599687943551279 
-0.04846084150551556 
0.01561063724010122 
0 
0.1245743137710955 
0 
0 
0.4592706341567276 
0 
-0.04344121931035081 
0.0374036920042212 
0.08071251504031232 
0.1304458605357882 
0.5267306269263449 
1.055958302027848 
0.3286884901142157 
0.04809538213560181 
0.01159122804526993 
0.04092859846866653 
0.1844085655257209 
0.01576622971786297 
0.02782726120948134 
0.1464586454681453 
0.4233696725345249 
-0.01801571480877046 
0 
0.1260022938252227 
0.1551344073455024 
0.07562416683787088 
0 
0.01442811644831186 
-0.3892364670039097 
0.05449065406042256 
0.02713671628021522 
-0.8283092381126014 
-0.3925832699307857 
0 
0.2300518436071465 
-0.0188718586391396 
0.1428507209296289 
0.2166458400593862 
0.7206482204641717 
-0.05482812551801153 
-0.1618032631402989 
0 
0.167489787951442 
0 
-0.1564780941154825 
0.005272236927161661 
0 
0 
0.5705920882011645 
0.08515893431068722 
-0.6828667151732835 
0.01464948935932454 
0 
0.0161080852509642 
-0.05931565305066267 
0.1160597260103017 
0 
0 
0 
0.004972533130334959 
0.1717414310004495 
0.2506453893324734 
0.1545673688968073 
0.02068493692045438 
0 
0.1749162414086264 
-0.01758427508848891 
0.5484512597755142 
-0.8433590117021665 
0.02429958331964509 
0 
0.03098977940840347 
-0.01615732994187448 
0.07056603404737719 
0.2710717033130494 
-0.03249706511226247 
0.05354417311233389 
0.06699987787722686 
0.4638643856970178 
0.125002069620882 
-0.04430767842501101 
-0.5433008150871983 
0.02033125644253275 
0.1415959894558446 
0.4436045897141543 
-0.003059683029001553 
0.2193993649258392 
0.1141264923733929 
0.02726131308766982 
-0.09954748474982399 
0.5294756137158222 
0.4945036161315232 
0.0395357535057722 
0.006904893401927562 
0.05676314746880753 
0.3226953918143428 
0.07082499380082086 
0.0207319888160415 
0.07313897304930535 
-0.002101125371176433 
0.3253137967536714 
-0.09717800923851629 
0 
0.5313538425718585 
0.01483454292867365 
0.2220396253469226 
0 
0.332480663700709 
0.8668899380529171 
0 
0.2604655477773784 
0.3325455479553378 
0 
-0.04060513413636804 
-0.2885042530167051 
-0.01268837088327604 
0.4637507785465877 
0.1065310524886497 
0.00156063235705952 
0.001272664023451017 
0.02554536604083335 
-0.6403672341118714 
-0.003872297570795546 
0 
0.004427609086025444 
0 
0.001069029414008479 
-0.04309500270634467 
0.002536310719476825 
-0.3273955195907549 
0 
0.01828443032389846 
-0.002426428885187284 
0.1693146250389862 
0.04929901350431393 
0.5612524229542033 
0.07571985061314564 
0 
0.05210542405781943 
0.009927299484224964 
0.1028071296429814 
0.07971243575814793 
0.001177714227476043 
-0.1542532567850126 
-0.01494359427222239 
0 
0.02836343444518126 
0.5166879208204145 
0.8321197241344069 
0 
0.006357992301267107 
0.02087161223424019 
0.4093107569327357 
0 
0.09880613328347211 
0.4141418991634108 
0 
0.001643375332601988 
0.1675956841844854 
0.007647555864032888 
0 
0 
-0.05654698242411593 
0 
0.1999462883074094 
0.008023054262607942 
0 
0 
0.002368858068088116 
0.06987914382230753 
0.03306544555953486 
0.05899599672468529 
0.1269847732276271 
-0.06690806030878736 
0.02086406231117582 
0.4631166927352697 
-0.4800498699832483 
0.214033752096025 
0.9928481917289667 
0.2102455944669649 
0 
0 
-0.006483474164638219 
0.03104469167473813 
0 
0 
0.1875017512398452 
0.1713677913433409 
1.691225342596637 
0.02283248599773822 
0.1770207912671354 
0.03774523787998627 
0.01258885918259608 
0 
-0.1406266652540012 
-0.02899915464629931 
0.5473947593325815 
0.1366906110990496 
0.001305856466495776 
0.1209719157039626 
-0.04786842621026585 
0 
0.02468218644033175 
0.0665232659691854 
0.5115584059839615 
0.5230519530456 
0.2632880169835146 
0 
0.02732398779170084 
0.4567745599322641 
0.003931111172327605 
0.1104591063516051 
0 
-0.001599287589304157 
0.2485926976593427 
0.02646039863418546 
0.1035637394426183 
0.06552242717487319 
0.1166551299294735 
0.05147074232737209 
0 
1.409183795689144 
0.290902457905973 
0.09774749447120705 
0 
-0.03016037869541367 
-0.06649065509603945 
0.07498338299940527 
0.3377357547335402 
0.03575916818048984 
0 
0.1989505920635551 
0 
0.05368893150767023 
0.07660550244484311 
0.1687705753630954 
0.2474302821703435 
0.986297992054781 
0.1379419311542919 
0 
0 
-0.01334886458601633 
-0.04071185168573649 
-0.0108883756530164 
0.01169241712028285 
0.2807710737648583 
-0.07425786468468852 
0.01153424977614404 
-0.1254502957791317 
0 
0 
0.1507794064031551 
0 
0.1058888544553919 
0.02415252940061397 
0.04654623053279165 
-0.04545684829432627 
0.003932320063223651 
0 
0 
0 
0 
0.1058068094209456 
-0.305172645378736 
0 
0.05901114508391572 
0.1318764416577183 
0.03316227309920067 
0.07049582971887591 
0.2629743355149975 
0.3523825693620591 
0.01134750505992659 
0.287625628541382 
-0.5214483557328571 
0.2428228557494999 
-0.1550373414045334 
0.9755151506413245 
0.5200417596097183 
0.2646633499201219 
0.2080646138004948 
0.04688790918645556 
-0.07087324705778422 
0 
0.6010819111545149 
-0.04741398075981763 
-0.001351765196600841 
0.09490981519695406 
0.07957758059547218 
0.04870881283743065 
0 
0 
0.3389581657947696 
-0.2975289604632504 
-0.886973866281824 
0.01192554640392905 
0.1315454429087853 
0 
0.6884314330326785 
0.1540476147767523 
0.05724373062120309 
0.4425927326804165 
0.4416403037213642 
0.01209665968511946 
0.1063390229528669 
0 
0.03119541590253483 
0.3126982139748095 
0.1772808804587554 
0.01361383332907561 
-0.004484064736888679 
0.04453830802336765 
-0.0555382529501302 
0.0648390639228721 
-0.07824101466688989 
0.7053272047650514 
0.01986709808984051 
0.4530797545023668 
0.03839585222204674 
0.2811379976221863 
-0.06211816359797282 
0.05997883015518726 
0 
-0.07679904089289609 
-0.007297681001006221 
0.1885353307850465 
-0.01171867178704559 
-0.1261998628359776 
-0.1260520391560633 
0.3252259013250844 
0.07863017613566883 
0.03629259008711377 
0.1360541907156284 
0.002582658422560013 
0.2101039969745194 
0.4629233685937 
0.04749849292255629 
0.4605365351953508 
0.1956870928833918 
0.007914054364193596 
0.02230668134655471 
0 
0.6736704764555498 
0.02335078321941267 
0.2982926447917872 
0 
0.02067040693806295 
0.03795177035098491 
0.1226807154885765 
-0.02880799803826668 
0.01921299409297348 
0.04616630191152428 
0.01241972804429911 
0.106854259055142 
0 
0 
-0.4215474489934907 
0.1024663414557078 
0 
0 
0 
0.3576051455135732 
0.1856741148678557 
0.001800428331695242 
0.1512912430179308 
0.01557382492022093 
0.5176960430716044 
0.4140779688185056 
0 
0.1686216576497417 
0.541217609310928 
-0.02361577972726086 
0.02228532133258863 
-0.08574941727820591 
0.04117613047256359 
0 
-0.08041368347451301 
0.1563987170011545 
-0.08725637988497295 
0.02020056898460728 
0.03994703989603884 
0 
0 
0.06209630988431222 
0.3404306228203568 
0.1011016548145245 
0.03023203591891332 
0.01300313460826511 
-0.1522037934987743 
0.01228418533192716 
0.1198808527255645 
0.02367031293878208 
-0.02452994111909475 
-0.01737217138714233 
-0.09135753988397889 
0.4693723096493097 
0.0500233009225142 
0.04328715461229454 
0.01068462597779032 
0.003416185790600285 
0.02497071452961755 
-2.498958479206111 
0.09010127580602234 
0.06615687332338797 
0 
0 
0.02298189978512342 
0 
0.03573463321566123 
0.1987890154406225 
0.2546999727302354 
0.07208242811568313 
0.01520570054701181 
0 
0.03981662081794194 
0.02240426107136339 
0.01329490787639948 
0.1782632034426967 
0.3104338361212997 
0 
0.472897814452583 
0.04065364791057743 
0 
0.2334205370290954 
-1.943550309889554 
0 
-0.3692620608706794 
0 
0 
0 
0.07918685583981735 
0.2166918336530792 
0.1951030076728725 
0.07162484103504527 
0 
0.009897987468327332 
-0.06674100012645116 
0.06181659892182302 
0.01947972541730773 
0.0001349483396114599 
-0.1484855695610078 
0 
0.1967283486403728 
0 
0.07699146969406002 
0 
-0.2929435385264036 
0 
0.1036163589944918 
0 
0.2626247139451695 
0.6074607019661665 
0.001721772281706675 
0.2565280389860662 
0.162391762047016 
0.8050055967117334 
0.0220169838946812 
0 
0 
0.1099723381564896 
0.09811070651813993 
0 
0.003300424460055086 
0.9331881481132017 
0.09773316929888223 
0 
0.2880241493150963 
0 
0.07279065093601077 
0.07567943141678002 
0.2130367596681503 
-0.004512191603855307 
-0.1017864498346401 
-0.03567230414672858 
0 
0 
0 
0.0324836278999967 
0 
0.1360718200081486 
0.03696683498733069 
0.01548121225318271 
-0.02988653674522902 
0.0163721828594907 
0.005304673270417367 
0.4603819896853611 
0.4083631991721935 
0.01429761843185738 
0.000407269218885075 
0.2351376699215485 
0.02410086622691449 
0 
0.2978470168078385 
-0.02211905981436653 
0.00336106021043456 
-0.2553080492389529 
0 
0.5902230954645894 
0.04127962752575384 
0.8203194277232643 
0.04538545085877401 
0.1605927585611396 
0 
0.03681653235534242 
0.03681653235534242 
-0.0265247049705915 
0.2058936053812038 
0.7033718823370441 
-0.06022321583362594 
0.007146271871516929 
0.0795575455531138 
0.1005766159612746 
0 
0.3619945310619078 
0.3496445179294898 
0.537224809281234 
0.07071135616893996 
0 
0 
0 
-0.1969048290796945 
0.04739796223669863 
1.372257828156627 
-0.04744367028928128 
0.1193318970749757 
0.1390831143512137 
-0.02815299326103291 
-0.2118873527181969 
-0.03340991964973643 
0 
-0.1564651924779981 
0 
0.1185417599128845 
0.0004786847977874686 
0 
-0.04694520018510213 
-0.04380859505348425 
-0.05647709371821499 
0 
0 
0.0576264640882708 
-0.04723155945452172 
0 
0.3169567521132874 
0.2555471679332714 
-0.03005825595695235 
-0.02262710814782394 
0.06212369750923721 
0.1073716584018276 
0 
0.002660988456246476 
0.2476661429322531 
0.1434181990628161 
0.03816150479457025 
-0.07476414633470439 
0.09907278181570101 
-0.08564840426828225 
-0.02327547643244302 
0 
-0.1434124072527059 
0 
0 
-0.1497347290675179 
0.04077494898291421 
0.05401817492734422 
0 
0 
0.1255113486357178 
0 
0 
0 
0.04064874951750936 
0.01322405349693012 
0.118646038132368 
0.005082832492141236 
0.2884826881221119 
0 
0.0770679182221595 
-0.05121421662800998 
0 
0 
0.3451931952784095 
-0.01838256425054077 
-0.06664944201152904 
0 
0 
-0.1493619282014781 
0 
0.03963555870083411 
0 
0 
0 
0.3485716598033471 
0.0006875894607604191 
0.139837024396396 
0 
0.0005283196233958887 
0.05183168522362184 
0 
0.04239255369243485 
0.01116557840834055 
-0.02659058958357791 
0.3126767075661865 
0 
0.1984017782341707 
0 
0.01190722365941239 
0 
0.1306174339803724 
0 
0.1147128409693404 
0 
0.3389998896799071 
0 
0 
0 
0.330981581973983 
0 
0 
0.01556208206518088 
0.264292653132795 
0.008855218172050889 
0.004427609086025444 
0 
-0.02266661059647499 
0.01792347321420978 
0.4588521230140185 
0 
0 
0.03277243476443745 
0.1398612243167595 
0.06642956489681685 
0 
0 
0.2048735519563546 
0 
0.08489513233654179 
0 
-0.1246957192490539 
0.04243109362915186 
0.04563258784621021 
0.0003249848361937833 
0 
0.1939036565799109 
-0.007177819491461832 
0.2674601660421311 
0.5335264048472997 
0 
-0.05436588754351914 
-0.07568967408662988 
-0.1630186693676844 
-0.05592354170909566 
0.01100923028930398 
-0.1711981927898751 
0.3024547517726833 
0 
0 
0.9711147837778984 
0 
0.07274182668997126 
0.01841958175941033 
0 
0.1503417592198756 
0.5495590561409827 
0.006533140264026682 
0.001167653651500381 
-0.0005895126763389933 
0.01594948587660477 
-0.02717405749674754 
0 
2.10680895688087 
0.1349072558950238 
-0.07060262033229056 
0.4149821627560186 
0 
0 
0.3684106333903634 
-0.0003747279965254498 
-0.03189795732025399 
0.05646714208014229 
0 
-0.01300067449438693 
0.06991439150853961 
0.078201006075709 
0.4549810548169665 
0 
0.2291476446271718 
0.0215782366064979 
0.01943962978348456 
0 
-0.01677936022653297 
0.0007287763309289292 
0.4623029562193366 
0.0930307240274177 
-0.005503207003471938 
-0.08955818160049248 
0 
0.0003888001756599806 
0 
0.05776195891931074 
-0.5604747827739477 
0.002258523082130218 
0.05366649156935781 
0.2314930139652273 
0.03016201993866413 
-0.009130411416101139 
0.00408724505366219 
0 
0.7133220352431635 
-0.02910704804557075 
0.1199052335332962 
0.000407269218885075 
0 
0.009069898571595366 
0.1787033148120224 
0.3375074042487671 
-0.4713735623401194 
0 
-0.04652243605999582 
0.0249970606982666 
0.01853500184418097 
0 
0 
-0.02840712927431807 
-0.02840712927431807 
-0.02840712927431807 
-0.02840712927431807 
-0.02840712927431807 
0.02782561398024971 
0.09893227698517422 
0 
0.1615325478114823 
0.05384702761950279 
0.1548661329848152 
0.006161404654942848 
0 
0.03148494781559577 
0.3918702924720939 
0.8725889641077769 
-0.04629041956225085 
-0.01728212221957331 
0.01510510013272313 
1.248848137905805 
0.07346121892625863 
0 
0.01746589768543341 
0.1784669539338137 
0 
-0.03853908806984089 
-0.4534442911258539 
-0.3539605167652887 
-0.0388750694564174 
0.009085968153451737 
-0.55722114486762 
0.0172559264627028 
0.08127468818270051 
0.04340492991125015 
0.7666689117299725 
0.1950973247053305 
0.3326178040822508 
0 
0.03782681669655209 
0 
0 
0.373236779782452 
0.04424348517029675 
0 
0.02175507838745388 
0.471373466948066 
0.4102473228986609 
0.0270318113630423 
0.2423809967271302 
0 
0.06895930874085343 
0.006364028870961639 
0 
0.184836225294293 
0.06668873651470787 
0.101270007136872 
0.07298751255553342 
0 
0.1046793868669336 
0.4970753078735354 
0.3643762227241046 
0 
0 
-0.2656092546537185 
-0.02394956954102394 
-0.2772852991615454 
0.6879372582283018 
0 
0.3608833520939027 
0.01169241712028285 
0.3892895807812228 
0.01129329560290935 
0.533078279149021 
-0.0493142417391575 
0.2774766258490974 
0.9906964595755126 
0.01096024212225984 
1.214876501302413 
0.2397931962734155 
0.1173454957687645 
0.07838382367719607 
0.03628930384830702 
0 
0.07203048945357488 
0 
-0.01382452837059962 
0.6697814108244327 
0.2176317431643988 
0.02357945762715471 
0.2716246639737316 
0.05301015464290607 
0.001056516804334222 
0.01057699021269073 
0.1065896455254551 
0 
0 
0 
0.07839684887332279 
0 
-0.3817984165399858 
-0.3390149438821468 
0 
0.1017886815907691 
0.02578977071427259 
0.03191921407775681 
0 
0.2536898033316282 
0.04307600307766697 
0.01566967379057817 
0.07460274740972316 
0.4032453544746758 
0.2996261806305555 
0.3386871766607355 
0.8476823703899874 
0 
0.1701094067155171 
0 
0 
0 
0.8588556399425599 
0 
-0.02972590794423587 
0.1050690853131996 
-0.08739429154828973 
0 
0 
-0.1814827752010104 
0 
0 
0.1738100217582062 
0 
0.01591005069313688 
0.02631908897678258 
-0.01062832671117792 
0.02380999033813368 
0.07736760084718289 
0 
0 
0 
0.06805207615056021 
0.02767821098897129 
-1.551231222129801 
0 
0 
-0.08889636610927472 
0 
0 
0 
-0.1373733341918708 
-0.1827579976827471 
-0.1381736304449982 
0 
0.01342902726774476 
0.005665791892851993 
0.0009752020956896284 
-0.03221726292092095 
0.134172908349951 
0 
0 
0.1488091997808607 
-0.1095651911707782 
0.006456844028231555 
-2.018696580810514 
-0.03186251252431744 
0 
0 
0 
0 
0.3200034530014195 
0.002408055997671695 
0.04200147608239908 
0.6235148961692678 
0.1343299985509249 
-0.005453182727624544 
0 
0.01546269148041488 
0.6999675029723419 
0.0653651041180479 
0.1499748266521234 
0 
0.07335226587833958 
0.2864045803409442 
0.6780676617393772 
0 
-0.1597059199739081 
0.05612093053056231 
0.07775134703714244 
0.03211284368062337 
0.2683897750287902 
0.030498835354403 
0.0249519630099643 
0.001069029414008479 
-0.2152804301803103 
0 
0 
0.03469654563698008 
0.004798121215184106 
0.001897106140097053 
0 
0.004741549797300716 
0.08736247190751779 
0.02914482203127036 
-0.03843574414698662 
0.1064345060844334 
0.04671933471573406 
0 
0 
0 
0.00699538969939095 
0.07737188410656017 
-0.003670794684108136 
0 
0 
0.1319634304673287 
0.02220162736746468 
0.008256789164322481 
0.03688287764771282 
0 
0.04118950685229087 
0 
-0.1716760948820971 
0.05426186020827094 
0 
0.01296848199420294 
0.06925377494723109 
0.03059377527581816 
0 
0.2706324557218537 
0.05971598189155448 
0.5932830794410664 
0.0210220504859503 
0.09748322294383939 
-0.0382069993143922 
0.15666809344473 
0.4751420008404746 
0.1032456226844934 
0.001411302139733158 
0.01616871407293656 
-0.03676333797739051 
0 
0 
0 
0.01602520792623192 
0 
0.1538209990430362 
0.09013658178905781 
0.02978382475764633 
0.01131601530233164 
0.1039042050510239 
0.03970663102398807 
-0.002208595564953219 
-0.05330047576197845 
0 
0 
0.04466561500054497 
0.01236353515228489 
-0.05410038997820651 
0.2620001915488296 
0.03262590479360093 
-0.1148222547289872 
-0.291237297895151 
0.0008608861408533377 
0.03931391912181725 
0.1708211298319828 
0.01116557840834055 
0.1202732960130739 
0.0002036346094425375 
-0.04022335446077716 
0.03904411267809837 
-0.332447638844819 
0 
0 
-0.01778467236531518 
0.04751728710956579 
0.01838110820345002 
0 
0.4696365263498755 
0.0311363702035877 
0.07120901398142089 
0.0009054284451504694 
0.07459328630546745 
0.004197650110105102 
-0.03353099303214794 
0.07069891570246815 
0.1280146546460962 
0 
-0.04060513413636804 
0.0935088448609256 
0 
0.5247653986538456 
0.1178275807162014 
0.005298298617034368 
0.01479227559543647 
0 
0.04966329798677907 
0.03929014526780879 
-0.02771900007320866 
0.2505190819935166 
-0.01954317897048519 
0.1554253672758334 
0.05380254375033675 
0.6037755195769224 
0.007259063535842729 
0.8128357730470681 
0.202784268906671 
0 
0 
0 
0.004578308951530148 
0 
0.001721772281706675 
0.007448250049975684 
0.08956866831091012 
-0.1028336420009586 
0.5230161353303108 
0.05911020283060715 
0.7099659785916058 
0.8244167915320909 
0.2773192414309651 
0.02962598620271436 
0 
0 
0.001721772281706675 
0.05838930931735999 
0 
0 
0.09298713902668625 
0.0006109038283276127 
0.06614192096953092 
0.0009752020956896284 
0.1396348284338796 
0 
0 
0.2044644049982409 
0 
0 
0 
0.02148826411395443 
-0.05603009382713674 
0 
0 
0.1031492664903397 
0 
0 
-0.2504670175344153 
-0.04371180431622455 
-0.1603206736844646 
0 
0 
-0.01063708718178553 
-0.09483536503848738 
0.05411810970508865 
0.2188958371660201 
0.006803967690434174 
0.06535428224360749 
0 
0.005988234432654027 
0 
0.05972979260682494 
0 
0 
0.09499190679882101 
0.001721772281706675 
-0.00784512133768918 
0.05306182989589697 
0.4135889427692514 
-0.0005132309599760768 
0 
0.05122347206187459 
0.0009500577617601233 
0.1367544655357782 
0.001069029414008479 
0.4280294980363776 
-0.009843636825159569 
0 
-0.01968727365031914 
-0.009843636825159569 
0.6050160083790813 
0.3286351951198969 
0.256071764610837 
0 
0.057891131820705 
0.057891131820705 
0.1797073583231446 
0.005717657227846912 
0.03739809245267172 
0.01903750468835885 
0.05315370962316088 
0.02976626798166099 
0.08112980320873858 
0.002582658422560013 
0.009069898571595366 
-0.1247990480958828 
0.005893972034505592 
0.04478782387080252 
0.01004720278772891 
0 
-0.0323103073250028 
-0.04603737247909091 
0 
0 
0.02200166363737201 
-0.3266357465959386 
0 
-0.09900317086020111 
0 
0 
0.08676570676831573 
0.001984459330491729 
-0.04488086523720942 
0.05200696211960323 
0 
-0.01428552668763534 
0.0008608861408533377 
0 
0.08316589791582486 
0 
0.002901953812356624 
0.5205212389521823 
-0.02160157511109554 
0.1866852841231926 
-0.3413401057209829 
0.01340354693367523 
0 
0.01312069928057628 
-0.0728629512042637 
0 
-0.04308535736411841 
0 
0 
0.01451423239666657 
0.5347816720863302 
0 
0.0008608861408533377 
0 
0 
0.03577599194497216 
0 
0 
0.01442590373859413 
0.07420428958555032 
-0.02766424069958737 
0 
0.02236190680380577 
0.03808794922752116 
0.002010838104356775 
0.08534735646260426 
0.00346983718200015 
0.642410120815795 
0.02159749986430899 
-0.1014817743012847 
0 
0 
-0.03208962580263424 
0.09018213817516599 
-0.07916044669200863 
0 
-0.09525852708663268 
0.01502037080478561 
0.2601504741438712 
0.0198015612667392 
0 
0 
0 
0 
0 
0 
0 
0.1331527101233321 
-0.03656302821303561 
-0.003804318684744166 
0.05211735457437603 
0.02836046803806397 
0.009886374753270259 
0.6439431314924712 
-0.02045726671363434 
-0.09746308463764349 
0.01058948876396747 
-0.02318128396914425 
0.004304430704266687 
0.0028416983755338 
0 
0.08818566822772261 
0.07704679251088802 
0.007902546457682314 
0 
0.02388107870805059 
-0.01268044181486318 
0.07964194626484006 
-0.1365844680170833 
0.2378596634481823 
-0.01918334277350468 
0.01845988147457179 
-0.09268326953126295 
0 
0.1476876755175855 
0.02303657734220813 
0.03389072877740471 
0.0069923056420817 
0.009262377805930441 
0.001721772281706675 
0 
-0.2574870414944767 
0 
-0.06144832200402318 
0.1866165157238055 
-0.3270040230976898 
-0.04757085798184028 
0.002171105827366369 
0.03107228881960826 
0.4009543946734902 
0.1368866591737131 
0 
0 
0 
0 
0.01678383403271036 
0.03836774266213548 
0 
0 
-0.05826875470582259 
0 
0.09195522113005714 
0.01577630568516881 
0 
0.008965886728557384 
0 
0 
0 
0.0002036346094425375 
0 
0.03904600286468612 
-5.448890446266414 
0 
0.07187991292448757 
0 
0 
0 
-0.03490024655517739 
0.03677719949942536 
0.04232944414459777 
0.04518164663661445 
0 
0 
0.009947819164901476 
0.05270967888632062 
0.00567540247530155 
0.01596204561591973 
0 
0.03744818724191479 
0 
-0.1852830493214266 
0 
3.0361661858275 
-0.03625828065570792 
0.1643011770802222 
0 
0.6076428235024327 
0.1358546359235688 
-0.01320164490072796 
0.02738039297068811 
0.1015738944513968 
0 
-0.0002469704486120857 
-0.139402551271972 
0 
0 
-0.01940471766100401 
0.2628821327092724 
0.04942220088563057 
0.005100519482544982 
0 
-0.01422534884016005 
0.1364023156209278 
0.2766930679526968 
0 
0.01443558686257059 
0.006688189995541492 
0 
0 
-0.3728426169777764 
0 
0 
0.2826883296758282 
0 
0.0237590005599896 
1.022714323719554 
0.03087424394686832 
0.1594150379846797 
0.0008608861408533377 
-0.02896839415484804 
0 
-0.08839981623658662 
-0.0641080555405391 
0.06645309088224563 
0.0009030381903334687 
0 
0.3650064693322725 
0 
-0.02625091874823081 
0.1832957107750544 
0.08434171419409921 
0 
0 
-0.4906471316645028 
0.002423052585750686 
0.00100216753123079 
0.3421616416729067 
0.1622410551260566 
0 
0.03652606772985924 
0.07543391763719957 
0.01958340954828816 
-0.418868275981358 
0.09704335333628179 
0 
0.006968004009432929 
0.027689936554557 
0.1067228333073258 
0 
0 
0 
0.003774640316056663 
0 
0 
0.03370559634452833 
0 
0.04128482708764848 
-0.3587902455264436 
0 
0.1534864760794189 
0 
0.2544712404633255 
0.0370206524678814 
0.06583976584840491 
0.4155145462349382 
-0.04578438544474795 
0.07388693500930761 
-0.04097259590550299 
0.06558977333938072 
0 
0 
0.007804051188419612 
0.01606121004553961 
0.008269921418173664 
0.08733349989104133 
0.08142564177364565 
-0.0009566756723562038 
0 
0 
0.265789224378264 
0 
0 
0.4662039032677708 
0 
-0.1264290371256968 
0 
0.177345396688631 
0 
0.0284608472788732 
0.01467017447744777 
0 
-0.03748719121310232 
-0.0507180493747527 
0 
0.007990490473882367 
0 
-0.02050908444884912 
0.1035042437063579 
-0.133109959982959 
-0.03631535855205128 
0.04126644021757765 
0 
-0.07543139137055971 
-0.4073843661820156 
0 
0.004694771045052882 
0.02882280024647907 
0 
0.2449124311894048 
0.002342167844215711 
0 
0.03360917452715367 
0.0007001151751566105 
-0.007172792431498316 
0.01398424626312772 
0.003323475041494128 
0.2130187972390643 
0.001069029414008479 
0 
-0.02458655278858224 
0.01272934418102429 
0.09015779264198526 
0 
0.4932098472188556 
0.01372668354074116 
0 
0.1045219867615066 
0.3414184075782539 
0.007099950804940852 
0 
0.009204901812858376 
0 
0 
0 
0.0519075263278326 
-0.04146181779519893 
0.09811936671704567 
0 
0.02558660057169342 
0.2631452745913934 
0.2330556706693115 
0.00753265797363598 
-0.1112501740283124 
0.2019362866206159 
0.3435718084974446 
0.002384054433205329 
0.2005099353833756 
0.2254865118152479 
0.04818623961439365 
0.5773210961522985 
0.04979912787846182 
-0.002886346022857167 
0.005522309636533268 
-0.0552188457531311 
0 
-0.07581524856745925 
0.1563027162425545 
0.1938585977865092 
-0.04924021943387091 
-0.02022375720253888 
0.1789797720302586 
0.05030641258087633 
0.5644747468668947 
-0.00178255095106931 
0.0732115677126446 
0 
0.06975353241968543 
0.1636244711047938 
0 
0 
0 
0.05477480485851004 
0.1061146521215785 
0.01774826238932671 
-0.0315283856890407 
-0.0757690167692892 
0.007531597591686044 
0 
0.02442603141474337 
0.9139964443894113 
0.02618729711622438 
-0.0005210524686971394 
0.02130906053132352 
0.05074406318164597 
0.265153415662699 
0.06256072340430989 
0.08221189997324675 
0.5415280447818701 
0.06107161507475871 
0 
0.01363824600910121 
0 
0 
-0.07471797136111198 
0.2750244803199698 
-0.05581721142437714 
0.4704662911091745 
0 
-0.02804136741527033 
0.001961343767072865 
-0.03996974445882403 
0 
0.02190255311108034 
-0.01812130740205434 
0.07718585545479958 
0 
0.06817333860826875 
-0.0225939167721221 
0.003443544563413351 
0.004244218872966232 
0.1053117277504354 
0.01050245788549444 
0 
0 
0.02633911846687911 
0.04289849583962906 
0.004966812387791671 
0 
0.3596814652104604 
-0.09053908100380585 
-0.07245854256052657 
0.01809575418535871 
0.0009348654371119795 
0.0007017938357079318 
0.00467098490490388 
-0.006774223931387405 
0 
-0.02093201916029125 
0.1516632428985963 
-0.02091057708672025 
0.07334241803603783 
0.2143584740732755 
0.05489142345038516 
0 
0.270220582969342 
1.170388020181765 
0.06620470414643675 
0.007780165666744087 
0.02776106135437736 
-0.03631644512979671 
0 
0.08761259362081937 
-0.06249018450165759 
0.1278644277470724 
0.5820807672699678 
0.1146506447441307 
0 
0 
0.1040350713421678 
0.09883862160461196 
0.05177379139743966 
0.009522775026236207 
0.00657596773636526 
-0.1498435387878436 
0.1296378428208495 
0.0538707059379082 
0.01431262557185984 
0.04161571760741094 
0.05117695422126806 
0.006445653708313145 
-0.0008344917381453593 
-0.1956587243350445 
0.001411302139733158 
0.04822855351662656 
0.2797546505723446 
0.006434130739742159 
0.0964046208199839 
-0.008279377273297908 
0.1356240204815249 
0.2724961008798429 
-0.1862063707846423 
0.1351071766996935 
0.4220962131924299 
0.1342121960164256 
0.02208051007945796 
0.03620727130908497 
-0.2735315113117808 
0.1141250821762727 
0.6180838874264329 
-0.03313631822759891 
0.07623295457788161 
1.886664675287412 
0.06907635454050888 
0.01193024378532538 
0.02447446981144239 
0.0325246703288754 
0.2156879254482305 
-0.07645207634501659 
0.03089183932902568 
0 
0.4175561521103598 
0.3229235680265149 
0.574137442368833 
0.3883600493591364 
0 
0.09275626120930443 
0.126117258857178 
0.03057592442944251 
-0.05294458791744139 
-0.04563807196702988 
0.01468899578040103 
0 
0.04768067255519116 
0.2678154736912018 
0 
-0.2125865578982192 
0.002582658422560013 
-0.0271835212695487 
0.1015443595925957 
0.2728531201964691 
0.9107141725892735 
-0.01341082962120043 
0 
0 
-0.00910374540684219 
0.08675601869813068 
0 
0 
0 
0.002336329697944074 
0 
0.05909720610295582 
0 
-0.01315092734817822 
-0.01416727026243961 
-0.1725944047792619 
-0.0301049834531725 
-0.04332352353221502 
0.002704436042309475 
-0.07250919091021339 
0 
0.3244789447078709 
0 
0 
0 
0.04063705483399938 
0 
0 
-0.3503230133415936 
0.006170967579997299 
0 
0 
0.004653457814427766 
0.1895573102819407 
0.05052991199460446 
0 
0.1039281235874756 
0.006585154929461737 
-0.04717290080059889 
0.08985320461746629 
0.00702731257470205 
-0.1662874275400953 
0 
0 
0.007391994665567073 
0 
0 
0 
-0.05528485692276546 
0.1311946156672634 
0.03946999173427473 
0.159014032008661 
0.239655696051187 
-0.03016418812956977 
0.1642687296815007 
0 
-0.1480060268322868 
0.1833716407416916 
-0.05696684515551369 
0.0770842510859604 
0 
0 
0 
0.3860054582365653 
0.2475153768110851 
0.04030702301511926 
0.04185521116367748 
0.3660815784139438 
0.053459769268788 
-0.08589677585107178 
0.1794996494656474 
-0.03199435359240865 
0.04616159506644085 
0.001993764877110906 
-0.01137722415528968 
0.4960992523432259 
0.1116036841592535 
0.3981818803914658 
0.6418469291293434 
0.1782351116183951 
0.06010033743203217 
0.1418962325392156 
0 
0 
-0.01335456195762075 
-0.198152477176037 
0.03585719623173358 
0.3113586022281586 
0 
0 
0 
0 
0.1045374951599694 
-0.3172685637232895 
0.07741996651374673 
0 
0.09669516310527429 
0.152544380772679 
-0.003888168452840362 
0.0002036346094425375 
0.06435812505566077 
0.009769925101482755 
-0.1439387394401195 
0.1817230624169291 
0 
-0.02936745666689549 
0.07142664112600058 
0 
0 
-0.02612156532721557 
0 
-0.2279217682456991 
0.01119392364976602 
0 
0 
0.08859671746191104 
0 
0 
0 
0 
0 
-0.05267529399747566 
0 
0 
0 
-0.03150363320122315 
0 
0 
-0.0004223651499597004 
-0.02557230311183997 
0.1059552445023914 
-0.1813628964929146 
0.001721772281706675 
0.001721772281706675 
0 
0.1389872854894048 
-0.04687346882984833 
-0.09060422579132862 
0.1240384887318262 
0 
0.004304430704266687 
-0.1212415837789813 
0.004304430704266687 
0.001721772281706675 
0.001721772281706675 
0.02381701507767302 
-0.01863373087225186 
0 
0.03280099233686261 
0 
0.002582658422560013 
-0.01848284540448056 
0.004888579263094673 
0.01488111799653425 
-0.01852063584972877 
0.01350516799597074 
0 
0.07001397196627288 
0.2467321523118519 
0.001721772281706675 
0 
0.02422748717757758 
0.01789157301213998 
0.03026238557551427 
0.01095749973649643 
0.02705171503666756 
-0.04736017088487821 
-0.06894026147231229 
0.003443544563413351 
0.006191888040725083 
0.2511303290072374 
0.0008608861408533377 
0.3025408799365052 
0.2579558531622009 
0.2361245724390565 
-0.04618611725318631 
0.0008608861408533377 
0.003284452258267945 
0.004304430704266687 
-0.08140063382980617 
0.001721772281706675 
1.273206471362057 
-0.005157429782464098 
0.006861953566264064 
0.2335953476984159 
-0.3576926348769306 
0.002582658422560013 
0.06234438556244169 
0.02134062334111872 
-0.006911659351481445 
0 
0.03828384973413137 
0.0008608861408533377 
0.002582658422560013 
0.0008608861408533377 
0.01251344313500872 
0.1471257759031122 
0.002582658422560013 
0.1426794996495476 
0.003443544563413351 
0.0008608861408533377 
0 
0.004304430704266687 
0.002582658422560013 
0 
0.009905072201503353 
0.009677061626861393 
0 
0.003141000913620524 
0.001721772281706675 
0.002582658422560013 
0.0008608861408533377 
0.006773632884593511 
0.4496991665139932 
0.007889576708693419 
0 
-0.04296421683360557 
0 
0.002582658422560013 
0.005418064640470219 
0.003443544563413351 
0.00637086028558058 
0.004388734803226949 
-0.2819688737594379 
0.006726318161129974 
0.01065516978476573 
0.02208867910770421 
0.008309136190829023 
0.1035624527762897 
0.004304430704266687 
0.07901798053438047 
0.06875080146915723 
0.003443544563413351 
-0.02394790932549015 
-0.006618256438798213 
0.2575099321558109 
0.003443544563413351 
0.001721772281706675 
0.002582658422560013 
0.00459635766312189 
0.0008608861408533377 
0 
0.001721772281706675 
0.05505235452449225 
0.01113244670020194 
0.0134938082210606 
-0.006813774571709559 
0.1500738603643124 
0.001721772281706675 
0.005567411856605712 
0 
0.001721772281706675 
0 
0.001721772281706675 
-0.05117789953411502 
0.08554439752110016 
0.005496412597763338 
0.0007287763309289292 
0.0008608861408533377 
0.003443544563413351 
0.0008608861408533377 
0 
0 
0 
0.001721772281706675 
-0.007407594090856651 
0.003443544563413351 
0.02282202642101444 
0.008851182911704067 
0.001721772281706675 
0 
0.002582658422560013 
0.01411685502380769 
0.006026202985973363 
0.02263009548848504 
0.01985917917650972 
0.0008608861408533377 
0.05562101130636309 
0.0405961922352011 
-0.02973422513240254 
0.001810943902613461 
0.0118363898313917 
0.01681976007969597 
0.05863037523962907 
-0.002000489665567607 
0 
-0.07069352712912585 
0 
0.01419884158980395 
0 
0.01033063369024005 
0.003468783270677764 
-0.210480346984756 
0.05442210652232456 
0.003443544563413351 
0.004304430704266687 
0.01719839853602359 
0 
0.001721772281706675 
0.0008608861408533377 
0.002582658422560013 
0.002288942193522281 
0 
0.003443544563413351 
0.0238291653581611 
0.04557050478178348 
0.04555430667941891 
0.001721772281706675 
0 
0.002582658422560013 
0.001721772281706675 
0.03475117644663429 
0.01147987855145643 
0.009847512547898349 
0.03062482707746427 
0 
0.01823212895883803 
0.03099958834556599 
-0.03326716130955813 
0 
0.2343158210767595 
0.05618552057055462 
0 
0.005163243521963472 
0.02849656607359022 
0 
0.250487781497142 
0.01544760174123647 
0 
0.02238121467151594 
0 
0.005867110680827958 
0 
0.3614818372691201 
0.001721772281706675 
0 
0.001721772281706675 
0 
0 
0.001721772281706675 
0.016601592547437 
0.003443544563413351 
0.003443544563413351 
0.05825346581068028 
0.002674346958800636 
0.18750830404344 
-0.3163077015516161 
0.005165316845120027 
0.007891166968477017 
0.02749393060328445 
0.0199642495803498 
0.007719671053461754 
0.005165316845120027 
0.02051810291513525 
-0.01871904265060592 
0 
0.0008608861408533377 
0.007602828847265647 
0 
0 
-0.01157687410391366 
-0.06139200742398666 
0.06126355848285579 
0.006026961049407276 
0 
0.02352861837715962 
0.004304430704266687 
0 
0.001721772281706675 
0 
0.01713873709532814 
0.06353387039970555 
0.03984591817912884 
0.004304430704266687 
0.03009587156296433 
0.002582658422560013 
0.002582658422560013 
0.0008608861408533377 
-0.06770724224254943 
0 
0.03764173150262803 
0 
0 
0.0008608861408533377 
-0.4189169903301158 
0.0008608861408533377 
0.002582658422560013 
0.03587821221476547 
0 
0.01513780744338945 
0.01957927954123971 
0.0349977475608142 
-0.09025508705761123 
0.02090956476798997 
0 
0 
0 
0 
0 
-0.01559736587083331 
-0.005844897138405494 
0.003443544563413351 
0 
0.07593137208438383 
0.1251348305192152 
0.0008608861408533377 
-0.03709831851605452 
0.007469481766058369 
0.02446008432774913 
0.00414533839912128 
0.2292044617884544 
0.09946644320335653 
0.003443544563413351 
0.002582658422560013 
0.001721772281706675 
0.1063854483866637 
-0.01511055213850927 
0.001721772281706675 
0 
0 
0 
0.0008608861408533377 
0 
-0.01126631220717138 
0.0119827833532663 
0.0008608861408533377 
0.002582658422560013 
-0.009594402402506787 
0.0008608861408533377 
0.09352949515860788 
-0.02916601342939616 
0 
0 
0 
0.03015682528868404 
0.009431778996067376 
-0.00112939693787166 
0.002582658422560013 
0.05336120192663459 
0.007747975267680037 
0.1560316172307958 
-0.008733516261653449 
0.001721772281706675 
0.0237531650777292 
0.01337432927586205 
0 
0.0008608861408533377 
-0.0161864499126363 
0.002582658422560013 
0.02153496042243647 
0.003443544563413351 
0.04002492385242571 
0.002582658422560013 
0 
0 
-0.1084465400003823 
0.03177424366046498 
0.02692709665006469 
0.01457939221405897 
0.001721772281706675 
0.002582658422560013 
0.009469747549386714 
0.02664800095657728 
0 
0.07276334054541739 
0.01173137545054113 
-0.02068317362401287 
-0.05142800042143338 
0.004304430704266687 
0.00835506985103498 
0 
0.007828485984663259 
0 
0.02526351843526592 
0 
0.002582658422560013 
0.001721772281706675 
-0.004818123181794241 
0.001721772281706675 
0.002288516474603192 
0.003848740459141874 
0.008167699263469856 
0.05290980928281434 
0 
-0.004579172544016076 
0.02902000281723974 
0.01768154580503972 
-0.04857703668596058 
0 
0.05819478560883999 
0.01258643323862009 
0.05876398962686277 
0.047370821146581 
0.001721772281706675 
0 
0.003443544563413351 
0.001721772281706675 
-0.05450375238209904 
0 
0 
-0.07463258512536874 
0.02288748921903946 
0.0008608861408533377 
-0.07149237742251784 
0.0008608861408533377 
0.002582658422560013 
0.01720751774937822 
0.0111098754540891 
0.02769391282952055 
0.004304430704266687 
0.01440916678613752 
0.05869536838962313 
0 
0.04008642853041494 
0.002582658422560013 
0.2877560328661121 
0 
-0.02266368108782269 
0 
0.01871017432823743 
0 
0.0008608861408533377 
0 
0 
0.03513285589614148 
0.01162684448321003 
0.001721772281706675 
0 
0 
-0.04190510804078389 
0 
0 
0 
0 
0.001721772281706675 
0.001721772281706675 
-0.02166468313240918 
0.01813362592555626 
0.1299792257450708 
0.01284515033995701 
0.04665104208298543 
0.0008608861408533377 
0.001721772281706675 
0.0008608861408533377 
0.05172751760391826 
0.02393489528981084 
0 
0 
0.5155660301700867 
0.04515564924262521 
0.04562133055695211 
0 
0 
0.003443544563413351 
0.3050193892969821 
0.01471906121762547 
0.002582658422560013 
0 
0 
0.0008608861408533377 
-0.2547054832192995 
0.1512431371550096 
0.05930720899415029 
0 
0.0288469502280226 
0.004928951961320663 
0.0263926640193853 
0 
0.1087104526529834 
0.003443544563413351 
0.005868563835103343 
0.004304430704266687 
0.03701421056027602 
0.002582658422560013 
0 
-0.06956156009819464 
0.005165316845120027 
0 
0 
0.1482656379723506 
0.2275471447364674 
0.002582658422560013 
0 
0.0008608861408533377 
0.009309391322070626 
0 
0.03353604483773664 
0.05284241532200119 
0.01918779248628329 
0.06124331727645474 
0.002582658422560013 
0 
0 
-0.01814132507109861 
0.07874842791642268 
0.001721772281706675 
0.0340329087744437 
0 
0 
0 
0.01689969563827466 
0.001721772281706675 
0.01627576718117694 
0 
0 
0.0157333243405473 
-0.1012751985360901 
0.003443544563413351 
-0.02158486963451196 
0.007943741152058087 
0 
0.0196087518268354 
0.1279058117930932 
0.003443544563413351 
0 
0.03504208316150451 
0 
0.1980378963311135 
0 
0.0004806760335090921 
0.001525751796353402 
0.1662604573730368 
0.1378641470828861 
0.0008608861408533377 
0.002582658422560013 
0.004814516334448214 
0.01266169975328765 
0.2169991787664884 
0.0576111412367762 
0.002822646540022431 
0.0008608861408533377 
0 
-0.01134110229092941 
0.4471575751299726 
0 
0 
0.002582658422560013 
0 
0.01442855732645106 
0.02850173991735738 
0.009162974597097084 
0 
0.02123342702419632 
0.09105984418815717 
0.005006224539974619 
0 
-0.02504782152254508 
0.0235245136964197 
0 
0 
-0.05127851187912905 
0 
0.002202614319312812 
0.06105578248240784 
0.02183187796130122 
0.0008608861408533377 
0.003443544563413351 
-0.04060513413636804 
0.0008608861408533377 
0.0008608861408533377 
-0.001257204907775704 
0.00729713353667215 
0.04787303603868306 
0.00520129758948566 
0 
0 
0 
0.003946410203741505 
0.1349087798201023 
0.003517523859671994 
0.001721772281706675 
0.001721772281706675 
0 
0.01710109382734219 
-0.07645867966934214 
0.008208939440370005 
0 
0.01094986050418399 
0 
-0.07245315845469408 
0 
0.01524351096645494 
0.002582658422560013 
0.0008608861408533377 
-0.2574870414944767 
0.0008608861408533377 
-0.01099268585612916 
0.003485696612893482 
-0.02166662398906041 
0 
0 
0.0008608861408533377 
0.01352173868474827 
0.001721772281706675 
0 
0 
0 
0 
0.03724354795401814 
0 
0 
0 
0 
0 
0 
0.05008762276577339 
0.002582658422560013 
-0.1618088653256438 
0 
0.01293596601615711 
0.01961099059696214 
0.1674192176541752 
0.02733767654691873 
0.005165316845120027 
0.04736304843839916 
0.02330272373992307 
0.008705114306966447 
0.0008608861408533377 
0.0008608861408533377 
0 
0.006915586074302395 
0 
0.1897706139362367 
0.1201953123054861 
0.0005888571137380217 
0 
0.0008608861408533377 
0 
0 
0.02605108356729329 
0 
0 
0 
0.002582658422560013 
0 
-0.001953741052952844 
-0.1503674205032495 
0.03591280743376134 
0.01493242010678117 
0.01512494378546961 
0.01559673231294314 
0.005165316845120027 
0 
0 
0 
0 
0.05787691443806541 
0.01720774841062666 
0 
0.05759521793366282 
0.01078114363997802 
0 
0.007911513580867439 
0.001721772281706675 
0.04982527690175315 
0.0145175728963857 
0.003443544563413351 
0.09719037242446699 
0.0008608861408533377 
-0.2840622016343229 
0 
0.004227814136791017 
0.01000436361290606 
0 
0 
0 
0.01620893523575807 
0.0008608861408533377 
0 
-0.08199672522358258 
0.07564777676436275 
0 
0 
0.03533507681779821 
-0.0654624894712806 
0.001721772281706675 
0.02326796995619623 
0 
0 
0.02444748399309231 
0 
0.01992719934294289 
0.007747975267680037 
0 
0.008831091175366072 
0.001900444309413682 
0 
0.003019078626372326 
0 
0 
0 
0 
0 
0.0008608861408533377 
0 
0 
0.002582658422560013 
0.0008608861408533377 
0.01297523341428007 
0.01088555482909892 
0 
-0.3989029073090279 
0 
0 
0 
0 
0.04346245901624331 
0 
0 
0 
0.01939462267337872 
0 
0 
0.01737874425103319 
0.1232419576053397 
0 
0.003247650373331241 
-0.05682255250887476 
0.06609764474343167 
0.02665191837215502 
-0.06608491952648536 
0.0009713448853007357 
0.053688953027601 
0 
0.005359230015226048 
0 
0.004304430704266687 
0 
0 
0 
0.02785980918721847 
0 
0 
0 
0.002065413599315747 
0 
-0.3298211023012296 
0 
0 
0.03016206684184914 
0 
-0.04060513413636804 
0 
0 
0.3613624913850617 
0 
0 
-0.0235541833343246 
0 
0 
0 
-0.08965259625445861 
0.1618209712841246 
0.01442811644831186 
0 
0 
0.0008608861408533377 
0 
0 
0 
0 
0.06279397549168914 
0.001562679976561269 
0 
-0.0916809878044811 
0.01027445866908227 
0 
0.0008608861408533377 
0 
0 
0.003620107180928876 
0.003443544563413351 
0 
0 
0 
0.03139521085976831 
0 
0.04168127317676484 
0 
0 
0.003443544563413351 
0.0008608861408533377 
0 
0 
0 
0 
0 
0 
0.0008608861408533377 
0 
0 
0 
0 
0.02430435107395831 
0.5597187395407517 
0.01452879694494664 
0 
0.07998541988230924 
0 
0.02246405153220144 
0 
0.007342128380032934 
0 
0.0008608861408533377 
0.04939583957196404 
0 
0 
0.07785070204756887 
0.005595217517690807 
0.06758111980404466 
0 
0 
0 
0 
0 
0 
0 
0 
0 
0.3420554056011219 
0.0008608861408533377 
0.40841454881606 
0 
0 
0.001721772281706675 
0 
0.002582658422560013 
0 
0.0008608861408533377 
0 
0 
-0.5687727447399745 
0.02483120347641922 
0 
0 
0.0164133350912202 
0 
0 
0 
0 
0.0144287540104708 
0.001721772281706675 
0.02425099194048741 
0.02339847755585454 
0 
0 
0 
-0.003607487229022507 
0.00923515280745345 
0 
0 
0 
0 
0 
0 
-0.05924068444955138 
0.01200630765526662 
0 
0 
-0.1271878454019824 
0.0008608861408533377 
0.166392838057004 
0 
0 
0.009920257499124677 
0 
0.3094407905085644 
0 
0 
0 
0.0008608861408533377 
0 
0.04172445546644397 
0 
0 
0.01899829303565638 
0.01858835979937259 
0.05941012925419108 
0 
-0.05681425854863614 
0.03649194413821093 
0.004007563899078098 
0 
0 
0 
0.2588417161672993 
0 
0 
0.07479978224305958 
0 
0 
-0.005680058113289481 
0 
-0.1359028971295934 
0 
0 
0 
0 
0 
0 
-0.2855174837524407 
0 
0 
0 
0 
0.01981882120987138 
0 
0 
0 
0 
0 
-0.02385513098553054 
0 
0 
0 
0.002582658422560013 
0 
0 
0.0002036346094425375 
0 
0 
0.01453793797558021 
0 
0 
0.0008608861408533377 
0 
0 
0.006967599843809921 
-0.02920233782137747 
0 
0 
0.0008608861408533377 
0 
0 
0 
0 
0 
0.0173511720429004 
0.005986665297225356 
0.00350514501498525 
0 
0 
0 
0 
0 
0 
0 
0 
0 
0 
0 
0 
0 
0.0008608861408533377 
0 
0 
0 
0.02903173183052459 
0 
0 
0 
0 
0 
0 
-0.0424286402186691 
0 
-0.01852063584972877 
0 
0.0008608861408533377 
0 
0 
0 
0.006106713702956583 
0 
0 
0.0008608861408533377 
0.0008608861408533377 
0 
0 
-0.1326206678792277 
0 
0.0008608861408533377 
0 
0 
0 
0 
0 
0 
0 
0 
0 
0.0918259086199197 
0 
0 
0 
0.1272340787818614 
0 
0 
0 
-0.02974300953482613 
0 
0 
0 
0.1300001447300954 
0 
0 
0 
0 
0 
0.006170967579997299 
0 
0 
0 
0 
0 
-0.005405367233300053 
0 
0.0008608861408533377 
0.01240561036629498 
0.08467889394060496 
0.01558205522801719 
0.002064358969808542 
0 
0 
0 
0 
0 
0.03638757045504635 
0 
0 
0 
0 
0.1399553394741979 
0 
0 
0.0008608861408533377 
0 
0 
0.05511073589786637 
0 
0.001413646965255034 
0 
0.0008608861408533377 
0 
0.02826915511458859 
0.002425344394108002 
0 
0.01526662976482408 
0 
0 
0.0008608861408533377 
0 
0 
0 
0.02771117442496645 
0.03818926534851638 
0.0008608861408533377 
0.4397238962623712 
0 
0 
0.0008608861408533377 
0 
0 
0.01703005076074965 
0 
0 
0 
0 
0.01803241613915051 
0 
0 
0 
0 
0 
0 
0 
0 
0.0008608861408533377 
0 
0 
0.01899829303565638 
0 
0.00414533839912128 
0 
0 
0 
0 
0.01116557840834055 
0.1059655064655868 
0 
0 
0.001721772281706675 
0.01512591561144053 
0.0008608861408533377 
-0.01756891874184557 
0 
0 
0 
0 
0 
0 
0.003689842840996109 
-0.1970966433488355 
0 
0 
0 
0 
0.01068241303657489 
0 
0 
0.008990465954337385 
0 
0 
0 
0 
0.003612239520024519 
0 
-0.009109125414332115 
0.0008608861408533377 
0 
0 
0 
0.0008608861408533377 
0 
0 
0 
0 
0 
0 
0.0008608861408533377 
0 
0 
0 
0 
0 
0 
0 
0 
0 
0 
0 
0 
0 
0 
0 
0 
0 
0 
0 
0.0008608861408533377 
0 
0 
-0.005301433345990186 
0 
0 
0 
0 
0 
0 
0 
0.0666365223042175 
0.04534755429412105 
0 
0 
0 
0 
0.2605032405783947 
0 
0 
0 
0.001055050253175013 
0 
0 
0 
0 
0 
0 
0 
0 
0 
0 
0.0008608861408533377 
0.0008608861408533377 
0.0008608861408533377 
0 
0 
0 
0.0008608861408533377 
0 
0 
0 
0 
0 
0 
0 
0 
0 
0 
0 
0 
0.09505084219583035 
0 
0 
0.04392466530523764 
0 
0.0008608861408533377 
0.0008608861408533377 
0 
0 
0 
0 
0.03831607620843897 
0.0104122517596372 
0 
0 
0 
0 
0 
0.09981820570393295 
0.1091623306972023 
0 
0 
0 
0.001721772281706675 
0 
0 
0 
0 
-0.01877360158258704 
0 
0 
0 
0 
0 
0 
0 
0 
0.0008608861408533377 
0 
0.002918971446738249 
0.0008608861408533377 
0.03065390264892085 
0.03551572991949873 
0.0008608861408533377 
0 
0.0008608861408533377 
0.1040490559480938 
0 
0 
0 
0 
0 
0 
0 
0.009434074355839579 
0 
0 
-0.02091057708672025 
0 
0.1157978313125537 
0 
0.009271462866359843 
0 
0 
0 
0 
0 
0 
0.08356336153775609 
0 
0 
0 
0.02342205452571 
0.05397122179918303 
0.04142603527499455 
0 
0.0008608861408533377 
0.0008608861408533377 
0 
0 
0 
0.01139814005711936 
0.02297234045193083 
0 
0 
0 
0 
-0.01139113384264272 
0.04025510800268797 
0 
0 
0 
0.04000174017277067 
0 
0.0488835548351389 
0 
0.0008608861408533377 
0.01884874894450218 
0 
-0.005680058113289481 
0 
0 
0 
0.3929623896186299 
0.001180450117927849 
0 
0 
0.07187435908444972 
0.01661697525624771 
0 
0 
0 
0 
0 
0 
0 
0.0188316653455763 
0.001721772281706675 
0 
0 
0 
0 
0 
0 
0 
0.0008608861408533377 
0 
0.01689969563827466 
0 
0 
0 
0 
0 
0 
0.02444748399309231 
0 
0 
0 
0 
0 
0 
0 
0.0008608861408533377 
0.02281222661462564 
0 
0.2418028560750337 
0.06678138321601854 
0.0008608861408533377 
0 
0 
0 
0 
0 
0.008214781547710279 
0.06855622497931051 
0 
0 
0 
0 
0.006160430726038353 
0 
0 
0 
0.01736083046289887 
0 
0 
0 
0 
0 
0 
0 
0 
0 
0 
0 
0 
0 
0 
0 
0 
0 
0 
0 
0 
0 
0 
0 
0 
0 
0 
0 
0 
0 
0.0003808152143853537 
0 
0.0008608861408533377 
0 
0 
0 
0.05040790308065786 
0.0008608861408533377 
0 
0 
0 
0 
0 
0.01382917617499875 
0.2919004371227095 
0.009434074355839579 
0 
0 
-0.1691813022114469 
0 
0 
0 
0.0008608861408533377 
0.0008608861408533377 
0 
0 
0 
0 
0.04305790411361764 
0 
0 
0 
0 
0 
0.04428530342636321 
0 
0 
0 
0 
0.006889076833164204 
0 
0 
0.01407693187344226 
0 
0 
0 
0 
0 
0 
0.007836160301659664 
0 
0 
0 
0 
0 
0 
0 
0 
0.04698730158249927 
0.01604645748335129 
0 
-0.01917624453967588 
0 
0 
0.0008608861408533377 
0 
0 
0 
0 
0.02669499433758716 
0.04858848761230305 
0 
0 
0 
0 
0 
0 
0 
0 
0 
0.0008608861408533377 
0 
0.03347850175162265 
0 
0.01007315837230846 
0 
0 
0 
0.0449978110096976 
0 
0 
0.0008608861408533377 
0 
0.09799555705964878 
-0.3882517357693371 
0 
0 
0 
0.003612890058427212 
0 
0 
0 
0 
0 
0 
0 
-0.00931920297880557 
0 
0 
0 
0 
0 
0.001721772281706675 
0 
0.00154490869752841 
0 
0.0008608861408533377 
0 
0.005473544556581068 
0.01222141707303677 
0 
0 
0.02041082468485579 
0 
0.0008608861408533377 
0 
0 
0.002564828995619369 
-0.03556137079815109 
0 
0 
0 
0 
0 
0 
0 
0 
0 
0 
0 
0 
0.03403687161294667 
0 
0 
-0.02866024683864199 
0 
0 
0.0008608861408533377 
0 
0 
0 
0 
0 
0 
0 
0.01394012792056811 
0 
0 
0 
0 
0 
0 
0 
-0.1137928781855303 
0 
0.0008608861408533377 
0 
0.03335417647601958 
0 
0 
0.01117855900936627 
0 
0 
0.005705713622352939 
0 
0 
0 
0 
0.0008608861408533377 
0.01930759036234634 
0 
0.001647705916416113 
0 
0 
0.0008608861408533377 
0 
0 
0 
0 
0.002053561597000419 
0 
0.1066492439603212 
0 
0 
0 
0 
-0.02714921605854004 
0 
0.0156598188760831 
0 
0.0008608861408533377 
0 
0.0008608861408533377 
0 
0 
0 
0 
0 
-0.01006739858667814 
0 
0 
0 
0 
0 
0 
0 
0.181479957742337 
0 
0 
0 
0 
0 
0 
0 
0 
0 
0 
0.1187712053502229 
0 
-0.09251744799840381 
0 
0.0008608861408533377 
0 
0 
0 
0 
0.01260202772212789 
0.004286951441163222 
0 
0 
0 
0 
0 
0 
0.01703272608731857 
0 
0.007519327735168347 
0 
0 
0 
0 
0 
0 
0 
0 
0 
0 
0.0008608861408533377 
0.01703005076074965 
0 
0 
0 
0 
0 
0 
-0.01773282083441539 
0 
0.1492888544491503 
0 
0.0008608861408533377 
-0.002410845277156951 
0 
0.01636214791472673 
0 
0 
0.0008608861408533377 
0 
0.0009500577617601233 
0 
0 
-0.01582241490227635 
0.01624270597736394 
0.0322521664551261 
0.0008608861408533377 
0.009324975329602317 
0 
0 
0 
0 
0 
0.0008608861408533377 
0 
0 
0.0871305987044957 
0 
0 
0.01116557840834055 
-0.1489974253130866 
0.03780130193256423 
0 
0 
0 
0 
0 
0 
0 
0 
0 
0.06148515317534383 
-0.3053938504279656 
0 
-0.03622657922734704 
0 
0.0008608861408533377 
0 
0 
0.09828824545130303 
0 
0 
0 
0 
0 
0 
0 
-0.009113928927450898 
0 
0 
0 
0 
0 
0 
0 
0 
0 
0 
0 
-0.2553232304892598 
0 
0 
0.09498288260362751 
0.03578613044937835 
0 
0 
0 
0.0008608861408533377 
0.00434646428554523 
0 
0 
0 
0 
0 
0 
0.002425344394108002 
0 
0 
0 
0.0008608861408533377 
0 
0.0008608861408533377 
0.0008608861408533377 
-0.1211594901739357 
0 
0 
0 
0 
0 
0.006924068670402824 
0 
0 
0 
0 
0.05401686931939664 
0 
0.01384717885951106 
0 
0 
0 
0 
0 
0.07255009095568379 
0 
0 
0.06232375128062403 
0 
0 
-0.03417985353918703 
0 
0 
0 
0 
0.0008608861408533377 
0 
0 
0.01680943384540318 
0.0008608861408533377 
0 
0 
0 
0 
0.008999773852323357 
0 
0 
0 
0 
0 
0.01237453465049356 
0.006170967579997299 
0 
0 
0 
-0.006133287603825136 
0 
0.0008608861408533377 
-0.03556137079815109 
0.0008608861408533377 
0.0150979877979893 
0 
0 
0.1185606688722392 
0 
0 
0 
0 
0 
0 
0.02903663584325866 
0.003964753607161644 
0 
0 
-0.006816162398195331 
0 
0 
0.0008608861408533377 
0 
0 
0.02582333336599557 
0 
0 
0 
0 
0 
0 
0 
0 
0 
0.01285242894727035 
0 
0 
0 
0 
0.02400799012764647 
0.0008608861408533377 
0 
0 
0 
0 
0 
0 
0 
0 
0 
0 
0 
0.02554921601719878 
0.0008608861408533377 
0 
0.03201509255954884 
0.0559580090520955 
-0.01231208959240166 
0 
0 
0 
-0.007132140215743479 
0 
0 
0.0008608861408533377 
-0.03567466811530453 
0 
0 
0 
0 
0 
0 
0 
0 
0 
-0.002132023616013113 
0 
0 
0 
0 
0 
0 
0 
0.3017985117488221 
0 
0 
0 
0 
0 
0 
0.0008608861408533377 
0.009043487397355063 
0 
0.01319018340911942 
0 
-0.062662428484003 
0 
0 
0 
0 
0 
0.0008608861408533377 
0 
0 
0 
0 
-0.02631967334528031 
0 
0 
0 
-0.0288275590703642 
0.07962605944011997 
0 
0.0008608861408533377 
0.0008608861408533377 
0 
0 
0 
0 
0.008211998230191945 
0 
0.01547124758679249 
0 
0.01484992499734755 
0.0008608861408533377 
0 
0 
0.1062017120566587 
0 
0 
0 
0 
0 
0.0008608861408533377 
0.0008608861408533377 
0 
0 
0 
0 
0 
0.003728597533559662 
0 
0 
0 
0 
0 
0 
0 
0 
0 
0 
0 
0 
-0.02909525891818279 
0 
0.0008608861408533377 
0 
0.01009788595584884 
0.0008608861408533377 
0 
0.01644294136887053 
0 
0 
0 
0 
0 
0 
-0.02326683103678493 
0 
0 
0 
0 
0 
0.0008608861408533377 
0 
-0.0004136987493991942 
-0.01416607753932942 
0 
0.0008608861408533377 
0 
0 
0 
0 
0 
0.03206375413475455 
0.09550547095341708 
0.005281655121131031 
0 
0 
0.03787886514797158 
0.02644462049417969 
0 
0.4623636631682617 
-0.005838212180191909 
-0.1280056753412429 
0.03975979056409876 
0.07340232282472077 
0.001309722628628401 
0.01375011368719513 
-0.007872171245004949 
0.4344092850834165 
-0.001070334950619326 
0 
0 
0.04965309026069434 
0.06932546496393144 
0.1491925893303565 
0.4005794315462236 
0.00437727226475874 
-0.1779982242020144 
-0.01137652292380172 
0.0961955728147786 
0 
0 
-0.001537576483485467 
0.02444748399309231 
0 
0.1285317503473222 
-0.00481718663747821 
0.05422253299857146 
0.0003888001756599806 
0.103666325362954 
0 
0 
0.0008608861408533377 
0.01667833251272297 
0.01516566080724032 
0.08590563863087108 
0.2503475326178973 
0.02826289008845026 
0 
-0.1183270390119806 
0 
-0.08418606841963358 
-0.1998155334641382 
0.001723039756466494 
0.04207448411441012 
0 
0 
-0.004221279544240914 
0.03879328631256736 
0.002866708115061418 
0.04675126043977229 
0.01887000430476539 
0.1181680684378851 
0.1295474085527945 
-0.3343124312689829 
0 
0.001400230350313221 
0 
0 
0.03767585507826545 
0 
-0.4508247891297604 
0.02589510153435175 
0.01794226383818482 
0.2169925959134139 
-0.2256519233932057 
-0.04615698425947695 
0.07103509774743699 
0 
0.08095906193087664 
0.4222771989528845 
0.1250552901577235 
0 
0.2533097087233956 
0.01699128133977357 
0.002319442196440707 
0.0171825585275908 
0.0002079470684552907 
0.2079378241500563 
0.05496316894608766 
0.01511010768780819 
0.05852087298004797 
0 
0.01454390986975087 
0 
-0.05018129368759175 
0 
0 
0.1378353795512984 
-0.002838957461307804 
0 
0 
0.5009303385411086 
0 
0.009459659442448245 
0.0339697756924377 
0 
0.1122728921662708 
0 
0 
0.06332161987647329 
0.02713093118747727 
-0.002974349747202587 
0.009322457688012627 
0.123359299298787 
0 
0 
0.002365575414870622 
0 
-0.1247399563666193 
0.002240882480712332 
0 
-0.06725002942879378 
0.08677436572716291 
0.04033814596959585 
0 
0 
0 
0 
0 
0 
0.1157954568175441 
0 
0.03567854458637981 
0.22866726719678 
0.106015972516748 
0.03202305300217077 
0.02933168804625063 
0.2791272827578656 
0.000781392760403048 
-0.08506889780049065 
0 
-0.01329913079190083 
0.01466584402312531 
0.04714168667926353 
0 
0 
1.264892714944173 
0 
0.08113535026028568 
0.01445704523451023 
0.03300719800445533 
0.9692981658187589 
0 
0.02055834796150553 
0.009127939889414211 
0.003501129222649086 
0.04769951996355923 
0.1313223460247987 
0.0002036346094425375 
0.5813579021384504 
0.03300790991039813 
0.1862968688567021 
-0.007386130150168519 
0.09831129730497395 
0.01677662339968466 
0 
-0.03054311844889166 
0 
0.0228934132591055 
0 
0.1011943702684403 
0.07364222388932086 
-0.007878712450877189 
0.2312359143921316 
0.05527177151872274 
0 
0.05825164698808635 
0.01345191614024942 
0.01531934523799188 
0 
-0.03415182467685395 
0 
-0.02233322905958425 
0.2112411337126174 
0 
-0.04859490434304371 
0 
0 
-0.007131726922372574 
0.2386774063770342 
0 
0.0117945860154282 
0 
0.08900358003124881 
-0.03935889538961952 
0.01419046548424027 
0 
-0.07768567707170744 
-0.02639095737464778 
0.1529661951748198 
0.009892417280062278 
0 
0.1240592252995683 
0.1012813642331579 
0.004696545891608997 
0 
0.3901351404538743 
0.5038148699506686 
0.1115597946337573 
0.06490899122736968 
0 
0 
0 
0 
0 
0 
0 
0.01648711119581457 
0 
0.002910379899600585 
0.1194764921999071 
-0.194836576752971 
0 
0.01693861754839972 
0 
0.008301548800413601 
0.03624620603208295 
0 
0.1077763688221735 
0.1944702746618536 
0 
0.003221193351323589 
0.01902010953739956 
0.006106713702956583 
0 
0 
0 
0 
0 
0 
0 
0 
0 
0.07135951397914721 
0.2727936494478214 
0.00472206317958515 
0 
0.02017049989750857 
0 
-0.2366578275048595 
-0.07504756416310791 
4.131358132594123 
0.5601194998417162 
0.009035869313553794 
0.1768889334547064 
0.01927897729141144 
0.09178331740583635 
-0.01447136978274196 
0.3396090630390545 
0 
-0.02035465863003625 
0 
0.00700241700949181 
-0.01551892020195307 
0.06377117716583569 
0 
0.1030045030380795 
0.04047376237742822 
0.05725033766341741 
0.06071482126372394 
0.03439070334408383 
0 
0.1690198566925131 
0.002115809402681865 
0.1711750748332201 
0 
0 
0.02231177424068704 
0.02231177424068704 
0 
0.07455881124062327 
0 
0.04746003805749902 
0.2260854261986696 
0.03383450238917219 
0.02281222661462564 
-0.9552930357587951 
0 
0 
0 
0 
0 
-0.006833001987096307 
0 
-0.003615032223599931 
0 
0.003275577841997608 
-0.2916234954682644 
0.1359228243769812 
-0.00094880670740187 
0.0008608861408533377 
0.03252023118968258 
-2.141266587675406 
0.01978766740106915 
0.001193078655565927 
0.01252267044794876 
0 
0.02132486055196653 
0 
0.1129143696107077 
0 
-0.1084501838380189 
0.2558680396819074 
0 
0.01272934418102429 
0.1846501221324876 
0.003363559680964673 
0 
-0.02702763223459564 
-0.02930500388421087 
0.1655347011994311 
0.06284411997298979 
0.09827525549155236 
0.3849515775882757 
0.02388435083009577 
0.001645657046259625 
0 
-0.02121638929481187 
-0.01723917502180604 
-0.002834955797665776 
0.0324473286586286 
0.08800555865652822 
0.110299935249946 
-0.02990138327126746 
0.06074685729898134 
0 
-0.07122023360116796 
-0.01834950128635839 
0.01998208595955346 
0.1366722543002035 
0 
0.1866027307865928 
-0.1148224574692467 
-0.07694184378232737 
0 
0 
0 
0 
-0.02716006299777756 
-0.006618292690272764 
0.08124676206708924 
0.2241021094328748 
0.0105504238076871 
0.113365986724717 
0 
0 
-0.00387357733644143 
0.00935538915858721 
0.5003469264764526 
0.05931325086640354 
-0.10810581576994 
0 
0 
0.04778405511682018 
0.003625109144855172 
0.0299922250203014 
0.02038015631021227 
0.01388219274115541 
0 
0 
0 
0 
0.02911102994089503 
0 
0 
0 
-0.8058322749980987 
0 
0.1554324412489778 
0 
0 
0 
0 
-0.4263690520040122 
0 
0 
0.01533418407755597 
0.05043442060524905 
0 
0.05413598570183244 
-0.01950710621247767 
0.09440441463149075 
-0.01012270389134642 
0.03736219083371108 
0 
0.03747498737708596 
0.008880300977747993 
0.02509306897125883 
0.00460814223088066 
0 
-0.01166286140757884 
0.004376851587367195 
0.009267360968013109 
0.06668439826942761 
0 
0.04158825914040958 
0 
0 
0 
0 
-0.02711747452806731 
-0.004689973368290242 
0 
-0.0834015953786833 
0.5943696823958055 
-0.03372800811220063 
-0.01017972207916 
0 
1.080272195596802 
0.00598613339344405 
-0.05420439427361188 
0.07586371482664778 
0.02049245283576878 
0.2130552196631365 
0.05460308969060403 
0 
0.007365906327775326 
0.008856637923335213 
0.2601733186283039 
0.5608600457461596 
0.01178234903652044 
0 
0 
0 
0.002766858274399651 
0 
0.02218131243398546 
-0.01852894245067363 
0 
-0.05460267873654844 
1.225995319087837 
0.002264296093173927 
0 
0.02149947535822452 
-0.05009439557467874 
-0.04936715706157244 
0 
0.2966626344476397 
0 
0.06698636857890176 
0.0474673761650891 
-0.01735499435849245 
-0.04015419744845894 
-0.01547201100812719 
0 
0 
0 
0.0006759477023676993 
-0.008019081245892018 
0.05999127262551529 
0.02357590425332567 
0.005214414384746543 
0.004951223443644254 
0.008143255181797832 
0 
-0.2517562940295513 
0.06151598307234557 
0 
-0.1845421194795212 
0 
0 
0 
0 
0 
0.110845805305217 
-0.009615550557952058 
0 
0 
0.1421422113554873 
0.0143356888554965 
1.990689482913287 
0 
-0.02631310570653731 
0 
0 
0 
0 
0 
0 
0 
0.1138421876117472 
-0.3071064533533882 
0 
0 
-0.01680984202481651 
0.05065496681080419 
0 
0 
0.0006470863231752797 
0.0008608861408533377 
0 
0.03811472157558964 
0 
0.124690150585945 
0 
0 
0 
-0.05792944159418933 
0 
0 
0 
0 
0 
0 
0 
0 
0.08050092183783872 
0 
0 
0.02306849955228809 
0 
0.1365026483035443 
0 
-0.1917778370243752 
0.1107820937127891 
0 
0 
0.6834509527573571 
0 
0 
0 
0.02221782521034085 
0.0160962512041872 
0 
0 
0 
0 
0.8875973433857033 
-0.01834251773121498 
0 
0 
0.1888669047603294 
0.03092392655307427 
0 
0 
0 
0 
0 
2.369895898213492 
0.0005590248180794602 
0.008290543860554877 
0.0888250291225722 
-0.003899359694609582 
0.0956437322199376 
0 
0 
0.0675452597637749 
-0.002814024023323558 
0.0456545947681749 
0.01352053374951643 
0 
0.1330222077640866 
0.001630347504208994 
0 
0 
0 
0 
0.1190298595954945 
0 
-0.000369092445593206 
0 
0.01044909790409702 
0 
0.001806814675620019 
0.05813239986663755 
0.001309722628628401 
0.003260204266170454 
0.3478292424810221 
0.08765109681237526 
0 
0 
0 
0.01054407010261391 
-0.2868248145054118 
-0.04211830642506189 
-0.01995131926210762 
0 
0.1328754014150271 
0 
0 
0.006140251361896094 
0.002526961060970156 
-0.04319907132450691 
0.09214639774802333 
0.002979926653166792 
0 
0.007391994665567073 
0.02484042616746761 
0.08227446693606588 
0.0918912179249777 
0 
0.1610590309333347 
0.02056704236348586 
-0.0532252621470395 
0.05396641342414658 
0 
0.01955694063677233 
0 
0.08566443512787668 
-0.07503945318338924 
0 
0.02689548255346505 
0.2677265066552022 
0 
0 
0.0008608861408533377 
-0.03894346844637587 
0.3844085875338503 
0.2550072045320059 
0 
0 
0 
0 
0.03172645906331067 
0 
0 
0 
0 
0.01890489065893583 
0.09930680157273775 
0.01612589665815091 
0.1990021046708432 
0.1403325210955852 
0.01596280321336084 
-0.02149037400225342 
0.0004839548513178815 
0 
0 
-0.03477193905427063 
0.182027747700982 
0 
-0.06938911328101169 
-0.006016399930452014 
0.1342359810067234 
0.08301835845183594 
0.00131647348037736 
0 
0 
0.02023994521124255 
0.007437336889357378 
0 
0 
0.006727119361929346 
0.1049955577252895 
0 
-0.02050195513970552 
0.002492475247507125 
0.03362992725873178 
0.01000999753123361 
0.1355360499281672 
0.04594223188591519 
0.5098871155145897 
-0.05683187025467349 
0.1070904273851766 
0.05526171671922068 
0 
0 
0.07452248592474124 
0 
-0.06272153212570765 
0.2251690371770083 
0.06257424288644847 
0 
0.02653503805552953 
-0.02349037366300196 
0 
0.06021457045187709 
0.6530057251881575 
-0.002856526930585297 
0 
0 
0 
0 
-0.184151597046961 
0.0008608861408533377 
-0.003607487229022507 
0 
0 
0.04949163406689061 
0.2394879830392774 
0 
0.04006446603338011 
0 
0.1851807601673605 
-0.03900271650760881 
0.01015469154486134 
-0.008425971829173828 
0 
-0.01300067449438693 
0 
0.002826122695533592 
0 
0 
-0.006110227248770865 
0 
-0.01780291137769282 
-0.009537238741067757 
0 
-0.00664629608063777 
0 
0 
0 
-0.2358628436198714 
0.1213116681809039 
0.001793254477959126 
0.1490453773389834 
0.009368764579580302 
0 
0 
0 
-0.02880209966570651 
-0.03463476432979384 
0 
0 
0.007004406271907042 
0 
0.1398495584861727 
-0.1043424753463129 
-0.04016379757051584 
-0.07096946139023441 
0 
0.03932984028985721 
0 
0.01609773825383637 
0 
0.03340360793016357 
0 
0.0001788363481132564 
0.02197002552607542 
0 
0.1008262977132767 
-0.06450899433457359 
-0.01445701051099346 
-0.06500034082100849 
0.009310581913806664 
0.2978275137129812 
0.1685679227542667 
-0.003607487229022507 
0 
-0.0440331982609167 
0.03420322389955623 
0 
-0.05260270073452226 
0.04227957756241753 
0.7784999791534496 
0.0765029012114142 
0.02181674028085774 
0.201679901411843 
0 
-0.01488754465407822 
0 
0 
0 
0.07822359903152509 
0.01856456997757139 
0 
0.02668022485888641 
0 
0.05909983269751062 
0 
0.009884603671260655 
0 
-0.003878162294658746 
0 
0.1350105281124191 
0 
-0.02442734329677814 
0 
0 
0.01706003349352755 
0.004007563899078098 
-0.09052680163467787 
0.003176698319996778 
0 
0 
0 
0.005662222263076344 
-0.0351321116690509 
0.02261496983984959 
0 
0.3076796612248149 
0.01008958800790881 
0 
0 
-0.06735640293975373 
0 
0.07797099554046666 
0.3003872864619956 
0 
0.2428018745256997 
0 
0.07194365260940026 
0.01594823330514758 
-0.01574561865790557 
0.2667343697243467 
0 
0 
-0.01568409548125387 
0.01665944743484725 
0 
0 
0.04124332969156162 
0.02902814097536887 
0 
0.01879608539311814 
0.1450103791997232 
0 
0 
-0.0007939088567434393 
0 
0.0301803265662462 
-0.6206036536919693 
0 
-0.04487405908294101 
0 
0 
0.01340113386531914 
0 
-0.04696539694906257 
0.01151748523011064 
-0.03867429743350833 
0.008736675510197037 
0 
0 
0 
0 
0 
0 
0 
0 
0 
0.04224160809505687 
-0.06172047263043368 
0 
-0.001178616311192295 
0.001363751781181494 
0.06967237994727445 
0 
0.07671880778072203 
0 
0.03477162051534743 
0.01427940438995511 
0.01068566224470911 
0 
0.006110235881050067 
0.008263507827685009 
0 
0 
-0.02605719228056543 
0 
0 
0 
0 
0.8091875990855016 
0 
0.04622047242604973 
1.724561849102515 
-0.005056835224409287 
0 
-0.215890395616052 
0 
-0.03646774762967005 
0 
0.04922297404160478 
0 
0 
0 
0 
0 
0 
-0.006133287603825136 
-0.09305144189536853 
-0.04923173987385214 
0.01455862673622134 
-0.0002030751124283887 
0.0110267541215143 
0.01101809789864494 
0 
0 
0.006313587646077927 
0 
0.006019974975514216 
0.01515013181443761 
0 
0 
-0.00126287180870386 
-0.407405747636527 
0 
0 
0.006334562578723114 
0 
0.1281830938072501 
0.00384341481059174 
0 
0.08327253685043209 
-0.01425122516107781 
0.03316872855081452 
0.001858076123958652 
0.04274859140100294 
0.1893870287381812 
0.006319131888011455 
0.00604497555237047 
0 
0 
0.2537501281513982 
0.003290293564952732 
0.09598367376144062 
0.005881056565558974 
0 
0.0171014942425917 
0 
0.2830615399605726 
-0.002876354972080597 
0 
0 
0 
0.03554966606689515 
0 
0 
-0.003632109133881869 
0 
0 
0 
0 
0 
0 
0.03450845601922264 
0.04219458460464198 
0.0006265550817380783 
0 
0 
0 
0 
0 
0 
0 
0.01018752652324445 
-0.1125746768136979 
0.09820532955742817 
0 
0 
0.07352862332101601 
0.2097204785853935 
0 
0 
0.01712220916438002 
0.1096588875921339 
0 
-0.02643778940809056 
0.02839973612167095 
0.1154134748633908 
0 
0.01400039130910797 
-0.00769202080336774 
0 
-0.06882359485595194 
-0.01716669146858429 
0.00474890340638599 
0 
-0.005527399013913176 
0 
0.02180217502508336 
-0.004232046614440825 
0 
0.01653663360513024 
0.1978229421837999 
0 
0 
-0.004214327488247634 
-0.1448716989720445 
0.01795799916746475 
0 
0 
0.0002036346094425375 
0 
0.1288801714006753 
0.0028416983755338 
0.008433412357857974 
0.00154490869752841 
0.02046984743726852 
0 
0 
0.03890040002525164 
-0.008292843355305281 
-0.07796608157222804 
0 
0 
0.2251236099705939 
0.002733731694735449 
0 
0 
0.05401457818533807 
0 
0.03053325952964816 
-0.06846068594523896 
0 
0 
0 
0 
0 
0 
0 
0 
0.04017285667651588 
0.05744560437539328 
0 
0.01106555812913369 
0 
0 
0 
0.1018855163701487 
0.00184852247569472 
0 
0.02233289545621694 
-0.03568136485144657 
-0.1197973217282901 
0.02125445486250809 
-0.06423439432348384 
0.0008608861408533377 
0.1178176669732363 
0.04097046425187969 
0.1406503897398639 
0 
0 
0 
0.005759544165647519 
0 
-0.02374627341472464 
0.0131416090515576 
0.04994005905215366 
0.185823723653461 
0.00236572857783382 
-0.05287863241130306 
0.2652427115056796 
0.4627992736651235 
0 
0 
0.01382099306964479 
-0.01135891152568171 
1.442285759319679 
0.2050432732127304 
-0.08375917598246352 
0.0540239444814551 
0 
0.0001639602494881406 
0.1004421755666754 
0.01644764459558284 
1.206448825860343 
0.9301318027796447 
0.004054457103471723 
0.006094326111393482 
0.003579013448776525 
0.002342167844215711 
0.4305145124174226 
0.1502089027713858 
0.03380295013025757 
0.01339309911218054 
0.0238893708094924 
0.009494752616464427 
0.03214682679628395 
0.1017699891670368 
0 
0.08449718155265229 
0.001782733567050457 
-0.03412057513539703 
0.001334239580806514 
0.09383019305660231 
0.1688528579994865 
0.0783922666832399 
-0.0188718586391396 
0 
0.05437515396999204 
-0.04910610630345274 
-0.1995242757251356 
0.1009027829195869 
-1.533897581735111 
-0.00481718663747821 
0.3285007134626392 
-0.06294904966716665 
0 
-0.05414084621731849 
0 
0.02768097161477005 
0 
0.06954165795524955 
0.2284574269247963 
0.03333417896063142 
0 
0.007925212220645485 
-0.04502850151476006 
-0.08928591788440966 
0.1277152385839151 
-0.2846071316295017 
0.223949283107232 
0 
0.08424827498247814 
0 
0 
1.971001122439233 
-0.02595892782547748 
0.002643208411817031 
0.1954179513637012 
0.004233906419199475 
-0.03441119163876587 
-0.01649317352546411 
0 
0.001857343355020204 
0.08153716634742619 
0 
0.03887040036321107 
0.1441265650968964 
0.05268489166272101 
0.01741051791017819 
0.02912031418822329 
-0.0407215174667175 
0 
0.02953020186557783 
0 
0 
0 
0 
0.00714004551108297 
0 
0.1111949128320652 
0.03359110625529484 
0 
-0.5098234530108763 
0 
0.0004839548513178815 
0 
0.0197268444576546 
-0.2104856912617894 
0 
0.05858996896108085 
0 
0.008772761836697446 
0.01522189343129197 
0 
0 
-0.001344680603220072 
0.03460709814512784 
0.1919370384776274 
0 
0 
0 
0.07135073284794508 
0.01540101768896298 
0 
0.03892988404070515 
0 
0.7884995460175499 
0.1558337226855 
0 
0 
0 
0.09415069984419148 
0.06812028671510292 
0.4451752893220154 
0.001733941426876376 
0 
0 
0 
0.01012328235891284 
0 
0.3943562779826914 
0 
0 
0.1657865069747457 
0 
0 
0.1869399150195042 
0.002264296093173927 
0.01605579835361141 
0.05205905982431901 
0.1541515965589309 
0 
0.07705851643093205 
-0.0004136987493991942 
0.003721626547943209 
0 
0 
0 
0.008813070957327236 
-0.001601708065560973 
0 
0 
0 
0 
0 
0 
0 
0 
0 
0.04464752577165333 
0 
0 
0 
0 
0 
0 
0 
0 
0.01828515668736375 
0 
0 
0 
0 
0 
0 
0 
0 
0 
0 
0 
0 
0.009677061626861393 
0.002384146998394752 
0 
0.00576888766434919 
0 
0 
0.0008608861408533377 
0 
0 
0 
0 
0 
0 
0 
0 
0 
0.007223711164386617 
0 
0 
0 
0 
0 
0 
0 
0 
0 
0 
0 
0 
0.0008608861408533377 
0.01748867433340743 
0 
0 
0 
0 
0 
0 
0 
0 
0 
0 
0 
0.0156598188760831 
0 
0 
0 
0 
0 
0 
0 
0 
0 
0 
0 
0 
0 
0 
0 
0 
0.02024258511209153 
0 
0 
0 
0 
0 
0 
0 
0 
0 
0 
0 
0 
0 
0 
0 
0 
0 
0.0008608861408533377 
0 
0 
0 
0 
0 
0.01407153396592783 
0 
0 
0 
0 
0 
0 
0 
0 
0 
0 
0 
0.005511508278798374 
0 
0 
0.0003888001756599806 
0 
0 
0 
0 
0.00732091626925464 
0 
0 
0 
0.0008608861408533377 
0 
0 
0 
0 
0 
0 
0 
0.03253562885047995 
0 
0 
0 
0 
0 
0 
0 
0 
0 
0.02505819535394403 
-0.04986349369515717 
0 
0 
0 
0 
0.02897906397027123 
0.01874327026791069 
0 
0.003958502623523341 
0 
0.03505998634704081 
0 
0 
0 
0 
0 
0 
0 
0 
0 
0.05604149247267491 
0.02911533912609361 
0 
0 
0 
0 
0 
0.03978243772346506 
0 
0 
0 
0 
0 
0 
0 
0.0007001151751566105 
0 
0 
0 
0 
0 
0 
0 
0 
0 
0 
0 
0.0008608861408533377 
0 
0 
0 
0 
0.0008608861408533377 
0 
0 
0 
0.0008608861408533377 
0 
0 
0 
0 
0 
0 
0 
0 
0.001445034699681323 
0 
0.03299507020714969 
0 
0 
0 
0 
0 
0 
0 
0.06321465405907291 
0 
0.0005754474148821933 
0 
0 
0.01022508057720421 
0 
0.03302885225531827 
0 
-0.0483801450463727 
0 
0.08497602069879859 
0 
0.01235167997086605 
0.002359683443683275 
0.1150354331661559 
0.0397481084378532 
0.03822885931781002 
0 
0 
0.03051654593568392 
0.001821268828137409 
0.1494445816319919 
0 
0 
0.184491313469997 
0 
0 
0.03884084232521905 
-0.01950020181631897 
0 
0.09134699738967171 
0.03963954510565997 
0 
0 
0 
0.02076210988631898 
-0.03088094963273846 
0.06336338791946734 
0 
0 
-0.001821857208288033 
-0.03941976409228862 
0.01326684710073556 
0.0161890922781171 
-0.02991513831191692 
-0.04921208935621284 
0 
0 
0 
-0.5271165883767691 
0 
0.003506890758093799 
0.05720354233810247 
0 
0.4289379273519326 
-0.06910566508174561 
0 
0 
-0.004309213891462897 
0 
-0.04489108534665984 
0.03285409133267212 
0 
0.003031373992560926 
0 
0 
0 
0.05194534572496547 
0 
0.09119341591557749 
0 
0.006364331193949113 
0.0111495944275925 
0.02045537269783669 
0 
0 
0 
0.03303006891153913 
0 
0 
0.007342128380032934 
0 
0 
0 
0 
0.05606504874107895 
0 
0 
0.4870541529590446 
0 
0.04102403029752598 
-0.06895035048772469 
0 
0 
-0.08793273708446976 
0.100923647990381 
0.0551772489705477 
0.008422625577474075 
0.006374380105259739 
0.007884926521441007 
-0.06198401886643081 
0.1640008015012392 
0.006541240089389552 
0 
0.005386070508279602 
-0.03666085587746477 
0.00713845272221898 
0.02224200402460894 
-0.1597205169216513 
0 
0.02632162350178497 
-0.01457654345594891 
0.01243608525736147 
0 
0.05517151585164691 
0.01204798353351976 
0 
0.00049587959654775 
0 
0.2707384799739784 
0.1267911599611914 
0.01217684364417139 
0 
0 
0.1755058335280409 
-0.008411013378229975 
0.06182259205815911 
0.03837837343278383 
-0.005537644869389179 
0.1035753964076719 
0.1122873092377615 
-0.003650644552913063 
0.1411216105333101 
0.01244564839946023 
-0.0100652597279443 
0 
0 
0.07994733380910125 
0.0005888571137380217 
0 
-0.03439375711630918 
-0.04732543082280176 
0.362862782488458 
0 
-0.005130473012237619 
0 
0 
0 
0 
0 
0.03987509686095241 
0.2940155040579756 
-0.0146630520494326 
0 
0.0002036346094425375 
0.0229737344694583 
0 
-0.007935058513011031 
-0.05562787592506623 
0 
0 
-0.05182696435082058 
0 
0 
0.1431263651640981 
0.04968566018229113 
0.1813494923036972 
0.001664630157705216 
0.02528174839828196 
0.06377082431540602 
-0.001349321404091549 
-0.04556792459593575 
-0.002852818456981317 
0.1149080208033726 
0.02374463866774528 
0 
0.07731262892015425 
0 
0.01654849102395686 
0.002579899406240255 
0 
0.07883016210531207 
0 
0.06831108454355309 
0.009413739170360386 
0.007323120387118591 
0.1360380973703737 
0.7430833964530034 
0.1873017110092594 
0 
-0.02433733480930102 
0.3909487370681719 
-0.02292543446140729 
0 
0 
0 
0 
0.1060680231555408 
0 
0 
0 
-0.2264366430248896 
0 
0.02876755936407628 
0.01105564577739497 
0.05108841713272948 
0 
-0.01710014090066341 
0.07811030300127311 
0.02385994097673173 
0.003441471240256798 
0 
0.09074151243591976 
0.2432910572590803 
0.001145096218924111 
0 
0.04773113400082919 
-0.3757924340240013 
-0.001253786260312476 
0.00181233285276191 
0 
0 
0 
-0.1767558945499235 
0.0493581990373989 
0 
-0.002945888963480023 
0.003054318432810319 
0 
0.03042729822909059 
-0.0358209321354966 
0.03997613828243401 
0 
0.0417899658230946 
0 
-0.08450181842020625 
0.4171775165374084 
0.002315160090846866 
0.01041509751681215 
0.007798257141955791 
0.1026806828458916 
0.007069480811026863 
0.04647639746244738 
0.05905411818210991 
0.1280340067121913 
0 
0.04370179740007312 
0 
0 
0.07667019102787824 
0.5552967122312601 
0 
-0.03046740105458896 
0 
0.0768209206658854 
0 
0.01938680960887889 
0 
0.001655309785167922 
-0.0053999779946307 
0.04034427277485673 
0.03745075455588446 
0 
0 
0 
0.008610377535401203 
0.04592223649119636 
0.1754646774199798 
0.007833941839927947 
0 
0.001297306344665651 
0 
0 
0 
-0.05759271711137672 
-0.3020195793031999 
0 
-0.01328817032761006 
0 
0 
0.0007001151751566105 
0.1961760211003741 
0.6525496469378259 
0 
0.09697357712527534 
0.1026953520975398 
0.01341990427604319 
0 
0 
0.1645615240514739 
-0.02566470125468636 
0.03164576356151017 
-0.006185114550551893 
1.206597980463917 
0 
-0.02002928286937721 
0 
0.08719118096769782 
0 
0 
0 
0 
0 
-0.001638243682427658 
0 
0.08353545121624223 
0.01173119822550359 
0.03116411045603438 
0 
0 
0 
0 
-0.0224370295414705 
0 
0.0009889288174124988 
0.01946626242505379 
0 
0 
0 
0 
0 
0.07861507898370769 
0 
0 
0.01179153079151449 
0 
0 
0.07917949852354314 
0 
0.00236572857783382 
0.01064056586697831 
0 
0 
0.001633776662998793 
-0.004341155285829109 
0.02576540517854255 
0 
0.04133590238105266 
0.04175839239518866 
0.05002081713187553 
0.1423083905756212 
0.1691995805114951 
0 
0.004888315742018802 
0 
0 
0 
0 
0 
0 
-0.09071036707710772 
0 
0.01732493120127589 
0.04630854867250625 
0.1617736514774818 
0.001458369219610115 
0.01934317216697072 
-0.0514263104427328 
-0.002379788876486434 
0.07855861704126574 
0 
0 
0 
0 
0.003467867185952838 
0.008662440649843263 
0.03558772171153274 
0.05916917788369458 
0 
0 
-0.01172885542799228 
0 
0 
0 
0.03243691764728943 
0.2450823665074758 
0.001698175868097592 
0.04568094341449452 
0.005662409302736974 
0.03449734624195029 
0.00714004551108297 
0 
0 
0 
0 
0 
0.05145977327470583 
0.0113694999961941 
0.04860290012696278 
0 
0 
0.07094701926228286 
0.04147040394872581 
-0.02648486153339075 
0.07882719541588008 
0.0146799800698099 
0.1127692723551092 
0 
0.0008608861408533377 
0.01657372576714701 
0 
-0.02970986148458945 
0.03511881789516542 
0.2486856718964239 
0 
0.1606919156905784 
0.1564898485083478 
-0.6354565310507847 
0 
0.3062061457256175 
0 
0 
0 
0.0731762345351667 
0.00248372256975229 
0.00494743144093584 
0.02174359557628447 
0.1221360596074656 
0 
0 
-0.06339131081718455 
0 
0 
0.01501965416115465 
0 
0.4588169032867447 
0 
-0.04205997391069512 
0.3179574835509255 
0.02261341626027618 
0 
0.008192940863129621 
0.002386504235422787 
0.03745768078349102 
0 
0.09371954367436466 
0 
0 
0 
0.005645505946106663 
0 
0.2380631617004307 
0.04805272074550988 
0 
0.02444748399309231 
-0.0004136987493991942 
0 
-0.5813679934397633 
-0.09857129681257135 
0 
0 
0.001245933166399581 
0 
0.05531893440082061 
0 
0.03107422226630897 
0.06855622497931051 
0 
0 
0 
0.0006109038283276127 
0 
0 
0 
-0.6719475299536993 
-0.07362911442398928 
0.001358033090431251 
0 
0 
0.243939529033694 
0 
-0.7330023348550355 
0.1294575026502207 
0.05597106208356242 
0 
0 
0 
0 
0 
0.1235596705996683 
0 
0 
0.05588560680789289 
0.01867602112264558 
0.002319442196440707 
0.120837121868699 
0.006537622170125684 
0.04569507998290233 
0 
0.06602275692221007 
0 
0 
0 
0.001718288222369298 
0.001309722628628401 
0.01661825592428783 
0 
0 
0 
0.08868971438040042 
0 
0 
0 
0.5539314481224961 
0 
0.07379099971139025 
0 
0.003734826200514614 
0 
0 
0 
0.05012036529981909 
0.8686761807506623 
0.001039558168560345 
0 
0.212876926269384 
0.09400022960628086 
0 
-0.1202754224477384 
0.04799817233581678 
0.04799817233581678 
0.008341971579332442 
0 
0.03194385463373518 
0.2037152186544934 
-0.00600511554344198 
0 
0.01526662976482408 
0.0160702651475055 
0 
0 
0 
0.5493846514223132 
0.2193616629077248 
0.005526503798260025 
0.009214587715222041 
0 
0.03922217099471801 
0 
0 
-0.03852951246837635 
0.005165012507438183 
0 
0 
0.2335333254113404 
0 
-0.00168069278716617 
0 
0 
0 
0 
0 
0 
0.01362318029467385 
0.02252062803104793 
0 
0 
0.01696598921377697 
-0.03795920465690786 
0.02733685615744321 
0.005565146079774363 
0 
0 
0.03106196215250911 
0 
0.1125757526395478 
0.683174921009437 
0.05672346286078196 
0 
0.1488502620136037 
0.0009525619768469034 
0.04212451330616775 
-0.04202199902534206 
0.03152003402261936 
0 
-0.01188195951412683 
0 
0 
-0.005840323170711772 
0.02439815443541134 
0.01517312030827871 
0.9144636651457887 
0.0478145131648291 
1.84226631315758 
0.1215405053193289 
0 
0.03431438398513362 
0.1639429358941232 
0.0007017938357079318 
0 
0 
0 
-0.01012943915871397 
-0.07106512751846311 
0.06151509890270007 
0 
0 
0.1658035061106571 
0.003025874492101074 
0.01781679718827298 
-0.01931819366120863 
0.09938591473669109 
0.1047095961416584 
0 
0 
0 
0 
0.006099306871186304 
0.0130372931778735 
0.006714522007507933 
0 
0.04933008790422479 
0 
0 
0.06172231240666406 
0.1320510399717623 
-0.03184454583799262 
0 
-0.08949857398088944 
0 
0.004472045879742793 
0.03851654546888288 
-0.05875008724777381 
0.04539219815806893 
0.0008723323866647595 
0.03845930006809999 
0.01404486315943283 
0 
0 
0.0460815539609811 
0.04721711886123907 
0 
0.001721772281706675 
0.0007017938357079318 
0 
0 
-0.02985296687718624 
0 
0 
0 
0 
0.004362816394653036 
0 
0 
0 
0 
0 
0 
0 
0 
0.0565888222867 
0 
0 
0 
-0.103328787921705 
0.002038271968584021 
0 
0 
0 
0 
0.01219976355235878 
-0.0004136987493991942 
0 
0 
0.0008608861408533377 
0 
0 
0 
0.0007001151751566105 
0 
0 
0 
0 
0 
0 
0 
0 
0.0765186119168218 
0.0008608861408533377 
0 
0 
0 
0.0008608861408533377 
0 
0 
0.001721772281706675 
0 
0 
0 
0.0008608861408533377 
0 
0.02842950315786321 
0 
0 
0 
-0.03192327291621944 
0 
0 
0 
0.1491901913937174 
0 
0 
0 
0.0008608861408533377 
0 
0.01055296617985485 
0 
0 
0 
0 
0 
0 
0 
0 
0.0142630118372615 
0 
0 
0 
0 
0 
0 
0 
0 
0.102029607686723 
0 
0 
0 
0 
0.0008608861408533377 
0.6396021279503887 
0 
0 
0.04468768647249328 
0 
0 
0 
0.06717467073674642 
0.06257345648781014 
0 
0 
0 
0 
0 
0.0008608861408533377 
0 
0 
-0.02381207552920533 
0 
0 
0 
-0.04821658857410714 
0 
0 
0.001721772281706675 
0 
0.0008608861408533377 
0 
0 
0 
0.004230003468600498 
0 
0.02750025374910789 
0.01050245788549444 
0 
0 
0.006140251361896094 
0 
0.0008608861408533377 
0 
0 
0 
0 
0 
0 
0 
0.0356580096913709 
-0.0800449290007775 
0.08445667004762143 
0 
0 
0.0008608861408533377 
0.07849948213541136 
0 
0 
0 
0 
0 
0 
0.01964035957814719 
0.004065025757376769 
0 
0 
0 
-0.1260263025900604 
0 
0.041290559450885 
0 
0.07743107128134395 
-0.01705965225658081 
-0.003899359694609582 
0.0028416983755338 
0.003457793037151198 
0.009920257499124677 
0.03601744064436743 
0 
0.04464327202572221 
0 
-0.03181720176981508 
0 
0.001445034699681323 
0.01761956687880132 
0.04112760309857469 
0 
0.01493551791028612 
0.03932109207659608 
0 
0 
0.108654819971322 
0.04784052945739149 
0 
-0.1041818473837925 
0 
0 
0.02132190761147598 
0.02759816222354476 
-0.01143824956141887 
0.02527731735279015 
0.4093913382788164 
0.04721623776801648 
0.04624352442981527 
0 
0 
0 
0 
0.03091046894370533 
0 
0 
0 
0.02497461514647015 
-0.001093291651306343 
0.01447086438867015 
0 
0.0007035170639959743 
0.05660178414082798 
0 
0 
-0.004949408055201722 
0 
0.429110887061064 
0.120718512948444 
-0.001936788668220715 
0 
-0.01172197604521852 
0 
0.00771149461215777 
0.008563604662052013 
0.1476625180584774 
0 
0 
0 
-0.02749698947289399 
0 
-0.08270324672182409 
0 
-0.04383031287128639 
0.03990657237966248 
0.000407269218885075 
0 
0.006054386625705818 
-0.02363452067133664 
-0.06333968737046634 
0 
-0.0004136987493991942 
0 
0.1200927336469542 
0 
0 
0.03779429000837058 
0 
0 
0 
0 
0.0002036346094425375 
-0.05490386642426842 
0 
0 
0.004532926157481376 
0 
0 
0 
0 
0 
-0.455506569087241 
-0.004099979271700543 
0.02307718766145729 
0 
0 
0 
0.1070899815301152 
0.04216145300864026 
0 
-0.01765897940366429 
0 
0.116498786749645 
0.04624948622784997 
0.05263816381292601 
0 
0.006364721198919539 
0 
0 
-0.6254038758620418 
0 
0 
0 
0.03241846367967548 
0.05174426695488607 
0.09883106959162706 
0.005524796945797275 
-0.007678463254509895 
-0.0007794856819068498 
0 
0 
-0.02719611198370304 
0.01554054186354778 
0 
0 
0 
0 
0 
0 
0 
-0.004374442625392908 
0.02706481137951193 
0.0414991515747858 
0.01286494331867646 
0.00131326260331698 
-0.09005276529753253 
0.001810192181468087 
0.003285905412543329 
0.03461455431081911 
0 
0.04603991339105958 
0 
-0.1041597922051804 
0.002362701677743485 
0.01221697665135442 
0 
0 
0 
0.007391994665567073 
0 
0 
0 
0.05048179979533329 
0 
0.1381554272145668 
0.6718609765149844 
0.964774800324424 
0 
0 
0.03863379695401737 
0.01512257143776524 
-0.006193441668700118 
0.04667168787263808 
0 
0.008715076010065721 
0.04161055375250249 
0.06956310612310637 
0 
0 
0 
0.1330743434024223 
0 
0.04711523928182657 
0 
0.07303238463721742 
0.006320226484725774 
0 
0 
0.05306110464380047 
0 
0 
0 
-0.07619736263721444 
0 
0 
-0.06018302239656634 
0 
0 
0 
0 
0.5101169059392889 
0.5312292523017467 
-0.01889823530903008 
0 
0.1112184651412205 
0 
0.0007061626651324064 
-0.01442114442719775 
0 
0 
0 
0 
0 
0.03274246963899945 
0.2222485484397392 
-0.009445249828640843 
-0.009772452860274929 
0.02253414035156902 
0 
0.009255907346825808 
0 
0.5393645354662004 
1.686676603863439 
0.0535493393952792 
0.2378292812506607 
0.02458648832533077 
0 
0 
0.005266015869776631 
0.04869053460376792 
0.07447741957777047 
0 
0.1016258304669235 
0 
-0.03689950247947863 
0 
0 
0.09200661127070059 
0.1584098515611528 
0 
-0.001520360437034534 
0.02574548557212598 
0.3381286646517673 
0.2007831121711298 
0 
0 
0 
0 
0.1042881814252053 
0.004231459422810791 
0 
0 
0 
0.0150254932471082 
0 
0 
0 
0 
0.1914483614711271 
0.006106713702956583 
0 
0 
0 
0 
0 
0 
0.0008608861408533377 
-0.03150363320122315 
0 
0 
0 
0 
0.07043901359771607 
0 
0 
0 
0 
0.0005275251265875064 
-0.02791796131531636 
0 
0 
0.02248334544683247 
-0.01154953555205622 
0.1132058602400987 
0.004858823224826793 
-0.0120726834752627 
-0.03194399650706697 
0 
0 
0 
0 
0 
-0.02598753440780822 
0.006975409215944817 
0.07334046226176567 
0.08389149500257047 
-0.1689261915992177 
0 
-0.01374849473644699 
0 
0.09055788877662416 
0.1591829328247951 
0.0008608861408533377 
0.1324213373904111 
0.04253491878767612 
0 
-0.02021399426470748 
0 
0 
0 
-0.2439471960423598 
0.003506890758093799 
-0.03575902707954956 
0.03853561935953369 
0.006115756882178431 
0.002500087483355399 
0.04514679397894502 
0.2190407425606742 
0 
0.1456547510832827 
0 
0 
0.0348925482605032 
0 
0.2442921031124929 
0.00785931155839464 
0.09536729246120108 
0 
-0.02416614507964643 
-0.1893653685231221 
0.128954016448293 
-0.003622796460008643 
0 
0.006614470007354272 
0.1414334158256337 
0.02222091582463297 
-0.006199296562673194 
0 
0 
0 
0.01637481232393355 
0 
-0.002501251763843549 
0 
0.2193834480626001 
0 
0 
-0.09479301193498144 
0.001952156904950718 
0.2033602181022124 
0.2066501125112722 
0 
0 
0 
0.004559158817705335 
0.00131647348037736 
-0.07375287533200553 
0 
-0.06888585861447002 
-0.06888585861447002 
-0.06888585861447002 
0.05878143717066866 
0 
0 
0.0147889087190397 
-0.03444292930723501 
-0.02063596754008134 
-0.07975896068230041 
0.1110218978436657 
-0.002803931471572222 
0 
0 
0 
0.1623806275936119 
0.2142009285747511 
0.0003888001756599806 
0.005883943483924775 
0 
0.001859458052523865 
-0.02707014155332724 
0 
0 
0 
0.1273850654559829 
0 
0 
0 
0 
0 
0.05546509158751043 
-0.2010091297307625 
0 
0 
0 
0.05046816316543171 
0.2258868720301411 
0.08515952339789376 
0.004506368143403503 
-0.08448615077846737 
0 
0 
0 
0 
0.9627415510649321 
0 
-0.03182569168243261 
-0.006423335621047289 
0.04188440333243618 
0.02187197144416438 
0.0008608861408533377 
0.039101709274245 
0 
0.01567766954547835 
0 
0 
0 
0 
0 
0.05206549146281192 
0.02235035314451144 
-0.08319464158076705 
0.001542397993440629 
0.02487649648406402 
0 
0.009756798085997442 
0.009756798085997442 
0.03937105052157674 
0.09041134431581128 
0 
0.007809013642396922 
0.03752027755096428 
-0.004737457843085243 
0.003993133960094563 
-0.008044164640320222 
-0.01314335039372555 
-0.01314335039372555 
0.001336244111469676 
0 
0 
0.006815356367961783 
0.01851755967057741 
0 
0 
0.002775157783039433 
0 
0.01780385323524361 
0.03560770647048722 
0.3686140200542762 
0 
0 
0 
0.01889651442715402 
0.01318490006736162 
0 
0.007224115658717122 
0 
0 
-0.03610847554442804 
-0.03899753608644083 
0.03872539905167535 
0 
0 
0.0233997791102976 
-0.04023819727315159 
0 
0.003734056633035636 
0.003703097648894629 
0.0115084144926085 
0 
0.0602342405302039 
0.00428064974378845 
0.02419694148974753 
0 
0 
0 
0 
0 
0.1211803099730373 
0 
-1.093540014696766 
0.05824817406069165 
0.01455862673622134 
0 
0 
0.04009692069193825 
0.1798342895676806 
-0.06340140399963044 
0.0009030381903334687 
-0.01304732196258533 
0.004140478384057027 
0 
0 
0 
0.03826125870618799 
-0.006503983824963805 
-0.07062638759440702 
0.01864383035942646 
0.11270258491367 
0 
-0.02158486963451196 
0.01049131352703779 
0 
0.009567585205001571 
0 
0.05174211800618461 
0.0105504238076871 
0.06552988185168458 
0 
-0.0187044920186924 
0 
0 
0 
-0.05260155852211251 
0 
0.06025555218398517 
0.03545537435445447 
0 
0 
0.02309074306454975 
0.06069017125822118 
0 
0.1472632848749879 
0.07368201210448388 
0 
0 
0 
0 
0.1565784674632657 
0 
0 
0 
-0.0956337654872992 
0.0028416983755338 
0.3860460308442297 
-0.07775644088950294 
0.03493706113289743 
0 
0 
0 
0 
-0.005397285616366195 
0 
0 
0 
0 
0 
0 
0 
0 
0 
0.05857392319442777 
0 
0 
0 
0.0763160660596332 
0.1314696250067574 
-0.0169477953612216 
0 
0.04378071257813718 
0.08276837998414339 
0.02167703801559335 
0 
0 
0 
0.001613732268527881 
0 
0 
-0.1604581136144421 
0 
0 
